{
  "sizes": [
    220,
    32,
    16,
    15
  ],
  "layers": [
    {
      "w0": {},
      "w1": {},
      "w2": {},
      "w3": {},
      "w4": {},
      "w5": {},
      "w6": {},
      "w7": {},
      "w8": {},
      "w9": {},
      "w10": {},
      "w11": {},
      "w12": {},
      "w13": {},
      "w14": {},
      "w15": {},
      "w16": {},
      "w17": {},
      "w18": {},
      "w19": {},
      "w20": {},
      "w21": {},
      "w22": {},
      "w23": {},
      "w24": {},
      "w25": {},
      "w26": {},
      "w27": {},
      "w28": {},
      "w29": {},
      "w30": {},
      "w31": {},
      "w32": {},
      "w33": {},
      "w34": {},
      "w35": {},
      "w36": {},
      "w37": {},
      "w38": {},
      "w39": {},
      "w40": {},
      "w41": {},
      "w42": {},
      "w43": {},
      "w44": {},
      "w45": {},
      "w46": {},
      "w47": {},
      "w48": {},
      "w49": {},
      "w50": {},
      "w51": {},
      "w52": {},
      "w53": {},
      "w54": {},
      "w55": {},
      "w56": {},
      "w57": {},
      "w58": {},
      "w59": {},
      "w60": {},
      "w61": {},
      "w62": {},
      "w63": {},
      "w64": {},
      "w65": {},
      "w66": {},
      "w67": {},
      "w68": {},
      "w69": {},
      "w70": {},
      "w71": {},
      "w72": {},
      "w73": {},
      "w74": {},
      "w75": {},
      "w76": {},
      "w77": {},
      "w78": {},
      "w79": {},
      "w80": {},
      "w81": {},
      "w82": {},
      "w83": {},
      "w84": {},
      "w85": {},
      "w86": {},
      "w87": {},
      "w88": {},
      "w89": {},
      "w90": {},
      "w91": {},
      "w92": {},
      "w93": {},
      "w94": {},
      "w95": {},
      "w96": {},
      "w97": {},
      "w98": {},
      "w99": {},
      "w100": {},
      "w101": {},
      "w102": {},
      "w103": {},
      "w104": {},
      "w105": {},
      "w106": {},
      "w107": {},
      "w108": {},
      "w109": {},
      "w110": {},
      "w111": {},
      "w112": {},
      "w113": {},
      "w114": {},
      "w115": {},
      "w116": {},
      "w117": {},
      "w118": {},
      "w119": {},
      "w120": {},
      "w121": {},
      "w122": {},
      "w123": {},
      "w124": {},
      "w125": {},
      "w126": {},
      "w127": {},
      "w128": {},
      "w129": {},
      "w130": {},
      "w131": {},
      "w132": {},
      "w133": {},
      "w134": {},
      "w135": {},
      "w136": {},
      "w137": {},
      "w138": {},
      "w139": {},
      "w140": {},
      "w141": {},
      "w142": {},
      "w143": {},
      "w144": {},
      "w145": {},
      "w146": {},
      "w147": {},
      "w148": {},
      "w149": {},
      "w150": {},
      "w151": {},
      "w152": {},
      "w153": {},
      "w154": {},
      "w155": {},
      "w156": {},
      "w157": {},
      "w158": {},
      "w159": {},
      "w160": {},
      "w161": {},
      "w162": {},
      "w163": {},
      "w164": {},
      "w165": {},
      "w166": {},
      "w167": {},
      "w168": {},
      "w169": {},
      "w170": {},
      "w171": {},
      "w172": {},
      "w173": {},
      "w174": {},
      "w175": {},
      "w176": {},
      "w177": {},
      "w178": {},
      "w179": {},
      "w180": {},
      "w181": {},
      "w182": {},
      "w183": {},
      "w184": {},
      "w185": {},
      "w186": {},
      "w187": {},
      "w188": {},
      "w189": {},
      "w190": {},
      "w191": {},
      "w192": {},
      "w193": {},
      "w194": {},
      "w195": {},
      "w196": {},
      "w197": {},
      "w198": {},
      "w199": {},
      "w200": {},
      "w201": {},
      "w202": {},
      "w203": {},
      "w204": {},
      "w205": {},
      "w206": {},
      "w207": {},
      "w208": {},
      "w209": {},
      "w210": {},
      "w211": {},
      "w212": {},
      "w213": {},
      "w214": {},
      "w215": {},
      "w216": {},
      "w217": {},
      "w218": {},
      "w219": {}
    },
    {
      "0": {
        "bias": 0.3851361572742462,
        "weights": {
          "w0": -0.9167835116386414,
          "w1": 0.031180933117866516,
          "w2": -0.7973646521568298,
          "w3": -1.1334298849105835,
          "w4": -0.47188800573349,
          "w5": -0.6995350122451782,
          "w6": -0.902763307094574,
          "w7": -0.21329376101493835,
          "w8": -0.0869300439953804,
          "w9": -0.2939589321613312,
          "w10": 0.08104921877384186,
          "w11": 0.033135950565338135,
          "w12": -0.31656160950660706,
          "w13": -0.14709219336509705,
          "w14": -0.341987669467926,
          "w15": -0.5100562572479248,
          "w16": -0.5231428146362305,
          "w17": -0.19073304533958435,
          "w18": -0.5440643429756165,
          "w19": -0.3674083352088928,
          "w20": -0.3913927376270294,
          "w21": -0.47388604283332825,
          "w22": -0.505314290523529,
          "w23": -0.3515216112136841,
          "w24": -0.15383829176425934,
          "w25": 0.5564005374908447,
          "w26": -0.08597666025161743,
          "w27": -1.5498590469360352,
          "w28": -0.5798278450965881,
          "w29": -0.03306767717003822,
          "w30": 0.14188988506793976,
          "w31": -0.09324157983064651,
          "w32": 0.06020890548825264,
          "w33": -0.23431049287319183,
          "w34": 0.1543968915939331,
          "w35": -0.15304571390151978,
          "w36": 0.11871372163295746,
          "w37": 0.1881163865327835,
          "w38": -0.043089475482702255,
          "w39": -0.19617731869220734,
          "w40": 0.005395263433456421,
          "w41": 0.0718844085931778,
          "w42": 0.009159990586340427,
          "w43": -0.1387481987476349,
          "w44": 0.11450155079364777,
          "w45": -0.03239741921424866,
          "w46": 0.20885910093784332,
          "w47": 0.058021917939186096,
          "w48": -0.040565118193626404,
          "w49": -0.03651628643274307,
          "w50": -0.014884034171700478,
          "w51": -0.0694454237818718,
          "w52": 0.24699461460113525,
          "w53": 0.2965615689754486,
          "w54": 0.21179737150669098,
          "w55": 0.12964525818824768,
          "w56": 0.10466114431619644,
          "w57": 0.3780953586101532,
          "w58": 0.33235323429107666,
          "w59": 0.009561421349644661,
          "w60": 0.14666730165481567,
          "w61": 0.2630285918712616,
          "w62": 0.29889383912086487,
          "w63": 0.2582798898220062,
          "w64": -0.038921091705560684,
          "w65": 0.3724465072154999,
          "w66": 0.029985392466187477,
          "w67": 0.49776050448417664,
          "w68": -0.002718809060752392,
          "w69": 0.15338505804538727,
          "w70": 0.019499672576785088,
          "w71": 0.1383858472108841,
          "w72": 0.10631448030471802,
          "w73": 0.10234744101762772,
          "w74": 0.06543909013271332,
          "w75": 0.1612699031829834,
          "w76": 0.16703027486801147,
          "w77": 0.3579966723918915,
          "w78": 0.22965769469738007,
          "w79": 0.3987618684768677,
          "w80": 0.19694261252880096,
          "w81": 0.3141459822654724,
          "w82": 0.533405065536499,
          "w83": -0.41963991522789,
          "w84": 0.33640530705451965,
          "w85": 0.09451203048229218,
          "w86": 0.1434822827577591,
          "w87": 0.2913891673088074,
          "w88": 0.29755479097366333,
          "w89": -0.04134933650493622,
          "w90": 0.5115355253219604,
          "w91": 0.2571110129356384,
          "w92": 0.1857726275920868,
          "w93": 0.3953925371170044,
          "w94": 0.3294485807418823,
          "w95": 0.18460968136787415,
          "w96": 0.09806923568248749,
          "w97": 0.09314868599176407,
          "w98": 0.19731418788433075,
          "w99": 0.342074990272522,
          "w100": 0.10310588032007217,
          "w101": 0.143910750746727,
          "w102": 0.258552223443985,
          "w103": 0.028950072824954987,
          "w104": 0.1807553619146347,
          "w105": 0.22388668358325958,
          "w106": 0.2569449543952942,
          "w107": 0.3468683958053589,
          "w108": 0.3443252742290497,
          "w109": 0.001981518929824233,
          "w110": 0.018511593341827393,
          "w111": -0.07496970146894455,
          "w112": 0.18594899773597717,
          "w113": 0.05222376808524132,
          "w114": 0.1928357630968094,
          "w115": 0.06643270701169968,
          "w116": -0.01905503310263157,
          "w117": 0.08525283634662628,
          "w118": 0.1842028945684433,
          "w119": -0.1461796760559082,
          "w120": 0.28097954392433167,
          "w121": 0.030715683475136757,
          "w122": -0.07235407084226608,
          "w123": -0.0638628751039505,
          "w124": 0.13775290548801422,
          "w125": -0.00599055178463459,
          "w126": 0.09946253895759583,
          "w127": 0.21900956332683563,
          "w128": 0.12744417786598206,
          "w129": 0.07932720333337784,
          "w130": -0.33244118094444275,
          "w131": 0.02881484106183052,
          "w132": 0.08482857048511505,
          "w133": 0.044011086225509644,
          "w134": 0.18637768924236298,
          "w135": 0.10305055230855942,
          "w136": -0.2891513705253601,
          "w137": -0.04641713947057724,
          "w138": -0.043355297297239304,
          "w139": 0.171700581908226,
          "w140": -0.05285881087183952,
          "w141": 0.20040348172187805,
          "w142": 0.11148971319198608,
          "w143": -0.47020041942596436,
          "w144": -0.20475338399410248,
          "w145": -0.2244335114955902,
          "w146": 0.08975179493427277,
          "w147": -0.20567825436592102,
          "w148": -0.024921994656324387,
          "w149": -0.26305997371673584,
          "w150": -0.06006631255149841,
          "w151": -0.08168648183345795,
          "w152": -0.07507713884115219,
          "w153": 0.05436350405216217,
          "w154": 0.12178970128297806,
          "w155": -0.0663023442029953,
          "w156": -0.44424015283584595,
          "w157": -0.2040487825870514,
          "w158": -0.15441079437732697,
          "w159": -0.08072517812252045,
          "w160": 0.10868825018405914,
          "w161": -0.09576204419136047,
          "w162": -0.20060914754867554,
          "w163": -0.398794949054718,
          "w164": -0.06578325480222702,
          "w165": 0.045017264783382416,
          "w166": -0.13520507514476776,
          "w167": -0.3712565004825592,
          "w168": 0.10486803203821182,
          "w169": 0.0965004414319992,
          "w170": 0.07260412722826004,
          "w171": -0.13196013867855072,
          "w172": 0.07309538871049881,
          "w173": -0.32295772433280945,
          "w174": 0.23829956352710724,
          "w175": 0.10968925803899765,
          "w176": 0.027219099923968315,
          "w177": -0.24629323184490204,
          "w178": -0.1446387767791748,
          "w179": -0.23321126401424408,
          "w180": 0.06533879786729813,
          "w181": -0.03683392331004143,
          "w182": -0.44809871912002563,
          "w183": -0.06700952351093292,
          "w184": -0.4278128743171692,
          "w185": -0.9838433861732483,
          "w186": -0.47965437173843384,
          "w187": -0.5855420231819153,
          "w188": -0.39196398854255676,
          "w189": -0.06179113686084747,
          "w190": -0.0937601700425148,
          "w191": -0.07350711524486542,
          "w192": -0.15319938957691193,
          "w193": -0.5528107285499573,
          "w194": -0.5532119870185852,
          "w195": -0.3605523407459259,
          "w196": -0.3317171633243561,
          "w197": -0.4302647113800049,
          "w198": -0.11108608543872833,
          "w199": -0.5194644331932068,
          "w200": -0.45248115062713623,
          "w201": -0.542483389377594,
          "w202": -0.3461328148841858,
          "w203": 0.3522011339664459,
          "w204": -0.14942167699337006,
          "w205": 0.35708531737327576,
          "w206": -0.12440574169158936,
          "w207": -0.030634962022304535,
          "w208": -0.1438237726688385,
          "w209": -0.07298165559768677,
          "w210": 0.18400758504867554,
          "w211": 0.30827826261520386,
          "w212": 0.1209893450140953,
          "w213": 0.2902127206325531,
          "w214": -0.20015650987625122,
          "w215": 0.2539080083370209,
          "w216": 0.05048568546772003,
          "w217": 0.1521080583333969,
          "w218": 0.9228872060775757,
          "w219": 0.2701709568500519
        }
      },
      "1": {
        "bias": -0.19082504510879517,
        "weights": {
          "w0": 0.09514526277780533,
          "w1": -0.09939165413379669,
          "w2": -0.5454481840133667,
          "w3": -0.7167912125587463,
          "w4": -0.46710675954818726,
          "w5": -0.6939401626586914,
          "w6": -0.39536407589912415,
          "w7": 0.01655200682580471,
          "w8": -0.21013179421424866,
          "w9": 0.028848808258771896,
          "w10": -0.054157234728336334,
          "w11": -0.3057584762573242,
          "w12": 0.2558732330799103,
          "w13": -0.17178328335285187,
          "w14": -0.3257650136947632,
          "w15": -0.5385372042655945,
          "w16": -0.32908204197883606,
          "w17": -0.043192483484745026,
          "w18": -0.4891979992389679,
          "w19": -0.09118397533893585,
          "w20": -0.338936448097229,
          "w21": -0.27424249053001404,
          "w22": -0.25772976875305176,
          "w23": 0.04938950017094612,
          "w24": 0.3443435728549957,
          "w25": -0.020429212599992752,
          "w26": -0.02754848077893257,
          "w27": 0.22612866759300232,
          "w28": 0.44778546690940857,
          "w29": 0.14812801778316498,
          "w30": 0.3294539153575897,
          "w31": 0.8532635569572449,
          "w32": 0.6405365467071533,
          "w33": 0.4177587330341339,
          "w34": 0.0266650952398777,
          "w35": -0.1334792673587799,
          "w36": 0.21726325154304504,
          "w37": 0.03365671634674072,
          "w38": 0.25392794609069824,
          "w39": -0.0729801282286644,
          "w40": -0.0358598530292511,
          "w41": 0.2504066526889801,
          "w42": -0.03879234567284584,
          "w43": 0.12003117054700851,
          "w44": 0.006229929625988007,
          "w45": 0.0833912193775177,
          "w46": -0.09142892062664032,
          "w47": 0.2171236127614975,
          "w48": 0.1805553138256073,
          "w49": 0.48716235160827637,
          "w50": -0.02467460185289383,
          "w51": 0.1824909746646881,
          "w52": -0.31418633460998535,
          "w53": -0.11192863434553146,
          "w54": -0.12696853280067444,
          "w55": -0.049246884882450104,
          "w56": -0.3144287168979645,
          "w57": -0.18573854863643646,
          "w58": 0.15344400703907013,
          "w59": 0.12839631736278534,
          "w60": 0.08553401380777359,
          "w61": -0.2070275843143463,
          "w62": 0.024825362488627434,
          "w63": -0.03680380806326866,
          "w64": -0.30073702335357666,
          "w65": 0.10161086916923523,
          "w66": -0.17050662636756897,
          "w67": -0.2125716358423233,
          "w68": -0.16658324003219604,
          "w69": 0.018224334344267845,
          "w70": 0.15875791013240814,
          "w71": -0.11942629516124725,
          "w72": 0.07437323778867722,
          "w73": -0.09899863600730896,
          "w74": 0.21360276639461517,
          "w75": 0.10758164525032043,
          "w76": -0.26449882984161377,
          "w77": 0.06978665292263031,
          "w78": -0.09584176540374756,
          "w79": -0.016638601198792458,
          "w80": -0.16716569662094116,
          "w81": 0.15245626866817474,
          "w82": 0.08721698820590973,
          "w83": -0.13693948090076447,
          "w84": -0.0163850337266922,
          "w85": -0.03317989408969879,
          "w86": 0.19994857907295227,
          "w87": -0.13145336508750916,
          "w88": 0.1305285543203354,
          "w89": 0.19832715392112732,
          "w90": -0.07288097590208054,
          "w91": -0.03256746381521225,
          "w92": -0.17104296386241913,
          "w93": -0.10242756456136703,
          "w94": 0.07453031092882156,
          "w95": -0.04524973779916763,
          "w96": 0.09527631849050522,
          "w97": 0.15273231267929077,
          "w98": 0.10285211354494095,
          "w99": 0.14151442050933838,
          "w100": -0.13087952136993408,
          "w101": -0.13531719148159027,
          "w102": 0.09352204203605652,
          "w103": 0.014482343569397926,
          "w104": -0.1393793672323227,
          "w105": 0.06508346647024155,
          "w106": 0.10047794133424759,
          "w107": -0.36420738697052,
          "w108": -0.14960923790931702,
          "w109": 0.11598176509141922,
          "w110": -0.1156199648976326,
          "w111": -0.0900103971362114,
          "w112": -0.23387300968170166,
          "w113": -0.05581709370017052,
          "w114": 0.11171280592679977,
          "w115": -0.033835168927907944,
          "w116": -0.2078038454055786,
          "w117": -0.14743243157863617,
          "w118": 0.08345068246126175,
          "w119": 0.1037754938006401,
          "w120": -0.15787255764007568,
          "w121": 0.004262035246938467,
          "w122": -0.004760167561471462,
          "w123": -0.1877892166376114,
          "w124": 0.01063617318868637,
          "w125": 0.11542429029941559,
          "w126": 0.11623126268386841,
          "w127": -0.03729543462395668,
          "w128": 0.08886300027370453,
          "w129": 0.13626247644424438,
          "w130": 0.11961843073368073,
          "w131": -0.22922426462173462,
          "w132": 0.09960147738456726,
          "w133": -0.17596140503883362,
          "w134": -0.00962975062429905,
          "w135": -0.21394138038158417,
          "w136": -0.22048021852970123,
          "w137": -0.16739259660243988,
          "w138": -0.16558438539505005,
          "w139": 0.028422778472304344,
          "w140": 0.10765621811151505,
          "w141": 0.15036430954933167,
          "w142": -0.029303746297955513,
          "w143": -0.699231743812561,
          "w144": -0.6502453088760376,
          "w145": -0.4518546760082245,
          "w146": -0.2367686927318573,
          "w147": -0.1827801764011383,
          "w148": -0.11680878698825836,
          "w149": -0.20259332656860352,
          "w150": -0.23345623910427094,
          "w151": 0.14047200977802277,
          "w152": -0.20198355615139008,
          "w153": -0.1398971825838089,
          "w154": -0.06094297766685486,
          "w155": -0.21656720340251923,
          "w156": -0.12995381653308868,
          "w157": -0.1586674600839615,
          "w158": 0.0981839969754219,
          "w159": 0.058806486427783966,
          "w160": 0.20813323557376862,
          "w161": 0.15446476638317108,
          "w162": -0.3633827865123749,
          "w163": -0.05824965611100197,
          "w164": -0.17223340272903442,
          "w165": -0.03556152433156967,
          "w166": -0.04634588211774826,
          "w167": -0.21829324960708618,
          "w168": -0.06478215008974075,
          "w169": -0.35524195432662964,
          "w170": -0.15135100483894348,
          "w171": -0.15869809687137604,
          "w172": -0.05315832793712616,
          "w173": -0.0009277283097617328,
          "w174": -0.08976342529058456,
          "w175": 0.2926308512687683,
          "w176": 0.3769281208515167,
          "w177": 0.4070485830307007,
          "w178": 0.4877029359340668,
          "w179": 0.32973748445510864,
          "w180": 0.6085418462753296,
          "w181": 0.6570603251457214,
          "w182": 0.15895147621631622,
          "w183": 0.19214525818824768,
          "w184": 0.39765554666519165,
          "w185": 0.8281005024909973,
          "w186": 0.5113531351089478,
          "w187": 0.546951413154602,
          "w188": 0.16351641714572906,
          "w189": 0.04352625831961632,
          "w190": 0.3878404200077057,
          "w191": 0.07615446299314499,
          "w192": 0.16168171167373657,
          "w193": -0.47603777050971985,
          "w194": -0.27670180797576904,
          "w195": 0.0031817855779081583,
          "w196": -0.23325778543949127,
          "w197": 0.02163837105035782,
          "w198": 0.03975428640842438,
          "w199": -0.19540756940841675,
          "w200": -0.21823108196258545,
          "w201": 0.0684952512383461,
          "w202": 0.04729219898581505,
          "w203": 0.3609977066516876,
          "w204": 0.4542907178401947,
          "w205": 0.20936855673789978,
          "w206": 0.2347085028886795,
          "w207": 0.026188498362898827,
          "w208": 0.07368787378072739,
          "w209": 0.33710339665412903,
          "w210": 0.06162586435675621,
          "w211": 0.20614373683929443,
          "w212": 0.11773873120546341,
          "w213": 0.23614123463630676,
          "w214": 0.18665529787540436,
          "w215": 0.4026782214641571,
          "w216": 0.3576619029045105,
          "w217": 0.23506955802440643,
          "w218": 0.8345931768417358,
          "w219": -0.07926017791032791
        }
      },
      "2": {
        "bias": 0.33243852853775024,
        "weights": {
          "w0": -0.5822758674621582,
          "w1": -0.2726171612739563,
          "w2": -0.8985254764556885,
          "w3": -1.1716187000274658,
          "w4": -0.7252355217933655,
          "w5": -0.8128960132598877,
          "w6": -0.8370216488838196,
          "w7": -0.3622724711894989,
          "w8": -0.030609434470534325,
          "w9": -0.1728312075138092,
          "w10": 0.06872013956308365,
          "w11": -0.2679198384284973,
          "w12": -0.23226983845233917,
          "w13": -0.03762509301304817,
          "w14": -0.4601691663265228,
          "w15": -0.48334455490112305,
          "w16": -0.6845064163208008,
          "w17": -0.08827301114797592,
          "w18": -0.741986870765686,
          "w19": -0.17634382843971252,
          "w20": -0.4366205930709839,
          "w21": -0.5602362155914307,
          "w22": -0.43596017360687256,
          "w23": -0.14372175931930542,
          "w24": 0.2350464165210724,
          "w25": 0.35075587034225464,
          "w26": -0.06156754121184349,
          "w27": -1.4439029693603516,
          "w28": -0.2743358612060547,
          "w29": 0.08226443827152252,
          "w30": 0.5001654624938965,
          "w31": 0.5323915481567383,
          "w32": 0.266344279050827,
          "w33": 0.22050929069519043,
          "w34": 0.5585730671882629,
          "w35": -0.0404425710439682,
          "w36": 0.18184085190296173,
          "w37": -0.06444160640239716,
          "w38": -0.01948542147874832,
          "w39": -0.31907305121421814,
          "w40": 0.05055524781346321,
          "w41": -0.0696750283241272,
          "w42": -0.10562995821237564,
          "w43": -0.05562689155340195,
          "w44": 0.21661950647830963,
          "w45": -0.19217900931835175,
          "w46": -0.04089752584695816,
          "w47": -0.01306615024805069,
          "w48": -0.14548172056674957,
          "w49": 0.1841164082288742,
          "w50": -0.011918867938220501,
          "w51": -0.11599266529083252,
          "w52": 0.18557806313037872,
          "w53": 0.026666440069675446,
          "w54": 0.07707158476114273,
          "w55": -0.28278887271881104,
          "w56": -0.04020363464951515,
          "w57": 0.10792262852191925,
          "w58": 0.21548733115196228,
          "w59": -0.08012250810861588,
          "w60": 0.19005325436592102,
          "w61": -0.010146680288016796,
          "w62": 0.29363203048706055,
          "w63": -0.009006786160171032,
          "w64": -0.27422040700912476,
          "w65": 0.36194494366645813,
          "w66": 0.1483108401298523,
          "w67": 0.3962180018424988,
          "w68": 0.10723626613616943,
          "w69": 0.21110397577285767,
          "w70": 0.25030046701431274,
          "w71": -0.1419939249753952,
          "w72": 0.12870071828365326,
          "w73": -0.06548884510993958,
          "w74": 0.0964396670460701,
          "w75": -0.1290121078491211,
          "w76": -0.3417420983314514,
          "w77": 0.31676992774009705,
          "w78": 0.11471566557884216,
          "w79": 0.16963018476963043,
          "w80": -0.035216718912124634,
          "w81": 0.08310789614915848,
          "w82": 0.5831198692321777,
          "w83": -0.446243554353714,
          "w84": 0.2955588698387146,
          "w85": -0.07388503104448318,
          "w86": 0.3336977958679199,
          "w87": 0.39856526255607605,
          "w88": 0.1775229126214981,
          "w89": 0.09548912942409515,
          "w90": 0.19783063232898712,
          "w91": 0.349867045879364,
          "w92": 0.20099106431007385,
          "w93": 0.15279380977153778,
          "w94": 0.22630678117275238,
          "w95": 0.07084141671657562,
          "w96": 0.41395077109336853,
          "w97": -0.021168798208236694,
          "w98": 0.08359510451555252,
          "w99": 0.21992111206054688,
          "w100": 0.2502830922603607,
          "w101": 0.21782046556472778,
          "w102": 0.19991649687290192,
          "w103": 0.11655723303556442,
          "w104": 0.11962717026472092,
          "w105": 0.13955095410346985,
          "w106": 0.25097590684890747,
          "w107": -0.06839247792959213,
          "w108": -0.044073235243558884,
          "w109": -0.0530184805393219,
          "w110": 0.12713785469532013,
          "w111": -0.08674225956201553,
          "w112": 0.2323184460401535,
          "w113": 0.008552554063498974,
          "w114": 0.030240904539823532,
          "w115": 0.3356207013130188,
          "w116": 0.17158713936805725,
          "w117": 0.2023676037788391,
          "w118": 0.07546503096818924,
          "w119": -0.06886380165815353,
          "w120": 0.009322685189545155,
          "w121": 0.04571519047021866,
          "w122": -0.053809259086847305,
          "w123": 0.047366537153720856,
          "w124": -0.006760517600923777,
          "w125": 0.11529069393873215,
          "w126": 0.06512054055929184,
          "w127": 0.24227945506572723,
          "w128": 0.12137662619352341,
          "w129": 0.21775896847248077,
          "w130": -0.1772952824831009,
          "w131": 0.040955640375614166,
          "w132": 0.028228163719177246,
          "w133": 0.15933774411678314,
          "w134": 0.15282666683197021,
          "w135": -0.0761944055557251,
          "w136": -0.20037344098091125,
          "w137": 0.03705741837620735,
          "w138": 0.2314763218164444,
          "w139": 0.032133620232343674,
          "w140": -0.18444180488586426,
          "w141": 0.007264242507517338,
          "w142": -0.03467034175992012,
          "w143": -0.17286764085292816,
          "w144": -0.24962842464447021,
          "w145": -0.4021539092063904,
          "w146": -0.024590162560343742,
          "w147": -0.20080439746379852,
          "w148": -0.14992660284042358,
          "w149": -0.288486123085022,
          "w150": -0.15210193395614624,
          "w151": 0.17168106138706207,
          "w152": -0.33235689997673035,
          "w153": -0.050277113914489746,
          "w154": 0.17540432512760162,
          "w155": -0.13467931747436523,
          "w156": -0.7963224053382874,
          "w157": -0.5038048028945923,
          "w158": -0.4296993315219879,
          "w159": -0.287963330745697,
          "w160": 0.002931494964286685,
          "w161": -0.07781384140253067,
          "w162": -0.3495669364929199,
          "w163": -0.2538791000843048,
          "w164": -0.06456997990608215,
          "w165": -0.10667406767606735,
          "w166": -0.0908515602350235,
          "w167": -0.05044769123196602,
          "w168": -0.08254612982273102,
          "w169": -0.015927938744425774,
          "w170": 0.0060127959586679935,
          "w171": -0.05096442624926567,
          "w172": -0.08874073624610901,
          "w173": -0.08325768262147903,
          "w174": 0.0542895682156086,
          "w175": 0.2837846279144287,
          "w176": -0.08348947763442993,
          "w177": 0.18989242613315582,
          "w178": 0.01826942153275013,
          "w179": 0.11846770346164703,
          "w180": 0.021533045917749405,
          "w181": 0.4381483495235443,
          "w182": -0.39746466279029846,
          "w183": -0.1406053751707077,
          "w184": -0.06352502107620239,
          "w185": -0.3117799758911133,
          "w186": -0.1405017375946045,
          "w187": -0.1972752809524536,
          "w188": -0.2616690993309021,
          "w189": -0.12275879085063934,
          "w190": 0.06342991441488266,
          "w191": -0.050379328429698944,
          "w192": -0.13672514259815216,
          "w193": -0.576837956905365,
          "w194": -0.42718660831451416,
          "w195": -0.3818308115005493,
          "w196": -0.29894939064979553,
          "w197": -0.25541672110557556,
          "w198": -0.24896320700645447,
          "w199": -0.4226618707180023,
          "w200": -0.20241859555244446,
          "w201": -0.32171934843063354,
          "w202": -0.09805083274841309,
          "w203": 0.3765870928764343,
          "w204": 0.03584730997681618,
          "w205": 0.5844186544418335,
          "w206": 0.07253909111022949,
          "w207": 0.05978083983063698,
          "w208": 0.016184372827410698,
          "w209": -0.19756802916526794,
          "w210": 0.08233549445867538,
          "w211": 0.4086473286151886,
          "w212": 0.428629994392395,
          "w213": 0.18353787064552307,
          "w214": 0.19138599932193756,
          "w215": 0.19071732461452484,
          "w216": 0.13572615385055542,
          "w217": 0.30227336287498474,
          "w218": 0.32230737805366516,
          "w219": 0.0374203659594059
        }
      },
      "3": {
        "bias": -0.32466763257980347,
        "weights": {
          "w0": 1.3695292472839355,
          "w1": -0.3107758164405823,
          "w2": 0.6527597308158875,
          "w3": 0.8653292059898376,
          "w4": 0.37810027599334717,
          "w5": 0.5923667550086975,
          "w6": 0.9554057121276855,
          "w7": 0.20958882570266724,
          "w8": -0.03450407460331917,
          "w9": 0.18538238108158112,
          "w10": -0.060501791536808014,
          "w11": 0.16434186697006226,
          "w12": 0.5345193147659302,
          "w13": 0.04624636471271515,
          "w14": 0.16836950182914734,
          "w15": 0.45153993368148804,
          "w16": 0.7168590426445007,
          "w17": 0.12187895178794861,
          "w18": 0.558674693107605,
          "w19": 0.40815243124961853,
          "w20": 0.4549887180328369,
          "w21": 0.3618062138557434,
          "w22": 0.24290047585964203,
          "w23": 0.18852058053016663,
          "w24": 0.37036001682281494,
          "w25": -0.3832515776157379,
          "w26": -0.1172761395573616,
          "w27": 1.2699432373046875,
          "w28": 0.8561259508132935,
          "w29": -0.014000977389514446,
          "w30": -0.4231477379798889,
          "w31": -0.15558665990829468,
          "w32": -0.2505017817020416,
          "w33": 0.006918380036950111,
          "w34": -0.6874658465385437,
          "w35": -0.030726589262485504,
          "w36": 0.0438988097012043,
          "w37": -0.17302833497524261,
          "w38": -0.015644770115613937,
          "w39": 0.12204046547412872,
          "w40": -0.18429994583129883,
          "w41": 0.0484335720539093,
          "w42": 0.24728047847747803,
          "w43": 0.07892130315303802,
          "w44": -0.15573181211948395,
          "w45": 0.10025545209646225,
          "w46": 0.18058525025844574,
          "w47": 0.063960500061512,
          "w48": 0.31406980752944946,
          "w49": -0.027358433231711388,
          "w50": 0.08202877640724182,
          "w51": -0.013832012191414833,
          "w52": -0.18297334015369415,
          "w53": -0.12275867164134979,
          "w54": -0.15133734047412872,
          "w55": 0.23421695828437805,
          "w56": -0.19477339088916779,
          "w57": -0.47063079476356506,
          "w58": -0.06520946323871613,
          "w59": -0.1693657636642456,
          "w60": -0.3115341365337372,
          "w61": -0.3475545644760132,
          "w62": -0.13850192725658417,
          "w63": -0.17481577396392822,
          "w64": 0.45341768860816956,
          "w65": -0.1917107105255127,
          "w66": -0.16872337460517883,
          "w67": -0.5562750101089478,
          "w68": 0.037830647081136703,
          "w69": -0.11460745334625244,
          "w70": -0.0790761262178421,
          "w71": 0.1445557177066803,
          "w72": -0.0030494453385472298,
          "w73": -0.08711297810077667,
          "w74": -0.2675076127052307,
          "w75": -0.2257395088672638,
          "w76": -0.05021659657359123,
          "w77": -0.0548759363591671,
          "w78": -0.2891333997249603,
          "w79": -0.3734571933746338,
          "w80": 0.022406375035643578,
          "w81": -0.25391915440559387,
          "w82": -0.6467443108558655,
          "w83": 0.42088139057159424,
          "w84": -0.06579645723104477,
          "w85": -0.20025013387203217,
          "w86": -0.23863525688648224,
          "w87": -0.39493685960769653,
          "w88": -0.48676541447639465,
          "w89": 0.07481706887483597,
          "w90": -0.5408009886741638,
          "w91": -0.427990198135376,
          "w92": -0.31252792477607727,
          "w93": -0.3700702488422394,
          "w94": -0.2928188443183899,
          "w95": -0.12591804563999176,
          "w96": -0.2981056272983551,
          "w97": -0.032710690051317215,
          "w98": -0.10300609469413757,
          "w99": -0.19023576378822327,
          "w100": -0.05912315100431442,
          "w101": -0.2948214113712311,
          "w102": -0.18739725649356842,
          "w103": -0.06013377383351326,
          "w104": -0.36761581897735596,
          "w105": 0.042204901576042175,
          "w106": -0.03250928223133087,
          "w107": -0.20737120509147644,
          "w108": -0.3051585853099823,
          "w109": -0.10405803471803665,
          "w110": -0.3027431070804596,
          "w111": 0.0460624024271965,
          "w112": -0.3095845580101013,
          "w113": -0.009846962057054043,
          "w114": -0.19383184611797333,
          "w115": -0.17404040694236755,
          "w116": -0.3017902672290802,
          "w117": -0.2640721797943115,
          "w118": -0.15126189589500427,
          "w119": -0.017909295856952667,
          "w120": -0.2097793072462082,
          "w121": 0.06577061861753464,
          "w122": -0.00011633251415332779,
          "w123": -0.07960952818393707,
          "w124": -0.12787704169750214,
          "w125": -0.05059610679745674,
          "w126": -0.16569876670837402,
          "w127": 0.03527981787919998,
          "w128": -0.08533662557601929,
          "w129": -0.09476620703935623,
          "w130": 0.20322224497795105,
          "w131": -0.41788923740386963,
          "w132": -0.00581484567373991,
          "w133": -0.27634692192077637,
          "w134": 0.05261111631989479,
          "w135": -0.17298148572444916,
          "w136": 0.30412063002586365,
          "w137": 0.06722769141197205,
          "w138": -0.2221744954586029,
          "w139": -0.11863617599010468,
          "w140": 0.09612534195184708,
          "w141": -0.07534830272197723,
          "w142": -0.055529650300741196,
          "w143": 0.07217029482126236,
          "w144": -0.014095038175582886,
          "w145": -0.12137079238891602,
          "w146": -0.11018148064613342,
          "w147": 0.24524326622486115,
          "w148": 0.10259061306715012,
          "w149": 0.18541665375232697,
          "w150": 0.14296038448810577,
          "w151": -0.10847972333431244,
          "w152": 0.1821429431438446,
          "w153": -0.08094356954097748,
          "w154": -0.009674244560301304,
          "w155": 0.25356197357177734,
          "w156": 0.012576238252222538,
          "w157": 0.32266342639923096,
          "w158": 0.14314225316047668,
          "w159": 0.25297003984451294,
          "w160": 0.008898463100194931,
          "w161": 0.07452981919050217,
          "w162": 0.4548405706882477,
          "w163": 0.16664861142635345,
          "w164": 0.3049800992012024,
          "w165": 0.2245578020811081,
          "w166": 0.13354206085205078,
          "w167": 0.24783162772655487,
          "w168": 0.12059097737073898,
          "w169": 0.5772433280944824,
          "w170": 0.1075294241309166,
          "w171": 0.22227466106414795,
          "w172": 0.13977043330669403,
          "w173": 0.46947434544563293,
          "w174": 0.055097032338380814,
          "w175": -0.21713973581790924,
          "w176": 0.2554730474948883,
          "w177": 0.10838208347558975,
          "w178": 0.04172126576304436,
          "w179": -0.09105443209409714,
          "w180": 0.136496901512146,
          "w181": -0.04805880784988403,
          "w182": 0.055232252925634384,
          "w183": 0.2776796519756317,
          "w184": -0.032651957124471664,
          "w185": 0.7952625751495361,
          "w186": 0.47855687141418457,
          "w187": 0.6790677905082703,
          "w188": 0.25278228521347046,
          "w189": 0.32999274134635925,
          "w190": 0.1401394158601761,
          "w191": -0.025143807753920555,
          "w192": -0.058492302894592285,
          "w193": -0.18176424503326416,
          "w194": 0.3292594850063324,
          "w195": -0.07492311298847198,
          "w196": -0.09610720723867416,
          "w197": 0.0976816937327385,
          "w198": -0.032481640577316284,
          "w199": -0.01562579721212387,
          "w200": 0.03414300084114075,
          "w201": 0.5823734998703003,
          "w202": 0.4334760904312134,
          "w203": -0.012324288487434387,
          "w204": 0.5822957754135132,
          "w205": -0.06267505884170532,
          "w206": 0.3203549087047577,
          "w207": 0.1412769854068756,
          "w208": 0.056468408554792404,
          "w209": 0.027701232582330704,
          "w210": -0.0750906839966774,
          "w211": 0.02586086466908455,
          "w212": -0.10853692144155502,
          "w213": -0.030675610527396202,
          "w214": 0.07154858112335205,
          "w215": 0.06869300454854965,
          "w216": 0.05175090953707695,
          "w217": -0.23323996365070343,
          "w218": 0.7460236549377441,
          "w219": 0.07885083556175232
        }
      },
      "4": {
        "bias": 0.36165910959243774,
        "weights": {
          "w0": -1.230347990989685,
          "w1": 0.3676950931549072,
          "w2": -0.8943773508071899,
          "w3": -1.3482725620269775,
          "w4": -0.5646467208862305,
          "w5": -0.5756439566612244,
          "w6": -0.917094349861145,
          "w7": 0.050143856555223465,
          "w8": -0.18789371848106384,
          "w9": 0.06105734780430794,
          "w10": 0.27660101652145386,
          "w11": -0.26101839542388916,
          "w12": -0.5712760090827942,
          "w13": -0.036640703678131104,
          "w14": -0.22021663188934326,
          "w15": -0.875939667224884,
          "w16": -0.8846448063850403,
          "w17": -0.27069175243377686,
          "w18": -0.895279049873352,
          "w19": -0.345743864774704,
          "w20": -0.6314785480499268,
          "w21": -0.5751409530639648,
          "w22": -0.5570618510246277,
          "w23": -0.32725200057029724,
          "w24": 0.001667891163378954,
          "w25": 0.8020161986351013,
          "w26": 0.08262351155281067,
          "w27": 0.09445001184940338,
          "w28": -1.265849232673645,
          "w29": 0.5674759149551392,
          "w30": 0.6970423460006714,
          "w31": -0.3480071425437927,
          "w32": -0.4176817238330841,
          "w33": -0.19037273526191711,
          "w34": 1.0349798202514648,
          "w35": 0.027279501780867577,
          "w36": 0.22346913814544678,
          "w37": 0.3789932131767273,
          "w38": -0.503466784954071,
          "w39": -0.14633843302726746,
          "w40": 0.3325618505477905,
          "w41": 0.353558212518692,
          "w42": 0.035609327256679535,
          "w43": 0.10401492565870285,
          "w44": 0.20927663147449493,
          "w45": -0.18507148325443268,
          "w46": 0.22393345832824707,
          "w47": 0.17538832128047943,
          "w48": 0.05834534764289856,
          "w49": -0.2469673752784729,
          "w50": 0.2031058371067047,
          "w51": 0.035704515874385834,
          "w52": -0.0514749139547348,
          "w53": 0.45637041330337524,
          "w54": 0.39085888862609863,
          "w55": -0.012882409617304802,
          "w56": 0.2746516168117523,
          "w57": 0.36381247639656067,
          "w58": 0.3600611388683319,
          "w59": 0.08450602740049362,
          "w60": 0.20561985671520233,
          "w61": 0.24841231107711792,
          "w62": 0.3507709801197052,
          "w63": 0.2649427652359009,
          "w64": 0.1003664880990982,
          "w65": 0.6850830316543579,
          "w66": 0.25503304600715637,
          "w67": 0.5193725228309631,
          "w68": -0.09933371841907501,
          "w69": 0.20258177816867828,
          "w70": 0.14560936391353607,
          "w71": 0.014548209495842457,
          "w72": 0.23752059042453766,
          "w73": -0.02749624289572239,
          "w74": 0.6208966374397278,
          "w75": 0.0008303645299747586,
          "w76": -0.727341890335083,
          "w77": 0.27863848209381104,
          "w78": 0.30088359117507935,
          "w79": 0.40566155314445496,
          "w80": -0.13666749000549316,
          "w81": 0.46338051557540894,
          "w82": 1.1517716646194458,
          "w83": -0.9046695828437805,
          "w84": 0.39571574330329895,
          "w85": -0.582874596118927,
          "w86": 0.5618377923965454,
          "w87": 0.6172741651535034,
          "w88": 0.5410482287406921,
          "w89": 0.05754725635051727,
          "w90": 0.24909791350364685,
          "w91": 0.4694603979587555,
          "w92": 0.44389608502388,
          "w93": 0.4658466577529907,
          "w94": 1.0763977766036987,
          "w95": 0.4065191149711609,
          "w96": 0.48388147354125977,
          "w97": -0.10907454788684845,
          "w98": 0.3974822163581848,
          "w99": 0.14888624846935272,
          "w100": 0.33639076352119446,
          "w101": 0.46192246675491333,
          "w102": 0.21563830971717834,
          "w103": 0.26860398054122925,
          "w104": 0.43414852023124695,
          "w105": 0.19764330983161926,
          "w106": 0.30289822816848755,
          "w107": 0.25149005651474,
          "w108": 0.10933393985033035,
          "w109": -0.03162899985909462,
          "w110": 0.16025321185588837,
          "w111": 0.16474999487400055,
          "w112": 0.19539164006710052,
          "w113": 0.3941025137901306,
          "w114": 0.0552009753882885,
          "w115": 0.17425590753555298,
          "w116": 0.04753987491130829,
          "w117": 0.07605589181184769,
          "w118": 0.13751211762428284,
          "w119": 0.20544575154781342,
          "w120": 0.04314780235290527,
          "w121": 0.022972963750362396,
          "w122": 0.31494733691215515,
          "w123": -0.002686441643163562,
          "w124": 0.14519020915031433,
          "w125": 0.32339370250701904,
          "w126": 0.1646529734134674,
          "w127": 0.006629292853176594,
          "w128": 0.22104722261428833,
          "w129": 0.22194257378578186,
          "w130": -0.1299206167459488,
          "w131": 0.4114499092102051,
          "w132": 0.16141796112060547,
          "w133": -0.09922581166028976,
          "w134": 0.22832725942134857,
          "w135": 0.31229618191719055,
          "w136": -0.31860482692718506,
          "w137": 0.252998024225235,
          "w138": 0.3302731513977051,
          "w139": 0.28741228580474854,
          "w140": -0.21028296649456024,
          "w141": 0.027764905244112015,
          "w142": 0.07582882791757584,
          "w143": -1.210540771484375,
          "w144": -1.3942821025848389,
          "w145": -1.394241452217102,
          "w146": -0.33302855491638184,
          "w147": -0.46321070194244385,
          "w148": -0.5446966290473938,
          "w149": -0.6878333687782288,
          "w150": -0.7594587802886963,
          "w151": 0.07740958034992218,
          "w152": -1.0739089250564575,
          "w153": -0.06607459485530853,
          "w154": -0.18143205344676971,
          "w155": -0.53936368227005,
          "w156": 0.6864787340164185,
          "w157": 0.1848946511745453,
          "w158": 0.15620076656341553,
          "w159": 0.4473492503166199,
          "w160": 0.1884123831987381,
          "w161": 0.07263080775737762,
          "w162": -0.3767378628253937,
          "w163": -0.38376733660697937,
          "w164": -0.15587733685970306,
          "w165": 0.027801990509033203,
          "w166": -0.31418243050575256,
          "w167": -0.19571958482265472,
          "w168": 0.0782274454832077,
          "w169": -0.3712424337863922,
          "w170": -0.2345104217529297,
          "w171": -0.16315259039402008,
          "w172": 0.005259509198367596,
          "w173": -0.5236989259719849,
          "w174": 0.038933731615543365,
          "w175": -0.21079207956790924,
          "w176": -0.10571875423192978,
          "w177": -0.25429192185401917,
          "w178": -0.24982532858848572,
          "w179": -0.08237390965223312,
          "w180": -0.34120291471481323,
          "w181": -0.040838684886693954,
          "w182": -0.24357569217681885,
          "w183": -0.011202346533536911,
          "w184": -0.045735061168670654,
          "w185": 0.0620274543762207,
          "w186": -0.10731640458106995,
          "w187": -0.12755584716796875,
          "w188": 0.057217732071876526,
          "w189": 0.15907785296440125,
          "w190": 0.18687161803245544,
          "w191": -0.1546822339296341,
          "w192": -0.11885756254196167,
          "w193": -0.28815776109695435,
          "w194": -0.1440301239490509,
          "w195": -0.18231895565986633,
          "w196": -0.28719884157180786,
          "w197": -0.0960846021771431,
          "w198": -0.040560394525527954,
          "w199": -0.2779409885406494,
          "w200": -0.3273732364177704,
          "w201": -0.4101880192756653,
          "w202": -0.28387150168418884,
          "w203": 0.3098192512989044,
          "w204": -0.5204277038574219,
          "w205": 0.1652420312166214,
          "w206": -0.08413510024547577,
          "w207": -0.24341662228107452,
          "w208": -0.30092817544937134,
          "w209": -0.21537157893180847,
          "w210": -0.14856570959091187,
          "w211": 0.027972187846899033,
          "w212": 0.09768682718276978,
          "w213": 0.14547142386436462,
          "w214": 0.06305878609418869,
          "w215": 0.16721591353416443,
          "w216": 0.0924757868051529,
          "w217": 0.15909504890441895,
          "w218": 0.9340788722038269,
          "w219": 0.08833882212638855
        }
      },
      "5": {
        "bias": 0.1077495589852333,
        "weights": {
          "w0": -0.9481740593910217,
          "w1": -0.03380438685417175,
          "w2": 0.021555902436375618,
          "w3": -0.45044979453086853,
          "w4": -0.03158535808324814,
          "w5": 0.007890447042882442,
          "w6": -0.2181410789489746,
          "w7": 0.008434143848717213,
          "w8": 0.1935400515794754,
          "w9": -0.21254892647266388,
          "w10": -0.043200068175792694,
          "w11": 0.02626235969364643,
          "w12": -0.05878618732094765,
          "w13": 0.17369680106639862,
          "w14": 0.061256349086761475,
          "w15": 0.12351571023464203,
          "w16": -0.008317499421536922,
          "w17": 0.03148297965526581,
          "w18": -0.007330524269491434,
          "w19": 0.13190504908561707,
          "w20": 0.011868217028677464,
          "w21": -0.10969707369804382,
          "w22": -0.03661021590232849,
          "w23": -0.008670631796121597,
          "w24": -0.23179471492767334,
          "w25": -0.08175120502710342,
          "w26": 0.11667042970657349,
          "w27": -1.06438410282135,
          "w28": -0.522968590259552,
          "w29": -0.13700012862682343,
          "w30": 0.017389072105288506,
          "w31": -0.18121309578418732,
          "w32": -0.28087109327316284,
          "w33": -0.1906246840953827,
          "w34": -0.08349301666021347,
          "w35": -0.26194825768470764,
          "w36": -0.13095204532146454,
          "w37": -0.09636293351650238,
          "w38": -0.11239877343177795,
          "w39": -0.2681935131549835,
          "w40": 0.05723985284566879,
          "w41": -0.21570304036140442,
          "w42": -0.20399349927902222,
          "w43": -0.22772467136383057,
          "w44": -0.061948806047439575,
          "w45": -0.08889956772327423,
          "w46": 0.1474854052066803,
          "w47": -0.03935685753822327,
          "w48": -0.17200219631195068,
          "w49": -0.03375953063368797,
          "w50": 0.11428605020046234,
          "w51": 0.02084491029381752,
          "w52": 0.04850488901138306,
          "w53": -0.13967591524124146,
          "w54": -0.07642760127782822,
          "w55": -0.004633113741874695,
          "w56": -0.10074194520711899,
          "w57": -0.06979844719171524,
          "w58": 0.07436072826385498,
          "w59": 0.14427916705608368,
          "w60": 0.25443321466445923,
          "w61": 0.24330244958400726,
          "w62": -0.024778472259640694,
          "w63": -0.03901280462741852,
          "w64": 0.12906619906425476,
          "w65": 0.07906969636678696,
          "w66": 0.11620273441076279,
          "w67": 0.2327100932598114,
          "w68": -0.03368289768695831,
          "w69": 0.17212499678134918,
          "w70": -0.06272905319929123,
          "w71": -0.11202457547187805,
          "w72": -0.04702702537178993,
          "w73": 0.040678415447473526,
          "w74": 0.2358992099761963,
          "w75": -0.07986639440059662,
          "w76": 0.18905052542686462,
          "w77": 0.23604044318199158,
          "w78": 0.2525472044944763,
          "w79": 0.02310674451291561,
          "w80": -0.13425549864768982,
          "w81": 0.08444515615701675,
          "w82": 0.14207610487937927,
          "w83": -0.08303698152303696,
          "w84": -0.1461075097322464,
          "w85": 0.17753607034683228,
          "w86": 0.1900484710931778,
          "w87": 0.1835065633058548,
          "w88": 0.33127668499946594,
          "w89": 0.17405623197555542,
          "w90": 0.08221594989299774,
          "w91": 0.0626104474067688,
          "w92": 0.31417131423950195,
          "w93": -0.09093886613845825,
          "w94": 0.05232672393321991,
          "w95": 0.0542699433863163,
          "w96": 0.24316535890102386,
          "w97": 0.20833978056907654,
          "w98": -0.08576660603284836,
          "w99": 0.04605333134531975,
          "w100": 0.16640286147594452,
          "w101": -0.10712799429893494,
          "w102": 0.13081523776054382,
          "w103": 0.02920042723417282,
          "w104": 0.012556632049381733,
          "w105": 0.11883426457643509,
          "w106": -0.09375663846731186,
          "w107": 0.05160265788435936,
          "w108": 0.027390899136662483,
          "w109": 0.12218166142702103,
          "w110": 0.13849030435085297,
          "w111": -0.12703223526477814,
          "w112": 0.11009890586137772,
          "w113": -0.0968252420425415,
          "w114": -0.08961144089698792,
          "w115": -0.09468139708042145,
          "w116": 0.21260273456573486,
          "w117": 0.03271350637078285,
          "w118": -0.05600956454873085,
          "w119": 0.14042970538139343,
          "w120": 0.025692880153656006,
          "w121": 0.06949165463447571,
          "w122": -0.1016024798154831,
          "w123": -0.10001522302627563,
          "w124": -0.021624865010380745,
          "w125": 0.18347114324569702,
          "w126": 0.15682834386825562,
          "w127": -0.04225927218794823,
          "w128": 0.057536277920007706,
          "w129": -0.08102072030305862,
          "w130": 0.15439608693122864,
          "w131": 0.02115381881594658,
          "w132": -0.14138786494731903,
          "w133": 0.08013968169689178,
          "w134": 0.09833931177854538,
          "w135": -0.0028496438171714544,
          "w136": -0.011243891902267933,
          "w137": -0.1269567459821701,
          "w138": -0.10264121741056442,
          "w139": -0.03118675947189331,
          "w140": -0.049758654087781906,
          "w141": 0.172922283411026,
          "w142": 0.0715591162443161,
          "w143": -0.016868138685822487,
          "w144": -0.012960786931216717,
          "w145": 0.03634415194392204,
          "w146": 0.10990142077207565,
          "w147": 0.22350794076919556,
          "w148": -0.0871986597776413,
          "w149": -0.077110156416893,
          "w150": 0.08452475816011429,
          "w151": -0.020625999197363853,
          "w152": 0.16809163987636566,
          "w153": -0.09456995874643326,
          "w154": 0.17414158582687378,
          "w155": -0.018054913729429245,
          "w156": -0.33229297399520874,
          "w157": -0.0032698982395231724,
          "w158": -0.2143242061138153,
          "w159": -0.3112472593784332,
          "w160": -0.11956648528575897,
          "w161": -0.0714355856180191,
          "w162": 0.03489101305603981,
          "w163": -0.19958850741386414,
          "w164": -0.23324216902256012,
          "w165": -0.05339205265045166,
          "w166": -0.13551127910614014,
          "w167": 0.06946002691984177,
          "w168": 0.19867514073848724,
          "w169": 0.2389298379421234,
          "w170": -0.16056790947914124,
          "w171": 0.06797613948583603,
          "w172": 0.0881437286734581,
          "w173": 0.16207446157932281,
          "w174": 0.2815786302089691,
          "w175": 0.06810543686151505,
          "w176": 0.043293729424476624,
          "w177": -0.19576480984687805,
          "w178": -0.2517455518245697,
          "w179": -0.061300840228796005,
          "w180": 0.01699254661798477,
          "w181": 0.014211853966116905,
          "w182": 0.014117066748440266,
          "w183": 0.03583551570773125,
          "w184": -0.44791504740715027,
          "w185": -0.7388906478881836,
          "w186": -0.7136797904968262,
          "w187": -0.5056943893432617,
          "w188": -0.14574016630649567,
          "w189": -0.18998059630393982,
          "w190": -0.33829477429389954,
          "w191": -0.018131153658032417,
          "w192": 0.07529103010892868,
          "w193": -0.0858558639883995,
          "w194": -0.04029390960931778,
          "w195": -0.008633743040263653,
          "w196": 0.1500173956155777,
          "w197": 0.19235920906066895,
          "w198": 0.04582010209560394,
          "w199": 0.2691503167152405,
          "w200": -0.12892766296863556,
          "w201": 0.2923353314399719,
          "w202": -0.06492634862661362,
          "w203": 0.13835754990577698,
          "w204": -0.31784871220588684,
          "w205": 0.11300335824489594,
          "w206": -0.15371818840503693,
          "w207": 0.07406049966812134,
          "w208": -0.24568496644496918,
          "w209": 0.020474012941122055,
          "w210": -0.027518171817064285,
          "w211": 0.09883485734462738,
          "w212": 0.012366618029773235,
          "w213": 0.1802680492401123,
          "w214": -0.2667720317840576,
          "w215": -0.07500264048576355,
          "w216": -0.06066272780299187,
          "w217": 0.08676470816135406,
          "w218": -0.11274441331624985,
          "w219": -0.0038032575976103544
        }
      },
      "6": {
        "bias": 0.3551380932331085,
        "weights": {
          "w0": -0.7970152497291565,
          "w1": -0.18432913720607758,
          "w2": -0.8447865843772888,
          "w3": -1.2693157196044922,
          "w4": -0.7208154201507568,
          "w5": -0.7414924502372742,
          "w6": -1.1465984582901,
          "w7": -0.2303875833749771,
          "w8": -0.264985054731369,
          "w9": -0.2239604890346527,
          "w10": -0.06748995184898376,
          "w11": -0.11517903208732605,
          "w12": -0.043926943093538284,
          "w13": -0.1335018277168274,
          "w14": -0.42577460408210754,
          "w15": -0.7359195351600647,
          "w16": -0.7509042620658875,
          "w17": -0.24836069345474243,
          "w18": -0.6487866640090942,
          "w19": -0.5271908640861511,
          "w20": -0.4803561568260193,
          "w21": -0.5833027362823486,
          "w22": -0.6616675853729248,
          "w23": -0.3097606301307678,
          "w24": 0.07273613661527634,
          "w25": 0.36661070585250854,
          "w26": 0.1345602124929428,
          "w27": -1.2490546703338623,
          "w28": -0.6244415044784546,
          "w29": -0.016560886055231094,
          "w30": 0.3360530436038971,
          "w31": 0.17807160317897797,
          "w32": 0.30528944730758667,
          "w33": -0.07218343764543533,
          "w34": 0.41617026925086975,
          "w35": -0.1534273624420166,
          "w36": -0.1486223340034485,
          "w37": 0.2527310848236084,
          "w38": -0.03172074630856514,
          "w39": -0.3614768087863922,
          "w40": 0.10009623318910599,
          "w41": -0.017748620361089706,
          "w42": -0.20741480588912964,
          "w43": -0.02912207506597042,
          "w44": 0.19744837284088135,
          "w45": -0.0786731019616127,
          "w46": 0.16335377097129822,
          "w47": -0.2924532890319824,
          "w48": -0.10656832158565521,
          "w49": -0.10863284021615982,
          "w50": 0.1236356869339943,
          "w51": 0.228221595287323,
          "w52": 0.37878167629241943,
          "w53": 0.09083563834428787,
          "w54": 0.19018049538135529,
          "w55": -0.1621658354997635,
          "w56": 0.04204636067152023,
          "w57": 0.45448336005210876,
          "w58": 0.09643524885177612,
          "w59": 0.08330058306455612,
          "w60": 0.06290527433156967,
          "w61": 0.3748277723789215,
          "w62": 0.38533222675323486,
          "w63": 0.2234417349100113,
          "w64": -0.2037503868341446,
          "w65": 0.3478609621524811,
          "w66": 0.2504201829433441,
          "w67": 0.36473798751831055,
          "w68": 0.21300967037677765,
          "w69": 0.113529734313488,
          "w70": 0.22019736468791962,
          "w71": -0.3058772087097168,
          "w72": 0.16661253571510315,
          "w73": -0.000765837961807847,
          "w74": 0.39848586916923523,
          "w75": -0.12046843022108078,
          "w76": -0.22870147228240967,
          "w77": 0.28566646575927734,
          "w78": 0.21374179422855377,
          "w79": 0.2444707453250885,
          "w80": -0.1139802485704422,
          "w81": 0.04386084899306297,
          "w82": 0.8859012722969055,
          "w83": -0.5799999833106995,
          "w84": 0.12145082652568817,
          "w85": -0.07979156821966171,
          "w86": 0.18578927218914032,
          "w87": 0.44674742221832275,
          "w88": 0.2617216110229492,
          "w89": 0.2018105536699295,
          "w90": 0.3371194303035736,
          "w91": 0.3902866244316101,
          "w92": 0.18536575138568878,
          "w93": 0.3165718913078308,
          "w94": 0.4540615975856781,
          "w95": 0.12934547662734985,
          "w96": 0.3086310923099518,
          "w97": 0.22097231447696686,
          "w98": 0.2628059387207031,
          "w99": 0.0894719585776329,
          "w100": 0.21851806342601776,
          "w101": 0.22058694064617157,
          "w102": 0.16422870755195618,
          "w103": 0.0925547331571579,
          "w104": 0.16826295852661133,
          "w105": -0.024887586012482643,
          "w106": 0.023481033742427826,
          "w107": 0.1285858303308487,
          "w108": 0.3338336944580078,
          "w109": -0.009344775229692459,
          "w110": 0.23281998932361603,
          "w111": 0.011307423003017902,
          "w112": 0.07862988859415054,
          "w113": 0.029223473742604256,
          "w114": 0.1269896775484085,
          "w115": 0.2679261267185211,
          "w116": 0.18907712399959564,
          "w117": 0.016107050701975822,
          "w118": 0.013443262316286564,
          "w119": -0.15865983068943024,
          "w120": 0.06583252549171448,
          "w121": 0.0694008469581604,
          "w122": 0.22473645210266113,
          "w123": 0.06388641893863678,
          "w124": -0.04330385476350784,
          "w125": -0.011864757165312767,
          "w126": 0.2033410519361496,
          "w127": 0.26748448610305786,
          "w128": 0.26559072732925415,
          "w129": -0.1429007351398468,
          "w130": -0.007048508618026972,
          "w131": 0.137211874127388,
          "w132": 0.024139869958162308,
          "w133": 0.1948665976524353,
          "w134": 0.2312067449092865,
          "w135": 0.06752447783946991,
          "w136": -0.46452581882476807,
          "w137": 0.08103261888027191,
          "w138": 0.17660090327262878,
          "w139": 0.11187338083982468,
          "w140": -0.1007348895072937,
          "w141": 0.18013323843479156,
          "w142": 0.14186817407608032,
          "w143": -0.5880428552627563,
          "w144": -0.603112518787384,
          "w145": -0.49091866612434387,
          "w146": -0.127574160695076,
          "w147": -0.21829506754875183,
          "w148": -0.40331336855888367,
          "w149": -0.4484187662601471,
          "w150": -0.5201674103736877,
          "w151": -0.07973586767911911,
          "w152": -0.5440745949745178,
          "w153": -0.009336772374808788,
          "w154": -0.22564004361629486,
          "w155": -0.19760645925998688,
          "w156": -0.7548978328704834,
          "w157": -0.33547109365463257,
          "w158": -0.3803757429122925,
          "w159": -0.18727891147136688,
          "w160": -0.18962959945201874,
          "w161": -0.15982580184936523,
          "w162": -0.4875358045101166,
          "w163": -0.5175780057907104,
          "w164": -0.20501600205898285,
          "w165": -0.2251640260219574,
          "w166": -0.25859230756759644,
          "w167": -0.12742264568805695,
          "w168": -0.14221806824207306,
          "w169": 0.1160319522023201,
          "w170": -0.21877242624759674,
          "w171": 0.10892966389656067,
          "w172": 0.05513906106352806,
          "w173": -0.20400609076023102,
          "w174": 0.22558462619781494,
          "w175": -0.10260146111249924,
          "w176": 0.10966566950082779,
          "w177": -0.14538893103599548,
          "w178": 0.08114621788263321,
          "w179": -0.13810251653194427,
          "w180": -0.11989329755306244,
          "w181": 0.20055313408374786,
          "w182": -0.3847842216491699,
          "w183": 0.06378769874572754,
          "w184": -0.21144428849220276,
          "w185": -0.1611410677433014,
          "w186": -0.07124222815036774,
          "w187": -0.24295613169670105,
          "w188": 0.07906021177768707,
          "w189": -0.0792727842926979,
          "w190": 0.18893499672412872,
          "w191": 0.06565798074007034,
          "w192": -0.050967369228601456,
          "w193": -0.49246746301651,
          "w194": -0.3597061038017273,
          "w195": -0.4357970356941223,
          "w196": -0.6478942036628723,
          "w197": -0.4184916317462921,
          "w198": -0.021804984658956528,
          "w199": -0.1908448338508606,
          "w200": -0.3387361168861389,
          "w201": -0.5466923117637634,
          "w202": -0.17653971910476685,
          "w203": 0.6375905871391296,
          "w204": -0.08796708285808563,
          "w205": 0.6809015870094299,
          "w206": 0.35425832867622375,
          "w207": -0.16964033246040344,
          "w208": 0.02988567389547825,
          "w209": 0.09504958987236023,
          "w210": 0.28355470299720764,
          "w211": 0.4725770652294159,
          "w212": 0.1652807891368866,
          "w213": 0.25309455394744873,
          "w214": 0.1250644028186798,
          "w215": 0.460430383682251,
          "w216": 0.16798177361488342,
          "w217": 0.4573347568511963,
          "w218": 1.2847020626068115,
          "w219": 0.1010865867137909
        }
      },
      "7": {
        "bias": 0.15260054171085358,
        "weights": {
          "w0": -0.96397864818573,
          "w1": 0.25944310426712036,
          "w2": -0.7071883082389832,
          "w3": -0.9369148015975952,
          "w4": -0.6000654101371765,
          "w5": -0.5274759531021118,
          "w6": -0.8307393193244934,
          "w7": -0.08709029108285904,
          "w8": -0.346238911151886,
          "w9": -0.2055835723876953,
          "w10": -0.06406567990779877,
          "w11": -0.1516968011856079,
          "w12": -0.2059873789548874,
          "w13": -0.12359742820262909,
          "w14": -0.11895927786827087,
          "w15": -0.5767834782600403,
          "w16": -0.7069396376609802,
          "w17": -0.09002311527729034,
          "w18": -0.6749016642570496,
          "w19": -0.11701826006174088,
          "w20": -0.5286035537719727,
          "w21": -0.46010830998420715,
          "w22": -0.4967256486415863,
          "w23": -0.02768457867205143,
          "w24": -0.17851361632347107,
          "w25": 0.5196011662483215,
          "w26": -0.042637210339307785,
          "w27": -0.1361997276544571,
          "w28": -0.8922538161277771,
          "w29": 0.37684181332588196,
          "w30": 0.39322423934936523,
          "w31": 0.7007710933685303,
          "w32": 0.5141862034797668,
          "w33": 0.24539709091186523,
          "w34": 0.8429687023162842,
          "w35": 0.0028418346773833036,
          "w36": 0.17037034034729004,
          "w37": 0.2788912355899811,
          "w38": -0.20206013321876526,
          "w39": -0.011468881741166115,
          "w40": 0.2534337341785431,
          "w41": -0.0348905548453331,
          "w42": 0.2654532492160797,
          "w43": 0.07388105988502502,
          "w44": 0.006796571891754866,
          "w45": -0.02651742659509182,
          "w46": -0.25431811809539795,
          "w47": 0.1934243142604828,
          "w48": -0.1464599072933197,
          "w49": 0.23173166811466217,
          "w50": 0.14008839428424835,
          "w51": 0.021060507744550705,
          "w52": -0.07254502177238464,
          "w53": 0.06730042397975922,
          "w54": 0.28912949562072754,
          "w55": -0.3295176327228546,
          "w56": -0.04184085875749588,
          "w57": 0.04454083368182182,
          "w58": 0.22524335980415344,
          "w59": -0.13914521038532257,
          "w60": 0.04077839106321335,
          "w61": 0.14659827947616577,
          "w62": -0.06557783484458923,
          "w63": -0.03512053191661835,
          "w64": 0.02287142723798752,
          "w65": 0.14299577474594116,
          "w66": 0.09348953515291214,
          "w67": 0.16876398026943207,
          "w68": 0.009348349645733833,
          "w69": 0.19148392975330353,
          "w70": -0.01559019647538662,
          "w71": 0.06935912370681763,
          "w72": 0.008366330526769161,
          "w73": 0.02386884018778801,
          "w74": 0.3511398136615753,
          "w75": 0.07541638612747192,
          "w76": -0.4169701039791107,
          "w77": 0.03815355524420738,
          "w78": 0.16355638206005096,
          "w79": 0.012766134925186634,
          "w80": -0.1454034149646759,
          "w81": 0.38786205649375916,
          "w82": 0.8226987719535828,
          "w83": -0.5587047338485718,
          "w84": 0.35093796253204346,
          "w85": -0.3637315630912781,
          "w86": 0.05706409364938736,
          "w87": 0.39790526032447815,
          "w88": 0.38718464970588684,
          "w89": 0.25849834084510803,
          "w90": 0.2721947729587555,
          "w91": 0.17522427439689636,
          "w92": 0.1359749585390091,
          "w93": 0.12279163300991058,
          "w94": 0.5287612080574036,
          "w95": 0.16726139187812805,
          "w96": 0.15945960581302643,
          "w97": -0.060699231922626495,
          "w98": 0.3103843629360199,
          "w99": 0.22293607890605927,
          "w100": 0.0746195912361145,
          "w101": 0.12327084690332413,
          "w102": 0.2375830113887787,
          "w103": 0.2816751301288605,
          "w104": 0.027239706367254257,
          "w105": 0.11635550856590271,
          "w106": -0.05093749612569809,
          "w107": -0.03237253054976463,
          "w108": 0.26398512721061707,
          "w109": 0.051828231662511826,
          "w110": 0.057113830000162125,
          "w111": 0.25595998764038086,
          "w112": 0.19739721715450287,
          "w113": 0.2166026085615158,
          "w114": 0.20811697840690613,
          "w115": 0.2944859564304352,
          "w116": -0.03732452541589737,
          "w117": 0.14564792811870575,
          "w118": -0.009565361775457859,
          "w119": -0.10296577960252762,
          "w120": 0.266411155462265,
          "w121": -0.13740940392017365,
          "w122": 0.002968770917505026,
          "w123": -0.0016701718559488654,
          "w124": 0.25897619128227234,
          "w125": 0.24145880341529846,
          "w126": 0.1603689193725586,
          "w127": 0.2708221971988678,
          "w128": -0.057759154587984085,
          "w129": 0.1911468207836151,
          "w130": -0.11931998282670975,
          "w131": 0.22108019888401031,
          "w132": 0.25919508934020996,
          "w133": -0.006705552339553833,
          "w134": 0.22034545242786407,
          "w135": 0.20441868901252747,
          "w136": -0.25928494334220886,
          "w137": 0.24488699436187744,
          "w138": -0.043438177555799484,
          "w139": 0.021243374794721603,
          "w140": -0.01704314351081848,
          "w141": -0.17768508195877075,
          "w142": 0.10155881941318512,
          "w143": -0.6043789386749268,
          "w144": -0.9206658601760864,
          "w145": -0.6482943296432495,
          "w146": -0.21611642837524414,
          "w147": -0.2533317804336548,
          "w148": -0.25013062357902527,
          "w149": -0.38490617275238037,
          "w150": -0.395964115858078,
          "w151": 0.19440901279449463,
          "w152": -0.35156211256980896,
          "w153": 0.05115731433033943,
          "w154": 0.08637024462223053,
          "w155": -0.40158605575561523,
          "w156": 0.6366028785705566,
          "w157": 0.11002880334854126,
          "w158": -0.04032588750123978,
          "w159": 0.22981421649456024,
          "w160": -0.07831995189189911,
          "w161": 0.06640312075614929,
          "w162": -0.2310439497232437,
          "w163": -0.28962117433547974,
          "w164": 0.0572894923388958,
          "w165": -0.2223709523677826,
          "w166": 0.0012974865967407823,
          "w167": -0.2727547287940979,
          "w168": 0.054132163524627686,
          "w169": -0.6588792204856873,
          "w170": -0.21116113662719727,
          "w171": -0.12813684344291687,
          "w172": -0.18917705118656158,
          "w173": -0.44279932975769043,
          "w174": 0.17709891498088837,
          "w175": -0.010494628921151161,
          "w176": 0.12215113639831543,
          "w177": 0.1314859539270401,
          "w178": 0.25491955876350403,
          "w179": 0.2928001284599304,
          "w180": 0.13721773028373718,
          "w181": 0.6089802980422974,
          "w182": -0.09841103106737137,
          "w183": 0.12638947367668152,
          "w184": -0.05655035749077797,
          "w185": -0.06111394986510277,
          "w186": -0.15434467792510986,
          "w187": 0.0035384048242121935,
          "w188": -0.1885506808757782,
          "w189": 0.04912295565009117,
          "w190": -0.03089846670627594,
          "w191": 0.18445606529712677,
          "w192": 0.020991872996091843,
          "w193": -0.08109147846698761,
          "w194": -0.13341456651687622,
          "w195": -0.018980739638209343,
          "w196": 0.2620067000389099,
          "w197": -0.11180004477500916,
          "w198": -0.0703388899564743,
          "w199": -0.17681942880153656,
          "w200": 0.06705068051815033,
          "w201": -0.6770673394203186,
          "w202": -0.6101686954498291,
          "w203": 0.11794416606426239,
          "w204": -0.5542217493057251,
          "w205": -0.058676838874816895,
          "w206": -0.0871104747056961,
          "w207": -0.21054352819919586,
          "w208": -0.1743033081293106,
          "w209": -0.032103702425956726,
          "w210": 0.06819271296262741,
          "w211": -0.08307986706495285,
          "w212": 0.04281257838010788,
          "w213": -0.05711464583873749,
          "w214": -0.17844896018505096,
          "w215": 0.19966323673725128,
          "w216": -0.018803399056196213,
          "w217": 0.055190309882164,
          "w218": -0.11834615468978882,
          "w219": 0.059636835008859634
        }
      },
      "8": {
        "bias": -0.10517138987779617,
        "weights": {
          "w0": 0.34369897842407227,
          "w1": -0.09176771342754364,
          "w2": 0.5607805848121643,
          "w3": 0.5773593187332153,
          "w4": 0.3715071976184845,
          "w5": 0.24470388889312744,
          "w6": 0.44787657260894775,
          "w7": 0.10033611208200455,
          "w8": 0.3276798129081726,
          "w9": 0.03245285153388977,
          "w10": -0.14020030200481415,
          "w11": -0.137001633644104,
          "w12": -0.013841801322996616,
          "w13": -0.056888140738010406,
          "w14": 0.10574062168598175,
          "w15": 0.404323935508728,
          "w16": 0.4770788550376892,
          "w17": 0.19035491347312927,
          "w18": 0.553139328956604,
          "w19": 0.37899988889694214,
          "w20": 0.3586876392364502,
          "w21": 0.19406235218048096,
          "w22": 0.3603023290634155,
          "w23": 0.3358668088912964,
          "w24": 0.02712305821478367,
          "w25": -0.13089518249034882,
          "w26": -0.04234173893928528,
          "w27": -0.3683392405509949,
          "w28": 0.3295542299747467,
          "w29": -0.455687552690506,
          "w30": -0.3841777741909027,
          "w31": -0.5579102039337158,
          "w32": -0.5357957482337952,
          "w33": -0.5024116635322571,
          "w34": -0.43462103605270386,
          "w35": -0.13761788606643677,
          "w36": -0.15171147882938385,
          "w37": -0.13227470219135284,
          "w38": 0.0054703447967767715,
          "w39": -0.1403760015964508,
          "w40": -0.22208863496780396,
          "w41": 0.015277447178959846,
          "w42": 0.1044347882270813,
          "w43": -0.026263833045959473,
          "w44": -0.09579135477542877,
          "w45": 0.07965163141489029,
          "w46": -0.023586150258779526,
          "w47": 0.08568304777145386,
          "w48": -0.21349938213825226,
          "w49": -0.2797865867614746,
          "w50": -0.13972346484661102,
          "w51": -0.04681258648633957,
          "w52": 0.3057960569858551,
          "w53": -0.09043272584676743,
          "w54": -0.262582004070282,
          "w55": 0.11837861686944962,
          "w56": 0.0022308689076453447,
          "w57": -0.13576284050941467,
          "w58": -0.019648758694529533,
          "w59": -0.040552567690610886,
          "w60": -0.19262176752090454,
          "w61": -0.046333957463502884,
          "w62": 0.04484003037214279,
          "w63": -0.17248162627220154,
          "w64": 0.2928110361099243,
          "w65": -0.36152252554893494,
          "w66": -0.16967785358428955,
          "w67": -0.03645487502217293,
          "w68": -0.08411526679992676,
          "w69": 0.15862569212913513,
          "w70": 0.09109441936016083,
          "w71": -0.06643349677324295,
          "w72": 0.10143253207206726,
          "w73": -0.14537419378757477,
          "w74": -0.30259227752685547,
          "w75": 0.10512090474367142,
          "w76": 0.16587848961353302,
          "w77": 0.012023761868476868,
          "w78": -0.0018714477773755789,
          "w79": -0.07074569910764694,
          "w80": -0.067692831158638,
          "w81": 0.0071497405879199505,
          "w82": -0.5568212270736694,
          "w83": 0.36692842841148376,
          "w84": -0.2491140514612198,
          "w85": 0.15213321149349213,
          "w86": -0.12430722266435623,
          "w87": -0.2580699920654297,
          "w88": -0.07880546152591705,
          "w89": 0.02356438711285591,
          "w90": -0.21480335295200348,
          "w91": -0.11377519369125366,
          "w92": -0.2882157564163208,
          "w93": -0.11676207184791565,
          "w94": -0.3777365982532501,
          "w95": -0.17021368443965912,
          "w96": 0.016942663118243217,
          "w97": -0.15538376569747925,
          "w98": -0.24630095064640045,
          "w99": 0.07135353237390518,
          "w100": -0.09340427815914154,
          "w101": -0.16112342476844788,
          "w102": -0.036439597606658936,
          "w103": 0.08033178001642227,
          "w104": -0.20395369827747345,
          "w105": 0.10050502419471741,
          "w106": -0.21745572984218597,
          "w107": -0.09378837049007416,
          "w108": 0.07076659053564072,
          "w109": -0.1281178593635559,
          "w110": 0.006666927598416805,
          "w111": -0.22954493761062622,
          "w112": -0.2014937847852707,
          "w113": -0.0538511648774147,
          "w114": 0.12106525897979736,
          "w115": -0.07984652370214462,
          "w116": 0.03708597645163536,
          "w117": 0.08736591786146164,
          "w118": 0.006699972786009312,
          "w119": -0.11741411685943604,
          "w120": -0.13988859951496124,
          "w121": -0.15920256078243256,
          "w122": -0.09276383370161057,
          "w123": -0.10752058774232864,
          "w124": -0.14608339965343475,
          "w125": -0.024926187470555305,
          "w126": -0.18677684664726257,
          "w127": 0.0022811284288764,
          "w128": -0.21914279460906982,
          "w129": -0.15432928502559662,
          "w130": 0.14731711149215698,
          "w131": -0.19050177931785583,
          "w132": 0.09030472487211227,
          "w133": -0.024177484214305878,
          "w134": 0.0857601910829544,
          "w135": -0.2202894687652588,
          "w136": 0.0173763670027256,
          "w137": -0.2187134176492691,
          "w138": -0.17796261608600616,
          "w139": -0.1345687359571457,
          "w140": 0.2066461741924286,
          "w141": -0.116231769323349,
          "w142": -0.0615532249212265,
          "w143": 0.5013530850410461,
          "w144": 0.41760608553886414,
          "w145": 0.5715141892433167,
          "w146": 0.09901083260774612,
          "w147": 0.3969782590866089,
          "w148": 0.16042235493659973,
          "w149": 0.3150382339954376,
          "w150": 0.4969608187675476,
          "w151": -0.11876656115055084,
          "w152": 0.3410208225250244,
          "w153": -0.10093043744564056,
          "w154": 0.03195489943027496,
          "w155": 0.12364823371171951,
          "w156": -0.5130683183670044,
          "w157": 0.06107718124985695,
          "w158": -0.0832354798913002,
          "w159": -0.3026859760284424,
          "w160": -0.054704371839761734,
          "w161": 0.14248135685920715,
          "w162": 0.25004494190216064,
          "w163": 0.14726035296916962,
          "w164": 0.017215082421898842,
          "w165": -0.06195881962776184,
          "w166": 0.16956432163715363,
          "w167": -0.09000935405492783,
          "w168": 0.041815418750047684,
          "w169": 0.7694324254989624,
          "w170": 0.2864347994327545,
          "w171": 0.33540526032447815,
          "w172": -0.03950809687376022,
          "w173": 0.2968887984752655,
          "w174": 0.05126535892486572,
          "w175": 0.12844952940940857,
          "w176": -0.11080075055360794,
          "w177": -0.07603119313716888,
          "w178": 0.015338496305048466,
          "w179": -0.3840802311897278,
          "w180": -0.4106394052505493,
          "w181": -0.2810216546058655,
          "w182": -0.049938298761844635,
          "w183": -0.0077575575560331345,
          "w184": 0.0034880810417234898,
          "w185": -0.20652459561824799,
          "w186": -0.10657428950071335,
          "w187": -0.247754767537117,
          "w188": -0.07510045170783997,
          "w189": 0.12890835106372833,
          "w190": -0.22600166499614716,
          "w191": 0.017616529017686844,
          "w192": 0.12442103028297424,
          "w193": -0.12036927044391632,
          "w194": 0.316241592168808,
          "w195": -0.08758214116096497,
          "w196": 0.03674344718456268,
          "w197": 0.14155200123786926,
          "w198": 0.12988100945949554,
          "w199": 0.3439156711101532,
          "w200": 0.09770717471837997,
          "w201": 0.8178422451019287,
          "w202": 0.651344358921051,
          "w203": -0.36452916264533997,
          "w204": 0.1269160956144333,
          "w205": 0.012514494359493256,
          "w206": 0.12375066429376602,
          "w207": 0.013112124986946583,
          "w208": 0.011156928725540638,
          "w209": -0.04122724384069443,
          "w210": -0.11954232305288315,
          "w211": -0.11284122616052628,
          "w212": -0.162022665143013,
          "w213": 0.0862760916352272,
          "w214": 0.10867078602313995,
          "w215": 0.07148688286542892,
          "w216": -0.2741890549659729,
          "w217": -0.15863753855228424,
          "w218": -0.054809775203466415,
          "w219": -0.10867255926132202
        }
      },
      "9": {
        "bias": 0.024742625653743744,
        "weights": {
          "w0": 0.08163328468799591,
          "w1": -0.31945115327835083,
          "w2": 0.08014767616987228,
          "w3": 0.24741537868976593,
          "w4": 0.09267821162939072,
          "w5": 0.03555388003587723,
          "w6": 0.11674530059099197,
          "w7": 0.14856332540512085,
          "w8": -0.07807858288288116,
          "w9": 0.2144547700881958,
          "w10": 0.0058532049879431725,
          "w11": 0.04482955485582352,
          "w12": -0.004168100189417601,
          "w13": -0.08314426243305206,
          "w14": -0.19209110736846924,
          "w15": -0.02030283957719803,
          "w16": 0.07299972325563431,
          "w17": 0.1934816986322403,
          "w18": -0.027429724112153053,
          "w19": 0.07950419932603836,
          "w20": 0.08609827607870102,
          "w21": 0.1149267926812172,
          "w22": 0.11476083099842072,
          "w23": 0.16255533695220947,
          "w24": 0.04696401581168175,
          "w25": 0.014187534339725971,
          "w26": 0.03410622850060463,
          "w27": -1.1653261184692383,
          "w28": 0.016088392585515976,
          "w29": -0.4487161636352539,
          "w30": -0.09531939029693604,
          "w31": 0.018325379118323326,
          "w32": -0.21339140832424164,
          "w33": -0.2747710645198822,
          "w34": -0.178997203707695,
          "w35": -0.22745026648044586,
          "w36": -0.07511863112449646,
          "w37": 0.011599889025092125,
          "w38": -0.1341562271118164,
          "w39": 0.02181974984705448,
          "w40": -0.29685595631599426,
          "w41": -0.011014433577656746,
          "w42": -0.2600073516368866,
          "w43": 0.10647562146186829,
          "w44": -0.17612813413143158,
          "w45": -0.04461300000548363,
          "w46": 0.023912591859698296,
          "w47": -0.18061082065105438,
          "w48": -0.11347561329603195,
          "w49": -0.031197439879179,
          "w50": 0.10816557705402374,
          "w51": -0.21519775688648224,
          "w52": -0.03425723686814308,
          "w53": -0.011872539296746254,
          "w54": 0.07754114270210266,
          "w55": 0.06936970353126526,
          "w56": -0.24904696643352509,
          "w57": -0.26077139377593994,
          "w58": 0.07620353251695633,
          "w59": -0.005943882744759321,
          "w60": -0.16279752552509308,
          "w61": 0.05977753922343254,
          "w62": -0.06097220256924629,
          "w63": -0.08117823302745819,
          "w64": -0.03724148869514465,
          "w65": -0.12208778411149979,
          "w66": 0.1100730448961258,
          "w67": -0.2115841656923294,
          "w68": 0.021752290427684784,
          "w69": -0.18365930020809174,
          "w70": -0.12092184275388718,
          "w71": -0.07257439196109772,
          "w72": -0.12681657075881958,
          "w73": 0.1064930111169815,
          "w74": -0.25207793712615967,
          "w75": 0.008548662066459656,
          "w76": 0.09288819879293442,
          "w77": -0.1300353854894638,
          "w78": 0.05184759944677353,
          "w79": 0.07050178200006485,
          "w80": 0.16853827238082886,
          "w81": 0.022094225510954857,
          "w82": -0.3858294188976288,
          "w83": 0.13438576459884644,
          "w84": -0.24592341482639313,
          "w85": 0.10767251998186111,
          "w86": -0.13114416599273682,
          "w87": -0.003367017023265362,
          "w88": -0.0626324713230133,
          "w89": 0.17855681478977203,
          "w90": -0.08900152891874313,
          "w91": -0.2327219545841217,
          "w92": -0.15866023302078247,
          "w93": -0.16665108501911163,
          "w94": -0.28295212984085083,
          "w95": -0.02125130221247673,
          "w96": 0.07321205735206604,
          "w97": 0.18402186036109924,
          "w98": 0.1260901540517807,
          "w99": 0.05336662754416466,
          "w100": -0.19829301536083221,
          "w101": -0.1773267239332199,
          "w102": 0.0687735378742218,
          "w103": -0.16419897973537445,
          "w104": -0.08463963121175766,
          "w105": 0.12812532484531403,
          "w106": -0.11266980320215225,
          "w107": -0.032210588455200195,
          "w108": -0.008517196401953697,
          "w109": 0.02263122797012329,
          "w110": -0.05642850324511528,
          "w111": -0.2312716692686081,
          "w112": -0.18402159214019775,
          "w113": -0.06010093912482262,
          "w114": 0.0025334579404443502,
          "w115": 0.15096846222877502,
          "w116": -0.11696576327085495,
          "w117": -0.16641095280647278,
          "w118": 0.08180693536996841,
          "w119": 0.1458885669708252,
          "w120": 0.14661358296871185,
          "w121": -0.18334805965423584,
          "w122": -0.09665051102638245,
          "w123": -0.101765938103199,
          "w124": -0.18387167155742645,
          "w125": -0.19296948611736298,
          "w126": -0.03608115017414093,
          "w127": -0.09939030557870865,
          "w128": 0.0306781604886055,
          "w129": -0.17136920988559723,
          "w130": 0.12689325213432312,
          "w131": 0.1470004916191101,
          "w132": 0.07035574316978455,
          "w133": -0.09371060878038406,
          "w134": -0.1172368973493576,
          "w135": -0.018870040774345398,
          "w136": 0.22154253721237183,
          "w137": 0.009141683578491211,
          "w138": 0.00020229718938935548,
          "w139": 0.11792009323835373,
          "w140": 0.1344379484653473,
          "w141": 0.07789025455713272,
          "w142": 0.0759369358420372,
          "w143": 0.23764139413833618,
          "w144": 0.5490500926971436,
          "w145": 0.30744311213493347,
          "w146": 0.10874558240175247,
          "w147": 0.11428108811378479,
          "w148": 0.175492063164711,
          "w149": 0.31870517134666443,
          "w150": 0.2579021453857422,
          "w151": 0.06311678141355515,
          "w152": 0.43950173258781433,
          "w153": 0.2574710249900818,
          "w154": -0.0083066551014781,
          "w155": 0.2171953320503235,
          "w156": -0.3676813542842865,
          "w157": -0.08196321874856949,
          "w158": -0.20919622480869293,
          "w159": 0.004269336815923452,
          "w160": -0.00697333924472332,
          "w161": -0.12316769361495972,
          "w162": -0.15187540650367737,
          "w163": -0.062478505074977875,
          "w164": 0.09206578135490417,
          "w165": 0.17576666176319122,
          "w166": 0.12281296402215958,
          "w167": 0.05492035299539566,
          "w168": -0.051303084939718246,
          "w169": 0.4297693967819214,
          "w170": 0.19649571180343628,
          "w171": 0.17824769020080566,
          "w172": 0.11799192428588867,
          "w173": 0.2161225974559784,
          "w174": -0.006095302291214466,
          "w175": -0.02659759297966957,
          "w176": -0.14785254001617432,
          "w177": -0.08325731009244919,
          "w178": -0.08805815130472183,
          "w179": -0.055840522050857544,
          "w180": 0.07429959625005722,
          "w181": -0.3116905391216278,
          "w182": -0.1127588078379631,
          "w183": 0.017230847850441933,
          "w184": 0.05874805897474289,
          "w185": 0.007881700061261654,
          "w186": -0.09962521493434906,
          "w187": 0.06452324986457825,
          "w188": -0.19269545376300812,
          "w189": -0.01829492673277855,
          "w190": 0.060727331787347794,
          "w191": -0.1520088016986847,
          "w192": 0.1294037401676178,
          "w193": -0.11888239532709122,
          "w194": 0.0159551240503788,
          "w195": 0.09679234772920609,
          "w196": -0.12036805599927902,
          "w197": -0.012554687447845936,
          "w198": 0.15613657236099243,
          "w199": 0.23918657004833221,
          "w200": -0.18599307537078857,
          "w201": 0.3627696633338928,
          "w202": 0.34910646080970764,
          "w203": 0.26675179600715637,
          "w204": 0.20452187955379486,
          "w205": -0.10278734564781189,
          "w206": -0.12625882029533386,
          "w207": -0.10132525116205215,
          "w208": 0.11557424813508987,
          "w209": 0.25052109360694885,
          "w210": 0.11787121742963791,
          "w211": 0.06488550454378128,
          "w212": 0.24101240932941437,
          "w213": -0.043331045657396317,
          "w214": -0.09899136424064636,
          "w215": 0.22181648015975952,
          "w216": 0.04041676968336105,
          "w217": 0.19679835438728333,
          "w218": -0.4072488844394684,
          "w219": 0.16884373128414154
        }
      },
      "10": {
        "bias": 0.16323699057102203,
        "weights": {
          "w0": -1.4982779026031494,
          "w1": 0.1732294261455536,
          "w2": -0.20675282180309296,
          "w3": -0.47000837326049805,
          "w4": -0.08748876303434372,
          "w5": -0.24601684510707855,
          "w6": -0.5908128023147583,
          "w7": -0.014377744868397713,
          "w8": -0.3266531825065613,
          "w9": -0.22737041115760803,
          "w10": 0.12818291783332825,
          "w11": -0.042322300374507904,
          "w12": -0.6844475865364075,
          "w13": 0.06271307170391083,
          "w14": -0.2826150357723236,
          "w15": -0.29777324199676514,
          "w16": -0.1649879515171051,
          "w17": -0.015721086412668228,
          "w18": -0.05929264426231384,
          "w19": -0.1888999193906784,
          "w20": -0.010674168355762959,
          "w21": -0.01996728964149952,
          "w22": -0.009397264569997787,
          "w23": -0.18896670639514923,
          "w24": -0.16808611154556274,
          "w25": 0.28832319378852844,
          "w26": -0.07188837975263596,
          "w27": -0.007505884859710932,
          "w28": -0.9236537218093872,
          "w29": 0.38612547516822815,
          "w30": 0.6846317052841187,
          "w31": 0.10916518419981003,
          "w32": -0.07337015867233276,
          "w33": 0.04625264182686806,
          "w34": 0.5930154919624329,
          "w35": 0.025151129812002182,
          "w36": -0.016997339203953743,
          "w37": 0.11256035417318344,
          "w38": -0.2530386745929718,
          "w39": 0.13341332972049713,
          "w40": 0.2771846652030945,
          "w41": 0.2793629467487335,
          "w42": -0.08089229464530945,
          "w43": -0.04861406981945038,
          "w44": 0.2193777710199356,
          "w45": 0.07903902977705002,
          "w46": -0.16965965926647186,
          "w47": 0.05955358222126961,
          "w48": -0.16653253138065338,
          "w49": 0.0726834312081337,
          "w50": -0.14379838109016418,
          "w51": 0.2473372220993042,
          "w52": -0.4258330762386322,
          "w53": -0.00024787188158370554,
          "w54": 0.05125439539551735,
          "w55": -0.045884598046541214,
          "w56": -0.08050823211669922,
          "w57": 0.27394118905067444,
          "w58": -0.05910983309149742,
          "w59": 0.03271745517849922,
          "w60": 0.022024674341082573,
          "w61": 0.19124570488929749,
          "w62": 0.23236770927906036,
          "w63": 0.1727144867181778,
          "w64": 0.14284175634384155,
          "w65": 0.1989041268825531,
          "w66": -0.06227012723684311,
          "w67": 0.3779325783252716,
          "w68": -0.21322070062160492,
          "w69": 0.17656217515468597,
          "w70": 0.21815527975559235,
          "w71": 0.06913737207651138,
          "w72": 0.03671598061919212,
          "w73": -0.02660902962088585,
          "w74": 0.41123732924461365,
          "w75": 0.16523610055446625,
          "w76": -0.3281330466270447,
          "w77": 0.1529238224029541,
          "w78": 0.21224628388881683,
          "w79": 0.13998842239379883,
          "w80": 0.18994301557540894,
          "w81": 0.016680393368005753,
          "w82": 0.49717316031455994,
          "w83": -0.38025954365730286,
          "w84": 0.0825875923037529,
          "w85": -0.018528414890170097,
          "w86": 0.21033285558223724,
          "w87": 0.14004363119602203,
          "w88": 0.337869256734848,
          "w89": 0.13101589679718018,
          "w90": 0.41930368542671204,
          "w91": 0.4032095968723297,
          "w92": 0.21823224425315857,
          "w93": 0.16742010414600372,
          "w94": 0.3465719521045685,
          "w95": 0.23474304378032684,
          "w96": 0.11482669413089752,
          "w97": 0.15187248587608337,
          "w98": 0.04388951510190964,
          "w99": -0.019101860001683235,
          "w100": 0.3148564100265503,
          "w101": -0.0017240515444427729,
          "w102": 0.002678921213373542,
          "w103": 0.2863639295101166,
          "w104": 0.3349086046218872,
          "w105": 0.1842298060655594,
          "w106": 0.071040578186512,
          "w107": 0.03666231408715248,
          "w108": 0.07506655156612396,
          "w109": 0.158745676279068,
          "w110": 0.20760533213615417,
          "w111": 0.27353033423423767,
          "w112": 0.20958605408668518,
          "w113": 0.2305298000574112,
          "w114": 0.21073776483535767,
          "w115": 0.24213756620883942,
          "w116": 0.22281759977340698,
          "w117": 0.2154194563627243,
          "w118": 0.1543198823928833,
          "w119": 0.05359301716089249,
          "w120": -0.04863417148590088,
          "w121": 0.12765827775001526,
          "w122": -0.00033108785282820463,
          "w123": 0.15712153911590576,
          "w124": 0.023460812866687775,
          "w125": 0.15379078686237335,
          "w126": 0.0060773249715566635,
          "w127": 0.2692922055721283,
          "w128": -0.05629195645451546,
          "w129": 0.18211890757083893,
          "w130": -0.09853070974349976,
          "w131": 0.11057539284229279,
          "w132": 0.06608216464519501,
          "w133": 0.25402626395225525,
          "w134": 0.17002372443675995,
          "w135": 0.16469965875148773,
          "w136": 0.04371649771928787,
          "w137": 0.12053190916776657,
          "w138": -0.009096822701394558,
          "w139": -0.03542524576187134,
          "w140": -0.022004393860697746,
          "w141": -0.13709065318107605,
          "w142": 0.18070945143699646,
          "w143": -0.43522411584854126,
          "w144": -0.37918490171432495,
          "w145": -0.5208528637886047,
          "w146": -0.20491951704025269,
          "w147": -0.26576730608940125,
          "w148": -0.25898927450180054,
          "w149": -0.3078705072402954,
          "w150": -0.24619229137897491,
          "w151": -0.05908166244626045,
          "w152": -0.5395939946174622,
          "w153": -0.1356646716594696,
          "w154": 0.1838093400001526,
          "w155": -0.026058675721287727,
          "w156": 1.0509252548217773,
          "w157": 0.006892057601362467,
          "w158": 0.27570316195487976,
          "w159": 0.4071210026741028,
          "w160": 0.14522232115268707,
          "w161": 0.23223894834518433,
          "w162": -0.22116662561893463,
          "w163": -0.3770987391471863,
          "w164": -0.14230003952980042,
          "w165": -0.062436189502477646,
          "w166": 0.06027049198746681,
          "w167": -0.3024366796016693,
          "w168": -0.256839394569397,
          "w169": -0.6080036163330078,
          "w170": -0.44373390078544617,
          "w171": -0.23369868099689484,
          "w172": -0.21045204997062683,
          "w173": -0.3565652668476105,
          "w174": -0.04967786744236946,
          "w175": -0.0374770313501358,
          "w176": 0.0029171197675168514,
          "w177": -0.1351815164089203,
          "w178": -0.27283865213394165,
          "w179": -0.0962914228439331,
          "w180": 0.14577452838420868,
          "w181": 0.20360130071640015,
          "w182": 0.2237173318862915,
          "w183": -0.1950070858001709,
          "w184": -0.18049179017543793,
          "w185": -0.6784794926643372,
          "w186": -0.427966445684433,
          "w187": -0.3017311692237854,
          "w188": -0.17255815863609314,
          "w189": -0.07140487432479858,
          "w190": 0.023314623162150383,
          "w191": 0.11343665421009064,
          "w192": 0.12274160981178284,
          "w193": 0.6598619222640991,
          "w194": 0.033365942537784576,
          "w195": 0.444984495639801,
          "w196": 0.4655439555644989,
          "w197": 0.0915648341178894,
          "w198": 0.23990079760551453,
          "w199": 0.2627527415752411,
          "w200": 0.19611740112304688,
          "w201": -0.1947682946920395,
          "w202": -0.39714959263801575,
          "w203": -0.27417126297950745,
          "w204": -0.5770063996315002,
          "w205": -0.19623024761676788,
          "w206": -0.23439103364944458,
          "w207": -0.14547504484653473,
          "w208": -0.18450254201889038,
          "w209": -0.17073626816272736,
          "w210": -0.055137574672698975,
          "w211": -0.044439781457185745,
          "w212": -0.09076616913080215,
          "w213": 0.035415321588516235,
          "w214": -0.4285747706890106,
          "w215": -0.2058791220188141,
          "w216": -0.22307029366493225,
          "w217": -0.2115001231431961,
          "w218": -1.037815809249878,
          "w219": -0.30389079451560974
        }
      },
      "11": {
        "bias": 0.7275581955909729,
        "weights": {
          "w0": -1.181808590888977,
          "w1": -0.4570784270763397,
          "w2": -0.8113170862197876,
          "w3": -1.1501821279525757,
          "w4": -0.48723986744880676,
          "w5": -0.6140599846839905,
          "w6": -0.8397626876831055,
          "w7": -0.13780705630779266,
          "w8": 0.014179527759552002,
          "w9": -0.06745629757642746,
          "w10": 0.02234572172164917,
          "w11": -0.03784224018454552,
          "w12": -0.07138556987047195,
          "w13": 0.0887722596526146,
          "w14": -0.45891082286834717,
          "w15": -0.3367634117603302,
          "w16": -0.4900750517845154,
          "w17": -0.3096259832382202,
          "w18": -0.4895592927932739,
          "w19": -0.1837220937013626,
          "w20": -0.4919596314430237,
          "w21": -0.3219049572944641,
          "w22": -0.20752359926700592,
          "w23": -0.2673929035663605,
          "w24": -0.5137572884559631,
          "w25": 0.5194683074951172,
          "w26": 0.2561799883842468,
          "w27": -2.1740312576293945,
          "w28": -0.6668964624404907,
          "w29": -0.5163255929946899,
