{
  "layers": [
    {
      "weights": [],
      "biases": []
    },
    {
      "weights": [
        [
          1.0313969850540161,
          1.1058746576309204,
          0.9521945118904114,
          0.020419927313923836,
          0.2776966989040375,
          0.9906908869743347,
          0.38956937193870544,
          0.42101535201072693,
          0.04113539308309555,
          0.3545309901237488,
          0.4870392680168152,
          0.11088571697473526,
          0.5492778420448303,
          0.11216826736927032,
          0.8113232851028442,
          0.181112140417099,
          0.968999981880188,
          0.2610715329647064,
          0.03228384628891945,
          0.22803248465061188,
          0.2540751099586487,
          1.403510570526123,
          1.4391560554504395,
          1.5267959833145142,
          0.5016804337501526,
          -0.14314527809619904,
          0.0874752625823021,
          -0.9764652252197266,
          -0.006063590291887522,
          0.020598188042640686,
          -0.02762512117624283,
          -0.06092732399702072,
          0.30823078751564026,
          0.630402684211731,
          0.4112083613872528,
          0.1748003214597702,
          0.876092255115509,
          -0.09828055649995804,
          0.6997541189193726,
          0.6397877931594849,
          -0.8859007954597473,
          -2.051492691040039,
          -1.1273013353347778,
          0.040154457092285156,
          -0.36375612020492554,
          0.3243306577205658,
          -0.13278046250343323,
          -0.8431844711303711,
          -0.7579532861709595,
          -1.4641507863998413,
          0.14247092604637146,
          -0.05343369022011757,
          -0.7349545359611511,
          -0.2887939214706421,
          -0.3574821949005127,
          -0.02616206742823124,
          -0.24728640913963318,
          -0.31160733103752136,
          -0.3370923101902008,
          0.25924041867256165,
          0.3796766698360443,
          -0.7200015783309937,
          -0.8747251033782959,
          -0.69447922706604,
          -0.10792088508605957,
          -0.3739390969276428,
          -0.32871630787849426,
          -0.1144753098487854,
          0.04429669678211212,
          -0.2810990512371063,
          -0.4423498511314392,
          -0.2809726595878601,
          -0.3132219612598419,
          -0.24446962773799896,
          -0.34840095043182373,
          -0.08085383474826813,
          -0.25915008783340454,
          -0.20475921034812927,
          -0.07028403133153915,
          -0.13666829466819763,
          -0.23273436725139618,
          -0.12791720032691956,
          -0.4705699384212494,
          0.01492895558476448,
          0.07868213951587677,
          -0.056756339967250824,
          -0.22965773940086365,
          -0.11479993909597397,
          0.0958753451704979,
          -0.13232925534248352,
          -0.10710544884204865,
          0.2557307779788971,
          0.1046925038099289,
          0.08824831247329712,
          -0.4277312755584717,
          -0.33615347743034363,
          0.9072616696357727,
          -0.3181440532207489,
          0.9952613711357117,
          -0.0414709597826004,
          -0.026774568483233452,
          -0.3091984987258911,
          -0.33060193061828613,
          -0.18065376579761505,
          -0.10932444036006927,
          0.01949213817715645,
          0.11194560676813126,
          -0.09405521303415298,
          -0.1299988329410553,
          -0.1372518092393875,
          -0.1963433474302292,
          -0.21983765065670013,
          0.13173043727874756,
          -0.04779805615544319,
          0.019452644512057304,
          -2.6399848461151123,
          -0.0917014554142952,
          -0.45856598019599915,
          -0.19063971936702728,
          -0.39030975103378296,
          -0.23392809927463531,
          -0.1757824718952179,
          -0.19738027453422546,
          -0.41757187247276306,
          -0.9583948850631714,
          -0.9733926653862,
          -0.34266579151153564,
          0.08762504160404205,
          -0.3748941421508789,
          -0.1129654198884964,
          0.4142204821109772,
          -0.038929373025894165,
          -0.08153224736452103,
          -0.012615935876965523,
          0.19348767399787903,
          -0.13460169732570648,
          -0.022927142679691315,
          -0.01791665516793728,
          0.049824248999357224,
          0.43501296639442444,
          -0.38715118169784546,
          -0.08394042402505875,
          0.34395769238471985,
          0.2010149359703064,
          -0.8516762256622314,
          -0.2657963037490845,
          -0.8464553952217102,
          -0.7943847179412842,
          0.051569223403930664,
          -0.17554979026317596,
          0.10543065518140793,
          -0.5169826149940491,
          -0.36517879366874695,
          -0.5605557560920715,
          -0.5754521489143372,
          -0.6465976238250732,
          -0.4030504524707794,
          -0.6038277745246887,
          -0.9394090175628662,
          0.11022592335939407,
          -0.01849902607500553,
          -0.06729049980640411,
          0.06949868053197861,
          0.08373413234949112,
          0.02998656965792179,
          -0.2192172408103943,
          0.17787577211856842,
          0.2501183748245239,
          0.16324342787265778,
          0.12980329990386963,
          0.05330741032958031,
          0.2837725579738617,
          0.14881381392478943,
          0.1507560908794403,
          -0.14256492257118225,
          0.08585276454687119,
          -0.040327731519937515,
          -0.11628030240535736,
          0.15610507130622864
        ],
        [
          -1.0012580156326294,
          -0.9295916557312012,
          -0.9256800413131714,
          0.45043373107910156,
          -0.24538135528564453,
          -0.643324613571167,
          -0.4533650279045105,
          -0.39417216181755066,
          -0.32128432393074036,
          -0.5211981534957886,
          -0.22006089985370636,
          0.07037460803985596,
          -0.41953349113464355,
          -0.4904893934726715,
          -0.5261936783790588,
          -0.3364744484424591,
          -0.42978018522262573,
          -0.24831493198871613,
          -0.1894284188747406,
          -0.10171502083539963,
          0.25781673192977905,
          0.7006261348724365,
          2.044276237487793,
          3.3816795349121094,
          0.6901331543922424,
          0.5127844214439392,
          0.07815074175596237,
          -0.716261088848114,
          0.2567826509475708,
          0.3366357684135437,
          0.18770892918109894,
          -0.4307432472705841,
          0.39409124851226807,
          0.9321420788764954,
          -0.6711389422416687,
          0.4174840450286865,
          1.4490301609039307,
          -0.4201281666755676,
          0.5397850871086121,
          0.6119255423545837,
          1.6674582958221436,
          -0.7407317161560059,
          -0.6700366139411926,
          0.23597083985805511,
          0.18559451401233673,
          0.33163753151893616,
          0.2698433995246887,
          -0.10034654289484024,
          0.27365246415138245,
          -0.4982498288154602,
          0.20460708439350128,
          0.14060050249099731,
          -0.6954180002212524,
          0.11763975769281387,
          0.10585986822843552,
          0.3813542425632477,
          -0.05907318741083145,
          0.2151477038860321,
          -0.01821352355182171,
          0.14029720425605774,
          0.0007040740456432104,
          -0.14732962846755981,
          0.05862642079591751,
          -0.11401505023241043,
          -0.1939149647951126,
          -0.5687887668609619,
          -0.33056575059890747,
          -0.05179456248879433,
          0.08058328926563263,
          -0.17361366748809814,
          -0.2526758313179016,
          -0.028179766610264778,
          -0.1342800408601761,
          -0.42505863308906555,
          -0.6104737520217896,
          -0.024775221943855286,
          -0.0770653709769249,
          -0.04284073784947395,
          0.0023248987272381783,
          -0.08799806237220764,
          -0.10782824456691742,
          -0.27154284715652466,
          0.19445468485355377,
          -0.021981583908200264,
          -0.12613900005817413,
          -0.12606292963027954,
          -0.13736066222190857,
          -0.019890466704964638,
          -0.1658528447151184,
          -0.05726701021194458,
          -0.019914377480745316,
          0.3823986351490021,
          -0.1552426964044571,
          0.03730228915810585,
          -0.6029097437858582,
          -0.44458380341529846,
          -1.612986445426941,
          -0.09241548925638199,
          -1.0780843496322632,
          -1.7912566661834717,
          -0.1468013972043991,
          -0.25675323605537415,
          -0.28985801339149475,
          -0.11478930711746216,
          -0.22477838397026062,
          -0.13585400581359863,
          0.05109922215342522,
          -0.23831592500209808,
          -0.05785663425922394,
          0.00723735336214304,
          -0.1973949372768402,
          -0.14787016808986664,
          -0.21227850019931793,
          0.26579970121383667,
          0.42465075850486755,
          2.754013776779175,
          0.45181262493133545,
          0.5010519623756409,
          0.2565962076187134,
          0.6118878722190857,
          0.4000086188316345,
          0.2998047173023224,
          0.11574696004390717,
          0.039102938026189804,
          -0.05913938954472542,
          -0.21177740395069122,
          -0.01593060977756977,
          0.1299961656332016,
          -0.1156306117773056,
          0.16036726534366608,
          0.13344493508338928,
          -0.24757322669029236,
          -0.011709485203027725,
          0.49418556690216064,
          0.6185235977172852,
          0.29208362102508545,
          0.24474819004535675,
          0.4459165632724762,
          0.4132385849952698,
          0.4867980182170868,
          0.5143446922302246,
          0.339921236038208,
          0.7889009118080139,
          0.20880454778671265,
          -0.0008876474457792938,
          0.190900981426239,
          0.048121094703674316,
          0.03407876566052437,
          0.19098016619682312,
          -0.032787203788757324,
          0.18292656540870667,
          0.1001385748386383,
          0.021396683529019356,
          -0.09057401865720749,
          0.06566876173019409,
          0.12395509332418442,
          0.04703541472554207,
          -0.1281147450208664,
          0.1184592917561531,
          0.14052878320217133,
          -0.15294404327869415,
          0.09920230507850647,
          -0.055422332137823105,
          0.024162709712982178,
          0.035483330488204956,
          -0.21518340706825256,
          -0.027925783768296242,
          0.132583349943161,
          0.293637752532959,
          -0.08690116554498672,
          -0.16456805169582367,
          -0.03427010774612427,
          0.04692656919360161,
          -0.048745833337306976,
          -0.15029993653297424,
          0.0004621987172868103,
          0.22541989386081696,
          -0.06277796626091003,
          -0.1961640566587448
        ],
        [
          -0.806198000907898,
          -0.7088651061058044,
          -0.7174811959266663,
          -0.1486464887857437,
          -0.08887176960706711,
          -0.5103661417961121,
          -0.38217681646347046,
          -0.3425982594490051,
          -0.26577359437942505,
          -0.44694554805755615,
          -0.42899787425994873,
          -0.26214635372161865,
          -0.28846463561058044,
          0.011685118079185486,
          -0.6600646376609802,
          -0.06644277274608612,
          -0.7394329309463501,
          -0.2158546894788742,
          0.018583424389362335,
          -0.10086653381586075,
          -0.009553700685501099,
          -1.0125272274017334,
          -1.3425003290176392,
          -2.3102855682373047,
          -0.2694733142852783,
          -0.44385701417922974,
          0.1779138296842575,
          1.3260388374328613,
          -0.006078015547245741,
          -0.3262937664985657,
          0.2869229316711426,
          0.13176202774047852,
          -0.3177323341369629,
          -0.7089398503303528,
          0.21892233192920685,
          -0.3100586235523224,
          -0.7121791243553162,
          -0.32222726941108704,
          -0.5620775818824768,
          -0.6478453874588013,
          -0.6001707911491394,
          0.8310120105743408,
          0.46138492226600647,
          -0.30255645513534546,
          -0.22213979065418243,
          -0.37789952754974365,
          -0.2263457328081131,
          0.28306645154953003,
          0.025965148583054543,
          0.5172659158706665,
          -0.31093037128448486,
          -0.2874809205532074,
          0.5671416521072388,
          -0.0946391299366951,
          0.13106942176818848,
          -0.010775742121040821,
          0.02325325831770897,
          0.09350382536649704,
          0.03164803609251976,
          -0.6950191855430603,
          -0.2309185415506363,
          0.20342259109020233,
          0.4150073826313019,
          0.11205507069826126,
          0.40344831347465515,
          0.45215538144111633,
          0.3143409788608551,
          0.08941204100847244,
          0.11576889455318451,
          0.37863609194755554,
          0.6508204340934753,
          0.14707143604755402,
          0.14820215106010437,
          0.04503847286105156,
          0.3061390817165375,
          -0.22006894648075104,
          0.34100842475891113,
          0.32063060998916626,
          0.0710010975599289,
          0.16926054656505585,
          0.009946928359568119,
          0.14940331876277924,
          0.1420440971851349,
          0.17636214196681976,
          0.029672948643565178,
          0.06411424279212952,
          0.0551370345056057,
          0.15604761242866516,
          0.06224783882498741,
          -0.062226712703704834,
          0.20211420953273773,
          0.2798277735710144,
          -0.20580263435840607,
          -0.01974666863679886,
          0.3323999345302582,
          -0.008100440725684166,
          0.18838617205619812,
          0.14503014087677002,
          -0.31150197982788086,
          0.8122265934944153,
          -0.17635180056095123,
          0.14681369066238403,
          0.13680708408355713,
          0.051819395273923874,
          0.30478715896606445,
          0.05314045771956444,
          0.14463944733142853,
          0.07817395031452179,
          0.2055385708808899,
          0.18982012569904327,
          0.07156819850206375,
          -0.015189294703304768,
          0.03535490855574608,
          -0.18377558887004852,
          -0.15219232439994812,
          1.4550460577011108,
          -0.18511128425598145,
          0.3373473882675171,
          0.08226397633552551,
          0.4345909059047699,
          -0.2407338172197342,
          -0.005054250825196505,
          0.27512821555137634,
          -0.0821743756532669,
          0.655407726764679,
          0.6562811136245728,
          0.4102870225906372,
          0.3210276663303375,
          0.09310304373502731,
          0.06174887716770172,
          -0.29077789187431335,
          0.01875469647347927,
          0.18665769696235657,
          -0.023752540349960327,
          0.38942819833755493,
          0.2968837022781372,
          0.2043391317129135,
          0.07483799755573273,
          -0.2770565152168274,
          -0.09482547640800476,
          0.4266144931316376,
          0.29984501004219055,
          0.24705030024051666,
          0.13873235881328583,
          0.8642300367355347,
          0.7920557260513306,
          0.8636313676834106,
          0.4183535575866699,
          0.2930598258972168,
          0.09220325946807861,
          0.2849666178226471,
          0.5429534316062927,
          0.40478578209877014,
          0.33087146282196045,
          0.34600791335105896,
          0.6368458271026611,
          0.5030044317245483,
          0.2922368347644806,
          0.7436521649360657,
          -0.18344634771347046,
          -0.13139833509922028,
          -0.07329680025577545,
          -0.3818998634815216,
          -0.25437605381011963,
          -0.08718494325876236,
          -0.04346199333667755,
          -0.11563267558813095,
          -0.09575842320919037,
          -0.20706406235694885,
          -0.011779062449932098,
          -0.29250919818878174,
          -0.15174207091331482,
          -0.23806288838386536,
          -0.010235199704766273,
          -0.06592394411563873,
          -0.18116337060928345,
          -0.11064506322145462,
          0.09101589024066925,
          0.024008747190237045
        ],
        [
          0.8831687569618225,
          0.7633533477783203,
          0.933884859085083,
          -0.0008167803171090782,
          0.26121172308921814,
          0.7905226349830627,
          0.34556660056114197,
          0.15685276687145233,
          0.22131900489330292,
          0.5001320838928223,
          0.4313071072101593,
          0.1450580358505249,
          0.5530609488487244,
          0.09459635615348816,
          0.5504823923110962,
          0.2791862189769745,
          0.683140218257904,
          0.05341220274567604,
          0.06662983447313309,
          0.26407068967819214,
          0.9657801389694214,
          1.6193934679031372,
          0.5818331241607666,
          0.48238372802734375,
          0.7866485714912415,
          0.036633607000112534,
          0.16535566747188568,
          -0.9435426592826843,
          0.10297878831624985,
          0.05650937929749489,
          -0.14306843280792236,
          0.03223166614770889,
          0.4024762511253357,
          0.19969166815280914,
          0.7085625529289246,
          0.04790772125124931,
          0.8442057967185974,
          0.11638782173395157,
          0.26595672965049744,
          0.24024724960327148,
          -1.3705006837844849,
          -1.7077127695083618,
          -0.6020137071609497,
          0.13007907569408417,
          -0.2965761721134186,
          0.030856559053063393,
          -0.12468928098678589,
          -0.30368196964263916,
          -0.6052024364471436,
          -1.1727160215377808,
          0.15558399260044098,
          -0.04794986918568611,
          -0.5405251383781433,
          0.011228546500205994,
          -0.17315882444381714,
          -0.008424928411841393,
          -0.35608774423599243,
          -0.1523853987455368,
          -0.02161087840795517,
          0.19208581745624542,
          0.11770028620958328,
          -0.4544892907142639,
          -0.7386798858642578,
          -0.2708514928817749,
          -0.12215306609869003,
          -0.10349467396736145,
          -0.37358179688453674,
          0.023840611800551414,
          0.09422695636749268,
          -0.2960023581981659,
          -0.4360673129558563,
          0.02150469459593296,
          -0.3096928298473358,
          0.06916003674268723,
          -0.2628326416015625,
          -0.3538454473018646,
          0.06551232933998108,
          -0.27898797392845154,
          0.14127203822135925,
          0.010176719166338444,
          -0.08721884340047836,
          -0.10064077377319336,
          -0.24035856127738953,
          -0.1284438967704773,
          -0.10800594836473465,
          -0.1382608860731125,
          0.046039607375860214,
          -0.05678761750459671,
          -0.11203401535749435,
          -0.07353159785270691,
          -0.08179013431072235,
          0.5052242875099182,
          -0.029061632230877876,
          0.20694905519485474,
          -0.24591630697250366,
          -0.06641484797000885,
          1.0098638534545898,
          -0.18355005979537964,
          0.9842961430549622,
          0.21424902975559235,
          -0.13860659301280975,
          -0.20415256917476654,
          0.06504688411951065,
          -0.17323271930217743,
          -0.10252010077238083,
          -0.208154559135437,
          0.12173977494239807,
          0.06025175377726555,
          -0.22956113517284393,
          0.01049709226936102,
          0.055179256945848465,
          0.05605519935488701,
          0.20245471596717834,
          -0.33065158128738403,
          -0.30943891406059265,
          -2.0979485511779785,
          -0.2621658444404602,
          -0.4661543369293213,
          -0.07321550697088242,
          -0.42484250664711,
          0.033519137650728226,
          -0.25055864453315735,
          -0.3535866141319275,
          0.13341856002807617,
          -0.9851940870285034,
          -0.7151585221290588,
          -0.5127509832382202,
          -0.19412299990653992,
          -0.23795154690742493,
          -0.35349157452583313,
          -0.07420996576547623,
          -0.1237839087843895,
          -0.215694397687912,
          0.0350530706346035,
          -0.31509438157081604,
          -0.31870827078819275,
          -0.1527099907398224,
          -0.2829054594039917,
          -0.0009377722744829953,
          -0.11188042908906937,
          -0.3379644453525543,
          -0.34077468514442444,
          -0.015186562202870846,
          -0.03297184035181999,
          -0.7772276997566223,
          -0.3052731156349182,
          -0.8000125885009766,
          -0.33620041608810425,
          0.0737936869263649,
          0.04805886745452881,
          0.0765400230884552,
          -0.19442757964134216,
          -0.39575913548469543,
          -0.4089997112751007,
          -0.3525472581386566,
          -0.4496384859085083,
          -0.5101438760757446,
          -0.24059700965881348,
          -0.47046205401420593,
          -0.04298752546310425,
          -0.13072949647903442,
          0.04398529231548309,
          -0.11120578646659851,
          -0.247068852186203,
          -0.09476017951965332,
          -0.20562899112701416,
          0.11456277221441269,
          -0.19847460091114044,
          -0.006828197743743658,
          0.060131754726171494,
          0.2886612117290497,
          -0.14288222789764404,
          -0.17342349886894226,
          0.11165731400251389,
          -0.1559692621231079,
          -0.1692570447921753,
          0.1794489324092865,
          0.065121591091156,
          0.09606905281543732
        ],
        [
          -0.24809105694293976,
          -0.130532369017601,
          0.1614539921283722,
          -0.19081604480743408,
          -0.0183721873909235,
          0.08763362467288971,
          -0.13365070521831512,
          0.002386989537626505,
          0.041516490280628204,
          0.09176713228225708,
          0.16552694141864777,
          -0.5076914429664612,
          0.1656535267829895,
          -0.21488776803016663,
          -0.1536722630262375,
          0.08636526763439178,
          0.09490815550088882,
          0.11593592166900635,
          0.1826871633529663,
          -0.16840270161628723,
          1.025412678718567,
          1.635616660118103,
          1.83013916015625,
          3.036614179611206,
          0.3214365541934967,
          -0.32891973853111267,
          -0.6008276343345642,
          -0.39286062121391296,
          0.4315953552722931,
          0.15597085654735565,
          0.28654077649116516,
          -0.06080487743020058,
          0.05002690851688385,
          0.6572604775428772,
          -0.6690913438796997,
          0.2246924787759781,
          0.9595663547515869,
          -1.3489855527877808,
          0.6423600316047668,
          0.6011537313461304,
          0.42094290256500244,
          -1.1565423011779785,
          -0.7316201329231262,
          0.21581155061721802,
          0.2405751496553421,
          -0.16423939168453217,
          0.26528823375701904,
          -0.4204634130001068,
          -0.19783343374729156,
          -0.6765673160552979,
          0.17115801572799683,
          0.10168344527482986,
          -0.7091195583343506,
          0.2659708857536316,
          -0.06625816226005554,
          0.18783995509147644,
          -0.044387198984622955,
          -0.039126016199588776,
          0.0022958244662731886,
          -0.3173999786376953,
          0.4085632264614105,
          -0.4120861291885376,
          -0.20758333802223206,
          0.013880851678550243,
          -0.199000746011734,
          -0.4101489186286926,
          -0.4720410406589508,
          -0.0332907997071743,
          -0.025868594646453857,
          -0.4457027018070221,
          -0.279516339302063,
          -0.35484591126441956,
          -0.06986067444086075,
          -0.28180089592933655,
          -0.5121212601661682,
          -0.41280898451805115,
          -0.06705496460199356,
          -0.10874708741903305,
          -0.12355194985866547,
          -0.1134548932313919,
          -0.26861464977264404,
          -0.14015881717205048,
          -0.03198710083961487,
          -0.1477564573287964,
          -0.1482783406972885,
          -0.23862768709659576,
          -0.25104478001594543,
          -0.10878048092126846,
          0.04651093855500221,
          0.14745482802391052,
          0.07902413606643677,
          0.6544545888900757,
          -0.08204670250415802,
          -0.11089245975017548,
          -0.46096524596214294,
          -0.17173421382904053,
          -1.0976803302764893,
          -0.10003180056810379,
          -0.6283021569252014,
          -1.65346360206604,
          -0.08408508449792862,
          -0.23406673967838287,
          -0.29377129673957825,
          -0.3009519875049591,
          -0.07583899796009064,
          -0.23541182279586792,
          0.02981431968510151,
          0.04629329964518547,
          -0.1637289971113205,
          0.05391758307814598,
          0.04113295301795006,
          -0.3179164230823517,
          0.0024081033188849688,
          -0.08230710029602051,
          0.07222843915224075,
          1.6785120964050293,
          0.09520364552736282,
          0.13798978924751282,
          0.05559568852186203,
          0.1726507544517517,
          0.25888827443122864,
          -0.05792177468538284,
          0.18462902307510376,
          0.33929356932640076,
          -0.10692188888788223,
          -0.06489073485136032,
          0.6447187662124634,
          0.240636944770813,
          0.035046495497226715,
          0.10405474901199341,
          0.44552770256996155,
          -0.024470429867506027,
          -0.030833696946501732,
          0.28403201699256897,
          0.4856249988079071,
          -0.07953892648220062,
          0.16435423493385315,
          0.0609479695558548,
          0.3580009639263153,
          0.4572737514972687,
          0.1672796905040741,
          0.3777376711368561,
          0.48658227920532227,
          0.3455391526222229,
          -0.031807512044906616,
          0.11272978782653809,
          -0.07655788213014603,
          0.08833182603120804,
          -0.047727689146995544,
          0.0713910236954689,
          0.04137515276670456,
          -0.06459909677505493,
          -0.0029902623500674963,
          -0.0660976991057396,
          -0.08193929493427277,
          0.12894131243228912,
          -0.1307266503572464,
          0.12590749561786652,
          -0.175813689827919,
          -0.3562166392803192,
          -0.1835714876651764,
          -0.5794445276260376,
          -0.13056926429271698,
          -0.2741405963897705,
          -0.3290799856185913,
          -0.091249480843544,
          -0.4074534773826599,
          -0.12775324285030365,
          -0.08528517931699753,
          -0.4656845033168793,
          -0.08422217518091202,
          -0.12165501713752747,
          -0.21077658236026764,
          -0.2716244161128998,
          -0.1653512865304947,
          -0.1345186084508896,
          -0.20085670053958893,
          0.036585722118616104,
          0.05156834423542023
        ],
        [
          -0.5681752562522888,
          -0.493663489818573,
          -0.41914236545562744,
          -0.03373703733086586,
          -0.2296304553747177,
          -0.22766369581222534,
          -0.3348176181316376,
          -0.1520211100578308,
          -0.25646066665649414,
          0.014184278436005116,
          -0.12995898723602295,
          -0.39687204360961914,
          -0.33203181624412537,
          -0.15907356142997742,
          -0.1448613852262497,
          -0.25078415870666504,
          -0.3240455985069275,
          0.07673986256122589,
          -0.10179343074560165,
          -0.18791700899600983,
          0.6844828128814697,
          0.9466791749000549,
          0.9000434279441833,
          1.6532455682754517,
          0.16634762287139893,
          -0.07177457213401794,
          -0.4669544994831085,
          -0.15903007984161377,
          0.49196791648864746,
          -0.16204942762851715,
          0.4651287794113159,
          -0.014529738575220108,
          -0.07260239124298096,
          0.0861130878329277,
          -0.8308051228523254,
          0.055138688534498215,
          0.7620986104011536,
          -1.0696946382522583,
          0.2650258541107178,
          0.0698835626244545,
          -0.4315786063671112,
          -0.43159785866737366,
          -0.2983611822128296,
          0.07989855110645294,
          0.34069323539733887,
          -0.11684030294418335,
          0.10735683888196945,
          -0.03482617065310478,
          0.30780333280563354,
          -0.3277890980243683,
          0.20431852340698242,
          -0.01770840771496296,
          -0.23089374601840973,
          0.08892618119716644,
          0.0814039334654808,
          0.12603230774402618,
          0.07185395061969757,
          -0.00012273987522348762,
          0.18911190330982208,
          -0.24167121946811676,
          -0.0008807842386886477,
          0.18590666353702545,
          0.14508453011512756,
          0.17028453946113586,
          -0.1326892375946045,
          -0.030657155439257622,
          -0.3246994912624359,
          0.11539562046527863,
          -0.011434068903326988,
          -0.1491042524576187,
          0.014902780763804913,
          -0.07482721656560898,
          -0.13462194800376892,
          -0.23528678715229034,
          -0.30309247970581055,
          -0.6472024321556091,
          -0.034258391708135605,
          -0.1135936975479126,
          -0.14036820828914642,
          -0.04005933552980423,
          -0.19529572129249573,
          -0.10401555895805359,
          -0.1793987900018692,
          -0.008276063948869705,
          0.09967649728059769,
          0.009983744472265244,
          -0.10137540847063065,
          0.060713112354278564,
          0.1235295832157135,
          0.09699368476867676,
          0.06042356416583061,
          0.30368998646736145,
          0.05011593922972679,
          -0.26008906960487366,
          -0.05948861688375473,
          -0.01641043834388256,
          -1.1058882474899292,
          -0.2336856722831726,
          -0.9290674924850464,
          -1.1330933570861816,
          0.09558162838220596,
          -0.08245210349559784,
          -0.10553246736526489,
          -0.18436573445796967,
          -0.06058439612388611,
          -0.24340151250362396,
          -0.2051723450422287,
          0.011863626539707184,
          0.07779605686664581,
          -0.08296030014753342,
          -0.14651522040367126,
          -0.29005298018455505,
          -0.13543811440467834,
          -0.3503456711769104,
          0.06025256961584091,
          1.4534127712249756,
          0.055748630315065384,
          0.3170563876628876,
          0.12048056721687317,
          0.18728473782539368,
          0.002646407810971141,
          0.13210991024971008,
          0.42683520913124084,
          0.4316917657852173,
          0.8256074786186218,
          0.611957848072052,
          0.7946749925613403,
          0.3348848223686218,
          0.08606008440256119,
          0.1236257553100586,
          0.4132975935935974,
          -0.22053185105323792,
          0.15465375781059265,
          0.33609649538993835,
          0.3269651234149933,
          0.052055515348911285,
          0.09352197498083115,
          0.10090701282024384,
          0.008988725952804089,
          0.3503582179546356,
          0.13081149756908417,
          0.09651663899421692,
          0.2561325132846832,
          0.34844937920570374,
          0.46441370248794556,
          0.26143741607666016,
          0.32429346442222595,
          0.5009293556213379,
          0.3275070786476135,
          0.12611141800880432,
          0.13211385905742645,
          0.20251192152500153,
          0.15554499626159668,
          0.09974639117717743,
          -0.018039271235466003,
          0.2891375422477722,
          0.06371204555034637,
          0.041029561311006546,
          0.44935619831085205,
          -0.19511452317237854,
          -0.2647336721420288,
          -0.25201642513275146,
          -0.16491058468818665,
          -0.36010536551475525,
          -0.19845713675022125,
          -0.006720581091940403,
          -0.20363517105579376,
          -0.4031701683998108,
          -0.4026941955089569,
          -0.2853081524372101,
          -0.1916123777627945,
          -0.15202933549880981,
          -0.10053218901157379,
          -0.022861408069729805,
          -0.015708940103650093,
          -0.2553490102291107,
          -0.22691097855567932,
          -0.16549931466579437,
          -0.021417656913399696
        ],
        [
          0.8887081742286682,
          0.790543258190155,
          0.8283219933509827,
          0.07736378163099289,
          0.1395563781261444,
          0.7924368381500244,
          0.20804457366466522,
          0.2536468505859375,
          0.2991825342178345,
          0.42312222719192505,
          0.4859570562839508,
          0.20914220809936523,
          0.398734450340271,
          0.22585557401180267,
          0.5417812466621399,
          0.18739742040634155,
          0.6915778517723083,
          0.2602970004081726,
          0.06040365993976593,
          0.03438858687877655,
          -1.4370760917663574,
          0.6748693585395813,
          -1.1631131172180176,
          -2.1216814517974854,
          -1.7332590818405151,
          -0.3684311807155609,
          -0.7918534874916077,
          -0.06045013293623924,
          -0.14232197403907776,
          0.24388180673122406,
          -0.8761765956878662,
          0.05520745366811752,
          -0.46869051456451416,
          -0.7578897476196289,
          -0.21065807342529297,
          -0.11257452517747879,
          -0.36167648434638977,
          -0.7196840047836304,
          -0.2961730659008026,
          -0.7102909684181213,
          -2.2572739124298096,
          0.1965663582086563,
          0.07545460760593414,
          -0.2566109597682953,
          -0.25722724199295044,
          -0.06898587197065353,
          -0.31483739614486694,
          0.2680625021457672,
          -0.13044169545173645,
          -0.11063601076602936,
          -0.2751634120941162,
          -0.3280251920223236,
          0.4788205623626709,
          0.041591398417949677,
          0.057732149958610535,
          -0.2569309175014496,
          0.21628659963607788,
          -0.01866021566092968,
          -0.18696889281272888,
          0.3038786053657532,
          -0.24588419497013092,
          0.017693454399704933,
          0.19752968847751617,
          0.24349060654640198,
          -0.20573416352272034,
          0.04407539591193199,
          -0.09358212351799011,
          -0.1468629688024521,
          -0.053086765110492706,
          -0.7660327553749084,
          -0.6972110271453857,
          -0.1068153828382492,
          -0.09522341191768646,
          -0.0973721519112587,
          0.12819963693618774,
          0.879821240901947,
          0.0008680153987370431,
          -0.033561158925294876,
          0.12902283668518066,
          -0.30217841267585754,
          0.09839257597923279,
          0.2632386386394501,
          -0.7290659546852112,
          -0.2280937284231186,
          -0.0026019366923719645,
          0.024505412206053734,
          -0.12677407264709473,
          -0.20960043370723724,
          -0.028156423941254616,
          -0.08652645349502563,
          -0.19630470871925354,
          -1.6547939777374268,
          0.38327541947364807,
          0.23292778432369232,
          0.3931032121181488,
          0.5481063723564148,
          -0.3426533639431,
          0.4377063810825348,
          -0.23484401404857635,
          0.05478670075535774,
          0.20947334170341492,
          0.21526901423931122,
          0.3102963864803314,
          0.2905224859714508,
          0.32570478320121765,
          0.18815700709819794,
          0.026731645688414574,
          0.09087589383125305,
          0.25842344760894775,
          0.2535707354545593,
          0.13466539978981018,
          0.20369753241539001,
          0.018518028780817986,
          0.37731343507766724,
          0.025850361213088036,
          -1.151745319366455,
          0.3063011169433594,
          -0.11111367493867874,
          0.04989485815167427,
          -0.3272594213485718,
          0.09030138701200485,
          0.07933060079813004,
          0.3952033221721649,
          0.24858668446540833,
          1.0373488664627075,
          0.6895638108253479,
          0.5553330779075623,
          -0.005968403071165085,
          0.304342120885849,
          0.1449085772037506,
          0.3293578624725342,
          0.08509711176156998,
          0.019183507189154625,
          -0.2959270179271698,
          -0.2047828733921051,
          -0.07890820503234863,
          -0.34923943877220154,
          -0.29325366020202637,
          -0.06360674649477005,
          -0.39380472898483276,
          -0.24110722541809082,
          -0.0064656781032681465,
          -0.6176533102989197,
          -0.4487552344799042,
          -0.13845036923885345,
          -1.2581490278244019,
          -0.07138454169034958,
          -0.21550415456295013,
          -0.2510378956794739,
          -0.2934368848800659,
          -0.432464063167572,
          -0.08383399993181229,
          0.00898849219083786,
          -0.24241062998771667,
          0.10400554537773132,
          -0.2319667786359787,
          -0.1214035376906395,
          -0.08430831879377365,
          0.18351250886917114,
          0.2726457417011261,
          0.08843579143285751,
          0.6521082520484924,
          0.201079323887825,
          0.5321055054664612,
          0.6451300382614136,
          0.19070649147033691,
          0.06049591302871704,
          0.08408655971288681,
          0.2300451248884201,
          0.19861578941345215,
          0.0473235622048378,
          0.3280662000179291,
          0.1550852656364441,
          0.2003486454486847,
          0.05011731758713722,
          0.2088121920824051,
          -0.0011378396302461624,
          0.06405395269393921,
          -0.022511795163154602
        ],
        [
          0.4573729932308197,
          0.549494206905365,
          0.5664069652557373,
          0.021416401490569115,
          -0.09151361882686615,
          0.3844318687915802,
          0.2786923050880432,
          0.046045977622270584,
          0.18240243196487427,
          0.2360142171382904,
          0.18780554831027985,
          -0.06289366632699966,
          0.3045516908168793,
          0.04211597144603729,
          0.32148289680480957,
          0.02539421245455742,
          0.6381195187568665,
          0.2609589397907257,
          0.05014234781265259,
          0.03405467048287392,
          -0.4368364214897156,
          0.347248375415802,
          0.40155643224716187,
          1.045302391052246,
          -0.60349440574646,
          -0.19337530434131622,
          -1.2503838539123535,
          -0.32070454955101013,
          -0.12053182721138,
          -0.05611605569720268,
          -0.21697983145713806,
          0.33126458525657654,
          -0.06119954213500023,
          -0.11498720198869705,
          -0.7009866833686829,
          -0.04103519394993782,
          0.6305047273635864,
          -0.9095024466514587,
          0.01794321835041046,
          -0.0872546136379242,
          -2.153038263320923,
          -0.2164018601179123,
          -0.14714564383029938,
          0.2403782457113266,
          0.16168026626110077,
          0.005672585219144821,
          0.021123308688402176,
          -0.1352190375328064,
          -0.0887053981423378,
          -0.10475187003612518,
          0.24608375132083893,
          0.20847360789775848,
          -0.18637491762638092,
          0.244836688041687,
          -0.20599550008773804,
          -0.014484328217804432,
          0.03456337749958038,
          -0.12156955897808075,
          -0.08049361407756805,
          -0.05126312002539635,
          0.2111259251832962,
          0.05172385647892952,
          -0.04874906316399574,
          0.11744580417871475,
          -0.30428728461265564,
          -0.07891368865966797,
          -0.2324199378490448,
          -0.12152949720621109,
          0.025969138368964195,
          -0.5340977907180786,
          -0.6128582954406738,
          -0.05647185817360878,
          -0.2258118987083435,
          0.009879685007035732,
          -0.1440264880657196,
          -0.4515753388404846,
          -0.26538652181625366,
          -0.182388037443161,
          -0.06276194006204605,
          -0.20220859348773956,
          -0.17214612662792206,
          0.1836516261100769,
          -0.4842533767223358,
          0.042919278144836426,
          0.008032545447349548,
          -0.05852577090263367,
          -0.058614835143089294,
          0.13389021158218384,
          0.0781218484044075,
          -0.04066937044262886,
          0.07196910679340363,
          -0.40669283270835876,
          0.2102656215429306,
          0.0006075737765058875,
          -0.2486598640680313,
          0.10034994781017303,
          -0.6038835048675537,
          0.18894782662391663,
          -0.44186103343963623,
          -0.5499919652938843,
          -0.025085365399718285,
          0.09019754827022552,
          -0.06181992590427399,
          0.12926724553108215,
          -0.10454143583774567,
          0.007689198944717646,
          0.10677632689476013,
          0.17453457415103912,
          0.11354231834411621,
          0.043803803622722626,
          -0.10630250722169876,
          -0.07821117341518402,
          0.018963675945997238,
          -0.3211631774902344,
          -0.12098570913076401,
          -1.2255970239639282,
          -0.420917272567749,
          -0.20558761060237885,
          -0.2592824399471283,
          -0.02515588328242302,
          0.04183417931199074,
          0.0018055266700685024,
          0.24982605874538422,
          0.07981806248426437,
          0.9834886789321899,
          0.5774223208427429,
          0.6884228587150574,
          0.039669428020715714,
          0.26679539680480957,
          -0.009484594687819481,
          0.4523369371891022,
          -0.11542075872421265,
          0.1917915940284729,
          -0.04725975915789604,
          0.2369687259197235,
          -0.014316318556666374,
          -0.11210079491138458,
          0.000996704795397818,
          0.11040356010198593,
          0.12921161949634552,
          -0.14184334874153137,
          -0.08872475475072861,
          0.2468087524175644,
          0.1113140806555748,
          0.00260384613648057,
          -0.03450089320540428,
          -0.1056598648428917,
          -0.09635881334543228,
          0.18056492507457733,
          0.14456181228160858,
          -0.14543417096138,
          -0.05149311572313309,
          -0.13224677741527557,
          0.13539350032806396,
          0.12824703752994537,
          -0.14426526427268982,
          0.003309851046651602,
          -0.10172996670007706,
          -0.16401851177215576,
          0.0415191575884819,
          0.07861372828483582,
          0.0048193419352173805,
          0.008887335658073425,
          0.1957869976758957,
          -0.011208944022655487,
          -0.22540949285030365,
          -0.182912677526474,
          -0.2378665655851364,
          0.08406060189008713,
          -0.08746975660324097,
          -0.14735792577266693,
          0.16231168806552887,
          0.06621046364307404,
          -0.03420532867312431,
          0.17784574627876282,
          0.009781948290765285,
          -0.0684671550989151,
          -0.008149119094014168,
          -0.06138982996344566
        ],
        [
          -0.33118578791618347,
          -0.4911760687828064,
          -0.48531094193458557,
          0.0350845605134964,
          -0.0585860051214695,
          -0.45138293504714966,
          -0.168766051530838,
          -0.06284715235233307,
          0.10074109584093094,
          -0.0681953877210617,
          -0.12947311997413635,
          -0.011572711169719696,
          0.07947556674480438,
          -0.2551025450229645,
          -0.16810257732868195,
          -0.24550993740558624,
          -0.16927282512187958,
          0.06839551776647568,
          -0.03012116625905037,
          -0.23173867166042328,
          1.51738703250885,
          -0.6842420101165771,
          0.6719561219215393,
          0.7535653710365295,
          1.2129820585250854,
          0.5237345099449158,
          1.2482014894485474,
          -0.15042412281036377,
          -0.2634999752044678,
          -0.1931353062391281,
          0.5690151453018188,
          -0.2802616357803345,
          0.4063454866409302,
          0.4629115164279938,
          0.1662943810224533,
          -0.007315882947295904,
          0.4748341739177704,
          0.6463267207145691,
          0.20449721813201904,
          0.41582009196281433,
          0.7298542857170105,
          -1.5302733182907104,
          -0.9593586921691895,
          -0.06685764342546463,
          -0.35251662135124207,
          0.12929430603981018,
          -0.15270601212978363,
          -0.5878688097000122,
          -0.3234768807888031,
          -1.2559983730316162,
          -0.08436191827058792,
          -0.021233100444078445,
          -0.4634825885295868,
          0.045350801199674606,
          -0.4125783443450928,
          -0.07852392643690109,
          -0.5340891480445862,
          -0.2562296688556671,
          0.02475857548415661,
          0.27151232957839966,
          0.2519429922103882,
          -0.6129031777381897,
          -0.41098809242248535,
          -0.09397523105144501,
          -0.13050365447998047,
          -0.18705959618091583,
          -0.12034565210342407,
          0.20572687685489655,
          -0.174006849527359,
          0.2883255183696747,
          0.061735671013593674,
          0.12032315135002136,
          -0.22168512642383575,
          -0.11174221336841583,
          -0.2929801344871521,
          -0.010358844883739948,
          0.02567688189446926,
          -0.21434707939624786,
          0.15377621352672577,
          0.18309533596038818,
          -0.2831385135650635,
          -0.28442996740341187,
          0.13181588053703308,
          0.1697344034910202,
          0.20274680852890015,
          -0.021420273929834366,
          -0.09930047392845154,
          0.1742660105228424,
          0.046471163630485535,
          0.14290465414524078,
          -0.013023615814745426,
          1.356364130973816,
          -0.07565473765134811,
          -0.23713259398937225,
          -0.5442792177200317,
          -0.4361667335033417,
          0.7707825899124146,
          -0.2727164924144745,
          0.6940387487411499,
          0.8083324432373047,
          -0.02993088588118553,
          -0.2093588262796402,
          -0.17964275181293488,
          -0.24977350234985352,
          -0.3043389916419983,
          0.06844757497310638,
          0.08935806900262833,
          -0.3176203668117523,
          -0.012500270269811153,
          -0.25115692615509033,
          0.13429370522499084,
          -0.00521165831014514,
          0.09799238294363022,
          -0.12696000933647156,
          0.03268991783261299,
          -1.44901704788208,
          0.07865297049283981,
          -0.20478655397891998,
          -0.34110143780708313,
          -0.16633394360542297,
          0.0005141189321875572,
          -0.10676164925098419,
          -0.4460892975330353,
          -0.5229116678237915,
          -0.9649065732955933,
          -0.7195557951927185,
          -0.3950827419757843,
          0.007797127589583397,
          -0.18988272547721863,
          -0.2223774939775467,
          -0.04080750048160553,
          -0.009781470522284508,
          0.10293929278850555,
          0.2581139802932739,
          0.18333642184734344,
          0.014716636389493942,
          -0.11250605434179306,
          0.10976465791463852,
          0.02411809004843235,
          0.27068883180618286,
          0.11247032880783081,
          -0.023704254999756813,
          0.27466052770614624,
          0.38643068075180054,
          -0.2538699507713318,
          0.64520263671875,
          -0.34901028871536255,
          0.11517881602048874,
          0.12349949777126312,
          0.10588540881872177,
          0.1885659098625183,
          -0.1423446536064148,
          -0.06265189498662949,
          -0.011002058163285255,
          -0.08895484358072281,
          0.17526601254940033,
          0.0577215738594532,
          -0.18728448450565338,
          -0.057522308081388474,
          0.13531933724880219,
          0.014261367730796337,
          0.1635878086090088,
          0.17734754085540771,
          -0.21771760284900665,
          -0.022211918607354164,
          0.14039140939712524,
          0.026808790862560272,
          0.19623449444770813,
          0.006477512884885073,
          0.18977923691272736,
          0.35363560914993286,
          0.09702683240175247,
          0.2840438783168793,
          0.3025323450565338,
          0.058517538011074066,
          0.2031913846731186,
          -0.04092080146074295,
          -0.043606553226709366,
          -0.04720570147037506
        ],
        [
          -0.2811332046985626,
          -0.38625368475914,
          -0.18530313670635223,
          -0.3470558226108551,
          0.05919631943106651,
          -0.3485350012779236,
          0.04973307251930237,
          0.07044798880815506,
          -0.24200482666492462,
          -0.0983113944530487,
          -0.28494152426719666,
          0.07626336812973022,
          -0.05535878986120224,
          0.10947321355342865,
          0.010632392019033432,
          -0.024711882695555687,
          -0.142055943608284,
          -0.060160670429468155,
          0.05792493000626564,
          -0.11915387213230133,
          -0.0724889487028122,
          0.7276648879051208,
          -0.4750780463218689,
          -0.7576115131378174,
          -0.8512287139892578,
          -0.1265350878238678,
          -0.7179333567619324,
          0.28850874304771423,
          -0.036442480981349945,
          0.302683562040329,
          0.20552074909210205,
          0.028941607102751732,
          -0.18057222664356232,
          -0.5790565609931946,
          -0.9006021022796631,
          -0.19002097845077515,
          -0.2287217080593109,
          -1.4698121547698975,
          -0.34120747447013855,
          -0.39109349250793457,
          -1.4917035102844238,
          -0.4966268539428711,
          -0.3024570643901825,
          -0.2575695812702179,
          -0.05033160001039505,
          0.1177477091550827,
          0.01810307987034321,
          -0.06908593326807022,
          -0.08703497797250748,
          -0.21982690691947937,
          -0.1323033720254898,
          -0.06996670365333557,
          -0.11290819942951202,
          0.06272117793560028,
          0.13513216376304626,
          0.07625392824411392,
          0.22861255705356598,
          -0.025619450956583023,
          0.05742685869336128,
          -0.26278311014175415,
          -0.2159883677959442,
          0.2230125516653061,
          0.08985743671655655,
          0.06235387548804283,
          0.13258661329746246,
          0.19756673276424408,
          -0.08560726046562195,
          -0.16129565238952637,
          0.03855631873011589,
          -0.142042338848114,
          0.06427404284477234,
          -0.19446876645088196,
          0.017344040796160698,
          0.12469641864299774,
          0.2286314219236374,
          0.32300862669944763,
          0.01567842811346054,
          -0.027220631018280983,
          0.04352681338787079,
          -0.09257075935602188,
          -0.166021928191185,
          -0.03585916757583618,
          -0.06196437031030655,
          0.08699999004602432,
          -0.057422466576099396,
          0.027438335120677948,
          -0.07263808697462082,
          -0.024257611483335495,
          0.11141709238290787,
          0.14847584068775177,
          0.07243937253952026,
          -0.0039764088578522205,
          -0.10513634979724884,
          -0.1461072564125061,
          -0.11036985367536545,
          -0.09233696013689041,
          -0.7464823126792908,
          0.14922255277633667,
          -0.6989684104919434,
          -0.6755192279815674,
          0.05634896829724312,
          0.005949856247752905,
          0.19085650146007538,
          0.18703706562519073,
          -0.1371810883283615,
          -0.07571753859519958,
          -0.01572553627192974,
          0.02111986093223095,
          -0.13460637629032135,
          0.18722696602344513,
          -0.17131371796131134,
          0.09185177832841873,
          -0.01652829349040985,
          0.39148515462875366,
          0.14488571882247925,
          1.2337868213653564,
          0.1403682827949524,
          0.14544685184955597,
          0.18075929582118988,
          0.3435786962509155,
          0.16911928355693817,
          0.17191721498966217,
          0.6147855520248413,
          0.7981877326965332,
          1.1106526851654053,
          0.8670399785041809,
          0.6951799988746643,
          0.1914992332458496,
          0.31240615248680115,
          0.07342231273651123,
          0.390169620513916,
          0.08082164078950882,
          0.2175307273864746,
          0.24982009828090668,
          0.07043580710887909,
          0.3525444269180298,
          0.1712605357170105,
          -0.008786533027887344,
          0.13497619330883026,
          0.12067557126283646,
          0.44431790709495544,
          0.23601341247558594,
          -0.08393635600805283,
          -0.2583874762058258,
          0.320223331451416,
          0.121510349214077,
          0.3092160224914551,
          0.481772243976593,
          0.21392638981342316,
          -0.048886291682720184,
          -0.04538752883672714,
          0.38540077209472656,
          0.12118890881538391,
          0.4106537103652954,
          0.06466429680585861,
          0.1225602999329567,
          0.2572694420814514,
          0.1583019644021988,
          0.23535270988941193,
          0.152339369058609,
          0.019135700538754463,
          -0.013735271990299225,
          0.13867692649364471,
          0.32651224732398987,
          0.026849543675780296,
          0.08808072656393051,
          0.04738178104162216,
          -0.07497991621494293,
          0.13129152357578278,
          -0.0695943608880043,
          -0.2392016500234604,
          -0.04816751182079315,
          -0.2105475664138794,
          -0.19160106778144836,
          -0.12996983528137207,
          -0.010952630080282688,
          -0.09370242804288864,
          -0.16472561657428741,
          0.05992511287331581
        ],
        [
          0.6677597761154175,
          0.5639557242393494,
          0.7320370674133301,
          -0.28243789076805115,
          0.15872503817081451,
          0.4410448670387268,
          0.12533257901668549,
          0.036686621606349945,
          0.0020607546903192997,
          0.2781476378440857,
          0.2345089167356491,
          -0.06843911856412888,
          0.18167848885059357,
          0.3905746340751648,
          0.39918944239616394,
          0.1481347382068634,
          0.422718346118927,
          0.13878992199897766,
          0.1140199676156044,
          0.22358106076717377,
          -1.1264777183532715,
          1.0904762744903564,
          -0.8607574105262756,
          -1.0179953575134277,
          -1.4426743984222412,
          -0.23450399935245514,
          -1.2225273847579956,
          -0.06369730830192566,
          0.07271245867013931,
          0.4049261510372162,
          -0.5836284756660461,
          0.024616526439785957,
          -0.5322136878967285,
          -0.7100088000297546,
          -0.5459479093551636,
          0.0626288652420044,
          0.10063913464546204,
          -1.338742971420288,
          -0.23593121767044067,
          -0.455517441034317,
          -2.2939910888671875,
          0.4701331555843353,
          0.3957761526107788,
          0.0426127128303051,
          -0.0063745430670678616,
          0.08349940180778503,
          0.12290177494287491,
          0.21941009163856506,
          -0.13479118049144745,
          0.30647316575050354,
          -0.024151720106601715,
          -0.2402338832616806,
          0.4216884672641754,
          0.05904823914170265,
          0.20994849503040314,
          0.016750570386648178,
          0.414186954498291,
          0.0501990020275116,
          0.02129530720412731,
          0.25811782479286194,
          -0.15725146234035492,
          0.09570430964231491,
          0.17592769861221313,
          0.3131980895996094,
          -0.04666176065802574,
          0.16332386434078217,
          0.1219523474574089,
          0.0701068565249443,
          -0.08537401258945465,
          -0.6300979256629944,
          -0.4307597279548645,
          -0.25656282901763916,
          0.05159614235162735,
          -0.0416426956653595,
          0.3901762366294861,
          0.43518659472465515,
          0.07042255252599716,
          -0.2038961797952652,
          -0.0482281818985939,
          -0.06626936793327332,
          0.22029279172420502,
          -0.08249159157276154,
          -0.5040251016616821,
          0.09930995106697083,
          -0.04151459038257599,
          0.07418009638786316,
          -0.0022317126858979464,
          0.07086960971355438,
          -0.1652025729417801,
          0.005884378682821989,
          -0.2158699333667755,
          -1.19874906539917,
          0.17130307853221893,
          -0.052052225917577744,
          0.1633276492357254,
          0.2383110672235489,
          -0.8085349798202515,
          0.3624483048915863,
          -0.7904936075210571,
          -0.8906124234199524,
          0.032964643090963364,
          0.12179907411336899,
          0.18982835114002228,
          0.32529979944229126,
          0.10511183738708496,
          -0.1304844170808792,
          0.2260253131389618,
          0.2805297076702118,
          0.09975770115852356,
          0.13854902982711792,
          0.1597450077533722,
          0.11716485023498535,
          -0.009391061030328274,
          0.17479273676872253,
          0.1949913203716278,
          0.2979670464992523,
          0.13231486082077026,
          -0.139800563454628,
          -0.040364980697631836,
          -0.06744658201932907,
          0.08869075775146484,
          0.002538771368563175,
          0.2610251009464264,
          0.41213899850845337,
          1.24114990234375,
          0.6287023425102234,
          0.7457714080810547,
          -0.12575629353523254,
          0.45350682735443115,
          -0.0052398210391402245,
          0.3880188763141632,
          -0.09919469058513641,
          0.057364240288734436,
          -0.09548234939575195,
          -0.23315943777561188,
          0.1518210768699646,
          -0.15124721825122833,
          0.012096771039068699,
          -0.16566383838653564,
          -0.048372745513916016,
          -0.0974193662405014,
          0.054637618362903595,
          -0.5786038041114807,
          -0.4975515305995941,
          0.12422580271959305,
          -0.945698082447052,
          0.0477244108915329,
          -0.3035699129104614,
          -0.28401562571525574,
          -0.40666908025741577,
          -0.055055171251297,
          0.09237971156835556,
          -0.07549630850553513,
          0.06425295770168304,
          -0.12869594991207123,
          -0.03576097637414932,
          0.016538584604859352,
          -0.01820538379251957,
          0.04599301144480705,
          0.2427748739719391,
          -0.08610135316848755,
          0.1403774917125702,
          -0.028933996334671974,
          0.3380778729915619,
          0.5015690922737122,
          -0.033188045024871826,
          0.05400675907731056,
          -0.10849735140800476,
          0.12792865931987762,
          -0.05382199585437775,
          0.13165459036827087,
          0.15914084017276764,
          0.12132768332958221,
          -0.10748589783906937,
          -0.054883550852537155,
          -0.1456158459186554,
          -0.11664985865354538,
          -0.12679730355739594,
          0.08557463437318802
        ],
        [
          -0.6832796931266785,
          -0.6557636260986328,
          -0.605567455291748,
          -0.4129038453102112,
          -0.1798885017633438,
          -0.4994458258152008,
          -0.014603412710130215,
          -0.03234207630157471,
          0.06009180098772049,
          -0.24645110964775085,
          -0.3438405692577362,
          -0.211379736661911,
          -0.49929389357566833,
          0.048230644315481186,
          -0.4574316740036011,
          0.008242669515311718,
          -0.4654303789138794,
          0.05887557938694954,
          -0.11615605652332306,
          -0.1928265392780304,
          0.12271476536989212,
          -1.7466464042663574,
          -1.9196391105651855,
          -3.1254703998565674,
          -0.25598353147506714,
          -0.11749865859746933,
          0.2918514609336853,
          0.92475825548172,
          -0.2246314436197281,
          -0.2299623340368271,
          0.25809648633003235,
          -0.1051076352596283,
          -0.033284179866313934,
          -0.6942194700241089,
          0.29026108980178833,
          -0.342315137386322,
          -1.4309589862823486,
          -0.053658246994018555,
          -0.6241573095321655,
          -0.8629224896430969,
          -1.2245328426361084,
          0.939847469329834,
          0.46625930070877075,
          -0.46641775965690613,
          -0.2059987187385559,
          -0.047227293252944946,
          -0.21674902737140656,
          0.25582924485206604,
          -0.07198085635900497,
          0.5128569602966309,
          -0.2941756248474121,
          -0.5213844776153564,
          0.6317408084869385,
          -0.18329258263111115,
          0.19168497622013092,
          -0.17359524965286255,
          0.05259621888399124,
          -0.101739801466465,
          -0.20324356853961945,
          -0.13582278788089752,
          -0.46718156337738037,
          0.2560441195964813,
          0.15997926890850067,
          0.09350665658712387,
          0.24650081992149353,
          0.24246396124362946,
          0.624825656414032,
          0.05647799372673035,
          0.2852173149585724,
          0.38624563813209534,
          0.5229355692863464,
          0.30834630131721497,
          0.3193722665309906,
          0.26196160912513733,
          0.4192979335784912,
          -0.29366427659988403,
          0.3446412682533264,
          0.3635439872741699,
          0.12684841454029083,
          0.2513337731361389,
          0.1901683509349823,
          0.06220163032412529,
          0.2611507773399353,
          0.031610701233148575,
          -0.09260455518960953,
          0.10306640714406967,
          0.17319543659687042,
          0.09624957293272018,
          0.22004351019859314,
          0.06318401545286179,
          0.204037606716156,
          0.23372916877269745,
          0.06987052410840988,
          -0.17653031647205353,
          0.3233916461467743,
          0.24737843871116638,
          0.8860184550285339,
          0.3395357131958008,
          0.1161971464753151,
          1.5417454242706299,
          -0.09550441056489944,
          0.17794735729694366,
          0.13855047523975372,
          0.11644945293664932,
          0.1957697719335556,
          0.001841238816268742,
          -0.07447570562362671,
          0.029837366193532944,
          0.07886624336242676,
          0.2161771059036255,
          0.21261386573314667,
          0.1379050761461258,
          0.04476824030280113,
          0.1051195040345192,
          -0.280720591545105,
          -0.5108364820480347,
          -0.1492832899093628,
          -0.15824341773986816,
          -0.07422071695327759,
          0.24178269505500793,
          -0.1944449543952942,
          -0.12962618470191956,
          0.30363938212394714,
          0.070992112159729,
          1.0309380292892456,
          0.7198991775512695,
          0.2192351073026657,
          0.023594440892338753,
          0.19551943242549896,
          -0.016486426815390587,
          0.08202928304672241,
          -0.03697194159030914,
          0.021793272346258163,
          -0.4191626012325287,
          -0.2542819380760193,
          0.07683868706226349,
          -0.3557448983192444,
          0.06965314596891403,
          -0.4067399203777313,
          -0.465719074010849,
          0.20042844116687775,
          -0.052145686000585556,
          -0.06885390728712082,
          -0.343563050031662,
          0.7467496395111084,
          0.43933388590812683,
          0.8115906715393066,
          0.4160853326320648,
          0.1003388911485672,
          0.09705180674791336,
          0.06344375014305115,
          0.2614521384239197,
          0.4950694441795349,
          0.2881465554237366,
          0.4175243377685547,
          0.42955997586250305,
          0.3501693308353424,
          0.46975043416023254,
          0.6213907599449158,
          0.036191683262586594,
          -0.008123977109789848,
          -0.026868432760238647,
          -0.18238422274589539,
          -0.1993120163679123,
          -0.16667737066745758,
          -0.012676187790930271,
          -0.01148693822324276,
          -0.025508878752589226,
          -0.0745658352971077,
          -0.15985314548015594,
          -0.016925005242228508,
          0.09854909032583237,
          0.08513148874044418,
          -0.05476637929677963,
          0.1683303862810135,
          -0.16157035529613495,
          -0.22692659497261047,
          0.09626258909702301,
          0.21638540923595428
        ],
        [
          -0.6736591458320618,
          -0.648302435874939,
          -0.5007544755935669,
          -0.09177177399396896,
          -0.002528030890971422,
          -0.5680539011955261,
          -0.2010842114686966,
          -0.12987467646598816,
          -0.15559349954128265,
          -0.4195842444896698,
          -0.42116817831993103,
          0.5933283567428589,
          -0.19696161150932312,
          -0.2925114631652832,
          -0.3007979393005371,
          -0.09907054901123047,
          -0.285584419965744,
          0.0034510651603341103,
          -0.19879217445850372,
          -0.043893080204725266,
          0.48374083638191223,
          -0.027586862444877625,
          0.018106045201420784,
          -0.38916611671447754,
          0.5553247928619385,
          0.7299883961677551,
          0.861298680305481,
          0.4202439785003662,
          0.03501546010375023,
          0.21829119324684143,
          -0.17176836729049683,
          -0.21086470782756805,
          0.2744959890842438,
          -0.07064830511808395,
          0.7017720937728882,
          -0.03978710249066353,
          -0.46926671266555786,
          0.8971328139305115,
          -0.15291740000247955,
          0.2119438499212265,
          2.097620725631714,
          -0.08719103038311005,
          -0.13874401152133942,
          0.10913097858428955,
          -0.2978273630142212,
          0.23922322690486908,
          -0.003142795292660594,
          0.014732779003679752,
          -0.08034787327051163,
          -0.27428990602493286,
          0.048117902129888535,
          -0.260956734418869,
          0.016332777217030525,
          -0.01821795664727688,
          -0.04408441111445427,
          0.005061489064246416,
          -0.11526419222354889,
          -0.028256673365831375,
          -0.1315334588289261,
          0.5353209972381592,
          -0.18255728483200073,
          -0.09686263650655746,
          0.019241217523813248,
          -0.05171467736363411,
          0.3373855948448181,
          0.039854079484939575,
          -0.05923616886138916,
          -0.0006099370075389743,
          0.11299752444028854,
          0.6375322937965393,
          0.462209016084671,
          0.08494275063276291,
          0.18399789929389954,
          0.13679052889347076,
          -0.06389936804771423,
          0.7178707718849182,
          0.05217525362968445,
          0.11645923554897308,
          0.14839419722557068,
          0.2712395191192627,
          0.07181665301322937,
          -0.14578232169151306,
          0.4152442514896393,
          0.12205898016691208,
          0.16196618974208832,
          0.22704805433750153,
          0.20106667280197144,
          -0.10127227008342743,
          -0.016528718173503876,
          -0.13545827567577362,
          0.08207379281520844,
          0.3026828467845917,
          0.0010585192358121276,
          -0.02674633078277111,
          -0.06327388435602188,
          0.023798149079084396,
          0.590273916721344,
          0.02781890705227852,
          0.3598765432834625,
          0.6938547492027283,
          -0.016118302941322327,
          -0.2112828940153122,
          -0.16417153179645538,
          -0.028227459639310837,
          -0.026591509580612183,
          0.05886489897966385,
          -0.1916903555393219,
          0.02193085290491581,
          -0.017465919256210327,
          0.11271784454584122,
          -0.06563644111156464,
          -0.2272643893957138,
          0.2519494593143463,
          0.5410099029541016,
          0.33604973554611206,
          0.05019702762365341,
          0.36597511172294617,
          -0.006208473350852728,
          0.035314492881298065,
          -0.25369730591773987,
          0.2988075017929077,
          0.1130729615688324,
          -0.3457667827606201,
          -0.23041406273841858,
          -0.8286017179489136,
          -0.6657125353813171,
          -0.6682010889053345,
          -0.036297548562288284,
          -0.3909832239151001,
          -0.2015305459499359,
          -0.5250806212425232,
          -0.028322778642177582,
          0.17082059383392334,
          -0.007413433399051428,
          -0.36993342638015747,
          -0.18354067206382751,
          -0.0990757867693901,
          -0.05206907540559769,
          0.0719873234629631,
          -0.29665008187294006,
          -0.15879197418689728,
          -0.22864118218421936,
          -0.31865954399108887,
          -0.24601291120052338,
          -0.22696352005004883,
          -0.07639318704605103,
          -0.07436276227235794,
          -0.09434260427951813,
          -0.16453126072883606,
          -0.0027741221711039543,
          -0.09533941745758057,
          -0.0895395427942276,
          -0.2256142497062683,
          -0.0743042454123497,
          -0.23635508120059967,
          -0.19685588777065277,
          -0.22071847319602966,
          -0.3471662700176239,
          -0.3452860414981842,
          0.42974695563316345,
          0.36588868498802185,
          0.6163203716278076,
          0.3805086314678192,
          0.080477274954319,
          -0.11817700415849686,
          0.1544378250837326,
          0.4670924246311188,
          0.344866544008255,
          0.32029488682746887,
          0.282458633184433,
          0.4616222083568573,
          0.25627732276916504,
          0.3448461890220642,
          0.4224857985973358,
          0.09469744563102722,
          0.20391477644443512,
          0.08546200394630432,
          -0.0958012267947197,
          0.10075178742408752
        ],
        [
          -1.271257758140564,
          -1.2973123788833618,
          -1.2108535766601562,
          -0.26175108551979065,
          -0.004635894205421209,
          -1.019724726676941,
          -0.19639025628566742,
          -0.5146667957305908,
          -0.1155279278755188,
          -0.5607176423072815,
          -0.6257294416427612,
          0.6156657338142395,
          -0.6872710585594177,
          -0.38922175765037537,
          -0.6730909943580627,
          -0.29697009921073914,
          -0.747747004032135,
          -0.3258233666419983,
          -0.022093014791607857,
          -0.11775217950344086,
          0.6459677219390869,
          -0.5204113721847534,
          -1.2875264883041382,
          -1.7314637899398804,
          -0.0037532150745391846,
          0.5547499060630798,
          1.6293590068817139,
          0.7039517164230347,
          -0.07514771819114685,
          0.24248696863651276,
          0.43715566396713257,
          -0.21158283948898315,
          0.20043669641017914,
          -0.37026721239089966,
          -0.42032402753829956,
          -0.09830012917518616,
          -0.7869550585746765,
          0.16764691472053528,
          -0.5399377942085266,
          -0.39064255356788635,
          2.0173187255859375,
          -0.17767693102359772,
          -0.2516363561153412,
          -0.21060976386070251,
          -0.07378923892974854,
          0.05616011470556259,
          -0.23931406438350677,
          0.23325282335281372,
          0.049494851380586624,
          -0.30081847310066223,
          -0.29867932200431824,
          -0.29798704385757446,
          0.12526512145996094,
          -0.09796743839979172,
          0.0336587019264698,
          -0.012446701526641846,
          -0.15124742686748505,
          -0.10849828273057938,
          0.13693201541900635,
          0.46964678168296814,
          -0.3317858576774597,
          0.07948954403400421,
          0.05036194995045662,
          -0.012292176485061646,
          0.14183185994625092,
          0.3368818759918213,
          0.15127414464950562,
          0.2527018189430237,
          0.11206864565610886,
          0.8035619258880615,
          0.6117785573005676,
          0.3408265709877014,
          0.09565731883049011,
          -0.13851988315582275,
          -0.008040294982492924,
          1.1122876405715942,
          0.3013056516647339,
          0.11046840250492096,
          0.05264880880713463,
          0.012225216254591942,
          0.09181220084428787,
          0.1581811010837555,
          0.56949782371521,
          -0.052340634167194366,
          -0.04484900087118149,
          0.0396653413772583,
          0.14239948987960815,
          0.22357815504074097,
          0.2442769557237625,
          -0.26589417457580566,
          0.03323213756084442,
          0.7840858697891235,
          -0.12167898565530777,
          -0.2014780044555664,
          -0.09622182697057724,
          -0.1269131898880005,
          0.3132260739803314,
          0.0025188650470227003,
          0.018834441900253296,
          1.1439540386199951,
          -0.13369551301002502,
          0.19138695299625397,
          0.13546019792556763,
          -0.20428691804409027,
          0.010726234875619411,
          0.19007550179958344,
          -0.28549155592918396,
          -0.2358778566122055,
          -0.1728062480688095,
          -0.11396393924951553,
          -0.20354999601840973,
          0.033407337963581085,
          0.23238615691661835,
          0.8039343357086182,
          0.47124525904655457,
          1.7524713277816772,
          0.828782320022583,
          0.17446354031562805,
          0.18915244936943054,
          -0.03583364933729172,
          0.3452974855899811,
          0.03984028846025467,
          -0.2957235872745514,
          0.26659253239631653,
          -0.9091877937316895,
          -0.578120768070221,
          -0.7788158059120178,
          -0.3658181428909302,
          -0.3024153411388397,
          -0.19111835956573486,
          -0.5551068186759949,
          0.17206665873527527,
          -0.16535653173923492,
          -0.16685067117214203,
          -0.27713268995285034,
          0.18063288927078247,
          0.07480177283287048,
          0.1328708976507187,
          -0.22440624237060547,
          -0.45127925276756287,
          0.1769256293773651,
          0.05991459637880325,
          -0.4126575291156769,
          0.003557901829481125,
          0.5369090437889099,
          0.7267752885818481,
          0.29868072271347046,
          0.43218523263931274,
          0.07124260812997818,
          0.32439088821411133,
          0.14244510233402252,
          0.2700308859348297,
          0.29847535490989685,
          0.3896854817867279,
          0.08823265135288239,
          0.19614551961421967,
          0.1311190128326416,
          0.26024895906448364,
          0.3477371335029602,
          0.4115871489048004,
          0.5444712042808533,
          0.9305054545402527,
          0.5776244401931763,
          0.3279310464859009,
          0.16883651912212372,
          0.36561304330825806,
          0.18301363289356232,
          0.5607479810714722,
          0.3709796071052551,
          0.3237472474575043,
          0.5035319924354553,
          0.22966842353343964,
          0.18585345149040222,
          0.3045508861541748,
          0.3263639807701111,
          0.3036729097366333,
          0.20654727518558502,
          0.17363789677619934,
          0.06555496156215668
        ],
        [
          -1.0970529317855835,
          -1.329343557357788,
          -1.2261050939559937,
          -0.464205801486969,
          -0.25770384073257446,
          -1.0975857973098755,
          -0.3295716345310211,
          -0.35104820132255554,
          -0.3425525724887848,
          -0.4060547649860382,
          -0.6629730463027954,
          0.39361679553985596,
          -0.5739044547080994,
          -0.10832666605710983,
          -0.6601690053939819,
          -0.14310939610004425,
          -0.7451558113098145,
          -0.35637760162353516,
          0.08391903340816498,
          -0.13088777661323547,
          1.1994798183441162,
          0.031027119606733322,
          -0.8762298822402954,
          -1.0632296800613403,
          0.16372404992580414,
          0.19562619924545288,
          1.2443106174468994,
          0.10274910181760788,
          0.039205361157655716,
          0.10631632059812546,
          0.4815683662891388,
          -0.3680868446826935,
          0.15350113809108734,
          -0.22243867814540863,
          -0.8199107050895691,
          -0.2499726265668869,
          -0.5011953711509705,
          -0.49494874477386475,
          -0.10708091408014297,
          -0.054124221205711365,
          1.7239041328430176,
          -0.5022306442260742,
          -0.34271788597106934,
          -0.14685726165771484,
          0.11439952254295349,
          -0.142549067735672,
          0.13217070698738098,
          -0.07829122990369797,
          0.10263077169656754,
          -0.28192126750946045,
          0.03678569197654724,
          -0.1923964023590088,
          0.11321289092302322,
          -0.17478488385677338,
          -0.04977184161543846,
          -0.09276266396045685,
          -0.1007700264453888,
          -0.06636253744363785,
          -0.07599880546331406,
          0.2803195118904114,
          -0.2874748706817627,
          0.18621771037578583,
          0.17954455316066742,
          0.21574781835079193,
          0.3375905156135559,
          0.29680949449539185,
          0.023555075749754906,
          0.19221290946006775,
          -0.019305378198623657,
          0.5293014049530029,
          0.8623359203338623,
          0.046256307512521744,
          0.008664540946483612,
          -0.08684707432985306,
          -0.16232743859291077,
          0.3466634452342987,
          0.21946139633655548,
          -0.06682945787906647,
          0.22601020336151123,
          0.2212197482585907,
          0.1339150220155716,
          -0.10707554221153259,
          0.47146666049957275,
          0.14861375093460083,
          0.19517000019550323,
          0.11473684757947922,
          0.1152740865945816,
          0.19066749513149261,
          0.04954235628247261,
          -0.11608774214982986,
          0.04296441003680229,
          0.8799720406532288,
          -0.2065543532371521,
          -0.2782330811023712,
          -0.26413288712501526,
          -0.23972314596176147,
          0.03729114308953285,
          0.021338684484362602,
          -0.4949661195278168,
          0.2171791046857834,
          -0.18152932822704315,
          0.04051942750811577,
          -0.01390558760613203,
          -0.12810611724853516,
          -0.256425142288208,
          -0.09180381894111633,
          -0.0965174213051796,
          0.1080818623304367,
          -0.25536274909973145,
          0.03602484613656998,
          -0.14415811002254486,
          -0.07206916809082031,
          0.001519087003543973,
          0.2319767326116562,
          0.33965474367141724,
          1.5748751163482666,
          0.3184323310852051,
          0.38612648844718933,
          -0.0125710004940629,
          0.32302534580230713,
          0.3196501135826111,
          0.07647542655467987,
          -0.05458365008234978,
          0.5703848600387573,
          -0.16412213444709778,
          0.02426493540406227,
          -0.15950888395309448,
          -0.010208492167294025,
          -0.12385279685258865,
          -0.04746697470545769,
          -0.15302030742168427,
          0.05382053554058075,
          0.13851575553417206,
          -0.14090760052204132,
          -0.04711155220866203,
          0.24305792152881622,
          -0.06822064518928528,
          0.15389472246170044,
          -0.1616797149181366,
          -0.3714549243450165,
          0.2704600393772125,
          0.3223504424095154,
          -0.274802029132843,
          -0.25124961137771606,
          0.6024181842803955,
          0.8458636403083801,
          0.5318683385848999,
          0.4916119873523712,
          0.3763763904571533,
          0.505802571773529,
          0.26401591300964355,
          0.4559749364852905,
          0.22731778025627136,
          0.3684544861316681,
          0.3815508186817169,
          0.6671314835548401,
          0.26603999733924866,
          0.3796854019165039,
          0.4792836904525757,
          0.4173315763473511,
          0.21842579543590546,
          0.4335577189922333,
          0.3499099016189575,
          0.10055752843618393,
          0.09811507910490036,
          0.18546590209007263,
          0.26746466755867004,
          0.4116056263446808,
          0.21357980370521545,
          -0.055347710847854614,
          0.22874778509140015,
          0.1385246217250824,
          0.1023414134979248,
          0.04515400528907776,
          0.21334727108478546,
          0.08056570589542389,
          0.12130232155323029,
          0.24999874830245972,
          0.14059756696224213
        ],
        [
          0.040548983961343765,
          0.06786555051803589,
          -0.1404130905866623,
          -0.13611918687820435,
          0.08716344833374023,
          -0.0892263725399971,
          -0.03343208134174347,
          0.09187111258506775,
          0.07151992619037628,
          -0.011671933345496655,
          0.010805644094944,
          0.0709591805934906,
          -0.13503877818584442,
          -0.1509699523448944,
          0.17926152050495148,
          -0.1588439643383026,
          0.12040311098098755,
          -0.17609180510044098,
          0.01734125427901745,
          0.14860296249389648,
          -0.5246918201446533,
          -0.1048235222697258,
          -0.5026450753211975,
          -0.969668984413147,
          -0.5499694347381592,
          -0.21416543424129486,
          0.2521964907646179,
          -0.07020872086286545,
          -0.03164326772093773,
          0.03588259965181351,
          0.06765088438987732,
          0.08563560247421265,
          0.05884319543838501,
          -0.3906751573085785,
          -0.22969534993171692,
          -0.12284395843744278,
          -0.36403965950012207,
          -0.22735698521137238,
          -0.23770876228809357,
          -0.3477504849433899,
          -0.8103448152542114,
          0.3800796866416931,
          0.09827960282564163,
          -0.1784050464630127,
          -0.19818678498268127,
          -0.009351000189781189,
          -0.003478693077340722,
          -0.03069777600467205,
          -0.16562578082084656,
          0.06274037808179855,
          -0.007418486755341291,
          0.06756632030010223,
          0.40326550602912903,
          -0.1274888962507248,
          -0.08079855889081955,
          0.08126986026763916,
          0.09165723621845245,
          -0.1557469516992569,
          -0.12150891125202179,
          0.13807019591331482,
          -0.18748360872268677,
          0.006571546196937561,
          0.20176410675048828,
          -0.02271783910691738,
          0.2152111530303955,
          0.1595097780227661,
          0.06676145642995834,
          -0.12429051846265793,
          0.21624422073364258,
          -0.06964465975761414,
          0.2538277208805084,
          -0.12628570199012756,
          -0.05388573929667473,
          0.04937967285513878,
          0.1644277274608612,
          0.3378191292285919,
          0.2037905603647232,
          0.019007300958037376,
          0.15679140388965607,
          -0.06533432006835938,
          -0.013873043470084667,
          -0.01010952889919281,
          -0.04311462119221687,
          -0.048486463725566864,
          0.010367528535425663,
          -0.12432140111923218,
          0.12856712937355042,
          -0.06653290241956711,
          0.014418824575841427,
          0.10413482785224915,
          0.11393693834543228,
          -0.005079076159745455,
          0.2045155167579651,
          0.06343377381563187,
          0.01767381653189659,
          0.025012362748384476,
          0.1537286788225174,
          -0.029074115678668022,
          0.17172862589359283,
          0.25648990273475647,
          -0.0425390861928463,
          0.24625205993652344,
          0.006396126002073288,
          0.08721208572387695,
          0.2313363254070282,
          -0.13153918087482452,
          0.15102863311767578,
          0.23101076483726501,
          -0.12094012647867203,
          0.029360331594944,
          -0.014765606261789799,
          0.20091289281845093,
          -0.09843024611473083,
          0.3085606098175049,
          0.07722897082567215,
          -0.21988913416862488,
          -0.01569605991244316,
          -0.084363654255867,
          0.09344863891601562,
          -0.20404483377933502,
          -0.16396968066692352,
          0.012504263781011105,
          0.26983776688575745,
          0.0778745487332344,
          0.3610580861568451,
          0.2920796275138855,
          0.013595953583717346,
          -0.08869832009077072,
          0.10966946929693222,
          -0.1282740831375122,
          0.05271828919649124,
          0.1241978257894516,
          0.17997534573078156,
          -0.09147818386554718,
          -0.24599292874336243,
          -0.12215908616781235,
          -0.24066433310508728,
          0.1337493658065796,
          -0.2524326741695404,
          -0.27866101264953613,
          0.11062001436948776,
          0.07988796383142471,
          -0.10301048308610916,
          -0.0377182774245739,
          0.20008911192417145,
          0.11332234740257263,
          0.05708632618188858,
          0.21257048845291138,
          -0.06715414673089981,
          -0.12910674512386322,
          -0.06864386051893234,
          0.10562005639076233,
          0.251934289932251,
          -0.011474832892417908,
          -0.09661868959665298,
          0.22407954931259155,
          0.21435001492500305,
          0.24115726351737976,
          0.15114934742450714,
          0.016106843948364258,
          0.2853381335735321,
          0.073585644364357,
          0.11747059226036072,
          -0.015435748733580112,
          0.16193678975105286,
          -0.019367989152669907,
          0.09783819317817688,
          0.18118104338645935,
          0.222603902220726,
          0.15214872360229492,
          0.2282065749168396,
          0.212070494890213,
          0.22487686574459076,
          0.018887042999267578,
          0.14531512558460236,
          -0.013626406900584698,
          -0.031306467950344086,
          -0.13923627138137817,
          0.153498113155365
        ]
      ],
      "biases": [
        0.40619906783103943,
        -0.841297447681427,
        0.31089863181114197,
        -0.18258805572986603,
        0.06020322069525719,
        -0.003698552493005991,
        0.6717825531959534,
        0.575810432434082,
        -0.10437264293432236,
        -0.12962166965007782,
        0.4144154191017151,
        0.5878638029098511,
        -0.5536574721336365,
        -0.4774441123008728,
        -0.5343546271324158,
        -0.04595687985420227
      ]
    },
    {
      "weights": [
        [
          0.30252230167388916,
          -3.8283345699310303,
          1.4569579362869263,
          1.0808879137039185,
          -2.056675434112549,
          -0.918226420879364,
          2.7331020832061768,
          0.5584843754768372,
          -0.4577557146549225,
          1.4561368227005005,
          1.8101640939712524,
          2.7740859985351562,
          -0.39490416646003723,
          0.6801850199699402,
          0.4556226134300232,
          1.0069103240966797
        ],
        [
          -3.499509334564209,
          1.6595957279205322,
          1.3884962797164917,
          -2.5645930767059326,
          -0.43914785981178284,
          -0.0015917574055492878,
          -1.4014983177185059,
          -2.4000136852264404,
          -1.085395336151123,
          -0.18812833726406097,
          -0.8347356915473938,
          0.4196326434612274,
          1.1194627285003662,
          2.348146677017212,
          1.5432482957839966,
          -0.26923415064811707
        ],
        [
          -0.3983039855957031,
          -0.8491259813308716,
          -0.6208257079124451,
          -0.5941271781921387,
          -0.45981737971305847,
          0.049950454384088516,
          1.7626676559448242,
          1.5738974809646606,
          -2.186354637145996,
          -0.03838200122117996,
          2.1123671531677246,
          -0.20788604021072388,
          -1.3269540071487427,
          -2.5760316848754883,
          -2.0751793384552,
          0.4512730538845062
        ],
        [
          -0.5118880867958069,
          2.1713361740112305,
          -1.4639146327972412,
          -0.23354433476924896,
          1.8009607791900635,
          1.0886507034301758,
          -0.3952397406101227,
          -0.09466621279716492,
          -0.925560474395752,
          0.3662113845348358,
          0.46341705322265625,
          -2.008452892303467,
          0.027544254437088966,
          -0.5031687617301941,
          0.3898736834526062,
          -0.6851616501808167
        ],
        [
          -1.7932697534561157,
          -0.45057931542396545,
          1.0011632442474365,
          -1.040563702583313,
          -0.8092176914215088,
          -0.2967034578323364,
          0.13310132920742035,
          -1.1157504320144653,
          -0.787794828414917,
          0.6612070202827454,
          0.38176628947257996,
          1.0601458549499512,
          0.638658881187439,
          1.4609038829803467,
          1.2999653816223145,
          0.429423063993454
        ],
        [
          -0.08552588522434235,
          -3.1729278564453125,
          -0.3152904510498047,
          0.3614501953125,
          -1.7491912841796875,
          -0.7109816074371338,
          3.0129334926605225,
          0.9175862669944763,
          -1.4166051149368286,
          0.194597527384758,
          1.9072411060333252,
          1.131632685661316,
          -1.301047921180725,
          -1.6745631694793701,
          -1.634520411491394,
          0.5794880390167236
        ],
        [
          3.5732076168060303,
          -1.5960086584091187,
          -1.0979886054992676,
          3.6585075855255127,
          0.93499356508255,
          -0.447573184967041,
          -0.9104021191596985,
          0.14719803631305695,
          1.8530306816101074,
          -1.4443578720092773,
          -1.1480004787445068,
          -0.8971349596977234,
          -0.019831836223602295,
          -1.8359370231628418,
          -1.4894922971725464,
          -0.6488987803459167
        ],
        [
          -0.8159070014953613,
          -0.7642438411712646,
          1.3896931409835815,
          -0.9292767643928528,
          0.18817643821239471,
          0.8315622806549072,
          0.6562092304229736,
          1.251953363418579,
          -1.3538310527801514,
          0.3380356729030609,
          1.0641093254089355,
          1.1210293769836426,
          -1.8389983177185059,
          -2.6116535663604736,
          -1.618217945098877,
          0.1323419064283371
        ],
        [
          -0.47014865279197693,
          1.1310704946517944,
          0.45094501972198486,
          0.47250768542289734,
          0.7550286650657654,
          0.7713505029678345,
          -5.282167911529541,
          -1.7077749967575073,
          2.680682897567749,
          -1.5756080150604248,
          -3.8828070163726807,
          0.4059561789035797,
          1.1478782892227173,
          1.6133701801300049,
          2.363234519958496,
          -0.6889284253120422
        ],
        [
          2.3122081756591797,
          0.5439579486846924,
          -1.0863474607467651,
          1.2255769968032837,
          0.661777675151825,
          -0.1894439458847046,
          -0.45810559391975403,
          0.42560887336730957,
          0.8542367815971375,
          -1.5083552598953247,
          -0.8081613183021545,
          -1.1095733642578125,
          0.4006219208240509,
          -1.3721405267715454,
          -1.5919725894927979,
          -0.3085140585899353
        ],
        [
          -0.9037813544273376,
          -0.042560871690511703,
          0.6401155591011047,
          -0.3599074184894562,
          0.2615569531917572,
          0.5672156810760498,
          1.2442796230316162,
          0.939278244972229,
          -1.2276653051376343,
          0.9368672370910645,
          1.5789862871170044,
          0.5647062063217163,
          -1.1416490077972412,
          -0.5916311144828796,
          -0.037167131900787354,
          0.3535206615924835
        ],
        [
          -2.415555238723755,
          -1.3294000625610352,
          1.8266276121139526,
          -1.065972089767456,
          -2.126164674758911,
          -1.0497655868530273,
          -0.16032235324382782,
          -1.782450556755066,
          -1.0569143295288086,
          -0.51397305727005,
          -0.19061730802059174,
          1.8023769855499268,
          1.2558507919311523,
          1.3527504205703735,
          0.4824276566505432,
          0.27933186292648315
        ],
        [
          -1.0925885438919067,
          -3.383230447769165,
          1.2496821880340576,
          0.10337193310260773,
          -3.2327630519866943,
          -1.952788233757019,
          0.9680448174476624,
          -0.6761162877082825,
          -0.7078016400337219,
          -1.2698872089385986,
          0.28944170475006104,
          2.286381483078003,
          1.198187232017517,
          0.8581353425979614,
          -0.1157514825463295,
          0.6488760113716125
        ],
        [
          2.131784200668335,
          -0.4717523455619812,
          -2.237855911254883,
          1.5022543668746948,
          -1.3328431844711304,
          -2.1059794425964355,
          0.7681425213813782,
          -0.7450164556503296,
          1.322300910949707,
          -1.6455814838409424,
          -0.4728386104106903,
          -1.1796849966049194,
          2.480888605117798,
          1.396682858467102,
          -0.4948424994945526,
          -0.03474422171711922
        ],
        [
          3.8635170459747314,
          -0.252655953168869,
          -2.8435726165771484,
          3.395122528076172,
          1.6094928979873657,
          -0.6221396327018738,
          -0.17495426535606384,
          0.5835855603218079,
          0.6655457019805908,
          -1.4832124710083008,
          -0.27627164125442505,
          -2.7991316318511963,
          -0.3194449245929718,
          -2.0910027027130127,
          -1.982643961906433,
          -0.5448651909828186
        ],
        [
          -0.1530967801809311,
          3.246436595916748,
          -1.241408109664917,
          -0.44885528087615967,
          2.9325339794158936,
          2.088456392288208,
          0.14001835882663727,
          1.1294326782226562,
          -1.641301155090332,
          1.0403332710266113,
          1.5109258890151978,
          -2.753075361251831,
          -1.218043565750122,
          -2.226402759552002,
          -1.2419480085372925,
          -0.6625241041183472
        ]
      ],
      "biases": [
        -0.09706717729568481,
        -0.44288283586502075,
        0.1001761332154274,
        -0.6002072691917419,
        -0.0828506276011467,
        -0.4048745334148407,
        0.041541554033756256,
        0.4764827489852905,
        -0.7915621399879456,
        0.6658900380134583,
        -0.11599376797676086,
        0.1524757295846939,
        0.7382971048355103,
        0.18759578466415405,
        0.07440031319856644,
        0.063726045191288
      ]
    },
    {
      "weights": [
        [
          0.494294673204422,
          -3.784196138381958,
          1.455306887626648,
          -1.640866756439209,
          -2.71425199508667,
          2.3198673725128174,
          1.928741216659546,
          0.06117197126150131,
          -6.287475109100342,
          0.7711127996444702,
          -0.7028249502182007,
          -2.421177387237549,
          -0.37657496333122253,
          0.2685636579990387,
          2.822782039642334,
          -1.0523074865341187
        ],
        [
          -4.6227946281433105,
          -2.8389194011688232,
          -1.637461543083191,
          0.20314881205558777,
          -3.0940165519714355,
          -2.5737051963806152,
          1.61642324924469,
          -2.2267606258392334,
          0.7544000148773193,
          1.3120840787887573,
          -2.6345834732055664,
          -3.726083278656006,
          -3.952786922454834,
          -0.030930038541555405,
          3.1536948680877686,
          0.3142400085926056
        ],
        [
          -4.097568511962891,
          -1.2611744403839111,
          1.1122450828552246,
