{
  "layers": [
    {
      "weights": [],
      "biases": []
    },
    {
      "weights": [
        [
          0.9724275469779968,
          0.4853328764438629,
          0.7173591256141663,
          1.2858160734176636,
          0.7398507595062256,
          0.18738240003585815,
          0.7173368334770203,
          -0.30882009863853455,
          -0.18602867424488068,
          -0.2285139113664627,
          0.27823856472969055,
          -0.1405288279056549,
          0.3176558017730713,
          -0.1432572305202484,
          -0.0436161607503891,
          0.5031042098999023,
          0.6408904194831848,
          0.13445651531219482,
          0.7657564282417297,
          0.05918368697166443,
          0.5424256324768066,
          0.632902204990387,
          0.32892438769340515,
          0.23555496335029602,
          -0.020870810374617577,
          0.32005995512008667,
          -0.27858465909957886,
          -0.9525428414344788,
          0.36558452248573303,
          -0.8352352380752563,
          -0.685758113861084,
          -0.3120861053466797,
          -0.2085212916135788,
          -0.5791910886764526,
          -0.4856014847755432,
          0.0507022961974144,
          -0.2297741323709488,
          -0.14180369675159454,
          -0.43389156460762024,
          -0.4379671514034271,
          -0.20175065100193024,
          -0.22161881625652313,
          -0.28209227323532104,
          -0.2958483397960663,
          -0.1835252046585083,
          -0.31184202432632446,
          0.2839212119579315,
          -0.3170592188835144,
          -0.22510512173175812,
          -0.37308844923973083,
          0.10006431490182877,
          -0.25710809230804443,
          0.23308303952217102,
          -0.009715528227388859,
          0.052262287586927414,
          -0.09421292692422867,
          0.3411993980407715,
          0.24338221549987793,
          0.1491050124168396,
          0.0951233059167862,
          0.3538340628147125,
          0.35434675216674805,
          0.12263072282075882,
          0.3425665497779846,
          -0.1586507260799408,
          0.24816377460956573,
          0.07567592710256577,
          0.11588376015424728,
          -0.12132420390844345,
          0.28803372383117676,
          0.27823498845100403,
          -0.1248357892036438,
          -0.02010926604270935,
          0.2263808250427246,
          0.4497055411338806,
          0.17141738533973694,
          -0.2836543321609497,
          0.2661128640174866,
          0.202077254652977,
          0.2589051425457001,
          -0.09016916155815125,
          0.28712472319602966,
          0.9676999449729919,
          -0.6828253865242004,
          0.044840794056653976,
          -0.09525257349014282,
          0.25555220246315,
          0.4094279408454895,
          0.5829817056655884,
          0.09559820592403412,
          0.26061123609542847,
          0.4735125005245209,
          0.3608400821685791,
          0.2672690451145172,
          0.7388784289360046,
          0.09090553969144821,
          0.15004369616508484,
          0.013404060155153275,
          0.34418466687202454,
          0.16866841912269592,
          0.18131619691848755,
          0.21474599838256836,
          0.1531214714050293,
          0.27309346199035645,
          0.4265924096107483,
          0.17162452638149261,
          0.2665713429450989,
          -0.003917143680155277,
          -0.027855413034558296,
          -0.046282973140478134,
          0.12815770506858826,
          -0.11538714170455933,
          0.12508948147296906,
          0.23441101610660553,
          0.20004142820835114,
          0.02960222214460373,
          0.17508359253406525,
          0.34611913561820984,
          0.15770500898361206,
          0.16703075170516968,
          0.11741898953914642,
          0.033896733075380325,
          0.08510828018188477,
          0.0331537090241909,
          0.0761127769947052,
          0.16455066204071045,
          0.19542838633060455,
          0.15671879053115845,
          -0.04622248560190201,
          -0.010170464403927326,
          -0.2036728411912918,
          0.11868321895599365,
          0.05438512563705444,
          0.25157859921455383,
          0.1327284872531891,
          0.021154280751943588,
          -0.3804425895214081,
          0.0886864885687828,
          0.15677732229232788,
          0.2709096670150757,
          0.035669952630996704,
          0.03133601322770119,
          -0.05179620161652565,
          -0.8925132155418396,
          -0.9733339548110962,
          -0.8298972845077515,
          -0.1301908642053604,
          -0.5809959769248962,
          -0.5173934698104858,
          -0.5534589886665344,
          -0.5189444422721863,
          -0.09290827065706253,
          -0.684532105922699,
          -0.2655700147151947,
          0.1003928929567337,
          -0.3586921989917755,
          -0.48822906613349915,
          0.00449479790404439,
          -0.25552213191986084,
          -0.3492835760116577,
          -0.0975843295454979,
          -0.03691944479942322,
          -0.30235418677330017,
          -0.2153206318616867,
          -0.08913680911064148,
          -0.30803191661834717,
          -0.08883906155824661,
          -0.37519174814224243,
          0.00030151248211041093,
          0.5388619303703308,
          -0.09353690594434738,
          0.16550613939762115,
          -0.008076886646449566,
          0.039745088666677475,
          0.03223319724202156,
          -0.06830937415361404,
          -0.17956332862377167,
          -0.36061716079711914,
          -0.42912033200263977,
          -0.22872404754161835,
          -0.24506893754005432,
          -0.37245121598243713,
          -0.5599377155303955,
          -0.305113285779953,
          -0.5809811949729919,
          -1.362802267074585,
          -0.8965117931365967,
          -0.8765190839767456,
          -0.3768957257270813,
          -0.41832706332206726,
          -0.4677305519580841,
          -0.12175164371728897,
          -0.14478367567062378,
          -0.3223729729652405,
          -0.3963504135608673,
          -0.22880029678344727,
          -0.47023364901542664,
          -0.04376273229718208,
          -0.20020388066768646,
          -0.2721433937549591,
          -0.0009903613245114684,
          -0.12633682787418365,
          -0.1503819227218628,
          -0.4381200075149536,
          0.15760912001132965,
          -0.4969240427017212,
          0.03973789140582085,
          0.24229031801223755,
          0.1890079826116562,
          0.1911141276359558,
          -0.13071578741073608,
          -0.3091731071472168,
          -0.29189333319664,
          -0.03383009135723114,
          -0.09886108338832855,
          -0.39250457286834717,
          -0.3237805962562561,
          -0.6561518907546997,
          -1.313099980354309,
          -0.23059049248695374
        ],
        [
          -0.2795412242412567,
          -0.03881456330418587,
          -1.078742265701294,
          -1.3434206247329712,
          -0.7026350498199463,
          -0.43983033299446106,
          -0.758747935295105,
          -0.0843699723482132,
          -0.4949086606502533,
          -0.1271369904279709,
          0.010021260939538479,
          -0.27195486426353455,
          -0.008225247263908386,
          0.0848085954785347,
          -0.2687707543373108,
          -0.968839168548584,
          -0.7422782778739929,
          -0.20635060966014862,
          -0.8532883524894714,
          -0.3991754353046417,
          -0.6314916610717773,
          -0.5837410688400269,
          -0.5914638638496399,
          -0.145907461643219,
          -0.014767005108296871,
          0.28292402625083923,
          0.1386619210243225,
          -0.24765954911708832,
          -0.1507072150707245,
          0.528105616569519,
          0.21462732553482056,
          0.4708610773086548,
          0.4819152355194092,
          0.4155879318714142,
          0.4291556477546692,
          0.128801167011261,
          -0.009883526712656021,
          0.12257064133882523,
          0.09847378730773926,
          -0.02066553756594658,
          0.06684523820877075,
          0.3429763913154602,
          0.0016404124908149242,
          -0.09971914440393448,
          -0.010892704129219055,
          -0.025198623538017273,
          0.022884968668222427,
          0.04883190244436264,
          0.23978468775749207,
          0.34337231516838074,
          -0.16670334339141846,
          0.12521536648273468,
          -0.10248223692178726,
          0.1082145944237709,
          0.24732589721679688,
          -0.0403275229036808,
          0.02069716528058052,
          0.06907337158918381,
          0.24972142279148102,
          0.08204398304224014,
          -0.03402014821767807,
          0.055784258991479874,
          -0.07645969092845917,
          0.10233577340841293,
          0.44322890043258667,
          0.03842467442154884,
          0.25578102469444275,
          0.03135078027844429,
          0.18091368675231934,
          0.06259362399578094,
          0.14496274292469025,
          0.0007916468312032521,
          0.17247509956359863,
          -0.1935468465089798,
          0.1892431676387787,
          -0.0468774251639843,
          -0.6993018388748169,
          0.24238327145576477,
          0.12105188518762589,
          0.21060419082641602,
          -0.23223280906677246,
          0.023879580199718475,
          0.2721990942955017,
          -0.5356436967849731,
          0.068830706179142,
          -0.633341908454895,
          -0.054016079753637314,
          0.29347363114356995,
          0.28857168555259705,
          -0.025141432881355286,
          -0.09938814491033554,
          -0.06801239401102066,
          0.011465156450867653,
          0.04288465529680252,
          0.10151562839746475,
          -0.007465468253940344,
          -0.026378720998764038,
          -0.015045699663460255,
          -0.07769189029932022,
          -0.11735968291759491,
          0.20334599912166595,
          0.12540704011917114,
          -0.10525885969400406,
          0.0586555078625679,
          0.046829953789711,
          0.005587071180343628,
          -0.12121357023715973,
          -0.26977774500846863,
          -0.05246425420045853,
          0.11780820786952972,
          0.08960100263357162,
          0.1991814821958542,
          0.13777557015419006,
          0.19926685094833374,
          -0.10087814182043076,
          0.004545633681118488,
          -0.17756977677345276,
          0.1810881644487381,
          0.018721818923950195,
          -0.2318008691072464,
          -0.15662240982055664,
          -0.09652706235647202,
          0.14851312339305878,
          0.02535817213356495,
          -0.010480128228664398,
          -0.040026646107435226,
          0.12269269675016403,
          -0.19261997938156128,
          -0.09027255326509476,
          -0.16844671964645386,
          -0.08347532898187637,
          -0.04927311837673187,
          -0.04174930602312088,
          0.10589982569217682,
          -0.0717059001326561,
          -0.021046694368124008,
          0.527330219745636,
          0.18137876689434052,
          -0.03708130493760109,
          0.08429189026355743,
          -0.2775651514530182,
          0.147741436958313,
          0.0723453089594841,
          -0.8853957056999207,
          -1.0092531442642212,
          -1.0288852453231812,
          -0.38140472769737244,
          -0.3462495803833008,
          -0.24896380305290222,
          -0.3750506341457367,
          -0.4539455473423004,
          -0.12038274854421616,
          -0.6695538759231567,
          -0.15316849946975708,
          0.08988717943429947,
          -0.2662803530693054,
          0.6776077747344971,
          0.4606406092643738,
          0.26649805903434753,
          0.45536401867866516,
          0.25694739818573,
          0.20674321055412292,
          -0.11969303339719772,
          0.1309829205274582,
          0.20961718261241913,
          0.07890277355909348,
          -0.13655076920986176,
          0.1453045904636383,
          0.04646178334951401,
          0.29363977909088135,
          0.12886342406272888,
          0.43713271617889404,
          0.39792153239250183,
          -0.2706162631511688,
          0.33592963218688965,
          0.31476324796676636,
          0.2823200225830078,
          0.20834505558013916,
          0.24604032933712006,
          0.18955589830875397,
          0.19794796407222748,
          0.40561679005622864,
          0.2739049792289734,
          0.06813055276870728,
          -0.3873293995857239,
          -0.2944720983505249,
          -0.32197508215904236,
          -0.41689810156822205,
          0.12006272375583649,
          -0.13861985504627228,
          -0.2676929831504822,
          -0.05652676895260811,
          -0.03978591039776802,
          0.17570219933986664,
          0.3923957049846649,
          0.19134421646595,
          0.3926192820072174,
          0.26066073775291443,
          0.05632663890719414,
          0.08159228414297104,
          0.5846555829048157,
          0.4110299050807953,
          0.01548676285892725,
          0.5296047925949097,
          0.23759940266609192,
          0.48962125182151794,
          0.14795808494091034,
          -0.07283567637205124,
          0.04720490425825119,
          -0.012561630457639694,
          0.31133362650871277,
          0.5038098096847534,
          0.28097420930862427,
          0.2644788324832916,
          0.12692883610725403,
          0.2680128812789917,
          0.3635139763355255,
          0.7089523077011108,
          1.1811134815216064,
          0.18715694546699524
        ],
        [
          0.296916127204895,
          0.7726066708564758,
          0.025930676609277725,
          -0.07946811616420746,
          0.15512952208518982,
          0.155694380402565,
          0.25310251116752625,
          -0.03741132467985153,
          -0.014847485348582268,
          -0.07481300830841064,
          0.20278672873973846,
          0.13954994082450867,
          -0.11031031608581543,
          -0.18720635771751404,
          0.08908506482839584,
          -0.2222657948732376,
          -0.17690293490886688,
          -0.13426826894283295,
          0.03162829577922821,
          0.09700268507003784,
          -0.24301494657993317,
          0.07449052482843399,
          -0.21279217302799225,
          0.2250346690416336,
          0.31450673937797546,
          0.01569495163857937,
          0.06619985401630402,
          1.954972743988037,
          0.12466736882925034,
          0.3215175271034241,
          0.09510304033756256,
          0.11330194026231766,
          -0.07717781513929367,
          0.0031645928975194693,
          0.1573813408613205,
          -0.12517206370830536,
          -0.06891711056232452,
          0.13707956671714783,
          0.03246433660387993,
          0.23341557383537292,
          0.1300676465034485,
          0.26121991872787476,
          0.14246033132076263,
          0.02422519586980343,
          -0.11280165612697601,
          -0.053240202367305756,
          0.1470644325017929,
          0.04676322638988495,
          0.1376408487558365,
          -0.08387690782546997,
          -0.013240349479019642,
          -0.06663952022790909,
          -0.32625430822372437,
          -0.303405225276947,
          -0.06238739192485809,
          0.11469949036836624,
          -0.01221074815839529,
          -0.25322508811950684,
          -0.01600913517177105,
          -0.2572920322418213,
          -0.13264364004135132,
          -0.29758384823799133,
          -0.2733960449695587,
          -0.2321680635213852,
          0.38267508149147034,
          -0.262922078371048,
          -0.10611873865127563,
          -0.03686600923538208,
          0.035979803651571274,
          -0.16366177797317505,
          -0.13390390574932098,
          0.2900942265987396,
          -0.19284777343273163,
          -0.1546659916639328,
          -0.2895861864089966,
          -0.2124968022108078,
          0.09412425011396408,
          -0.16292159259319305,
          -0.07207862287759781,
          -0.025295455008745193,
          0.034395474940538406,
          -0.3330484628677368,
          -0.7041975259780884,
          0.16200895607471466,
          0.02773868292570114,
          -0.06335317343473434,
          -0.313508540391922,
          -0.3556886911392212,
          -0.13292990624904633,
          -0.14493826031684875,
          0.04841456562280655,
          -0.2071630358695984,
          -0.27941107749938965,
          0.05780389904975891,
          -0.4561905264854431,
          -0.24648040533065796,
          -0.021221576258540154,
          0.06728529930114746,
          0.08134303241968155,
          0.0468205064535141,
          -0.04746794328093529,
          -0.19908614456653595,
          0.11141956597566605,
          -0.15166831016540527,
          0.07181429862976074,
          -0.1784408986568451,
          -0.0064606619998812675,
          -0.36984893679618835,
          0.00489689689129591,
          0.11088249087333679,
          -0.24055348336696625,
          0.29836079478263855,
          0.042282480746507645,
          0.07780919224023819,
          -0.14884915947914124,
          0.04182886332273483,
          -0.16790157556533813,
          -0.236313596367836,
          0.060680363327264786,
          0.0696399062871933,
          -0.2279672622680664,
          -0.08569726347923279,
          -0.061543986201286316,
          -0.2770902216434479,
          -0.15867410600185394,
          -0.21718895435333252,
          -0.04914137348532677,
          -0.14918094873428345,
          -0.2564179003238678,
          0.08896854519844055,
          -0.2235613316297531,
          -0.0955321192741394,
          -0.05407888442277908,
          -0.15490584075450897,
          -0.048912413418293,
          -0.163889080286026,
          0.28222745656967163,
          0.07134094834327698,
          -0.05247477442026138,
          0.045264314860105515,
          0.22601839900016785,
          -0.0973479226231575,
          -0.1446179300546646,
          0.2244609147310257,
          0.3094448745250702,
          0.041119035333395004,
          0.00783013179898262,
          0.12877723574638367,
          0.21716414391994476,
          0.17435164749622345,
          0.33816996216773987,
          0.1671084761619568,
          0.3962951898574829,
          -0.1588420569896698,
          -0.047281209379434586,
          0.12191163003444672,
          0.9353936314582825,
          0.24950313568115234,
          0.4590403735637665,
          0.6885008811950684,
          0.27145326137542725,
          0.38247883319854736,
          0.201345294713974,
          0.36442890763282776,
          0.11355644464492798,
          -0.08940844237804413,
          0.01243351399898529,
          -0.034816209226846695,
          0.14231270551681519,
          0.25764915347099304,
          0.39181873202323914,
          0.33662286400794983,
          0.10304605960845947,
          0.07596473395824432,
          -0.08448100090026855,
          -0.07455344498157501,
          -0.1745603084564209,
          -0.006672976538538933,
          -0.010786913335323334,
          -0.1116427481174469,
          0.23499943315982819,
          0.03887729346752167,
          0.05115388706326485,
          0.08846605569124222,
          -0.06743974983692169,
          -0.2656993567943573,
          -0.016740277409553528,
          -0.08207596838474274,
          0.048605479300022125,
          0.004565925803035498,
          -0.2540431320667267,
          -0.1513386070728302,
          -0.074557825922966,
          0.07749420404434204,
          -0.006970699410885572,
          -0.07197737693786621,
          -0.18491031229496002,
          0.07290533930063248,
          -0.052216123789548874,
          -0.00568699324503541,
          -0.016837241128087044,
          -0.115113765001297,
          0.298329621553421,
          -0.18497517704963684,
          0.21611452102661133,
          0.0434897318482399,
          0.07553206384181976,
          0.20845471322536469,
          0.20112772285938263,
          0.018053678795695305,
          0.0807906985282898,
          -0.1577974557876587,
          -0.214071124792099,
          0.11290087550878525,
          0.11387962847948074,
          -0.023078270256519318,
          -0.26142802834510803,
          -0.05640314519405365,
          0.2382468283176422,
          -0.14070191979408264
        ],
        [
          -0.9555258750915527,
          -0.31384706497192383,
          -0.587655782699585,
          -0.5561732649803162,
          -0.34727606177330017,
          -0.41019442677497864,
          -0.6478384733200073,
          -0.10782492905855179,
          0.045227665454149246,
          0.012943631038069725,
          -0.06277749687433243,
          -0.05769714340567589,
          -0.2208600491285324,
          -0.026064444333314896,
          -0.06712109595537186,
          -0.33454006910324097,
          -0.16799108684062958,
          -0.07570887356996536,
          -0.47549840807914734,
          -0.27988648414611816,
          -0.37492266297340393,
          -0.18917012214660645,
          -0.2953563332557678,
          -0.19556176662445068,
          -0.2742297053337097,
          0.22853553295135498,
          0.11963415890932083,
          -0.9204604029655457,
          -0.7065250277519226,
          0.21392737329006195,
          0.13371053338050842,
          -0.036191247403621674,
          0.07270457595586777,
          0.08116205781698227,
          0.3372162878513336,
          -0.03489799052476883,
          -0.1117975041270256,
          0.032112304121255875,
          -0.1542859673500061,
          -0.2129906713962555,
          0.020920326933264732,
          0.16484448313713074,
          -0.10146493464708328,
          -0.028702998533844948,
          0.14908544719219208,
          0.12545709311962128,
          -0.07039806246757507,
          0.10067324340343475,
          0.023933053016662598,
          0.04522328078746796,
          0.10321139544248581,
          -0.010578742250800133,
          -0.03884156793355942,
          0.1581154614686966,
          -0.04319220036268234,
          0.0713282972574234,
          0.09941655397415161,
          0.034388866275548935,
          0.07491324841976166,
          0.12038911134004593,
          0.1182878315448761,
          0.07745995372533798,
          0.2218347191810608,
          -0.004679068457335234,
          0.07162463665008545,
          0.07923728972673416,
          0.22041258215904236,
          -0.015546265058219433,
          -0.007901485078036785,
          0.03634690120816231,
          0.07412981986999512,
          0.09459345042705536,
          0.16973817348480225,
          0.10307160764932632,
          0.1062735766172409,
          0.04412255063652992,
          0.030362006276845932,
          0.04091858118772507,
          0.036715779453516006,
          0.24118730425834656,
          0.07049772143363953,
          0.03709369897842407,
          0.1911373734474182,
          0.03507170081138611,
          0.23196996748447418,
          -0.09400970488786697,
          0.26490312814712524,
          0.022529274225234985,
          0.032665401697158813,
          0.10262465476989746,
          0.11269926279783249,
          0.2802031934261322,
          -0.006963137537240982,
          -0.01013770792633295,
          0.08919911831617355,
          0.01579882577061653,
          0.008698937483131886,
          -0.07126369327306747,
          -0.08987593650817871,
          0.13764819502830505,
          0.2266198694705963,
          0.1991785317659378,
          0.19939041137695312,
          0.1664246767759323,
          -0.03244952857494354,
          0.011810395866632462,
          0.11319755017757416,
          0.015507419593632221,
          0.21585890650749207,
          -0.06266051530838013,
          0.1535186469554901,
          0.11736662685871124,
          -0.13847382366657257,
          0.14335215091705322,
          -0.15947335958480835,
          0.02985847368836403,
          0.09926959127187729,
          -0.02906094491481781,
          0.11271294206380844,
          -0.15720698237419128,
          0.1731259971857071,
          0.041782256215810776,
          0.04728403314948082,
          -0.023585056886076927,
          0.058614980429410934,
          -0.00445903092622757,
          -0.045780401676893234,
          0.22147171199321747,
          0.006988872308284044,
          0.15623867511749268,
          -0.14116652309894562,
          -0.098426952958107,
          -0.06683307886123657,
          -0.07190244644880295,
          0.19592618942260742,
          0.02797069028019905,
          0.10585535317659378,
          0.08543955534696579,
          0.09884713590145111,
          0.11476249247789383,
          -0.048870429396629333,
          0.05498208478093147,
          0.19401177763938904,
          -0.24124334752559662,
          -0.3169983923435211,
          -0.2573826313018799,
          -0.18432393670082092,
          0.005654636304825544,
          -0.22660568356513977,
          -0.2952248156070709,
          -0.08082816004753113,
          -0.053034212440252304,
          -0.09586554020643234,
          -0.0014264329802244902,
          0.11388958990573883,
          0.098201222717762,
          -0.4693322479724884,
          -0.17408794164657593,
          -0.2531522214412689,
          -0.2117508053779602,
          0.06800191849470139,
          -0.0866091400384903,
          -0.2529851496219635,
          -0.0396706759929657,
          -0.22587022185325623,
          -0.07042425125837326,
          -0.1478906273841858,
          0.09991653263568878,
          -0.239692822098732,
          -0.42353981733322144,
          -0.20647825300693512,
          -0.24114812910556793,
          -0.20361484587192535,
          0.045629650354385376,
          -0.1859900802373886,
          0.09610764682292938,
          -0.09250303357839584,
          -0.12871462106704712,
          -0.14921796321868896,
          0.08394118398427963,
          0.007063034921884537,
          0.16914457082748413,
          0.15819358825683594,
          0.12041608989238739,
          0.20427215099334717,
          0.7278825640678406,
          0.4638392925262451,
          0.4708297550678253,
          0.4028441905975342,
          -0.006923364475369453,
          0.29184961318969727,
          -0.08003216981887817,
          0.22302663326263428,
          -0.10835058242082596,
          -0.05468643829226494,
          -0.03522159531712532,
          0.24696765840053558,
          0.014356371015310287,
          0.07660592347383499,
          -0.13382065296173096,
          0.048723433166742325,
          -0.3113577961921692,
          -0.08232641965150833,
          0.03290959447622299,
          -0.4187057614326477,
          -0.012678620405495167,
          0.05611041560769081,
          -0.227524533867836,
          -0.12127438932657242,
          -0.04761625453829765,
          0.0507282018661499,
          0.058795493096113205,
          0.2679254114627838,
          0.1965574324131012,
          -0.12543362379074097,
          0.05095892772078514,
          -0.011324653401970863,
          -0.03005739115178585,
          1.2919435501098633,
          0.28308340907096863
        ],
        [
          -1.0652492046356201,
          -0.25224068760871887,
          -0.20937836170196533,
          -0.5591022968292236,
          -0.33762145042419434,
          -0.29277798533439636,
          -0.37241190671920776,
          0.19117368757724762,
          -0.1368270367383957,
          0.17620408535003662,
          0.08049910515546799,
          -0.35490989685058594,
          -0.1904536485671997,
          0.12842394411563873,
          -0.21336686611175537,
          -0.3505098521709442,
          -0.3930908441543579,
          0.16141894459724426,
          -0.14714978635311127,
          -0.20744752883911133,
          -0.061217050999403,
          -0.15841206908226013,
          -0.022977350279688835,
          -0.0601641982793808,
          0.0480000376701355,
          0.16102582216262817,
          -0.16946949064731598,
          -1.1844695806503296,
          -0.6301946640014648,
          0.11492384225130081,
          -0.11880370229482651,
          -0.40536314249038696,
          -0.3607850968837738,
          -0.028384441509842873,
          0.08769319206476212,
          0.003194286487996578,
          -0.1500278115272522,
          -0.03636925667524338,
          -0.2958754897117615,
          0.15777772665023804,
          0.17755766212940216,
          0.06022031605243683,
          -0.16611649096012115,
          -0.1927201896905899,
          -0.10788167268037796,
          0.051438093185424805,
          -0.08666514605283737,
          -0.05992976203560829,
          0.07952336966991425,
          0.046854570508003235,
          0.11788927763700485,
          0.09576141834259033,
          0.07879260182380676,
          0.22491608560085297,
          -0.06034952774643898,
          -0.0739644393324852,
          0.06333130598068237,
          0.14376002550125122,
          0.13340148329734802,
          0.141740620136261,
          0.024885840713977814,
          0.09778958559036255,
          0.04840825870633125,
          0.11440539360046387,
          -0.18670512735843658,
          -0.07520518451929092,
          -0.10118092596530914,
          0.13359294831752777,
          -0.08952269703149796,
          -0.06346290558576584,
          -0.18647581338882446,
          -0.1591060608625412,
          -0.08276121318340302,
          0.04975372925400734,
          -0.019269073382019997,
          0.04165645316243172,
          -0.28974026441574097,
          0.2158476859331131,
          0.02448376640677452,
          0.1739172637462616,
          -0.05080791190266609,
          0.24435102939605713,
          0.5173072814941406,
          -0.17916706204414368,
          0.1778244823217392,
          -0.2581753134727478,
          0.16793185472488403,
          0.1500777304172516,
          0.19369032979011536,
          0.044808704406023026,
          0.24336804449558258,
          0.04258926212787628,
          0.2721720337867737,
          0.19291545450687408,
          0.35893189907073975,
          0.11397311091423035,
          0.2726670801639557,
          -0.13185474276542664,
          0.1296505182981491,
          0.24592217803001404,
          0.1367054432630539,
          0.15727682411670685,
          0.19258664548397064,
          0.09137807041406631,
          0.2355126589536667,
          -0.05034462735056877,
          0.1840999275445938,
          0.09600440412759781,
          -0.043469175696372986,
          0.024641087278723717,
          0.20215380191802979,
          -0.05631383880972862,
          0.1896219104528427,
          -0.0486813448369503,
          0.14363045990467072,
          0.11897214502096176,
          -0.026867317035794258,
          -0.10524944216012955,
          0.10044316202402115,
          -0.06736886501312256,
          0.11084969341754913,
          0.058965981006622314,
          0.07805877178907394,
          0.27522149682044983,
          -0.040893059223890305,
          0.010667471215128899,
          0.10536272078752518,
          -0.018946226686239243,
          0.16297517716884613,
          0.1853877753019333,
          0.004885188769549131,
          0.25476253032684326,
          0.02409156784415245,
          0.11352349817752838,
          0.2438579797744751,
          0.12519794702529907,
          0.4242536127567291,
          0.008066635578870773,
          -0.09315381199121475,
          0.0393097847700119,
          -0.05317806079983711,
          0.01144653744995594,
          -0.067125603556633,
          -0.6475744247436523,
          -0.7007980346679688,
          -0.49954843521118164,
          -0.2915911376476288,
          -0.15063586831092834,
          -0.029859192669391632,
          -0.3738054037094116,
          -0.36609846353530884,
          0.13777685165405273,
          -0.5606363415718079,
          0.025579096749424934,
          0.1251201331615448,
          -0.24077513813972473,
          -0.32931074500083923,
          -0.08072163909673691,
          0.051515866070985794,
          -0.041698653250932693,
          -0.03848518431186676,
          -0.013935120776295662,
          -0.1816195398569107,
          -0.11219409853219986,
          -0.1797899305820465,
          -0.07922332733869553,
          -0.1618775874376297,
          -0.058851830661296844,
          0.002273908816277981,
          -0.26802656054496765,
          -0.13010762631893158,
          -0.010833986103534698,
          -0.05079196020960808,
          -0.07116789370775223,
          -0.13148066401481628,
          -0.013930023647844791,
          -0.037354741245508194,
          0.06624706089496613,
          -0.14529946446418762,
          -0.06549520790576935,
          0.026020344346761703,
          -0.20521385967731476,
          -0.1901099979877472,
          -0.07484056055545807,
          0.41172727942466736,
          0.5628999471664429,
          0.6225804090499878,
          0.6149353384971619,
          0.18911756575107574,
          0.05857367813587189,
          0.2118421196937561,
          -0.15869857370853424,
          0.17889520525932312,
          0.1271342635154724,
          0.21577998995780945,
          0.012921908870339394,
          0.14141568541526794,
          -0.06142603978514671,
          -0.09139584749937057,
          0.09744028747081757,
          0.4640810787677765,
          -0.1378893107175827,
          0.06761234253644943,
          -0.043003007769584656,
          -0.522401750087738,
          0.026674993336200714,
          -0.06741802394390106,
          -0.01991678588092327,
          -0.04076841473579407,
          -0.16952160000801086,
          0.10204572975635529,
          0.14344729483127594,
          -0.12718823552131653,
          -0.2007255107164383,
          -0.15762831270694733,
          -0.03917580470442772,
          -0.15161876380443573,
          0.18708691000938416,
          1.1572396755218506,
          0.14076142013072968
        ],
        [
          0.11671121418476105,
          -0.9896330833435059,
          0.30028820037841797,
          0.29596927762031555,
          -0.14540505409240723,
          0.12856358289718628,
          0.2363484799861908,
          -0.2075890451669693,
          -0.021832987666130066,
          -0.05371040105819702,
          -0.20668435096740723,
          0.07752171158790588,
          0.10877864807844162,
          -0.2281951755285263,
          0.14432425796985626,
          0.5788745880126953,
          0.4859776198863983,
          -0.0689130425453186,
          0.6106444597244263,
          0.327941358089447,
          0.3420187830924988,
          0.38326117396354675,
          0.15600894391536713,
          0.20219941437244415,
          -0.49582239985466003,
          -0.3088751435279846,
          -0.12483010441064835,
          0.050883468240499496,
          0.2343662530183792,
          -0.01825171709060669,
          0.06317787617444992,
          0.4899037778377533,
          0.5013536810874939,
          0.2824491560459137,
          -0.10279009491205215,
          -0.1235915794968605,
          -0.016773531213402748,
          -0.21237953007221222,
          0.2204095423221588,
          -0.07547608017921448,
          -0.2490549385547638,
          0.05537479743361473,
          0.01736253872513771,
          -0.08832918852567673,
          -0.23280727863311768,
          0.2122458666563034,
          -0.2833257019519806,
          -0.16030777990818024,
          0.02879798598587513,
          0.35020995140075684,
          -0.08726626634597778,
          -0.08476638793945312,
          -0.01668248511850834,
          -0.24207480251789093,
          -0.028773315250873566,
          -0.04817371815443039,
          -0.22697626054286957,
          0.03229387849569321,
          0.011020313017070293,
          -0.11531387269496918,
          -0.11915114521980286,
          -0.20785947144031525,
          -0.16567295789718628,
          -0.16354301571846008,
          -0.33170971274375916,
          -0.1259986311197281,
          -0.030782651156187057,
          0.02451295033097267,
          -0.1501607447862625,
          -0.13645997643470764,
          0.14654207229614258,
          0.02991405874490738,
          0.14487019181251526,
          0.13944247364997864,
          -0.10090341418981552,
          -0.05906360596418381,
          0.7100943326950073,
          -0.09664414823055267,
          -0.09410329163074493,
          -0.04877347871661186,
          -0.15085026621818542,
          -0.009651592932641506,
          -0.6623173356056213,
          0.6445155739784241,
          -0.04104432463645935,
          0.4272480010986328,
          -0.13022521138191223,
          -0.2567896544933319,
          -0.21923957765102386,
          0.046671658754348755,
          -0.2974335253238678,
          -0.12491896003484726,
          -0.3363080322742462,
          -0.2263626903295517,
          -0.41166308522224426,
          0.014715193770825863,
          -0.023095302283763885,
          -0.13082635402679443,
          -0.02062755823135376,
          -0.03375979885458946,
          0.08173272758722305,
          0.07668811082839966,
          -0.1791907399892807,
          0.03975043073296547,
          -0.27137818932533264,
          -0.1523522585630417,
          0.0339386872947216,
          0.11153868585824966,
          -0.22910568118095398,
          -0.1694098860025406,
          -0.08205561339855194,
          -0.28091302514076233,
          0.027531540021300316,
          -0.08555452525615692,
          0.02261163666844368,
          -0.0140130165964365,
          -0.054740577936172485,
          -0.09944133460521698,
          0.022509245201945305,
          -0.04437892884016037,
          0.05078672990202904,
          0.11646219342947006,
          -0.0450020469725132,
          0.08081743121147156,
          -0.26449108123779297,
          0.091402567923069,
          -0.14991292357444763,
          0.009473263286054134,
          0.058269474655389786,
          -0.0024246613029390574,
          0.058184362947940826,
          0.0877738818526268,
          -0.014393594115972519,
          -0.030413733795285225,
          0.023235658183693886,
          -0.09279601275920868,
          -0.40725600719451904,
          0.009354856796562672,
          -0.162459135055542,
          0.13263514637947083,
          0.1194986030459404,
          -0.0416879802942276,
          0.07841138541698456,
          1.2206852436065674,
          1.2457906007766724,
          1.2014325857162476,
          0.07086651027202606,
          0.5625045895576477,
          0.5015155076980591,
          0.4023572504520416,
          0.8237029910087585,
          0.26561471819877625,
          1.084892988204956,
          0.23696738481521606,
          0.20819252729415894,
          0.2247188538312912,
          -0.7808432579040527,
          -0.534925103187561,
          -0.08666566759347916,
          -0.46594393253326416,
          -0.3056451976299286,
          -0.09037194401025772,
          -0.02094147354364395,
          0.15286804735660553,
          0.1439722180366516,
          -0.17880481481552124,
          -0.04868704080581665,
          0.1022118479013443,
          -0.007063276134431362,
          -0.7077754735946655,
          -0.5097894668579102,
          -0.3617699444293976,
          -0.458204060792923,
          0.0636870339512825,
          -0.3262878656387329,
          0.07380443811416626,
          0.03765537217259407,
          0.42785102128982544,
          0.2683929204940796,
          0.4398234784603119,
          0.09219857305288315,
          0.3299724757671356,
          0.17717990279197693,
          0.08093884587287903,
          0.2549644410610199,
          0.4586542546749115,
          0.10494570434093475,
          0.31343865394592285,
          0.11744019389152527,
          0.13879598677158356,
          0.4177018105983734,
          0.13571570813655853,
          -0.0012564435601234436,
          0.02142476476728916,
          -0.22628267109394073,
          -0.2090640366077423,
          -0.045641180127859116,
          -0.44479694962501526,
          -0.08291780948638916,
          -0.189655140042305,
          -0.513613760471344,
          -0.07407422363758087,
          0.07107727974653244,
          0.049544040113687515,
          0.3830419182777405,
          0.13892200589179993,
          0.15227366983890533,
          0.021260075271129608,
          0.009565512649714947,
          -0.0031372245866805315,
          0.1460428237915039,
          -0.030487611889839172,
          0.16900770366191864,
          0.05317647010087967,
          -0.025825366377830505,
          -0.02975933998823166,
          0.0586443729698658,
          0.0018422931898385286,
          -1.5754873752593994,
          -0.15225069224834442
        ],
        [
          -0.20516610145568848,
          0.3958990275859833,
          -0.8238847851753235,
          -0.8055030703544617,
          -0.15139935910701752,
          -0.271794855594635,
          -0.5289022326469421,
          -0.3401309847831726,
          -0.3752739131450653,
          0.053077198565006256,
          0.1734437793493271,
          -0.24854613840579987,
          0.16581794619560242,
          0.052462588995695114,
          -0.2780725061893463,
          -0.6599032878875732,
          -0.4103708267211914,
          -0.026508528739213943,
          -0.5652289390563965,
          -0.3422280550003052,
          -0.24953477084636688,
          -0.29120826721191406,
          -0.46136337518692017,
          -0.2576351463794708,
          -0.1343846172094345,
          0.18308328092098236,
          0.27124276757240295,
          0.1567920297384262,
          0.00821761880069971,
          0.2967227101325989,
          0.30064162611961365,
          0.3260033130645752,
          0.36451029777526855,
          0.29438021779060364,
          0.3813170790672302,
          0.018432743847370148,
          0.05436460301280022,
          -0.07068029791116714,
          -0.015216043218970299,
          0.10145066678524017,
          0.21728545427322388,
          0.18692873418331146,
          0.07997708022594452,
          0.08873795717954636,
          -0.04243522882461548,
          0.04603569954633713,
          0.42013970017433167,
          -0.17799913883209229,
          0.15158917009830475,
          0.31200823187828064,
          0.03326224908232689,
          -0.10614172369241714,
          0.05192215368151665,
          -0.04498114809393883,
          0.06238691881299019,
          0.09564975649118423,
          0.06781335920095444,
          0.05721620097756386,
          0.13342323899269104,
          0.2160455882549286,
          0.09862064570188522,
          0.18356101214885712,
          0.07811067998409271,
          0.03404752165079117,
          0.4968704581260681,
          0.1586318016052246,
          0.21420538425445557,
          0.2377556413412094,
          0.2105131447315216,
          -0.110496886074543,
          0.032645829021930695,
          -0.13508008420467377,
          0.018536830320954323,
          0.15172092616558075,
          -0.03498491272330284,
          0.0034176199696958065,
          -0.7644034624099731,
          0.16467739641666412,
          0.049490801990032196,
          -0.12655861675739288,
          0.016570234671235085,
          -0.04026149585843086,
          0.13556255400180817,
          -0.4435010552406311,
          0.06213630735874176,
          -0.44409480690956116,
          0.19937385618686676,
          0.07202833890914917,
          0.10484132170677185,
          -0.04354367405176163,
          0.2170887142419815,
          0.13167251646518707,
          0.14359503984451294,
          -0.08418841660022736,
          0.17087149620056152,
          0.06786487996578217,
          0.013602160848677158,
          -0.08339651674032211,
          -0.055904876440763474,
          0.09594443440437317,
          0.07121095806360245,
          -0.16691838204860687,
          0.19053921103477478,
          0.019317813217639923,
          0.020179996266961098,
          -0.13161394000053406,
          0.07681126892566681,
          -0.25928565859794617,
          0.1349892020225525,
          -0.10135545581579208,
          0.025419607758522034,
          0.4227367043495178,
          0.08639607578516006,
          -0.18045762181282043,
          0.1399269700050354,
          0.10483795404434204,
          0.04198945686221123,
          0.022443166002631187,
          0.1505664587020874,
          0.1506916731595993,
          0.08987808227539062,
          -0.20570160448551178,
          0.1836475431919098,
          0.03064873442053795,
          0.07423543930053711,
          0.16945436596870422,
          -0.029568303376436234,
          -0.1688498556613922,
          -0.13297565281391144,
          0.015276340767741203,
          0.07879667729139328,
          -0.18409380316734314,
          0.07242663204669952,
          0.08145782351493835,
          0.09179195016622543,
          -0.13470545411109924,
          0.22029449045658112,
          0.15983614325523376,
          0.006526736076921225,
          -0.14940977096557617,
          -0.11037425696849823,
          -0.11586832255125046,
          0.03641725704073906,
          -0.745073676109314,
          -0.7939997315406799,
          -0.758815586566925,
          -0.22933492064476013,
          -0.3945719003677368,
          -0.25672924518585205,
          -0.09082643687725067,
          -0.5754125714302063,
          -0.2760227918624878,
          -0.5816106200218201,
          -0.2667279839515686,
          -0.08896469324827194,
          -0.1311798095703125,
          0.7475619912147522,
          0.49619340896606445,
          0.188968688249588,
          0.526997983455658,
          0.058665208518505096,
          0.23055978119373322,
          -0.3350038230419159,
          -0.0683470070362091,
          0.024064578115940094,
          0.0971594825387001,
          -0.16430918872356415,
          0.09735122323036194,
          -0.11293403059244156,
          0.23262934386730194,
          0.43111857771873474,
          0.3923571705818176,
          0.13636642694473267,
          -0.1206069216132164,
          -0.022523557767271996,
          -0.06012718379497528,
          -0.02986777201294899,
          0.1668311357498169,
          0.15579251945018768,
          0.040571268647909164,
          0.24104642868041992,
          0.36639511585235596,
          0.13590170443058014,
          0.03660660609602928,
          -0.5006173253059387,
          -0.5037214756011963,
          -0.3272598385810852,
          -0.4843834638595581,
          -0.24305881559848785,
          -0.041752610355615616,
          -0.12027531117200851,
          -0.24513350427150726,
          -0.10591073334217072,
          0.10413287580013275,
          0.19552494585514069,
          0.06947222352027893,
          0.032205693423748016,
          0.11377992480993271,
          -0.03361567482352257,
          -0.028019245713949203,
          0.1323535144329071,
          0.180662602186203,
          0.18749156594276428,
          0.09356281906366348,
          0.21245595812797546,
          0.2743961215019226,
          0.08217709511518478,
          0.15945369005203247,
          0.20072567462921143,
          0.10951440036296844,
          -0.021402530372142792,
          0.1497001051902771,
          0.23475193977355957,
          -0.03778012841939926,
          0.18044930696487427,
          -0.017277894541621208,
          0.060771334916353226,
          0.3716660737991333,
          1.2804203033447266,
          0.09655088186264038
        ],
        [
          -0.926625669002533,
          -0.1752549409866333,
          -0.4407782554626465,
          -0.7369670271873474,
          -0.36437827348709106,
          -0.2987036406993866,
          -0.6233212351799011,
          0.17239469289779663,
          -0.08069069683551788,
          0.14141888916492462,
          0.026458363980054855,
          0.014358769170939922,
          -0.054297517985105515,
          0.1512908935546875,
          -0.10562434047460556,
          -0.41387486457824707,
          -0.2589015066623688,
          0.09721935540437698,
          -0.489698201417923,
          -0.23778295516967773,
          -0.09380830079317093,
          -0.3033924102783203,
          -0.1332557648420334,
          -0.26813000440597534,
          -0.16697633266448975,
          0.2843579947948456,
          0.14829877018928528,
          -0.7515214681625366,
          -0.30535703897476196,
          -0.05779010429978371,
          0.0709516853094101,
          -0.2622309923171997,
          -0.17374467849731445,
          -0.10226944833993912,
          0.21803253889083862,
          0.04625711590051651,
          0.18572485446929932,
          0.055834461003541946,
          -0.005248819012194872,
          -0.04641304537653923,
          0.2085358053445816,
          0.005755280144512653,
          -0.15570740401744843,
          -0.13913539052009583,
          -0.033966269344091415,
          0.1862366795539856,
          -0.05816413462162018,
          -0.15444086492061615,
          -0.03611968830227852,
          0.08982667326927185,
          -0.16024421155452728,
          0.03344288840889931,
          -0.09278365224599838,
          -0.09145016223192215,
          0.03662522882223129,
          0.12005676329135895,
          -0.04996459186077118,
          -0.1017211526632309,
          -0.05377703905105591,
          0.010399501770734787,
          0.04737669602036476,
          0.07733572274446487,
          -0.006554370746016502,
          0.16424627602100372,
          0.20583464205265045,
          0.22588743269443512,
          0.15835368633270264,
          0.07554394751787186,
          0.1950330138206482,
          -0.13929037749767303,
          -0.13763372600078583,
          0.12979550659656525,
          -0.035135988146066666,
          -0.15687020123004913,
          0.09577176719903946,
          -0.06007545813918114,
          -0.28043657541275024,
          0.23895545303821564,
          0.213914692401886,
          0.19023844599723816,
          -0.19029152393341064,
          0.1607576608657837,
          0.2871980369091034,
          -0.1375514715909958,
          0.15148067474365234,
          -0.40784287452697754,
          0.02422500029206276,
          0.07038828730583191,
          0.10031642764806747,
          0.06721839308738708,
          0.19177097082138062,
          0.2918812334537506,
          0.2538558542728424,
          0.14661149680614471,
          0.13800659775733948,
          0.06368956714868546,
          0.08769232779741287,
          -0.11031705886125565,
          0.25245025753974915,
          -0.11334064602851868,
          -0.07069721072912216,
          0.14697372913360596,
          0.12243261933326721,
          0.23588581383228302,
          0.1074003279209137,
          0.028498832136392593,
          0.19598476588726044,
          0.20286725461483002,
          -0.06509475409984589,
          -0.1747620701789856,
          -0.0137043921276927,
          0.1580457240343094,
          0.07289189100265503,
          -0.03474881127476692,
          -0.029701313003897667,
          0.009068568237125874,
          0.007017267402261496,
          0.05447881668806076,
          0.20819512009620667,
          -0.13425622880458832,
          0.1092458963394165,
          -0.0961979329586029,
          0.18341310322284698,
          -0.014470202848315239,
          0.13485580682754517,
          -0.1248060017824173,
          0.1324087679386139,
          -0.05772402882575989,
          0.21197184920310974,
          0.16815577447414398,
          0.2949860692024231,
          -0.12666526436805725,
          -0.08576235920190811,
          -0.07683233171701431,
          0.15771201252937317,
          0.18620653450489044,
          0.40103182196617126,
          -0.009725285694003105,
          -0.062486432492733,
          -0.16887138783931732,
          0.009862231090664864,
          -0.04402511939406395,
          0.04110460355877876,
          -0.5744967460632324,
          -0.49116405844688416,
          -0.52281653881073,
          -0.015569331124424934,
          -0.37858209013938904,
          -0.18902330100536346,
          -0.34750229120254517,
          -0.30752235651016235,
          -0.017739588394761086,
          -0.38549789786338806,
          0.054441653192043304,
          -0.041430629789829254,
          -0.2583365738391876,
          -0.07155805081129074,
          -0.06965731829404831,
          0.0143160754814744,
          0.06845363974571228,
          -0.060794029384851456,
          0.06845498085021973,
          -0.2851997911930084,
          -0.10373552143573761,
          0.15730500221252441,
          -0.02123866230249405,
          0.037665482610464096,
          0.1005476787686348,
          -0.09145963191986084,
          -0.23712371289730072,
          -0.07043484598398209,
          0.018839731812477112,
          0.2597357928752899,
          0.08440740406513214,
          0.06615456938743591,
          0.03135693445801735,
          0.11941730231046677,
          0.021706202998757362,
          0.047708846628665924,
          -0.008199801668524742,
          -0.17825381457805634,
          0.013598904944956303,
          -0.08209371566772461,
          -0.024042479693889618,
          0.18863938748836517,
          0.4917249083518982,
          0.18160386383533478,
          0.3936995267868042,
          0.15467512607574463,
          0.2883109748363495,
          0.11532576382160187,
          0.02564297802746296,
          0.11132970452308655,
          0.34824663400650024,
          0.2419203519821167,
          0.2798163890838623,
          0.3745746910572052,
          0.06515848636627197,
          -0.006887032650411129,
          0.30639293789863586,
          0.10147012770175934,
          0.3400408625602722,
          0.1340506225824356,
          0.051153164356946945,
          -0.32913732528686523,
          0.2746874690055847,
          -0.16836173832416534,
          -0.09566261619329453,
          -0.08822482824325562,
          -0.20150868594646454,
          0.2249762862920761,
          0.13614164292812347,
          0.0820324495434761,
          0.2533523142337799,
          0.04517825320363045,
          0.2519799768924713,
          -0.014776020310819149,
          0.15428701043128967,
          1.1527220010757446,
          0.07178395986557007
        ],
        [
          -0.02746037021279335,
          -0.7534124255180359,
          0.5247160196304321,
          0.4978131949901581,
          0.06022828817367554,
          -0.010577011853456497,
          0.29293471574783325,
          -0.21968893706798553,
          -0.25362494587898254,
          -0.13888418674468994,
          -0.29889973998069763,
          0.030234018340706825,
          0.34509217739105225,
          -0.024418313056230545,
          0.024486487731337547,
          0.49981027841567993,
          0.38745689392089844,
          0.016930634155869484,
          0.3256660997867584,
          0.21840766072273254,
          0.2639928162097931,
          0.2393227219581604,
          0.2820030152797699,
          0.06255275011062622,
          -0.2653615474700928,
          0.09367009252309799,
          -0.09142737835645676,
          -1.0972743034362793,
          0.3846544325351715,
          -0.15652041137218475,
          -0.0791599303483963,
          0.6589364409446716,
          0.4915400445461273,
          0.03248291462659836,
          -0.1366376131772995,
          0.08092261850833893,
          -0.09935247153043747,
          0.05363190919160843,
          0.11236988753080368,
          -0.029675239697098732,
          -0.11338531225919724,
          -0.10194804519414902,
          -0.08716230094432831,
          -0.19384819269180298,
          -0.11180218309164047,
          -0.2746053636074066,
          -0.14542531967163086,
          0.10760439932346344,
          0.07908491045236588,
          0.08493020385503769,
          -0.1712743043899536,
          -0.18852581083774567,
          -0.11040819436311722,
          0.21010643243789673,
          -0.02533048205077648,
          -0.20442913472652435,
          -0.061953190714120865,
          0.31458720564842224,
          -0.012355436570942402,
          -0.035314954817295074,
          -0.0764022096991539,
          0.2601664960384369,
          0.2715543806552887,
          0.04740343242883682,
          -0.3942205309867859,
          0.20440350472927094,
          -0.037199605256319046,
          -0.07344599068164825,
          0.10711106657981873,
          0.23149576783180237,
          -0.060745466500520706,
          0.10874728113412857,
          0.16300736367702484,
          0.18627239763736725,
          0.23891250789165497,
          -0.015234412625432014,
          0.027586542069911957,
          0.08770746737718582,
          0.11783654242753983,
          0.20072104036808014,
          0.019744746387004852,
          0.1071004644036293,
          -0.006224881857633591,
          -0.14069730043411255,
          0.08547190576791763,
          0.08381519466638565,
          0.08062215894460678,
          0.16155555844306946,
          0.06569771468639374,
          -0.11424878984689713,
          0.185818150639534,
          0.015378477983176708,
          -0.09347370266914368,
          0.09794656932353973,
          0.2196177989244461,
          -0.027608569711446762,
          -0.039512474089860916,
          -0.11704615503549576,
          0.037619151175022125,
          0.07476702332496643,
          0.16432072222232819,
          0.1544182151556015,
          -0.15660734474658966,
          -0.13982868194580078,
          -0.049437519162893295,
          0.01125932577997446,
          -0.10176596790552139,
          -0.029737774282693863,
          0.20481246709823608,
          0.17255964875221252,
          0.139868825674057,
          -0.24278311431407928,
          -0.17111836373806,
          0.0327470600605011,
          0.19059425592422485,
          0.008314620703458786,
          -0.1277681142091751,
          0.06776180118322372,
          0.19440263509750366,
          -0.18500380218029022,
          -0.1464768350124359,
          -0.16235285997390747,
          -0.058039113879203796,
          0.18897761404514313,
          0.03794127330183983,
          -0.11854992806911469,
          0.1481846272945404,
          0.12997286021709442,
          -0.06830377876758575,
          0.16126659512519836,
          -0.08173281699419022,
          -0.08499139547348022,
          -0.0057287681847810745,
          -0.09150031954050064,
          0.10042892396450043,
          0.14515139162540436,
          -0.11420997232198715,
          0.058385688811540604,
          -0.06771685183048248,
          -0.12724339962005615,
          -0.058902252465486526,
          -0.1628023087978363,
          -0.13347066938877106,
          0.04486485570669174,
          0.11004289239645004,
          0.16698163747787476,
          -0.0226446520537138,
          -0.24317729473114014,
          0.07393641024827957,
          -0.21051062643527985,
          0.25735151767730713,
          -0.12761864066123962,
          0.0333724170923233,
          0.09204937517642975,
          0.05519358441233635,
          0.06001926213502884,
          -0.5730800628662109,
          -0.5458784103393555,
          -0.44424358010292053,
          -0.290210485458374,
          -0.26516714692115784,
          -0.10791502147912979,
          -0.09683230519294739,
          -0.05262163281440735,
          -0.21492913365364075,
          -0.2735167443752289,
          -0.1690097153186798,
          -0.29297396540641785,
          0.1414126753807068,
          -0.44127920269966125,
          -0.14262409508228302,
          -0.25689461827278137,
          -0.18007901310920715,
          0.08050098270177841,
          -0.021673288196325302,
          0.02488996647298336,
          0.23754854500293732,
          0.2698025405406952,
          0.35963174700737,
          0.3354138433933258,
          0.3059603273868561,
          0.45560383796691895,
          0.00034388701897114515,
          -0.20758797228336334,
          -0.09575897455215454,
          -0.2064022272825241,
          -0.07244974374771118,
          -0.24571849405765533,
          0.03566932678222656,
          -0.3185734152793884,
          -0.19389553368091583,
          -0.11158151179552078,
          0.01743127964437008,
          0.1558028608560562,
          -0.017203209921717644,
          -0.09273019433021545,
          0.17567606270313263,
          -0.1441914290189743,
          -0.051490720361471176,
          0.3334466218948364,
          0.028994834050536156,
          0.17978566884994507,
          -0.08667629957199097,
          0.21219253540039062,
          0.19759239256381989,
          0.05715685710310936,
          0.14144177734851837,
          -0.06944255530834198,
          0.11515908688306808,
          0.13055700063705444,
          0.052438706159591675,
          0.1321251094341278,
          -0.030766982585191727,
          0.1793908178806305,
          0.014448948204517365,
          -0.04127234220504761,
          -0.00428917957469821,
          0.06039987877011299,
          -1.5459216833114624,
          -0.37012553215026855
        ],
        [
          -0.5315778851509094,
          -1.0367709398269653,
          -0.5749539136886597,
          -0.7613679766654968,
          -0.6904699802398682,
          -0.19910427927970886,
          -0.600934624671936,
          0.20074357092380524,
          -0.05545200780034065,
          -0.032456547021865845,
          -0.19167864322662354,
          -0.08651350438594818,
          -0.03441695123910904,
          -0.10856374353170395,
          0.047159381210803986,
          -0.28460174798965454,
          -0.2600383460521698,
          -0.07929187268018723,
          -0.45473623275756836,
          -0.1281520128250122,
          -0.5054691433906555,
          -0.16430088877677917,
          -0.45050469040870667,
          0.08353827148675919,
          -0.1029139906167984,
          -0.38360893726348877,
          -0.047373224049806595,
          0.6431083679199219,
          -0.08457308262586594,
          0.6410919427871704,
          0.3480915427207947,
          0.7524462342262268,
          0.8627600073814392,
          0.5267044305801392,
          0.35338079929351807,
          0.25972458720207214,
          0.188256174325943,
          0.06228595972061157,
          0.5685006380081177,
          0.09078016877174377,
          0.20025798678398132,
          0.20373718440532684,
          0.11121903359889984,
          0.16439920663833618,
          0.20217524468898773,
          0.14271987974643707,
          0.004706376697868109,
          0.3590446412563324,
          0.256803423166275,
          0.46242865920066833,
          -0.06273095309734344,
          -0.07303082942962646,
          0.08531907200813293,
          -0.012042254209518433,
          -0.1589846909046173,
          0.12316915392875671,
          -0.31693026423454285,
          -0.42227014899253845,
          -0.003035868750885129,
          -0.004041927866637707,
          -0.2749003767967224,
          -0.01269774790853262,
          -0.2086346447467804,
          -0.025641953572630882,
          0.04718378558754921,
          -0.33654144406318665,
          -0.23181410133838654,
          -0.046179719269275665,
          0.04604153707623482,
          -0.08989157527685165,
          0.04077222943305969,
          0.13334466516971588,
          -0.18301169574260712,
          0.021965263411402702,
          -0.2322988510131836,
          0.03472493216395378,
          0.46200764179229736,
          -0.13462220132350922,
          -0.21488559246063232,
          -0.11259376257658005,
          -0.11750202625989914,
          -0.2910025417804718,
          -0.7067278027534485,
          0.7337870001792908,
          -0.20558489859104156,
          0.30665209889411926,
          -0.16445830464363098,
          -0.2567797303199768,
          -0.07878968864679337,
          -0.07289471477270126,
          -0.03112724795937538,
          -0.25246497988700867,
          -0.1270170658826828,
          0.017553281038999557,
          -0.6344581246376038,
          -0.1311715990304947,
          -0.16330310702323914,
          0.1548117697238922,
          -0.2463754117488861,
          -0.23760618269443512,
          -0.16541117429733276,
          -0.3005226254463196,
          -0.18044623732566833,
          -0.15838681161403656,
          -0.10737311094999313,
          -0.19840361177921295,
          -0.25745996832847595,
          -0.04766334220767021,
          -0.29505062103271484,
          -0.0832950547337532,
          -0.25201237201690674,
          0.02377346158027649,
          -0.06608683615922928,
          -0.010747401043772697,
          -0.06336946040391922,
          0.020532716065645218,
          -0.02128317952156067,
          0.0038681209553033113,
          -0.15914006531238556,
          -0.016321904957294464,
          -0.0807664543390274,
          -0.14960262179374695,
          -0.29247552156448364,
          -0.16240444779396057,
          -0.10892963409423828,
          -0.11942396312952042,
          -0.23301158845424652,
          -0.05436008423566818,
          0.06787232309579849,
          -0.21746550500392914,
          0.19896729290485382,
          -0.25497516989707947,
          0.05601146072149277,
          0.1138196513056755,
          -0.17118439078330994,
          -0.22830332815647125,
          0.28843629360198975,
          -0.28351882100105286,
          -0.11495480686426163,
          -0.028336407616734505,
          0.04159620776772499,
          -0.05163433775305748,
          -0.17264598608016968,
          0.7255333065986633,
          0.8816456198692322,
          0.8432738184928894,
          0.32304278016090393,
          0.21636737883090973,
          0.3747102618217468,
          0.3560631275177002,
          0.6053696274757385,
          -0.11822479963302612,
          0.8808270692825317,
          0.09919264912605286,
          0.10004952549934387,
          0.36183270812034607,
          0.21677179634571075,
          -0.1937047839164734,
          0.05817609652876854,
          0.20778623223304749,
          0.14511066675186157,
          0.12489837408065796,
          0.2999812364578247,
          0.046451300382614136,
          0.2959898114204407,
          0.19415107369422913,
          0.20014047622680664,
          0.11018765717744827,
          0.2489694356918335,
          -0.12773117423057556,
          0.035696689039468765,
          -0.058502551168203354,
          -0.21765008568763733,
          0.17944540083408356,
          -0.28530600666999817,
          -0.01783241704106331,
          0.5182579159736633,
          0.48480257391929626,
          0.5309960246086121,
          0.6212952733039856,
          0.5040546655654907,
          0.3978411555290222,
          0.6791079044342041,
          0.33215126395225525,
          0.2763754725456238,
          0.4388357698917389,
          0.4831133484840393,
          0.515615701675415,
          0.3188028633594513,
          0.02257210947573185,
          0.3099197447299957,
          0.1442013680934906,
          0.09110318124294281,
          0.3922980725765228,
          0.31989219784736633,
          0.13428252935409546,
          0.054872214794158936,
          0.22116412222385406,
          -0.06993003189563751,
          0.1621900349855423,
          -0.13342687487602234,
          0.1845630258321762,
          0.012231324799358845,
          0.6930962204933167,
          -0.16323979198932648,
          0.8408044576644897,
          0.09824321419000626,
          0.06516941636800766,
          0.06777793914079666,
          -0.07720883935689926,
          0.1750618815422058,
          0.44703859090805054,
          0.31207171082496643,
          0.41792091727256775,
          -0.07066290080547333,
          0.4239100217819214,
          0.0676349550485611,
          0.4477619528770447,
          -0.1044766753911972,
          0.10946138203144073
        ],
        [
          0.6025568842887878,
          0.21726132929325104,
          -0.04741358011960983,
          0.13180331885814667,
          0.04559525102376938,
          -0.012280605733394623,
          0.23615364730358124,
          0.11714650690555573,
          -0.3243969678878784,
          -0.037149734795093536,
          0.2064553201198578,
          -0.2888469994068146,
          0.11367839574813843,
          -0.07015056163072586,
          0.04395301267504692,
          0.03718119487166405,
          0.32424798607826233,
          0.19320665299892426,
          -0.031142927706241608,
          0.1651710420846939,
          0.11975239962339401,
          -0.029057959094643593,
          -0.07718037068843842,
          -0.010957557708024979,
          -0.01721249707043171,
          0.12943950295448303,
          -0.08871281892061234,
          -0.15601380169391632,
          0.5162896513938904,
          -0.301736980676651,
          -0.30052420496940613,
          -0.2642064094543457,
          -0.452529639005661,
          -0.19121865928173065,
          -0.3441504240036011,
          -0.04466870054602623,
          -0.11155726760625839,
          -0.049055956304073334,
          -0.18918395042419434,
          0.08886806666851044,
          -0.1275632530450821,
          0.0070341513492167,
          -0.15996147692203522,
          -0.0272538922727108,
          -0.2021379917860031,
          -0.12817677855491638,
          0.11102801561355591,
          0.05377672240138054,
          0.0461711585521698,
          0.009062451310455799,
          0.12476569414138794,
          -0.24074864387512207,
          -0.16776235401630402,
          0.20120707154273987,
          0.06399963796138763,
          0.21692439913749695,
          -0.1310070902109146,
          0.13612598180770874,
          0.12454064935445786,
          -0.21004211902618408,
          -0.15959207713603973,
          -0.13076354563236237,
          0.044971514493227005,
          -0.13254442811012268,
          0.09292514622211456,
          0.19120393693447113,
          -0.1074858009815216,
          -0.08559081703424454,
          -0.18068601191043854,
          0.07138943672180176,
          0.021562039852142334,
          -0.03348932042717934,
          0.11308185756206512,
          0.07468922436237335,
          0.16113699972629547,
          0.18920618295669556,
          -0.4708400368690491,
          0.21150240302085876,
          0.17921115458011627,
          0.17040547728538513,
          -0.08559338003396988,
          -0.14702586829662323,
          0.18532603979110718,
          -0.2465103268623352,
          -0.08858794718980789,
          -0.31495001912117004,
          0.21122290194034576,
          0.17898644506931305,
          0.007631419692188501,
          -0.031547099351882935,
          0.18589568138122559,
          -0.03696034476161003,
          -0.1100325658917427,
          -0.0306771881878376,
          0.13651305437088013,
          -0.0018434118246659636,
          -0.033630114048719406,
          0.05044165998697281,
          -0.003056249814108014,
          0.21340079605579376,
          -0.06657038629055023,
          0.197002574801445,
          0.24014787375926971,
          0.022750793024897575,
          0.06620757281780243,
          0.13879330456256866,
          0.2464662343263626,
          -0.022940242663025856,
          0.04614640027284622,
          0.07969870418310165,
          0.13793106377124786,
          0.12342721223831177,
          -0.07787022739648819,
          0.16573777794837952,
          0.036742229014635086,
          -0.16898848116397858,
          -0.062054336071014404,
          0.10414701700210571,
          -0.025882774963974953,
          0.06834618002176285,
          0.023963680490851402,
          0.19016164541244507,
          -0.014629274606704712,
          0.19149145483970642,
          -0.09052501618862152,
          -0.07466953247785568,
          0.12015965580940247,
          0.02176378108561039,
          0.12766578793525696,
          -0.001697254367172718,
          -0.014431023970246315,
          -0.15076567232608795,
          -0.10074274241924286,
          0.20707997679710388,
          0.046915072947740555,
          -0.04512855410575867,
          -0.03893733769655228,
          0.12713469564914703,
          0.044862981885671616,
          -0.030188480392098427,
          0.036746226251125336,
          0.021920206025242805,
          0.04669828340411186,
          -0.32524898648262024,
          -0.537689208984375,
          -0.3583330810070038,
          -0.14360611140727997,
          -0.30796557664871216,
          -0.3039267361164093,
          -0.022129353135824203,
          -0.11553508788347244,
          0.09664974361658096,
          -0.42947918176651,
          0.12803582847118378,
          -0.17910562455654144,
          -0.20642775297164917,
          0.14383874833583832,
          0.31894007325172424,
          0.1609305888414383,
          0.19279617071151733,
          0.11385797709226608,
          0.2105802446603775,
          -0.06222561374306679,
          -0.0384511724114418,
          0.009847850538790226,
          0.014489340595901012,
          -0.04993783310055733,
          0.070236936211586,
          -0.03987286984920502,
          0.4196803569793701,
          0.2517416179180145,
          0.32415255904197693,
          0.09156083315610886,
          0.1430521160364151,
          -0.03482821211218834,
          0.14247792959213257,
          -0.2680058181285858,
          -0.28260305523872375,
          -0.29581767320632935,
          -0.17913760244846344,
          -0.1241985335946083,
          -0.1430373191833496,
          -0.02084016054868698,
          -0.18716926872730255,
          -0.1319657415151596,
          -0.23008805513381958,
          -0.11423595994710922,
          -0.169785276055336,
          -0.07744788378477097,
          -0.11450371146202087,
          -0.03567717969417572,
          -0.20219437777996063,
          -0.20211757719516754,
          -0.10103467851877213,
          -0.16423523426055908,
          -0.08488819748163223,
          -0.07930506765842438,
          -0.04029660299420357,
          0.0008237212314270437,
          0.03859991207718849,
          -0.05648714676499367,
          0.11745256185531616,
          0.06079275533556938,
          -0.11018538475036621,
          0.17158283293247223,
          0.03851545974612236,
          -0.04282987862825394,
          0.047165270894765854,
          0.061933599412441254,
          -0.061338357627391815,
          0.008893731981515884,
          -0.07949849218130112,
          -0.15369731187820435,
          -0.06030841916799545,
          0.18132995069026947,
          -0.08337098360061646,
          -0.09331423044204712,
          0.04490271210670471,
          -0.6621295213699341,
          -0.16158446669578552
        ],
        [
          0.9895766377449036,
          0.5936039090156555,
          -0.3690376877784729,
          -0.5708039999008179,
          -0.13577334582805634,
          0.11859668046236038,
          0.2431432604789734,
          -0.012156857177615166,
          -0.3643494248390198,
          -0.004914159886538982,
          0.016100503504276276,
          -0.3392312824726105,
          0.1834787279367447,
          0.02973528392612934,
          -0.22097580134868622,
          -0.3310360014438629,
          -0.19780875742435455,
          -0.019161531701683998,
          -0.3734799921512604,
          0.044692330062389374,
          -0.038736965507268906,
          -0.01384967751801014,
          -0.04143406078219414,
          -0.149066761136055,
          0.06272834539413452,
          -0.02943415567278862,
          0.19320997595787048,
          1.464375615119934,
          0.6141120195388794,
          0.008743035607039928,
          0.17522308230400085,
          0.3626354932785034,
          0.5552555322647095,
          0.24347804486751556,
          -0.004550043027848005,
          -0.07223334908485413,
          0.22130537033081055,
          0.16501228511333466,
          0.1381598711013794,
          0.23793506622314453,
          -0.039461951702833176,
          0.1633143126964569,
          -0.11638208478689194,
          -0.00695043196901679,
          0.17019814252853394,
          0.04486250877380371,
          -0.0909232422709465,
          -0.03129978105425835,
          -0.10235753655433655,
          0.18768718838691711,
          -0.10216192156076431,
          -0.03695281222462654,
          -0.21717898547649384,
          -0.240852952003479,
          0.005665231961756945,
          0.06161566078662872,
          -0.27585506439208984,
          -0.023422695696353912,
          0.053633324801921844,
          -0.09737127274274826,
          -0.0696588084101677,
          -0.2436705082654953,
          -0.028579531237483025,
          0.13327018916606903,
          0.5394930839538574,
          -0.1842443346977234,
          -0.14470987021923065,
          0.11280054599046707,
          -0.1973716765642166,
          0.14723098278045654,
          0.15832197666168213,
          -0.04450748488306999,
          -0.16380120813846588,
          0.1261032372713089,
          -0.09300348907709122,
          -0.1820976734161377,
          -0.7889218330383301,
          -0.11509892344474792,
          0.12930136919021606,
          -0.12288717180490494,
          0.16811120510101318,
          0.02707604318857193,
          -0.30974099040031433,
          -0.3318480849266052,
          -0.0992380902171135,
          -0.34805506467819214,
          -0.11613402515649796,
          0.030788158997893333,
          -0.13996776938438416,
          0.12900298833847046,
          0.0921926200389862,
          -0.06650032103061676,
          -0.09582050144672394,
          -0.13347145915031433,
          0.11527518928050995,
          -0.004440842196345329,
          -0.027595680207014084,
          0.11320394277572632,
          -0.1008271798491478,
          0.04168402776122093,
          -0.04793966934084892,
          -0.19538988173007965,
          0.04437698796391487,
          0.08117544651031494,
          -0.11800829321146011,
          0.11205708235502243,
          0.00497595826163888,
          -0.45956626534461975,
          -0.19558925926685333,
          0.021299466490745544,
          -0.011781059205532074,
          0.21347612142562866,
          0.04049244895577431,
          0.13933049142360687,
          -0.15456323325634003,
          0.16670452058315277,
          -0.08655479550361633,
          0.10488153249025345,
          -0.13082408905029297,
          -0.024789081886410713,
          -0.0684170126914978,
          0.12014671415090561,
          -0.13747933506965637,
          0.06568128615617752,
          -0.0910305380821228,
          -0.0728491023182869,
          0.018497275188565254,
          -0.1759166121482849,
          0.0405748076736927,
          -0.14831078052520752,
          0.03051338717341423,
          -0.08133745193481445,
          0.11735379695892334,
          0.1464005708694458,
          -0.11600911617279053,
          -0.046572938561439514,
          -0.016476329416036606,
          0.09933222085237503,
          -0.1599397212266922,
          -0.11007734388113022,
          -0.09868587553501129,
          -0.14925049245357513,
          -0.15157988667488098,
          -0.764391303062439,
          -0.5872859358787537,
          -0.530448317527771,
          -0.12949134409427643,
          -0.2553768455982208,
          -0.19491907954216003,
          -0.2900773584842682,
          -0.4527839124202728,
          0.06300293654203415,
          -0.3751363158226013,
          -0.10370846092700958,
          0.0005998368142172694,
          -0.05268508940935135,
          1.1290711164474487,
          0.5112115144729614,
          0.4525899589061737,
          0.563285768032074,
          0.14712415635585785,
          0.033454082906246185,
          -0.10947918891906738,
          -0.05377303436398506,
          -0.07076333463191986,
          0.1894816756248474,
          0.029316158965229988,
          -0.017286231741309166,
          -0.13028861582279205,
          0.6103687882423401,
          0.4686237573623657,
          0.18646052479743958,
          0.3055221736431122,
          0.09478489309549332,
          0.10407932847738266,
          -0.003321954282000661,
          0.05832285434007645,
          0.2918923497200012,
          0.2538783550262451,
          0.3542695939540863,
          0.040766771882772446,
          0.3872913122177124,
          0.35281962156295776,
          0.25632593035697937,
          -0.4348190426826477,
          -1.0398527383804321,
          -0.5716390013694763,
          -0.8206108212471008,
          -0.49316656589508057,
          -0.12958279252052307,
          -0.43626654148101807,
          -0.08539067953824997,
          -0.23888860642910004,
          0.07275562733411789,
          0.17536857724189758,
          0.10162446647882462,
          0.09406789392232895,
          0.05717404931783676,
          0.23944243788719177,
          -0.004666968714445829,
          0.21008709073066711,
          0.06815648823976517,
          -0.07196103036403656,
          0.2346242368221283,
          0.3376331031322479,
          0.29224973917007446,
          0.44067302346229553,
          0.31010255217552185,
          0.1456393599510193,
          0.11615049093961716,
          0.0636310875415802,
          0.08325475454330444,
          0.1735703945159912,
          0.07082322239875793,
          0.4156506359577179,
          0.26018232107162476,
          -0.05126451328396797,
          -0.05876495689153671,
          0.3421769142150879,
          -0.11962448060512543
        ],
        [
          -0.1639215350151062,
          -0.6463664770126343,
          -0.3050495386123657,
          -0.7863186001777649,
          -0.4238365888595581,
          -0.2560289800167084,
          -0.5956483483314514,
          -0.2815702259540558,
          -0.46120503544807434,
          -0.242956280708313,
          -0.04051261022686958,
          -0.26752910017967224,
          0.27910393476486206,
          -0.000992294866591692,
          -0.02131541445851326,
          -0.2791782021522522,
          -0.25431108474731445,
          -0.18071530759334564,
          -0.2813013792037964,
          0.01590568758547306,
          -0.20990422368049622,
          -0.31632545590400696,
          -0.3059798777103424,
          -0.1499338001012802,
          -0.11272752285003662,
          0.15337294340133667,
          -0.04224487394094467,
          -0.8870700001716614,
          0.1799338459968567,
          0.005801124032586813,
          0.05315067991614342,
          0.6633691191673279,
          0.4367576539516449,
          0.09246093034744263,
          -0.035376518964767456,
          0.12742486596107483,
          -0.13318853080272675,
          0.05110388621687889,
          -0.11556217074394226,
          -0.0022799759171903133,
          -0.1479271799325943,
          -0.1911090761423111,
          -0.13456301391124725,
          0.015808675438165665,
          -0.020347196608781815,
          -0.21221503615379333,
          -0.11196456104516983,
          0.0132935531437397,
          -0.09504728019237518,
          0.07947836816310883,
          -0.07298512011766434,
          0.1515292227268219,
          -0.14068278670310974,
          0.12378453463315964,
          -0.11104048788547516,
          0.08996425569057465,
          0.004796397872269154,
          0.024375610053539276,
          0.21744267642498016,
          0.20406171679496765,
          0.08097631484270096,
          0.1258779764175415,
          0.06133950129151344,
          0.2524104714393616,
          0.05529755353927612,
          0.23980401456356049,
          0.253670871257782,
          0.27490535378456116,
          -0.10445219278335571,
          0.16283737123012543,
          -0.07025079429149628,
          0.02027152106165886,
          0.18817415833473206,
          0.0470755472779274,
          0.10335336625576019,
          0.01628139428794384,
          -0.3084411919116974,
          0.040886204689741135,
          -0.061009157449007034,
          -0.06641492992639542,
          -0.06229235604405403,
          -0.03389498218894005,
          0.13036349415779114,
          -0.21909107267856598,
          0.05242036283016205,
          -0.1679449826478958,
          -0.0057097990065813065,
          -0.01504658255726099,
          0.0006255494081415236,
          0.18153920769691467,
          -0.05136769637465477,
          0.16503408551216125,
          -0.032522279769182205,
          0.12315253168344498,
          0.18443149328231812,
          -0.09190329909324646,
          -0.03057323954999447,
          -0.17307035624980927,
          0.03284932300448418,
          0.10051339119672775,
          0.15023218095302582,
          0.025374416261911392,
          -0.12347009032964706,
          0.05413422733545303,
          -0.19374416768550873,
          0.08783706277608871,
          -0.046128783375024796,
          -0.08321414142847061,
          -0.11900419741868973,
          -0.07481399923563004,
          0.13031768798828125,
          -0.30606481432914734,
          0.1614057868719101,
          0.14094224572181702,
          -0.18800444900989532,
          -0.1815532147884369,
          -0.07255086302757263,
          0.06964538991451263,
          -0.05175963416695595,
          -0.03901717811822891,
          -0.09859354794025421,
          -0.16430151462554932,
          -0.05581130087375641,
          -0.12017416208982468,
          0.18212932348251343,
          -0.15649065375328064,
          0.1580463945865631,
          0.1195928156375885,
          -0.16602478921413422,
          0.05268310010433197,
          0.014755915850400925,
          0.1484399288892746,
          -0.14771249890327454,
          -0.07354418188333511,
          -0.07680225372314453,
          0.1153988391160965,
          0.1681627631187439,
          0.11820599436759949,
          -0.09065673500299454,
          -0.09935250878334045,
          0.14357338845729828,
          0.06207061931490898,
          0.011630809865891933,
          -0.2619647681713104,
          -0.5582436323165894,
          -0.525436520576477,
          -0.03336689621210098,
          -0.08063177019357681,
          -0.04339351877570152,
          -0.12397928535938263,
          -0.17189615964889526,
          0.16085407137870789,
          -0.35268914699554443,
          0.02767561376094818,
          -0.011489834636449814,
          0.09085574001073837,
          -0.404107004404068,
          -0.05288097634911537,
          -0.27861276268959045,
          0.07653683423995972,
          -0.23369097709655762,
          0.11253602057695389,
          -0.23586125671863556,
          -0.011458142660558224,
          -0.18116232752799988,
          -0.048678550869226456,
          -0.16867820918560028,
          -0.12483882158994675,
          0.13960674405097961,
          0.08385685086250305,
          -0.2638948857784271,
          -0.046283572912216187,
          -0.13228362798690796,
          -0.1625407636165619,
          -0.025489594787359238,
          0.25102683901786804,
          0.008457524701952934,
          0.24081900715827942,
          0.3195658028125763,
          0.17858615517616272,
          0.18900206685066223,
          0.5700360536575317,
          0.21312154829502106,
          0.07036594301462173,
          0.02742903307080269,
          0.011420823633670807,
          0.11890823394060135,
          0.05123106390237808,
          -0.13926872611045837,
          0.10582801699638367,
          0.07000270485877991,
          0.1414451152086258,
          -0.01983192190527916,
          0.3274522125720978,
          0.2654429078102112,
          0.2284007966518402,
          0.3485419452190399,
          0.09919008612632751,
          0.17710760235786438,
          0.1745302677154541,
          0.261945903301239,
          -0.06550005078315735,
          -0.0278596431016922,
          0.5095058083534241,
          0.3660532832145691,
          0.35617944598197937,
          0.12225117534399033,
          0.1498555690050125,
          0.2470330446958542,
          -0.07987409830093384,
          0.2649560570716858,
          0.40488627552986145,
          0.16943007707595825,
          0.39708536863327026,
          0.3005874454975128,
          0.11963856965303421,
          0.2098793387413025,
          0.3456307351589203,
          -0.04884904623031616,
          -0.10063832998275757
        ],
        [
          -0.15620973706245422,
          -0.304236501455307,
          0.25907957553863525,
          0.36553236842155457,
          0.06895681470632553,
          -0.052220024168491364,
          0.39730051159858704,
          -0.15638096630573273,
          0.1729501187801361,
          -0.10601403564214706,
          -0.28087422251701355,
          0.3159516751766205,
          -0.02735748514533043,
          0.17816928029060364,
          0.34231701493263245,
          0.5173569917678833,
          0.4476466774940491,
          0.0357363298535347,
          0.41340160369873047,
          0.13448160886764526,
          0.04310259222984314,
          0.03538023307919502,
          0.054242368787527084,
          0.05147498473525047,
          -0.3903963565826416,
          -0.11149772256612778,
          0.05473741888999939,
          0.1417907327413559,
          0.008192692883312702,
          -0.14389434456825256,
          -0.15494368970394135,
          -0.22877442836761475,
          -0.13619813323020935,
          0.038643818348646164,
          -0.3998897671699524,
          0.04586994647979736,
          -0.13200145959854126,
          -0.20979230105876923,
          0.0259352158755064,
          0.16424232721328735,
          0.036658093333244324,
          -0.1447727084159851,
          -0.09160022437572479,
          -0.003486104542389512,
          -0.1929967999458313,
          0.12641239166259766,
          -0.15067197382450104,
          -0.1848890483379364,
          0.09028780460357666,
          -0.18185651302337646,
          0.15362302958965302,
          -0.0766327902674675,
          -0.018167167901992798,
          -0.2125173658132553,
          -0.10667668282985687,
          -0.07402124255895615,
          -0.205621138215065,
          -0.3381028473377228,
          0.033764973282814026,
          -0.23816397786140442,
          0.08050592243671417,
          0.08480691909790039,
          -0.26675674319267273,
          -0.024357469752430916,
          -0.10383568704128265,
          -0.2674878239631653,
          -0.2697630822658539,
          -0.09721215069293976,
          0.08204437047243118,
          -0.13495175540447235,
          -0.07199041545391083,
          0.1783694475889206,
          0.01831819675862789,
          0.07698516547679901,
          -0.1949661821126938,
          -0.07957646250724792,
          0.7305458188056946,
          -0.19854673743247986,
          -0.01796225644648075,
          -0.20776647329330444,
          0.10531825572252274,
          -0.2524155378341675,
          -0.305747389793396,
          0.43542614579200745,
          -0.08471468091011047,
          0.4253702461719513,
          -0.11132845282554626,
          -0.15505151450634003,
          -0.25312039256095886,
          0.08165625482797623,
          0.044219475239515305,
          -0.21108515560626984,
          0.05367099866271019,
          0.033792901784181595,
          -0.4012625217437744,
          -0.20336569845676422,
          -0.19801832735538483,
          0.10583244264125824,
          -0.20315514504909515,
          -0.22447991371154785,
          0.11080871522426605,
          -0.13357706367969513,
          0.13555556535720825,
          -0.12600117921829224,
          0.029715321958065033,
          0.19109655916690826,
          0.06617923825979233,
          0.02579982951283455,
          -0.0923447459936142,
          0.004441506695002317,
          0.055839892476797104,
          -0.21462082862854004,
          -0.2550505995750427,
          0.08491837978363037,
          -0.09716815501451492,
          -0.18520064651966095,
          -0.20410968363285065,
          0.11320324242115021,
          0.1191132664680481,
          0.14184166491031647,
          -0.1921878159046173,
          -0.04942939057946205,
          0.11348289251327515,
          -0.049690503627061844,
          -0.09228093922138214,
          -0.07751781493425369,
          -0.1759514957666397,
          -0.1747782677412033,
          -0.20086650550365448,
          -0.14436161518096924,
          -0.1653108447790146,
          -0.0741940587759018,
          -0.042986590415239334,
          -0.04519471898674965,
          0.08249359577894211,
          -0.16838406026363373,
          -0.027222279459238052,
          -0.11316853761672974,
          0.026723776012659073,
          -0.08711773157119751,
          -0.037618644535541534,
          0.17118720710277557,
          -0.06330274045467377,
          0.739094078540802,
          0.880881667137146,
          0.7757560610771179,
          0.13037943840026855,
          0.30566224455833435,
          0.48002955317497253,
          0.3047598600387573,
          0.45840170979499817,
          0.17233601212501526,
          0.9198696613311768,
          0.34082290530204773,
          -0.006285469979047775,
          0.17618466913700104,
          -0.4063562750816345,
          -0.18030110001564026,
          0.012562453746795654,
          -0.0033379490487277508,
          -0.2467290312051773,
          -0.2750084698200226,
          -0.008624638430774212,
          0.018817901611328125,
          0.16713076829910278,
          -0.12070603668689728,
          -0.1552204042673111,
          0.18490055203437805,
          0.078709676861763,
          -0.16953033208847046,
          -0.07650864869356155,
          -0.2935473918914795,
          -0.20962809026241302,
          0.05646190419793129,
          -0.06709259003400803,
          -0.15709447860717773,
          -0.06542918086051941,
          -0.09546564519405365,
          0.2199031114578247,
          -0.1629885733127594,
          0.10739240050315857,
          0.0026193768717348576,
          0.05281809717416763,
          0.09055595844984055,
          0.3699389398097992,
          0.385860800743103,
          0.18740659952163696,
          0.1896314173936844,
          0.006250794976949692,
          0.18894198536872864,
          -0.002949357498437166,
          0.13919180631637573,
          -0.1608184576034546,
          -0.02487892098724842,
          -0.2607034146785736,
          0.03133927658200264,
          -0.28646066784858704,
          -0.22446893155574799,
          -0.15078075230121613,
          -0.19905532896518707,
          -0.49808046221733093,
          -0.39912036061286926,
          -0.21826499700546265,
          -0.12019608914852142,
          -0.03892695531249046,
          -0.1484977900981903,
          -0.202442467212677,
          0.10148730874061584,
          0.0792616456747055,
          -0.09060212969779968,
          -0.1917875111103058,
          0.07577623426914215,
          -0.24382302165031433,
          0.12917564809322357,
          0.11257833242416382,
          -0.16062875092029572,
          -0.16817937791347504,
          0.11058468371629715,
          -0.8950653076171875,
          0.004816248081624508
        ],
        [
          -0.43985337018966675,
          0.21797290444374084,
          -0.5222564339637756,
          -0.7035926580429077,
          -0.26279217004776,
          -0.11678539216518402,
          -0.19728876650333405,
          0.42978593707084656,
          0.20210078358650208,
          0.305144727230072,
          -0.23021897673606873,
          -0.2166283130645752,
          0.12407821416854858,
          0.12670579552650452,
          -0.012216415256261826,
          -0.26498815417289734,
          -0.4517539441585541,
          -0.07175733894109726,
          -0.13250766694545746,
          -0.19610720872879028,
          -0.24244751036167145,
          -0.054954998195171356,
          -0.2585301399230957,
          -0.19102279841899872,
          -0.15817488729953766,
          -0.1265004575252533,
          0.02585049532353878,
          1.204781413078308,
          0.17012900114059448,
          0.23730048537254333,
          0.027304107323288918,
          -0.16304956376552582,
          -0.1808173656463623,
          -0.08223327249288559,
          0.1531207263469696,
          0.04953626170754433,
          -0.0325138196349144,
          -0.1544605940580368,
          0.1753753125667572,
          0.08618796616792679,
          0.11192575842142105,
          0.12716007232666016,
          0.23082461953163147,
          0.10254781693220139,
          0.15962320566177368,
          -0.08660808950662613,
          -0.055433403700590134,
          0.24304431676864624,
          0.2694258689880371,
          -0.09076850116252899,
          -0.02201283909380436,
          0.20476914942264557,
          -0.21893833577632904,
          -0.05078370124101639,
          -0.10899695754051208,
          0.16632388532161713,
          -0.33770594000816345,
          -0.2503953278064728,
          -0.27843350172042847,
          0.08619318902492523,
          -0.12881669402122498,
          -0.10677085071802139,
          0.04548739269375801,
          -0.1324264109134674,
          0.16386228799819946,
          -0.24950328469276428,
          -0.04771414026618004,
          -0.22415180504322052,
          -0.003690120065584779,
          0.009165003895759583,
          -0.17284801602363586,
          0.10373746603727341,
          0.13926652073860168,
          0.12365741282701492,
          -0.2846525013446808,
          -0.14144299924373627,
          -0.008776567876338959,
          0.007000765297561884,
          -0.01782144419848919,
          -0.24892568588256836,
          -0.1522616446018219,
          0.0569147951900959,
          -0.49971818923950195,
          0.3361911177635193,
          -0.20894166827201843,
          0.14881384372711182,
          -0.2445332556962967,
          -0.38978487253189087,
          -0.13685142993927002,
          -0.16683727502822876,
          -0.1432214379310608,
          -0.08358840644359589,
          -0.16787773370742798,
          -0.10594643652439117,
          -0.1236395537853241,
          -0.17746026813983917,
          -0.006072787567973137,
          -0.05533275008201599,
          -0.019969841465353966,
          -0.04367149993777275,
          -0.04219073802232742,
