{
  "sizes": [
    398,
    32,
    16,
    35
  ],
  "layers": [
    {
      "w0": {},
      "w1": {},
      "w2": {},
      "w3": {},
      "w4": {},
      "w5": {},
      "w6": {},
      "w7": {},
      "w8": {},
      "w9": {},
      "w10": {},
      "w11": {},
      "w12": {},
      "w13": {},
      "w14": {},
      "w15": {},
      "w16": {},
      "w17": {},
      "w18": {},
      "w19": {},
      "w20": {},
      "w21": {},
      "w22": {},
      "w23": {},
      "w24": {},
      "w25": {},
      "w26": {},
      "w27": {},
      "w28": {},
      "w29": {},
      "w30": {},
      "w31": {},
      "w32": {},
      "w33": {},
      "w34": {},
      "w35": {},
      "w36": {},
      "w37": {},
      "w38": {},
      "w39": {},
      "w40": {},
      "w41": {},
      "w42": {},
      "w43": {},
      "w44": {},
      "w45": {},
      "w46": {},
      "w47": {},
      "w48": {},
      "w49": {},
      "w50": {},
      "w51": {},
      "w52": {},
      "w53": {},
      "w54": {},
      "w55": {},
      "w56": {},
      "w57": {},
      "w58": {},
      "w59": {},
      "w60": {},
      "w61": {},
      "w62": {},
      "w63": {},
      "w64": {},
      "w65": {},
      "w66": {},
      "w67": {},
      "w68": {},
      "w69": {},
      "w70": {},
      "w71": {},
      "w72": {},
      "w73": {},
      "w74": {},
      "w75": {},
      "w76": {},
      "w77": {},
      "w78": {},
      "w79": {},
      "w80": {},
      "w81": {},
      "w82": {},
      "w83": {},
      "w84": {},
      "w85": {},
      "w86": {},
      "w87": {},
      "w88": {},
      "w89": {},
      "w90": {},
      "w91": {},
      "w92": {},
      "w93": {},
      "w94": {},
      "w95": {},
      "w96": {},
      "w97": {},
      "w98": {},
      "w99": {},
      "w100": {},
      "w101": {},
      "w102": {},
      "w103": {},
      "w104": {},
      "w105": {},
      "w106": {},
      "w107": {},
      "w108": {},
      "w109": {},
      "w110": {},
      "w111": {},
      "w112": {},
      "w113": {},
      "w114": {},
      "w115": {},
      "w116": {},
      "w117": {},
      "w118": {},
      "w119": {},
      "w120": {},
      "w121": {},
      "w122": {},
      "w123": {},
      "w124": {},
      "w125": {},
      "w126": {},
      "w127": {},
      "w128": {},
      "w129": {},
      "w130": {},
      "w131": {},
      "w132": {},
      "w133": {},
      "w134": {},
      "w135": {},
      "w136": {},
      "w137": {},
      "w138": {},
      "w139": {},
      "w140": {},
      "w141": {},
      "w142": {},
      "w143": {},
      "w144": {},
      "w145": {},
      "w146": {},
      "w147": {},
      "w148": {},
      "w149": {},
      "w150": {},
      "w151": {},
      "w152": {},
      "w153": {},
      "w154": {},
      "w155": {},
      "w156": {},
      "w157": {},
      "w158": {},
      "w159": {},
      "w160": {},
      "w161": {},
      "w162": {},
      "w163": {},
      "w164": {},
      "w165": {},
      "w166": {},
      "w167": {},
      "w168": {},
      "w169": {},
      "w170": {},
      "w171": {},
      "w172": {},
      "w173": {},
      "w174": {},
      "w175": {},
      "w176": {},
      "w177": {},
      "w178": {},
      "w179": {},
      "w180": {},
      "w181": {},
      "w182": {},
      "w183": {},
      "w184": {},
      "w185": {},
      "w186": {},
      "w187": {},
      "w188": {},
      "w189": {},
      "w190": {},
      "w191": {},
      "w192": {},
      "w193": {},
      "w194": {},
      "w195": {},
      "w196": {},
      "w197": {},
      "w198": {},
      "w199": {},
      "w200": {},
      "w201": {},
      "w202": {},
      "w203": {},
      "w204": {},
      "w205": {},
      "w206": {},
      "w207": {},
      "w208": {},
      "w209": {},
      "w210": {},
      "w211": {},
      "w212": {},
      "w213": {},
      "w214": {},
      "w215": {},
      "w216": {},
      "w217": {},
      "w218": {},
      "w219": {},
      "w220": {},
      "w221": {},
      "w222": {},
      "w223": {},
      "w224": {},
      "w225": {},
      "w226": {},
      "w227": {},
      "w228": {},
      "w229": {},
      "w230": {},
      "w231": {},
      "w232": {},
      "w233": {},
      "w234": {},
      "w235": {},
      "w236": {},
      "w237": {},
      "w238": {},
      "w239": {},
      "w240": {},
      "w241": {},
      "w242": {},
      "w243": {},
      "w244": {},
      "w245": {},
      "w246": {},
      "w247": {},
      "w248": {},
      "w249": {},
      "w250": {},
      "w251": {},
      "w252": {},
      "w253": {},
      "w254": {},
      "w255": {},
      "w256": {},
      "w257": {},
      "w258": {},
      "w259": {},
      "w260": {},
      "w261": {},
      "w262": {},
      "w263": {},
      "w264": {},
      "w265": {},
      "w266": {},
      "w267": {},
      "w268": {},
      "w269": {},
      "w270": {},
      "w271": {},
      "w272": {},
      "w273": {},
      "w274": {},
      "w275": {},
      "w276": {},
      "w277": {},
      "w278": {},
      "w279": {},
      "w280": {},
      "w281": {},
      "w282": {},
      "w283": {},
      "w284": {},
      "w285": {},
      "w286": {},
      "w287": {},
      "w288": {},
      "w289": {},
      "w290": {},
      "w291": {},
      "w292": {},
      "w293": {},
      "w294": {},
      "w295": {},
      "w296": {},
      "w297": {},
      "w298": {},
      "w299": {},
      "w300": {},
      "w301": {},
      "w302": {},
      "w303": {},
      "w304": {},
      "w305": {},
      "w306": {},
      "w307": {},
      "w308": {},
      "w309": {},
      "w310": {},
      "w311": {},
      "w312": {},
      "w313": {},
      "w314": {},
      "w315": {},
      "w316": {},
      "w317": {},
      "w318": {},
      "w319": {},
      "w320": {},
      "w321": {},
      "w322": {},
      "w323": {},
      "w324": {},
      "w325": {},
      "w326": {},
      "w327": {},
      "w328": {},
      "w329": {},
      "w330": {},
      "w331": {},
      "w332": {},
      "w333": {},
      "w334": {},
      "w335": {},
      "w336": {},
      "w337": {},
      "w338": {},
      "w339": {},
      "w340": {},
      "w341": {},
      "w342": {},
      "w343": {},
      "w344": {},
      "w345": {},
      "w346": {},
      "w347": {},
      "w348": {},
      "w349": {},
      "w350": {},
      "w351": {},
      "w352": {},
      "w353": {},
      "w354": {},
      "w355": {},
      "w356": {},
      "w357": {},
      "w358": {},
      "w359": {},
      "w360": {},
      "w361": {},
      "w362": {},
      "w363": {},
      "w364": {},
      "w365": {},
      "w366": {},
      "w367": {},
      "w368": {},
      "w369": {},
      "w370": {},
      "w371": {},
      "w372": {},
      "w373": {},
      "w374": {},
      "w375": {},
      "w376": {},
      "w377": {},
      "w378": {},
      "w379": {},
      "w380": {},
      "w381": {},
      "w382": {},
      "w383": {},
      "w384": {},
      "w385": {},
      "w386": {},
      "w387": {},
      "w388": {},
      "w389": {},
      "w390": {},
      "w391": {},
      "w392": {},
      "w393": {},
      "w394": {},
      "w395": {},
      "w396": {},
      "w397": {}
    },
    {
      "0": {
        "bias": -0.2912449240684509,
        "weights": {
          "w0": 1.090518832206726,
          "w1": 0.5223261117935181,
          "w2": 0.28077903389930725,
          "w3": -0.058643098920583725,
          "w4": 0.524436891078949,
          "w5": -0.03571807220578194,
          "w6": 0.3819372355937958,
          "w7": -0.11587175726890564,
          "w8": -0.04880228638648987,
          "w9": 0.15807366371154785,
          "w10": 0.14796078205108643,
          "w11": -0.008741267025470734,
          "w12": 0.07268159836530685,
          "w13": -0.13822002708911896,
          "w14": 0.32545754313468933,
          "w15": 0.18969625234603882,
          "w16": 0.32812827825546265,
          "w17": 0.44402939081192017,
          "w18": 0.2737346291542053,
          "w19": 0.2761855721473694,
          "w20": 0.27275121212005615,
          "w21": 0.4245103895664215,
          "w22": 0.27484530210494995,
          "w23": 0.08039005100727081,
          "w24": 1.1215174198150635,
          "w25": 0.2505185008049011,
          "w26": 0.5583531260490417,
          "w27": 0.20768432319164276,
          "w28": -0.008371303789317608,
          "w29": 0.06635244190692902,
          "w30": 0.261987566947937,
          "w31": 0.2933536469936371,
          "w32": -0.21952763199806213,
          "w33": 0.1565365046262741,
          "w34": 0.057224150747060776,
          "w35": 0.109983891248703,
          "w36": 0.3028949201107025,
          "w37": 0.15757054090499878,
          "w38": 0.13485698401927948,
          "w39": 0.04521944373846054,
          "w40": -0.11732165515422821,
          "w41": 0.22431103885173798,
          "w42": -0.06880882382392883,
          "w43": 0.5276702046394348,
          "w44": 0.24642275273799896,
          "w45": -0.06956136971712112,
          "w46": 0.3951144218444824,
          "w47": 0.19744430482387543,
          "w48": -0.5357072353363037,
          "w49": -0.743079662322998,
          "w50": 0.15701687335968018,
          "w51": -0.8527308106422424,
          "w52": -0.3259165585041046,
          "w53": -0.3180246949195862,
          "w54": -0.45678892731666565,
          "w55": -0.12342990189790726,
          "w56": -0.16544900834560394,
          "w57": 0.028635645285248756,
          "w58": -0.49135154485702515,
          "w59": 0.45486634969711304,
          "w60": -0.22829151153564453,
          "w61": -0.30945858359336853,
          "w62": -0.018418122082948685,
          "w63": -0.10755681991577148,
          "w64": -0.09342484921216965,
          "w65": 0.14397943019866943,
          "w66": 0.35983920097351074,
          "w67": -0.31354981660842896,
          "w68": -0.24385032057762146,
          "w69": -0.35892245173454285,
          "w70": -0.09522318840026855,
          "w71": -0.2556324005126953,
          "w72": -0.4826011657714844,
          "w73": -0.03716109320521355,
          "w74": -0.35096901655197144,
          "w75": -0.36195528507232666,
          "w76": -0.09224241971969604,
          "w77": -0.34494471549987793,
          "w78": 0.00248008593916893,
          "w79": -0.043414510786533356,
          "w80": -0.29107606410980225,
          "w81": -0.012476280331611633,
          "w82": -0.16544705629348755,
          "w83": -0.17295390367507935,
          "w84": 0.17828251421451569,
          "w85": 0.13920378684997559,
          "w86": 0.06960179656744003,
          "w87": -0.09573279321193695,
          "w88": 0.3179892599582672,
          "w89": 0.2775014340877533,
          "w90": 0.2526381313800812,
          "w91": 0.27215224504470825,
          "w92": 0.23065976798534393,
          "w93": -0.0369909442961216,
          "w94": 0.04932257533073425,
          "w95": -0.05088513717055321,
          "w96": 0.1880110502243042,
          "w97": -0.16384606063365936,
          "w98": -0.073525071144104,
          "w99": 0.11772985756397247,
          "w100": 0.23790551722049713,
          "w101": 0.17126083374023438,
          "w102": 0.16774332523345947,
          "w103": -0.03157778084278107,
          "w104": 0.2673960328102112,
          "w105": 0.13730795681476593,
          "w106": 0.0017701711039990187,
          "w107": 0.10030608624219894,
          "w108": 0.20128552615642548,
          "w109": 0.3500765264034271,
          "w110": 0.3632816970348358,
          "w111": 0.18681170046329498,
          "w112": 0.48164936900138855,
          "w113": 0.20184601843357086,
          "w114": 0.34761351346969604,
          "w115": 0.4534350633621216,
          "w116": 0.05496582016348839,
          "w117": 0.4912499487400055,
          "w118": 0.39953047037124634,
          "w119": 0.3008706569671631,
          "w120": 0.1456383466720581,
          "w121": 0.1721644401550293,
          "w122": -0.2592673897743225,
          "w123": 0.1836152970790863,
          "w124": 0.028561579063534737,
          "w125": 0.16985048353672028,
          "w126": 0.19312021136283875,
          "w127": 0.15986281633377075,
          "w128": -0.021736016497015953,
          "w129": 0.14193406701087952,
          "w130": 0.02590850740671158,
          "w131": 0.13089434802532196,
          "w132": -0.10121217370033264,
          "w133": -0.18961001932621002,
          "w134": 0.015276067890226841,
          "w135": -0.5293962359428406,
          "w136": 0.029078105464577675,
          "w137": -0.507538914680481,
          "w138": 0.1374385803937912,
          "w139": 0.0853949710726738,
          "w140": 0.00823183637112379,
          "w141": -0.08875887095928192,
          "w142": -0.12319580465555191,
          "w143": -0.025485534220933914,
          "w144": -0.041629206389188766,
          "w145": 0.09552346915006638,
          "w146": -0.047399699687957764,
          "w147": 0.1466926634311676,
          "w148": 0.06066509336233139,
          "w149": 0.06478618085384369,
          "w150": 0.04289843142032623,
          "w151": 0.07442421466112137,
          "w152": -0.12365040928125381,
          "w153": -0.021930860355496407,
          "w154": 0.026708636432886124,
          "w155": -0.1501396894454956,
          "w156": -0.34408318996429443,
          "w157": 0.043615348637104034,
          "w158": -0.10963235795497894,
          "w159": -0.044868893921375275,
          "w160": 0.22699910402297974,
          "w161": 0.28465038537979126,
          "w162": -0.05544412508606911,
          "w163": 0.15353156626224518,
          "w164": -0.06275144219398499,
          "w165": 0.16205203533172607,
          "w166": 0.1945839673280716,
          "w167": 0.1720644235610962,
          "w168": 0.4754277467727661,
          "w169": -0.09327506273984909,
          "w170": 0.16397330164909363,
          "w171": 0.22642207145690918,
          "w172": 0.2189292311668396,
          "w173": 0.292111873626709,
          "w174": 0.11040771752595901,
          "w175": 0.12628012895584106,
          "w176": 0.2385610193014145,
          "w177": -0.005332331173121929,
          "w178": 0.17903552949428558,
          "w179": 0.11019579321146011,
          "w180": 0.06784188747406006,
          "w181": 0.13707385957241058,
          "w182": 0.03944656625390053,
          "w183": 0.2627032697200775,
          "w184": 0.08055141568183899,
          "w185": 0.47647351026535034,
          "w186": -0.31376564502716064,
          "w187": 0.2781977951526642,
          "w188": -0.17904815077781677,
          "w189": 0.19222109019756317,
          "w190": 0.08737044036388397,
          "w191": 0.07654523849487305,
          "w192": -0.2077885866165161,
          "w193": -0.07011875510215759,
          "w194": 0.14043009281158447,
          "w195": 0.2166624516248703,
          "w196": 0.25930848717689514,
          "w197": -0.5611280202865601,
          "w198": -0.41135773062705994,
          "w199": -0.712279736995697,
          "w200": -0.23006227612495422,
          "w201": -0.21369870007038116,
          "w202": -0.28024226427078247,
          "w203": -0.3819381892681122,
          "w204": -0.079384446144104,
          "w205": -0.3527502417564392,
          "w206": -0.4550066292285919,
          "w207": -0.06820666044950485,
          "w208": -0.34023237228393555,
          "w209": -0.19995829463005066,
          "w210": -0.09421581029891968,
          "w211": -0.06443719565868378,
          "w212": -0.6020369529724121,
          "w213": -0.34912145137786865,
          "w214": -0.5397501587867737,
          "w215": -0.3414997458457947,
          "w216": -0.06621884554624557,
          "w217": -0.42401620745658875,
          "w218": -0.16447873413562775,
          "w219": -0.21751758456230164,
          "w220": -0.5252575874328613,
          "w221": -0.26566654443740845,
          "w222": -0.42684969305992126,
          "w223": -0.18541958928108215,
          "w224": -0.2799142897129059,
          "w225": -0.47276145219802856,
          "w226": -0.47311779856681824,
          "w227": -0.017930008471012115,
          "w228": -0.269125372171402,
          "w229": -0.2653949558734894,
          "w230": -0.22463451325893402,
          "w231": 0.22924068570137024,
          "w232": -0.08444178849458694,
          "w233": -0.23664209246635437,
          "w234": -0.05533604696393013,
          "w235": -0.015677405521273613,
          "w236": -0.06916049122810364,
          "w237": -0.11782688647508621,
          "w238": 0.09955304861068726,
          "w239": -0.1204608604311943,
          "w240": -0.16919822990894318,
          "w241": 0.09055738151073456,
          "w242": 0.14989949762821198,
          "w243": 0.030626285821199417,
          "w244": -0.21466051042079926,
          "w245": -0.13100111484527588,
          "w246": 0.006279997527599335,
          "w247": -0.12766225636005402,
          "w248": 0.03581433370709419,
          "w249": 0.07589159160852432,
          "w250": 0.18741506338119507,
          "w251": -0.07436840236186981,
          "w252": 0.007827023044228554,
          "w253": -0.022689906880259514,
          "w254": -0.03148454427719116,
          "w255": 0.19556041061878204,
          "w256": -0.06305954605340958,
          "w257": 0.1856619417667389,
          "w258": 0.18414725363254547,
          "w259": -0.007311582565307617,
          "w260": -0.26511406898498535,
          "w261": 0.08921964466571808,
          "w262": -0.15423856675624847,
          "w263": 0.061022624373435974,
          "w264": -0.08931037038564682,
          "w265": 0.13231587409973145,
          "w266": 0.042093757539987564,
          "w267": 0.2256888598203659,
          "w268": 0.08182104676961899,
          "w269": -0.04210056737065315,
          "w270": 0.16403889656066895,
          "w271": 0.21342459321022034,
          "w272": -0.1015569344162941,
          "w273": -0.09156911075115204,
          "w274": 0.020153990015387535,
          "w275": 0.11864691972732544,
          "w276": -0.16970539093017578,
          "w277": -0.09097159653902054,
          "w278": -0.22388824820518494,
          "w279": 0.08481895923614502,
          "w280": 0.09418119490146637,
          "w281": 0.2297315001487732,
          "w282": 0.14657016098499298,
          "w283": 0.16964693367481232,
          "w284": 0.08344922214746475,
          "w285": -0.13119982182979584,
          "w286": -0.056182779371738434,
          "w287": 0.08554178476333618,
          "w288": -0.033354658633470535,
          "w289": -0.16113021969795227,
          "w290": 0.003838276956230402,
          "w291": 0.06636049598455429,
          "w292": -0.010451087728142738,
          "w293": -0.10329712927341461,
          "w294": -0.06164290010929108,
          "w295": 0.9569575190544128,
          "w296": 0.16035206615924835,
          "w297": 0.3847525417804718,
          "w298": 0.30961912870407104,
          "w299": 0.24645933508872986,
          "w300": 0.4851445257663727,
          "w301": 0.536683201789856,
          "w302": 0.343340665102005,
          "w303": 0.031802739948034286,
          "w304": 0.18089859187602997,
          "w305": 0.20542269945144653,
          "w306": 0.11662556976079941,
          "w307": -0.395979642868042,
          "w308": -0.24972578883171082,
          "w309": 0.021541932597756386,
          "w310": -0.23286819458007812,
          "w311": 0.050948046147823334,
          "w312": -0.03777086362242699,
          "w313": 0.15411755442619324,
          "w314": -0.23496119678020477,
          "w315": 0.2840975522994995,
          "w316": 0.12869380414485931,
          "w317": -0.059104613959789276,
          "w318": 0.1262611597776413,
          "w319": 0.04111841320991516,
          "w320": 0.16158224642276764,
          "w321": 0.21178878843784332,
          "w322": 0.02269638516008854,
          "w323": -0.0040304106660187244,
          "w324": -0.04867396131157875,
          "w325": 0.023526854813098907,
          "w326": 0.13343346118927002,
          "w327": -0.07244038581848145,
          "w328": -0.12038639187812805,
          "w329": 0.236943319439888,
          "w330": -0.14350570738315582,
          "w331": -0.12852081656455994,
          "w332": 0.17102478444576263,
          "w333": -0.005151483230292797,
          "w334": 0.08236324787139893,
          "w335": -0.047568902373313904,
          "w336": 0.01579616405069828,
          "w337": 0.20956848561763763,
          "w338": -0.12423514574766159,
          "w339": -0.08029159158468246,
          "w340": -0.0940142571926117,
          "w341": -0.19129642844200134,
          "w342": -0.17336754500865936,
          "w343": 0.08883866667747498,
          "w344": 0.02865665592253208,
          "w345": 0.08717262744903564,
          "w346": -0.2149745374917984,
          "w347": 0.1377440094947815,
          "w348": -0.32290953397750854,
          "w349": -0.25993818044662476,
          "w350": -0.07387012243270874,
          "w351": -0.053677838295698166,
          "w352": -0.18196241557598114,
          "w353": 0.09122586250305176,
          "w354": -0.11065539717674255,
          "w355": -0.1573561578989029,
          "w356": -0.11735285818576813,
          "w357": -0.34492072463035583,
          "w358": 0.0625484511256218,
          "w359": 0.02890777960419655,
          "w360": -0.16890592873096466,
          "w361": 0.18055617809295654,
          "w362": 0.17949363589286804,
          "w363": 0.05886673927307129,
          "w364": -0.006012337747961283,
          "w365": 0.027187742292881012,
          "w366": 0.2971805930137634,
          "w367": 0.10725977271795273,
          "w368": -0.07187959551811218,
          "w369": 0.19828683137893677,
          "w370": -0.17872673273086548,
          "w371": -0.035825181752443314,
          "w372": -0.4052855670452118,
          "w373": -0.30586540699005127,
          "w374": -0.1842728704214096,
          "w375": -0.0894402414560318,
          "w376": 0.10189605504274368,
          "w377": -0.2587693929672241,
          "w378": -0.32879549264907837,
          "w379": 0.244362011551857,
          "w380": 0.06709342449903488,
          "w381": -0.15338104963302612,
          "w382": -0.13906589150428772,
          "w383": -0.5788344740867615,
          "w384": -0.41378700733184814,
          "w385": -0.31725406646728516,
          "w386": -0.021312452852725983,
          "w387": -0.015773089602589607,
          "w388": -0.007529870606958866,
          "w389": 0.14027656614780426,
          "w390": 0.09425491839647293,
          "w391": -0.033376969397068024,
          "w392": -0.24203026294708252,
          "w393": -0.16506509482860565,
          "w394": -0.07415236532688141,
          "w395": -0.15306039154529572,
          "w396": 0.07282200455665588,
          "w397": 0.01108366996049881
        }
      },
      "1": {
        "bias": 0.09769818931818008,
        "weights": {
          "w0": 0.7578769326210022,
          "w1": 0.3144793212413788,
          "w2": 0.6298183798789978,
          "w3": 1.6913530826568604,
          "w4": 0.5787714719772339,
          "w5": 0.04427173733711243,
          "w6": 0.6996988654136658,
          "w7": 0.055798985064029694,
          "w8": -0.0018519695149734616,
          "w9": -0.040486667305231094,
          "w10": -0.30593225359916687,
          "w11": 0.2694862484931946,
          "w12": -0.16071642935276031,
          "w13": 0.06285186111927032,
          "w14": 0.4868737459182739,
          "w15": 0.6178131103515625,
          "w16": 0.48403117060661316,
          "w17": 0.028048589825630188,
          "w18": 0.686255693435669,
          "w19": 0.1581984907388687,
          "w20": 0.33583909273147583,
          "w21": 0.2633754312992096,
          "w22": 0.4265059232711792,
          "w23": 0.270458847284317,
          "w24": 0.5792407393455505,
          "w25": -0.15068121254444122,
          "w26": 0.6491039395332336,
          "w27": 0.18299683928489685,
          "w28": 0.2430858463048935,
          "w29": 0.18592630326747894,
          "w30": 0.04337213188409805,
          "w31": 0.3142537474632263,
          "w32": 0.553429126739502,
          "w33": 0.2701546251773834,
          "w34": 0.019602030515670776,
          "w35": 0.12522561848163605,
          "w36": 0.30279719829559326,
          "w37": -0.16498443484306335,
          "w38": -0.11809805035591125,
          "w39": 0.07588955760002136,
          "w40": -0.19956472516059875,
          "w41": 0.1558857560157776,
          "w42": -1.0851308107376099,
          "w43": 0.47372081875801086,
          "w44": 0.20099875330924988,
          "w45": -0.05289313942193985,
          "w46": 0.41355398297309875,
          "w47": -0.021405547857284546,
          "w48": -0.9322049021720886,
          "w49": 0.2714383006095886,
          "w50": 0.3569929897785187,
          "w51": -1.817346215248108,
          "w52": -0.5378510355949402,
          "w53": -0.27082327008247375,
          "w54": -0.583499014377594,
          "w55": -0.3806043565273285,
          "w56": -0.2816704213619232,
          "w57": 0.14289025962352753,
          "w58": -0.2740643322467804,
          "w59": 0.5735031962394714,
          "w60": -0.7071722745895386,
          "w61": -0.11382743716239929,
          "w62": -0.5061715841293335,
          "w63": -0.07375962287187576,
          "w64": -0.31335708498954773,
          "w65": -0.2920345962047577,
          "w66": -0.09925796091556549,
          "w67": -0.10674887895584106,
          "w68": -0.1962805837392807,
          "w69": -0.7291699051856995,
          "w70": -0.2922423481941223,
          "w71": -0.38040339946746826,
          "w72": -0.32648399472236633,
          "w73": -0.3679265081882477,
          "w74": -1.1153701543807983,
          "w75": -0.31911996006965637,
          "w76": 0.17147468030452728,
          "w77": -0.5738562345504761,
          "w78": -0.5128024220466614,
          "w79": -0.49033334851264954,
          "w80": -0.9436686635017395,
          "w81": -0.1772058606147766,
          "w82": -0.22205092012882233,
          "w83": -0.023716900497674942,
          "w84": -0.3354839086532593,
          "w85": -0.4562431871891022,
          "w86": -0.2101982682943344,
          "w87": -0.31419646739959717,
          "w88": -0.18020936846733093,
          "w89": -0.357339471578598,
          "w90": 0.17194047570228577,
          "w91": -0.1427551954984665,
          "w92": -0.33850282430648804,
          "w93": -0.41981565952301025,
          "w94": -0.09473655372858047,
          "w95": 0.028412677347660065,
          "w96": -0.03394722938537598,
          "w97": 0.1778712123632431,
          "w98": -0.08099730312824249,
          "w99": -0.29211142659187317,
          "w100": -0.16177047789096832,
          "w101": -0.31505319476127625,
          "w102": -0.2214062511920929,
          "w103": -0.32844439148902893,
          "w104": -0.037189267575740814,
          "w105": -0.19102735817432404,
          "w106": -0.08867224305868149,
          "w107": -0.05381699278950691,
          "w108": -0.12289275228977203,
          "w109": -0.045702360570430756,
          "w110": 0.12844908237457275,
          "w111": -0.3539953827857971,
          "w112": -0.7105281352996826,
          "w113": 0.12508651614189148,
          "w114": -0.09024468064308167,
          "w115": -0.4143523573875427,
          "w116": -0.13828781247138977,
          "w117": -0.13539615273475647,
          "w118": -0.037546444684267044,
          "w119": 0.08658260852098465,
          "w120": 0.023203950375318527,
          "w121": 0.40836310386657715,
          "w122": 0.23798875510692596,
          "w123": 0.07330624759197235,
          "w124": -0.09004835784435272,
          "w125": 0.264573872089386,
          "w126": -0.0634983628988266,
          "w127": -0.09247410297393799,
          "w128": 0.3085089921951294,
          "w129": 0.1466534435749054,
          "w130": 0.13150596618652344,
          "w131": 0.1857091188430786,
          "w132": 0.13119468092918396,
          "w133": -0.014051966369152069,
          "w134": 0.1171024814248085,
          "w135": 0.5365822315216064,
          "w136": 0.18412813544273376,
          "w137": -0.5553422570228577,
          "w138": 0.02075372450053692,
          "w139": 0.41340172290802,
          "w140": 0.4549744129180908,
          "w141": -0.25388023257255554,
          "w142": 0.18428131937980652,
          "w143": 0.15243315696716309,
          "w144": 0.14546778798103333,
          "w145": 0.46909165382385254,
          "w146": -0.41626033186912537,
          "w147": 0.2515992522239685,
          "w148": 0.25547659397125244,
          "w149": 0.04576374962925911,
          "w150": -0.0419374480843544,
          "w151": 0.16498543322086334,
          "w152": 0.427246630191803,
          "w153": 0.21923479437828064,
          "w154": 0.14027579128742218,
          "w155": 0.37653106451034546,
          "w156": 0.1759098619222641,
          "w157": 0.16303947567939758,
          "w158": 0.13539214432239532,
          "w159": 0.1912052184343338,
          "w160": 0.2338883876800537,
          "w161": 0.09692763537168503,
          "w162": 0.3404722511768341,
          "w163": 0.17323905229568481,
          "w164": -0.20791564881801605,
          "w165": 0.2116398960351944,
          "w166": 0.1957823485136032,
          "w167": 0.25351279973983765,
          "w168": 0.4487203359603882,
          "w169": -0.2724941074848175,
          "w170": 0.12690740823745728,
          "w171": 0.10170286148786545,
          "w172": -0.12052501738071442,
          "w173": 0.2084691971540451,
          "w174": 0.022077906876802444,
          "w175": -0.16660591959953308,
          "w176": 0.26061731576919556,
          "w177": 0.1616618037223816,
          "w178": 0.018628699705004692,
          "w179": 0.2624775469303131,
          "w180": 0.3109211325645447,
          "w181": -0.04035786911845207,
          "w182": -0.09427155554294586,
          "w183": 0.12726841866970062,
          "w184": -0.5821543335914612,
          "w185": 0.4328007996082306,
          "w186": -0.3777253329753876,
          "w187": -0.1965220719575882,
          "w188": -0.09226194769144058,
          "w189": 0.2190789431333542,
          "w190": -0.25401702523231506,
          "w191": -0.04190123826265335,
          "w192": 0.019302133470773697,
          "w193": -0.16670285165309906,
          "w194": 0.27063390612602234,
          "w195": 0.2445274442434311,
          "w196": 0.5293545126914978,
          "w197": -0.5216509103775024,
          "w198": -0.6262486577033997,
          "w199": -0.4851757287979126,
          "w200": 0.035369716584682465,
          "w201": -0.4719925820827484,
          "w202": -0.3675457835197449,
          "w203": -0.14681978523731232,
          "w204": -0.320689857006073,
          "w205": -0.4874194264411926,
          "w206": -0.30969178676605225,
          "w207": 0.1681513637304306,
          "w208": -0.5751181244850159,
          "w209": 0.16016778349876404,
          "w210": 0.0919165313243866,
          "w211": -0.19020508229732513,
          "w212": -0.6016006469726562,
          "w213": -0.3030316233634949,
          "w214": -0.349438339471817,
          "w215": -0.4520157277584076,
          "w216": -0.08098812401294708,
          "w217": -0.41673073172569275,
          "w218": -0.5200806260108948,
          "w219": -0.1619303673505783,
          "w220": -0.2481967955827713,
          "w221": -0.3465295732021332,
          "w222": -0.32872557640075684,
          "w223": -0.5573489665985107,
          "w224": -0.3386080861091614,
          "w225": -0.35148438811302185,
          "w226": -0.3873324692249298,
          "w227": -0.20594175159931183,
          "w228": -0.36065277457237244,
          "w229": -0.45005694031715393,
          "w230": -0.34681791067123413,
          "w231": 0.9770462512969971,
          "w232": 0.8632420301437378,
          "w233": 0.42993301153182983,
          "w234": 0.007641521282494068,
          "w235": -0.09565459191799164,
          "w236": 0.14444394409656525,
          "w237": 0.6989110708236694,
          "w238": 0.6439753770828247,
          "w239": 0.41157010197639465,
          "w240": 0.15093344449996948,
          "w241": -0.029157398268580437,
          "w242": 0.031801946461200714,
          "w243": 0.07942436635494232,
          "w244": 0.16088058054447174,
          "w245": 0.363118976354599,
          "w246": 0.5924382209777832,
          "w247": -0.167124405503273,
          "w248": 0.7933967709541321,
          "w249": 1.06817626953125,
          "w250": 1.0921313762664795,
          "w251": 1.0262789726257324,
          "w252": 0.09302787482738495,
          "w253": 0.09072766453027725,
          "w254": 0.16479156911373138,
          "w255": 0.8072992563247681,
          "w256": 0.9024337530136108,
          "w257": 0.8181442022323608,
          "w258": 0.9609584808349609,
          "w259": -1.8694978952407837,
          "w260": -0.33559638261795044,
          "w261": -0.24350662529468536,
          "w262": -0.6683233380317688,
          "w263": -0.24172836542129517,
          "w264": -0.6470960974693298,
          "w265": -0.8296082615852356,
          "w266": -0.5104748010635376,
          "w267": -0.8643672466278076,
          "w268": -0.3599882423877716,
          "w269": -0.3026115596294403,
          "w270": 0.10896027833223343,
          "w271": -0.826981782913208,
          "w272": 0.01459458190947771,
          "w273": 1.4645527601242065,
          "w274": 0.0847686305642128,
          "w275": -0.1804381012916565,
          "w276": 1.1438060998916626,
          "w277": -0.07080157846212387,
          "w278": -1.1087778806686401,
          "w279": 0.0027389603201299906,
          "w280": -0.3238830864429474,
          "w281": -0.17147843539714813,
          "w282": -0.987959086894989,
          "w283": -0.24212485551834106,
          "w284": -0.210077166557312,
          "w285": 0.052072733640670776,
          "w286": -0.595418393611908,
          "w287": -0.13221822679042816,
          "w288": -0.44027018547058105,
          "w289": -0.48060470819473267,
          "w290": -0.7229626178741455,
          "w291": -0.4781957268714905,
          "w292": -0.2588513493537903,
          "w293": 0.10310132801532745,
          "w294": -0.0680738240480423,
          "w295": 0.49900373816490173,
          "w296": 0.2613675594329834,
          "w297": 0.4032537043094635,
          "w298": 0.060799598693847656,
          "w299": -0.17117367684841156,
          "w300": 0.562908411026001,
          "w301": 0.847655177116394,
          "w302": 0.6239108443260193,
          "w303": 0.10390988737344742,
          "w304": 0.23093090951442719,
          "w305": 0.358386754989624,
          "w306": 0.4031291604042053,
          "w307": -0.20049403607845306,
          "w308": -0.28802788257598877,
          "w309": -0.1908203810453415,
          "w310": -0.03580833598971367,
          "w311": -0.22887054085731506,
          "w312": 0.022040946409106255,
          "w313": -0.20440225303173065,
          "w314": -0.3024929463863373,
          "w315": 0.3972657322883606,
          "w316": 0.23310619592666626,
          "w317": 0.18629781901836395,
          "w318": 0.10786748677492142,
          "w319": 0.18129831552505493,
          "w320": 0.009642917662858963,
          "w321": 0.009778638370335102,
          "w322": 0.27592945098876953,
          "w323": 0.12455616891384125,
          "w324": -0.11697553098201752,
          "w325": -0.03771979734301567,
          "w326": 0.19575640559196472,
          "w327": 0.10282360017299652,
          "w328": -0.003057688008993864,
          "w329": 0.15602096915245056,
          "w330": 0.3214871883392334,
          "w331": 0.21664083003997803,
          "w332": 0.38609573245048523,
          "w333": 0.26460450887680054,
          "w334": 0.0828113853931427,
          "w335": -0.09478399902582169,
          "w336": 0.2043248414993286,
          "w337": 0.18072417378425598,
          "w338": 0.2107638120651245,
          "w339": 0.07338952273130417,
          "w340": 0.11532288789749146,
          "w341": 0.2061174213886261,
          "w342": 0.17731069028377533,
          "w343": 0.08105311542749405,
          "w344": 0.13618510961532593,
          "w345": -0.0796981006860733,
          "w346": 0.08523969352245331,
          "w347": 0.2594311237335205,
          "w348": -0.14840732514858246,
          "w349": 0.17252930998802185,
          "w350": 0.06488651037216187,
          "w351": -0.001193551579490304,
          "w352": 0.10899869352579117,
          "w353": 0.3073056638240814,
          "w354": 0.1006799265742302,
          "w355": 0.5070521831512451,
          "w356": 0.2117869257926941,
          "w357": 0.035258304327726364,
          "w358": 0.03100830875337124,
          "w359": 0.4920096695423126,
          "w360": 0.35191479325294495,
          "w361": 0.6890954971313477,
          "w362": 0.6296805143356323,
          "w363": 0.28048548102378845,
          "w364": -0.002250945195555687,
          "w365": -0.3928150534629822,
          "w366": -0.38486191630363464,
          "w367": -0.5554841756820679,
          "w368": -0.2567773163318634,
          "w369": -0.04759211838245392,
          "w370": -0.7102562785148621,
          "w371": 0.1254623681306839,
          "w372": -1.399275302886963,
          "w373": -0.4400639832019806,
          "w374": -0.2507118582725525,
          "w375": -0.2203306257724762,
          "w376": -0.371118426322937,
          "w377": -0.2753598093986511,
          "w378": -0.1041760966181755,
          "w379": 0.166290283203125,
          "w380": 0.17519068717956543,
          "w381": 0.2179843932390213,
          "w382": 0.3909012973308563,
          "w383": -0.07064387202262878,
          "w384": -0.43551093339920044,
          "w385": 0.12348390370607376,
          "w386": 0.10212672501802444,
          "w387": 0.31900182366371155,
          "w388": 0.13905398547649384,
          "w389": 0.022687818855047226,
          "w390": 0.07704658806324005,
          "w391": -0.4103643000125885,
          "w392": -0.4598994255065918,
          "w393": -0.24521085619926453,
          "w394": -0.1463179886341095,
          "w395": 0.01080025639384985,
          "w396": -0.20040960609912872,
          "w397": -0.2551288306713104
        }
      },
      "2": {
        "bias": 0.04085210710763931,
        "weights": {
          "w0": -0.4398916959762573,
          "w1": -0.9941045045852661,
          "w2": -0.11888304352760315,
          "w3": -0.46364620327949524,
          "w4": -0.1916065365076065,
          "w5": -0.09068427979946136,
          "w6": -0.3846094608306885,
          "w7": -0.2684999704360962,
          "w8": 0.31843945384025574,
          "w9": -0.1135495975613594,
          "w10": -0.35005760192871094,
          "w11": 0.021531399339437485,
          "w12": 0.027950432151556015,
          "w13": 0.143375426530838,
          "w14": -0.08814259618520737,
          "w15": 0.3254086971282959,
          "w16": -0.0020419058855623007,
          "w17": -0.7340107560157776,
          "w18": 0.3112456202507019,
          "w19": 0.08989930152893066,
          "w20": -0.06893942505121231,
          "w21": 0.11497025936841965,
          "w22": -0.1349964588880539,
          "w23": 0.14668187499046326,
          "w24": -0.5687370300292969,
          "w25": -0.10739131271839142,
          "w26": -0.44416677951812744,
          "w27": -0.13315033912658691,
          "w28": 0.10388389229774475,
          "w29": 0.43825656175613403,
          "w30": -0.1302819550037384,
          "w31": -0.033500172197818756,
          "w32": -0.15263020992279053,
          "w33": -0.059613410383462906,
          "w34": -0.010347871109843254,
          "w35": -0.0922575443983078,
          "w36": -0.011027831584215164,
          "w37": 0.04157270863652229,
          "w38": -0.25749266147613525,
          "w39": -0.1320856213569641,
          "w40": 0.0755021870136261,
          "w41": 0.013393249362707138,
          "w42": 1.9677226543426514,
          "w43": -0.2936156392097473,
          "w44": -0.07551533728837967,
          "w45": 0.4329647421836853,
          "w46": -0.135454460978508,
          "w47": 0.22874294221401215,
          "w48": 1.0694257020950317,
          "w49": 0.01892690360546112,
          "w50": -0.03615410625934601,
          "w51": -0.21447080373764038,
          "w52": 0.202950119972229,
          "w53": 0.1906135380268097,
          "w54": 0.18414811789989471,
          "w55": -0.06678302586078644,
          "w56": 0.01596369408071041,
          "w57": -0.2186841368675232,
          "w58": 0.3496391177177429,
          "w59": -0.16505081951618195,
          "w60": 0.14803238213062286,
          "w61": 0.06829416006803513,
          "w62": 0.10964285582304001,
          "w63": 0.21080529689788818,
          "w64": -0.11214867979288101,
          "w65": -0.2935841679573059,
          "w66": -0.0271625816822052,
          "w67": 0.2398640513420105,
          "w68": 0.07805543392896652,
          "w69": 0.023090986534953117,
          "w70": 0.008166907355189323,
          "w71": 0.128453329205513,
          "w72": 0.2594201862812042,
          "w73": 0.17244094610214233,
          "w74": -0.005663091782480478,
          "w75": -0.050201717764139175,
          "w76": 0.04406039044260979,
          "w77": 0.28713616728782654,
          "w78": 0.08817851543426514,
          "w79": 0.2759488821029663,
          "w80": -0.023481057956814766,
          "w81": -0.13695664703845978,
          "w82": 0.2037164568901062,
          "w83": -0.020988868549466133,
          "w84": 0.1912464201450348,
          "w85": 0.1595926284790039,
          "w86": 0.187176913022995,
          "w87": 0.4087649881839752,
          "w88": 0.11282331496477127,
          "w89": 0.2602177560329437,
          "w90": 0.01284125167876482,
          "w91": 0.1446969211101532,
          "w92": 0.15130296349525452,
          "w93": 0.03378991782665253,
          "w94": -0.5612465739250183,
          "w95": 0.3296440541744232,
          "w96": -0.014126393012702465,
          "w97": -0.21478568017482758,
          "w98": -0.0849597230553627,
          "w99": 0.2788304090499878,
          "w100": 0.1626766324043274,
          "w101": 0.12953458726406097,
          "w102": 0.14073355495929718,
          "w103": 0.08979430794715881,
          "w104": 0.36685463786125183,
          "w105": 0.14171309769153595,
          "w106": -0.07911305129528046,
          "w107": 0.31873008608818054,
          "w108": -0.13099566102027893,
          "w109": 0.16386304795742035,
          "w110": 0.03255990147590637,
          "w111": -0.25877586007118225,
          "w112": -1.0569087266921997,
          "w113": 0.05010971426963806,
          "w114": -0.5870830416679382,
          "w115": -0.9655510783195496,
          "w116": 0.03699799254536629,
          "w117": -0.7743549942970276,
          "w118": -0.41552597284317017,
          "w119": 0.07030630856752396,
          "w120": -0.06381890922784805,
          "w121": -0.15341341495513916,
          "w122": -0.1260160356760025,
          "w123": 0.06518827378749847,
          "w124": 0.32102206349372864,
          "w125": -0.0345868244767189,
          "w126": 0.016776546835899353,
          "w127": -0.18891015648841858,
          "w128": -0.10140606015920639,
          "w129": -0.2479981929063797,
          "w130": 0.029480675235390663,
          "w131": -0.06352672725915909,
          "w132": -0.060225456953048706,
          "w133": 0.031144578009843826,
          "w134": 0.1319078654050827,
          "w135": -0.2984565198421478,
          "w136": 0.012158269993960857,
          "w137": 0.7251611351966858,
          "w138": -0.05754963681101799,
          "w139": -0.16806159913539886,
          "w140": -0.42150017619132996,
          "w141": 0.20469912886619568,
          "w142": -0.15976352989673615,
          "w143": -0.018972482532262802,
          "w144": -0.019324548542499542,
          "w145": 0.19779054820537567,
          "w146": 0.31751492619514465,
          "w147": -0.4614551067352295,
          "w148": 0.06151500344276428,
          "w149": 0.16373872756958008,
          "w150": 0.03274324908852577,
          "w151": 0.22794729471206665,
          "w152": 0.20796488225460052,
          "w153": 0.24175012111663818,
          "w154": -0.1430051326751709,
          "w155": 0.1376074105501175,
          "w156": 0.2984810769557953,
          "w157": 0.0633111521601677,
          "w158": -0.04616031423211098,
          "w159": 0.11909450590610504,
          "w160": -0.4392762780189514,
          "w161": -0.20524246990680695,
          "w162": -0.3535204827785492,
          "w163": 0.017153719440102577,
          "w164": -0.17168405652046204,
          "w165": -0.1892417073249817,
          "w166": -0.013535119593143463,
          "w167": -0.15067701041698456,
          "w168": -0.28011104464530945,
          "w169": -0.288006454706192,
          "w170": -0.06619424372911453,
          "w171": -0.0959833487868309,
          "w172": -0.1531236320734024,
          "w173": -0.47565987706184387,
          "w174": 0.07380925118923187,
          "w175": -0.08961323648691177,
          "w176": -0.20994322001934052,
          "w177": -0.29865139722824097,
          "w178": -0.17900998890399933,
          "w179": 0.16411305963993073,
          "w180": 0.15060195326805115,
          "w181": -0.08232702314853668,
          "w182": 0.1354178637266159,
          "w183": -0.2507430911064148,
          "w184": -0.007938197813928127,
          "w185": -0.3269287347793579,
          "w186": 0.17614814639091492,
          "w187": -0.34989094734191895,
          "w188": -0.2913314700126648,
          "w189": 0.028682395815849304,
          "w190": -0.2661131024360657,
          "w191": 0.017185436561703682,
          "w192": 0.150308296084404,
          "w193": 0.1537007987499237,
          "w194": 0.11138448864221573,
          "w195": -0.18905635178089142,
          "w196": -0.09980880469083786,
          "w197": 0.9972030520439148,
          "w198": 0.8340315222740173,
          "w199": 0.7446365356445312,
          "w200": 0.31447869539260864,
          "w201": 0.22240953147411346,
          "w202": 0.26704323291778564,
          "w203": 0.4296517074108124,
          "w204": 0.13559409976005554,
          "w205": 0.11084644496440887,
          "w206": 0.6752352714538574,
          "w207": -0.0219415295869112,
          "w208": 0.5156182050704956,
          "w209": 0.14769981801509857,
          "w210": 0.25849708914756775,
          "w211": 0.32462194561958313,
          "w212": 0.7384907007217407,
          "w213": 0.8018743395805359,
          "w214": 0.6494259238243103,
          "w215": 0.5416119694709778,
          "w216": 0.3508877158164978,
          "w217": 0.5613960027694702,
          "w218": 0.6609752774238586,
          "w219": 0.2806759178638458,
          "w220": 0.7439203262329102,
          "w221": 0.49441608786582947,
          "w222": 0.7108161449432373,
          "w223": 0.6470598578453064,
          "w224": 0.49938374757766724,
          "w225": 0.5347101092338562,
          "w226": 0.42926666140556335,
          "w227": 0.01679384335875511,
          "w228": 0.3162231147289276,
          "w229": 0.4261654019355774,
          "w230": 0.3871321976184845,
          "w231": 0.7695761322975159,
          "w232": 0.5095245242118835,
          "w233": 0.7125722765922546,
          "w234": 0.018852325156331062,
          "w235": -0.10870863497257233,
          "w236": 0.014429186470806599,
          "w237": 0.7282833456993103,
          "w238": 0.4841625988483429,
          "w239": 0.39203596115112305,
          "w240": 0.2245483100414276,
          "w241": 0.25044673681259155,
          "w242": 0.1571199595928192,
          "w243": 0.041535764932632446,
          "w244": 0.36576640605926514,
          "w245": 0.22899968922138214,
          "w246": 0.0953105092048645,
          "w247": 0.1970302015542984,
          "w248": -0.28035423159599304,
          "w249": -0.29969120025634766,
          "w250": 0.13866041600704193,
          "w251": -0.11408258229494095,
          "w252": 0.06546151638031006,
          "w253": 0.021381620317697525,
          "w254": 0.24426348507404327,
          "w255": 0.11554518342018127,
          "w256": -0.22454318404197693,
          "w257": -0.09106674045324326,
          "w258": -0.42611995339393616,
          "w259": -0.2798263430595398,
          "w260": -0.027272604405879974,
          "w261": 0.06227482855319977,
          "w262": -0.15478253364562988,
          "w263": -0.15894657373428345,
          "w264": -0.03583119437098503,
          "w265": -0.3976300358772278,
          "w266": -0.04246897250413895,
          "w267": -0.17037449777126312,
          "w268": -0.027185611426830292,
          "w269": -0.32634684443473816,
          "w270": 0.1380881667137146,
          "w271": 0.15193705260753632,
          "w272": -0.16971297562122345,
          "w273": -1.0028315782546997,
          "w274": -0.13971634209156036,
          "w275": 0.14033597707748413,
          "w276": -0.472262978553772,
          "w277": -0.12825492024421692,
          "w278": -0.22668318450450897,
          "w279": -0.15835069119930267,
          "w280": -0.020825592800974846,
          "w281": -0.09232266992330551,
          "w282": -0.1512373387813568,
          "w283": 0.14322881400585175,
          "w284": 0.11673250794410706,
          "w285": -0.014194769784808159,
          "w286": -0.21950840950012207,
          "w287": -0.1356448382139206,
          "w288": -0.22888202965259552,
          "w289": -0.29400381445884705,
          "w290": 0.009473397396504879,
          "w291": -0.1347179412841797,
          "w292": 0.05692924186587334,
          "w293": -0.03266676887869835,
          "w294": 0.04160689190030098,
          "w295": -0.2715197801589966,
          "w296": -0.020729906857013702,
          "w297": -0.0334315299987793,
          "w298": -0.049995504319667816,
          "w299": -0.19791308045387268,
          "w300": -0.44073382019996643,
          "w301": -0.336786150932312,
          "w302": -0.32367199659347534,
          "w303": 0.05372846871614456,
          "w304": 0.0025374635588377714,
          "w305": -0.260434627532959,
          "w306": -0.016311485320329666,
          "w307": 0.3709183633327484,
          "w308": 0.06671121716499329,
          "w309": 0.1616661697626114,
          "w310": -0.16497120261192322,
          "w311": -0.17427019774913788,
          "w312": 0.027955155819654465,
          "w313": -0.20066003501415253,
          "w314": -0.03591952100396156,
          "w315": 0.43733468651771545,
          "w316": 0.17223191261291504,
          "w317": 0.010597827844321728,
          "w318": -0.040786013007164,
          "w319": 0.2718687355518341,
          "w320": -0.0055403574369847775,
          "w321": 0.20296722650527954,
          "w322": -0.05939595773816109,
          "w323": 0.17662374675273895,
          "w324": -0.09667585045099258,
          "w325": -0.1264237016439438,
          "w326": 0.23194901645183563,
          "w327": -0.14945054054260254,
          "w328": 0.16753539443016052,
          "w329": -0.04542485624551773,
          "w330": -0.08108420670032501,
          "w331": 0.08756982535123825,
          "w332": 0.4808914065361023,
          "w333": 0.14577798545360565,
          "w334": 0.09756387770175934,
          "w335": 0.10092686116695404,
          "w336": 0.191730797290802,
          "w337": 0.018580369651317596,
          "w338": -1.0477503538131714,
          "w339": -0.28081998229026794,
          "w340": -0.8874966502189636,
          "w341": -0.3214136064052582,
          "w342": -0.21594944596290588,
          "w343": -0.22721457481384277,
          "w344": -0.12329132854938507,
          "w345": -0.14934279024600983,
          "w346": -0.345737099647522,
          "w347": -0.8755938410758972,
          "w348": 0.1952754408121109,
          "w349": -0.2952994704246521,
          "w350": 0.12921693921089172,
          "w351": 0.020784202963113785,
          "w352": 0.325158029794693,
          "w353": -0.3830582797527313,
          "w354": 0.4764307737350464,
          "w355": -0.34658321738243103,
          "w356": 0.02100519649684429,
          "w357": 0.009937849827110767,
          "w358": -0.2587759792804718,
          "w359": -0.5522948503494263,
          "w360": -0.3859352767467499,
          "w361": -0.948910117149353,
          "w362": -0.5637243986129761,
          "w363": -0.5793595314025879,
          "w364": -0.12138423323631287,
          "w365": -0.4604423940181732,
          "w366": -0.523476779460907,
          "w367": -0.3489580750465393,
          "w368": -0.2778755724430084,
          "w369": -0.3349319398403168,
          "w370": 0.32600998878479004,
          "w371": -0.05009950324892998,
          "w372": -0.2664947509765625,
          "w373": 0.16421575844287872,
          "w374": -0.3538317084312439,
          "w375": -0.30881327390670776,
          "w376": -0.21920135617256165,
          "w377": -0.21666289865970612,
          "w378": -0.45067447423934937,
          "w379": -0.9171192646026611,
          "w380": -0.251772940158844,
          "w381": -0.31343933939933777,
          "w382": -0.4346078336238861,
          "w383": -0.5641613602638245,
          "w384": -0.13802431523799896,
          "w385": -0.30744102597236633,
          "w386": 0.16461092233657837,
          "w387": -0.2115871161222458,
          "w388": -0.26611584424972534,
          "w389": 0.21368347108364105,
          "w390": 0.11241492629051208,
          "w391": -0.06844253838062286,
          "w392": -0.11327742785215378,
          "w393": -0.03031596727669239,
          "w394": 0.061582934111356735,
          "w395": 0.026527199894189835,
          "w396": 0.016346987336874008,
          "w397": -0.025571584701538086
        }
      },
      "3": {
        "bias": -0.2673017680644989,
        "weights": {
          "w0": 0.2074446827173233,
          "w1": -0.02545752190053463,
          "w2": 0.5532941222190857,
          "w3": 0.03915467485785484,
          "w4": 0.10418640822172165,
          "w5": -0.0075944350101053715,
          "w6": 0.06775327771902084,
          "w7": -0.004219587426632643,
          "w8": 0.13003796339035034,
          "w9": -0.2131422460079193,
          "w10": 0.04372105002403259,
          "w11": -0.07699267566204071,
          "w12": 0.019663076847791672,
          "w13": -0.013644982129335403,
          "w14": 0.21928328275680542,
          "w15": 0.3480686843395233,
          "w16": 0.5554429292678833,
          "w17": -0.07868514955043793,
          "w18": 0.36159083247184753,
          "w19": 0.016954492777585983,
          "w20": 0.4342499375343323,
          "w21": 0.46975237131118774,
          "w22": 0.15891680121421814,
          "w23": 0.23018904030323029,
          "w24": 0.23591716587543488,
          "w25": -0.13627883791923523,
          "w26": 0.11279722303152084,
          "w27": -0.1103443056344986,
          "w28": 0.09905198216438293,
          "w29": 0.32804757356643677,
          "w30": 0.06981517374515533,
          "w31": 0.2721800208091736,
          "w32": -0.03196986764669418,
          "w33": 0.2121257185935974,
          "w34": 0.09009259939193726,
          "w35": 0.06428497284650803,
          "w36": 0.11080779135227203,
          "w37": -0.014337275177240372,
          "w38": 0.13448669016361237,
          "w39": -0.05548953264951706,
          "w40": -0.2680279016494751,
          "w41": -0.009818242862820625,
          "w42": 1.2252826690673828,
          "w43": 0.26053088903427124,
          "w44": 0.13699640333652496,
          "w45": 0.44178980588912964,
          "w46": 0.30126166343688965,
          "w47": 0.7132518291473389,
          "w48": 0.7846274375915527,
          "w49": -0.18649829924106598,
          "w50": 0.08918752521276474,
          "w51": -0.39864596724510193,
          "w52": 0.699615478515625,
          "w53": -0.046308521181344986,
          "w54": 0.2833128571510315,
          "w55": -0.14337174594402313,
          "w56": -0.14173226058483124,
          "w57": 0.09622115641832352,
          "w58": -0.20556192100048065,
          "w59": -0.29427286982536316,
          "w60": -0.2337034046649933,
          "w61": 0.08726499229669571,
          "w62": 0.039194297045469284,
          "w63": 0.13490386307239532,
          "w64": 0.2455386519432068,
          "w65": 0.2030755579471588,
          "w66": 0.0494561530649662,
          "w67": -0.06466955691576004,
          "w68": -0.2512955665588379,
          "w69": 0.06450798362493515,
          "w70": 0.13541428744792938,
          "w71": -0.08061803877353668,
          "w72": -0.08380868285894394,
          "w73": 0.005549263674765825,
          "w74": 0.2839099168777466,
          "w75": 0.06850790232419968,
          "w76": 0.028270745649933815,
          "w77": 0.028090137988328934,
          "w78": -0.32085272669792175,
          "w79": 0.016841299831867218,
          "w80": 0.09629671275615692,
          "w81": -0.1765047162771225,
          "w82": -0.06973124295473099,
          "w83": -0.034002650529146194,
          "w84": 0.7301957607269287,
          "w85": 0.3345864713191986,
          "w86": 0.6161176562309265,
          "w87": 0.2672742009162903,
          "w88": 0.23768118023872375,
          "w89": 0.20929262042045593,
          "w90": 0.25332245230674744,
          "w91": 0.5786147117614746,
          "w92": 0.14481529593467712,
          "w93": 0.44056063890457153,
          "w94": -0.07034486532211304,
          "w95": 0.1093408390879631,
          "w96": -0.05342786759138107,
          "w97": 0.1264256089925766,
          "w98": 0.10602206736803055,
          "w99": 0.4211229383945465,
          "w100": 0.4758208692073822,
          "w101": 0.49242255091667175,
          "w102": 0.23267762362957,
          "w103": 0.023656703531742096,
          "w104": 0.31611794233322144,
          "w105": 0.3319658935070038,
          "w106": 0.11903461813926697,
          "w107": 0.21336424350738525,
          "w108": 0.14749287068843842,
          "w109": -0.06473307311534882,
          "w110": 0.163069948554039,
          "w111": 0.4234377145767212,
          "w112": 0.6061513423919678,
          "w113": 0.2590138912200928,
          "w114": 0.1935708373785019,
          "w115": 0.5064995288848877,
          "w116": 0.23310092091560364,
          "w117": 0.06757695972919464,
          "w118": 0.14374341070652008,
          "w119": -0.030706070363521576,
          "w120": 0.2147625833749771,
          "w121": -0.1316906213760376,
          "w122": -0.4532910883426666,
          "w123": 0.06930743157863617,
          "w124": 0.5752550959587097,
          "w125": 0.01859208010137081,
          "w126": 0.08769281953573227,
          "w127": -0.09169082343578339,
          "w128": -0.10152602940797806,
          "w129": 0.22111807763576508,
          "w130": -0.15520897507667542,
          "w131": -0.10186129063367844,
          "w132": -0.055787548422813416,
          "w133": 0.17143331468105316,
          "w134": 0.05779503658413887,
          "w135": 0.18807323276996613,
          "w136": 0.08577489107847214,
          "w137": -0.5349006056785583,
          "w138": 0.049271613359451294,
          "w139": 0.04469993710517883,
          "w140": 0.04610233008861542,
          "w141": 0.06155595928430557,
          "w142": -0.07083489745855331,
          "w143": -0.1683017611503601,
          "w144": -0.18968582153320312,
          "w145": -0.1977958232164383,
          "w146": -0.14862102270126343,
          "w147": 0.17525723576545715,
          "w148": -0.060371361672878265,
          "w149": -0.11387784034013748,
          "w150": -0.08509228378534317,
          "w151": -0.08731149137020111,
          "w152": -0.04657312482595444,
          "w153": 0.12744762003421783,
          "w154": 0.13347570598125458,
          "w155": -0.270647794008255,
          "w156": -0.016481582075357437,
          "w157": -0.19397598505020142,
          "w158": 0.14787602424621582,
          "w159": 0.1575324386358261,
          "w160": -0.16333630681037903,
          "w161": -0.21688753366470337,
          "w162": -0.2170245200395584,
          "w163": 0.0654742494225502,
          "w164": 0.14023850858211517,
          "w165": -0.24295257031917572,
          "w166": -0.32547885179519653,
          "w167": 0.055653512477874756,
          "w168": 0.06018083915114403,
          "w169": 0.1413070559501648,
          "w170": -0.0831243023276329,
          "w171": -0.1604565531015396,
          "w172": 0.03954485058784485,
          "w173": 0.05727386474609375,
          "w174": 0.08424239605665207,
          "w175": 0.2708919048309326,
          "w176": 0.015063000842928886,
          "w177": 0.07539551705121994,
          "w178": 0.05876399204134941,
          "w179": 0.12409008294343948,
          "w180": -0.1510823369026184,
          "w181": 0.09173136949539185,
          "w182": -0.31230780482292175,
          "w183": 0.03172343969345093,
          "w184": -0.023413751274347305,
          "w185": -0.07090151309967041,
          "w186": -0.3449542820453644,
          "w187": -0.13793902099132538,
          "w188": 0.050079721957445145,
          "w189": -0.15614891052246094,
          "w190": 0.018055198714137077,
          "w191": -0.18464025855064392,
          "w192": -0.08580698817968369,
          "w193": -0.18027155101299286,
          "w194": -0.2829040586948395,
          "w195": 0.14622749388217926,
          "w196": -0.04359356686472893,
          "w197": -0.24626252055168152,
          "w198": -0.5211506485939026,
          "w199": -0.12574221193790436,
          "w200": -0.034274838864803314,
          "w201": -0.20101411640644073,
          "w202": -0.024732040241360664,
          "w203": 0.12813270092010498,
          "w204": 0.06288103759288788,
          "w205": 0.11506325006484985,
          "w206": -0.006494680419564247,
          "w207": -0.006993948947638273,
          "w208": -0.099593885242939,
          "w209": -0.06958240270614624,
          "w210": -0.026365982368588448,
          "w211": -0.060499727725982666,
          "w212": -0.029007742181420326,
          "w213": -0.11782193183898926,
          "w214": -0.250010222196579,
          "w215": -0.2562285363674164,
          "w216": 0.031099840998649597,
          "w217": -0.26134559512138367,
          "w218": -0.2237236052751541,
          "w219": -0.0710856020450592,
          "w220": -0.206383615732193,
          "w221": -0.03926431015133858,
          "w222": -0.216200590133667,
          "w223": -0.21105866134166718,
          "w224": -0.20659597218036652,
          "w225": -0.021865231916308403,
          "w226": -0.014713638462126255,
          "w227": 0.021617021411657333,
          "w228": 0.0218205526471138,
          "w229": 0.01728283055126667,
          "w230": -0.29211756587028503,
          "w231": -0.02796829119324684,
          "w232": -0.02754596434533596,
          "w233": -0.0019327958580106497,
          "w234": -0.20887622237205505,
          "w235": -0.40109366178512573,
          "w236": -0.005441396497189999,
          "w237": 0.04297788813710213,
          "w238": 0.028029294684529305,
          "w239": -0.020645122975111008,
          "w240": 0.08635226637125015,
          "w241": -0.2150292843580246,
          "w242": -0.09987504780292511,
          "w243": 0.13848938047885895,
          "w244": 0.010920601896941662,
          "w245": -0.29973122477531433,
          "w246": -0.09784713387489319,
          "w247": 0.23223595321178436,
          "w248": -0.6957586407661438,
          "w249": -0.8498030304908752,
          "w250": -0.6830330491065979,
          "w251": -0.7532219290733337,
          "w252": 0.1814364343881607,
          "w253": -0.19615086913108826,
          "w254": -0.1218416765332222,
          "w255": -0.7152915000915527,
          "w256": -0.44605496525764465,
          "w257": -0.6280436515808105,
          "w258": -0.5655505061149597,
          "w259": 1.570927619934082,
          "w260": 0.25710198283195496,
          "w261": -0.07936587184667587,
          "w262": 0.46682649850845337,
          "w263": 0.2553286552429199,
          "w264": 0.4664820730686188,
          "w265": 0.6140018105506897,
          "w266": 0.6250823140144348,
          "w267": 0.8106836080551147,
          "w268": 0.1429944634437561,
          "w269": 0.3313940763473511,
          "w270": -0.05998879671096802,
          "w271": 0.9104567766189575,
          "w272": 0.32805338501930237,
          "w273": 0.12168397754430771,
          "w274": -0.013858892023563385,
          "w275": -0.08221983909606934,
          "w276": 0.1748085618019104,
          "w277": 0.20832790434360504,
          "w278": 0.5218233466148376,
          "w279": 0.19939583539962769,
          "w280": 0.19962288439273834,
          "w281": 0.3481307625770569,
          "w282": 0.5136143565177917,
          "w283": 0.20954298973083496,
          "w284": 0.23754002153873444,
          "w285": 0.07136870175600052,
          "w286": 0.23973442614078522,
          "w287": 0.052193570882081985,
          "w288": 0.0821424126625061,
          "w289": 0.2513048052787781,
          "w290": 0.6142624616622925,
          "w291": 0.29590606689453125,
          "w292": 0.1940852552652359,
          "w293": 0.06183871626853943,
          "w294": 0.011523006483912468,
          "w295": -0.5422435998916626,
          "w296": -0.39673805236816406,
          "w297": -0.047706812620162964,
          "w298": 0.0652393102645874,
          "w299": 0.09005136787891388,
          "w300": -0.26210349798202515,
          "w301": -0.05150769650936127,
          "w302": -0.20363733172416687,
          "w303": -0.08204276114702225,
          "w304": 0.03169883415102959,
          "w305": -0.2435968816280365,
          "w306": -0.12540790438652039,
          "w307": 0.8047713041305542,
          "w308": 0.886150598526001,
          "w309": 0.633144736289978,
          "w310": 0.5427308678627014,
          "w311": 0.3353422284126282,
          "w312": 0.24161657691001892,
          "w313": 0.16638636589050293,
          "w314": 0.5137646794319153,
          "w315": 0.4187517762184143,
          "w316": 0.04714057222008705,
          "w317": -0.21138736605644226,
          "w318": 0.22370441257953644,
          "w319": -0.06106279417872429,
          "w320": 0.15472468733787537,
          "w321": 0.1468770056962967,
          "w322": 0.08945515751838684,
          "w323": -0.01756768301129341,
          "w324": 0.01890602335333824,
          "w325": -0.09594915807247162,
          "w326": 0.47936224937438965,
          "w327": 0.06476876139640808,
          "w328": 0.2922843396663666,
          "w329": 0.23084548115730286,
          "w330": 0.10305630415678024,
          "w331": -0.10611481964588165,
          "w332": 0.22285155951976776,
          "w333": 0.18367455899715424,
          "w334": 0.2612464427947998,
          "w335": 0.2658180892467499,
          "w336": 0.10893408954143524,
          "w337": 0.26016607880592346,
          "w338": -1.191360592842102,
          "w339": -0.712002694606781,
          "w340": -0.8573371171951294,
          "w341": -0.5940814018249512,
          "w342": -0.15939128398895264,
          "w343": -0.29091861844062805,
          "w344": -0.0744180902838707,
          "w345": -0.07614424079656601,
          "w346": -0.37502655386924744,
          "w347": -0.11463596671819687,
          "w348": -0.32299739122390747,
          "w349": -0.4600239396095276,
          "w350": 0.06561523675918579,
          "w351": -0.18409347534179688,
          "w352": -0.41917118430137634,
          "w353": 0.11071542650461197,
          "w354": -0.22883576154708862,
          "w355": -0.2791290879249573,
          "w356": -0.07214890420436859,
          "w357": 0.04271693527698517,
          "w358": 0.1812134087085724,
          "w359": -0.22933532297611237,
          "w360": -0.14007632434368134,
          "w361": -0.39112499356269836,
          "w362": -0.3282430171966553,
          "w363": 0.0665358379483223,
          "w364": 0.010626501403748989,
          "w365": 0.18120965361595154,
          "w366": 0.20096415281295776,
          "w367": 0.11615687608718872,
          "w368": 0.001829742337577045,
          "w369": 0.1514595001935959,
          "w370": 0.18676325678825378,
          "w371": 0.23528839647769928,
          "w372": -0.2823321223258972,
          "w373": 0.37826910614967346,
          "w374": -0.5378737449645996,
          "w375": -0.31201887130737305,
          "w376": -0.23513755202293396,
          "w377": -0.2814992666244507,
          "w378": -0.06083977594971657,
          "w379": -0.3499694764614105,
          "w380": -0.17225223779678345,
          "w381": -0.2514859139919281,
          "w382": -0.1389131397008896,
          "w383": -0.2075670212507248,
          "w384": -0.36355847120285034,
          "w385": -0.011508106254041195,
          "w386": -0.09565411508083344,
          "w387": 0.025481006130576134,
          "w388": 0.12218273431062698,
          "w389": 0.02962653525173664,
          "w390": 0.20380008220672607,
          "w391": -0.19387003779411316,
          "w392": -0.33488109707832336,
          "w393": -0.3003322184085846,
          "w394": -0.04985307902097702,
          "w395": -0.008131892420351505,
          "w396": -0.3234289288520813,
          "w397": -0.32913607358932495
        }
      },
      "4": {
        "bias": -0.20482110977172852,
        "weights": {
          "w0": 0.5305123329162598,
          "w1": 1.03316330909729,
          "w2": -0.13621005415916443,
          "w3": -0.3775649666786194,
          "w4": 0.1198103204369545,
          "w5": 0.14835895597934723,
          "w6": 0.3811848759651184,
          "w7": 0.10618691146373749,
          "w8": 0.15439458191394806,
          "w9": 0.08527872711420059,
          "w10": 0.5922532677650452,
          "w11": -0.05905340239405632,
          "w12": 0.07575409859418869,
          "w13": 0.09565760940313339,
          "w14": 0.07587195932865143,
          "w15": -0.4539530575275421,
          "w16": -0.09843159466981888,
          "w17": 0.9058094620704651,
          "w18": -0.25085464119911194,
          "w19": -0.06735479086637497,
          "w20": -0.027168920263648033,
          "w21": -0.0657796636223793,
          "w22": -0.15450768172740936,
          "w23": -0.17173846065998077,
          "w24": 0.9772763252258301,
          "w25": 0.19577522575855255,
          "w26": 0.36078768968582153,
          "w27": 0.20355233550071716,
          "w28": -0.012993327341973782,
          "w29": -0.20331723988056183,
          "w30": 0.030628308653831482,
          "w31": 0.059096384793519974,
          "w32": -0.10217253118753433,
          "w33": -0.06016232445836067,
          "w34": 0.1690530776977539,
          "w35": -0.06708125025033951,
          "w36": 0.03170976787805557,
          "w37": 0.021250644698739052,
          "w38": 0.0737687349319458,
          "w39": 0.02711101435124874,
          "w40": -0.1714296042919159,
          "w41": 0.13610520958900452,
          "w42": -1.558815360069275,
          "w43": 0.2702241539955139,
          "w44": 0.3262553811073303,
          "w45": -0.02737382985651493,
          "w46": 0.21791166067123413,
          "w47": -0.13970652222633362,
          "w48": -0.7923714518547058,
          "w49": -0.6878857016563416,
          "w50": -0.21501600742340088,
          "w51": 0.48911699652671814,
          "w52": 0.1030581146478653,
          "w53": -0.0795830711722374,
          "w54": 0.0023189254570752382,
          "w55": 0.0593964159488678,
          "w56": -0.009836623445153236,
          "w57": -0.21623508632183075,
          "w58": -0.5294368267059326,
          "w59": 0.2717299163341522,
          "w60": -0.16831465065479279,
          "w61": -0.13552995026111603,
          "w62": -0.1569376140832901,
          "w63": 0.09277968108654022,
          "w64": 0.1233547031879425,
          "w65": 0.3713919520378113,
          "w66": 0.22775176167488098,
          "w67": -0.16817358136177063,
          "w68": -0.06945740431547165,
          "w69": -0.19717855751514435,
          "w70": 0.08093969523906708,
          "w71": -0.15810613334178925,
          "w72": -0.3080824911594391,
          "w73": -0.004016792867332697,
          "w74": 0.055182214826345444,
          "w75": -0.22388599812984467,
          "w76": -0.07811546325683594,
          "w77": 0.048800524324178696,
          "w78": -0.013609416782855988,
          "w79": 0.03900505229830742,
          "w80": 0.03780296444892883,
          "w81": 0.2352007031440735,
          "w82": -0.1411810964345932,
          "w83": -0.06234414502978325,
          "w84": 0.43590328097343445,
          "w85": 0.12744222581386566,
          "w86": 0.09538859128952026,
          "w87": -0.170400008559227,
          "w88": 0.21078836917877197,
          "w89": 0.0534522645175457,
          "w90": 0.07122642546892166,
          "w91": -0.027968090027570724,
          "w92": 0.24319420754909515,
          "w93": 0.46551135182380676,
          "w94": 0.552460789680481,
          "w95": 0.08683140575885773,
          "w96": -0.1852509081363678,
          "w97": 0.0609496533870697,
          "w98": 0.2546459436416626,
          "w99": 0.18140362203121185,
          "w100": 0.18245604634284973,
          "w101": 0.3001551628112793,
          "w102": 0.051440756767988205,
          "w103": 0.11771006137132645,
          "w104": -0.0010977849597111344,
          "w105": 0.07925200462341309,
          "w106": 0.29166239500045776,
          "w107": 0.11857455968856812,
          "w108": 0.03013421967625618,
          "w109": -0.20234531164169312,
          "w110": 0.008288862183690071,
          "w111": 0.4100758135318756,
          "w112": 1.247819185256958,
          "w113": 0.25205308198928833,
          "w114": 0.8562600016593933,
          "w115": 1.1813738346099854,
          "w116": 0.22748148441314697,
          "w117": 0.7218047976493835,
          "w118": 0.5349951386451721,
          "w119": 0.23128271102905273,
          "w120": -0.020160185173153877,
          "w121": -0.25826317071914673,
          "w122": -0.008550134487450123,
          "w123": 0.11456229537725449,
          "w124": -0.042324572801589966,
          "w125": -0.17081838846206665,
          "w126": 0.02058100514113903,
          "w127": -0.021729446947574615,
          "w128": -0.1858874410390854,
          "w129": -0.030988210812211037,
          "w130": 0.05130823701620102,
          "w131": -0.07272294908761978,
          "w132": -0.17410196363925934,
          "w133": -0.23276066780090332,
          "w134": -0.1514400690793991,
          "w135": 0.03941492363810539,
          "w136": 0.1070437803864479,
          "w137": -0.65107262134552,
          "w138": 0.21987895667552948,
          "w139": 0.2586194574832916,
          "w140": -0.020382115617394447,
          "w141": -0.0958353579044342,
          "w142": -0.18991154432296753,
          "w143": -0.18743880093097687,
          "w144": -0.0737932100892067,
          "w145": -0.3781881630420685,
          "w146": -0.5572537779808044,
          "w147": 0.29282277822494507,
          "w148": -0.12242889404296875,
          "w149": -0.22550168633460999,
          "w150": -0.1641196757555008,
          "w151": 0.020689887925982475,
          "w152": -0.36867308616638184,
          "w153": -0.29423123598098755,
          "w154": 0.03311929106712341,
          "w155": -0.006278045009821653,
          "w156": -0.32663494348526,
          "w157": -0.12529420852661133,
          "w158": -0.23663440346717834,
          "w159": -0.02402471750974655,
          "w160": 0.026349781081080437,
          "w161": 0.2952879071235657,
          "w162": 0.022128017619252205,
          "w163": 0.01772318221628666,
          "w164": -0.07453791797161102,
          "w165": 0.2204451858997345,
          "w166": -0.16111966967582703,
          "w167": 0.09524345397949219,
          "w168": 0.005366968456655741,
          "w169": 0.3115031123161316,
          "w170": 0.06452514231204987,
          "w171": -0.01736767217516899,
          "w172": -0.04470817372202873,
          "w173": 0.4095248281955719,
          "w174": -0.007629241794347763,
          "w175": 0.1384953111410141,
          "w176": 0.4481925964355469,
          "w177": 0.18122826516628265,
          "w178": 0.11065179854631424,
          "w179": -0.11427759379148483,
          "w180": 0.12304365634918213,
          "w181": 0.32334423065185547,
          "w182": -0.08616750687360764,
          "w183": 0.24406154453754425,
          "w184": 0.20854409039020538,
          "w185": 0.3056885600090027,
          "w186": 0.061607617884874344,
          "w187": 0.2065443992614746,
          "w188": 0.04214339330792427,
          "w189": 0.047653213143348694,
          "w190": 0.04932636395096779,
          "w191": -0.02621855027973652,
          "w192": 0.0999927669763565,
          "w193": 0.18556034564971924,
          "w194": -0.2575555443763733,
          "w195": 0.12229502201080322,
          "w196": -0.24442507326602936,
          "w197": -0.728062093257904,
          "w198": -0.9242286086082458,
          "w199": -0.8840299844741821,
          "w200": -0.17723290622234344,
          "w201": -0.357968270778656,
          "w202": -0.31062787771224976,
          "w203": -0.6497229337692261,
          "w204": -0.2990487515926361,
          "w205": -0.020642342045903206,
          "w206": -0.5396150946617126,
          "w207": -0.16477738320827484,
          "w208": -0.6377445459365845,
          "w209": -0.02254556678235531,
          "w210": -0.1359117478132248,
          "w211": -0.10622783750295639,
          "w212": -0.48166418075561523,
          "w213": -0.5521250367164612,
          "w214": -0.8592655062675476,
          "w215": -0.8406086564064026,
          "w216": -0.3067311644554138,
          "w217": -0.33390012383461,
          "w218": -0.5269155502319336,
          "w219": -0.26885631680488586,
          "w220": -0.4769529700279236,
          "w221": -0.33197706937789917,
          "w222": -0.3820915222167969,
          "w223": -0.5279502868652344,
          "w224": -0.5177049040794373,
          "w225": -0.3420580327510834,
          "w226": -0.22340355813503265,
          "w227": -0.15648196637630463,
          "w228": -0.3436249792575836,
          "w229": -0.5252404808998108,
          "w230": -0.20387627184391022,
          "w231": -0.9274464845657349,
          "w232": -0.8921850323677063,
          "w233": -0.733073890209198,
          "w234": -0.2507573962211609,
          "w235": -0.22453176975250244,
          "w236": -0.10433575510978699,
          "w237": -0.6122360229492188,
          "w238": -0.6095901727676392,
          "w239": -0.44581398367881775,
          "w240": -0.4179207384586334,
          "w241": 0.09839492291212082,
          "w242": -0.0528833344578743,
          "w243": -0.07783423364162445,
          "w244": -0.2123519331216812,
          "w245": -0.43198829889297485,
          "w246": -0.2299187332391739,
          "w247": 0.06090556085109711,
          "w248": -0.4316795766353607,
          "w249": -0.31526947021484375,
          "w250": -0.22420333325862885,
          "w251": -0.48549720644950867,
          "w252": -0.36889663338661194,
          "w253": -0.053576722741127014,
          "w254": 0.014289051294326782,
          "w255": -0.36353799700737,
          "w256": -0.45703640580177307,
          "w257": -0.24661600589752197,
          "w258": 0.02829805575311184,
          "w259": 0.8813468813896179,
          "w260": 0.23429016768932343,
          "w261": 0.15191249549388885,
          "w262": 0.30285724997520447,
          "w263": -0.1597883254289627,
          "w264": 0.4393785297870636,
          "w265": 0.3283422887325287,
          "w266": 0.2936817407608032,
          "w267": 0.5055696368217468,
          "w268": -0.042532991617918015,
          "w269": 0.3352246582508087,
          "w270": 0.21366068720817566,
          "w271": 0.4586714506149292,
          "w272": 0.2874298393726349,
          "w273": 0.6766406893730164,
          "w274": -0.14233872294425964,
          "w275": 0.20268279314041138,
          "w276": 0.5352180600166321,
          "w277": 0.18114034831523895,
          "w278": 0.4576622247695923,
          "w279": 0.36359620094299316,
          "w280": -0.06675685197114944,
          "w281": 0.18205316364765167,
          "w282": 0.4089217185974121,
          "w283": 0.060051191598176956,
          "w284": 0.3427336812019348,
          "w285": -0.03473125025629997,
          "w286": 0.4969731867313385,
          "w287": 0.20668074488639832,
          "w288": 0.3657272160053253,
          "w289": 0.3522885739803314,
          "w290": 0.4781256914138794,
          "w291": 0.2325621396303177,
          "w292": 0.33063676953315735,
          "w293": 0.10378926992416382,
          "w294": -0.06383074074983597,
          "w295": -0.03762408718466759,
          "w296": -0.11206356436014175,
          "w297": 0.1282442957162857,
          "w298": -0.09501070529222488,
          "w299": -0.003012209665030241,
          "w300": 0.16609159111976624,
          "w301": 0.19860295951366425,
          "w302": 0.22304986417293549,
          "w303": 0.21453876793384552,
          "w304": 0.21884606778621674,
          "w305": 0.2051512598991394,
          "w306": 0.2680841088294983,
          "w307": -0.04051625728607178,
          "w308": 0.05493774265050888,
          "w309": 0.0157722570002079,
          "w310": 0.2688089907169342,
          "w311": 0.06144404038786888,
          "w312": 0.05945029482245445,
          "w313": 0.265921026468277,
          "w314": 0.12775014340877533,
          "w315": 0.11612696200609207,
          "w316": 0.020029259845614433,
          "w317": -0.1493774652481079,
          "w318": -0.09487050771713257,
          "w319": 0.004388563800603151,
          "w320": -0.10113036632537842,
          "w321": 0.1926678717136383,
          "w322": 0.19979842007160187,
          "w323": -0.012204133905470371,
          "w324": 0.11054989695549011,
          "w325": -0.0029425194952636957,
          "w326": 0.060679640620946884,
          "w327": 0.10200653970241547,
          "w328": 0.07905194163322449,
          "w329": 0.16095903515815735,
          "w330": -0.03378196060657501,
          "w331": -0.12030857056379318,
          "w332": -0.1033257246017456,
          "w333": -0.11663656681776047,
          "w334": -0.21966426074504852,
          "w335": 0.14208579063415527,
          "w336": 0.01487492211163044,
          "w337": 0.02181173302233219,
          "w338": 0.5515319108963013,
          "w339": 0.10455361753702164,
          "w340": 0.6569212079048157,
          "w341": 0.059379950165748596,
          "w342": 0.2038532942533493,
          "w343": -0.17629899084568024,
          "w344": 0.18924784660339355,
          "w345": -0.03225843235850334,
          "w346": 0.17588722705841064,
          "w347": 0.7329989671707153,
          "w348": -0.17378820478916168,
          "w349": -0.031063731759786606,
          "w350": 0.06866531074047089,
          "w351": -0.4103245139122009,
          "w352": -0.2277926206588745,
          "w353": 0.5974714159965515,
          "w354": -0.42249757051467896,
          "w355": 0.34643954038619995,
          "w356": 0.05874352902173996,
          "w357": 0.001406562514603138,
          "w358": 0.3637482821941376,
          "w359": 0.35092055797576904,
          "w360": 0.3555257022380829,
          "w361": 0.7283447980880737,
          "w362": 0.42861849069595337,
          "w363": 0.2427208125591278,
          "w364": 0.08129440993070602,
          "w365": 0.7561529874801636,
          "w366": 0.3364534378051758,
          "w367": 0.24062639474868774,
          "w368": 0.6120684742927551,
          "w369": 0.19521595537662506,
          "w370": 0.14852498471736908,
          "w371": -0.05268552526831627,
          "w372": 0.31064531207084656,
          "w373": -0.11982572823762894,
          "w374": 0.0785180926322937,
          "w375": 0.15290549397468567,
          "w376": 0.07315380871295929,
          "w377": 0.05209999158978462,
          "w378": 0.2545519173145294,
          "w379": 0.6157479882240295,
          "w380": 0.16052915155887604,
          "w381": 0.11680307239294052,
          "w382": -0.0904483050107956,
          "w383": 0.5829101204872131,
          "w384": -0.25543537735939026,
          "w385": 0.3122453987598419,
          "w386": -0.23780867457389832,
          "w387": -0.04218646511435509,
          "w388": -0.1400623321533203,
          "w389": -0.02073216252028942,
          "w390": 0.03511859476566315,
          "w391": 0.32538458704948425,
          "w392": 0.24701866507530212,
          "w393": 0.17449218034744263,
          "w394": 0.09786258637905121,
          "w395": 0.1667245477437973,
          "w396": 0.1346263736486435,
          "w397": -0.020936960354447365
        }
      },
      "5": {
        "bias": -0.26005253195762634,
        "weights": {
          "w0": 0.7780386805534363,
          "w1": -0.14956456422805786,
          "w2": 0.7160943746566772,
          "w3": 0.762450098991394,
          "w4": 0.4854869246482849,
          "w5": 0.11700907349586487,
          "w6": 0.7340033650398254,
          "w7": -0.17164640128612518,
          "w8": -0.3283613920211792,
          "w9": 0.14073525369167328,
          "w10": -0.3006054162979126,
          "w11": 0.03870343044400215,
          "w12": 0.1078198105096817,
          "w13": -0.05342782288789749,
          "w14": 0.29013389348983765,
          "w15": 0.5289791226387024,
          "w16": 0.6266084909439087,
          "w17": -0.26825904846191406,
          "w18": 0.7665998935699463,
          "w19": 0.010778037831187248,
          "w20": 0.22330521047115326,
          "w21": 0.39718830585479736,
          "w22": 0.2694844901561737,
          "w23": 0.0052940924651920795,
          "w24": 1.3154075145721436,
          "w25": 0.15889902412891388,
          "w26": 0.3080958425998688,
          "w27": 0.19889390468597412,
          "w28": 0.27651605010032654,
          "w29": 0.2656141519546509,
          "w30": 0.16150034964084625,
          "w31": 0.324001282453537,
          "w32": -0.02871415950357914,
          "w33": 0.016820361837744713,
          "w34": 0.010438320226967335,
          "w35": 0.36458876729011536,
          "w36": 0.1831868588924408,
          "w37": -0.3933917284011841,
          "w38": 0.21520720422267914,
          "w39": -0.05772639811038971,
          "w40": -0.15116162598133087,
          "w41": -0.1811584234237671,
          "w42": 0.3891800343990326,
          "w43": 0.7317957282066345,
          "w44": 0.3038519620895386,
          "w45": 0.4544723927974701,
          "w46": 0.4341621398925781,
          "w47": 0.3797532916069031,
          "w48": 0.23148150742053986,
          "w49": -1.0077455043792725,
          "w50": -0.13539853692054749,
          "w51": -1.1248793601989746,
          "w52": -0.34692373871803284,
          "w53": -0.2256203144788742,
          "w54": -0.3876245319843292,
          "w55": -0.1336597204208374,
          "w56": -0.22974561154842377,
          "w57": 0.030767178162932396,
          "w58": -0.3312944173812866,
          "w59": 0.10111428797245026,
          "w60": -0.44923657178878784,
          "w61": -0.22023233771324158,
          "w62": -0.3911276161670685,
          "w63": 0.06104525178670883,
          "w64": -0.2853277027606964,
          "w65": -0.32143548130989075,
          "w66": 0.023510098457336426,
          "w67": -0.13790978491306305,
          "w68": 0.035494737327098846,
          "w69": -0.5943812131881714,
          "w70": 0.04574970155954361,
          "w71": -0.18312929570674896,
          "w72": -0.6425371766090393,
          "w73": -0.18348397314548492,
          "w74": -0.5307820439338684,
          "w75": -0.541254997253418,
          "w76": 0.1049206405878067,
          "w77": -0.5539601445198059,
          "w78": -0.004555797670036554,
          "w79": -0.04384991526603699,
          "w80": -0.43614470958709717,
          "w81": -0.1829114556312561,
          "w82": 0.17351645231246948,
          "w83": 0.2613859176635742,
          "w84": 0.34574422240257263,
          "w85": -0.02854977548122406,
          "w86": 0.25009769201278687,
          "w87": -0.1614389419555664,
          "w88": 0.12822015583515167,
          "w89": 0.07143635302782059,
          "w90": 0.44811153411865234,
          "w91": 0.17701898515224457,
          "w92": 0.050779618322849274,
          "w93": -0.07991960644721985,
          "w94": -0.1976502686738968,
          "w95": 0.004628895316272974,
          "w96": 0.03519613295793533,
          "w97": 0.26001766324043274,
          "w98": -0.14006538689136505,
          "w99": 0.2571500837802887,
          "w100": 0.3242016136646271,
          "w101": 0.3309660255908966,
          "w102": 0.12363997101783752,
          "w103": -0.205623596906662,
          "w104": 0.01426813006401062,
          "w105": -0.025809340178966522,
          "w106": 0.1592222899198532,
          "w107": 0.24572785198688507,
          "w108": -0.02942965179681778,
          "w109": 0.24877575039863586,
          "w110": 0.18720096349716187,
          "w111": 0.12411101907491684,
          "w112": -0.3153122365474701,
          "w113": 0.0035041067749261856,
          "w114": 0.10702289640903473,
          "w115": -0.08851980417966843,
          "w116": 0.16725599765777588,
          "w117": -0.0974995493888855,
          "w118": -0.037633053958415985,
          "w119": 0.00977888610213995,
          "w120": 0.4000570774078369,
          "w121": 0.3480757772922516,
          "w122": 0.10438460856676102,
          "w123": -0.04003363102674484,
          "w124": 0.3676356375217438,
          "w125": 0.19142340123653412,
          "w126": -0.014735839329659939,
          "w127": 0.23817886412143707,
          "w128": -0.024974238127470016,
          "w129": 0.2614164352416992,
          "w130": -0.042253412306308746,
          "w131": 0.006274673622101545,
          "w132": -0.10394388437271118,
          "w133": 0.002743238117545843,
          "w134": -0.13874028623104095,
          "w135": 0.273414671421051,
          "w136": 0.18317526578903198,
          "w137": -0.4003172814846039,
          "w138": 0.12660300731658936,
          "w139": 0.16107875108718872,
          "w140": 0.12703408300876617,
          "w141": -0.054601673036813736,
          "w142": -0.1906862109899521,
          "w143": -0.1118626743555069,
          "w144": -0.2526031732559204,
          "w145": 0.238381490111351,
          "w146": -0.5753735303878784,
          "w147": 0.12499596923589706,
          "w148": 0.2893997132778168,
          "w149": 0.007357736583799124,
          "w150": 0.27451449632644653,
          "w151": 0.07853484153747559,
          "w152": 0.366536408662796,
          "w153": 0.22496087849140167,
          "w154": 0.11274387687444687,
          "w155": 0.1242578849196434,
          "w156": 0.018037518486380577,
          "w157": 0.011390117928385735,
          "w158": 0.009820853359997272,
          "w159": 0.0037813615053892136,
          "w160": -0.04970104619860649,
          "w161": -0.08358575403690338,
          "w162": -0.20526768267154694,
          "w163": 0.1501270830631256,
          "w164": 0.15528009831905365,
          "w165": -0.009805439040064812,
          "w166": 0.20370124280452728,
          "w167": 0.05737451836466789,
          "w168": 0.19044801592826843,
          "w169": -0.3221118748188019,
          "w170": 0.13135738670825958,
          "w171": 0.18171073496341705,
          "w172": 0.021455278620123863,
          "w173": 0.008328093215823174,
          "w174": 0.2218048870563507,
          "w175": -0.16627272963523865,
          "w176": 0.23329167068004608,
          "w177": 0.2655543088912964,
          "w178": 0.17422321438789368,
          "w179": 0.059884633868932724,
          "w180": 0.22616973519325256,
          "w181": 0.26109346747398376,
          "w182": 0.07881449908018112,
          "w183": 0.1953088939189911,
          "w184": -0.2915177643299103,
          "w185": 0.24426202476024628,
          "w186": -0.22988004982471466,
          "w187": -0.0854644849896431,
          "w188": -0.19041220843791962,
          "w189": 0.1470518261194229,
          "w190": 0.04027960076928139,
          "w191": 0.07979688793420792,
          "w192": -0.18148674070835114,
          "w193": -0.011706134304404259,
          "w194": 0.21669602394104004,
          "w195": 0.3150835633277893,
          "w196": 0.15526248514652252,
          "w197": -0.5816822052001953,
          "w198": -0.3450027406215668,
          "w199": -0.29656925797462463,
          "w200": -0.006855724845081568,
          "w201": -0.1640111356973648,
          "w202": -0.23299774527549744,
          "w203": -0.3952605724334717,
          "w204": -0.07847731560468674,
          "w205": -0.2597188949584961,
          "w206": -0.41337719559669495,
          "w207": -0.13550712168216705,
          "w208": -0.21509630978107452,
          "w209": 0.05749185383319855,
          "w210": -0.05462443828582764,
          "w211": -0.07437533140182495,
          "w212": -0.21251536905765533,
          "w213": -0.306842178106308,
          "w214": -0.15432590246200562,
          "w215": -0.4920564889907837,
          "w216": 0.09471479803323746,
          "w217": -0.1483340710401535,
          "w218": -0.2530653476715088,
          "w219": -0.07281671464443207,
          "w220": -0.32551518082618713,
          "w221": -0.32743507623672485,
          "w222": -0.420369952917099,
          "w223": -0.24714301526546478,
          "w224": -0.11767470091581345,
          "w225": -0.3986048400402069,
          "w226": -0.11261597275733948,
          "w227": -0.019489796832203865,
          "w228": 0.022649843245744705,
          "w229": -0.049312930554151535,
          "w230": -0.3379311263561249,
          "w231": 0.286094605922699,
          "w232": 0.3586665093898773,
          "w233": 0.09988883882761002,
          "w234": 0.17163921892642975,
          "w235": -0.13897855579853058,
          "w236": 0.4031861126422882,
          "w237": 0.4805992841720581,
          "w238": 0.27182209491729736,
          "w239": 0.3327452838420868,
          "w240": 0.19155868887901306,
          "w241": -0.014140771701931953,
          "w242": -0.09257447719573975,
          "w243": 0.17641858756542206,
          "w244": 0.09518196433782578,
          "w245": 0.21318331360816956,
          "w246": 0.034180428832769394,
          "w247": 0.16957910358905792,
          "w248": 0.19678393006324768,
          "w249": 0.36608079075813293,
          "w250": 0.24848884344100952,
          "w251": 0.14781562983989716,
          "w252": 0.21059414744377136,
          "w253": 0.11436976492404938,
          "w254": 0.1220763549208641,
          "w255": 0.4203890860080719,
          "w256": 0.41162818670272827,
          "w257": 0.23433606326580048,
          "w258": 0.21548716723918915,
          "w259": -0.4809509813785553,
          "w260": -0.3483710289001465,
          "w261": -0.07697997242212296,
          "w262": -0.09493938833475113,
          "w263": -0.10269705951213837,
          "w264": -0.32314738631248474,
          "w265": -0.11250428855419159,
          "w266": -0.1748676747083664,
          "w267": -0.0733504593372345,
          "w268": 0.04220201447606087,
          "w269": 0.0034870097879320383,
          "w270": -0.09520989656448364,
          "w271": 0.026545191183686256,
          "w272": 0.0472237765789032,
          "w273": 0.5387607216835022,
          "w274": -0.04692835733294487,
          "w275": 0.132968470454216,
          "w276": 0.5940572023391724,
          "w277": 0.2110961377620697,
          "w278": -0.5807338953018188,
          "w279": -0.2076634019613266,
          "w280": -0.08691652864217758,
          "w281": 0.047092437744140625,
          "w282": -0.5854741930961609,
          "w283": -0.20344749093055725,
          "w284": -0.3386782705783844,
          "w285": 0.09256011992692947,
          "w286": -0.2374642938375473,
          "w287": -0.09858576953411102,
          "w288": -0.3662581741809845,
          "w289": -0.5390821099281311,
          "w290": -0.22618265450000763,
          "w291": -0.06179339066147804,
          "w292": -0.03053939901292324,
          "w293": -0.14515435695648193,
          "w294": -0.05103292688727379,
          "w295": -0.02299850434064865,
          "w296": 0.07356223464012146,
          "w297": 0.16029958426952362,
          "w298": 0.0016676995437592268,
          "w299": 0.032135430723428726,
          "w300": 0.32459086179733276,
          "w301": 0.33830198645591736,
          "w302": 0.30893445014953613,
          "w303": 0.09394107758998871,
          "w304": 0.17581045627593994,
          "w305": 0.017956407740712166,
          "w306": 0.2043447494506836,
          "w307": 0.14075519144535065,
          "w308": 0.1193581148982048,
          "w309": 0.1551513671875,
          "w310": 0.12561307847499847,
          "w311": -0.006280611269176006,
          "w312": -0.21048861742019653,
          "w313": -0.03477123752236366,
          "w314": 0.11278755962848663,
          "w315": 0.39208757877349854,
          "w316": 0.015690002590417862,
          "w317": -0.022768331691622734,
          "w318": 0.108723483979702,
          "w319": 0.06889405101537704,
          "w320": 0.07268031686544418,
          "w321": 0.08186773210763931,
          "w322": 0.20093707740306854,
          "w323": 0.1324184089899063,
          "w324": -0.04275181144475937,
          "w325": 0.18322403728961945,
          "w326": 0.26315268874168396,
          "w327": 0.20100602507591248,
          "w328": 0.1949581652879715,
          "w329": -0.08651407808065414,
          "w330": 0.264149934053421,
          "w331": 0.1943257749080658,
          "w332": 0.44080591201782227,
          "w333": 0.19941037893295288,
          "w334": 0.3404417335987091,
          "w335": 0.1566460281610489,
          "w336": 0.06716249138116837,
          "w337": -0.05055537074804306,
          "w338": -0.9335662126541138,
          "w339": -0.5224541425704956,
          "w340": -0.606665849685669,
          "w341": -0.12494304776191711,
          "w342": -0.09282629191875458,
          "w343": -0.11162474006414413,
          "w344": -0.16911539435386658,
          "w345": -0.27944058179855347,
          "w346": -0.2262396663427353,
          "w347": -0.4806959927082062,
          "w348": -0.19557982683181763,
          "w349": -0.2847707271575928,
          "w350": 0.14287209510803223,
          "w351": -0.2918904721736908,
          "w352": -0.3219227194786072,
          "w353": -0.16331245005130768,
          "w354": 0.08124871551990509,
          "w355": -0.18219608068466187,
          "w356": 0.02970893308520317,
          "w357": 0.0008990474743768573,
          "w358": -0.1842881143093109,
          "w359": -0.31454625725746155,
          "w360": -0.10955936461687088,
          "w361": -0.313707172870636,
          "w362": 0.02069258876144886,
          "w363": -0.17878428101539612,
          "w364": 0.036501139402389526,
          "w365": -0.425697922706604,
          "w366": -0.16900372505187988,
          "w367": -0.14195489883422852,
          "w368": -0.436354398727417,
          "w369": -0.06509744375944138,
          "w370": -0.3712988495826721,
          "w371": -0.12915219366550446,
          "w372": -0.9681345224380493,
          "w373": -0.037631042301654816,
          "w374": -0.5582414865493774,
          "w375": -0.2940436601638794,
          "w376": -0.27383676171302795,
          "w377": -0.32226642966270447,
          "w378": -0.4925328493118286,
          "w379": -0.12424115836620331,
          "w380": 0.04084203019738197,
          "w381": -0.0946386307477951,
