{"sizes":[404,16,16,43],"layers":[{"w264":{},"w385":{},"w136":{},"w77":{},"w133":{},"w375":{},"w27":{},"w273":{},"w396":{},"w72":{},"w20":{},"w53":{},"w19":{},"w313":{},"w118":{},"w110":{},"w167":{},"w365":{},"w131":{},"w192":{},"w185":{},"w191":{},"w402":{},"w331":{},"w210":{},"w132":{},"w184":{},"w389":{},"w384":{},"w250":{},"w160":{},"w163":{},"w380":{},"w104":{},"w198":{},"w399":{},"w207":{},"w93":{},"w67":{},"w66":{},"w321":{},"w400":{},"w301":{},"w241":{},"w272":{},"w318":{},"w338":{},"w289":{},"w215":{},"w369":{},"w122":{},"w374":{},"w117":{},"w76":{},"w364":{},"w82":{},"w307":{},"w228":{},"w358":{},"w376":{},"w319":{},"w363":{},"w373":{},"w269":{},"w92":{},"w124":{},"w91":{},"w229":{},"w190":{},"w74":{},"w54":{},"w41":{},"w333":{},"w293":{},"w390":{},"w387":{},"w339":{},"w9":{},"w398":{},"w359":{},"w186":{},"w157":{},"w200":{},"w296":{},"w360":{},"w244":{},"w140":{},"w397":{},"w248":{},"w21":{},"w169":{},"w221":{},"w361":{},"w195":{},"w40":{},"w290":{},"w282":{},"w187":{},"w29":{},"w43":{},"w149":{},"w79":{},"w220":{},"w64":{},"w295":{},"w111":{},"w239":{},"w303":{},"w285":{},"w284":{},"w83":{},"w202":{},"w393":{},"w94":{},"w39":{},"w15":{},"w378":{},"w324":{},"w372":{},"w172":{},"w354":{},"w356":{},"w345":{},"w298":{},"w155":{},"w105":{},"w49":{},"w170":{},"w224":{},"w18":{},"w137":{},"w134":{},"w175":{},"w386":{},"w99":{},"w254":{},"w391":{},"w36":{},"w11":{},"w305":{},"w45":{},"w48":{},"w12":{},"w183":{},"w26":{},"w323":{},"w102":{},"w371":{},"w164":{},"w325":{},"w46":{},"w265":{},"w44":{},"w199":{},"w245":{},"w7":{},"w130":{},"w17":{},"w51":{},"w165":{},"w258":{},"w50":{},"w278":{},"w158":{},"w226":{},"w5":{},"w106":{},"w168":{},"w351":{},"w294":{},"w113":{},"w219":{},"w256":{},"w101":{},"w234":{},"w189":{},"w112":{},"w201":{},"w368":{},"w142":{},"w98":{},"w193":{},"w146":{},"w152":{},"w150":{},"w55":{},"w235":{},"w108":{},"w255":{},"w14":{},"w388":{},"w395":{},"w138":{},"w23":{},"w121":{},"w86":{},"w247":{},"w246":{},"w139":{},"w181":{},"w174":{},"w22":{},"w47":{},"w56":{},"w382":{},"w330":{},"w148":{},"w153":{},"w147":{},"w151":{},"w154":{},"w237":{},"w127":{},"w329":{},"w326":{},"w57":{},"w135":{},"w302":{},"w204":{},"w334":{},"w63":{},"w336":{},"w16":{},"w270":{},"w230":{},"w68":{},"w262":{},"w259":{},"w65":{},"w28":{},"w231":{},"w141":{},"w343":{},"w344":{},"w90":{},"w308":{},"w216":{},"w238":{},"w346":{},"w347":{},"w366":{},"w349":{},"w350":{},"w171":{},"w84":{},"w162":{},"w8":{},"w196":{},"w38":{},"w381":{},"w297":{},"w71":{},"w42":{},"w126":{},"w367":{},"w353":{},"w85":{},"w6":{},"w194":{},"w335":{},"w352":{},"w383":{},"w370":{},"w161":{},"w120":{},"w225":{},"w180":{},"w179":{},"w35":{},"w280":{},"w30":{},"w279":{},"w340":{},"w197":{},"w125":{},"w342":{},"w87":{},"w173":{},"w178":{},"w222":{},"w206":{},"w317":{},"w328":{},"w143":{},"w78":{},"w227":{},"w327":{},"w144":{},"w379":{},"w31":{},"w253":{},"w188":{},"w355":{},"w145":{},"w52":{},"w337":{},"w205":{},"w103":{},"w58":{},"w1":{},"w274":{},"w13":{},"w4":{},"w0":{},"w240":{},"w2":{},"w3":{},"w96":{},"w156":{},"w203":{},"w24":{},"w177":{},"w159":{},"w232":{},"w59":{},"w223":{},"w316":{},"w176":{},"w394":{},"w260":{},"w300":{},"w62":{},"w299":{},"w212":{},"w208":{},"w271":{},"w209":{},"w306":{},"w314":{},"w377":{},"w166":{},"w218":{},"w362":{},"w32":{},"w33":{},"w25":{},"w403":{},"w348":{},"w217":{},"w34":{},"w320":{},"w100":{},"w88":{},"w277":{},"w182":{},"w315":{},"w129":{},"w242":{},"w311":{},"w73":{},"w312":{},"w233":{},"w401":{},"w123":{},"w37":{},"w322":{},"w267":{},"w291":{},"w292":{},"w261":{},"w214":{},"w243":{},"w80":{},"w268":{},"w310":{},"w309":{},"w275":{},"w332":{},"w288":{},"w283":{},"w97":{},"w69":{},"w257":{},"w60":{},"w304":{},"w114":{},"w109":{},"w75":{},"w341":{},"w251":{},"w119":{},"w249":{},"w95":{},"w61":{},"w128":{},"w392":{},"w10":{},"w281":{},"w89":{},"w286":{},"w107":{},"w357":{},"w276":{},"w213":{},"w287":{},"w263":{},"w252":{},"w70":{},"w115":{},"w236":{},"w211":{},"w116":{},"w266":{},"w81":{}},{"0":{"bias":0.014588208869099617,"weights":{"w264":-1.2616709470748901,"w385":-0.2788718640804291,"w136":-0.7338871955871582,"w77":-0.7220287322998047,"w133":-0.9959254860877991,"w375":-1.120748519897461,"w27":0.5994564890861511,"w273":-0.21021495759487152,"w396":-0.21077105402946472,"w72":-0.02333916537463665,"w20":-0.12779736518859863,"w53":-0.5411097407341003,"w19":-1.4510825872421265,"w313":0.14507444202899933,"w118":-1.4072712659835815,"w110":-0.5955010056495667,"w167":-0.6405301690101624,"w365":-0.58188796043396,"w131":-0.5577409863471985,"w192":-1.5425236225128174,"w185":-0.06104212626814842,"w191":-1.1957331895828247,"w402":-0.31600111722946167,"w331":-0.7404228448867798,"w210":-0.23665904998779297,"w132":-0.43374601006507874,"w184":0.3192896544933319,"w389":-0.35277417302131653,"w384":-0.18162964284420013,"w250":-0.29932036995887756,"w160":-0.33640211820602417,"w163":-0.010105426423251629,"w380":-0.21196392178535461,"w104":-0.25567445158958435,"w198":-0.15365354716777802,"w399":-0.9809645414352417,"w207":-1.2492715120315552,"w93":-0.7644994258880615,"w67":-0.5933511257171631,"w66":-0.5721479058265686,"w321":-0.7290371656417847,"w400":0.11709504574537277,"w301":2.3915343284606934,"w241":1.9731324911117554,"w272":0.6533741354942322,"w318":0.7806488871574402,"w338":0.3867330551147461,"w289":0.42076003551483154,"w215":0.6909770965576172,"w369":0.14215509593486786,"w122":0.21205134689807892,"w374":0.6537506580352783,"w117":0.2968659996986389,"w76":0.6285314559936523,"w364":0.34850791096687317,"w82":0.04966117814183235,"w307":0.6501990556716919,"w228":-0.18851278722286224,"w358":0.3206348121166229,"w376":0.37274524569511414,"w319":0.7350273728370667,"w363":0.12405358999967575,"w373":0.14814996719360352,"w269":0.863886833190918,"w92":0.1480884552001953,"w124":0.7233449816703796,"w91":0.679266631603241,"w229":0.4915517270565033,"w190":0.6046179533004761,"w74":0.2346486747264862,"w54":0.05223867669701576,"w41":-0.4500463306903839,"w333":0.012057263404130936,"w293":-0.025119822472333908,"w390":0.4766339063644409,"w387":0.49734407663345337,"w339":0.3014872372150421,"w9":0.08400724828243256,"w398":-0.07582919299602509,"w359":-0.13617563247680664,"w186":0.5050150752067566,"w157":0.10853434354066849,"w200":0.5723910927772522,"w296":0.5129919648170471,"w360":0.023558422923088074,"w244":-0.11074992269277573,"w140":0.3941780924797058,"w397":0.05515564605593681,"w248":0.6348877549171448,"w21":0.19084279239177704,"w169":0.3344724774360657,"w221":-0.04081565886735916,"w361":0.131487637758255,"w195":0.22637249529361725,"w40":0.0729948952794075,"w290":0.5429530739784241,"w282":0.4836106598377228,"w187":-0.07901263236999512,"w29":-0.2878674864768982,"w43":0.40077102184295654,"w149":0.8013262748718262,"w79":0.13465376198291779,"w220":0.5975263118743896,"w64":0.010569609701633453,"w295":0.14239300787448883,"w111":0.21474169194698334,"w239":-0.2587791979312897,"w303":-0.16926096379756927,"w285":-0.5336529612541199,"w284":-0.5801511406898499,"w83":-0.049406711012125015,"w202":-0.19872459769248962,"w393":-0.2868717610836029,"w94":-0.23453733325004578,"w39":-0.17248500883579254,"w15":0.13563388586044312,"w378":-0.02056822180747986,"w324":0.19810493290424347,"w372":0.05105140805244446,"w172":0.3311153054237366,"w354":-0.18606318533420563,"w356":0.06822758913040161,"w345":-0.02736307866871357,"w298":-0.4392684996128082,"w155":0.06341004371643066,"w105":0.036001332104206085,"w49":-0.12035997211933136,"w170":-0.19818666577339172,"w224":-0.0683898776769638,"w18":-0.22240670025348663,"w137":0.01451896596699953,"w134":0.00807818304747343,"w175":-0.038025327026844025,"w386":0.001443385030142963,"w99":-0.2809423506259918,"w254":0.0137933399528265,"w391":-0.2273619920015335,"w36":-0.05995693430304527,"w11":0.16904567182064056,"w305":-0.25317391753196716,"w45":-0.15657182037830353,"w48":-0.0012099058367311954,"w12":0.06576453894376755,"w183":-0.32873743772506714,"w26":-0.0792921632528305,"w323":-0.3941613435745239,"w102":-0.30898499488830566,"w371":-0.4729236662387848,"w164":-0.49165984988212585,"w325":-0.2845858037471771,"w46":-0.5831348299980164,"w265":-0.920265793800354,"w44":-0.3081985116004944,"w199":-0.4182679057121277,"w245":-0.5255179405212402,"w7":-0.3338618576526642,"w130":-0.23005202412605286,"w17":-0.2191731333732605,"w51":-0.1761723756790161,"w165":-0.04153769835829735,"w258":-0.27018722891807556,"w50":-0.2575000524520874,"w278":0.1277548223733902,"w158":0.08810868114233017,"w226":0.15220431983470917,"w5":0.0017466836143285036,"w106":-0.1628553718328476,"w168":-0.12022021412849426,"w351":-0.26218998432159424,"w294":-0.45418620109558105,"w113":0.3962404727935791,"w219":-0.4570179283618927,"w256":-0.218330517411232,"w101":-0.2636825442314148,"w234":-0.09533128887414932,"w189":-0.22841398417949677,"w112":-0.299298495054245,"w201":0.3006240427494049,"w368":-0.3602287471294403,"w142":0.5041617751121521,"w98":0.3404211699962616,"w193":0.33069318532943726,"w146":-0.02587723545730114,"w152":-0.0012590287951752543,"w150":-0.15968666970729828,"w55":0.009087762795388699,"w235":-0.0009222363005392253,"w108":-0.1710425317287445,"w255":-0.01158037967979908,"w14":-0.21139438450336456,"w388":0.01591007225215435,"w395":-0.028864111751317978,"w138":0.0012599538313224912,"w23":0.14910158514976501,"w121":-0.025815686210989952,"w86":-0.07575377821922302,"w247":-0.16800495982170105,"w246":0.08358617126941681,"w139":-0.5113218426704407,"w181":-0.033823635429143906,"w174":0.09854637831449509,"w22":0.05753134936094284,"w47":0.14806313812732697,"w56":0.00910927914083004,"w382":-0.12137776613235474,"w330":0.058343738317489624,"w148":-0.23654869198799133,"w153":-0.09509842097759247,"w147":-0.12541407346725464,"w151":-0.0015237870393320918,"w154":-0.11972251534461975,"w237":-0.17637237906455994,"w127":0.10805287957191467,"w329":-0.23848490417003632,"w326":0.07721530646085739,"w57":-0.4166193902492523,"w135":-0.3682493567466736,"w302":-0.15547169744968414,"w204":-0.12665188312530518,"w334":-0.052100006490945816,"w63":-0.23642799258232117,"w336":-0.11169614642858505,"w16":-0.02182859368622303,"w270":-0.05994933471083641,"w230":-0.020361272618174553,"w68":-0.11430025845766068,"w262":-0.055698491632938385,"w259":-0.024278417229652405,"w65":-0.15844328701496124,"w28":-0.5497371554374695,"w231":-0.2453950047492981,"w141":0.10906346142292023,"w343":-0.6838801503181458,"w344":-0.6948374509811401,"w90":-0.6693475246429443,"w308":-0.8430725336074829,"w216":-0.196369469165802,"w238":-0.14727209508419037,"w346":-0.6987729668617249,"w347":-0.6452993750572205,"w366":-0.6291288733482361,"w349":-0.5393781065940857,"w350":1.8078199625015259,"w171":0.5737895369529724,"w84":0.29858288168907166,"w162":0.46764272451400757,"w8":0.01895488239824772,"w196":0.7211158275604248,"w38":0.5037140250205994,"w381":0.6313707828521729,"w297":1.0294420719146729,"w71":0.19190506637096405,"w42":0.2183636575937271,"w126":-0.06729026138782501,"w367":1.1460282802581787,"w353":0.4124147295951843,"w85":0.0819997563958168,"w6":0.007517315912991762,"w194":0.072415292263031,"w335":-0.28495922684669495,"w352":0.014585302211344242,"w383":0.8093064427375793,"w370":0.34016522765159607,"w161":0.20107802748680115,"w120":0.2787094712257385,"w225":0.7566584944725037,"w180":0.4854879379272461,"w179":0.1122651994228363,"w35":-0.07128347456455231,"w280":0.43888622522354126,"w30":0.22954396903514862,"w279":0.4767158627510071,"w340":0.5008769035339355,"w197":0.6268167495727539,"w125":0.17492632567882538,"w342":0.41515472531318665,"w87":0.08313905447721481,"w173":0.1463346928358078,"w178":-0.678587019443512,"w222":-0.09209831804037094,"w206":-0.44901785254478455,"w317":-0.21684184670448303,"w328":0.29276242852211,"w143":-0.3704492747783661,"w78":-0.5687588453292847,"w227":-0.3864617347717285,"w327":-0.06994210928678513,"w144":-0.05846162885427475,"w379":-0.04492928087711334,"w31":0.030603088438510895,"w253":1.2281386852264404,"w188":0.800327718257904,"w355":0.6728370785713196,"w145":0.34656640887260437,"w52":0.2742304801940918,"w337":0.17696531116962433,"w205":0.31292587518692017,"w103":0.24647600948810577,"w58":0.36064520478248596,"w1":0.020345481112599373,"w274":-0.22725525498390198,"w13":0.041918233036994934,"w4":-0.07470646500587463,"w0":0.17897015810012817,"w240":0.1303049772977829,"w2":0.03149913623929024,"w3":-0.1638052612543106,"w96":0.12814214825630188,"w156":0.140019029378891,"w203":0.055922456085681915,"w24":0.08270764350891113,"w177":0.035946477204561234,"w159":-0.0740770474076271,"w232":0.13966558873653412,"w59":0.1814146190881729,"w223":0.015100635588169098,"w316":0.021112291142344475,"w176":0.1863047331571579,"w394":0.24268080294132233,"w260":-0.1153770387172699,"w300":0.4708870053291321,"w62":0.48509272933006287,"w299":0.25596359372138977,"w212":0.1763359010219574,"w208":-0.03799974545836449,"w271":-0.12231174856424332,"w209":0.001165806665085256,"w306":0.1241837814450264,"w314":0.4591660797595978,"w377":1.0142202377319336,"w166":0.2693078815937042,"w218":0.7206713557243347,"w362":0.13752341270446777,"w32":0.5518932938575745,"w33":0.5758606195449829,"w25":0.24370191991329193,"w403":0.2826101779937744,"w348":0.7015949487686157,"w217":0.2692994475364685,"w34":0.26948991417884827,"w320":0.2764548063278198,"w100":0.20193232595920563,"w88":0.24363422393798828,"w277":0.4870857298374176,"w182":0.6309158205986023,"w315":0.09570202231407166,"w129":0.12985101342201233,"w242":0.11711730808019638,"w311":0.1257936954498291,"w73":0.2437894493341446,"w312":0.028581110760569572,"w233":0.03076760470867157,"w401":-0.619564950466156,"w123":1.697490930557251,"w37":0.17498762905597687,"w322":-0.07657872140407562,"w267":0.09590702503919601,"w291":0.3595660328865051,"w292":0.35641926527023315,"w261":-0.10714041441679001,"w214":0.2412126213312149,"w243":0.20638491213321686,"w80":0.025454634800553322,"w268":0.029823319986462593,"w310":-0.12811772525310516,"w309":-0.20145590603351593,"w275":-0.032357167452573776,"w332":-0.26901212334632874,"w288":-0.3646790087223053,"w283":-0.3213508725166321,"w97":-0.13984137773513794,"w69":0.08080277591943741,"w257":0.31195664405822754,"w60":0.21457380056381226,"w304":0.5024117231369019,"w114":0.5314702987670898,"w109":-0.16903981566429138,"w75":0.4637773633003235,"w341":0.5286720991134644,"w251":-0.07262153178453445,"w119":0.0747571736574173,"w249":-0.061532385647296906,"w95":0.03592206537723541,"w61":-0.009025158360600471,"w128":-0.013190805912017822,"w392":0.11577398329973221,"w10":-0.022048979997634888,"w281":-0.08036709576845169,"w89":-0.06657824665307999,"w286":-0.07350010424852371,"w107":-0.12058648467063904,"w357":-0.06178034842014313,"w276":0.051023952662944794,"w213":0.12865589559078217,"w287":-0.05664759501814842,"w263":0.007989175617694855,"w252":0.2232152670621872,"w70":0.20078986883163452,"w115":0.10970291495323181,"w236":0.11984463781118393,"w211":0.12085673958063126,"w116":-0.07986482977867126,"w266":-0.035288698971271515,"w81":-0.05216395854949951}},"1":{"bias":-0.2339385598897934,"weights":{"w264":-2.064697265625,"w385":-1.4763610363006592,"w136":0.1550380438566208,"w77":-0.30478179454803467,"w133":-1.1224496364593506,"w375":-0.9290361404418945,"w27":-0.2074650228023529,"w273":-0.07861870527267456,"w396":-0.1358581930398941,"w72":-0.07214104384183884,"w20":0.06332158297300339,"w53":-0.5830677151679993,"w19":-0.48679617047309875,"w313":-0.0516187809407711,"w118":-0.283303439617157,"w110":-0.2243310511112213,"w167":-0.0030235887970775366,"w365":-0.16718585789203644,"w131":-0.1733826994895935,"w192":-1.6889231204986572,"w185":0.3903402090072632,"w191":-0.6478087306022644,"w402":-0.043108511716127396,"w331":-0.31155362725257874,"w210":0.10810431838035583,"w132":-0.001900071743875742,"w184":0.1785922646522522,"w389":-0.09656268358230591,"w384":0.01742810755968094,"w250":-0.02672528848052025,"w160":-0.13291454315185547,"w163":0.09045660495758057,"w380":-0.05588597059249878,"w104":-0.27327483892440796,"w198":-0.038625579327344894,"w399":-0.4572969675064087,"w207":-1.1261721849441528,"w93":-0.3986121416091919,"w67":-0.29292982816696167,"w66":-0.5998465418815613,"w321":-0.47268912196159363,"w400":0.5301132798194885,"w301":1.5875499248504639,"w241":1.9545470476150513,"w272":0.9617502689361572,"w318":0.7883875966072083,"w338":0.23717354238033295,"w289":0.1696254163980484,"w215":1.640829086303711,"w369":-0.4269116520881653,"w122":0.3036123514175415,"w374":0.6955214142799377,"w117":0.8494632840156555,"w76":0.6253309845924377,"w364":0.46392548084259033,"w82":-0.026415836066007614,"w307":0.021497705951333046,"w228":-0.4015067517757416,"w358":0.7653499245643616,"w376":0.7940840125083923,"w319":0.5367143154144287,"w363":0.1916186809539795,"w373":0.10226920992136002,"w269":1.3000173568725586,"w92":0.40505242347717285,"w124":1.1785458326339722,"w91":0.5129599571228027,"w229":0.5802704691886902,"w190":0.6729906797409058,"w74":0.029282957315444946,"w54":-0.17023426294326782,"w41":-0.00501437671482563,"w333":-0.11554954946041107,"w293":0.02876126766204834,"w390":-0.10777625441551208,"w387":0.09638052433729172,"w339":0.08827191591262817,"w9":-0.153548464179039,"w398":0.016153482720255852,"w359":0.034981198608875275,"w186":-0.0623498298227787,"w157":-0.391213595867157,"w200":-0.1629384160041809,"w296":0.3957024812698364,"w360":-0.21826252341270447,"w244":-0.040786780416965485,"w140":-0.12509211897850037,"w397":-0.455727756023407,"w248":-0.4408220946788788,"w21":-0.04513081908226013,"w169":-0.24489085376262665,"w221":0.014471829868853092,"w361":-0.3546677231788635,"w195":0.002836632076650858,"w40":-0.10173825919628143,"w290":-0.19565123319625854,"w282":-0.22248680889606476,"w187":-0.5059837698936462,"w29":-0.5865762829780579,"w43":-0.004332482814788818,"w149":-0.17685523629188538,"w79":-0.16307231783866882,"w220":0.08921481668949127,"w64":-0.09994122385978699,"w295":0.1722012460231781,"w111":0.1174800917506218,"w239":-0.02101699449121952,"w303":-0.5778585076332092,"w285":-0.7593994140625,"w284":-0.44455617666244507,"w83":-0.24411194026470184,"w202":-0.19135338068008423,"w393":-0.4923448860645294,"w94":-0.23909755051136017,"w39":-0.20164361596107483,"w15":-0.9462292790412903,"w378":-0.11491772532463074,"w324":-0.5394086241722107,"w372":-0.49757933616638184,"w172":-0.48072656989097595,"w354":-0.21262907981872559,"w356":0.30264660716056824,"w345":-0.005201852414757013,"w298":0.021589728072285652,"w155":0.09199605882167816,"w105":-0.09427273273468018,"w49":-0.17533168196678162,"w170":-0.02247641608119011,"w224":-0.024918433278799057,"w18":-0.039296336472034454,"w137":0.09029616415500641,"w134":-0.6020779013633728,"w175":0.10779226571321487,"w386":0.019711920991539955,"w99":-0.16564615070819855,"w254":-0.16049529612064362,"w391":0.049347683787345886,"w36":-0.45008471608161926,"w11":0.20724323391914368,"w305":-0.09336408972740173,"w45":-0.016414625570178032,"w48":-0.035728417336940765,"w12":0.055087313055992126,"w183":-0.14299902319908142,"w26":-0.18245650827884674,"w323":-0.2672402262687683,"w102":-0.3381463885307312,"w371":-0.26905760169029236,"w164":-0.20415888726711273,"w325":-0.20258492231369019,"w46":-0.010743006132543087,"w265":-0.2293178290128708,"w44":-0.12384360283613205,"w199":0.1854027956724167,"w245":-0.06760255992412567,"w7":-0.154108464717865,"w130":-0.11345610022544861,"w17":0.2502819895744324,"w51":0.11054755747318268,"w165":-0.3164064288139343,"w258":0.09869105368852615,"w50":-0.23094482719898224,"w278":0.40893468260765076,"w158":0.2531040906906128,"w226":-0.008932149037718773,"w5":-0.05117490887641907,"w106":0.1091204509139061,"w168":-0.16758981347084045,"w351":-0.03568672388792038,"w294":0.01710311695933342,"w113":0.2699642777442932,"w219":-0.01642484962940216,"w256":0.4778924584388733,"w101":0.14663663506507874,"w234":0.2343578189611435,"w189":0.3434872031211853,"w112":0.1518949568271637,"w201":0.1493922621011734,"w368":0.1989908218383789,"w142":-0.1342192143201828,"w98":0.22727523744106293,"w193":0.1896636188030243,"w146":-1.0455206632614136,"w152":-1.059767723083496,"w150":-1.0850902795791626,"w55":-0.33322852849960327,"w235":-0.46268415451049805,"w108":-0.5589876770973206,"w255":-0.1251310110092163,"w14":-0.36462584137916565,"w388":-0.3225691020488739,"w395":-0.6928902864456177,"w138":-0.7368796467781067,"w23":-0.19219690561294556,"w121":0.023378295823931694,"w86":-0.2552599608898163,"w247":-0.7482390999794006,"w246":-0.7339505553245544,"w139":-0.9683098793029785,"w181":-0.693272054195404,"w174":-0.1562974452972412,"w22":-0.7706441879272461,"w47":-0.7041366696357727,"w56":0.005589038599282503,"w382":-0.7052156329154968,"w330":-0.523497998714447,"w148":-0.6442497968673706,"w153":-0.6591997146606445,"w147":-0.6139969825744629,"w151":-0.8231924176216125,"w154":-0.633599579334259,"w237":-0.20591942965984344,"w127":-0.41332754492759705,"w329":-0.5905858278274536,"w326":-0.6756688952445984,"w57":1.2504600286483765,"w135":1.1137454509735107,"w302":1.0592178106307983,"w204":0.27386409044265747,"w334":0.22571277618408203,"w63":1.0590726137161255,"w336":0.9691323637962341,"w16":1.0232850313186646,"w270":0.5967928767204285,"w230":0.5806739330291748,"w68":0.08663296699523926,"w262":0.10952197760343552,"w259":-0.1502387523651123,"w65":0.321900874376297,"w28":0.2516554892063141,"w231":0.29024380445480347,"w141":-0.09265656769275665,"w343":0.26202070713043213,"w344":0.144727423787117,"w90":0.17772352695465088,"w308":0.17972615361213684,"w216":-0.2280329018831253,"w238":-0.1262688785791397,"w346":0.31308162212371826,"w347":0.17691229283809662,"w366":0.1614285707473755,"w349":0.3899174630641937,"w350":-0.5222617387771606,"w171":0.15856584906578064,"w84":-0.13553036749362946,"w162":-0.07177715748548508,"w8":-0.03952734172344208,"w196":-0.1793619990348816,"w38":-0.12109542638063431,"w381":0.028084646910429,"w297":-0.06927590072154999,"w71":-0.18894822895526886,"w42":0.04565782472491264,"w126":0.03183455020189285,"w367":-0.07026015967130661,"w353":0.2253747284412384,"w85":0.6994934678077698,"w6":0.026823779568076134,"w194":0.14055901765823364,"w335":0.42294397950172424,"w352":0.2382800430059433,"w383":-0.2584136128425598,"w370":-0.20567387342453003,"w161":-0.061476871371269226,"w120":-0.03725327178835869,"w225":0.0555281788110733,"w180":-0.11419887840747833,"w179":-0.06121714413166046,"w35":0.028549782931804657,"w280":-0.08729962259531021,"w30":0.14729595184326172,"w279":0.11934363096952438,"w340":0.30006423592567444,"w197":0.18391382694244385,"w125":-0.029115278273820877,"w342":-0.03528206795454025,"w87":0.0029576874803751707,"w173":-0.24440337717533112,"w178":0.1667674332857132,"w222":0.23215393722057343,"w206":0.09525299072265625,"w317":-0.17041254043579102,"w328":0.10775653272867203,"w143":0.16049964725971222,"w78":-0.12324288487434387,"w227":-0.07231494039297104,"w327":0.2460470050573349,"w144":0.09785651415586472,"w379":0.09202387928962708,"w31":0.04306996986269951,"w253":1.8386785984039307,"w188":1.3221964836120605,"w355":0.5310578942298889,"w145":0.895022988319397,"w52":-0.16971375048160553,"w337":0.3692825436592102,"w205":0.0815754383802414,"w103":0.22130635380744934,"w58":-0.28733107447624207,"w1":-0.1582164764404297,"w274":0.003155416576191783,"w13":-0.03180671110749245,"w4":0.0712127611041069,"w0":-0.0019324396271258593,"w240":0.0020906981080770493,"w2":0.069612056016922,"w3":0.1756439357995987,"w96":0.09315818548202515,"w156":-0.1715473234653473,"w203":0.08301778137683868,"w24":0.04756157100200653,"w177":0.08246561139822006,"w159":-0.04109189659357071,"w232":-0.07583527266979218,"w59":-0.292602002620697,"w223":-0.12835268676280975,"w316":-0.2808278501033783,"w176":-0.04404214769601822,"w394":-0.02292647399008274,"w260":0.08718814700841904,"w300":-0.14364859461784363,"w62":-0.19217027723789215,"w299":0.5962512493133545,"w212":0.13192157447338104,"w208":0.12760891020298004,"w271":-0.14148150384426117,"w209":-0.11508484929800034,"w306":-0.18196479976177216,"w314":-0.10771922022104263,"w377":1.7418140172958374,"w166":-0.3425899147987366,"w218":0.5891321897506714,"w362":0.0062205009162425995,"w32":0.03059661015868187,"w33":0.20009690523147583,"w25":0.6955917477607727,"w403":-0.25287389755249023,"w348":0.7513321042060852,"w217":0.08928781002759933,"w34":0.05832619220018387,"w320":0.4336640536785126,"w100":0.5236045122146606,"w88":0.3637894093990326,"w277":1.4129084348678589,"w182":0.8946349620819092,"w315":0.6190279126167297,"w129":0.24945300817489624,"w242":0.40711113810539246,"w311":0.4133676588535309,"w73":0.5259817242622375,"w312":0.6425901055335999,"w233":0.3403189480304718,"w401":-0.2079247385263443,"w123":1.7267502546310425,"w37":0.049057550728321075,"w322":0.33872097730636597,"w267":0.1539851576089859,"w291":0.2668432891368866,"w292":0.24301540851593018,"w261":0.29192644357681274,"w214":0.22350463271141052,"w243":-0.16716285049915314,"w80":0.11204279959201813,"w268":0.08079349994659424,"w310":0.5352076292037964,"w309":-0.2455393373966217,"w275":0.2594912350177765,"w332":0.12191406637430191,"w288":1.4390071630477905,"w283":1.2302964925765991,"w97":0.397809237241745,"w69":0.4771850109100342,"w257":-0.5073565244674683,"w60":-0.005365491379052401,"w304":0.002189466031268239,"w114":-0.34942758083343506,"w109":-0.07866077125072479,"w75":0.054940152913331985,"w341":0.17392578721046448,"w251":-0.12643085420131683,"w119":0.18601319193840027,"w249":-0.1674780547618866,"w95":0.02669743075966835,"w61":0.08570266515016556,"w128":0.14526356756687164,"w392":0.008327321149408817,"w10":-0.06874100118875504,"w281":-0.2175188958644867,"w89":-0.05653109401464462,"w286":-0.1464739441871643,"w107":-0.13839155435562134,"w357":-0.14627359807491302,"w276":-0.23927953839302063,"w213":0.05471941828727722,"w287":-0.017170188948512077,"w263":-0.01670132949948311,"w252":-0.12474949657917023,"w70":0.09668350219726562,"w115":0.03542178496718407,"w236":0.17353537678718567,"w211":-0.09347417950630188,"w116":0.14981070160865784,"w266":0.014740871265530586,"w81":0.11339215189218521}},"2":{"bias":-0.15215732157230377,"weights":{"w264":0.599031925201416,"w385":0.06673706322908401,"w136":1.0344691276550293,"w77":0.21601827442646027,"w133":0.25768741965293884,"w375":0.18855774402618408,"w27":0.14362584054470062,"w273":-0.06750340759754181,"w396":-0.015348576009273529,"w72":-0.016017058864235878,"w20":-0.18501237034797668,"w53":0.35131245851516724,"w19":0.31985554099082947,"w313":0.056176938116550446,"w118":0.5089842677116394,"w110":0.29029735922813416,"w167":0.4876040816307068,"w365":0.2828134298324585,"w131":0.2007122039794922,"w192":0.6601020693778992,"w185":-0.2192617654800415,"w191":0.40876930952072144,"w402":0.27089184522628784,"w331":0.3280082046985626,"w210":0.2533338665962219,"w132":0.4825305938720703,"w184":-0.1926964670419693,"w389":0.2486475557088852,"w384":-0.028377430513501167,"w250":0.33718281984329224,"w160":0.1705935001373291,"w163":0.10130764544010162,"w380":-0.049852125346660614,"w104":-0.0007124745170585811,"w198":0.23888659477233887,"w399":-1.849758267402649,"w207":0.3798982501029968,"w93":-0.02153525874018669,"w67":0.04433513432741165,"w66":0.016579635441303253,"w321":0.1754540652036667,"w400":-1.4263347387313843,"w301":-0.14788132905960083,"w241":-0.2516986131668091,"w272":0.3849334418773651,"w318":-0.5166594386100769,"w338":-0.06153074651956558,"w289":-0.18741175532341003,"w215":-1.0343677997589111,"w369":0.3830929100513458,"w122":-0.12709075212478638,"w374":-0.21654710173606873,"w117":-0.4964902698993683,"w76":-0.3211958110332489,"w364":-0.04378773272037506,"w82":0.10565786063671112,"w307":0.07257536053657532,"w228":-0.2510717809200287,"w358":-0.08374141156673431,"w376":-0.18146061897277832,"w319":-0.28608763217926025,"w363":-0.05513293296098709,"w373":-0.2971440851688385,"w269":-0.3204512298107147,"w92":-0.13889512419700623,"w124":-0.09559452533721924,"w91":-0.0417591892182827,"w229":-0.5838228464126587,"w190":-0.4061306416988373,"w74":-0.14031286537647247,"w54":0.14610503613948822,"w41":-0.39321762323379517,"w333":0.19241061806678772,"w293":0.20393332839012146,"w390":0.2089315503835678,"w387":0.016110436990857124,"w339":0.4262130558490753,"w9":-0.19774219393730164,"w398":0.2054467350244522,"w359":-0.16863059997558594,"w186":0.2090321183204651,"w157":0.18183070421218872,"w200":0.15893208980560303,"w296":-0.435855895280838,"w360":-0.056144073605537415,"w244":0.04174086079001427,"w140":0.03325187414884567,"w397":0.18065282702445984,"w248":0.05567692592740059,"w21":0.07318790256977081,"w169":-0.1943357139825821,"w221":-0.06754737347364426,"w361":-0.1087878942489624,"w195":0.1554807424545288,"w40":0.09967318177223206,"w290":0.07431060075759888,"w282":0.17881137132644653,"w187":0.011562895029783249,"w29":0.1769389808177948,"w43":0.045610442757606506,"w149":-0.5687751173973083,"w79":-0.674915611743927,"w220":-0.5572171211242676,"w64":-0.09736603498458862,"w295":-0.7595528364181519,"w111":-0.5895766019821167,"w239":0.16175377368927002,"w303":0.0882735475897789,"w285":-0.5755659937858582,"w284":-0.4052184522151947,"w83":0.10318723320960999,"w202":-0.031760841608047485,"w393":-0.08665743470191956,"w94":-0.2503707706928253,"w39":0.15373702347278595,"w15":0.42936354875564575,"w378":-0.03067123331129551,"w324":0.13038422167301178,"w372":0.03439449146389961,"w172":0.27612602710723877,"w354":0.1070476621389389,"w356":-0.3139483332633972,"w345":-0.2705529034137726,"w298":0.21979722380638123,"w155":-0.03393711894750595,"w105":-0.04355235397815704,"w49":0.35344940423965454,"w170":-0.1034633219242096,"w224":-0.4553794860839844,"w18":0.2981245815753937,"w137":0.2043246030807495,"w134":0.4719748795032501,"w175":-0.1214134469628334,"w386":0.04782363027334213,"w99":-0.06728003919124603,"w254":0.13564209640026093,"w391":0.09707068651914597,"w36":0.1817915141582489,"w11":-0.09808164089918137,"w305":0.10701614618301392,"w45":0.17488357424736023,"w48":0.26784414052963257,"w12":0.11086690425872803,"w183":0.039426181465387344,"w26":-0.13683739304542542,"w323":-0.19734248518943787,"w102":-0.32103976607322693,"w371":-0.34377676248550415,"w164":-0.4588189125061035,"w325":-0.20749501883983612,"w46":-0.3151613175868988,"w265":-0.48002687096595764,"w44":-0.5178908109664917,"w199":0.017894506454467773,"w245":-0.13265566527843475,"w7":-0.045050591230392456,"w130":-0.236327663064003,"w17":-0.049410656094551086,"w51":-0.1996021419763565,"w165":0.09485544264316559,"w258":-0.12732985615730286,"w50":-0.20465990900993347,"w278":-0.08560752868652344,"w158":-0.19579945504665375,"w226":0.18505746126174927,"w5":-0.061225004494190216,"w106":0.10975857079029083,"w168":-0.05098499357700348,"w351":0.09193579852581024,"w294":0.007370553910732269,"w113":-0.39217042922973633,"w219":-0.12319998443126678,"w256":-0.365497350692749,"w101":-0.08299235254526138,"w234":0.005264872685074806,"w189":-0.18029750883579254,"w112":0.03023664839565754,"w201":-0.10705291479825974,"w368":-0.32707923650741577,"w142":0.3329799175262451,"w98":0.07405807822942734,"w193":0.13623502850532532,"w146":1.0857387781143188,"w152":1.1274439096450806,"w150":0.9433056712150574,"w55":0.3179968595504761,"w235":0.41275081038475037,"w108":0.5287373661994934,"w255":0.35327860713005066,"w14":0.33595889806747437,"w388":0.12454324215650558,"w395":0.44134461879730225,"w138":0.6333423256874084,"w23":0.08116842806339264,"w121":0.04225163906812668,"w86":0.4060540795326233,"w247":0.7949138283729553,"w246":0.5908618569374084,"w139":0.8930334448814392,"w181":0.6920418739318848,"w174":0.4063921868801117,"w22":0.5563295483589172,"w47":0.6542074084281921,"w56":-0.018262242898344994,"w382":0.8156073689460754,"w330":0.5850171446800232,"w148":0.6191654801368713,"w153":0.5546324849128723,"w147":0.684246301651001,"w151":0.7385903596878052,"w154":0.5267301797866821,"w237":0.2633175551891327,"w127":0.30353549122810364,"w329":0.6661487817764282,"w326":0.813435435295105,"w57":-1.1825917959213257,"w135":-1.2505115270614624,"w302":-0.7295796275138855,"w204":-0.214126318693161,"w334":-0.2519761323928833,"w63":-0.851926326751709,"w336":-1.0464531183242798,"w16":-0.9478585124015808,"w270":-0.6727309823036194,"w230":-0.2927561402320862,"w68":0.03856494277715683,"w262":0.04408746957778931,"w259":-0.07990200072526932,"w65":0.11383841186761856,"w28":-0.11576798558235168,"w231":-0.3542722463607788,"w141":-0.10224056243896484,"w343":-0.413311630487442,"w344":-0.5233350992202759,"w90":-0.4983147382736206,"w308":-0.4975205957889557,"w216":-0.1107206642627716,"w238":-0.015512058511376381,"w346":-0.47907334566116333,"w347":-0.36630013585090637,"w366":-0.41411298513412476,"w349":-0.47669777274131775,"w350":0.2867739200592041,"w171":-0.0548328161239624,"w84":-0.027339668944478035,"w162":0.025756947696208954,"w8":-0.060442764312028885,"w196":0.03797608241438866,"w38":0.1065322682261467,"w381":0.14350177347660065,"w297":0.21318824589252472,"w71":0.05264364928007126,"w42":0.11441028863191605,"w126":-0.25990888476371765,"w367":0.014360903762280941,"w353":0.3274773061275482,"w85":0.7035092711448669,"w6":0.005201798398047686,"w194":0.14343157410621643,"w335":0.3779182434082031,"w352":0.0027536835987120867,"w383":0.8874789476394653,"w370":0.3794727623462677,"w161":0.2996741235256195,"w120":0.04891124367713928,"w225":0.5307360887527466,"w180":0.36701977252960205,"w179":0.20495881140232086,"w35":-0.13502557575702667,"w280":0.40024837851524353,"w30":0.46450623869895935,"w279":0.08554040640592575,"w340":0.43821465969085693,"w197":0.35895851254463196,"w125":0.05636901780962944,"w342":-0.08136875182390213,"w87":-0.11795289814472198,"w173":0.13301031291484833,"w178":0.1873462200164795,"w222":-0.11187995970249176,"w206":0.35188010334968567,"w317":-0.0066095334477722645,"w328":0.1284763216972351,"w143":0.10339321941137314,"w78":0.20951871573925018,"w227":0.05216722935438156,"w327":-0.05263924598693848,"w144":-0.10820835828781128,"w379":-0.16484099626541138,"w31":0.0036401061806827784,"w253":-0.9651846289634705,"w188":-0.5739495158195496,"w355":-0.30303171277046204,"w145":-0.3177853524684906,"w52":0.02433283068239689,"w337":0.19960366189479828,"w205":0.3404640853404999,"w103":0.04792063310742378,"w58":-0.13840508460998535,"w1":-0.2736952602863312,"w274":-0.2404710352420807,"w13":0.0644693523645401,"w4":-0.3373594284057617,"w0":-0.30037590861320496,"w240":-0.20971839129924774,"w2":0.06987421214580536,"w3":0.00595772685483098,"w96":-0.218683123588562,"w156":0.21453116834163666,"w203":-0.2452867031097412,"w24":-0.041001755744218826,"w177":-0.18085183203220367,"w159":-0.24690905213356018,"w232":0.13327369093894958,"w59":-0.08033867180347443,"w223":-0.005569076165556908,"w316":0.06959995627403259,"w176":-0.21822015941143036,"w394":0.07754754275083542,"w260":-0.1139901801943779,"w300":-0.19280099868774414,"w62":0.1809944063425064,"w299":-0.2624032199382782,"w212":-0.07597187906503677,"w208":-0.20342937111854553,"w271":0.05501733347773552,"w209":-0.10370670258998871,"w306":-0.03642651066184044,"w314":0.13142432272434235,"w377":-0.37920185923576355,"w166":0.2681335210800171,"w218":0.0928521603345871,"w362":0.19438429176807404,"w32":0.3874298334121704,"w33":0.024292295798659325,"w25":-0.48911798000335693,"w403":0.35839828848838806,"w348":-0.26211079955101013,"w217":0.18657325208187103,"w34":0.4599916338920593,"w320":-0.3077904284000397,"w100":-0.7454776167869568,"w88":-0.5511319041252136,"w277":-0.7775691151618958,"w182":-0.5631080865859985,"w315":-0.4176969528198242,"w129":-0.504720151424408,"w242":-0.4770391285419464,"w311":-0.10210966318845749,"w73":-0.05206741392612457,"w312":-0.2805440425872803,"w233":-0.25353020429611206,"w401":0.07243988662958145,"w123":-0.3596089482307434,"w37":0.0911516472697258,"w322":-0.4985976815223694,"w267":-0.2623073160648346,"w291":-0.3056868314743042,"w292":-0.298310786485672,"w261":-0.27090296149253845,"w214":-0.6097080111503601,"w243":-0.12327118963003159,"w80":-0.2123459279537201,"w268":0.0006173578440211713,"w310":-0.35922908782958984,"w309":0.024062685668468475,"w275":0.1532006859779358,"w332":0.1072496771812439,"w288":-0.29538533091545105,"w283":-0.25800055265426636,"w97":-0.054809488356113434,"w69":-0.09660456329584122,"w257":-0.03439415246248245,"w60":-0.04666346311569214,"w304":-0.24432964622974396,"w114":0.4644528031349182,"w109":0.07901310920715332,"w75":-0.19798289239406586,"w341":-0.1539716273546219,"w251":-0.12971538305282593,"w119":0.06633232533931732,"w249":-0.1107572466135025,"w95":-0.14217491447925568,"w61":0.12778827548027039,"w128":-0.08644147962331772,"w392":-0.04179855436086655,"w10":-0.07886526733636856,"w281":0.08828084170818329,"w89":0.1655421257019043,"w286":0.06080580875277519,"w107":-0.08562712371349335,"w357":-0.06005837395787239,"w276":0.37707406282424927,"w213":-0.1757507026195526,"w287":-0.1738521009683609,"w263":0.09201367199420929,"w252":0.24003419280052185,"w70":0.16193725168704987,"w115":-0.12324928492307663,"w236":0.1426793783903122,"w211":0.14633582532405853,"w116":0.022812677547335625,"w266":-0.1585240513086319,"w81":0.15362732112407684}},"3":{"bias":0.18739624321460724,"weights":{"w264":0.20769299566745758,"w385":0.3003663420677185,"w136":0.07580931484699249,"w77":0.18544776737689972,"w133":0.5500538945198059,"w375":0.4918101131916046,"w27":0.19703592360019684,"w273":-0.012573341839015484,"w396":0.21961797773838043,"w72":0.21992918848991394,"w20":0.08420903235673904,"w53":0.46409356594085693,"w19":0.4726976156234741,"w313":0.25354883074760437,"w118":0.3470066487789154,"w110":0.2013508528470993,"w167":0.2498978078365326,"w365":0.3212452232837677,"w131":0.37507694959640503,"w192":0.9066560864448547,"w185":0.16732950508594513,"w191":0.6238396167755127,"w402":0.27765288949012756,"w331":0.4243321418762207,"w210":0.04191906005144119,"w132":0.17203567922115326,"w184":-0.08066961169242859,"w389":-0.051176056265830994,"w384":0.15370208024978638,"w250":0.1096118688583374,"w160":0.20988726615905762,"w163":0.20096668601036072,"w380":-0.003423350630328059,"w104":-0.2274569571018219,"w198":-0.1730654090642929,"w399":-1.4461233615875244,"w207":0.46845743060112,"w93":0.2241942435503006,"w67":0.06735070794820786,"w66":0.1108759418129921,"w321":0.11072200536727905,"w400":-0.9637762904167175,"w301":-0.9491347670555115,"w241":-1.7644827365875244,"w272":-0.4148228168487549,"w318":-0.6131584644317627,"w338":-0.0443449467420578,"w289":-0.24802584946155548,"w215":-1.0783863067626953,"w369":0.3109996020793915,"w122":-0.4836748540401459,"w374":-0.23997560143470764,"w117":-0.368181437253952,"w76":-0.2516947090625763,"w364":-0.2567538619041443,"w82":-0.2658928632736206,"w307":-0.11119444668292999,"w228":-0.12663355469703674,"w358":-0.38464590907096863,"w376":-0.3339156210422516,"w319":-0.3357957601547241,"w363":-0.15465646982192993,"w373":-0.1524645835161209,"w269":-0.9071255922317505,"w92":-0.2216232866048813,"w124":-0.5035505890846252,"w91":-0.36079248785972595,"w229":-0.1848915070295334,"w190":-0.5121148824691772,"w74":-0.26663488149642944,"w54":0.22900815308094025,"w41":-0.17542590200901031,"w333":0.14162814617156982,"w293":-0.034989893436431885,"w390":0.2492053210735321,"w387":-0.1759328544139862,"w339":-0.08640460669994354,"w9":0.24221141636371613,"w398":0.11320442706346512,"w359":0.28598979115486145,"w186":-0.010337929241359234,"w157":0.23380005359649658,"w200":-0.15984348952770233,"w296":-0.30794772505760193,"w360":0.2820090055465698,"w244":-0.013660470955073833,"w140":0.3854312598705292,"w397":0.31490200757980347,"w248":-0.2480575293302536,"w21":0.25231248140335083,"w169":0.03730311989784241,"w221":-0.10690967738628387,"w361":0.32858848571777344,"w195":0.09094179421663284,"w40":-0.11541085690259933,"w290":-0.0055949934758245945,"w282":0.12672868371009827,"w187":0.16256284713745117,"w29":0.3878730535507202,"w43":-0.3638077974319458,"w149":0.03802121430635452,"w79":0.1952856034040451,"w220":0.21875156462192535,"w64":0.038201749324798584,"w295":0.003220797050744295,"w111":0.03705775737762451,"w239":-0.11474734544754028,"w303":0.20024584233760834,"w285":0.3056863248348236,"w284":0.36622798442840576,"w83":0.06370974332094193,"w202":0.06653715670108795,"w393":0.1539202630519867,"w94":0.1448783576488495,"w39":-0.026286331936717033,"w15":0.5923661589622498,"w378":0.1889313906431198,"w324":0.1196514144539833,"w372":0.24786822497844696,"w172":0.3509986996650696,"w354":-0.0038970233872532845,"w356":0.02765754424035549,"w345":-0.08513227850198746,"w298":0.13313044607639313,"w155":0.041378818452358246,"w105":0.012362312525510788,"w49":0.11415434628725052,"w170":-0.16466614603996277,"w224":-0.2251203954219818,"w18":-0.11162368953227997,"w137":0.22180669009685516,"w134":0.1912723183631897,"w175":-0.27344948053359985,"w386":0.12082555890083313,"w99":0.28098422288894653,"w254":0.013124683871865273,"w391":0.17321370542049408,"w36":0.22816327214241028,"w11":0.05021344870328903,"w305":0.15912611782550812,"w45":0.15492334961891174,"w48":0.09757380187511444,"w12":0.13074345886707306,"w183":0.050748277455568314,"w26":0.36656424403190613,"w323":0.24878226220607758,"w102":0.1739467978477478,"w371":0.21891577541828156,"w164":0.5324206352233887,"w325":0.15286655724048615,"w46":0.14269374310970306,"w265":0.21390503644943237,"w44":0.31494224071502686,"w199":0.2044268250465393,"w245":0.1569940447807312,"w7":0.17764326930046082,"w130":0.12206611782312393,"w17":-0.06944363564252853,"w51":0.08621327579021454,"w165":0.2962682843208313,"w258":0.08013176172971725,"w50":-0.057982493191957474,"w278":-0.15701983869075775,"w158":0.36582276225090027,"w226":0.10646495223045349,"w5":0.05309737101197243,"w106":-0.1502365618944168,"w168":-0.002868200885131955,"w351":-0.055758412927389145,"w294":0.36992210149765015,"w113":0.29654166102409363,"w219":0.15882141888141632,"w256":0.07878056168556213,"w101":-0.08276015520095825,"w234":0.20939484238624573,"w189":-0.07381265610456467,"w112":-0.019859788939356804,"w201":0.22070153057575226,"w368":-0.037466950714588165,"w142":-0.08220504969358444,"w98":0.2152516394853592,"w193":-0.12618491053581238,"w146":0.2964246869087219,"w152":0.5343493223190308,"w150":0.40742677450180054,"w55":0.21633590757846832,"w235":0.19814744591712952,"w108":0.023705095052719116,"w255":-0.03459842875599861,"w14":0.25919651985168457,"w388":-0.2663165032863617,"w395":0.3720291256904602,"w138":0.44399407505989075,"w23":0.17644399404525757,"w121":0.00919813010841608,"w86":0.3125576674938202,"w247":0.29397067427635193,"w246":0.4871877133846283,"w139":0.534568727016449,"w181":0.1583186239004135,"w174":-0.03131793439388275,"w22":0.42924782633781433,"w47":0.17950297892093658,"w56":0.15771979093551636,"w382":0.19979165494441986,"w330":0.45388615131378174,"w148":0.31294143199920654,"w153":0.2006131112575531,"w147":0.38896694779396057,"w151":0.1621490716934204,"w154":0.29553940892219543,"w237":0.24557054042816162,"w127":-0.00704263336956501,"w329":0.14940057694911957,"w326":0.4029521942138672,"w57":-0.801286518573761,"w135":-0.8346216678619385,"w302":-0.9596832394599915,"w204":-0.11754301935434341,"w334":-0.40449047088623047,"w63":-0.39153337478637695,"w336":-0.7300400137901306,"w16":-0.6578750610351562,"w270":-0.2215767800807953,"w230":-0.5198792815208435,"w68":0.0674983561038971,"w262":0.08685483783483505,"w259":0.010144245810806751,"w65":-0.16322088241577148,"w28":-0.008240367285907269,"w231":-0.1627591997385025,"w141":-0.44154658913612366,"w343":-0.41274362802505493,"w344":0.0742109939455986,"w90":-0.10507753491401672,"w308":-0.2716650366783142,"w216":0.08805657923221588,"w238":-0.19529412686824799,"w346":-0.19064393639564514,"w347":-0.04563106968998909,"w366":-0.23262429237365723,"w349":-0.0014291169354692101,"w350":-0.9962834715843201,"w171":-0.1805967092514038,"w84":0.07979408651590347,"w162":-0.24022789299488068,"w8":-0.19822633266448975,"w196":-0.36150091886520386,"w38":-0.25255319476127625,"w381":-0.3044564127922058,"w297":-0.3889783024787903,"w71":-0.014196667820215225,"w42":-0.009146874770522118,"w126":0.039479225873947144,"w367":-0.2186433970928192,"w353":0.08960510790348053,"w85":-0.25123846530914307,"w6":-0.33857110142707825,"w194":-0.09052076935768127,"w335":0.14564025402069092,"w352":-0.12819723784923553,"w383":0.2362516075372696,"w370":0.22991611063480377,"w161":0.0391865037381649,"w120":0.14783909916877747,"w225":0.06443410366773605,"w180":0.07427461445331573,"w179":0.3210667371749878,"w35":0.1553405076265335,"w280":0.012141900137066841,"w30":-0.029381878674030304,"w279":-0.04498189315199852,"w340":0.022311409935355186,"w197":0.0055422126315534115,"w125":0.19344490766525269,"w342":0.035887155681848526,"w87":0.03175928816199303,"w173":0.07139111310243607,"w178":-0.6038185954093933,"w222":-0.15745389461517334,"w206":-0.14127857983112335,"w317":0.14457200467586517,"w328":-0.3451947271823883,"w143":-0.3425443470478058,"w78":-0.11330806463956833,"w227":-0.26574456691741943,"w327":-0.20717871189117432,"w144":0.07798387110233307,"w379":-0.3065815567970276,"w31":-0.19093520939350128,"w253":-0.8970587849617004,"w188":-0.6791389584541321,"w355":-0.45396730303764343,"w145":-0.40749940276145935,"w52":0.043490275740623474,"w337":-0.26213088631629944,"w205":-0.09766202419996262,"w103":-0.3337371051311493,"w58":0.30654728412628174,"w1":0.40973183512687683,"w274":0.064874067902565,"w13":0.013126549310982227,"w4":0.3107733130455017,"w0":0.218139186501503,"w240":0.025016948580741882,"w2":0.2780119478702545,"w3":0.058670416474342346,"w96":0.11259718984365463,"w156":0.470673143863678,"w203":0.17675985395908356,"w24":0.08236642181873322,"w177":-0.037011709064245224,"w159":-0.08456887304782867,"w232":-0.090132936835289,"w59":0.20107528567314148,"w223":0.1893526315689087,"w316":0.060555994510650635,"w176":0.2507229149341583,"w394":0.0581715889275074,"w260":0.14432495832443237,"w300":-0.36044198274612427,"w62":0.011183978989720345,"w299":-0.03924814239144325,"w212":-0.03914551064372063,"w208":0.00021429109619930387,"w271":0.11536941677331924,"w209":-0.06199182569980621,"w306":0.0700845867395401,"w314":0.10194791853427887,"w377":-0.11702383309602737,"w166":0.1424543857574463,"w218":-0.15816763043403625,"w362":-0.1460401564836502,"w32":0.0180658046156168,"w33":0.09078752994537354,"w25":-0.23923222720623016,"w403":0.21656866371631622,"w348":-0.41689184308052063,"w217":0.11208732426166534,"w34":0.03850369155406952,"w320":-0.18326298892498016,"w100":-0.32754069566726685,"w88":-0.28213468194007874,"w277":-0.6825950145721436,"w182":-0.36606183648109436,"w315":-0.12367749959230423,"w129":-0.13798761367797852,"w242":0.17799122631549835,"w311":-0.012491363100707531,"w73":0.08668583631515503,"w312":-0.19369454681873322,"w233":0.10418026894330978,"w401":0.06905518472194672,"w123":-1.4328113794326782,"w37":0.009034939110279083,"w322":-0.45132431387901306,"w267":-0.36710789799690247,"w291":-0.3394441306591034,"w292":-0.3301868438720703,"w261":-0.32300475239753723,"w214":0.23816940188407898,"w243":-0.037576887756586075,"w80":-0.2596745789051056,"w268":-0.041608989238739014,"w310":-0.12246709316968918,"w309":0.1309669017791748,"w275":-0.1958497315645218,"w332":-0.1999179720878601,"w288":-0.8590837121009827,"w283":-0.7998291254043579,"w97":-0.270948588848114,"w69":-0.15497717261314392,"w257":0.18227137625217438,"w60":0.11606236547231674,"w304":0.1039932370185852,"w114":-0.2085273414850235,"w109":0.3001326620578766,"w75":-0.11036703735589981,"w341":-0.015390788204967976,"w251":-0.04873306676745415,"w119":-0.3272656798362732,"w249":0.10407046973705292,"w95":-0.2107682228088379,"w61":0.011928380466997623,"w128":-0.055111564695835114,"w392":0.03587755560874939,"w10":-0.008562064729630947,"w281":0.03312947601079941,"w89":0.05617304891347885,"w286":0.12126060575246811,"w107":-0.23288853466510773,"w357":-0.06534381955862045,"w276":0.24813178181648254,"w213":-0.13149358332157135,"w287":-0.004845277406275272,"w263":-0.16494320333003998,"w252":0.1384926438331604,"w70":0.1082250252366066,"w115":0.05513462424278259,"w236":0.18555672466754913,"w211":-0.11022690683603287,"w116":0.06947900354862213,"w266":0.07924405485391617,"w81":-0.13449986279010773}},"4":{"bias":-0.010295132175087929,"weights":{"w264":0.43411141633987427,"w385":-1.462587833404541,"w136":1.0461715459823608,"w77":0.33251672983169556,"w133":0.44146618247032166,"w375":0.26021069288253784,"w27":0.018627356737852097,"w273":-0.27070799469947815,"w396":-0.39000728726387024,"w72":-0.2119174599647522,"w20":-0.17954771220684052,"w53":0.282326340675354,"w19":1.0054075717926025,"w313":-1.6314990520477295,"w118":1.2718071937561035,"w110":0.12941698729991913,"w167":0.32645848393440247,"w365":-0.019559402018785477,"w131":0.16798797249794006,"w192":1.2412077188491821,"w185":0.07536113262176514,"w191":0.04999087378382683,"w402":0.034666985273361206,"w331":0.7175099849700928,"w210":0.04364936426281929,"w132":0.12674817442893982,"w184":0.3365262746810913,"w389":-0.10665272176265717,"w384":0.12170065939426422,"w250":0.00035648138145916164,"w160":-0.0061368015594780445,"w163":-0.4650644063949585,"w380":-0.2539856433868408,"w104":-0.41293787956237793,"w198":-0.416614830493927,"w399":2.3382644653320312,"w207":0.27910372614860535,"w93":0.20874714851379395,"w67":-0.47221511602401733,"w66":0.07473603636026382,"w321":-0.7161434888839722,"w400":0.9604367613792419,"w301":0.7168802618980408,"w241":-0.31124991178512573,"w272":-0.5054417848587036,"w318":-0.152567520737648,"w338":0.019804466515779495,"w289":0.15744346380233765,"w215":-0.32262125611305237,"w369":0.03575970605015755,"w122":0.7103389501571655,"w374":-0.11482144892215729,"w117":-0.057281944900751114,"w76":-0.23017609119415283,"w364":-0.3034553825855255,"w82":0.09215014427900314,"w307":-0.2888259291648865,"w228":0.05887235701084137,"w358":0.008023682050406933,"w376":-0.2544732391834259,"w319":-0.09944990277290344,"w363":0.1720251441001892,"w373":0.33749279379844666,"w269":0.4049004912376404,"w92":-0.032316166907548904,"w124":-0.5426890254020691,"w91":0.17369437217712402,"w229":-0.5372148752212524,"w190":-0.165059894323349,"w74":0.048734281212091446,"w54":-0.2698167860507965,"w41":0.6202399730682373,"w333":-0.05488554388284683,"w293":-0.04765314981341362,"w390":-1.4612486362457275,"w387":-1.048825740814209,"w339":-0.6248213052749634,"w9":-1.1215366125106812,"w398":-0.6440290212631226,"w359":-0.40720483660697937,"w186":-1.059491753578186,"w157":-0.1839381605386734,"w200":-0.9128968119621277,"w296":0.4401562511920929,"w360":-0.3414403200149536,"w244":-0.3815227150917053,"w140":-0.6808605790138245,"w397":-1.1526719331741333,"w248":-0.4183535575866699,"w21":-0.981418788433075,"w169":-0.8694338798522949,"w221":-0.027045993134379387,"w361":-0.5482977032661438,"w195":-0.44714322686195374,"w40":-0.5488418936729431,"w290":-1.0128698348999023,"w282":-1.013160228729248,"w187":-0.1379968822002411,"w29":-0.18382704257965088,"w43":-0.8487781882286072,"w149":-0.648604691028595,"w79":-0.08057964593172073,"w220":-0.48289754986763,"w64":0.03595399111509323,"w295":0.3348974883556366,"w111":0.2164427787065506,"w239":-0.05485626682639122,"w303":-0.07871583104133606,"w285":0.8530457019805908,"w284":0.47121596336364746,"w83":-0.22288593649864197,"w202":-0.16991648077964783,"w393":0.2791467308998108,"w94":0.279323548078537,"w39":-0.16313029825687408,"w15":-0.18619704246520996,"w378":-0.39054492115974426,"w324":-0.15419690310955048,"w372":-0.06528884172439575,"w172":-0.3026714324951172,"w354":0.12109426409006119,"w356":-0.45699867606163025,"w345":0.06739495694637299,"w298":0.294442355632782,"w155":-0.016118649393320084,"w105":0.11297469586133957,"w49":0.2582521438598633,"w170":0.29982709884643555,"w224":0.3743177354335785,"w18":0.2589723765850067,"w137":0.2308841049671173,"w134":0.10740698873996735,"w175":-0.15075787901878357,"w386":-0.5067306756973267,"w99":0.02922099269926548,"w254":-0.15842485427856445,"w391":0.0015028363559395075,"w36":0.13849781453609467,"w11":-0.3355725407600403,"w305":-0.11086058616638184,"w45":0.3118492364883423,"w48":0.39910727739334106,"w12":0.28665298223495483,"w183":0.07500366866588593,"w26":-0.09516815096139908,"w323":-0.1569642275571823,"w102":-0.1808818280696869,"w371":-0.14049139618873596,"w164":-0.7458045482635498,"w325":-0.037551555782556534,"w46":0.14246855676174164,"w265":0.5319889187812805,"w44":-0.15740670263767242,"w199":-0.12369422614574432,"w245":-0.14647455513477325,"w7":0.3776976466178894,"w130":0.34078478813171387,"w17":-0.48630771040916443,"w51":-0.010226218961179256,"w165":-0.20482292771339417,"w258":-0.14396557211875916,"w50":0.6386059522628784,"w278":-0.1272004097700119,"w158":-0.4242497980594635,"w226":-0.059603769332170486,"w5":-0.15542545914649963,"w106":-0.22057336568832397,"w168":0.21374976634979248,"w351":-0.14496950805187225,"w294":-0.20294202864170074,"w113":-1.0082074403762817,"w219":-0.15919893980026245,"w256":-0.1336517035961151,"w101":-0.24447108805179596,"w234":-0.2530617415904999,"w189":-0.21190671622753143,"w112":0.30422285199165344,"w201":-0.198225200176239,"w368":-0.3783894181251526,"w142":-0.21324340999126434,"w98":-0.4406256675720215,"w193":-0.336038202047348,"w146":0.20647446811199188,"w152":0.19367942214012146,"w150":0.021135177463293076,"w55":0.11699728667736053,"w235":0.14984238147735596,"w108":0.19458776712417603,"w255":-0.23071825504302979,"w14":-0.00822203978896141,"w388":-0.2573111355304718,"w395":0.08340401947498322,"w138":0.04034934192895889,"w23":-0.0035771019756793976,"w121":-0.031690046191215515,"w86":0.07455792278051376,"w247":0.11766956001520157,"w246":0.2573494017124176,"w139":0.7741438150405884,"w181":0.3590708076953888,"w174":0.054346926510334015,"w22":0.17563921213150024,"w47":0.2286926954984665,"w56":0.13202081620693207,"w382":0.157522514462471,"w330":0.16317474842071533,"w148":0.033648375421762466,"w153":0.08550433069467545,"w147":-0.016783099621534348,"w151":0.02729831449687481,"w154":0.32274824380874634,"w237":0.0798516497015953,"w127":0.04180850088596344,"w329":0.003716064849868417,"w326":0.4028996527194977,"w57":0.6073684692382812,"w135":0.18653279542922974,"w302":0.696324348449707,"w204":0.07001984864473343,"w334":0.24977436661720276,"w63":0.08101256936788559,"w336":0.1465204507112503,"w16":0.32111191749572754,"w270":0.28490421175956726,"w230":0.24497923254966736,"w68":0.09103497117757797,"w262":0.15138410031795502,"w259":0.17700351774692535,"w65":-0.009209420531988144,"w28":0.43117061257362366,"w231":0.44989094138145447,"w141":0.04098553955554962,"w343":1.6429916620254517,"w344":0.8631985783576965,"w90":0.893348753452301,"w308":0.9270753264427185,"w216":-0.06312224268913269,"w238":0.05717427283525467,"w346":0.8948195576667786,"w347":0.7210954427719116,"w366":0.9069955348968506,"w349":0.8691152334213257,"w350":0.03343527019023895,"w171":-0.6110052466392517,"w84":-0.32265228033065796,"w162":0.29757431149482727,"w8":0.027317509055137634,"w196":-0.3207148015499115,"w38":-0.1421387642621994,"w381":-0.13480933010578156,"w297":0.16795121133327484,"w71":-0.46165895462036133,"w42":-0.45530280470848083,"w126":-0.14486044645309448,"w367":0.04729742184281349,"w353":-0.7992599606513977,"w85":-1.2603858709335327,"w6":-0.7886114120483398,"w194":-0.05574878305196762,"w335":-0.8941832780838013,"w352":-0.20038381218910217,"w383":-1.490355372428894,"w370":-0.47521039843559265,"w161":-0.13499285280704498,"w120":-0.11673281341791153,"w225":-1.0216281414031982,"w180":-0.09352060407400131,"w179":-0.1178831160068512,"w35":0.0803656056523323,"w280":-0.9138774275779724,"w30":-0.2708490490913391,"w279":-0.4940812885761261,"w340":-0.8423802852630615,"w197":-0.6773778200149536,"w125":-0.29718804359436035,"w342":-0.2694331407546997,"w87":-0.24723544716835022,"w173":-0.3777839243412018,"w178":2.012326955795288,"w222":0.6655076742172241,"w206":0.5484415888786316,"w317":0.40847089886665344,"w328":-0.26361921429634094,"w143":1.0086345672607422,"w78":0.7842084169387817,"w227":1.127583384513855,"w327":0.4806376099586487,"w144":0.3381638824939728,"w379":0.3387291729450226,"w31":0.10869624465703964,"w253":-1.9078956842422485,"w188":-1.5150638818740845,"w355":-0.911056399345398,"w145":-0.6500875353813171,"w52":-0.06694482266902924,"w337":-0.39326855540275574,"w205":-0.127940371632576,"w103":-0.3326147198677063,"w58":-0.7318506836891174,"w1":-0.11172410100698471,"w274":0.23483577370643616,"w13":-0.3759020268917084,"w4":-0.0037452029064297676,"w0":-0.5494277477264404,"w240":-0.1335320770740509,"w2":-0.4465877115726471,"w3":-0.24083109200000763,"w96":-0.0868012011051178,"w156":-0.8748254179954529,"w203":-0.029207324609160423,"w24":-0.4413333833217621,"w177":-0.4506177008152008,"w159":0.03860362619161606,"w232":-0.23230600357055664,"w59":-0.48246827721595764,"w223":-0.5137561559677124,"w316":-0.2620031535625458,"w176":-0.18437997996807098,"w394":-0.07662354409694672,"w260":-0.33034566044807434,"w300":1.6945068836212158,"w62":0.6625773906707764,"w299":1.1004637479782104,"w212":0.5751553177833557,"w208":0.23912450671195984,"w271":0.1405167579650879,"w209":0.4917292296886444,"w306":0.12305759638547897,"w314":0.3386147618293762,"w377":0.5182428359985352,"w166":0.06795427948236465,"w218":0.3727370500564575,"w362":0.030434636399149895,"w32":0.3874167799949646,"w33":0.3043685853481293,"w25":0.027212144806981087,"w403":0.08359216153621674,"w348":0.14747343957424164,"w217":0.3032212257385254,"w34":0.09172845631837845,"w320":0.10873444378376007,"w100":-0.30658388137817383,"w88":-0.22480502724647522,"w277":-0.1575443595647812,"w182":-0.14680616557598114,"w315":-0.23545031249523163,"w129":-0.2389659285545349,"w242":0.41879037022590637,"w311":0.23010915517807007,"w73":0.2198089212179184,"w312":0.455584317445755,"w233":0.33623912930488586,"w401":0.3250437378883362,"w123":-0.47947725653648376,"w37":-0.2563941180706024,"w322":0.6742240786552429,"w267":0.6443417072296143,"w291":0.5591068267822266,"w292":0.3505741357803345,"w261":0.6812069416046143,"w214":0.7585496306419373,"w243":0.19589249789714813,"w80":0.2696227729320526,"w268":0.12112129479646683,"w310":0.398802787065506,"w309":-0.05596790090203285,"w275":-0.09346748143434525,"w332":-0.11622927337884903,"w288":0.06889218091964722,"w283":-0.03586368262767792,"w97":0.011179419234395027,"w69":-0.10210973024368286,"w257":0.5680369734764099,"w60":0.40376943349838257,"w304":0.4810890257358551,"w114":0.4233766496181488,"w109":0.1006724089384079,"w75":-0.06695693731307983,"w341":0.19806326925754547,"w251":0.1677093207836151,"w119":0.1654490828514099,"w249":-0.04496355354785919,"w95":-0.02352968417108059,"w61":-0.16701802611351013,"w128":0.11712120473384857,"w392":0.07113476097583771,"w10":0.22004656493663788,"w281":-0.1578298658132553,"w89":-0.09162934869527817,"w286":0.15962442755699158,"w107":0.17826847732067108,"w357":0.0815497487783432,"w276":0.09221167117357254,"w213":-0.056698255240917206,"w287":-0.21489503979682922,"w263":0.045918721705675125,"w252":0.09475268423557281,"w70":-0.04393854737281799,"w115":0.06780778616666794,"w236":0.1472974419593811,"w211":-0.42430195212364197,"w116":0.0070321522653102875,"w266":-0.13379482924938202,"w81":-0.04338157922029495}},"5":{"bias":0.12139571458101273,"weights":{"w264":0.8197758197784424,"w385":-0.8369948267936707,"w136":0.18731069564819336,"w77":0.23548997938632965,"w133":0.4385291635990143,"w375":0.2614514231681824,"w27":0.006278599612414837,"w273":0.03609083592891693,"w396":-0.48034167289733887,"w72":-0.022933119907975197,"w20":0.04902549833059311,"w53":0.25307366251945496,"w19":0.18828436732292175,"w313":-0.8728959560394287,"w118":-0.09994841367006302,"w110":-0.1406659483909607,"w167":-0.0031441310420632362,"w365":-0.1033053994178772,"w131":-0.046037815511226654,"w192":1.1229884624481201,"w185":0.1080034151673317,"w191":0.37724030017852783,"w402":-0.134884312748909,"w331":-0.03786958009004593,"w210":-0.19253182411193848,"w132":-0.019550640136003494,"w184":0.24006234109401703,"w389":-0.13023881614208221,"w384":-0.04358964413404465,"w250":-0.10581261664628983,"w160":-0.2690586745738983,"w163":-0.08786547929048538,"w380":-0.09567487239837646,"w104":-0.1715194135904312,"w198":-0.04412142187356949,"w399":0.6382912397384644,"w207":0.5241182446479797,"w93":-0.0436231829226017,"w67":-0.1754758059978485,"w66":0.2819788157939911,"w321":-0.1935388594865799,"w400":0.23069244623184204,"w301":-1.4242156744003296,"w241":-1.2171735763549805,"w272":-1.0748118162155151,"w318":-0.6972870826721191,"w338":-0.13566692173480988,"w289":-0.1627502590417862,"w215":-1.5253217220306396,"w369":0.533009946346283,"w122":0.14186343550682068,"w374":-0.6160595417022705,"w117":-0.629702627658844,"w76":-0.3627530634403229,"w364":-0.49697089195251465,"w82":0.2544568181037903,"w307":-0.26133549213409424,"w228":0.2210618257522583,"w358":-0.7893787026405334,"w376":-0.565118670463562,"w319":-0.431226521730423,"w363":0.05443931743502617,"w373":-0.21889938414096832,"w269":-1.0372810363769531,"w92":-0.6161583662033081,"w124":-0.7542237043380737,"w91":-0.1662314385175705,"w229":-0.8391287326812744,"w190":-0.7914450764656067,"w74":-0.07252322137355804,"w54":-0.18714198470115662,"w41":0.0439605675637722,"w333":-0.21647146344184875,"w293":-0.04206755384802818,"w390":-0.6943617463111877,"w387":-0.19502079486846924,"w339":-0.16756989061832428,"w9":-0.7706189751625061,"w398":-0.39844194054603577,"w359":-0.3979630172252655,"w186":-0.318586140871048,"w157":-0.07385022193193436,"w200":-0.10579316318035126,"w296":-0.025409717112779617,"w360":-0.44220632314682007,"w244":-0.4663490653038025,"w140":0.08166763931512833,"w397":-0.32020553946495056,"w248":-0.6076452136039734,"w21":-0.5366772413253784,"w169":-0.22604602575302124,"w221":-0.04858200252056122,"w361":-0.2414189577102661,"w195":-0.4662914276123047,"w40":-0.1641838550567627,"w290":-0.3356338441371918,"w282":-0.4826142191886902,"w187":0.049803365021944046,"w29":0.09542082995176315,"w43":0.229230135679245,"w149":0.07383594661951065,"w79":-0.06181614100933075,"w220":0.03813749924302101,"w64":0.19702613353729248,"w295":0.15205535292625427,"w111":-0.07799916714429855,"w239":-0.08783738315105438,"w303":0.040137454867362976,"w285":0.6913220286369324,"w284":0.7426591515541077,"w83":0.14787061512470245,"w202":-0.23214727640151978,"w393":0.2572302222251892,"w94":0.5237568020820618,"w39":0.13737978041172028,"w15":0.8937736749649048,"w378":-0.13653646409511566,"w324":0.3375493288040161,"w372":0.2193404883146286,"w172":0.4682372510433197,"w354":0.13859936594963074,"w356":-0.23525165021419525,"w345":0.014132513664662838,"w298":0.4597281217575073,"w155":0.11579680442810059,"w105":-0.13560505211353302,"w49":0.8647657632827759,"w170":0.11702268570661545,"w224":0.06597336381673813,"w18":0.15131796896457672,"w137":0.3131396770477295,"w134":0.26490503549575806,"w175":-0.6274360418319702,"w386":-0.21148468554019928,"w99":-0.15157221257686615,"w254":0.1481933295726776,"w391":-0.10001559555530548,"w36":0.20001518726348877,"w11":-0.0018379698740318418,"w305":-0.1748652160167694,"w45":0.26436176896095276,"w48":0.23028765618801117,"w12":0.18362921476364136,"w183":-0.055691320449113846,"w26":-0.05653487890958786,"w323":-0.25242847204208374,"w102":-0.11335895210504532,"w371":-0.21109332144260406,"w164":-0.2974914610385895,"w325":-0.10253603011369705,"w46":-0.13730815052986145,"w265":-0.005380090791732073,"w44":-0.40311047434806824,"w199":-0.037642303854227066,"w245":-0.5036864876747131,"w7":0.1539706140756607,"w130":-0.008413947187364101,"w17":-0.5241196155548096,"w51":-0.019138548523187637,"w165":0.04578457027673721,"w258":-0.2530900537967682,"w50":0.49380916357040405,"w278":-0.19327346980571747,"w158":-0.43942204117774963,"w226":0.229886993765831,"w5":0.02949979528784752,"w106":-0.30429360270500183,"w168":-0.264823853969574,"w351":-0.24717110395431519,"w294":-0.6969918608665466,"w113":-0.7415370345115662,"w219":-0.5035231113433838,"w256":-0.7473856806755066,"w101":-0.7369744181632996,"w234":-0.31634050607681274,"w189":-0.6553390026092529,"w112":-0.12318675965070724,"w201":-0.009835362434387207,"w368":-0.4669603407382965,"w142":0.27174142003059387,"w98":-0.2731950879096985,"w193":0.24184706807136536,"w146":1.1344727277755737,"w152":1.0708726644515991,"w150":1.0018126964569092,"w55":0.30941805243492126,"w235":0.5901874899864197,"w108":0.4634454846382141,"w255":0.1992880254983902,"w14":0.21225358545780182,"w388":0.304807186126709,"w395":0.7855827212333679,"w138":0.8038051724433899,"w23":0.25855711102485657,"w121":0.27251821756362915,"w86":0.3327374756336212,"w247":0.8485954403877258,"w246":0.6683034896850586,"w139":1.3350927829742432,"w181":1.0891255140304565,"w174":0.3231275975704193,"w22":0.7922878265380859,"w47":0.7085883021354675,"w56":-0.055187877267599106,"w382":0.7002684473991394,"w330":0.8186294436454773,"w148":0.705572783946991,"w153":0.8026672601699829,"w147":0.8141937255859375,"w151":0.7326475381851196,"w154":0.5336739420890808,"w237":0.18346720933914185,"w127":0.40161168575286865,"w329":0.7978451251983643,"w326":0.6958472728729248,"w57":-1.3844395875930786,"w135":-1.162346601486206,"w302":-0.8444675803184509,"w204":-0.07497725635766983,"w334":-0.010277275927364826,"w63":-0.9396151304244995,"w336":-0.8641356229782104,"w16":-0.8887964487075806,"w270":-0.609462559223175,"w230":-0.5053354501724243,"w68":0.06104910001158714,"w262":-0.05623384192585945,"w259":-0.08366891741752625,"w65":-0.2677968144416809,"w28":-0.05438477173447609,"w231":-0.20965075492858887,"w141":0.3153456449508667,"w343":0.12154664099216461,"w344":-0.19547133147716522,"w90":-0.30540114641189575,"w308":-0.36093267798423767,"w216":0.006811786908656359,"w238":0.19210149347782135,"w346":-0.16772156953811646,"w347":-0.1923350840806961,"w366":-0.19654180109500885,"w349":-0.21835964918136597,"w350":1.8796278238296509,"w171":-0.11403170228004456,"w84":0.1437765210866928,"w162":0.46573731303215027,"w8":0.2631075382232666,"w196":0.4746072590351105,"w38":0.5621410012245178,"w381":0.5437396168708801,"w297":0.6979596614837646,"w71":0.22817017138004303,"w42":0.014778140932321548,"w126":0.08346613496541977,"w367":0.7746172547340393,"w353":-0.317508727312088,"w85":-1.470394253730774,"w6":-0.2591754198074341,"w194":-0.052674371749162674,"w335":-1.27397620677948,"w352":-0.05906098335981369,"w383":-0.635923445224762,"w370":-0.13596521317958832,"w161":0.033413421362638474,"w120":0.2202802449464798,"w225":-0.3039872646331787,"w180":0.1331528127193451,"w179":0.3123605251312256,"w35":-0.08450423926115036,"w280":-0.3325027525424957,"w30":-0.13852334022521973,"w279":-0.2209922820329666,"w340":-0.13307827711105347,"w197":-0.25109484791755676,"w125":-0.19876950979232788,"w342":-0.06705820560455322,"w87":-0.09934595972299576,"w173":0.06247565895318985,"w178":1.14525306224823,"w222":0.3509213924407959,"w206":0.2852998673915863,"w317":0.4359095096588135,"w328":0.11108851432800293,"w143":0.6920507550239563,"w78":0.6302135586738586,"w227":0.6757051944732666,"w327":0.16729310154914856,"w144":0.08152028918266296,"w379":0.03848998248577118,"w31":-0.08688613772392273,"w253":-2.275691032409668,"w188":-1.7746467590332031,"w355":-0.8051069378852844,"w145":-0.9255276322364807,"w52":0.027585972100496292,"w337":-0.17427267134189606,"w205":-0.07317646592855453,"w103":-0.23678931593894958,"w58":0.2019677311182022,"w1":0.2588224411010742,"w274":0.42147013545036316,"w13":0.04826173931360245,"w4":0.16584375500679016,"w0":0.13004116714000702,"w240":0.18728137016296387,"w2":0.05892776697874069,"w3":0.15668120980262756,"w96":-0.19471891224384308,"w156":0.2518905997276306,"w203":0.1865515410900116,"w24":0.1383705586194992,"w177":0.02831553854048252,"w159":0.26698699593544006,"w232":0.04836335405707359,"w59":0.24751229584217072,"w223":0.2534502148628235,"w316":-0.06546015292406082,"w176":0.1887386441230774,"w394":0.1081819012761116,"w260":0.188762366771698,"w300":1.5128390789031982,"w62":0.873891294002533,"w299":0.10044333338737488,"w212":0.762745201587677,"w208":0.16995128989219666,"w271":0.3579619526863098,"w209":0.08450475335121155,"w306":0.1595020741224289,"w314":0.6244690418243408,"w377":-0.14594405889511108,"w166":0.5330937504768372,"w218":0.36387667059898376,"w362":-0.15269678831100464,"w32":0.5238481760025024,"w33":0.5865249037742615,"w25":-0.17544615268707275,"w403":0.5915278792381287,"w348":-0.25001487135887146,"w217":0.5130738615989685,"w34":0.6281838417053223,"w320":-0.272030770778656,"w100":-0.6497403979301453,"w88":-0.7699469923973083,"w277":-1.0051681995391846,"w182":-0.7109035849571228,"w315":-0.600658118724823,"w129":-0.620921790599823,"w242":-0.14027605950832367,"w311":-0.3384993374347687,"w73":-0.08133881539106369,"w312":-0.16696394979953766,"w233":0.09075742959976196,"w401":0.2209029644727707,"w123":-0.9306935667991638,"w37":-0.10193146020174026,"w322":0.4094880223274231,"w267":0.1772717535495758,"w291":0.05467994883656502,"w292":0.031121492385864258,"w261":-0.16807608306407928,"w214":-0.5107494592666626,"w243":0.15392960608005524,"w80":-0.35098472237586975,"w268":-0.262874037027359,"w310":-0.26578521728515625,"w309":-0.037615835666656494,"w275":-0.17823798954486847,"w332":-0.3104570209980011,"w288":-1.1200175285339355,"w283":-1.069244623184204,"w97":-0.480394184589386,"w69":-0.4126524031162262,"w257":0.6738532185554504,"w60":0.6278076171875,"w304":0.6851553320884705,"w114":-0.13789191842079163,"w109":0.46578022837638855,"w75":0.3768503665924072,"w341":0.23690205812454224,"w251":-0.13959448039531708,"w119":-0.14616231620311737,"w249":-0.05069522187113762,"w95":-0.18747812509536743,"w61":0.08059746026992798,"w128":-0.013418670743703842,"w392":0.12182953953742981,"w10":0.1842714548110962,"w281":0.0392124317586422,"w89":0.10419366508722305,"w286":-0.08519945293664932,"w107":0.13014338910579681,"w357":-0.19997525215148926,"w276":0.2762714922428131,"w213":-0.21429017186164856,"w287":-0.10042556375265121,"w263":-0.053227636963129044,"w252":-0.1545584350824356,"w70":-0.17603643238544464,"w115":-0.12658044695854187,"w236":-0.21357759833335876,"w211":-0.2787810266017914,"w116":-0.2389088273048401,"w266":-0.20397433638572693,"w81":-0.30922931432724}},"6":{"bias":0.11924149841070175,"weights":{"w264":-0.5749639868736267,"w385":-1.2796279191970825,"w136":-0.6367403864860535,"w77":-0.14251774549484253,"w133":-0.2114902287721634,"w375":-0.2393990457057953,"w27":-0.02598586305975914,"w273":-0.1295344978570938,"w396":-0.4753757119178772,"w72":-0.3022165596485138,"w20":-0.04024381563067436,"w53":-0.08118585497140884,"w19":0.09973715245723724,"w313":-0.8136325478553772,"w118":0.016353348270058632,"w110":0.05365166440606117,"w167":-0.05198286846280098,"w365":0.005323281977325678,"w131":-0.16115811467170715,"w192":-0.09419135004281998,"w185":0.02097390964627266,"w191":0.08527121692895889,"w402":-0.08881769329309464,"w331":0.20944435894489288,"w210":-0.27709564566612244,"w132":-0.1981515884399414,"w184":0.34959521889686584,"w389":-0.2386074662208557,"w384":0.10793568193912506,"w250":-0.09256643801927567,"w160":-0.2936786413192749,"w163":0.03600890561938286,"w380":-0.37986382842063904,"w104":-0.1399717628955841,"w198":-0.19986945390701294,"w399":2.3641350269317627,"w207":-0.02943713404238224,"w93":0.04837551340460777,"w67":-0.2961028218269348,"w66":0.18130651116371155,"w321":-0.38939109444618225,"w400":1.4024056196212769,"w301":0.300222247838974,"w241":-0.4352669417858124,"w272":-0.6027581691741943,"w318":0.31093770265579224,"w338":-0.12579844892024994,"w289":0.06869472563266754,"w215":1.0290316343307495,"w369":-0.5235196948051453,"w122":0.26084423065185547,"w374":0.23038837313652039,"w117":0.30445414781570435,"w76":0.3461039662361145,"w364":0.14208035171031952,"w82":0.02977725863456726,"w307":-0.08318767696619034,"w228":0.15617384016513824,"w358":0.30613434314727783,"w376":-0.03458736836910248,"w319":-0.15436850488185883,"w363":-0.14276717603206635,"w373":0.012545780278742313,"w269":0.18576738238334656,"w92":0.13729090988636017,"w124":0.08269885182380676,"w91":0.12587060034275055,"w229":0.4829028248786926,"w190":0.18528546392917633,"w74":0.2160719484090805,"w54":-0.2617146670818329,"w41":0.1898510754108429,"w333":-0.22270776331424713,"w293":-0.3489770293235779,"w390":-1.0091688632965088,"w387":-0.7974215745925903,"w339":-0.5900270342826843,"w9":0.03914359584450722,"w398":-0.4379095733165741,"w359":0.23237629234790802,"w186":-0.4254646301269531,"w157":-0.2675628364086151,"w200":-0.613743007183075,"w296":0.5817260146141052,"w360":-0.05952105671167374,"w244":0.062168706208467484,"w140":0.44096648693084717,"w397":-0.29725968837738037,"w248":-0.3746401071548462,"w21":-0.15235461294651031,"w169":-0.18670092523097992,"w221":0.011515217833220959,"w361":-0.15740938484668732,"w195":-0.21481099724769592,"w40":-0.3635169565677643,"w290":-0.3957069516181946,"w282":-0.44269049167633057,"w187":-0.43904584646224976,"w29":-0.2527923583984375,"w43":-0.4992240369319916,"w149":0.8267223238945007,"w79":0.9570246934890747,"w220":0.6567743420600891,"w64":-0.1311843991279602,"w295":0.8578433990478516,"w111":0.7232373952865601,"w239":0.18541018664836884,"w303":0.10325630009174347,"w285":1.3412972688674927,"w284":1.0684881210327148,"w83":0.20117144286632538,"w202":0.05119048431515694,"w393":0.5794038772583008,"w94":0.5827308893203735,"w39":0.033018000423908234,"w15":-0.02466452866792679,"w378":0.22781723737716675,"w324":-0.08864342421293259,"w372":-0.06178683415055275,"w172":0.019412267953157425,"w354":0.11330407857894897,"w356":0.4696562588214874,"w345":0.06939936429262161,"w298":0.3186524212360382,"w155":0.06284533441066742,"w105":0.07310697436332703,"w49":-0.2286604940891266,"w170":0.479342520236969,"w224":0.44197607040405273,"w18":0.06755734980106354,"w137":-0.2192995399236679,"w134":-0.4125332534313202,"w175":0.31054455041885376,"w386":0.09677071869373322,"w99":-0.16982892155647278,"w254":0.003724746871739626,"w391":0.074713796377182,"w36":0.24410268664360046,"w11":-0.007803462911397219,"w305":0.11386804282665253,"w45":0.011835293844342232,"w48":-0.1588304489850998,"w12":-0.061613764613866806,"w183":0.28376418352127075,"w26":-0.13600404560565948,"w323":0.5153990387916565,"w102":0.5605742931365967,"w371":0.5532998442649841,"w164":0.5315973162651062,"w325":0.4818044602870941,"w46":0.4484371840953827,"w265":0.9861917495727539,"w44":0.5973235368728638,"w199":0.18454311788082123,"w245":0.30816221237182617,"w7":0.13334393501281738,"w130":0.3238019049167633,"w17":0.19407859444618225,"w51":-0.0650358721613884,"w165":0.15974541008472443,"w258":-0.10251086205244064,"w50":-0.014060602523386478,"w278":0.38013893365859985,"w158":0.04552437365055084,"w226":0.016817033290863037,"w5":0.0972527265548706,"w106":-0.07741803675889969,"w168":0.12445252388715744,"w351":-0.056865375488996506,"w294":0.2965083122253418,"w113":0.508200466632843,"w219":0.024150844663381577,"w256":0.46984997391700745,"w101":0.2122730165719986,"w234":0.1216220110654831,"w189":0.28763270378112793,"w112":0.14525531232357025,"w201":-0.05598241463303566,"w368":0.13521866500377655,"w142":0.06880193203687668,"w98":-0.12274150550365448,"w193":0.0010801973985508084,"w146":-1.3299267292022705,"w152":-1.2683415412902832,"w150":-1.2219061851501465,"w55":-0.09867748618125916,"w235":-0.7360515594482422,"w108":-0.6951213479042053,"w255":-0.2998828887939453,"w14":-0.35050123929977417,"w388":-0.5045280456542969,"w395":-0.8518390655517578,"w138":-0.879797101020813,"w23":-0.3257887661457062,"w121":-0.14427146315574646,"w86":-0.27748996019363403,"w247":-0.9078283905982971,"w246":-0.8006495237350464,"w139":-0.5043795108795166,"w181":-0.8514869213104248,"w174":-0.1292438805103302,"w22":-0.7051621079444885,"w47":-0.7670056819915771,"w56":-0.02197718247771263,"w382":-0.6876916885375977,"w330":-0.5655044317245483,"w148":-0.6382289528846741,"w153":-0.8051725625991821,"w147":-0.663442075252533,"w151":-0.7560202479362488,"w154":-0.7066197395324707,"w237":-0.24980232119560242,"w127":-0.3518945276737213,"w329":-0.6677998304367065,"w326":-0.646350085735321,"w57":1.1344101428985596,"w135":1.1403193473815918,"w302":0.8417031764984131,"w204":0.142666295170784,"w334":0.25504618883132935,"w63":0.8818215727806091,"w336":1.0647823810577393,"w16":1.0765399932861328,"w270":0.6850959658622742,"w230":0.3689555823802948,"w68":-0.05196152627468109,"w262":-0.10920890420675278,"w259":-0.13821075856685638,"w65":-0.026592710986733437,"w28":0.28180816769599915,"w231":0.4532225728034973,"w141":-0.26964089274406433,"w343":1.0987141132354736,"w344":1.1904487609863281,"w90":0.9691857695579529,"w308":0.8508786559104919,"w216":-0.08834461122751236,"w238":0.08145496249198914,"w346":0.9299161434173584,"w347":0.9577983617782593,"w366":0.9796027541160583,"w349":1.0639957189559937,"w350":-1.4813412427902222,"w171":-0.19587454199790955,"w84":-0.17014828324317932,"w162":-0.43637615442276,"w8":0.09069792181253433,"w196":-0.4238634407520294,"w38":-0.4357128441333771,"w381":-0.30911535024642944,"w297":-0.31316038966178894,"w71":-0.5881351828575134,"w42":-0.4093850255012512,"w126":0.05089908465743065,"w367":-0.2080848217010498,"w353":-0.49743473529815674,"w85":-1.3077402114868164,"w6":-0.45103877782821655,"w194":0.08475417643785477,"w335":-0.9303306937217712,"w352":-0.2352341264486313,"w383":-1.685561180114746,"w370":-0.3111574351787567,"w161":-0.10976237058639526,"w120":-0.21167302131652832,"w225":-1.2731431722640991,"w180":-0.49149370193481445,"w179":-0.28312525153160095,"w35":-0.1799871027469635,"w280":-1.0110809803009033,"w30":-0.5532572865486145,"w279":-0.7120935320854187,"w340":-0.959532618522644,"w197":-0.8539997339248657,"w125":-0.27982276678085327,"w342":-0.3258025348186493,"w87":-0.12049633264541626,"w173":-0.2793821096420288,"w178":0.5483734607696533,"w222":0.34533795714378357,"w206":-0.051927171647548676,"w317":-0.1921127289533615,"w328":-0.4293915927410126,"w143":0.12635280191898346,"w78":0.3321254253387451,"w227":0.48217466473579407,"w327":0.0046030012890696526,"w144":-0.08531182259321213,"w379":0.2884253263473511,"w31":0.04946387931704521,"w253":-0.15896430611610413,"w188":0.0036037969402968884,"w355":-0.21136948466300964,"w145":-0.019030144438147545,"w52":-0.2971806526184082,"w337":-0.2979213297367096,"w205":-0.2542474865913391,"w103":0.11307337135076523,"w58":-0.2308322638273239,"w1":-0.026208972558379173,"w274":0.32223767042160034,"w13":-0.004915202036499977,"w4":-0.08313857764005661,"w0":-0.1567390263080597,"w240":-0.05258717015385628,"w2":-0.12604209780693054,"w3":-0.14898112416267395,"w96":-0.10608096420764923,"w156":-0.23518680036067963,"w203":0.17558342218399048,"w24":-0.12416115403175354,"w177":0.08289968967437744,"w159":0.10794296115636826,"w232":0.17545826733112335,"w59":-0.4833715558052063,"w223":-0.2634740471839905,"w316":-0.0789719671010971,"w176":-0.013855959288775921,"w394":-0.2440994530916214,"w260":0.09469431638717651,"w300":1.0325345993041992,"w62":0.23988044261932373,"w299":0.9986347556114197,"w212":0.17431899905204773,"w208":0.2616901099681854,"w271":-0.141808420419693,"w209":0.4468608498573303,"w306":-0.06766508519649506,"w314":0.23325835168361664,"w377":0.3733581006526947,"w166":-0.5577563047409058,"w218":0.018941838294267654,"w362":-0.05442965775728226,"w32":-0.4820184111595154,"w33":-0.2750709652900696,"w25":0.22723388671875,"w403":-0.4114685356616974,"w348":0.2662629783153534,"w217":-0.18158946931362152,"w34":-0.1693764626979828,"w320":0.38616234064102173,"w100":0.49328213930130005,"w88":0.4015085697174072,"w277":0.8474588394165039,"w182":0.6286845207214355,"w315":0.6362250447273254,"w129":0.47554534673690796,"w242":0.6943564414978027,"w311":0.44375792145729065,"w73":0.5110169649124146,"w312":0.44132888317108154,"w233":0.33145424723625183,"w401":0.008006168529391289,"w123":-0.34400567412376404,"w37":-0.48283225297927856,"w322":0.7308750152587891,"w267":0.46563273668289185,"w291":0.39102649688720703,"w292":0.37606674432754517,"w261":0.6823615431785583,"w214":1.1251856088638306,"w243":0.21787002682685852,"w80":0.1417776197195053,"w268":-0.07004308700561523,"w310":0.1909576803445816,"w309":-0.18936146795749664,"w275":-0.007425307761877775,"w332":0.0353948250412941,"w288":0.46376556158065796,"w283":0.30780115723609924,"w97":0.12661443650722504,"w69":0.08447085320949554,"w257":0.3097230792045593,"w60":0.48933303356170654,"w304":0.28784385323524475,"w114":-0.1714639961719513,"w109":0.15461638569831848,"w75":0.24384497106075287,"w341":0.17421525716781616,"w251":0.08536352962255478,"w119":0.07251176983118057,"w249":-0.012245581485331059,"w95":0.05233914032578468,"w61":-0.08431019634008408,"w128":0.05631115660071373,"w392":0.11941453814506531,"w10":-0.12337496876716614,"w281":0.17145147919654846,"w89":0.052163321524858475,"w286":0.03448023647069931,"w107":0.01839115284383297,"w357":0.03495090827345848,"w276":-0.7209755182266235,"w213":-0.07719928026199341,"w287":-0.1010008156299591,"w263":-0.20645233988761902,"w252":0.002805605297908187,"w70":-0.14346429705619812,"w115":0.0014393575256690383,"w236":-0.14690126478672028,"w211":0.0925183817744255,"w116":0.035865381360054016,"w266":-0.13424772024154663,"w81":-0.08741596341133118}},"7":{"bias":-0.19596923887729645,"weights":{"w264":-0.9703176021575928,"w385":-0.6749567985534668,"w136":0.2545001804828644,"w77":-0.21698155999183655,"w133":-0.4112059473991394,"w375":-0.5605558753013611,"w27":-0.04992667958140373,"w273":-0.037216756492853165,"w396":-0.004161897115409374,"w72":0.20341983437538147,"w20":0.10995089262723923,"w53":-0.13448293507099152,"w19":-0.3780488073825836,"w313":0.1367739886045456,"w118":-0.21957997977733612,"w110":-0.04607020318508148,"w167":-0.09639567881822586,"w365":-0.33285945653915405,"w131":-0.08683338016271591,"w192":-0.555627703666687,"w185":-0.03533565625548363,"w191":-0.4658071994781494,"w402":0.050995051860809326,"w331":-0.25875693559646606,"w210":-0.06893347203731537,"w132":-0.1267371028661728,"w184":-0.0338067002594471,"w389":0.12089129537343979,"w384":0.16345609724521637,"w250":-0.03396168351173401,"w160":0.04227840155363083,"w163":-0.1330828070640564,"w380":-0.22242876887321472,"w104":0.08861958980560303,"w198":0.14393281936645508,"w399":-0.41777756810188293,"w207":-0.715385913848877,"w93":-0.3099418580532074,"w67":-0.06304934620857239,"w66":-0.3689747154712677,"w321":-0.16573765873908997,"w400":-0.15817177295684814,"w301":0.8599828481674194,"w241":1.7714768648147583,"w272":0.41753047704696655,"w318":0.5536781549453735,"w338":-0.01853085309267044,"w289":0.14222782850265503,"w215":0.3731559216976166,"w369":-0.2057073563337326,"w122":0.2516206204891205,"w374":0.3787139058113098,"w117":0.08577864617109299,"w76":0.24689295887947083,"w364":0.11697835475206375,"w82":0.039009176194667816,"w307":0.21694928407669067,"w228":0.17501315474510193,"w358":0.37482649087905884,"w376":0.4293850064277649,"w319":0.5839812159538269,"w363":-0.08891434222459793,"w373":-0.046394459903240204,"w269":0.6756313443183899,"w92":0.21679678559303284,"w124":0.5968184471130371,"w91":0.3136790990829468,"w229":0.31955403089523315,"w190":0.3952651917934418,"w74":-0.20596320927143097,"w54":0.09926833212375641,"w41":0.41308388113975525,"w333":0.1622312068939209,"w293":0.0112236849963665,"w390":0.3793414235115051,"w387":0.30511197447776794,"w339":0.38172221183776855,"w9":-0.007024527061730623,"w398":0.04084058105945587,"w359":0.18652307987213135,"w186":0.3355008661746979,"w157":0.06442678719758987,"w200":0.6106720566749573,"w296":-0.08591052889823914,"w360":-0.01574631966650486,"w244":-0.1204700618982315,"w140":-0.05430838093161583,"w397":-0.18021713197231293,"w248":0.7494719624519348,"w21":-0.013522637076675892,"w169":0.003553866408765316,"w221":-0.07430395483970642,"w361":0.0037336046807467937,"w195":0.29813069105148315,"w40":-0.005039258394390345,"w290":0.18090808391571045,"w282":0.18991845846176147,"w187":-0.10906809568405151,"w29":-0.062012966722249985,"w43":0.5767602920532227,"w149":-0.0061646439135074615,"w79":-0.12924256920814514,"w220":-0.007645467761904001,"w64":0.06384529173374176,"w295":-0.08691217750310898,"w111":-0.22580909729003906,"w239":0.09980002790689468,"w303":-0.34844648838043213,"w285":-0.832427978515625,"w284":-0.5195328593254089,"w83":-0.06434949487447739,"w202":-0.014377998188138008,"w393":-0.11183296889066696,"w94":-0.20616570115089417,"w39":0.17146311700344086,"w15":-0.38767871260643005,"w378":-0.11831635236740112,"w324":-0.19065046310424805,"w372":-0.20044802129268646,"w172":-0.07966592907905579,"w354":0.09485651552677155,"w356":-0.023942669853568077,"w345":0.022308774292469025,"w298":0.05788092687726021,"w155":-0.10747037827968597,"w105":0.11197207123041153,"w49":0.024555295705795288,"w170":-0.18724845349788666,"w224":-0.0672723650932312,"w18":-0.29461610317230225,"w137":-0.19962243735790253,"w134":0.18524250388145447,"w175":-0.21340645849704742,"w386":-0.3121796250343323,"w99":-0.016156291589140892,"w254":0.03258160874247551,"w391":-0.1666698455810547,"w36":-0.18960589170455933,"w11":-0.32106921076774597,"w305":-0.17615248262882233,"w45":-0.1396608054637909,"w48":-0.26743975281715393,"w12":-0.06474553048610687,"w183":-0.023791711777448654,"w26":-0.3121502995491028,"w323":-0.4865792691707611,"w102":-0.25311997532844543,"w371":-0.3852856457233429,"w164":-0.3029967248439789,"w325":-0.38598546385765076,"w46":-0.3760213553905487,"w265":-0.48611775040626526,"w44":-0.30657872557640076,"w199":-0.15450266003608704,"w245":-0.10551557689905167,"w7":-0.37154659628868103,"w130":-0.09233736246824265,"w17":0.06676772236824036,"w51":-0.19603119790554047,"w165":0.045576903969049454,"w258":0.038467586040496826,"w50":-0.23196865618228912,"w278":0.033665526658296585,"w158":-0.2694166302680969,"w226":-0.24594071507453918,"w5":-0.05844420567154884,"w106":0.049996476620435715,"w168":-0.2298031598329544,"w351":-0.14430034160614014,"w294":-0.4897499084472656,"w113":-0.25601926445961,"w219":-0.29717254638671875,"w256":-0.20686163008213043,"w101":-0.10926312953233719,"w234":-0.25615331530570984,"w189":-0.16534075140953064,"w112":-0.1743861436843872,"w201":-0.15397858619689941,"w368":0.014451995491981506,"w142":0.15420028567314148,"w98":0.07108540832996368,"w193":-0.08503176271915436,"w146":0.05130104720592499,"w152":0.19724172353744507,"w150":0.21784226596355438,"w55":0.21420925855636597,"w235":-0.10750448703765869,"w108":0.1781967133283615,"w255":0.15237028896808624,"w14":-0.049144286662340164,"w388":0.0014105570735409856,"w395":-0.008395115844905376,"w138":0.20108447968959808,"w23":0.06639882177114487,"w121":0.20288677513599396,"w86":0.014010261744260788,"w247":0.3115045130252838,"w246":-0.052417028695344925,"w139":-0.09572525322437286,"w181":0.20655901730060577,"w174":0.2708558738231659,"w22":0.059760402888059616,"w47":-0.09660584479570389,"w56":0.29529905319213867,"w382":0.20405131578445435,"w330":-0.019382111728191376,"w148":0.1973859816789627,"w153":-0.057076502591371536,"w147":0.017534103244543076,"w151":0.08633459359407425,"w154":-0.136769637465477,"w237":0.1314508467912674,"w127":0.21514248847961426,"w329":0.003457828890532255,"w326":0.1276249885559082,"w57":0.43705928325653076,"w135":0.110052689909935,"w302":-0.09824289381504059,"w204":0.13415256142616272,"w334":-0.13659638166427612,"w63":0.20867495238780975,"w336":-0.0971270203590393,"w16":-0.049452878534793854,"w270":-0.05156902223825455,"w230":0.08700475841760635,"w68":0.015118163079023361,"w262":0.04543980956077576,"w259":0.13437730073928833,"w65":0.09092968702316284,"w28":-0.01963108405470848,"w231":-0.007734962273389101,"w141":0.1739136427640915,"w343":-0.5473037362098694,"w344":-0.7488027215003967,"w90":-0.6111449003219604,"w308":-0.37688758969306946,"w216":0.003505728440359235,"w238":-0.0711728036403656,"w346":-0.5672779083251953,"w347":-0.5024044513702393,"w366":-0.2975148558616638,"w349":-0.5520020127296448,"w350":1.1751394271850586,"w171":0.15716007351875305,"w84":0.24413347244262695,"w162":0.30487561225891113,"w8":0.04022163897752762,"w196":0.5109120607376099,"w38":0.4957902431488037,"w381":0.1706693321466446,"w297":0.39472463726997375,"w71":0.29062211513519287,"w42":0.3907369077205658,"w126":0.11031075567007065,"w367":0.5968059301376343,"w353":0.3093259632587433,"w85":0.9162624478340149,"w6":0.3134163022041321,"w194":0.04516393318772316,"w335":0.5194532871246338,"w352":-0.10393422096967697,"w383":0.8683881759643555,"w370":0.3470330834388733,"w161":0.1212925836443901,"w120":0.11386456340551376,"w225":0.5735393166542053,"w180":0.2351924031972885,"w179":-0.05543413758277893,"w35":0.17944344878196716,"w280":0.4484734535217285,"w30":0.4640065133571625,"w279":0.1960820108652115,"w340":0.3961232602596283,"w197":0.5251885652542114,"w125":0.17574375867843628,"w342":-0.00990788359194994,"w87":0.13060958683490753,"w173":0.02257823385298252,"w178":-0.05065426230430603,"w222":-0.32159703969955444,"w206":-0.01483138743788004,"w317":0.08923337608575821,"w328":0.43707504868507385,"w143":0.0408751480281353,"w78":0.07324089109897614,"w227":-0.31589940190315247,"w327":-0.02280949242413044,"w144":0.03493775799870491,"w379":-0.18772010505199432,"w31":0.06879843026399612,"w253":1.126265525817871,"w188":0.5382131338119507,"w355":0.40357065200805664,"w145":0.326061487197876,"w52":0.2237081676721573,"w337":0.38954266905784607,"w205":0.2506755590438843,"w103":0.04769989475607872,"w58":-0.19574464857578278,"w1":-0.011842257343232632,"w274":-0.3760063052177429,"w13":0.12627540528774261,"w4":0.05835956707596779,"w0":0.011293129064142704,"w240":-0.1855487823486328,"w2":-0.19734840095043182,"w3":0.10037372261285782,"w96":-0.02561771310865879,"w156":0.11424921452999115,"w203":0.07639096677303314,"w24":-0.030333776026964188,"w177":0.09659013152122498,"w159":-0.15637290477752686,"w232":-0.16251643002033234,"w59":-0.03213571384549141,"w223":-0.0019443666096776724,"w316":0.21494662761688232,"w176":0.037798959761857986,"w394":-0.04416656121611595,"w260":-0.019116725772619247,"w300":-0.4369454085826874,"w62":-0.05220664292573929,"w299":-0.503472089767456,"w212":-0.11297784745693207,"w208":-0.03313608467578888,"w271":0.03176205977797508,"w209":-0.07236587256193161,"w306":-0.0555085614323616,"w314":0.015373308211565018,"w377":-0.6581094264984131,"w166":0.19086287915706635,"w218":0.2197052538394928,"w362":-0.05373385548591614,"w32":-0.016493849456310272,"w33":0.05309924855828285,"w25":0.12362992763519287,"w403":0.29828208684921265,"w348":0.04647688940167427,"w217":0.06238939240574837,"w34":0.1196746826171875,"w320":-0.20224879682064056,"w100":-0.3292897939682007,"w88":0.07590024918317795,"w277":-0.29122185707092285,"w182":-0.024287855252623558,"w315":0.07862001657485962,"w129":0.06084246560931206,"w242":-0.45337653160095215,"w311":-0.14034973084926605,"w73":-0.16222524642944336,"w312":-0.32233789563179016,"w233":-0.16392016410827637,"w401":-0.2704383134841919,"w123":1.3582234382629395,"w37":0.14538230001926422,"w322":0.17023256421089172,"w267":-0.05182322859764099,"w291":0.11442093551158905,"w292":0.02294643223285675,"w261":0.10306207835674286,"w214":-0.8235509395599365,"w243":-0.22483420372009277,"w80":0.11914494633674622,"w268":0.2634827792644501,"w310":0.07270549982786179,"w309":0.22438295185565948,"w275":-0.0391431488096714,"w332":0.24604551494121552,"w288":0.6414514183998108,"w283":0.5726668834686279,"w97":0.05295360088348389,"w69":0.26897308230400085,"w257":-0.30430060625076294,"w60":0.006906978785991669,"w304":-0.17843462526798248,"w114":0.24045053124427795,"w109":-0.3103613257408142,"w75":-0.11474847793579102,"w341":0.03236585855484009,"w251":0.06856179982423782,"w119":0.2567276656627655,"w249":0.19186751544475555,"w95":0.08526089042425156,"w61":0.11903247982263565,"w128":0.03351794555783272,"w392":0.17478734254837036,"w10":0.13641420006752014,"w281":-0.03467514365911484,"w89":-0.007383548188954592,"w286":0.18345876038074493,"w107":-0.00536400405690074,"w357":-0.12253888696432114,"w276":0.3114089071750641,"w213":0.027813328430056572,"w287":-0.01871815137565136,"w263":0.014489546418190002,"w252":0.21561545133590698,"w70":0.039372362196445465,"w115":0.00712548615410924,"w236":0.09769390523433685,"w211":0.002513835672289133,"w116":0.15444688498973846,"w266":0.11471597105264664,"w81":-0.013649258762598038}},"8":{"bias":0.08542132377624512,"weights":{"w264":-0.06632890552282333,"w385":0.7730762958526611,"w136":0.03023039735853672,"w77":0.23656438291072845,"w133":0.6249882578849792,"w375":0.6783501505851746,"w27":-0.06492053717374802,"w273":-0.045715730637311935,"w396":0.38220661878585815,"w72":-0.14457949995994568,"w20":0.2017786055803299,"w53":0.1813368797302246,"w19":0.4630432426929474,"w313":0.5414773225784302,"w118":0.7603071928024292,"w110":0.5572994947433472,"w167":0.37655773758888245,"w365":0.4400635361671448,"w131":0.2453039139509201,"w192":0.2454332709312439,"w185":0.05763564258813858,"w191":0.47282323241233826,"w402":0.2935219407081604,"w331":0.145160973072052,"w210":0.0591118223965168,"w132":0.3685520589351654,"w184":-0.0866062343120575,"w389":0.007889711298048496,"w384":-0.020179666578769684,"w250":0.33788543939590454,"w160":0.3211178183555603,"w163":0.04790448024868965,"w380":0.08389922231435776,"w104":-0.014227641746401787,"w198":0.07304611057043076,"w399":-2.2837507724761963,"w207":0.7666816711425781,"w93":0.2873261570930481,"w67":0.6519935131072998,"w66":0.5083975195884705,"w321":0.5252279043197632,"w400":-1.1398884057998657,"w301":-0.24902968108654022,"w241":-1.6603177785873413,"w272":-0.1266949325799942,"w318":-0.3262931704521179,"w338":-0.3082019090652466,"w289":-0.30993443727493286,"w215":0.13997994363307953,"w369":-0.6654536128044128,"w122":-0.32182231545448303,"w374":-0.23619163036346436,"w117":-0.258755087852478,"w76":-0.4700777530670166,"w364":-0.2909059524536133,"w82":-0.26626479625701904,"w307":-0.337455153465271,"w228":0.30758967995643616,"w358":-0.08537641167640686,"w376":-0.29920506477355957,"w319":-0.5088587403297424,"w363":0.012614184059202671,"w373":-0.38939186930656433,"w269":-0.9865373373031616,"w92":-0.16959957778453827,"w124":-0.6070724129676819,"w91":-0.38500863313674927,"w229":0.1518717110157013,"w190":0.07461867481470108,"w74":-0.3104316294193268,"w54":-0.10367704182863235,"w41":-0.2624673843383789,"w333":-0.0712759867310524,"w293":0.038922470062971115,"w390":0.7695761919021606,"w387":0.49895575642585754,"w339":-0.06238054111599922,"w9":0.9364231824874878,"w398":0.3351774215698242,"w359":0.5339822173118591,"w186":0.29162344336509705,"w157":0.4212799072265625,"w200":-0.14484238624572754,"w296":-0.4156702756881714,"w360":0.49385136365890503,"w244":0.4341742694377899,"w140":0.18559710681438446,"w397":0.9443506598472595,"w248":-0.1354847550392151,"w21":0.7058113217353821,"w169":0.42658042907714844,"w221":0.1302035003900528,"w361":0.5743435025215149,"w195":0.25503483414649963,"w40":0.29114431142807007,"w290":0.5113673210144043,"w282":0.34441909193992615,"w187":0.5191555023193359,"w29":0.4480072855949402,"w43":-0.19599519670009613,"w149":-0.24411754310131073,"w79":0.18782253563404083,"w220":0.19487087428569794,"w64":-0.11472621560096741,"w295":-0.05001240223646164,"w111":0.23838062584400177,"w239":0.18160973489284515,"w303":0.045723799616098404,"w285":0.2506190240383148,"w284":0.2782975733280182,"w83":0.05409221723675728,"w202":0.1158389151096344,"w393":0.2195683717727661,"w94":0.13307559490203857,"w39":0.1208774670958519,"w15":-0.23750267922878265,"w378":0.3918527662754059,"w324":0.08135983347892761,"w372":0.059067290276288986,"w172":0.12873505055904388,"w354":0.10614071041345596,"w356":0.8353974223136902,"w345":0.041477736085653305,"w298":-0.12447801977396011,"w155":0.24631695449352264,"w105":0.4074927568435669,"w49":0.012356555089354515,"w170":0.00009877233242150396,"w224":0.20739473402500153,"w18":-0.150827094912529,"w137":-0.1408374309539795,"w134":-0.4685201942920685,"w175":0.37092047929763794,"w386":0.49635377526283264,"w99":0.049954675137996674,"w254":0.14770275354385376,"w391":0.39136746525764465,"w36":0.04771028831601143,"w11":0.041370097547769547,"w305":0.3833814263343811,"w45":-0.14475443959236145,"w48":-0.06967055797576904,"w12":-0.12510442733764648,"w183":0.11016988754272461,"w26":0.449531614780426,"w323":0.5225534439086914,"w102":0.5377514362335205,"w371":0.5192269682884216,"w164":1.047010064125061,"w325":0.512657880783081,"w46":0.10863550752401352,"w265":0.7220776081085205,"w44":0.5391768217086792,"w199":0.6184731721878052,"w245":0.6723390221595764,"w7":0.056786831468343735,"w130":0.2886914610862732,"w17":0.4745997488498688,"w51":-0.22946782410144806,"w165":0.16204355657100677,"w258":0.19998528063297272,"w50":-0.3567710220813751,"w278":-0.03690040856599808,"w158":0.7836180329322815,"w226":0.23450754582881927,"w5":0.38844960927963257,"w106":0.29762446880340576,"w168":0.18717680871486664,"w351":0.586151659488678,"w294":0.5948275923728943,"w113":0.861809492111206,"w219":0.3639962077140808,"w256":0.6938660144805908,"w101":0.5021776556968689,"w234":0.20144067704677582,"w189":0.6322500705718994,"w112":0.27422797679901123,"w201":0.0927855372428894,"w368":0.426959753036499,"w142":0.2481835037469864,"w98":0.3833352327346802,"w193":0.03375692665576935,"w146":-0.6715620756149292,"w152":-0.6083402633666992,"w150":-0.786942720413208,"w55":-0.2584633231163025,"w235":-0.40215376019477844,"w108":-0.21646450459957123,"w255":-0.11360639333724976,"w14":-0.17593605816364288,"w388":-0.1627349704504013,"w395":-0.41768550872802734,"w138":-0.25247013568878174,"w23":-0.33061033487319946,"w121":-0.09337564557790756,"w86":-0.04548092186450958,"w247":-0.553533673286438,"w246":-0.2484244853258133,"w139":-0.25626054406166077,"w181":-0.6304734349250793,"w174":-0.34977272152900696,"w22":-0.23952452838420868,"w47":-0.0877096951007843,"w56":-0.0830502137541771,"w382":-0.1490962952375412,"w330":-0.36658620834350586,"w148":-0.3230089247226715,"w153":-0.4338269829750061,"w147":-0.38155388832092285,"w151":-0.11416273564100266,"w154":-0.2565724849700928,"w237":-0.03432123363018036,"w127":-0.15407951176166534,"w329":-0.376583993434906,"w326":-0.2101646512746811,"w57":-0.3260865807533264,"w135":-0.24675235152244568,"w302":-0.4919617772102356,"w204":-0.2838090658187866,"w334":-0.3304629325866699,"w63":0.25631827116012573,"w336":0.1494257003068924,"w16":0.2008076161146164,"w270":-0.09351592510938644,"w230":-0.09312599152326584,"w68":-0.02623581700026989,"w262":0.0017363775987178087,"w259":-0.10867474228143692,"w65":-0.38987234234809875,"w28":0.2765016555786133,"w231":-0.025905147194862366,"w141":-0.46575772762298584,"w343":-0.2953808009624481,"w344":0.0018173186108469963,"w90":0.2288781702518463,"w308":0.3405531942844391,"w216":-0.09184298664331436,"w238":0.06350786983966827,"w346":0.20005042850971222,"w347":0.24349622428417206,"w366":0.30945220589637756,"w349":0.006405021995306015,"w350":-2.4109461307525635,"w171":0.15033315122127533,"w84":-0.19258013367652893,"w162":-0.7494274377822876,"w8":-0.05445857718586922,"w196":-0.7997376322746277,"w38":-0.46992605924606323,"w381":-0.6848934292793274,"w297":-1.0997675657272339,"w71":-0.3106774687767029,"w42":-0.07335308194160461,"w126":-0.15017688274383545,"w367":-1.022678256034851,"w353":-0.17635869979858398,"w85":0.43872079253196716,"w6":-0.1215725764632225,"w194":-0.1327393501996994,"w335":0.6123550534248352,"w352":-0.08129739761352539,"w383":-0.20849968492984772,"w370":-0.07011453807353973,"w161":-0.10411005467176437,"w120":0.14155058562755585,"w225":0.12427015602588654,"w180":-0.03287439048290253,"w179":-0.014124572277069092,"w35":-0.039335984736680984,"w280":-0.02696654014289379,"w30":-0.11732231080532074,"w279":-0.023297136649489403,"w340":0.012713473290205002,"w197":-0.21142639219760895,"w125":-0.007093757390975952,"w342":0.11621743440628052,"w87":-0.21606455743312836,"w173":0.1317765861749649,"w178":-0.5962774157524109,"w222":0.13580095767974854,"w206":-0.35226234793663025,"w317":-0.22903850674629211,"w328":0.015121218748390675,"w143":-0.30201834440231323,"w78":-0.48024314641952515,"w227":-0.36067062616348267,"w327":-0.14450550079345703,"w144":-0.12382718920707703,"w379":-0.0022932274732738733,"w31":-0.04739862307906151,"w253":0.19458509981632233,"w188":0.3684439957141876,"w355":0.3744724690914154,"w145":0.10486139357089996,"w52":0.09444347023963928,"w337":0.016676610335707664,"w205":-0.023018572479486465,"w103":0.0930485650897026,"w58":0.9373319149017334,"w1":0.4938451051712036,"w274":0.07491717487573624,"w13":0.16394959390163422,"w4":0.23641805350780487,"w0":0.6287118196487427,"w240":0.3016030192375183,"w2":0.3252018094062805,"w3":0.4381193518638611,"w96":0.23670674860477448,"w156":0.5860762596130371,"w203":0.3180631101131439,"w24":0.13535763323307037,"w177":0.4053078293800354,"w159":0.30855122208595276,"w232":0.02072822116315365,"w59":0.5343756079673767,"w223":0.45726728439331055,"w316":0.14675183594226837,"w176":0.3683232367038727,"w394":0.16950376331806183,"w260":0.3278481662273407,"w300":-1.4169232845306396,"w62":-0.7675111889839172,"w299":-0.26816219091415405,"w212":-0.3684389591217041,"w208":-0.004858531057834625,"w271":-0.27679893374443054,"w209":-0.1976209282875061,