{"sizes":[1085,64,64,73],"layers":[{"w671":{},"w1041":{},"w367":{},"w171":{},"w360":{},"w1011":{},"w59":{},"w716":{},"w1072":{},"w162":{},"w42":{},"w121":{},"w41":{},"w851":{},"w323":{},"w305":{},"w437":{},"w982":{},"w356":{},"w493":{},"w480":{},"w491":{},"w1082":{},"w898":{},"w539":{},"w359":{},"w475":{},"w1051":{},"w1039":{},"w640":{},"w423":{},"w674":{},"w621":{},"w453":{},"w377":{},"w427":{},"w1028":{},"w278":{},"w506":{},"w1042":{},"w1040":{},"w492":{},"w862":{},"w444":{},"w699":{},"w455":{},"w670":{},"w507":{},"w224":{},"w122":{},"w99":{},"w896":{},"w479":{},"w243":{},"w19":{},"w477":{},"w1077":{},"w520":{},"w152":{},"w151":{},"w871":{},"w1079":{},"w1076":{},"w1080":{},"w1078":{},"w1034":{},"w1010":{},"w225":{},"w378":{},"w288":{},"w484":{},"w544":{},"w672":{},"w822":{},"w624":{},"w712":{},"w863":{},"w913":{},"w789":{},"w555":{},"w995":{},"w337":{},"w321":{},"w170":{},"w981":{},"w192":{},"w838":{},"w585":{},"w967":{},"w1013":{},"w864":{},"w980":{},"w1009":{},"w240":{},"w340":{},"w238":{},"w591":{},"w490":{},"w827":{},"w239":{},"w616":{},"w960":{},"w345":{},"w18":{},"w165":{},"w85":{},"w903":{},"w803":{},"w166":{},"w167":{},"w124":{},"w388":{},"w123":{},"w302":{},"w745":{},"w821":{},"w76":{},"w649":{},"w761":{},"w685":{},"w759":{},"w902":{},"w937":{},"w257":{},"w546":{},"w707":{},"w997":{},"w575":{},"w1029":{},"w881":{},"w414":{},"w347":{},"w202":{},"w1056":{},"w67":{},"w727":{},"w669":{},"w709":{},"w130":{},"w205":{},"w515":{},"w788":{},"w69":{},"w710":{},"w634":{},"w1026":{},"w615":{},"w989":{},"w635":{},"w1053":{},"w1048":{},"w916":{},"w1075":{},"w971":{},"w483":{},"w508":{},"w808":{},"w972":{},"w628":{},"w1073":{},"w632":{},"w44":{},"w445":{},"w566":{},"w975":{},"w498":{},"w84":{},"w791":{},"w755":{},"w62":{},"w89":{},"w1050":{},"w737":{},"w301":{},"w936":{},"w857":{},"w30":{},"w51":{},"w441":{},"w398":{},"w176":{},"w565":{},"w149":{},"w807":{},"w310":{},"w52":{},"w401":{},"w413":{},"w402":{},"w375":{},"w471":{},"w1003":{},"w482":{},"w811":{},"w40":{},"w373":{},"w363":{},"w459":{},"w1046":{},"w263":{},"w647":{},"w1061":{},"w77":{},"w20":{},"w834":{},"w92":{},"w105":{},"w21":{},"w474":{},"w58":{},"w855":{},"w442":{},"w561":{},"w53":{},"w296":{},"w583":{},"w12":{},"w705":{},"w467":{},"w502":{},"w279":{},"w806":{},"w660":{},"w308":{},"w120":{},"w627":{},"w213":{},"w929":{},"w619":{},"w1074":{},"w883":{},"w272":{},"w1004":{},"w430":{},"w886":{},"w94":{},"w684":{},"w91":{},"w629":{},"w15":{},"w353":{},"w1063":{},"w977":{},"w421":{},"w307":{},"w247":{},"w973":{},"w679":{},"w341":{},"w114":{},"w651":{},"w907":{},"w81":{},"w481":{},"w946":{},"w1032":{},"w420":{},"w923":{},"w694":{},"w782":{},"w406":{},"w342":{},"w233":{},"w988":{},"w127":{},"w39":{},"w109":{},"w431":{},"w656":{},"w108":{},"w746":{},"w419":{},"w287":{},"w443":{},"w948":{},"w312":{},"w110":{},"w111":{},"w104":{},"w336":{},"w385":{},"w641":{},"w344":{},"w489":{},"w531":{},"w112":{},"w570":{},"w476":{},"w804":{},"w562":{},"w653":{},"w271":{},"w613":{},"w488":{},"w311":{},"w509":{},"w986":{},"w160":{},"w173":{},"w267":{},"w951":{},"w805":{},"w801":{},"w314":{},"w129":{},"w244":{},"w106":{},"w895":{},"w184":{},"w384":{},"w1000":{},"w890":{},"w382":{},"w259":{},"w494":{},"w297":{},"w1058":{},"w383":{},"w381":{},"w14":{},"w249":{},"w300":{},"w1008":{},"w722":{},"w147":{},"w689":{},"w159":{},"w281":{},"w282":{},"w754":{},"w43":{},"w636":{},"w433":{},"w593":{},"w568":{},"w992":{},"w518":{},"w682":{},"w540":{},"w569":{},"w825":{},"w1064":{},"w180":{},"w98":{},"w537":{},"w592":{},"w1007":{},"w268":{},"w536":{},"w97":{},"w113":{},"w334":{},"w199":{},"w140":{},"w815":{},"w466":{},"w590":{},"w47":{},"w996":{},"w295":{},"w645":{},"w589":{},"w468":{},"w289":{},"w26":{},"w711":{},"w979":{},"w1055":{},"w665":{},"w284":{},"w252":{},"w154":{},"w899":{},"w954":{},"w182":{},"w253":{},"w183":{},"w877":{},"w103":{},"w125":{},"w355":{},"w873":{},"w242":{},"w781":{},"w780":{},"w1062":{},"w251":{},"w156":{},"w872":{},"w219":{},"w357":{},"w874":{},"w354":{},"w150":{},"w987":{},"w177":{},"w169":{},"w812":{},"w571":{},"w174":{},"w179":{},"w320":{},"w870":{},"w734":{},"w772":{},"w900":{},"w351":{},"w316":{},"w677":{},"w717":{},"w735":{},"w513":{},"w912":{},"w738":{},"w999":{},"w178":{},"w733":{},"w739":{},"w96":{},"w828":{},"w797":{},"w234":{},"w659":{},"w235":{},"w547":{},"w548":{},"w880":{},"w833":{},"w829":{},"w45":{},"w730":{},"w549":{},"w68":{},"w335":{},"w439":{},"w681":{},"w230":{},"w652":{},"w608":{},"w438":{},"w440":{},"w650":{},"w832":{},"w680":{},"w465":{},"w333":{},"w1021":{},"w1019":{},"w1012":{},"w882":{},"w277":{},"w1020":{},"w1022":{},"w428":{},"w919":{},"w175":{},"w731":{},"w168":{},"w726":{},"w920":{},"w922":{},"w921":{},"w538":{},"w835":{},"w164":{},"w87":{},"w478":{},"w1083":{},"w119":{},"w434":{},"w816":{},"w118":{},"w73":{},"w914":{},"w532":{},"w254":{},"w794":{},"w117":{},"w582":{},"w218":{},"w248":{},"w473":{},"w237":{},"w527":{},"w246":{},"w601":{},"w208":{},"w326":{},"w83":{},"w82":{},"w196":{},"w197":{},"w327":{},"w319":{},"w676":{},"w633":{},"w142":{},"w350":{},"w317":{},"w957":{},"w198":{},"w322":{},"w258":{},"w637":{},"w283":{},"w925":{},"w655":{},"w1067":{},"w664":{},"w226":{},"w683":{},"w1027":{},"w228":{},"w773":{},"w290":{},"w966":{},"w505":{},"w924":{},"w983":{},"w229":{},"w227":{},"w387":{},"w994":{},"w706":{},"w736":{},"w550":{},"w469":{},"w325":{},"w596":{},"w747":{},"w557":{},"w693":{},"w741":{},"w775":{},"w155":{},"w75":{},"w774":{},"w776":{},"w667":{},"w495":{},"w429":{},"w70":{},"w193":{},"w216":{},"w607":{},"w668":{},"w642":{},"w318":{},"w185":{},"w564":{},"w250":{},"w533":{},"w847":{},"w324":{},"w393":{},"w403":{},"w126":{},"w614":{},"w293":{},"w648":{},"w25":{},"w1071":{},"w374":{},"w631":{},"w630":{},"w376":{},"w457":{},"w49":{},"w95":{},"w128":{},"w1031":{},"w894":{},"w397":{},"w407":{},"w395":{},"w405":{},"w408":{},"w617":{},"w349":{},"w893":{},"w887":{},"w411":{},"w412":{},"w404":{},"w424":{},"w394":{},"w396":{},"w266":{},"w270":{},"w456":{},"w131":{},"w364":{},"w824":{},"w517":{},"w905":{},"w145":{},"w910":{},"w38":{},"w598":{},"w153":{},"w666":{},"w658":{},"w60":{},"w600":{},"w132":{},"w133":{},"w368":{},"w1065":{},"w146":{},"w523":{},"w370":{},"w906":{},"w700":{},"w678":{},"w848":{},"w934":{},"w309":{},"w865":{},"w993":{},"w362":{},"w522":{},"w930":{},"w236":{},"w841":{},"w558":{},"w939":{},"w941":{},"w984":{},"w944":{},"w931":{},"w938":{},"w927":{},"w48":{},"w448":{},"w399":{},"w974":{},"w1024":{},"w574":{},"w372":{},"w976":{},"w756":{},"w400":{},"w933":{},"w932":{},"w940":{},"w426":{},"w17":{},"w500":{},"w80":{},"w1030":{},"w809":{},"w88":{},"w985":{},"w1033":{},"w947":{},"w504":{},"w1035":{},"w204":{},"w952":{},"w210":{},"w908":{},"w211":{},"w209":{},"w331":{},"w100":{},"w358":{},"w1036":{},"w425":{},"w328":{},"w580":{},"w470":{},"w748":{},"w63":{},"w917":{},"w501":{},"w346":{},"w928":{},"w454":{},"w1038":{},"w1047":{},"w1037":{},"w463":{},"w519":{},"w813":{},"w172":{},"w584":{},"w888":{},"w386":{},"w64":{},"w462":{},"w464":{},"w915":{},"w380":{},"w643":{},"w487":{},"w956":{},"w390":{},"w116":{},"w911":{},"w273":{},"w644":{},"w662":{},"w389":{},"w998":{},"w968":{},"w361":{},"w366":{},"w692":{},"w435":{},"w511":{},"w135":{},"w1":{},"w718":{},"w9":{},"w949":{},"w5":{},"w602":{},"w256":{},"w3":{},"w23":{},"w622":{},"w8":{},"w255":{},"w885":{},"w410":{},"w137":{},"w578":{},"w860":{},"w55":{},"w461":{},"w499":{},"w460":{},"w661":{},"w2":{},"w10":{},"w4":{},"w139":{},"w134":{},"w136":{},"w742":{},"w24":{},"w963":{},"w409":{},"w285":{},"w446":{},"w579":{},"w964":{},"w965":{},"w962":{},"w961":{},"w415":{},"w588":{},"w189":{},"w107":{},"w810":{},"w447":{},"w275":{},"w512":{},"w503":{},"w599":{},"w497":{},"w496":{},"w597":{},"w313":{},"w595":{},"w148":{},"w306":{},"w724":{},"w486":{},"w543":{},"w343":{},"w990":{},"w188":{},"w594":{},"w422":{},"w7":{},"w190":{},"w991":{},"w191":{},"w1002":{},"w436":{},"w261":{},"w799":{},"w201":{},"w299":{},"w753":{},"w292":{},"w260":{},"w348":{},"w291":{},"w203":{},"w200":{},"w798":{},"w723":{},"w329":{},"w611":{},"w215":{},"w29":{},"w935":{},"w338":{},"w1045":{},"w416":{},"w0":{},"w1043":{},"w702":{},"w612":{},"w472":{},"w269":{},"w206":{},"w691":{},"w6":{},"w11":{},"w217":{},"w212":{},"w65":{},"w195":{},"w161":{},"w904":{},"w945":{},"w1068":{},"w763":{},"w276":{},"w214":{},"w524":{},"w1006":{},"w298":{},"w102":{},"w265":{},"w194":{},"w1001":{},"w294":{},"w315":{},"w576":{},"w969":{},"w1052":{},"w800":{},"w1070":{},"w1044":{},"w610":{},"w970":{},"w891":{},"w1054":{},"w953":{},"w1066":{},"w516":{},"w221":{},"w1059":{},"w586":{},"w222":{},"w220":{},"w223":{},"w587":{},"w303":{},"w241":{},"w50":{},"w1014":{},"w714":{},"w787":{},"w713":{},"w186":{},"w541":{},"w339":{},"w79":{},"w842":{},"w510":{},"w687":{},"w719":{},"w720":{},"w534":{},"w542":{},"w740":{},"w978":{},"w529":{},"w392":{},"w861":{},"w623":{},"w369":{},"w418":{},"w554":{},"w760":{},"w22":{},"w638":{},"w573":{},"w696":{},"w417":{},"w795":{},"w451":{},"w796":{},"w792":{},"w942":{},"w918":{},"w695":{},"w697":{},"w690":{},"w1023":{},"w609":{},"w115":{},"w943":{},"w231":{},"w86":{},"w793":{},"w878":{},"w879":{},"w876":{},"w286":{},"w16":{},"w958":{},"w852":{},"w27":{},"w280":{},"w264":{},"w646":{},"w663":{},"w853":{},"w28":{},"w274":{},"w332":{},"w13":{},"w74":{},"w779":{},"w701":{},"w729":{},"w728":{},"w93":{},"w535":{},"w790":{},"w78":{},"w458":{},"w926":{},"w1057":{},"w869":{},"w868":{},"w867":{},"w892":{},"w46":{},"w777":{},"w556":{},"w606":{},"w61":{},"w485":{},"w778":{},"w207":{},"w1069":{},"w840":{},"w750":{},"w605":{},"w751":{},"w715":{},"w262":{},"w675":{},"w959":{},"w897":{},"w32":{},"w752":{},"w826":{},"w950":{},"w830":{},"w768":{},"w766":{},"w245":{},"w764":{},"w770":{},"w771":{},"w765":{},"w749":{},"w101":{},"w577":{},"w35":{},"w657":{},"w604":{},"w603":{},"w769":{},"w767":{},"w528":{},"w330":{},"w432":{},"w33":{},"w1025":{},"w884":{},"w1005":{},"w452":{},"w955":{},"w36":{},"w34":{},"w37":{},"w141":{},"w639":{},"w818":{},"w144":{},"w545":{},"w521":{},"w708":{},"w526":{},"w837":{},"w856":{},"w817":{},"w819":{},"w814":{},"w525":{},"w1049":{},"w371":{},"w1016":{},"w560":{},"w71":{},"w72":{},"w56":{},"w1084":{},"w559":{},"w866":{},"w143":{},"w732":{},"w1015":{},"w1017":{},"w1018":{},"w581":{},"w889":{},"w31":{},"w449":{},"w743":{},"w450":{},"w721":{},"w744":{},"w858":{},"w352":{},"w563":{},"w758":{},"w859":{},"w625":{},"w849":{},"w163":{},"w850":{},"w1081":{},"w54":{},"w620":{},"w626":{},"w618":{},"w836":{},"w551":{},"w181":{},"w698":{},"w875":{},"w57":{},"w553":{},"w820":{},"w552":{},"w901":{},"w232":{},"w514":{},"w567":{},"w823":{},"w802":{},"w844":{},"w843":{},"w725":{},"w845":{},"w846":{},"w839":{},"w365":{},"w785":{},"w757":{},"w786":{},"w784":{},"w783":{},"w854":{},"w379":{},"w654":{},"w138":{},"w831":{},"w304":{},"w673":{},"w686":{},"w187":{},"w688":{},"w909":{},"w572":{},"w1060":{},"w90":{},"w704":{},"w158":{},"w66":{},"w703":{},"w157":{},"w530":{},"w762":{},"w391":{}},{"0":{"bias":-0.24154409766197205,"weights":{"w671":-0.031195558607578278,"w1041":-0.2542014718055725,"w367":0.29244330525398254,"w171":0.1077098473906517,"w360":0.06348869204521179,"w1011":-0.07458604127168655,"w59":0.07553797960281372,"w716":0.1742984503507614,"w1072":-0.03313247114419937,"w162":-0.16701065003871918,"w42":0.2549053728580475,"w121":0.09433247894048691,"w41":0.3981323540210724,"w851":-0.18898124992847443,"w323":0.27045607566833496,"w305":0.09354142099618912,"w437":0.07196223735809326,"w982":0.2276703268289566,"w356":-0.16578131914138794,"w493":0.077948659658432,"w480":0.4700978100299835,"w491":0.34304770827293396,"w1082":0.08822967857122421,"w898":0.10966428369283676,"w539":-0.033500589430332184,"w359":0.14165139198303223,"w475":-0.05537457764148712,"w1051":0.19412826001644135,"w1039":0.04444257542490959,"w640":0.12242738902568817,"w423":0.0400841198861599,"w674":0.026084834709763527,"w621":0.03650462627410889,"w453":-0.07305014878511429,"w377":0.22121047973632812,"w427":-0.13390477001667023,"w1028":0.2718140482902527,"w278":-0.03269421309232712,"w506":0.09996742010116577,"w1042":0.01896224357187748,"w1040":-0.0290907621383667,"w492":0.18375635147094727,"w862":0.2215917855501175,"w444":0.15049539506435394,"w699":0.023229673504829407,"w455":0.13619203865528107,"w670":0.3352653384208679,"w507":0.11453863978385925,"w224":0.1721588373184204,"w122":-0.6063789129257202,"w99":0.15987133979797363,"w896":0.16020138561725616,"w479":0.10989458858966827,"w243":-0.17019565403461456,"w19":-0.002274939091876149,"w477":-0.09613551199436188,"w1077":-0.56508868932724,"w520":0.23814734816551208,"w152":0.34678250551223755,"w151":0.08551374077796936,"w871":0.5661619305610657,"w1079":-0.4998786747455597,"w1076":-0.46436455845832825,"w1080":-0.46187153458595276,"w1078":-0.5827505588531494,"w1034":-0.12043208628892899,"w1010":0.03773433342576027,"w225":-0.11447977274656296,"w378":-0.09835893660783768,"w288":0.2575543224811554,"w484":0.034412868320941925,"w544":-0.13645759224891663,"w672":-0.08021180331707001,"w822":0.2028668224811554,"w624":0.07502667605876923,"w712":0.26509544253349304,"w863":0.23940369486808777,"w913":0.1671273559331894,"w789":-0.1105668693780899,"w555":0.23404927551746368,"w995":0.13237257301807404,"w337":0.05962955206632614,"w321":0.25728899240493774,"w170":0.192172110080719,"w981":-0.038496579974889755,"w192":-0.12693913280963898,"w838":-0.16883017122745514,"w585":-0.010187688283622265,"w967":0.024390047416090965,"w1013":-0.12461838871240616,"w864":-0.080755315721035,"w980":-0.16421930491924286,"w1009":0.011896245181560516,"w240":-0.08108808845281601,"w340":-0.02832804247736931,"w238":-0.3075493574142456,"w591":-0.08442023396492004,"w490":0.09446149319410324,"w827":-0.023581793531775475,"w239":-0.23351269960403442,"w616":0.03472637012600899,"w960":0.008514474146068096,"w345":0.10269425064325333,"w18":-0.13700425624847412,"w165":-0.4307193458080292,"w85":-0.49946901202201843,"w903":0.05921640992164612,"w803":-0.011538354679942131,"w166":-0.04030928388237953,"w167":-0.2893029451370239,"w124":-0.1615765243768692,"w388":-0.42543092370033264,"w123":0.16669732332229614,"w302":-0.030537458136677742,"w745":-0.09595943242311478,"w821":0.24036122858524323,"w76":-0.0215365681797266,"w649":-0.1763879805803299,"w761":-0.006560291163623333,"w685":-0.07586540281772614,"w759":0.03211266174912453,"w902":-0.030919190496206284,"w937":0.190160870552063,"w257":0.11938092112541199,"w546":0.002507013501599431,"w707":-0.05570061504840851,"w997":0.18555308878421783,"w575":0.005513236857950687,"w1029":0.14750194549560547,"w881":-0.16966253519058228,"w414":0.01720675453543663,"w347":0.10239242762327194,"w202":-0.15507566928863525,"w1056":0.032473962754011154,"w67":-0.256847620010376,"w727":-0.25557538866996765,"w669":-0.45129144191741943,"w709":-0.05448627844452858,"w130":0.1883687674999237,"w205":0.1739121675491333,"w515":-0.20605158805847168,"w788":0.13250836730003357,"w69":-0.13717973232269287,"w710":0.04533574730157852,"w634":0.000397257215809077,"w1026":0.02872016467154026,"w615":-0.04112459719181061,"w989":-0.0999494269490242,"w635":0.11008524149656296,"w1053":-0.08618010580539703,"w1048":-0.1849798858165741,"w916":-0.0486062727868557,"w1075":-0.07863269001245499,"w971":0.1434042900800705,"w483":0.17324800789356232,"w508":0.012543844059109688,"w808":-0.06453671306371689,"w972":0.16522595286369324,"w628":0.007740838918834925,"w1073":0.08977703005075455,"w632":0.3195907175540924,"w44":-0.07291195541620255,"w445":0.1421225219964981,"w566":0.2031642496585846,"w975":0.045366764068603516,"w498":0.07069671899080276,"w84":-0.047371115535497665,"w791":0.05598165839910507,"w755":0.15997150540351868,"w62":0.2446216642856598,"w89":0.03529050573706627,"w1050":0.06431900709867477,"w737":0.09364590048789978,"w301":0.0687999427318573,"w936":0.1511783003807068,"w857":0.11728783696889877,"w30":-0.05082074925303459,"w51":-0.14411279559135437,"w441":0.1299944967031479,"w398":-0.370103657245636,"w176":0.04174625873565674,"w565":0.20119036734104156,"w149":-0.14693672955036163,"w807":-0.18704849481582642,"w310":-0.23842404782772064,"w52":-0.22277696430683136,"w401":0.05301549658179283,"w413":-0.26182079315185547,"w402":-0.14348989725112915,"w375":-0.11210370063781738,"w471":-0.019890017807483673,"w1003":0.21185040473937988,"w482":-0.1959814429283142,"w811":-0.39890000224113464,"w40":0.08471564203500748,"w373":0.14702601730823517,"w363":-0.14126767218112946,"w459":-0.012186597101390362,"w1046":-0.049602486193180084,"w263":0.03133516013622284,"w647":-0.05337464436888695,"w1061":0.3210519552230835,"w77":0.1934252232313156,"w20":0.21317605674266815,"w834":-0.07648980617523193,"w92":0.13953176140785217,"w105":-0.09103982150554657,"w21":0.17760764062404633,"w474":0.21211785078048706,"w58":-0.09435063600540161,"w855":-0.0780588760972023,"w442":-0.1418391764163971,"w561":0.15614312887191772,"w53":0.0032596481032669544,"w296":0.15001697838306427,"w583":0.01028271485120058,"w12":0.02586337924003601,"w705":0.123548723757267,"w467":-0.15343284606933594,"w502":0.20245139300823212,"w279":0.036693647503852844,"w806":0.27200379967689514,"w660":-0.15176743268966675,"w308":0.00939059630036354,"w120":0.21463948488235474,"w627":-0.2916678190231323,"w213":-0.05940946191549301,"w929":0.6371564269065857,"w619":0.09950295835733414,"w1074":0.04885628819465637,"w883":0.10803912580013275,"w272":-0.10267914086580276,"w1004":0.14845889806747437,"w430":-0.06437614560127258,"w886":-0.08885202556848526,"w94":-0.07781346887350082,"w684":0.1506327986717224,"w91":-0.19024480879306793,"w629":0.028880566358566284,"w15":0.08873581886291504,"w353":0.1377258151769638,"w1063":0.14517898857593536,"w977":0.1531587690114975,"w421":-0.13544781506061554,"w307":-0.035590074956417084,"w247":-0.17331621050834656,"w973":0.061351362615823746,"w679":0.012353071942925453,"w341":-0.04685867577791214,"w114":0.10078111290931702,"w651":-0.10440324991941452,"w907":0.06869465112686157,"w81":0.10055170953273773,"w481":-0.012633759528398514,"w946":0.36351779103279114,"w1032":0.0019152420572936535,"w420":0.006190457846969366,"w923":0.30159464478492737,"w694":0.14474472403526306,"w782":0.07691787928342819,"w406":-0.07564286142587662,"w342":-0.1374538391828537,"w233":0.22210824489593506,"w988":0.07393789291381836,"w127":-0.006571575533598661,"w39":0.021753113716840744,"w109":-0.1213410273194313,"w431":-0.15249446034431458,"w656":-0.12024644762277603,"w108":-0.23827464878559113,"w746":-0.2517533600330353,"w419":0.29459336400032043,"w287":-0.0689098984003067,"w443":0.1141752377152443,"w948":0.102841317653656,"w312":-0.008711331523954868,"w110":-0.026422739028930664,"w111":-0.07731929421424866,"w104":0.07200683653354645,"w336":0.02825751341879368,"w385":0.010533098131418228,"w641":0.15168389678001404,"w344":0.043276846408843994,"w489":-0.03316406533122063,"w531":0.2812390923500061,"w112":0.18984031677246094,"w570":0.15733656287193298,"w476":-0.14563965797424316,"w804":-0.01205641869455576,"w562":-0.13377945125102997,"w653":0.09268754720687866,"w271":-0.1844419240951538,"w613":0.044427961111068726,"w488":-0.010651158168911934,"w311":0.18462570011615753,"w509":-0.02664836123585701,"w986":0.093799889087677,"w160":0.18021658062934875,"w173":0.1243542805314064,"w267":0.2502956688404083,"w951":-0.08062227815389633,"w805":-0.035371195524930954,"w801":-0.01525581069290638,"w314":-0.14545735716819763,"w129":-0.1354009062051773,"w244":0.10715105384588242,"w106":-0.21373943984508514,"w895":-0.14968691766262054,"w184":0.048631273210048676,"w384":-0.050750043243169785,"w1000":-0.1114145815372467,"w890":0.03358346223831177,"w382":0.2629975378513336,"w259":-0.07645337283611298,"w494":0.011728694662451744,"w297":0.05183630436658859,"w1058":-0.14624355733394623,"w383":0.24078983068466187,"w381":0.015202541835606098,"w14":-0.17690014839172363,"w249":-0.467058002948761,"w300":0.010668862611055374,"w1008":0.014621756039559841,"w722":0.18919140100479126,"w147":0.08287923783063889,"w689":-0.22468368709087372,"w159":0.014669666066765785,"w281":-0.09360255300998688,"w282":-0.197235107421875,"w754":-0.10706990957260132,"w43":-0.2185240089893341,"w636":0.00187435292173177,"w433":-0.25862640142440796,"w593":0.02148328348994255,"w568":-0.017447903752326965,"w992":0.16616353392601013,"w518":0.19655081629753113,"w682":-0.26680630445480347,"w540":-0.3641389012336731,"w569":0.14012673497200012,"w825":-0.09645508974790573,"w1064":0.06350228935480118,"w180":0.04030092433094978,"w98":-0.18090605735778809,"w537":-0.1182623952627182,"w592":0.10285819321870804,"w1007":-0.19343622028827667,"w268":0.04524427652359009,"w536":0.12003932893276215,"w97":0.15986734628677368,"w113":0.04782714322209358,"w334":-0.14505986869335175,"w199":-0.14021672308444977,"w140":-0.3332812488079071,"w815":-0.003132335841655731,"w466":-0.03277222812175751,"w590":-0.11529092490673065,"w47":-0.16596689820289612,"w996":-0.25304779410362244,"w295":-0.030330374836921692,"w645":-0.38022345304489136,"w589":0.03731634095311165,"w468":0.093546062707901,"w289":-0.045246392488479614,"w26":-0.1410478800535202,"w711":0.08161655068397522,"w979":0.01989593356847763,"w1055":0.2383166402578354,"w665":-0.3913620114326477,"w284":0.11740399152040482,"w252":-0.03581307828426361,"w154":0.4717009365558624,"w899":0.18565087020397186,"w954":0.13396771252155304,"w182":-0.10286575555801392,"w253":0.14896416664123535,"w183":0.022022457793354988,"w877":-0.11279907077550888,"w103":0.10666738450527191,"w125":0.06818700581789017,"w355":0.08293365687131882,"w873":-0.20986156165599823,"w242":-0.13903982937335968,"w781":0.15579940378665924,"w780":-0.08074390143156052,"w1062":-0.06573338061571121,"w251":-0.08367978036403656,"w156":-0.000273373065283522,"w872":0.02841227315366268,"w219":0.09803829342126846,"w357":-0.013439645990729332,"w874":-0.24517586827278137,"w354":0.03557037189602852,"w150":-0.2755938172340393,"w987":0.04046985134482384,"w177":0.9047943353652954,"w169":0.32708820700645447,"w812":0.43561217188835144,"w571":-0.24747607111930847,"w174":0.4499190151691437,"w179":0.3784380853176117,"w320":-0.10794275999069214,"w870":-0.14284831285476685,"w734":0.49750837683677673,"w772":0.26498115062713623,"w900":-0.002969115972518921,"w351":0.039827607572078705,"w316":0.20701055228710175,"w677":0.1825098693370819,"w717":0.2709152102470398,"w735":0.16933082044124603,"w513":-0.016761986538767815,"w912":0.04686440899968147,"w738":-0.7561867237091064,"w999":-0.4528041183948517,"w178":-0.18941593170166016,"w733":-0.4721890389919281,"w739":-0.3214847445487976,"w96":-0.44257423281669617,"w828":0.4073123037815094,"w797":0.1371271312236786,"w234":0.3152400255203247,"w659":0.12810757756233215,"w235":0.27154237031936646,"w547":-0.07905487716197968,"w548":0.1289425492286682,"w880":0.29975655674934387,"w833":0.10608150064945221,"w829":0.23103509843349457,"w45":0.09580782800912857,"w730":0.1599903553724289,"w549":0.2855961322784424,"w68":0.11122417449951172,"w335":0.10124035179615021,"w439":-0.09652717411518097,"w681":-0.13786284625530243,"w230":-0.07885298132896423,"w652":0.05422408506274223,"w608":-0.04103446379303932,"w438":-0.10103856027126312,"w440":-0.02082984149456024,"w650":0.0356752872467041,"w832":-0.16636872291564941,"w680":0.06577085703611374,"w465":-0.15892432630062103,"w333":-0.3339978754520416,"w1021":0.2332535982131958,"w1019":0.09376724809408188,"w1012":-0.040364984422922134,"w882":0.1080184131860733,"w277":0.014063489623367786,"w1020":-0.06685075908899307,"w1022":-0.06351155042648315,"w428":0.031086929142475128,"w919":0.11330277472734451,"w175":0.25119248032569885,"w731":0.10928348451852798,"w168":0.2508182227611542,"w726":0.16963781416416168,"w920":0.19698357582092285,"w922":0.23154515027999878,"w921":0.20887739956378937,"w538":-0.15883082151412964,"w835":0.10150893777608871,"w164":0.03926289081573486,"w87":0.032157402485609055,"w478":0.10281150788068771,"w1083":-0.1750902533531189,"w119":-0.03288821503520012,"w434":-0.20525717735290527,"w816":-0.06403350085020065,"w118":-0.05959691107273102,"w73":-0.25633504986763,"w914":-0.06941413879394531,"w532":-0.14417821168899536,"w254":-0.12121842056512833,"w794":0.034696366637945175,"w117":-0.12202171981334686,"w582":-0.09610223770141602,"w218":0.37542882561683655,"w248":0.1863810420036316,"w473":0.2542571425437927,"w237":-0.02842586487531662,"w527":-0.10572034865617752,"w246":-0.10315689444541931,"w601":-0.006996758282184601,"w208":0.06399089843034744,"w326":-0.5259454846382141,"w83":-0.0795729011297226,"w82":-0.11239349097013474,"w196":0.22459691762924194,"w197":-0.046711210161447525,"w327":-0.06718257814645767,"w319":-0.593250036239624,"w676":0.016558606177568436,"w633":-0.16393977403640747,"w142":-0.2529890239238739,"w350":-0.07548294961452484,"w317":-0.6686409711837769,"w957":0.08853259682655334,"w198":0.20279523730278015,"w322":-0.07454316318035126,"w258":-0.08709001541137695,"w637":0.1587078720331192,"w283":-0.02212356962263584,"w925":-0.11365804821252823,"w655":0.05872678384184837,"w1067":0.3065996766090393,"w664":0.07540436834096909,"w226":0.08551640808582306,"w683":0.13672669231891632,"w1027":-0.002395079704001546,"w228":0.014722640626132488,"w773":0.031007859855890274,"w290":0.09182946383953094,"w966":0.1535874456167221,"w505":0.010485694743692875,"w924":-0.19422467052936554,"w983":-0.0976869985461235,"w229":-0.05256093293428421,"w227":0.16035355627536774,"w387":0.14291520416736603,"w994":0.08918233960866928,"w706":-0.15330326557159424,"w736":0.23798683285713196,"w550":-0.06532516330480576,"w469":0.048720553517341614,"w325":-0.28015148639678955,"w596":-0.1441236138343811,"w747":0.03456360101699829,"w557":-0.024182124063372612,"w693":0.11437340825796127,"w741":0.08744458854198456,"w775":-0.2921300530433655,"w155":-0.027020864188671112,"w75":0.03157834708690643,"w774":-0.039486758410930634,"w776":0.04818863794207573,"w667":0.12095218151807785,"w495":0.14481139183044434,"w429":-0.025337664410471916,"w70":-0.008116102777421474,"w193":-0.12477163970470428,"w216":-0.1732514351606369,"w607":-0.04451854154467583,"w668":0.003315872047096491,"w642":0.003921234980225563,"w318":0.11381736397743225,"w185":-0.2680414915084839,"w564":-0.154148668050766,"w250":-0.2560233473777771,"w533":0.14321491122245789,"w847":-0.04675527289509773,"w324":-0.21886026859283447,"w393":0.03130851313471794,"w403":0.03674137964844704,"w126":-0.11715085804462433,"w614":0.1091323047876358,"w293":0.12814271450042725,"w648":-0.18427245318889618,"w25":-0.04838515818119049,"w1071":0.12129095196723938,"w374":0.2003495991230011,"w631":0.11005905270576477,"w630":-0.1624492108821869,"w376":0.005481032654643059,"w457":0.18179067969322205,"w49":0.03801080584526062,"w95":-0.052499059587717056,"w128":-0.1276344209909439,"w1031":0.10118035972118378,"w894":0.2039688676595688,"w397":0.1041509360074997,"w407":0.033559951931238174,"w395":-0.0886513888835907,"w405":0.12928016483783722,"w408":0.022110022604465485,"w617":0.17753265798091888,"w349":-0.009818869642913342,"w893":-0.17844681441783905,"w887":0.09250297397375107,"w411":0.042485177516937256,"w412":-0.02512333169579506,"w404":0.03986741602420807,"w424":0.10638255625963211,"w394":0.02091478556394577,"w396":0.06657905131578445,"w266":0.008051328361034393,"w270":0.14978943765163422,"w456":0.009859710931777954,"w131":-0.5513188242912292,"w364":-0.6834695339202881,"w824":-0.46938377618789673,"w517":-0.17242448031902313,"w905":0.1226041242480278,"w145":-0.4479362368583679,"w910":-0.5619575381278992,"w38":-0.5020682215690613,"w598":-0.3438326120376587,"w153":0.18849299848079681,"w666":0.12370908260345459,"w658":-0.10104279965162277,"w60":-0.17916233837604523,"w600":-0.23205961287021637,"w132":-0.5001965165138245,"w133":-0.48819082975387573,"w368":-0.2148604691028595,"w1065":-0.3452211022377014,"w146":-0.14611299335956573,"w523":0.10596746951341629,"w370":0.039954498410224915,"w906":-0.2581772208213806,"w700":-0.04163973405957222,"w678":-0.007888824678957462,"w848":-0.14425276219844818,"w934":-0.04903961718082428,"w309":-0.0675775557756424,"w865":-0.19387514889240265,"w993":-0.624263346195221,"w362":-0.12485555559396744,"w522":0.1171317920088768,"w930":0.7653100490570068,"w236":0.004517339635640383,"w841":0.6374814510345459,"w558":0.1457936018705368,"w939":0.22185449302196503,"w941":0.20625507831573486,"w984":-0.024430975317955017,"w944":0.33784347772598267,"w931":-0.059229299426078796,"w938":0.37918174266815186,"w927":0.6346034407615662,"w48":0.562095582485199,"w448":0.24037805199623108,"w399":0.08675115555524826,"w974":0.3145982325077057,"w1024":0.05255666747689247,"w574":0.040229350328445435,"w372":0.23875156044960022,"w976":0.22790518403053284,"w756":0.009006214328110218,"w400":0.15748770534992218,"w933":-0.1309555619955063,"w932":0.5473711490631104,"w940":0.4039528965950012,"w426":0.029799949377775192,"w17":-0.1776246428489685,"w500":-0.04906701669096947,"w80":-0.1153595969080925,"w1030":0.008930995129048824,"w809":0.37563902139663696,"w88":0.06289507448673248,"w985":0.017734266817569733,"w1033":0.10704538226127625,"w947":0.19714337587356567,"w504":-0.06068955734372139,"w1035":-0.06075214222073555,"w204":-0.20541967451572418,"w952":-0.07842632383108139,"w210":-1.1763005256652832,"w908":-0.3384537994861603,"w211":-0.269354909658432,"w209":-0.2544867694377899,"w331":0.12388527393341064,"w100":-0.11656361073255539,"w358":-0.014939216896891594,"w1036":0.28381600975990295,"w425":0.14213983714580536,"w328":-0.13444653153419495,"w580":0.2873949110507965,"w470":0.18639518320560455,"w748":0.07568994909524918,"w63":-0.07580575346946716,"w917":-0.043406616896390915,"w501":0.14091554284095764,"w346":-0.0002717147581279278,"w928":0.1539139598608017,"w454":0.04140768572688103,"w1038":0.25076380372047424,"w1047":-0.07165386527776718,"w1037":-0.08500547707080841,"w463":-0.018774012103676796,"w519":0.1250092089176178,"w813":-0.33575475215911865,"w172":0.23599934577941895,"w584":0.13729801774024963,"w888":0.08878825604915619,"w386":-0.06423206627368927,"w64":0.16212502121925354,"w462":0.09172246605157852,"w464":0.23140330612659454,"w915":-0.12220738083124161,"w380":-0.14881187677383423,"w643":-0.5445634722709656,"w487":-0.14255689084529877,"w956":-0.23265095055103302,"w390":-0.11911173909902573,"w116":-0.09736701846122742,"w911":-0.031316760927438736,"w273":-0.03549037501215935,"w644":-0.20365892350673676,"w662":0.01624307967722416,"w389":-0.22883106768131256,"w998":-0.14679554104804993,"w968":-0.12442605942487717,"w361":0.16491425037384033,"w366":0.2657289505004883,"w692":-0.013366087339818478,"w435":-0.0637836828827858,"w511":0.11823026835918427,"w135":-0.430585116147995,"w1":-0.06372762471437454,"w718":0.12634967267513275,"w9":-0.19339841604232788,"w949":0.3166489601135254,"w5":-0.3164600729942322,"w602":0.05797542631626129,"w256":0.003224450396373868,"w3":0.05609668046236038,"w23":-0.2608722448348999,"w622":-0.0007951718289405107,"w8":-0.16720527410507202,"w255":-0.0708281472325325,"w885":-0.043697845190763474,"w410":-0.19130860269069672,"w137":0.055402494966983795,"w578":-0.20395542681217194,"w860":-0.039865534752607346,"w55":-0.004656781442463398,"w461":0.11235851794481277,"w499":-0.02301044762134552,"w460":0.03692610561847687,"w661":0.14577648043632507,"w2":0.1042153388261795,"w10":0.022996071726083755,"w4":-0.08859541267156601,"w139":-0.10190647840499878,"w134":0.08662264049053192,"w136":0.10645098984241486,"w742":0.17290441691875458,"w24":-0.14104962348937988,"w963":-0.2559206485748291,"w409":0.07101017981767654,"w285":-0.09251229465007782,"w446":-0.10562276840209961,"w579":0.037424664944410324,"w964":-0.029531147330999374,"w965":0.06116693466901779,"w962":-0.059800803661346436,"w961":-0.08794251829385757,"w415":-0.07723096758127213,"w588":-0.03522752970457077,"w189":0.21211442351341248,"w107":-0.18386532366275787,"w810":-0.2112031877040863,"w447":0.0006125257932581007,"w275":-0.023112721741199493,"w512":0.033518750220537186,"w503":-0.11303317546844482,"w599":-0.24890950322151184,"w497":-0.10104262083768845,"w496":0.039062969386577606,"w597":-0.15495678782463074,"w313":-0.05112382024526596,"w595":0.0577649362385273,"w148":-0.01788862980902195,"w306":0.05185908079147339,"w724":0.005591364111751318,"w486":-0.11213875561952591,"w543":-0.18859262764453888,"w343":0.01705431379377842,"w990":0.11414479464292526,"w188":0.34499192237854004,"w594":0.06639305502176285,"w422":0.15208843350410461,"w7":-0.040246423333883286,"w190":-0.01762446016073227,"w991":0.02933587320148945,"w191":0.056313980370759964,"w1002":0.19683457911014557,"w436":0.17073222994804382,"w261":0.255354106426239,"w799":0.22084307670593262,"w201":0.5377401113510132,"w299":0.2778131365776062,"w753":0.405821830034256,"w292":0.15166841447353363,"w260":0.600821316242218,"w348":-0.07821899652481079,"w291":0.06843951344490051,"w203":0.07458711415529251,"w200":0.09381871670484543,"w798":0.16846498847007751,"w723":-0.052370939403772354,"w329":0.16461771726608276,"w611":0.1810319423675537,"w215":-0.8069503903388977,"w29":-0.10023975372314453,"w935":-0.08842652291059494,"w338":-0.2379978448152542,"w1045":-0.22443991899490356,"w416":-0.015617139637470245,"w0":-0.2884262204170227,"w1043":-0.2329714447259903,"w702":-0.4274783134460449,"w612":-0.4269017279148102,"w472":-0.10464191436767578,"w269":-0.2998480796813965,"w206":-0.005573450122028589,"w691":-0.18908491730690002,"w6":0.10735823214054108,"w11":-0.12953457236289978,"w217":0.1382622867822647,"w212":-0.2390332967042923,"w65":-0.20465131103992462,"w195":-0.1907423585653305,"w161":0.0005150824435986578,"w904":0.1608559489250183,"w945":-0.010974650271236897,"w1068":0.009472197853028774,"w763":-0.0025711404159665108,"w276":-0.2687687277793884,"w214":-0.21356910467147827,"w524":-0.14975175261497498,"w1006":0.08637817203998566,"w298":0.03266999125480652,"w102":-0.16394248604774475,"w265":-0.027429355308413506,"w194":-0.0274659413844347,"w1001":0.09452781081199646,"w294":0.02678348682820797,"w315":-0.06852085888385773,"w576":0.20985068380832672,"w969":0.11256446689367294,"w1052":-0.1147526353597641,"w800":0.029007701203227043,"w1070":0.14724527299404144,"w1044":-0.26866742968559265,"w610":-0.06508159637451172,"w970":-0.21196593344211578,"w891":-0.36738184094429016,"w1054":0.060143034905195236,"w953":-0.10255656391382217,"w1066":-0.2270253598690033,"w516":-0.04768498241901398,"w221":-0.15727262198925018,"w1059":0.014646366238594055,"w586":-0.23078463971614838,"w222":0.00168743752874434,"w220":0.0182638056576252,"w223":-0.04422014579176903,"w587":-0.2629903554916382,"w303":-0.18267081677913666,"w241":0.13232198357582092,"w50":-0.04686440899968147,"w1014":-0.0833909660577774,"w714":0.006956210359930992,"w787":-0.11842689663171768,"w713":0.03079807758331299,"w186":0.26820266246795654,"w541":0.3161591589450836,"w339":-0.10595986992120743,"w79":0.01666634902358055,"w842":0.20687931776046753,"w510":0.40137967467308044,"w687":0.2961099147796631,"w719":0.21241560578346252,"w720":-0.020458286628127098,"w534":0.34143340587615967,"w542":0.17602187395095825,"w740":0.232791468501091,"w978":0.010591867379844189,"w529":0.33344539999961853,"w392":0.13730821013450623,"w861":0.27271002531051636,"w623":0.27919501066207886,"w369":0.28909173607826233,"w418":0.12120559066534042,"w554":-0.025978587567806244,"w760":0.08254504948854446,"w22":-0.03358490765094757,"w638":0.14366304874420166,"w573":-0.002101033926010132,"w696":-0.04550253227353096,"w417":-0.021982058882713318,"w795":0.15432269871234894,"w451":-0.14595434069633484,"w796":-0.0591437965631485,"w792":-0.3904190957546234,"w942":-0.1713644564151764,"w918":0.03686303645372391,"w695":0.15024858713150024,"w697":0.2287931591272354,"w690":-0.18334314227104187,"w1023":0.23525243997573853,"w609":0.24845975637435913,"w115":-0.1498093158006668,"w943":-0.13013115525245667,"w231":-0.04868031293153763,"w86":0.12060144543647766,"w793":-0.08585765212774277,"w878":-0.1647917628288269,"w879":-0.039353687316179276,"w876":-0.2196938693523407,"w286":0.1791553497314453,"w16":-0.1245199665427208,"w958":-0.04065733775496483,"w852":0.0721239373087883,"w27":0.06785851716995239,"w280":-0.1545376032590866,"w264":0.24102096259593964,"w646":0.03384896367788315,"w663":0.04768635332584381,"w853":-0.1316024661064148,"w28":-0.12308236956596375,"w274":-0.12630781531333923,"w332":-0.09088408946990967,"w13":-0.07776135951280594,"w74":-0.1693349927663803,"w779":-0.10082721710205078,"w701":-0.25902074575424194,"w729":-0.010884230956435204,"w728":-0.06867705285549164,"w93":-0.021175501868128777,"w535":0.13993485271930695,"w790":-0.11024013161659241,"w78":-0.18019826710224152,"w458":0.10319668054580688,"w926":-0.007199498824775219,"w1057":-0.049366455525159836,"w869":0.005534485448151827,"w868":-0.08230055868625641,"w867":-0.10581255704164505,"w892":0.08140798658132553,"w46":-0.08084534853696823,"w777":0.4101540446281433,"w556":-0.008859706111252308,"w606":-0.03789790719747543,"w61":0.21116091310977936,"w485":-0.08553653210401535,"w778":0.003168771741911769,"w207":0.027475997805595398,"w1069":-0.017301158979535103,"w840":-0.12154031544923782,"w750":-0.24755918979644775,"w605":0.17176228761672974,"w751":0.05156012251973152,"w715":-0.12325309216976166,"w262":0.10179115831851959,"w675":-0.028382040560245514,"w959":-0.1284477412700653,"w897":0.12475050240755081,"w32":0.05461936816573143,"w752":0.09718078374862671,"w826":0.009833690710365772,"w950":0.06607329100370407,"w830":0.3736044764518738,"w768":-0.022406963631510735,"w766":-0.10243197530508041,"w245":-0.2537859380245209,"w764":-0.17902079224586487,"w770":-0.047295521944761276,"w771":-0.05365513637661934,"w765":-0.2237507700920105,"w749":-0.1729917675256729,"w101":0.10211798548698425,"w577":0.16885918378829956,"w35":-0.2732209265232086,"w657":0.017654160037636757,"w604":0.21732193231582642,"w603":-0.06424009054899216,"w769":-0.14657463133335114,"w767":-0.02944759465754032,"w528":0.01692076027393341,"w330":0.10700424760580063,"w432":0.08680539578199387,"w33":0.5862939357757568,"w1025":0.6235746145248413,"w884":0.1081051379442215,"w1005":0.5832110643386841,"w452":0.39300742745399475,"w955":0.1603512316942215,"w36":0.1369156837463379,"w34":0.24794991314411163,"w37":0.43303900957107544,"w141":0.09732148796319962,"w639":0.0845320001244545,"w818":0.37240922451019287,"w144":0.006518428213894367,"w545":0.24075210094451904,"w521":-0.1416427195072174,"w708":0.14244690537452698,"w526":0.14177857339382172,"w837":0.23107817769050598,"w856":0.24084649980068207,"w817":0.13859951496124268,"w819":0.037402454763650894,"w814":-0.05058690905570984,"w525":0.1776989847421646,"w1049":-0.18278999626636505,"w371":0.17412684857845306,"w1016":0.08346199989318848,"w560":-0.5529058575630188,"w71":-0.151667982339859,"w72":-0.33914443850517273,"w56":0.0014946640003472567,"w1084":-0.25131461024284363,"w559":-0.08212387561798096,"w866":0.09141808748245239,"w143":0.050615012645721436,"w732":-0.01324313785880804,"w1015":0.06876672804355621,"w1017":0.01101051364094019,"w1018":-0.27875807881355286,"w581":-0.19410954415798187,"w889":-0.08649156987667084,"w31":0.17115560173988342,"w449":0.09461519122123718,"w743":-0.2123020887374878,"w450":-0.08442284166812897,"w721":-0.09049565345048904,"w744":-0.1114545539021492,"w858":0.20039767026901245,"w352":0.14725200831890106,"w563":0.1101706475019455,"w758":0.11106181144714355,"w859":-0.10114289075136185,"w625":-0.03594842925667763,"w849":-0.12691602110862732,"w163":-0.051079053431749344,"w850":0.007630365900695324,"w1081":-0.06349807977676392,"w54":-0.02613690309226513,"w620":-0.07603387534618378,"w626":-0.0012469145003706217,"w618":-0.0831926092505455,"w836":0.01128027681261301,"w551":-0.07798021286725998,"w181":-0.036864038556814194,"w698":-0.1216621920466423,"w875":0.09711349755525589,"w57":0.041439227759838104,"w553":0.11698178946971893,"w820":-0.06547944247722626,"w552":-0.06254812330007553,"w901":0.03568228334188461,"w232":0.009574857540428638,"w514":-0.03918103873729706,"w567":0.07207741588354111,"w823":0.11946991831064224,"w802":0.1364242285490036,"w844":-0.49551260471343994,"w843":-0.09796355664730072,"w725":-0.11278153210878372,"w845":-0.29201531410217285,"w846":-0.0654158964753151,"w839":0.056950949132442474,"w365":-0.021770048886537552,"w785":0.3009476959705353,"w757":0.1995449811220169,"w786":0.13923680782318115,"w784":0.20314013957977295,"w783":-0.037462662905454636,"w854":0.051371194422245026,"w379":0.17297713458538055,"w654":-0.03287877142429352,"w138":-0.027765264734625816,"w831":-0.14826670289039612,"w304":0.2091538906097412,"w673":0.06483501940965652,"w686":0.19874973595142365,"w187":-0.028624754399061203,"w688":-0.04714329168200493,"w909":-0.04160762205719948,"w572":0.044758040457963943,"w1060":0.12483003735542297,"w90":-0.5018652081489563,"w704":0.029960954561829567,"w158":-0.37572675943374634,"w66":-0.17564478516578674,"w703":-0.01908738724887371,"w157":-0.32854360342025757,"w530":0.07591453194618225,"w762":-0.18723712861537933,"w391":-0.1724684089422226}},"1":{"bias":-0.09608578681945801,"weights":{"w671":-0.5020248293876648,"w1041":-0.15960514545440674,"w367":0.5337291359901428,"w171":-0.11012274026870728,"w360":-0.046885713934898376,"w1011":-0.029314421117305756,"w59":0.1624629646539688,"w716":0.003356803907081485,"w1072":-0.04285134747624397,"w162":-0.3582119941711426,"w42":0.18777938187122345,"w121":-0.3819872736930847,"w41":0.2619560658931732,"w851":-0.14769300818443298,"w323":0.1620810329914093,"w305":-0.06660456210374832,"w437":-0.13158108294010162,"w982":-0.009814098477363586,"w356":-0.1133076474070549,"w493":-0.023940132930874825,"w480":0.4012429416179657,"w491":-0.12833723425865173,"w1082":-0.1032063215970993,"w898":0.2280929535627365,"w539":0.10071682184934616,"w359":0.04927518218755722,"w475":-0.017235567793250084,"w1051":-0.06484586745500565,"w1039":0.016520384699106216,"w640":0.10347171127796173,"w423":0.10927897691726685,"w674":-0.029071593657135963,"w621":-0.05807499587535858,"w453":-0.16666072607040405,"w377":0.29386475682258606,"w427":0.047817934304475784,"w1028":-0.21115058660507202,"w278":-0.07910604774951935,"w506":0.010725603438913822,"w1042":0.07002879679203033,"w1040":0.01327158510684967,"w492":-0.1862688511610031,"w862":0.11031662672758102,"w444":-0.05810154229402542,"w699":0.09655943512916565,"w455":0.05731390789151192,"w670":-0.042815160006284714,"w507":0.16391555964946747,"w224":0.044732432812452316,"w122":-0.13598284125328064,"w99":0.1457645744085312,"w896":-0.20121845602989197,"w479":-0.1713041067123413,"w243":0.07831437885761261,"w19":0.02687983214855194,"w477":0.1650567203760147,"w1077":0.67522132396698,"w520":-0.2636885344982147,"w152":-0.011590464971959591,"w151":-0.04125860705971718,"w871":0.39670678973197937,"w1079":0.19767971336841583,"w1076":0.2527496814727783,"w1080":0.1900755614042282,"w1078":0.23410391807556152,"w1034":-0.3075977861881256,"w1010":0.32969602942466736,"w225":-0.2088414430618286,"w378":-0.030572792515158653,"w288":-0.04422072321176529,"w484":0.14615239202976227,"w544":0.003228312823921442,"w672":0.11205380409955978,"w822":1.4974114894866943,"w624":0.5011079907417297,"w712":0.20379115641117096,"w863":0.1769724190235138,"w913":-0.08980616182088852,"w789":0.08967729657888412,"w555":0.6247367262840271,"w995":0.5909017324447632,"w337":-0.004860387649387121,"w321":0.7346150875091553,"w170":0.15902288258075714,"w981":0.108176589012146,"w192":0.24610792100429535,"w838":0.21754412353038788,"w585":0.05601326748728752,"w967":0.03204192966222763,"w1013":0.14424709975719452,"w864":0.5031914114952087,"w980":-0.1406085044145584,"w1009":0.2809980809688568,"w240":0.7525112628936768,"w340":0.0497639961540699,"w238":0.37841349840164185,"w591":0.010982357896864414,"w490":0.1364540159702301,"w827":0.13012361526489258,"w239":-0.06296148896217346,"w616":-0.11714611202478409,"w960":-0.07838651537895203,"w345":0.01135157234966755,"w18":-0.17420728504657745,"w165":-0.47186222672462463,"w85":-0.40603792667388916,"w903":0.06589587777853012,"w803":-0.2294374704360962,"w166":-0.19463439285755157,"w167":-0.07091712951660156,"w124":-0.2035842090845108,"w388":-0.45975103974342346,"w123":0.07917962223291397,"w302":-0.20270279049873352,"w745":-0.06916286051273346,"w821":-0.1141059473156929,"w76":0.08905690163373947,"w649":-0.22388839721679688,"w761":-0.16075000166893005,"w685":0.2741319239139557,"w759":-0.11605904996395111,"w902":-0.06360343098640442,"w937":0.11638325452804565,"w257":-0.23482421040534973,"w546":0.24510203301906586,"w707":-0.045172128826379776,"w997":-0.15867818892002106,"w575":0.04710626229643822,"w1029":0.291429340839386,"w881":-0.1276382952928543,"w414":-0.46288979053497314,"w347":-0.06844929605722427,"w202":-0.18109068274497986,"w1056":-0.17605619132518768,"w67":0.4919843077659607,"w727":0.5088391900062561,"w669":0.06770284473896027,"w709":0.4629296660423279,"w130":0.1207813024520874,"w205":-0.026576442644000053,"w515":-0.09694597125053406,"w788":0.04929127171635628,"w69":-0.020416639745235443,"w710":0.06270582973957062,"w634":0.19589775800704956,"w1026":0.017999205738306046,"w615":-0.0331905260682106,"w989":0.10068313032388687,"w635":-0.10918477922677994,"w1053":-0.273946076631546,"w1048":-0.2576392889022827,"w916":-0.30232763290405273,"w1075":-0.1338011920452118,"w971":-0.21630539000034332,"w483":-0.04762902483344078,"w508":-0.12432726472616196,"w808":0.05026889592409134,"w972":0.03638153150677681,"w628":0.044142451137304306,"w1073":0.07480766624212265,"w632":-0.09747383743524551,"w44":-0.07798310369253159,"w445":-0.004291562829166651,"w566":0.0014266195939853787,"w975":-0.16297292709350586,"w498":-0.030113032087683678,"w84":-0.06970009207725525,"w791":-0.25793081521987915,"w755":-0.09281665831804276,"w62":0.16068938374519348,"w89":0.0073532662354409695,"w1050":-0.16555139422416687,"w737":-0.19043397903442383,"w301":-0.14572559297084808,"w936":0.009569973684847355,"w857":-0.09602167457342148,"w30":0.08324574679136276,"w51":0.06493134796619415,"w441":0.08835284411907196,"w398":-0.22399596869945526,"w176":-0.11201952397823334,"w565":0.11756334453821182,"w149":0.12871341407299042,"w807":-0.044593445956707,"w310":-0.10436159372329712,"w52":0.024513622745871544,"w401":0.0448533333837986,"w413":-0.01564326137304306,"w402":0.002175411209464073,"w375":0.03218720108270645,"w471":0.26867833733558655,"w1003":-0.2140035480260849,"w482":-0.06782043725252151,"w811":0.05585922673344612,"w40":-0.016483772546052933,"w373":0.2246205061674118,"w363":0.22424043715000153,"w459":0.10307168960571289,"w1046":0.2486109882593155,"w263":0.1787377893924713,"w647":0.18923135101795197,"w1061":0.24128784239292145,"w77":0.09207291901111603,"w20":0.1282767504453659,"w834":-0.06747516989707947,"w92":0.08410123735666275,"w105":0.004073078278452158,"w21":0.23565083742141724,"w474":0.07797756046056747,"w58":-0.09247776120901108,"w855":-0.07638603448867798,"w442":-0.1312399059534073,"w561":0.05718838423490524,"w53":-0.17942404747009277,"w296":0.04359997808933258,"w583":-0.12197007238864899,"w12":-0.12945738434791565,"w705":0.09538403153419495,"w467":-0.10551957786083221,"w502":-0.11375755816698074,"w279":0.09709644317626953,"w806":0.21331967413425446,"w660":0.1868174970149994,"w308":0.024964936077594757,"w120":0.12037117034196854,"w627":0.3664253354072571,"w213":0.2537457048892975,"w929":0.05243827402591705,"w619":-0.24961106479167938,"w1074":-0.27854958176612854,"w883":-0.0027491424698382616,"w272":-0.12787377834320068,"w1004":-0.02025661990046501,"w430":0.031805191189050674,"w886":0.10157445073127747,"w94":0.10243484377861023,"w684":0.23512208461761475,"w91":-0.2197830080986023,"w629":0.06438066810369492,"w15":0.15052372217178345,"w353":0.06276177614927292,"w1063":0.09546837955713272,"w977":0.028641408309340477,"w421":-0.16151458024978638,"w307":0.03420637175440788,"w247":-0.07748795300722122,"w973":-0.14944565296173096,"w679":0.04424969479441643,"w341":-0.22166843712329865,"w114":-0.09276707470417023,"w651":0.09224534034729004,"w907":-0.14614376425743103,"w81":-0.29460829496383667,"w481":-0.5179267525672913,"w946":0.016978660598397255,"w1032":-0.05389631912112236,"w420":-0.24286837875843048,"w923":-0.03526276722550392,"w694":-0.13918092846870422,"w782":-0.02882552705705166,"w406":-0.31927773356437683,"w342":0.02031782642006874,"w233":-0.3350033164024353,"w988":-0.35296157002449036,"w127":-0.3295515477657318,"w39":0.29699987173080444,"w109":0.11455906182527542,"w431":-0.0002565677568782121,"w656":0.3027205765247345,"w108":0.19535188376903534,"w746":0.1861826777458191,"w419":0.13866423070430756,"w287":0.14476507902145386,"w443":0.2472323626279831,"w948":-0.049646880477666855,"w312":0.1278824508190155,"w110":-0.0832635909318924,"w111":0.15329068899154663,"w104":0.222098708152771,"w336":-0.10134947299957275,"w385":-0.11906930804252625,"w641":0.2697669267654419,"w344":0.15552371740341187,"w489":0.21248038113117218,"w531":-0.13108010590076447,"w112":0.01513557881116867,"w570":-0.0522640198469162,"w476":0.17210184037685394,"w804":0.11726308614015579,"w562":0.1768902838230133,"w653":-0.009921674616634846,"w271":0.1492144912481308,"w613":-0.0018409095937386155,"w488":0.12746159732341766,"w311":0.06327308714389801,"w509":-0.12992241978645325,"w986":0.059814199805259705,"w160":0.041425470262765884,"w173":0.03291569650173187,"w267":0.35211363434791565,"w951":0.3001689910888672,"w805":0.0772574171423912,"w801":0.15281178057193756,"w314":0.04645121097564697,"w129":-0.020895859226584435,"w244":-0.003062164643779397,"w106":-0.35705581307411194,"w895":-0.004304578527808189,"w184":0.13531239330768585,"w384":-0.15658767521381378,"w1000":0.020754123106598854,"w890":-0.22218628227710724,"w382":0.016420116648077965,"w259":0.20596249401569366,"w494":-0.006842965725809336,"w297":0.11909828335046768,"w1058":-0.11950726062059402,"w383":0.010948802344501019,"w381":0.2239307165145874,"w14":0.3905769884586334,"w249":-0.046393983066082,"w300":0.23569750785827637,"w1008":-0.1478453427553177,"w722":0.22948220372200012,"w147":-0.051816847175359726,"w689":0.2163408100605011,"w159":-0.17077572643756866,"w281":0.12899820506572723,"w282":0.08491937071084976,"w754":-0.17288842797279358,"w43":-0.27163779735565186,"w636":0.20853213965892792,"w433":0.17219752073287964,"w593":-0.02237013354897499,"w568":-0.0533100925385952,"w992":-0.06491028517484665,"w518":0.006508455146104097,"w682":-0.10733214020729065,"w540":-0.1923282891511917,"w569":0.14853018522262573,"w825":0.24514445662498474,"w1064":0.2527269423007965,"w180":0.19678238034248352,"w98":0.14927679300308228,"w537":-0.09153637290000916,"w592":-0.009528610855340958,"w1007":-0.15097954869270325,"w268":0.041739992797374725,"w536":0.10023082792758942,"w97":-0.1709718257188797,"w113":-0.10417003929615021,"w334":-0.0816633477807045,"w199":0.716906726360321,"w140":0.5329310297966003,"w815":0.1769007295370102,"w466":0.14563925564289093,"w590":0.30377328395843506,"w47":-0.03186425566673279,"w996":-0.07421249151229858,"w295":0.15202076733112335,"w645":-0.3529278337955475,"w589":-0.05129644274711609,"w468":-0.1182541623711586,"w289":-0.026266658678650856,"w26":-0.14200876653194427,"w711":-0.20327049493789673,"w979":0.147905632853508,"w1055":0.5017156004905701,"w665":0.2167065590620041,"w284":-0.17371682822704315,"w252":0.1399170458316803,"w154":0.032268792390823364,"w899":0.12961935997009277,"w954":-0.12658169865608215,"w182":-0.0054870410822331905,"w253":0.10932706296443939,"w183":-0.10379333794116974,"w877":-0.03950530290603638,"w103":-0.05006350204348564,"w125":-0.03884349390864372,"w355":-0.6329118609428406,"w873":-0.7024908661842346,"w242":0.06586571782827377,"w781":-0.06394712626934052,"w780":-0.19815638661384583,"w1062":0.09636979550123215,"w251":-0.18260253965854645,"w156":-0.34191375970840454,"w872":-0.08572956174612045,"w219":-0.05152600258588791,"w357":-0.14154264330863953,"w874":-0.03181745484471321,"w354":-0.03015059232711792,"w150":-0.3463039696216583,"w987":-0.16157972812652588,"w177":0.18797653913497925,"w169":-0.046407513320446014,"w812":0.13544796407222748,"w571":0.3239293396472931,"w174":0.075210340321064,"w179":0.12660856544971466,"w320":0.04807468131184578,"w870":-0.1531546413898468,"w734":-0.20624813437461853,"w772":-0.24913690984249115,"w900":-0.199683278799057,"w351":-0.2379460483789444,"w316":-0.17624300718307495,"w677":-0.050104331225156784,"w717":-0.2270716428756714,"w735":-0.11520757526159286,"w513":-0.09099946916103363,"w912":0.001147512812167406,"w738":-0.3705640733242035,"w999":-0.1059882789850235,"w178":0.0387418307363987,"w733":0.20130304992198944,"w739":-0.056929320096969604,"w96":-0.2377614974975586,"w828":0.26909592747688293,"w797":0.0906016156077385,"w234":0.4279406666755676,"w659":-0.40885981917381287,"w235":-0.03954267129302025,"w547":0.11947742849588394,"w548":0.15651802718639374,"w880":-0.09674201160669327,"w833":0.12816926836967468,"w829":-0.029374796897172928,"w45":0.2289566546678543,"w730":0.010655739344656467,"w549":0.01868629828095436,"w68":-0.09014099836349487,"w335":-0.04610230028629303,"w439":-0.5030912756919861,"w681":-0.1402968019247055,"w230":-0.14563049376010895,"w652":-0.2422804832458496,"w608":-0.14133918285369873,"w438":-0.2216494381427765,"w440":-0.16587777435779572,"w650":0.12159694731235504,"w832":-0.2144184708595276,"w680":-0.07978498935699463,"w465":0.10306654125452042,"w333":0.1046515554189682,"w1021":0.5231277942657471,"w1019":0.04080678150057793,"w1012":-0.03039318136870861,"w882":0.2784571349620819,"w277":0.014372038654983044,"w1020":0.03700905293226242,"w1022":-0.07136528939008713,"w428":-0.05411318689584732,"w919":-0.42122384905815125,"w175":-0.05948355421423912,"w731":-0.2489035427570343,"w168":-0.31594523787498474,"w726":-0.23756451904773712,"w920":-0.1609877049922943,"w922":0.017018480226397514,"w921":-0.32202762365341187,"w538":-0.1890544444322586,"w835":-0.05561304837465286,"w164":-0.04715831205248833,"w87":0.04762931913137436,"w478":-0.004183643963187933,"w1083":-0.1354043334722519,"w119":0.032999053597450256,"w434":0.282061368227005,"w816":0.1802024245262146,"w118":0.06559784710407257,"w73":0.06919305771589279,"w914":0.011712939478456974,"w532":-0.08701616525650024,"w254":0.15653608739376068,"w794":-0.0828862339258194,"w117":0.11939671635627747,"w582":-0.03147348761558533,"w218":-0.07518434524536133,"w248":-0.24487143754959106,"w473":0.3432766795158386,"w237":-0.08744702488183975,"w527":0.18273846805095673,"w246":0.11469786614179611,"w601":-0.052707746624946594,"w208":0.13789193332195282,"w326":-0.004366443958133459,"w83":0.27240127325057983,"w82":0.10368730127811432,"w196":0.07320665568113327,"w197":-0.11172236502170563,"w327":-0.11947426944971085,"w319":0.10127474367618561,"w676":-0.0964212641119957,"w633":0.011081133037805557,"w142":0.06452883780002594,"w350":0.19679610431194305,"w317":0.26337531208992004,"w957":0.08779621124267578,"w198":0.10507908463478088,"w322":0.18796668946743011,"w258":0.1950516700744629,"w637":0.08675681799650192,"w283":0.001997712068259716,"w925":-0.18825387954711914,"w655":0.08238258212804794,"w1067":-0.06763321906328201,"w664":-0.21393924951553345,"w226":-0.11008460819721222,"w683":-0.07346700131893158,"w1027":0.119687020778656,"w228":-1.2169201374053955,"w773":-0.9699606895446777,"w290":-0.5615484118461609,"w966":-0.3154491186141968,"w505":-0.08564292639493942,"w924":0.06731253117322922,"w983":-0.24135766923427582,"w229":-0.1807410567998886,"w227":-0.12072198837995529,"w387":-0.2319604754447937,"w994":0.12739500403404236,"w706":-0.19858622550964355,"w736":-0.01486413273960352,"w550":0.202137753367424,"w469":0.2053185999393463,"w325":-0.026198768988251686,"w596":-0.06252624094486237,"w747":-0.006389675661921501,"w557":0.19521582126617432,"w693":-0.05063914880156517,"w741":0.23529061675071716,"w775":0.012666563503444195,"w155":-0.05630768463015556,"w75":-0.11454950273036957,"w774":-0.06378422677516937,"w776":0.12259668856859207,"w667":-0.16521769762039185,"w495":-0.24636338651180267,"w429":0.027099568396806717,"w70":-0.057498861104249954,"w193":-0.09316637367010117,"w216":0.18118400871753693,"w607":-0.06249992549419403,"w668":0.1929401457309723,"w642":0.16890664398670197,"w318":0.04728573560714722,"w185":-0.011872723698616028,"w564":-0.19345171749591827,"w250":0.10649507492780685,"w533":0.15731027722358704,"w847":-0.2051863968372345,"w324":-0.21338464319705963,"w393":0.14088989794254303,"w403":-0.0020916934590786695,"w126":0.023168474435806274,"w614":0.14157649874687195,"w293":0.062070585787296295,"w648":0.008086795918643475,"w25":-0.035694532096385956,"w1071":0.1057727262377739,"w374":0.06642704457044601,"w631":0.13169977068901062,"w630":0.09980002790689468,"w376":0.24287264049053192,"w457":0.13944916427135468,"w49":0.18740405142307281,"w95":0.0017162339063361287,"w128":-0.15791304409503937,"w1031":-0.09611585736274719,"w894":0.008425419218838215,"w397":0.08795616030693054,"w407":-0.11282116919755936,"w395":0.0042291730642318726,"w405":0.1420653909444809,"w408":0.03345797583460808,"w617":-0.1732151061296463,"w349":0.0031134693417698145,"w893":0.1561172902584076,"w887":0.1124517098069191,"w411":-0.08709830790758133,"w412":0.11260807514190674,"w404":0.1241222694516182,"w424":0.012473754584789276,"w394":0.10999245941638947,"w396":0.13129675388336182,"w266":-0.09945464879274368,"w270":0.004355539567768574,"w456":0.13285312056541443,"w131":0.6265789270401001,"w364":-0.11082656681537628,"w824":-0.05205366015434265,"w517":0.21872344613075256,"w905":0.009096582420170307,"w145":-0.06485049426555634,"w910":-0.12183776497840881,"w38":-0.11382126063108444,"w598":-0.12111613154411316,"w153":0.0497012622654438,"w666":-0.1385401338338852,"w658":-0.1154196560382843,"w60":-0.09537596255540848,"w600":0.06953290104866028,"w132":0.09723348915576935,"w133":0.08898472785949707,"w368":0.07400450855493546,"w1065":0.07077325880527496,"w146":-0.11497794836759567,"w523":-0.15704236924648285,"w370":-0.019084610044956207,"w906":0.2053641676902771,"w700":0.045150287449359894,"w678":-0.12122467905282974,"w848":0.16540323197841644,"w934":0.08653352409601212,"w309":0.11616408079862595,"w865":0.16063575446605682,"w993":-0.1338115632534027,"w362":0.20452998578548431,"w522":-0.04531156271696091,"w930":0.008940980769693851,"w236":-0.15859098732471466,"w841":-0.05768529325723648,"w558":0.024939702823758125,"w939":0.13475318253040314,"w941":0.23760633170604706,"w984":0.08420158177614212,"w944":0.22769272327423096,"w931":-0.011784814298152924,"w938":0.1904243379831314,"w927":-0.1074645072221756,"w48":-0.014369705691933632,"w448":0.16196361184120178,"w399":-0.0766177624464035,"w974":0.11730016022920609,"w1024":-0.1862136721611023,"w574":-0.04197278246283531,"w372":0.04383232444524765,"w976":0.08481267839670181,"w756":-0.09486503154039383,"w400":0.022242696955800056,"w933":-0.2163621038198471,"w932":-0.14667585492134094,"w940":0.08694504201412201,"w426":-0.02711975947022438,"w17":-0.030142564326524734,"w500":-0.20165060460567474,"w80":0.006480296608060598,"w1030":-0.25213319063186646,"w809":-0.20495755970478058,"w88":-0.07816065102815628,"w985":-0.1988973468542099,"w1033":-0.15841571986675262,"w947":-0.21144944429397583,"w504":-0.21045857667922974,"w1035":-0.11659498512744904,"w204":-0.08103132992982864,"w952":0.20486247539520264,"w210":0.4778011739253998,"w908":0.3790428042411804,"w211":-0.17004826664924622,"w209":-0.043436501175165176,"w331":0.14296142756938934,"w100":0.11863778531551361,"w358":-0.1439002901315689,"w1036":-0.3137344717979431,"w425":0.13732050359249115,"w328":0.027399634942412376,"w580":-0.03645310178399086,"w470":-0.10208865255117416,"w748":-0.02553641051054001,"w63":0.0770285576581955,"w917":-0.021675018593668938,"w501":-0.21926842629909515,"w346":-0.1908091902732849,"w928":0.03100297972559929,"w454":0.03683363273739815,"w1038":0.023074764758348465,"w1047":-0.17079809308052063,"w1037":0.11068493872880936,"w463":-0.0014458554796874523,"w519":0.041598040610551834,"w813":-0.11703299731016159,"w172":-0.07234854251146317,"w584":-0.027264147996902466,"w888":-0.14766699075698853,"w386":-0.04343729093670845,"w64":0.02397397719323635,"w462":0.13695813715457916,"w464":-0.15441855788230896,"w915":0.15095464885234833,"w380":0.07433445751667023,"w643":-0.6396987438201904,"w487":-0.35029926896095276,"w956":-0.3849790692329407,"w390":-0.1480276882648468,"w116":-0.12696203589439392,"w911":-0.14523865282535553,"w273":-0.20517662167549133,"w644":0.007050603162497282,"w662":0.01838487572968006,"w389":0.04593482241034508,"w998":0.005636968649923801,"w968":0.1745043247938156,"w361":-0.009444347582757473,"w366":0.1546092927455902,"w692":0.31872209906578064,"w435":0.02644963562488556,"w511":-0.08286385983228683,"w135":-0.7449703216552734,"w1":-0.5930415987968445,"w718":-0.006974539253860712,"w9":-0.2965537905693054,"w949":-0.12421298027038574,"w5":-0.2873099148273468,"w602":-0.23059366643428802,"w256":0.18167228996753693,"w3":-0.09954683482646942,"w23":-0.19999994337558746,"w622":-0.20302926003932953,"w8":-0.007675535045564175,"w255":0.06858102977275848,"w885":0.01685064099729061,"w410":-0.4178111255168915,"w137":0.00462791882455349,"w578":-0.27350395917892456,"w860":0.15976741909980774,"w55":0.1904124766588211,"w461":-0.0414464958012104,"w499":-0.28261446952819824,"w460":0.03686882555484772,"w661":-0.1340760588645935,"w2":-0.041491296142339706,"w10":0.0582554005086422,"w4":0.10904572904109955,"w139":0.08441817760467529,"w134":-0.22216498851776123,"w136":0.11234510689973831,"w742":-0.07364124059677124,"w24":-0.054972000420093536,"w963":0.2980331480503082,"w409":0.16086752712726593,"w285":0.06511631608009338,"w446":-0.1033366248011589,"w579":0.11515476554632187,"w964":-0.10283555835485458,"w965":0.0075834039598703384,"w962":-0.08019310981035233,"w961":-0.018445542082190514,"w415":0.07964479923248291,"w588":-0.042358167469501495,"w189":0.014323151670396328,"w107":0.1378021538257599,"w810":-0.2040630728006363,"w447":-0.15755878388881683,"w275":0.05225434526801109,"w512":-0.21837306022644043,"w503":-0.3620889484882355,"w599":-0.27617958188056946,"w497":-0.21108555793762207,"w496":-0.22358863055706024,"w597":0.019155628979206085,"w313":-0.13461673259735107,"w595":0.13517430424690247,"w148":-0.10429228097200394,"w306":-0.3779127597808838,"w724":-0.07146339118480682,"w486":-0.2145146131515503,"w543":0.14052607119083405,"w343":0.07923611253499985,"w990":-0.082219198346138,"w188":-0.033447254449129105,"w594":0.14551401138305664,"w422":-0.039974164217710495,"w7":-0.06383571028709412,"w190":0.031529512256383896,"w991":-0.07371174544095993,"w191":0.15956126153469086,"w1002":0.19347545504570007,"w436":0.09622256457805634,"w261":0.07273544371128082,"w799":0.31563660502433777,"w201":0.165362149477005,"w299":-0.12652386724948883,"w753":0.25591403245925903,"w292":-0.02748345024883747,"w260":0.19398106634616852,"w348":0.18437543511390686,"w291":0.14575740694999695,"w203":-0.21170911192893982,"w200":0.11090081185102463,"w798":0.12061586230993271,"w723":-0.04438051953911781,"w329":-0.03699846565723419,"w611":-0.03734302893280983,"w215":-0.5158952474594116,"w29":0.10218865424394608,"w935":-0.1343456208705902,"w338":0.0828331783413887,"w1045":-0.2159844934940338,"w416":0.12926797568798065,"w0":-0.01064231526106596,"w1043":-0.13027073442935944,"w702":0.11621119827032089,"w612":-0.05077463388442993,"w472":-0.001944920513778925,"w269":-0.07971741259098053,"w206":-0.15431933104991913,"w691":0.05696166679263115,"w6":0.16382524371147156,"w11":0.08936881273984909,"w217":0.011380350217223167,"w212":0.013030770234763622,"w65":-0.13282668590545654,"w195":-0.20452822744846344,"w161":0.10530675947666168,"w904":-0.06160839647054672,"w945":-0.1769685447216034,"w1068":0.008527712896466255,"w763":0.2691098749637604,"w276":0.09477868676185608,"w214":0.08719975501298904,"w524":-0.01675269566476345,"w1006":-0.14809966087341309,"w298":-0.16855263710021973,"w102":0.005165371112525463,"w265":-0.09720868617296219,"w194":0.026166630908846855,"w1001":0.09773014485836029,"w294":0.2023760825395584,"w315":0.11342129111289978,"w576":-0.11614947021007538,"w969":-0.19492623209953308,"w1052":-0.029036395251750946,"w800":0.0973101481795311,"w1070":-0.05323942005634308,"w1044":0.1571456491947174,"w610":-0.10696838796138763,"w970":0.13295719027519226,"w891":0.09427004307508469,"w1054":-0.12858064472675323,"w953":0.16269920766353607,"w1066":0.38163280487060547,"w516":-0.006347017362713814,"w221":-0.30561983585357666,"w1059":0.02711789309978485,"w586":-0.22484199702739716,"w222":-0.021523667499423027,"w220":-0.09898462146520615,"w223":-0.15082795917987823,"w587":-0.013627986423671246,"w303":0.16204486787319183,"w241":-0.06971210241317749,"w50":0.12432217597961426,"w1014":0.0181417353451252,"w714":0.1689438670873642,"w787":-0.047355420887470245,"w713":-0.19044703245162964,"w186":0.11388930678367615,"w541":-0.10874714702367783,"w339":0.30042165517807007,"w79":0.17954714596271515,"w842":0.000035062206734437495,"w510":0.33903634548187256,"w687":0.004645058885216713,"w719":-0.018717726692557335,"w720":0.14118023216724396,"w534":-0.029862696304917336,"w542":0.03121594525873661,"w740":-0.08544022589921951,"w978":0.17789018154144287,"w529":0.04507625848054886,"w392":-0.14786022901535034,"w861":0.21339452266693115,"w623":0.1787795126438141,"w369":0.04538397118449211,"w418":-0.12465490400791168,"w554":0.20507240295410156,"w760":-0.14297336339950562,"w22":0.21006545424461365,"w638":-0.15731249749660492,"w573":-0.07270015776157379,"w696":-0.21350827813148499,"w417":-0.14527663588523865,"w795":-0.11163731664419174,"w451":0.1255982369184494,"w796":-0.08492105454206467,"w792":-0.11578493565320969,"w942":0.2886464595794678,"w918":-0.134124755859375,"w695":-0.016294926404953003,"w697":-0.2609776556491852,"w690":0.16158679127693176,"w1023":-0.2230827808380127,"w609":-0.230779767036438,"w115":-0.1082407683134079,"w943":0.21448515355587006,"w231":-0.11574827879667282,"w86":-0.152810201048851,"w793":-0.15545833110809326,"w878":0.15459419786930084,"w879":0.21396122872829437,"w876":0.00985370110720396,"w286":-0.10405723750591278,"w16":0.3043436110019684,"w958":-0.26926812529563904,"w852":-0.09963911026716232,"w27":-0.19742293655872345,"w280":0.0161726251244545,"w264":-0.03884778171777725,"w646":-0.21901074051856995,"w663":-0.09849372506141663,"w853":-0.004175710957497358,"w28":-0.2660461664199829,"w274":0.07177728414535522,"w332":-0.2107241451740265,"w13":0.08781418949365616,"w74":0.1781475692987442,"w779":-0.09617152810096741,"w701":0.011585352011024952,"w729":0.2469264268875122,"w728":0.17719724774360657,"w93":-0.22028617560863495,"w535":0.11792011559009552,"w790":-0.12997058033943176,"w78":0.18021760880947113,"w458":-0.0084316311404109,"w926":-0.15787875652313232,"w1057":0.02677200734615326,"w869":0.22966283559799194,"w868":0.26871761679649353,"w867":-0.07141496986150742,"w892":0.021138057112693787,"w46":-0.03950442373752594,"w777":-0.5282869935035706,"w556":-0.34036001563072205,"w606":0.1993754655122757,"w61":0.04411069676280022,"w485":-0.19858285784721375,"w778":-0.0002643307961989194,"w207":-0.03354225307703018,"w1069":-0.0013152491301298141,"w840":0.5261601805686951,"w750":0.36166322231292725,"w605":0.4787420928478241,"w751":0.06183365732431412,"w715":0.09239967912435532,"w262":-0.06459285318851471,"w675":0.35905420780181885,"w959":0.09685665369033813,"w897":0.33829760551452637,"w32":0.3243115544319153,"w752":0.13853928446769714,"w826":0.28145360946655273,"w950":0.2533649504184723,"w830":0.1303165704011917,"w768":0.029997246339917183,"w766":0.08513582497835159,"w245":0.3454829454421997,"w764":0.20372065901756287,"w770":0.10180740803480148,"w771":0.08581911772489548,"w765":-0.1279502809047699,"w749":0.05323519930243492,"w101":0.2388017475605011,"w577":-0.005140313878655434,"w35":-0.11034196615219116,"w657":0.0009383964934386313,"w604":0.11148456484079361,"w603":-0.12730379402637482,"w769":0.15067683160305023,"w767":0.1640753298997879,"w528":0.0797814205288887,"w330":0.12676794826984406,"w432":-0.04688655212521553,"w33":0.19806191325187683,"w1025":0.0387980155646801,"w884":0.25570452213287354,"w1005":-0.020581798627972603,"w452":-0.11720329523086548,"w955":0.08068154007196426,"w36":-0.08810422569513321,"w34":-0.12990877032279968,"w37":0.015225757844746113,"w141":0.13638602197170258,"w639":-0.17689035832881927,"w818":-0.053818196058273315,"w144":-0.24686436355113983,"w545":0.08900026232004166,"w521":0.029360909014940262,"w708":-0.23170530796051025,"w526":0.033229127526283264,"w837":0.1115121841430664,"w856":-0.05785979703068733,"w817":-0.1274377405643463,"w819":0.04502680525183678,"w814":0.034936923533678055,"w525":-0.13922761380672455,"w1049":0.1114860251545906,"w371":0.13336049020290375,"w1016":0.15376168489456177,"w560":-0.009986025281250477,"w71":0.026837510988116264,"w72":0.3371756672859192,"w56":0.3980899751186371,"w1084":0.021998701617121696,"w559":-0.06162136793136597,"w866":0.16178029775619507,"w143":-0.10394921898841858,"w732":0.009562295861542225,"w1015":-0.012222805991768837,"w1017":-0.0031566156540066004,"w1018":-0.0001827037485782057,"w581":0.11399636417627335,"w889":-0.17064648866653442,"w31":0.15890681743621826,"w449":0.11796791106462479,"w743":-0.04574034735560417,"w450":0.08557840436697006,"w721":0.19558170437812805,"w744":0.07989630103111267,"w858":-0.10462386906147003,"w352":0.12966322898864746,"w563":0.11122260242700577,"w758":-0.15775169432163239,"w859":0.2094850242137909,"w625":0.18272219598293304,"w849":-0.13017693161964417,"w163":-0.19958573579788208,"w850":0.046129096299409866,"w1081":0.033159419894218445,"w54":0.21881581842899323,"w620":0.1577121913433075,"w626":0.08167111128568649,"w618":-0.024550464004278183,"w836":-0.07243713736534119,"w551":0.568152666091919,"w181":0.16715757548809052,"w698":0.020034851506352425,"w875":0.04342172294855118,"w57":0.1321452409029007,"w553":0.3164956867694855,"w820":-0.08562349528074265,"w552":0.08815793693065643,"w901":0.1408778876066208,"w232":-0.033493418246507645,"w514":-0.07195979356765747,"w567":0.11061938107013702,"w823":0.31551316380500793,"w802":0.07160467654466629,"w844":0.005298512987792492,"w843":0.16585488617420197,"w725":-0.48820599913597107,"w845":-0.20444467663764954,"w846":-0.15421263873577118,"w839":-0.19328884780406952,"w365":0.16973328590393066,"w785":0.22917293012142181,"w757":0.15559430420398712,"w786":0.23227107524871826,"w784":0.03507421910762787,"w783":0.028801187872886658,"w854":-0.17532789707183838,"w379":-0.10123278200626373,"w654":0.16006645560264587,"w138":0.01308921817690134,"w831":0.029228949919342995,"w304":-0.09181611984968185,"w673":0.047385770827531815,"w686":0.19107091426849365,"w187":0.10489604622125626,"w688":0.04743969067931175,"w909":0.05173458531498909,"w572":-0.17040406167507172,"w1060":-0.1330675333738327,"w90":-0.4951973259449005,"w704":-0.20363697409629822,"w158":-0.6634092926979065,"w66":-0.08779793977737427,"w703":0.06660133600234985,"w157":-0.5179269313812256,"w530":-0.15407592058181763,"w762":0.0065437317825853825,"w391":-0.16185423731803894}},"2":{"bias":-0.3553830087184906,"weights":{"w671":0.6946009993553162,"w1041":0.28999558091163635,"w367":-0.3951060175895691,"w171":0.28528493642807007,"w360":0.3848778009414673,"w1011":0.49334055185317993,"w59":-0.133742094039917,"w716":0.053358107805252075,"w1072":-0.03735163435339928,"w162":0.22238390147686005,"w42":0.15789058804512024,"w121":0.5822709798812866,"w41":0.07296597212553024,"w851":-0.045782528817653656,"w323":-0.03875576704740524,"w305":-0.025678109377622604,"w437":0.15256747603416443,"w982":-0.0844370648264885,"w356":-0.04467577487230301,"w493":0.7695719599723816,"w480":0.04546559974551201,"w491":0.2597934901714325,"w1082":0.12022627890110016,"w898":0.1776786893606186,"w539":-0.13051685690879822,"w359":0.11211603879928589,"w475":0.021226854994893074,"w1051":0.17641302943229675,"w1039":-0.025776538997888565,"w640":0.14218607544898987,"w423":0.012225826270878315,"w674":-0.015372843481600285,"w621":-0.08886902779340744,"w453":0.12765014171600342,"w377":0.06657510995864868,"w427":-0.24859283864498138,"w1028":0.24262848496437073,"w278":0.26516005396842957,"w506":0.2322479635477066,"w1042":0.1631331443786621,"w1040":0.0753498300909996,"w492":-0.08101990073919296,"w862":-0.24058489501476288,"w444":0.09689506143331528,"w699":-0.1590176671743393,"w455":0.3499811589717865,"w670":0.0830763727426529,"w507":-0.1724727898836136,"w224":0.18927107751369476,"w122":0.09101907163858414,"w99":-0.009709177538752556,"w896":0.03562674671411514,"w479":0.1218930259346962,"w243":0.054288554936647415,"w19":0.22778919339179993,"w477":-0.0838410034775734,"w1077":-0.1850457787513733,"w520":0.29199424386024475,"w152":0.18534813821315765,"w151":0.09101308137178421,"w871":0.05026707053184509,"w1079":-0.013522103428840637,"w1076":-0.170874685049057,"w1080":0.11751292645931244,"w1078":0.017805837094783783,"w1034":0.0984567403793335,"w1010":0.013421205803751945,"w225":0.16485853493213654,"w378":0.004596162587404251,"w288":-0.20820146799087524,"w484":0.17836472392082214,"w544":-0.025995774194598198,"w672":0.28500425815582275,"w822":-0.8564236164093018,"w624":-0.5683022141456604,"w712":-0.3873819410800934,"w863":0.059996817260980606,"w913":-0.13186317682266235,"w789":0.021819358691573143,"w555":-0.5699698328971863,"w995":-0.3038865327835083,"w337":-0.08831864595413208,"w321":-0.542506754398346,"w170":-0.1694318652153015,"w981":-0.0920422375202179,"w192":-0.3009350001811981,"w838":-0.022313570603728294,"w585":-0.3502624034881592,"w967":-0.22768621146678925,"w1013":-0.09600944072008133,"w864":-0.4746246039867401,"w980":-0.12908495962619781,"w1009":0.05471522733569145,"w240":-0.33727923035621643,"w340":-0.25469261407852173,"w238":-0.1904006451368332,"w591":-0.030706055462360382,"w490":-0.23674456775188446,"w827":-0.13338391482830048,"w239":-0.1656590700149536,"w616":0.157943457365036,"w960":0.05177365615963936,"w345":0.08816949278116226,"w18":-0.04027833044528961,"w165":0.4471965730190277,"w85":0.0016883681528270245,"w903":0.010689171962440014,"w803":0.28069597482681274,"w166":0.15056507289409637,"w167":0.07878846675157547,"w124":0.17273803055286407,"w388":0.5032356977462769,"w123":0.22530418634414673,"w302":0.1516781449317932,"w745":-0.10013710707426071,"w821":0.4910027086734772,"w76":-0.037907473742961884,"w649":-0.05085194110870361,"w761":-0.4461117386817932,"w685":-0.5416012406349182,"w759":-0.4343990087509155,"w902":0.0959104597568512,"w937":0.3393263518810272,"w257":-0.04402738809585571,"w546":-0.339559406042099,"w707":-0.0913468673825264,"w997":-0.02737737074494362,"w575":0.04734673351049423,"w1029":-0.13592633605003357,"w881":-0.06274091452360153,"w414":0.058528050780296326,"w347":-0.07022710889577866,"w202":0.027190376073122025,"w1056":-0.07783137261867523,"w67":-0.4294257164001465,"w727":-0.14140668511390686,"w669":-0.05397472903132439,"w709":-0.2708471715450287,"w130":0.05693254992365837,"w205":0.15183189511299133,"w515":-0.11705699563026428,"w788":-0.008015966042876244,"w69":-0.3830496072769165,"w710":-0.17842254042625427,"w634":0.07630740106105804,"w1026":0.10505154728889465,"w615":-0.2329244613647461,"w989":-0.17422187328338623,"w635":0.00011032067413907498,"w1053":0.18555335700511932,"w1048":-0.014007681980729103,"w916":0.21193040907382965,"w1075":0.0273885577917099,"w971":0.3579292893409729,"w483":0.12587392330169678,"w508":0.23430681228637695,"w808":-0.21197478473186493,"w972":0.05793670564889908,"w628":0.06778694689273834,"w1073":0.02913566119968891,"w632":0.18658694624900818,"w44":0.025604167953133583,"w445":-0.012555400840938091,"w566":0.16679902374744415,"w975":-0.09410923719406128,"w498":0.06025809794664383,"w84":0.12694591283798218,"w791":0.2383967638015747,"w755":0.2457062005996704,"w62":0.21823877096176147,"w89":0.23333077132701874,"w1050":-0.061648257076740265,"w737":0.04312476888298988,"w301":0.09145184606313705,"w936":0.14883258938789368,"w857":0.07362521439790726,"w30":-0.06979739665985107,"w51":-0.0933474749326706,"w441":0.18045121431350708,"w398":0.12071423977613449,"w176":-0.09113769233226776,"w565":0.007624824997037649,"w149":0.14540629088878632,"w807":0.03272591531276703,"w310":-0.2520647346973419,"w52":0.018701406195759773,"w401":0.07684434205293655,"w413":0.03159816190600395,"w402":-0.10944746434688568,"w375":0.10756039619445801,"w471":-0.1745302826166153,"w1003":0.22930017113685608,"w482":-0.17656920850276947,"w811":0.0036423515994101763,"w40":-0.0010616483632475138,"w373":0.13821761310100555,"w363":0.027077293023467064,"w459":-0.08637401461601257,"w1046":0.11484813690185547,"w263":-0.17096781730651855,"w647":-0.2002464234828949,"w1061":-0.05928298085927963,"w77":-0.18646720051765442,"w20":-0.015426570549607277,"w834":-0.12258388847112656,"w92":-0.12139783054590225,"w105":-0.10016128420829773,"w21":-0.04264190047979355,"w474":-0.16003987193107605,"w58":0.05596984550356865,"w855":0.06530582159757614,"w442":-0.05890140309929848,"w561":0.13763509690761566,"w53":0.06025240197777748,"w296":0.18214377760887146,"w583":0.11260986328125,"w12":-0.054934509098529816,"w705":0.10581200569868088,"w467":-0.2139851301908493,"w502":-0.02477956935763359,"w279":0.1793096959590912,"w806":0.09125357121229172,"w660":0.10977694392204285,"w308":0.05561418458819389,"w120":-0.05436702445149422,"w627":-0.004912707023322582,"w213":-0.057176683098077774,"w929":0.26460546255111694,"w619":-0.04010475426912308,"w1074":0.3471498489379883,"w883":-0.15523260831832886,"w272":-0.16899539530277252,"w1004":0.1512123942375183,"w430":0.15624301135540009,"w886":0.06341088563203812,"w94":0.04971829801797867,"w684":-0.0126997921615839,"w91":-0.11366862803697586,"w629":0.1372535526752472,"w15":0.10830357670783997,"w353":0.013447416946291924,"w1063":-0.14694853127002716,"w977":-0.15930576622486115,"w421":-0.24136413633823395,"w307":0.2625942528247833,"w247":-0.07583630830049515,"w973":-0.17545045912265778,"w679":0.09572555869817734,"w341":0.15260519087314606,"w114":-0.07067129015922546,"w651":0.08740896731615067,"w907":0.15200886130332947,"w81":0.2295331060886383,"w481":0.40896403789520264,"w946":0.24110019207000732,"w1032":-0.14391937851905823,"w420":0.297261506319046,"w923":0.009240188635885715,"w694":0.011221017688512802,"w782":-0.06440331786870956,"w406":0.3744157552719116,"w342":0.0969611182808876,"w233":0.1340353637933731,"w988":0.12943056225776672,"w127":0.35736286640167236,"w39":0.09442222863435745,"w109":0.02099442481994629,"w431":-0.15094733238220215,"w656":0.08879008889198303,"w108":0.009465969167649746,"w746":0.06647554785013199,"w419":-0.10222338885068893,"w287":-0.24804912507534027,"w443":-0.005416895262897015,"w948":-0.08528116345405579,"w312":-0.06390753388404846,"w110":-0.0429154597222805,"w111":0.026995960623025894,"w104":-0.21188832819461823,"w336":-0.1034478172659874,"w385":-0.3910399079322815,"w641":-0.13840149343013763,"w344":0.018526336178183556,"w489":0.06868534535169601,"w531":-0.2515418529510498,"w112":-0.10547512769699097,"w570":-0.06706850975751877,"w476":0.1324959248304367,"w804":0.11068267375230789,"w562":-0.08885052055120468,"w653":0.13925839960575104,"w271":0.16878212988376617,"w613":-0.15156467258930206,"w488":0.18455195426940918,"w311":0.03986941650509834,"w509":0.1633176952600479,"w986":-0.17385460436344147,"w160":0.19117076694965363,"w173":0.11622097343206406,"w267":-0.25031033158302307,"w951":-0.2113252431154251,"w805":-0.17940391600131989,"w801":0.1569756269454956,"w314":0.13255660235881805,"w129":0.006263675168156624,"w244":-0.08318424224853516,"w106":-0.12706923484802246,"w895":0.0676262304186821,"w184":-0.07202722877264023,"w384":0.08478154242038727,"w1000":-0.03486337885260582,"w890":0.15012997388839722,"w382":-0.005965275689959526,"w259":0.16567577421665192,"w494":0.16777490079402924,"w297":-0.19455862045288086,"w1058":0.13254322111606598,"w383":-0.09450528025627136,"w381":-0.16003260016441345,"w14":-0.3259868323802948,"w249":0.11264566332101822,"w300":0.06568222492933273,"w1008":0.0876142755150795,"w722":0.022696103900671005,"w147":-0.1031351238489151,"w689":-0.3950211703777313,"w159":0.18518593907356262,"w281":-0.2679975628852844,"w282":0.02505413256585598,"w754":-0.0559367910027504,"w43":0.14924748241901398,"w636":0.04109954461455345,"w433":-0.35068172216415405,"w593":0.01004319079220295,"w568":-0.4970102310180664,"w992":-0.1489517241716385,"w518":0.36974143981933594,"w682":0.22846880555152893,"w540":0.19477979838848114,"w569":0.18960894644260406,"w825":-0.16114355623722076,"w1064":-0.1302805244922638,"w180":-0.0700918585062027,"w98":0.02002193219959736,"w537":-0.06488145887851715,"w592":-0.1631661206483841,"w1007":-0.17435520887374878,"w268":-0.04863526672124863,"w536":0.10625448822975159,"w97":-0.04833544045686722,"w113":-0.07250232249498367,"w334":0.0643879696726799,"w199":-0.36143478751182556,"w140":-0.39858999848365784,"w815":-0.37529584765434265,"w466":-0.15483373403549194,"w590":-0.39729106426239014,"w47":-0.19510924816131592,"w996":0.03953941911458969,"w295":0.1511412262916565,"w645":0.07105115056037903,"w589":-0.16663630306720734,"w468":-0.15588456392288208,"w289":-0.08339835703372955,"w26":-0.13932591676712036,"w711":0.14141464233398438,"w979":0.028001457452774048,"w1055":-0.537670373916626,"w665":-0.0074106804095208645,"w284":0.046630099415779114,"w252":-0.07460973411798477,"w154":0.10292259603738785,"w899":-0.039955928921699524,"w954":-0.01260681077837944,"w182":0.02595648355782032,"w253":-0.09236717969179153,"w183":-0.04237876087427139,"w877":0.008804261684417725,"w103":0.5139662623405457,"w125":0.21262039244174957,"w355":0.5530577898025513,"w873":1.1258615255355835,"w242":0.28365206718444824,"w781":0.07554633170366287,"w780":0.3991988003253937,"w1062":0.27478474378585815,"w251":-0.15428146719932556,"w156":0.1196131557226181,"w872":0.10635629296302795,"w219":0.26476848125457764,"w357":0.07277090847492218,"w874":0.03110763430595398,"w354":-0.18082335591316223,"w150":0.28045570850372314,"w987":0.018127691000699997,"w177":0.22636638581752777,"w169":0.02088497020304203,"w812":-0.11443597078323364,"w571":-0.2771316468715668,"w174":-0.07162995636463165,"w179":-0.05256079137325287,"w320":-0.09002146124839783,"w870":0.14200648665428162,"w734":0.5972762107849121,"w772":0.23658978939056396,"w900":-0.15245722234249115,"w351":0.21300673484802246,"w316":0.24472640454769135,"w677":0.07068437337875366,"w717":0.2613998055458069,"w735":0.13042014837265015,"w513":0.02263803407549858,"w912":-0.07302506268024445,"w738":-0.7028753161430359,"w999":-0.3445860743522644,"w178":-0.19450704753398895,"w733":-0.5520305037498474,"w739":-0.1378440260887146,"w96":-0.09422968327999115,"w828":-0.03684808313846588,"w797":0.2354557067155838,"w234":0.005661039613187313,"w659":0.11408069729804993,"w235":-0.03325943648815155,"w547":0.08673951774835587,"w548":0.10719719529151917,"w880":-0.0037898242007941008,"w833":0.007810656446963549,"w829":-0.07085961103439331,"w45":0.13675421476364136,"w730":0.1383456289768219,"w549":-0.2033403366804123,"w68":0.13089972734451294,"w335":-0.16406965255737305,"w439":0.20771075785160065,"w681":0.1445617377758026,"w230":0.048135533928871155,"w652":-0.05431300029158592,"w608":0.19924433529376984,"w438":-0.013959689065814018,"w440":-0.14057976007461548,"w650":0.10408885776996613,"w832":-0.16983546316623688,"w680":0.02846408449113369,"w465":-0.10998121649026871,"w333":-0.035622671246528625,"w1021":0.1635432094335556,"w1019":0.056111566722393036,"w1012":-0.07801995426416397,"w882":-0.06894449144601822,"w277":-0.0877036526799202,"w1020":0.1337103694677353,"w1022":-0.01355868112295866,"w428":0.07457631826400757,"w919":0.6532880663871765,"w175":0.30802735686302185,"w731":-0.032061196863651276,"w168":0.20155255496501923,"w726":0.1737818568944931,"w920":0.24862141907215118,"w922":0.17653296887874603,"w921":0.24989649653434753,"w538":-0.04266757890582085,"w835":-0.11792271584272385,"w164":-0.08954140543937683,"w87":0.14967356622219086,"w478":0.005057742819190025,"w1083":0.15751126408576965,"w119":-0.20473170280456543,"w434":-0.23430083692073822,"w816":-0.2786926329135895,"w118":0.17508089542388916,"w73":-0.0935516357421875,"w914":0.133959099650383,"w532":0.11664548516273499,"w254":-0.14226271212100983,"w794":-0.08154822140932083,"w117":-0.02582358382642269,"w582":0.05906681343913078,"w218":-0.2652190029621124,"w248":-0.20989128947257996,"w473":-0.37679871916770935,"w237":0.05496403947472572,"w527":-0.033337224274873734,"w246":0.17354315519332886,"w601":0.1216394230723381,"w208":-0.1452164500951767,"w326":0.4567771553993225,"w83":-0.29028433561325073,"w82":-0.3062480390071869,"w196":-0.18546368181705475,"w197":0.04239834472537041,"w327":-0.30690085887908936,"w319":0.17857010662555695,"w676":-0.06360799819231033,"w633":0.023558516055345535,"w142":-0.06362168490886688,"w350":-0.13366185128688812,"w317":0.10436742007732391,"w957":0.09086975455284119,"w198":0.06906214356422424,"w322":0.23867195844650269,"w258":0.19227753579616547,"w637":-0.09239305555820465,"w283":-0.12842978537082672,"w925":-0.21842055022716522,"w655":-0.10077054053544998,"w1067":-0.13353310525417328,"w664":0.04472450911998749,"w226":-0.0956815555691719,"w683":-0.043837882578372955,"w1027":0.07519210129976273,"w228":0.5764834880828857,"w773":0.48757654428482056,"w290":0.2642987072467804,"w966":0.2803474962711334,"w505":0.041217681020498276,"w924":0.03231731429696083,"w983":0.07603709399700165,"w229":0.13452865183353424,"w227":-0.0286250002682209,"w387":0.23412927985191345,"w994":0.08562839776277542,"w706":-0.03782859817147255,"w736":-0.2076129913330078,"w550":-0.10658453404903412,"w469":-0.13593684136867523,"w325":-0.06358835846185684,"w596":-0.10892213135957718,"w747":0.1592799574136734,"w557":-0.2013835310935974,"w693":-0.21192395687103271,"w741":0.06848647445440292,"w775":-0.2223341166973114,"w155":0.13778677582740784,"w75":0.06148305907845497,"w774":-0.30823951959609985,"w776":-0.26088032126426697,"w667":0.12415146827697754,"w495":0.19906508922576904,"w429":-0.08745121955871582,"w70":-0.06169917434453964,"w193":0.15712229907512665,"w216":-0.016544317826628685,"w607":-0.03302516043186188,"w668":0.042758502066135406,"w642":0.16412387788295746,"w318":0.0365072637796402,"w185":-0.04456738010048866,"w564":0.15290938317775726,"w250":0.03950365260243416,"w533":-0.1140865683555603,"w847":0.006792541593313217,"w324":-0.03682957962155342,"w393":0.05675872415304184,"w403":0.196234330534935,"w126":-0.013635964132845402,"w614":0.011146691627800465,"w293":0.007471488788723946,"w648":-0.37086382508277893,"w25":0.08493754267692566,"w1071":-0.13891662657260895,"w374":0.0860888659954071,"w631":0.15560080111026764,"w630":0.05213300883769989,"w376":-0.026447217911481857,"w457":-0.0283809807151556,"w49":0.10908697545528412,"w95":-0.06302446126937866,"w128":0.06988987326622009,"w1031":0.18084752559661865,"w894":0.000610784103628248,"w397":-0.06931383907794952,"w407":-0.08122865110635757,"w395":-0.05437295883893967,"w405":-0.15969085693359375,"w408":0.058522533625364304,"w617":0.07546287029981613,"w349":0.05850473791360855,"w893":0.15275710821151733,"w887":0.05892496928572655,"w411":0.11107530444860458,"w412":0.17968669533729553,"w404":-0.11662597954273224,"w424":-0.15434211492538452,"w394":-0.10399535298347473,"w396":0.18863098323345184,"w266":-0.17960022389888763,"w270":0.1324419528245926,"w456":0.19357924163341522,"w131":-0.5600833296775818,"w364":-0.43886327743530273,"w824":-0.20962050557136536,"w517":-0.2557476758956909,"w905":-0.30102893710136414,"w145":-0.22213096916675568,"w910":-0.3446824252605438,"w38":-0.13889113068580627,"w598":-0.299115389585495,"w153":0.11019056290388107,"w666":0.09103672206401825,"w658":0.09344291687011719,"w60":-0.057403724640607834,"w600":-0.13462096452713013,"w132":-0.26712217926979065,"w133":-0.450116902589798,"w368":-0.34514346718788147,"w1065":0.0821581482887268,"w146":-0.20472638309001923,"w523":-0.17595988512039185,"w370":-0.038665205240249634,"w906":-0.1851588934659958,"w700":-0.0809381827712059,"w678":-0.12725311517715454,"w848":-0.11975918710231781,"w934":-0.1348097026348114,"w309":-0.20777589082717896,"w865":0.01991994120180607,"w993":-0.3944467604160309,"w362":0.07018127292394638,"w522":0.15395398437976837,"w930":0.4622230529785156,"w236":-0.1590236872434616,"w841":0.1959468126296997,"w558":0.1868283748626709,"w939":0.11176564544439316,"w941":0.021665463224053383,"w984":0.010179014876484871,"w944":0.032117828726768494,"w931":0.07605265825986862,"w938":0.08133529126644135,"w927":-0.056126415729522705,"w48":-0.18251080811023712,"w448":0.18137763440608978,"w399":0.03970768302679062,"w974":0.013427120633423328,"w1024":0.18348096311092377,"w574":-0.117388516664505,"w372":0.008048639632761478,"w976":0.17275285720825195,"w756":0.16301190853118896,"w400":0.03543788194656372,"w933":0.2236262857913971,"w932":0.17827460169792175,"w940":0.2134442925453186,"w426":0.05543581023812294,"w17":0.011732378043234348,"w500":0.021023619920015335,"w80":0.21277810633182526,"w1030":0.09077145904302597,"w809":0.035939354449510574,"w88":0.14766031503677368,"w985":-0.023755816742777824,"w1033":0.16701820492744446,"w947":0.3588755428791046,"w504":0.052440397441387177,"w1035":-0.15304508805274963,"w204":-0.1262669712305069,"w952":-0.04778537526726723,"w210":-0.04770004749298096,"w908":-0.34294185042381287,"w211":-0.060480162501335144,"w209":-0.04396329075098038,"w331":-0.1831587553024292,"w100":-0.16124561429023743,"w358":-0.0900646522641182,"w1036":0.7620503902435303,"w425":0.21644799411296844,"w328":-0.02696923166513443,"w580":0.46848374605178833,"w470":-0.04978877305984497,"w748":0.3441094160079956,"w63":0.19521383941173553,"w917":-0.05367236211895943,"w501":0.3033369481563568,"w346":-0.005734098609536886,"w928":0.04552846401929855,"w454":0.16959843039512634,"w1038":0.17794691026210785,"w1047":0.2579229474067688,"w1037":0.1879560500383377,"w463":-0.28132346272468567,"w519":-0.1842123419046402,"w813":-0.0324077233672142,"w172":-0.27338215708732605,"w584":-0.09086208045482635,"w888":-0.08028892427682877,"w386":-0.04144691303372383,"w64":0.01736953668296337,"w462":0.04290274903178215,"w464":0.019307851791381836,"w915":-0.1551942080259323,"w380":0.09354901313781738,"w643":0.08167719095945358,"w487":0.1975071132183075,"w956":0.1537712663412094,"w390":-0.024658476933836937,"w116":0.18565639853477478,"w911":0.09814095497131348,"w273":0.09313810616731644,"w644":-0.000365413841791451,"w662":-0.1189652606844902,"w389":-0.10392989218235016,"w998":-0.03622403368353844,"w968":-0.12260324507951736,"w361":0.03742557391524315,"w366":-0.2071220874786377,"w692":-0.32296982407569885,"w435":-0.06364425271749496,"w511":0.02287929691374302,"w135":0.3094463348388672,"w1":0.46021920442581177,"w718":-0.20757581293582916,"w9":0.1628849059343338,"w949":-0.13435372710227966,"w5":0.1874871701002121,"w602":0.060156065970659256,"w256":0.055420611053705215,"w3":-0.12610206007957458,"w23":0.18015243113040924,"w622":-0.09717561304569244,"w8":0.08085379004478455,"w255":-0.061296507716178894,"w885":0.04029204323887825,"w410":0.21014952659606934,"w137":0.13860096037387848,"w578":0.013867382891476154,"w860":0.051788073033094406,"w55":0.04145165905356407,"w461":0.09105665981769562,"w499":0.2591123580932617,"w460":0.11752953380346298,"w661":-0.0894164964556694,"w2":0.04178343713283539,"w10":-0.15667319297790527,"w4":-0.07871589809656143,"w139":0.05727925896644592,"w134":0.006998279597610235,"w136":-0.10544107854366302,"w742":-0.06289999932050705,"w24":0.14927949011325836,"w963":0.02591865323483944,"w409":-0.06852484494447708,"w285":0.11447447538375854,"w446":-0.211815744638443,"w579":0.20899152755737305,"w964":-0.013616151176393032,"w965":-0.14546501636505127,"w962":-0.2270873337984085,"w961":-0.09105890244245529,"w415":0.036289364099502563,"w588":0.4557378590106964,"w189":0.12065768241882324,"w107":-0.12745189666748047,"w810":-0.10710611194372177,"w447":-0.03760775923728943,"w275":-0.017762452363967896,"w512":0.08699081838130951,"w503":0.11057402193546295,"w599":-0.10107345879077911,"w497":0.09107847511768341,"w496":-0.11954634636640549,"w597":-0.1187707930803299,"w313":-0.09460616111755371,"w595":-0.0893532782793045,"w148":0.05027199536561966,"w306":-0.12735584378242493,"w724":0.0786987841129303,"w486":-0.11485449224710464,"w543":-0.08333378285169601,"w343":0.19637978076934814,"w990":-0.06699233502149582,"w188":0.17159083485603333,"w594":0.1409268081188202,"w422":0.01883856952190399,"w7":-0.11616623401641846,"w190":-0.06874404102563858,"w991":-0.19452489912509918,"w191":0.0004920848878100514,"w1002":0.13366803526878357,"w436":-0.04789196699857712,"w261":0.21988631784915924,"w799":0.06070859730243683,"w201":0.3270198404788971,"w299":0.3238898813724518,"w753":-0.08807823061943054,"w292":-0.0363541804254055,"w260":-0.02497321553528309,"w348":0.17754964530467987,"w291":-0.14760498702526093,"w203":0.010966982692480087,"w200":0.12860514223575592,"w798":0.11153557151556015,"w723":-0.11080712080001831,"w329":-0.028183432295918465,"w611":-0.08888426423072815,"w215":0.24160389602184296,"w29":-0.03615352138876915,"w935":0.23733952641487122,"w338":-0.05263381823897362,"w1045":-0.0129820816218853,"w416":0.20386311411857605,"w0":0.049417752772569656,"w1043":0.06406635791063309,"w702":0.15652012825012207,"w612":0.06959162652492523,"w472":0.1379706710577011,"w269":0.20173519849777222,"w206":0.05176315829157829,"w691":0.14246025681495667,"w6":-0.08789678663015366,"w11":0.12389854341745377,"w217":0.09940730780363083,"w212":-0.10449481755495071,"w65":0.12290984392166138,"w195":-0.25174739956855774,"w161":0.13605643808841705,"w904":-0.007067884784191847,"w945":-0.11798843741416931,"w1068":-0.04272257164120674,"w763":-0.056823067367076874,"w276":0.15336206555366516,"w214":0.1075366735458374,"w524":0.03805399686098099,"w1006":0.11900421231985092,"w298":0.10732302814722061,"w102":0.03610752522945404,"w265":0.11293403804302216,"w194":0.08169372379779816,"w1001":0.049239739775657654,"w294":0.1895439475774765,"w315":-0.051823001354932785,"w576":-0.1745050698518753,"w969":0.08840231597423553,"w1052":0.08095545321702957,"w800":0.03681091219186783,"w1070":-0.10953883081674576,"w1044":0.01856001280248165,"w610":0.06439752876758575,"w970":0.13110576570034027,"w891":-0.1626892238855362,"w1054":0.17276600003242493,"w953":0.172592893242836,"w1066":-0.2842024266719818,"w516":-0.14607682824134827,"w221":0.01918456144630909,"w1059":0.4849070906639099,"w586":0.3858296275138855,"w222":-0.037991445511579514,"w220":0.13016806542873383,"w223":0.046543188393116,"w587":0.2560618817806244,"w303":0.25472596287727356,"w241":0.2211645543575287,"w50":0.1272791028022766,"w1014":0.3678748607635498,"w714":-0.2116716057062149,"w787":-0.24071350693702698,"w713":0.1072329580783844,"w186":0.13524626195430756,"w541":0.05139587074518204,"w339":-0.29348787665367126,"w79":-0.025872820988297462,"w842":-0.17621207237243652,"w510":-0.0967191830277443,"w687":-0.1457567811012268,"w719":-0.11252211779356003,"w720":-0.04669765755534172,"w534":0.06115220859646797,"w542":-0.11441197246313095,"w740":0.11831788718700409,"w978":0.052475977689027786,"w529":0.11683548241853714,"w392":-0.05917331948876381,"w861":0.07393176108598709,"w623":-0.11498004198074341,"w369":0.08719079196453094,"w418":0.15999649465084076,"w554":-0.20659539103507996,"w760":-0.07898563146591187,"w22":0.11956704407930374,"w638":-0.013402801938354969,"w573":-0.25802937150001526,"w696":0.04882403835654259,"w417":-0.05118608474731445,"w795":0.016490446403622627,"w451":-0.21547797322273254,"w796":0.17321714758872986,"w792":-0.05144048482179642,"w942":-0.21669530868530273,"w918":0.1305629163980484,"w695":0.2548256516456604,"w697":-0.054815344512462616,"w690":0.21387839317321777,"w1023":-0.14672429859638214,"w609":0.10073009878396988,"w115":0.03826739266514778,"w943":0.06250621378421783,"w231":0.11544391512870789,"w86":-0.10529614984989166,"w793":-0.27562397718429565,"w878":-0.08815713971853256,"w879":-0.44633156061172485,"w876":-0.16811716556549072,"w286":0.05531911179423332,"w16":-0.2109358012676239,"w958":0.2075331062078476,"w852":0.2729586660861969,"w27":0.12680695950984955,"w280":0.20494519174098969,"w264":0.17537528276443481,"w646":-0.024764353409409523,"w663":0.08688093721866608,"w853":0.12774334847927094,"w28":0.20623154938220978,"w274":-0.013887251727283001,"w332":-0.17284126579761505,"w13":-0.1400042027235031,"w74":-0.008780618198215961,"w779":-0.12074783444404602,"w701":-0.05188138037919998,"w729":-0.2283867597579956,"w728":0.07640548795461655,"w93":0.14891871809959412,"w535":0.12321234494447708,"w790":-0.12879632413387299,"w78":0.19601736962795258,"w458":0.09391380101442337,"w926":-0.06310410052537918,"w1057":-0.20295272767543793,"w869":0.6302523612976074,"w868":-0.12844616174697876,"w867":0.15395891666412354,"w892":0.24429620802402496,"w46":0.0033939918503165245,"w777":1.0628465414047241,"w556":0.2596633732318878,"w606":0.028696170076727867,"w61":-0.01995249092578888,"w485":0.15433207154273987,"w778":0.25163280963897705,"w207":-0.03284916654229164,"w1069":0.07955263555049896,"w840":-0.5323184728622437,"w750":-0.34012454748153687,"w605":-0.49220529198646545,"w751":-0.34031787514686584,"w715":-0.2504666745662689,"w262":-0.15611572563648224,"w675":-0.11341246962547302,"w959":0.028504790738224983,"w897":-0.12278096377849579,"w32":-0.19197285175323486,"w752":-0.25950857996940613,"w826":-0.233708456158638,"w950":-0.29347148537635803,"w830":-0.32292115688323975,"w768":-0.4939097464084625,"w766":-0.4737716317176819,"w245":-0.2747616767883301,"w764":-0.2524169981479645,"w770":0.011228622868657112,"w771":-0.16632305085659027,"w765":0.03355560824275017,"w749":-0.07379493862390518,"w101":-0.008893541060388088,"w577":-0.02542787417769432,"w35":-0.022415798157453537,"w657":0.10968536883592606,"w604":-0.09639137238264084,"w603":-0.035174284130334854,"w769":-0.29325711727142334,"w767":-0.21176065504550934,"w528":-0.12368582934141159,"w330":-0.20935623347759247,"w432":-0.20200884342193604,"w33":-0.18327368795871735,"w1025":0.09713180363178253,"w884":-0.041300781071186066,"w1005":0.09103967249393463,"w452":-0.04313572868704796,"w955":0.07708298414945602,"w36":-0.014654690399765968,"w34":0.06446044892072678,"w37":-0.09197375923395157,"w141":0.0678696483373642,"w639":-0.0619925819337368,"w818":-0.1774909645318985,"w144":-0.051303453743457794,"w545":-0.18530850112438202,"w521":-0.09927449375391006,"w708":0.20064577460289001,"w526":0.07223965227603912,"w837":-0.12466058880090714,"w856":-0.17783311009407043,"w817":-0.011531033553183079,"w819":0.21725140511989594,"w814":-0.022998742759227753,"w525":-0.05478837713599205,"w1049":-0.1429590880870819,"w371":-0.14457185566425323,"w1016":-0.3825959265232086,"w560":-0.22280074656009674,"w71":-0.07155930995941162,"w72":0.05400075763463974,"w56":-0.21086516976356506,"w1084":0.17561230063438416,"w559":-0.06777893751859665,"w866":-0.059462159872055054,"w143":0.21681654453277588,"w732":0.01802503690123558,"w1015":-0.11528372764587402,"w1017":-0.03252311795949936,"w1018":-0.04957880824804306,"w581":-0.10797794163227081,"w889":-0.01697543077170849,"w31":-0.14664709568023682,"w449":-0.043901778757572174,"w743":0.11355273425579071,"w450":0.004412568174302578,"w721":0.06724082678556442,"w744":0.001449372386559844,"w858":-0.05213291198015213,"w352":-0.22090353071689606,"w563":0.14819584786891937,"w758":-0.07619348168373108,"w859":-0.0405605286359787,"w625":-0.2118821144104004,"w849":-0.012200385332107544,"w163":0.014529158361256123,"w850":0.14835916459560394,"w1081":0.21424555778503418,"w54":0.06437479704618454,"w620":0.1043802946805954,"w626":-0.10685106366872787,"w618":0.11552440375089645,"w836":0.09828680753707886,"w551":-0.1632786989212036,"w181":-0.25883129239082336,"w698":-0.12187051773071289,"w875":-0.13772442936897278,"w57":0.14433473348617554,"w553":-0.20953702926635742,"w820":-0.054709821939468384,"w552":-0.004700422752648592,"w901":0.053070809692144394,"w232":-0.16394053399562836,"w514":0.15363380312919617,"w567":0.16239191591739655,"w823":-0.16754214465618134,"w802":-0.1352083832025528,"w844":0.03150758147239685,"w843":-0.04760584607720375,"w725":0.3816661536693573,"w845":-0.17801910638809204,"w846":-0.013914642855525017,"w839":-0.13140353560447693,"w365":-0.017676563933491707,"w785":-0.0372246578335762,"w757":-0.055137649178504944,"w786":0.10774204134941101,"w784":-0.06726383417844772,"w783":0.10857567936182022,"w854":-0.16482721269130707,"w379":-0.014490187168121338,"w654":0.1835596263408661,"w138":0.21492573618888855,"w831":0.11094707995653152,"w304":-0.07322713732719421,"w673":0.1442679613828659,"w686":0.1672072410583496,"w187":-0.054100554436445236,"w688":-0.18948040902614594,"w909":-0.002888677641749382,"w572":-0.020812416449189186,"w1060":0.09750324487686157,"w90":0.7542082667350769,"w704":0.040149442851543427,"w158":0.41971921920776367,"w66":0.16328097879886627,