{"sizes":[982,16,16,61],"layers":[{"w607":{},"w940":{},"w330":{},"w153":{},"w323":{},"w911":{},"w56":{},"w644":{},"w969":{},"w144":{},"w40":{},"w108":{},"w39":{},"w764":{},"w286":{},"w268":{},"w396":{},"w886":{},"w319":{},"w448":{},"w436":{},"w446":{},"w979":{},"w808":{},"w489":{},"w322":{},"w431":{},"w950":{},"w938":{},"w576":{},"w383":{},"w610":{},"w600":{},"w939":{},"w560":{},"w411":{},"w339":{},"w387":{},"w928":{},"w245":{},"w461":{},"w941":{},"w447":{},"w774":{},"w403":{},"w632":{},"w413":{},"w606":{},"w462":{},"w199":{},"w109":{},"w91":{},"w807":{},"w435":{},"w217":{},"w19":{},"w433":{},"w974":{},"w474":{},"w136":{},"w135":{},"w783":{},"w976":{},"w973":{},"w977":{},"w975":{},"w934":{},"w910":{},"w200":{},"w340":{},"w252":{},"w440":{},"w494":{},"w738":{},"w562":{},"w641":{},"w775":{},"w821":{},"w706":{},"w503":{},"w897":{},"w300":{},"w284":{},"w152":{},"w885":{},"w171":{},"w752":{},"w528":{},"w871":{},"w913":{},"w776":{},"w884":{},"w909":{},"w214":{},"w303":{},"w212":{},"w533":{},"w445":{},"w741":{},"w213":{},"w555":{},"w864":{},"w308":{},"w147":{},"w80":{},"w811":{},"w719":{},"w148":{},"w149":{},"w111":{},"w350":{},"w110":{},"w265":{},"w672":{},"w737":{},"w71":{},"w585":{},"w952":{},"w947":{},"w823":{},"w18":{},"w972":{},"w875":{},"w439":{},"w375":{},"w463":{},"w724":{},"w876":{},"w566":{},"w970":{},"w570":{},"w42":{},"w404":{},"w513":{},"w879":{},"w453":{},"w79":{},"w708":{},"w679":{},"w59":{},"w84":{},"w949":{},"w664":{},"w264":{},"w843":{},"w770":{},"w29":{},"w48":{},"w400":{},"w359":{},"w158":{},"w512":{},"w133":{},"w723":{},"w273":{},"w49":{},"w362":{},"w374":{},"w363":{},"w337":{},"w427":{},"w904":{},"w438":{},"w727":{},"w744":{},"w688":{},"w686":{},"w178":{},"w465":{},"w964":{},"w219":{},"w78":{},"w31":{},"w684":{},"w690":{},"w691":{},"w685":{},"w676":{},"w93":{},"w521":{},"w471":{},"w33":{},"w593":{},"w9":{},"w544":{},"w1":{},"w543":{},"w57":{},"w689":{},"w687":{},"w232":{},"w481":{},"w293":{},"w392":{},"w532":{},"w853":{},"w731":{},"w925":{},"w795":{},"w906":{},"w410":{},"w860":{},"w34":{},"w32":{},"w35":{},"w553":{},"w75":{},"w423":{},"w11":{},"w37":{},"w125":{},"w575":{},"w844":{},"w324":{},"w329":{},"w625":{},"w394":{},"w407":{},"w466":{},"w867":{},"w729":{},"w370":{},"w249":{},"w97":{},"w405":{},"w523":{},"w868":{},"w869":{},"w866":{},"w865":{},"w965":{},"w376":{},"w531":{},"w168":{},"w98":{},"w726":{},"w406":{},"w242":{},"w467":{},"w38":{},"w335":{},"w326":{},"w416":{},"w945":{},"w231":{},"w583":{},"w959":{},"w72":{},"w20":{},"w748":{},"w86":{},"w96":{},"w21":{},"w430":{},"w55":{},"w768":{},"w401":{},"w508":{},"w50":{},"w259":{},"w526":{},"w12":{},"w310":{},"w636":{},"w424":{},"w457":{},"w246":{},"w722":{},"w596":{},"w605":{},"w271":{},"w107":{},"w565":{},"w188":{},"w836":{},"w558":{},"w971":{},"w794":{},"w239":{},"w905":{},"w390":{},"w797":{},"w88":{},"w618":{},"w85":{},"w567":{},"w15":{},"w316":{},"w961":{},"w881":{},"w381":{},"w270":{},"w220":{},"w877":{},"w614":{},"w304":{},"w104":{},"w587":{},"w815":{},"w76":{},"w437":{},"w932":{},"w380":{},"w830":{},"w627":{},"w700":{},"w367":{},"w305":{},"w208":{},"w892":{},"w113":{},"w100":{},"w391":{},"w592":{},"w99":{},"w673":{},"w379":{},"w251":{},"w402":{},"w855":{},"w275":{},"w101":{},"w102":{},"w95":{},"w299":{},"w926":{},"w347":{},"w577":{},"w307":{},"w444":{},"w483":{},"w103":{},"w515":{},"w432":{},"w720":{},"w509":{},"w589":{},"w238":{},"w552":{},"w443":{},"w274":{},"w464":{},"w890":{},"w142":{},"w155":{},"w235":{},"w857":{},"w721":{},"w717":{},"w277":{},"w115":{},"w218":{},"w806":{},"w163":{},"w346":{},"w901":{},"w801":{},"w344":{},"w228":{},"w449":{},"w260":{},"w956":{},"w345":{},"w343":{},"w14":{},"w221":{},"w263":{},"w908":{},"w649":{},"w131":{},"w622":{},"w318":{},"w785":{},"w141":{},"w216":{},"w699":{},"w698":{},"w960":{},"w223":{},"w41":{},"w140":{},"w784":{},"w194":{},"w320":{},"w786":{},"w317":{},"w134":{},"w891":{},"w159":{},"w151":{},"w728":{},"w534":{},"w516":{},"w156":{},"w161":{},"w283":{},"w782":{},"w661":{},"w472":{},"w692":{},"w898":{},"w809":{},"w314":{},"w279":{},"w612":{},"w645":{},"w662":{},"w468":{},"w820":{},"w665":{},"w900":{},"w160":{},"w660":{},"w666":{},"w90":{},"w742":{},"w713":{},"w209":{},"w595":{},"w210":{},"w496":{},"w138":{},"w497":{},"w792":{},"w747":{},"w743":{},"w43":{},"w657":{},"w498":{},"w64":{},"w298":{},"w398":{},"w616":{},"w205":{},"w588":{},"w547":{},"w397":{},"w399":{},"w586":{},"w746":{},"w615":{},"w422":{},"w296":{},"w921":{},"w919":{},"w912":{},"w793":{},"w244":{},"w920":{},"w922":{},"w388":{},"w487":{},"w826":{},"w157":{},"w658":{},"w150":{},"w653":{},"w827":{},"w829":{},"w828":{},"w488":{},"w749":{},"w146":{},"w82":{},"w434":{},"w954":{},"w980":{},"w289":{},"w572":{},"w77":{},"w175":{},"w176":{},"w290":{},"w282":{},"w611":{},"w571":{},"w126":{},"w313":{},"w280":{},"w962":{},"w862":{},"w177":{},"w285":{},"w227":{},"w573":{},"w248":{},"w832":{},"w591":{},"w608":{},"w201":{},"w678":{},"w617":{},"w927":{},"w203":{},"w693":{},"w253":{},"w870":{},"w460":{},"w831":{},"w887":{},"w204":{},"w202":{},"w349":{},"w896":{},"w637":{},"w663":{},"w499":{},"w425":{},"w288":{},"w537":{},"w674":{},"w504":{},"w626":{},"w668":{},"w695":{},"w139":{},"w70":{},"w694":{},"w696":{},"w603":{},"w450":{},"w389":{},"w65":{},"w172":{},"w191":{},"w546":{},"w604":{},"w578":{},"w281":{},"w554":{},"w490":{},"w164":{},"w511":{},"w222":{},"w484":{},"w760":{},"w287":{},"w354":{},"w364":{},"w112":{},"w256":{},"w584":{},"w25":{},"w968":{},"w336":{},"w297":{},"w569":{},"w568":{},"w338":{},"w414":{},"w46":{},"w89":{},"w114":{},"w931":{},"w805":{},"w358":{},"w368":{},"w356":{},"w366":{},"w369":{},"w556":{},"w312":{},"w804":{},"w798":{},"w372":{},"w373":{},"w365":{},"w384":{},"w355":{},"w357":{},"w234":{},"w237":{},"w116":{},"w327":{},"w740":{},"w813":{},"w129":{},"w818":{},"w36":{},"w638":{},"w539":{},"w137":{},"w602":{},"w594":{},"w541":{},"w117":{},"w118":{},"w331":{},"w963":{},"w130":{},"w477":{},"w332":{},"w814":{},"w633":{},"w613":{},"w761":{},"w601":{},"w841":{},"w272":{},"w777":{},"w895":{},"w581":{},"w325":{},"w476":{},"w837":{},"w211":{},"w754":{},"w505":{},"w846":{},"w848":{},"w888":{},"w851":{},"w838":{},"w845":{},"w834":{},"w45":{},"w360":{},"w878":{},"w924":{},"w519":{},"w334":{},"w880":{},"w680":{},"w361":{},"w840":{},"w839":{},"w847":{},"w181":{},"w386":{},"w17":{},"w455":{},"w930":{},"w725":{},"w83":{},"w889":{},"w933":{},"w854":{},"w459":{},"w858":{},"w185":{},"w816":{},"w186":{},"w184":{},"w294":{},"w92":{},"w321":{},"w935":{},"w385":{},"w291":{},"w524":{},"w426":{},"w675":{},"w60":{},"w824":{},"w456":{},"w309":{},"w835":{},"w412":{},"w937":{},"w946":{},"w936":{},"w420":{},"w473":{},"w154":{},"w527":{},"w799":{},"w348":{},"w61":{},"w419":{},"w421":{},"w822":{},"w342":{},"w579":{},"w442":{},"w861":{},"w352":{},"w106":{},"w819":{},"w240":{},"w580":{},"w598":{},"w351":{},"w258":{},"w899":{},"w872":{},"w120":{},"w3":{},"w646":{},"w23":{},"w561":{},"w5":{},"w8":{},"w224":{},"w371":{},"w52":{},"w418":{},"w542":{},"w122":{},"w522":{},"w773":{},"w417":{},"w597":{},"w124":{},"w119":{},"w121":{},"w669":{},"w24":{},"w856":{},"w225":{},"w796":{},"w454":{},"w2":{},"w10":{},"w4":{},"w458":{},"w540":{},"w452":{},"w451":{},"w538":{},"w276":{},"w536":{},"w132":{},"w269":{},"w651":{},"w441":{},"w493":{},"w306":{},"w893":{},"w167":{},"w535":{},"w382":{},"w7":{},"w169":{},"w894":{},"w170":{},"w903":{},"w395":{},"w230":{},"w715":{},"w180":{},"w262":{},"w677":{},"w255":{},"w229":{},"w311":{},"w254":{},"w182":{},"w179":{},"w714":{},"w650":{},"w292":{},"w550":{},"w190":{},"w28":{},"w842":{},"w301":{},"w944":{},"w377":{},"w0":{},"w942":{},"w635":{},"w551":{},"w428":{},"w236":{},"w183":{},"w624":{},"w6":{},"w192":{},"w187":{},"w62":{},"w174":{},"w143":{},"w812":{},"w852":{},"w966":{},"w683":{},"w243":{},"w189":{},"w478":{},"w907":{},"w261":{},"w94":{},"w233":{},"w173":{},"w902":{},"w257":{},"w278":{},"w520":{},"w873":{},"w951":{},"w716":{},"w967":{},"w943":{},"w549":{},"w874":{},"w802":{},"w953":{},"w859":{},"w196":{},"w957":{},"w529":{},"w197":{},"w195":{},"w198":{},"w530":{},"w266":{},"w215":{},"w47":{},"w914":{},"w643":{},"w705":{},"w642":{},"w165":{},"w491":{},"w302":{},"w74":{},"w755":{},"w620":{},"w647":{},"w648":{},"w485":{},"w492":{},"w667":{},"w882":{},"w482":{},"w353":{},"w22":{},"w574":{},"w518":{},"w629":{},"w789":{},"w378":{},"w711":{},"w409":{},"w712":{},"w709":{},"w849":{},"w825":{},"w628":{},"w630":{},"w623":{},"w923":{},"w548":{},"w105":{},"w850":{},"w206":{},"w81":{},"w863":{},"w765":{},"w26":{},"w247":{},"w582":{},"w599":{},"w766":{},"w27":{},"w241":{},"w295":{},"w13":{},"w69":{},"w654":{},"w63":{},"w470":{},"w640":{},"w697":{},"w634":{},"w929":{},"w656":{},"w655":{},"w87":{},"w486":{},"w707":{},"w73":{},"w415":{},"w833":{},"w955":{},"w226":{},"w781":{},"w780":{},"w779":{},"w803":{},"w44":{},"w734":{},"w128":{},"w732":{},"w495":{},"w475":{},"w639":{},"w480":{},"w751":{},"w769":{},"w733":{},"w735":{},"w730":{},"w479":{},"w948":{},"w333":{},"w916":{},"w393":{},"w507":{},"w883":{},"w66":{},"w67":{},"w53":{},"w981":{},"w506":{},"w68":{},"w778":{},"w127":{},"w659":{},"w915":{},"w917":{},"w918":{},"w525":{},"w800":{},"w30":{},"w193":{},"w671":{},"w429":{},"w771":{},"w315":{},"w510":{},"w408":{},"w682":{},"w772":{},"w563":{},"w762":{},"w145":{},"w763":{},"w545":{},"w978":{},"w51":{},"w559":{},"w564":{},"w557":{},"w670":{},"w750":{},"w710":{},"w790":{},"w791":{},"w788":{},"w250":{},"w16":{},"w500":{},"w162":{},"w631":{},"w787":{},"w54":{},"w502":{},"w736":{},"w501":{},"w810":{},"w207":{},"w469":{},"w514":{},"w739":{},"w718":{},"w757":{},"w756":{},"w652":{},"w758":{},"w759":{},"w753":{},"w328":{},"w703":{},"w681":{},"w704":{},"w702":{},"w701":{},"w767":{},"w58":{},"w341":{},"w590":{},"w123":{},"w745":{},"w267":{},"w609":{},"w619":{},"w166":{},"w621":{},"w817":{},"w517":{},"w958":{}},{"0":{"bias":0.3094501495361328,"weights":{"w607":-0.3511059582233429,"w940":-1.0738040208816528,"w330":-1.1535927057266235,"w153":-0.25451788306236267,"w323":-0.8530251979827881,"w911":-0.680697500705719,"w56":-0.033405039459466934,"w644":0.08062419295310974,"w969":-0.07837871462106705,"w144":0.23092399537563324,"w40":0.15654774010181427,"w108":-0.4039697051048279,"w39":-0.2669009268283844,"w764":-0.24931763112545013,"w286":-0.2330995500087738,"w268":-0.11304371803998947,"w396":0.06562644243240356,"w886":0.05837069824337959,"w319":0.18631140887737274,"w448":-0.3076111674308777,"w436":0.03082755021750927,"w446":-0.45340704917907715,"w979":0.12626893818378448,"w808":0.33617648482322693,"w489":0.2836427688598633,"w322":0.010072167031466961,"w431":0.11763814091682434,"w950":-0.020938681438565254,"w938":-0.07506614178419113,"w576":0.06492924690246582,"w383":0.010918769054114819,"w610":0.11092264950275421,"w600":0.112494096159935,"w939":-0.2116839736700058,"w560":0.010041283443570137,"w411":-0.21318843960762024,"w339":0.1148669496178627,"w387":0.3181874454021454,"w928":-0.34424033761024475,"w245":-0.15920354425907135,"w461":0.0817948430776596,"w941":-0.1148199662566185,"w447":-0.048923201858997345,"w774":0.4105733036994934,"w403":0.07242974638938904,"w632":-0.26737818121910095,"w413":-0.35209915041923523,"w606":-0.09070523083209991,"w462":-0.08270424604415894,"w199":-0.30104073882102966,"w109":0.4831748306751251,"w91":-0.22534631192684174,"w807":-0.15651918947696686,"w435":-0.17490747570991516,"w217":-0.13861921429634094,"w19":0.5768060684204102,"w433":-0.1210779920220375,"w974":-1.5926942825317383,"w474":-0.24091202020645142,"w136":-0.3086458742618561,"w135":0.03723027929663658,"w783":-0.15444394946098328,"w976":-0.0870736688375473,"w973":0.11291932314634323,"w977":-0.10887742787599564,"w975":-0.700495719909668,"w934":-0.12890617549419403,"w910":-0.05386178568005562,"w200":-0.03458026796579361,"w340":0.40140441060066223,"w252":-0.3200903534889221,"w440":0.18947027623653412,"w494":-0.010469199158251286,"w738":-0.8825145363807678,"w562":0.3832743763923645,"w641":-0.8760762214660645,"w775":-0.1460745483636856,"w821":-0.17798331379890442,"w706":-0.09290251135826111,"w503":-0.2462426722049713,"w897":-0.708896815776825,"w300":-0.36503076553344727,"w284":-0.04555885121226311,"w152":-0.08304590731859207,"w885":0.13987809419631958,"w171":-0.020618215203285217,"w752":-0.2714429497718811,"w528":0.02996286377310753,"w871":-0.14548783004283905,"w913":0.03453448414802551,"w776":-0.028993407264351845,"w884":0.01179148256778717,"w909":-0.22071687877178192,"w214":0.19095350801944733,"w303":0.0926164910197258,"w212":-0.11850105971097946,"w533":-0.25256550312042236,"w445":0.015054773539304733,"w741":-0.03850903734564781,"w213":-0.10258353501558304,"w555":-0.14465957880020142,"w864":0.11813667416572571,"w308":0.09932057559490204,"w147":0.44835275411605835,"w80":0.48717597126960754,"w811":0.2669951319694519,"w719":-0.1438288539648056,"w148":0.12847498059272766,"w149":0.11978867650032043,"w111":0.20493468642234802,"w350":-0.06334728002548218,"w110":0.0801224634051323,"w265":0.3148750364780426,"w672":0.3239811360836029,"w737":-0.007120931055396795,"w71":0.17718026041984558,"w585":0.14218111336231232,"w952":0.1220143735408783,"w947":-0.13182953000068665,"w823":-0.3060038089752197,"w18":0.18428058922290802,"w972":-0.17959213256835938,"w875":0.04926164075732231,"w439":0.26180383563041687,"w375":-0.12667350471019745,"w463":-0.03567710146307945,"w724":0.020405687391757965,"w876":-0.3492250144481659,"w566":0.6867798566818237,"w970":-0.1916753202676773,"w570":0.23246216773986816,"w42":0.2165318876504898,"w404":-0.09245460480451584,"w513":0.036702536046504974,"w879":-0.08671046048402786,"w453":-0.14322631061077118,"w79":0.0864565446972847,"w708":-0.023870300501585007,"w679":0.15529471635818481,"w59":0.09593260288238525,"w84":-0.08288470655679703,"w949":0.07355960458517075,"w664":0.07999680936336517,"w264":0.09333600848913193,"w843":-0.1109626516699791,"w770":-0.16697001457214355,"w29":-0.01332121342420578,"w48":0.024630365893244743,"w400":-0.0958678349852562,"w359":-0.20543648302555084,"w158":-0.05960782617330551,"w512":0.0018758896039798856,"w133":-0.006773675791919231,"w723":-0.05655798688530922,"w273":0.0820510983467102,"w49":-0.23550450801849365,"w362":-0.06692250818014145,"w374":-0.07201825827360153,"w363":0.06750336289405823,"w337":-0.25275856256484985,"w427":-0.3361417353153229,"w904":0.19189874827861786,"w438":0.05081915110349655,"w727":-0.013250368647277355,"w744":0.628663957118988,"w688":1.1290431022644043,"w686":0.6121363043785095,"w178":0.0030543243046849966,"w465":0.08566446602344513,"w964":0.7555655837059021,"w219":0.4829871952533722,"w78":-0.14228825271129608,"w31":0.0700923353433609,"w684":-0.08531846851110458,"w690":0.03922650218009949,"w691":0.5112591981887817,"w685":0.40240681171417236,"w676":-0.013666238635778427,"w93":0.20072881877422333,"w521":-0.16900360584259033,"w471":0.4590054750442505,"w33":0.4534393548965454,"w593":0.14899106323719025,"w9":0.2805376946926117,"w544":-0.3515862822532654,"w1":1.1129035949707031,"w543":-0.01618363708257675,"w57":-0.25524842739105225,"w689":0.19360075891017914,"w687":0.22895488142967224,"w232":0.01494839321821928,"w481":0.13286764919757843,"w293":0.1012553870677948,"w392":-0.16511332988739014,"w532":0.05771192908287048,"w853":1.5663716793060303,"w731":-0.31004926562309265,"w925":0.32136401534080505,"w795":0.2159116566181183,"w906":0.3796426057815552,"w410":0.4096248149871826,"w860":0.16516733169555664,"w34":0.25218504667282104,"w32":0.41695865988731384,"w35":0.3587504029273987,"w553":-0.23116041719913483,"w75":0.7800060510635376,"w423":0.008880000561475754,"w11":0.13714665174484253,"w37":-0.30162355303764343,"w125":-0.01574557088315487,"w575":0.1131574735045433,"w844":0.21961762011051178,"w324":-0.15709662437438965,"w329":-0.1244191899895668,"w625":0.06016293168067932,"w394":-0.17365509271621704,"w407":-0.11707849055528641,"w466":0.23615653812885284,"w867":0.2473808377981186,"w729":-0.1450306922197342,"w370":0.15834225714206696,"w249":0.0973023921251297,"w97":-0.04239038750529289,"w405":0.30149155855178833,"w523":0.20683087408542633,"w868":0.21497082710266113,"w869":0.07607316225767136,"w866":0.21216510236263275,"w865":-0.04142167046666145,"w965":0.21059592068195343,"w376":-0.1392558068037033,"w531":0.23206396400928497,"w168":-0.1504019945859909,"w98":-0.13436010479927063,"w726":-0.03315909579396248,"w406":0.2485051304101944,"w242":0.20788872241973877,"w467":0.1292383223772049,"w38":-0.0034431417006999254,"w335":-0.128980815410614,"w326":-0.2299877405166626,"w416":0.030459724366664886,"w945":-0.17524057626724243,"w231":-0.03078518994152546,"w583":-0.33451732993125916,"w959":-0.04119175672531128,"w72":-0.3317018747329712,"w20":0.1798890382051468,"w748":0.0533272847533226,"w86":0.08347035199403763,"w96":-0.3333955705165863,"w21":0.14076492190361023,"w430":-0.04478546604514122,"w55":-0.0011938806856051087,"w768":-0.016725441440939903,"w401":0.07779601961374283,"w508":-0.07663443684577942,"w50":-0.12943033874034882,"w259":0.07361895591020584,"w526":0.04252114146947861,"w12":0.01564083807170391,"w310":-0.10498148202896118,"w636":-0.14252018928527832,"w424":-0.17708158493041992,"w457":0.09227737784385681,"w246":-0.08947509527206421,"w722":-0.028574351221323013,"w596":0.0010377144208177924,"w605":-0.20075839757919312,"w271":0.11628031730651855,"w107":0.019798940047621727,"w565":0.15701374411582947,"w188":-0.4878571629524231,"w836":-1.6534852981567383,"w558":-0.08753619343042374,"w971":0.1412467509508133,"w794":-0.14591524004936218,"w239":-0.04427005350589752,"w905":0.034468792378902435,"w390":0.08381128311157227,"w797":0.1293666660785675,"w88":0.07658829540014267,"w618":-0.08704545348882675,"w85":0.1758689135313034,"w567":0.2807200253009796,"w15":0.11945457756519318,"w316":-0.12686797976493835,"w961":0.07721220701932907,"w881":0.015573178417980671,"w381":0.24921180307865143,"w270":-0.045254215598106384,"w220":-0.1028183102607727,"w877":0.09379595518112183,"w614":0.014389291405677795,"w304":0.24350418150424957,"w104":0.016626395285129547,"w587":0.3932803273200989,"w815":0.14046214520931244,"w76":0.018335871398448944,"w437":0.061465971171855927,"w932":-0.044576480984687805,"w380":0.05284050852060318,"w830":-0.005198151804506779,"w627":-0.06762712448835373,"w700":0.026892703026533127,"w367":-0.4008214771747589,"w305":0.29645735025405884,"w208":0.1823977530002594,"w892":-0.04402241110801697,"w113":0.23403485119342804,"w100":0.052912693470716476,"w391":-0.32418063282966614,"w592":-0.005734086502343416,"w99":0.1733541488647461,"w673":-0.3126663863658905,"w379":-0.28388306498527527,"w251":-0.049366544932127,"w402":-0.03168048709630966,"w855":-0.11825428903102875,"w275":-0.10435549914836884,"w101":0.019442018121480942,"w102":0.0441162995994091,"w95":-0.07172543555498123,"w299":-0.07228142023086548,"w926":-0.13558828830718994,"w347":-0.12037499248981476,"w577":0.01968531310558319,"w307":-0.020215103402733803,"w444":-0.03773834928870201,"w483":0.22162583470344543,"w103":0.12188154458999634,"w515":-0.13427886366844177,"w432":0.20179271697998047,"w720":-0.11222914606332779,"w509":0.03973449394106865,"w589":0.052427683025598526,"w238":-0.09587524831295013,"w552":-0.1368703842163086,"w443":-0.07600151747465134,"w274":-0.07306306064128876,"w464":-0.07017924636602402,"w890":0.22673040628433228,"w142":0.1065019890666008,"w155":0.08962757140398026,"w235":-0.09724187850952148,"w857":-0.4915960133075714,"w721":0.07137496769428253,"w717":-0.038323838263750076,"w277":-0.014637976884841919,"w115":-0.046860817819833755,"w218":0.048604413866996765,"w806":-0.07687141746282578,"w163":-0.28295302391052246,"w346":0.024563752114772797,"w901":0.09428856521844864,"w801":-0.10166700184345245,"w344":0.08677755296230316,"w228":0.12836392223834991,"w449":0.03617782145738602,"w260":-0.24028508365154266,"w956":0.06131349131464958,"w345":-0.17082712054252625,"w343":0.1291823536157608,"w14":-0.3107599914073944,"w221":-0.9929289221763611,"w263":0.13496798276901245,"w908":-0.16693635284900665,"w649":0.14008191227912903,"w131":0.14296190440654755,"w622":-0.2360808253288269,"w318":-0.5451680421829224,"w785":-0.9381251335144043,"w141":-0.21284644305706024,"w216":-0.22198732197284698,"w699":-0.18796078860759735,"w698":-0.11238691210746765,"w960":0.24943219125270844,"w223":-1.7203433513641357,"w41":0.11911489814519882,"w140":-0.36114686727523804,"w784":0.09144551306962967,"w194":-0.07887264341115952,"w320":-0.013395288959145546,"w786":0.104914091527462,"w317":-0.22250746190547943,"w134":-0.33126333355903625,"w891":-0.11027984321117401,"w159":-0.9642690420150757,"w151":0.537929892539978,"w728":-0.5037532448768616,"w534":0.006132903974503279,"w516":-0.3207632005214691,"w156":-0.23897728323936462,"w161":-0.35987791419029236,"w283":0.11853615194559097,"w782":-0.02330813929438591,"w661":0.5814094543457031,"w472":0.06588267534971237,"w692":0.36916083097457886,"w898":-0.3224733769893646,"w809":0.3432424068450928,"w314":0.004142432007938623,"w279":0.1056414246559143,"w612":0.004307469353079796,"w645":0.1607024073600769,"w662":0.11934424936771393,"w468":0.44583773612976074,"w820":0.01686057634651661,"w665":0.06496851146221161,"w900":0.04037363454699516,"w160":-0.014662080444395542,"w660":0.06704527884721756,"w666":0.09222311526536942,"w90":0.06021396070718765,"w742":-0.2734798491001129,"w713":-0.09753543138504028,"w209":-0.28560471534729004,"w595":0.7635464668273926,"w210":-0.14314700663089752,"w496":-0.07398642599582672,"w138":-0.28092315793037415,"w497":0.06602643430233002,"w792":-0.13114312291145325,"w747":0.0956248939037323,"w743":-0.07549533247947693,"w43":-0.11543939262628555,"w657":0.14173802733421326,"w498":0.09273680299520493,"w64":-0.17258761823177338,"w298":0.07335665076971054,"w398":0.9611137509346008,"w616":0.33521950244903564,"w205":0.30484235286712646,"w588":0.3055170476436615,"w547":0.2350720912218094,"w397":0.16478930413722992,"w399":0.11882567405700684,"w586":-0.07253260910511017,"w746":0.2718544900417328,"w615":0.034827347844839096,"w422":-0.08777929842472076,"w296":0.17166075110435486,"w921":1.2980597019195557,"w919":0.6687533855438232,"w912":0.36188435554504395,"w793":0.37124696373939514,"w244":0.6325811147689819,"w920":0.8033948540687561,"w922":0.7469795942306519,"w388":0.6255593299865723,"w487":-0.22660601139068604,"w826":-0.23450420796871185,"w157":-0.28157326579093933,"w658":-0.16671091318130493,"w150":-0.23604267835617065,"w653":-0.42121440172195435,"w827":-0.5234986543655396,"w829":-0.5371323227882385,"w828":-0.30086657404899597,"w488":-0.1208680272102356,"w749":-0.5181019306182861,"w146":-0.24751843512058258,"w82":-0.3497591018676758,"w434":-0.1913803368806839,"w954":0.1548808217048645,"w980":-0.1982642412185669,"w289":-2.534928560256958,"w572":-0.26171743869781494,"w77":-0.28717488050460815,"w175":-0.3640684485435486,"w176":-0.3185873031616211,"w290":-1.1847535371780396,"w282":-0.7229078412055969,"w611":0.06290988624095917,"w571":-0.1570916324853897,"w126":-0.14297844469547272,"w313":-0.15437519550323486,"w280":1.4881360530853271,"w962":-0.3203219771385193,"w862":0.10374612361192703,"w177":-0.12343990057706833,"w285":0.9949544072151184,"w227":1.3188124895095825,"w573":0.08107984811067581,"w248":-0.05967671424150467,"w832":-0.11140820384025574,"w591":0.08822489529848099,"w608":0.0295143723487854,"w201":0.17272143065929413,"w678":0.02661151997745037,"w617":-0.058125268667936325,"w927":0.09138039499521255,"w203":-0.5876137018203735,"w693":-0.33607062697410583,"w253":0.28705036640167236,"w870":0.1305326223373413,"w460":-0.004784745164215565,"w831":0.3466442823410034,"w887":0.44125351309776306,"w204":0.4229777455329895,"w202":0.41414737701416016,"w349":0.3183526396751404,"w896":0.037057794630527496,"w637":0.006376140750944614,"w663":-0.034756556153297424,"w499":0.25428032875061035,"w425":-0.09803188592195511,"w288":0.14713482558727264,"w537":-0.06625309586524963,"w674":0.022822879254817963,"w504":0.1290634423494339,"w626":-0.07206565886735916,"w668":0.49306878447532654,"w695":0.8726232647895813,"w139":0.36397305130958557,"w70":0.046737346798181534,"w694":0.6325812935829163,"w696":0.6034228801727295,"w603":0.49416232109069824,"w450":-0.5327072739601135,"w389":-0.11020507663488388,"w65":0.08601470291614532,"w172":0.03412245213985443,"w191":0.01678498275578022,"w546":0.3213217556476593,"w604":0.27600228786468506,"w578":0.0817955806851387,"w281":0.26701539754867554,"w554":0.013545695692300797,"w490":-0.1281442493200302,"w164":0.10199495404958725,"w511":0.002960048383101821,"w222":-0.1355460286140442,"w484":0.14592106640338898,"w760":-0.19696614146232605,"w287":-0.18417266011238098,"w354":-0.3327701687812805,"w364":-0.400971382856369,"w112":-0.1296193152666092,"w256":-0.3673003315925598,"w584":0.9129626750946045,"w25":-0.11970169842243195,"w968":-0.05778808146715164,"w336":-0.13381142914295197,"w297":-0.1984540969133377,"w569":-0.3967115879058838,"w568":-0.17181558907032013,"w338":-0.2860797643661499,"w414":0.04578813537955284,"w46":-0.022709889337420464,"w89":-0.01594524085521698,"w114":-0.03726142272353172,"w931":-0.14254513382911682,"w805":-0.18030895292758942,"w358":-0.17877042293548584,"w368":-0.3296942710876465,"w356":-0.17802554368972778,"w366":-0.1614856719970703,"w369":-0.17568442225456238,"w556":-0.07580313831567764,"w312":-0.39582204818725586,"w804":-0.4371124505996704,"w798":-0.3373715579509735,"w372":-0.26091882586479187,"w373":-0.3919414281845093,"w365":-0.41387858986854553,"w384":-0.2168247550725937,"w355":-0.36546623706817627,"w357":-0.3620981276035309,"w234":-0.19258403778076172,"w237":0.07420175522565842,"w116":1.0342236757278442,"w327":0.9074985980987549,"w740":1.0024609565734863,"w813":0.04611361399292946,"w129":0.8010708093643188,"w818":0.9115516543388367,"w36":0.8026637434959412,"w638":0.53449547290802,"w539":0.4792692959308624,"w137":-0.19603794813156128,"w602":-0.09829138964414597,"w594":0.18052057921886444,"w541":0.6681008338928223,"w117":0.7409763932228088,"w118":0.7830716967582703,"w331":0.6256769299507141,"w963":0.01911540888249874,"w130":0.25614774227142334,"w477":-0.012357920408248901,"w332":-0.32761162519454956,"w814":0.23935052752494812,"w633":0.39646458625793457,"w613":0.21716254949569702,"w761":0.3663952946662903,"w601":0.7298650741577148,"w841":-0.2308126986026764,"w272":0.48976513743400574,"w777":0.16962303221225739,"w895":-0.21889212727546692,"w581":-0.31012263894081116,"w325":0.047998957335948944,"w476":-0.0706586092710495,"w837":-2.0389533042907715,"w211":-0.1185920238494873,"w754":-1.3740217685699463,"w505":-0.08846469223499298,"w846":-0.32216137647628784,"w848":-0.12225326150655746,"w888":-0.039585236459970474,"w851":-0.2240464687347412,"w838":-0.9846452474594116,"w845":-0.9742649793624878,"w834":-1.0629805326461792,"w45":-1.0484704971313477,"w360":-0.34239432215690613,"w878":-0.4668181836605072,"w924":-0.6113236546516418,"w519":-0.3629694879055023,"w334":-0.6448227763175964,"w880":-0.567274808883667,"w680":0.16794747114181519,"w361":-0.10613830387592316,"w840":-0.04933242127299309,"w839":-0.8948619365692139,"w847":-0.8311354517936707,"w181":-0.048928774893283844,"w386":0.4308033287525177,"w17":0.1662726253271103,"w455":-0.029242396354675293,"w930":0.5719960927963257,"w725":0.9187598824501038,"w83":0.3340550661087036,"w889":0.7304261922836304,"w933":-0.12632805109024048,"w854":0.6106144785881042,"w459":-0.024516170844435692,"w858":0.13815033435821533,"w185":-1.5572789907455444,"w816":-0.24967357516288757,"w186":-0.20253108441829681,"w184":-0.15663130581378937,"w294":0.22342467308044434,"w92":-0.0686773806810379,"w321":0.08766340464353561,"w935":-0.31246352195739746,"w385":-0.04585273191332817,"w291":0.07316569983959198,"w524":-0.4111425578594208,"w426":-0.11234009265899658,"w675":-0.2194526195526123,"w60":-0.15017925202846527,"w824":0.023574810475111008,"w456":-0.051779087632894516,"w309":-0.23351022601127625,"w835":0.13524991273880005,"w412":-0.08381558954715729,"w937":-0.07863359153270721,"w946":-0.24282075464725494,"w936":-0.2642236351966858,"w420":0.3191891312599182,"w473":-0.465336412191391,"w154":-0.11566830426454544,"w527":-0.061395566910505295,"w799":-0.42309966683387756,"w348":0.01678338460624218,"w61":-0.15063077211380005,"w419":-0.26057150959968567,"w421":-0.2154206484556198,"w822":-0.29200783371925354,"w342":-0.23778076469898224,"w579":-1.520334005355835,"w442":-0.6157882809638977,"w861":-0.454355388879776,"w352":-0.505274772644043,"w106":0.11928558349609375,"w819":-0.18281883001327515,"w240":-0.4210001826286316,"w580":-0.2881796360015869,"w598":-0.45792147517204285,"w351":-0.3638192117214203,"w258":-0.7585431933403015,"w899":0.19416354596614838,"w872":-0.010884067974984646,"w120":0.05462178960442543,"w3":0.6653428673744202,"w646":1.0600862503051758,"w23":0.4111800193786621,"w561":0.4719710350036621,"w5":0.6592592597007751,"w8":0.5980406403541565,"w224":0.5005610585212708,"w371":1.3386948108673096,"w52":0.1306011825799942,"w418":0.60520339012146,"w542":0.5021415948867798,"w122":0.9978400468826294,"w522":0.6320945024490356,"w773":0.5088388323783875,"w417":0.5282499194145203,"w597":0.46883803606033325,"w124":0.9513903856277466,"w119":0.8191986680030823,"w121":0.41236162185668945,"w669":0.10625959932804108,"w24":0.19073766469955444,"w856":0.3027510643005371,"w225":0.10359160602092743,"w796":0.4136255383491516,"w454":0.045353736728429794,"w2":0.28855109214782715,"w10":0.22291794419288635,"w4":0.02030918002128601,"w458":0.4128803610801697,"w540":0.6338120102882385,"w452":0.20507855713367462,"w451":0.29836446046829224,"w538":0.16408458352088928,"w276":0.28388822078704834,"w536":0.4040752053260803,"w132":0.20122072100639343,"w269":0.3525354564189911,"w651":0.28904563188552856,"w441":0.32192420959472656,"w493":0.2378484457731247,"w306":0.20287400484085083,"w893":0.2866186201572418,"w167":0.2914641499519348,"w535":0.11850324273109436,"w382":0.13941262662410736,"w7":0.03136825188994408,"w169":0.08622848242521286,"w894":0.1867106705904007,"w170":-0.24247054755687714,"w903":-0.05216945335268974,"w395":-0.10142084211111069,"w230":0.06435428559780121,"w715":-0.10199140012264252,"w180":0.044876571744680405,"w262":0.02208538167178631,"w677":0.12991094589233398,"w255":-0.21491897106170654,"w229":0.13084247708320618,"w311":0.045771338045597076,"w254":-0.2588248550891876,"w182":-0.36365053057670593,"w179":-0.05669666826725006,"w714":0.18215669691562653,"w650":-0.18762531876564026,"w292":-0.2927079498767853,"w550":-0.027980651706457138,"w190":-2.6561644077301025,"w28":0.03582978621125221,"w842":-0.18092010915279388,"w301":-0.5854885578155518,"w944":-0.8677700161933899,"w377":-0.5139546990394592,"w0":-0.3266676962375641,"w942":-0.030499016866087914,"w635":-0.5037970542907715,"w551":-0.4781211316585541,"w428":-0.26025471091270447,"w236":-0.8929641246795654,"w183":0.3600817918777466,"w624":-0.23099686205387115,"w6":0.2950786054134369,"w192":-0.4120160639286041,"w187":-0.9326287508010864,"w62":-0.5322467088699341,"w174":-1.395445466041565,"w143":-0.20404334366321564,"w812":-0.6226141452789307,"w852":-0.04687459394335747,"w966":-0.07360780239105225,"w683":-0.45300784707069397,"w243":-0.8496904373168945,"w189":-1.0982470512390137,"w478":-0.09228352457284927,"w907":-0.08907149732112885,"w261":-0.03638957068324089,"w94":0.16892710328102112,"w233":-0.2698628306388855,"w173":-0.012818817980587482,"w902":-0.36644378304481506,"w257":-0.06434532254934311,"w278":-0.17958617210388184,"w520":-0.19439741969108582,"w873":-0.11502411961555481,"w951":-0.16247327625751495,"w716":-0.11496356129646301,"w967":0.019703416153788567,"w943":-0.2777327299118042,"w549":-0.2546587884426117,"w874":-0.20530752837657928,"w802":-0.24686890840530396,"w953":0.036700036376714706,"w859":0.09634339064359665,"w196":0.2522483468055725,"w957":0.238031268119812,"w529":-0.09024715423583984,"w197":0.19683325290679932,"w195":-0.14913685619831085,"w198":0.11663723737001419,"w530":0.22289913892745972,"w266":0.21042822301387787,"w215":0.1975533366203308,"w47":0.12487296015024185,"w914":0.3659939169883728,"w643":-0.3329826891422272,"w705":-0.19933345913887024,"w642":-0.13295646011829376,"w165":-0.10844367742538452,"w491":-0.3194870054721832,"w302":0.10254095494747162,"w74":-0.11856523901224136,"w755":-0.0227777399122715,"w620":-0.06321386247873306,"w647":-0.18524520099163055,"w648":-0.44901344180107117,"w485":-0.05560293421149254,"w492":-0.25849011540412903,"w667":-0.16141921281814575,"w882":-0.25496912002563477,"w482":-0.07520642876625061,"w353":-0.17780059576034546,"w22":0.10877642035484314,"w574":-0.205114483833313,"w518":0.10092180967330933,"w629":0.8230965733528137,"w789":0.868279218673706,"w378":0.049082208424806595,"w711":0.3063984513282776,"w409":0.29583263397216797,"w712":0.6362619400024414,"w709":0.8428926467895508,"w849":-0.017945285886526108,"w825":0.4695732891559601,"w628":0.3509766757488251,"w630":0.2975456118583679,"w623":0.5400985479354858,"w923":0.09057014435529709,"w548":-0.19868826866149902,"w105":0.20082660019397736,"w850":0.02795412577688694,"w206":0.12314744293689728,"w81":0.2087986022233963,"w863":-0.024846971035003662,"w765":-0.051954761147499084,"w26":-0.09741631150245667,"w247":0.2803378105163574,"w582":0.20230227708816528,"w599":0.1530674546957016,"w766":0.253385454416275,"w27":0.33438175916671753,"w241":0.12145723402500153,"w295":0.0666416808962822,"w13":0.056164056062698364,"w69":0.12787318229675293,"w654":-0.5457853674888611,"w63":-0.19796845316886902,"w470":-0.38042959570884705,"w640":-0.4324643909931183,"w697":-0.13190145790576935,"w634":-0.0720033124089241,"w929":0.015122547745704651,"w656":0.04122175648808479,"w655":-0.32301995158195496,"w87":0.12637057900428772,"w486":-0.22700904309749603,"w707":-0.11063390225172043,"w73":-0.14553216099739075,"w415":0.04624764993786812,"w833":0.1017603799700737,"w955":-0.13329172134399414,"w226":-0.10356717556715012,"w781":-0.7744657397270203,"w780":0.15184400975704193,"w779":0.3292347490787506,"w803":0.0371234230697155,"w44":-0.17523987591266632,"w734":-0.5126466751098633,"w128":-0.2491871416568756,"w732":-0.09952239692211151,"w495":-0.138951376080513,"w475":0.0345553457736969,"w639":-0.02363142929971218,"w480":-0.01284998282790184,"w751":-0.19366751611232758,"w769":0.02202838473021984,"w733":-0.11988768726587296,"w735":-0.2365320324897766,"w730":0.06058222055435181,"w479":-0.24761804938316345,"w948":0.03994257003068924,"w333":-0.21876242756843567,"w916":-0.2857561409473419,"w393":-0.1728048175573349,"w507":-0.3452293276786804,"w883":0.1123654916882515,"w66":-0.09959127008914948,"w67":-0.2767380475997925,"w53":-0.1505027711391449,"w981":-0.3580264449119568,"w506":-0.27806705236434937,"w68":0.0039033794309943914,"w778":-0.20951947569847107,"w127":-0.24023307859897614,"w659":-0.2000599503517151,"w915":-0.04458560422062874,"w917":-0.22892215847969055,"w918":-0.21575762331485748,"w525":-0.1898028701543808,"w800":-0.13187342882156372,"w30":-0.3312073051929474,"w193":0.09307938814163208,"w671":0.26617559790611267,"w429":0.10445112735033035,"w771":-0.02745707519352436,"w315":-0.09148893505334854,"w510":0.15402300655841827,"w408":0.22739027440547943,"w682":-0.036187972873449326,"w772":0.05213720351457596,"w563":0.07572275400161743,"w762":0.009404140524566174,"w145":0.018598444759845734,"w763":-0.03058086521923542,"w545":0.10565854609012604,"w978":0.20082761347293854,"w51":0.02769147790968418,"w559":-0.00395351042971015,"w564":0.09577295929193497,"w557":0.3179793953895569,"w670":0.1571943610906601,"w750":-0.04958617314696312,"w710":0.5227774381637573,"w790":0.4710683226585388,"w791":0.5911687612533569,"w788":0.37217193841934204,"w250":-0.01598293147981167,"w16":0.28197169303894043,"w500":0.3039195239543915,"w162":0.2981337904930115,"w631":0.3484595715999603,"w787":-0.060153670608997345,"w54":-0.05172143876552582,"w502":0.30352815985679626,"w736":0.08959580212831497,"w501":0.22653897106647491,"w810":0.14354108273983002,"w207":-0.04433349519968033,"w469":0.22682109475135803,"w514":-0.03616483509540558,"w739":0.1295841485261917,"w718":-0.5229400396347046,"w757":1.1821380853652954,"w756":0.11871529370546341,"w652":0.4488961100578308,"w758":0.7173573970794678,"w759":0.5677124261856079,"w753":0.45204034447669983,"w328":0.13576778769493103,"w703":-0.24721811711788177,"w681":-0.25263655185699463,"w704":-0.1771707683801651,"w702":-0.15704087913036346,"w701":-0.13624730706214905,"w767":-0.0012341219699010253,"w58":0.1899733692407608,"w341":-0.15232785046100616,"w590":0.20889858901500702,"w123":0.13487055897712708,"w745":0.09741386771202087,"w267":-0.4239978790283203,"w609":-0.057873696088790894,"w619":-0.05376986414194107,"w166":0.06636524945497513,"w621":0.03272409737110138,"w817":0.27005937695503235,"w517":-0.07590905576944351,"w958":-0.09646206349134445}},"1":{"bias":-0.27881214022636414,"weights":{"w607":-1.1530702114105225,"w940":-0.6342756748199463,"w330":0.5525508522987366,"w153":0.132091224193573,"w323":0.016116924583911896,"w911":-0.042979296296834946,"w56":0.1903807371854782,"w644":-0.0058552902191877365,"w969":0.42450955510139465,"w144":0.001086666015908122,"w40":-0.13398873805999756,"w108":0.04833277314901352,"w39":-0.11429806798696518,"w764":0.18963275849819183,"w286":0.07577268779277802,"w268":0.23333507776260376,"w396":-0.1408649981021881,"w886":-0.22669357061386108,"w319":-0.09344351291656494,"w448":-0.5580483675003052,"w436":0.2192668467760086,"w446":-0.16368670761585236,"w979":-0.2701413333415985,"w808":0.046887610107660294,"w489":-0.05405077338218689,"w322":0.1662784218788147,"w431":0.1985396295785904,"w950":0.1244753822684288,"w938":0.07072482258081436,"w576":-0.16538147628307343,"w383":-0.07200054079294205,"w610":0.1586931198835373,"w600":-0.012691514566540718,"w939":0.15675561130046844,"w560":0.26440542936325073,"w411":0.07464447617530823,"w339":-0.2736399471759796,"w387":0.017514115199446678,"w928":-0.11008302867412567,"w245":0.07646364718675613,"w461":-0.2375522404909134,"w941":-0.031154422089457512,"w447":0.01560902502387762,"w774":-0.08649880439043045,"w403":0.012285565957427025,"w632":0.49845248460769653,"w413":-0.06838509440422058,"w606":-0.11170214414596558,"w462":0.15483126044273376,"w199":-0.07769337296485901,"w109":0.2099440097808838,"w91":0.1480594426393509,"w807":-0.016747096553444862,"w435":-0.1301298290491104,"w217":0.03554641455411911,"w19":-0.09731686860322952,"w433":-0.12507395446300507,"w974":0.854517936706543,"w474":-0.27354133129119873,"w136":-0.01943100243806839,"w135":0.1505754441022873,"w783":-0.39648890495300293,"w976":-0.07792064547538757,"w973":-0.20666690170764923,"w977":-0.1534201055765152,"w975":-0.12880197167396545,"w934":-0.026603812351822853,"w910":0.42435213923454285,"w200":0.1854449063539505,"w340":-0.699137270450592,"w252":-0.09212356805801392,"w440":-0.12469401210546494,"w494":0.020730560645461082,"w738":0.07029862701892853,"w562":0.4426412880420685,"w641":0.0475139357149601,"w775":0.09610427170991898,"w821":-0.07341109216213226,"w706":0.22684231400489807,"w503":0.13927605748176575,"w897":0.2910255193710327,"w300":0.07869777083396912,"w284":0.3385124206542969,"w152":0.0009700370719656348,"w885":-0.06369531154632568,"w171":0.09369154274463654,"w752":0.28586846590042114,"w528":-0.227987602353096,"w871":0.18272259831428528,"w913":0.3293878138065338,"w776":0.06449182331562042,"w884":0.08062281459569931,"w909":-0.05959782749414444,"w214":0.20171226561069489,"w303":0.4981880187988281,"w212":0.24027113616466522,"w533":0.2128118872642517,"w445":0.24445222318172455,"w741":0.2788005769252777,"w213":0.06374303996562958,"w555":-0.11206131428480148,"w864":0.10617730766534805,"w308":0.1862121969461441,"w147":0.13817015290260315,"w80":0.11509619653224945,"w811":-0.08319748193025589,"w719":0.0794692263007164,"w148":0.046207133680582047,"w149":-0.0865577757358551,"w111":0.03645880147814751,"w350":-0.4347493052482605,"w110":0.07541963458061218,"w265":0.08461697399616241,"w672":0.014809719286859035,"w737":0.044264454394578934,"w71":-0.053540561348199844,"w585":0.17421463131904602,"w952":0.2541068494319916,"w947":-0.1516791433095932,"w823":-0.29011863470077515,"w18":0.12036971747875214,"w972":-0.05670297145843506,"w875":0.46689659357070923,"w439":-0.0623338408768177,"w375":0.5445287227630615,"w463":0.01772650144994259,"w724":0.08077552914619446,"w876":0.12654685974121094,"w566":-0.07623354345560074,"w970":0.25811487436294556,"w570":-0.05395809933543205,"w42":-0.08672195672988892,"w404":0.18847382068634033,"w513":0.02398531697690487,"w879":0.01374805811792612,"w453":-0.04161069542169571,"w79":-0.08773653954267502,"w708":0.07961127161979675,"w679":-0.07044822722673416,"w59":-0.025179637596011162,"w84":-0.5220516920089722,"w949":-0.2882780134677887,"w664":0.022612541913986206,"w264":0.03421690687537193,"w843":0.035154350101947784,"w770":-0.11747205257415771,"w29":0.18254806101322174,"w48":0.04985111206769943,"w400":-0.09675193578004837,"w359":0.38974159955978394,"w158":-0.02903580479323864,"w512":0.27155813574790955,"w133":0.22602570056915283,"w723":0.09704998135566711,"w273":0.29017090797424316,"w49":0.058839306235313416,"w362":0.1563701331615448,"w374":0.17665798962116241,"w363":0.1363467276096344,"w337":0.011431101709604263,"w427":0.2980264127254486,"w904":0.24402227997779846,"w438":0.10671307891607285,"w727":0.04888877272605896,"w744":-0.38940346240997314,"w688":-0.4480484127998352,"w686":-0.10386405140161514,"w178":0.32398632168769836,"w465":0.1255096197128296,"w964":-0.3266722559928894,"w219":-0.09676719456911087,"w78":0.45828741788864136,"w31":-0.09317777305841446,"w684":-0.240213081240654,"w690":-0.20252449810504913,"w691":-0.23012082278728485,"w685":-0.038055986166000366,"w676":-0.09610049426555634,"w93":-0.18608097732067108,"w521":0.10517209023237228,"w471":-0.12438448518514633,"w33":-0.12905272841453552,"w593":0.18074965476989746,"w9":0.48548465967178345,"w544":-0.06936169415712357,"w1":0.3674815595149994,"w543":-0.08330486714839935,"w57":0.05739850923418999,"w689":-0.07459582388401031,"w687":0.0040194569155573845,"w232":0.01357264444231987,"w481":0.15501768887043,"w293":0.08616127818822861,"w392":-0.10543080419301987,"w532":-0.03289511054754257,"w853":-0.8078421950340271,"w731":-0.010623390786349773,"w925":-0.019374964758753777,"w795":-0.14385245740413666,"w906":-0.13343922793865204,"w410":-0.05492442846298218,"w860":-0.1168559268116951,"w34":-0.21919406950473785,"w32":-0.18032978475093842,"w35":-0.3181379437446594,"w553":0.07953917235136032,"w75":-0.2842390537261963,"w423":0.2434423565864563,"w11":-0.1640699803829193,"w37":-0.13225266337394714,"w125":0.11317243427038193,"w575":0.0864604115486145,"w844":0.14186325669288635,"w324":-0.19625137746334076,"w329":0.0702381506562233,"w625":0.05910203605890274,"w394":-0.07158639281988144,"w407":-0.1681821346282959,"w466":-0.2440488040447235,"w867":0.0010044563096016645,"w729":0.15178123116493225,"w370":-0.08112958818674088,"w249":-0.13747403025627136,"w97":-0.151508629322052,"w405":-0.1790553778409958,"w523":-0.2060856819152832,"w868":-0.06599448621273041,"w869":-0.12004929035902023,"w866":-0.0446624681353569,"w865":-0.01267737615853548,"w965":0.09169059991836548,"w376":-0.0973716601729393,"w531":-0.192991703748703,"w168":-0.09547954052686691,"w98":-0.1342170238494873,"w726":-0.09188634157180786,"w406":0.15922550857067108,"w242":0.12652648985385895,"w467":0.022691773250699043,"w38":-0.14750045537948608,"w335":-0.24951863288879395,"w326":0.077196404337883,"w416":-0.07215971499681473,"w945":0.12897056341171265,"w231":0.14661051332950592,"w583":-0.07420491427183151,"w959":-0.16025303304195404,"w72":0.1022425964474678,"w20":0.05110897496342659,"w748":-0.19239050149917603,"w86":-0.03919818252325058,"w96":0.041021764278411865,"w21":-0.027271268889307976,"w430":0.05056373402476311,"w55":0.11096881330013275,"w768":-0.02450130134820938,"w401":-0.17573097348213196,"w508":-0.11716081947088242,"w50":0.17661072313785553,"w259":-0.11174790561199188,"w526":-0.12461373209953308,"w12":0.09881161153316498,"w310":0.06658293306827545,"w636":0.139165997505188,"w424":-0.16365613043308258,"w457":-0.17490647733211517,"w246":0.015721134841442108,"w722":-0.15862666070461273,"w596":0.08505725860595703,"w605":0.22978997230529785,"w271":0.13655903935432434,"w107":0.10287512093782425,"w565":0.07553673535585403,"w188":0.07407424598932266,"w836":0.7665498852729797,"w558":-0.11231791973114014,"w971":0.03588176518678665,"w794":0.06521883606910706,"w239":-0.02967563271522522,"w905":0.147444948554039,"w390":-0.17688146233558655,"w797":-0.18660353124141693,"w88":0.04930396378040314,"w618":0.0438082255423069,"w85":0.09988106787204742,"w567":0.002844922011718154,"w15":0.09626927971839905,"w316":-0.15355035662651062,"w961":-0.11549946665763855,"w881":-0.087628573179245,"w381":0.005882191937416792,"w270":0.0837734192609787,"w220":0.08612804859876633,"w877":-0.09655093401670456,"w614":-0.128680020570755,"w304":0.09145338833332062,"w104":-0.045765094459056854,"w587":0.057671092450618744,"w815":0.17942091822624207,"w76":0.10535110533237457,"w437":0.29600831866264343,"w932":0.1398007720708847,"w380":-0.1121310368180275,"w830":0.20639321208000183,"w627":0.055427152663469315,"w700":0.1124998927116394,"w367":0.31796470284461975,"w305":0.06095721572637558,"w208":0.0825425460934639,"w892":0.10947789251804352,"w113":0.19852134585380554,"w100":-0.08765844255685806,"w391":0.00754197733476758,"w592":0.029090765863656998,"w99":-0.25444650650024414,"w673":0.09124118834733963,"w379":-0.02371230348944664,"w251":0.1715247631072998,"w402":0.06963890790939331,"w855":0.14567066729068756,"w275":0.16226419806480408,"w101":0.02797723188996315,"w102":-0.1498655527830124,"w95":0.14307992160320282,"w299":-0.15591754019260406,"w926":0.2923599183559418,"w347":-0.04418687894940376,"w577":0.26889926195144653,"w307":0.22726035118103027,"w444":-0.05894658342003822,"w483":0.21690458059310913,"w103":0.14459724724292755,"w515":-0.0057059056125581264,"w432":-0.09624943882226944,"w720":-0.006071297451853752,"w509":-0.09621767699718475,"w589":0.03370237350463867,"w238":-0.09072631597518921,"w552":0.018241291865706444,"w443":-0.12244633585214615,"w274":0.22374629974365234,"w464":0.013335831463336945,"w890":-0.04994858801364899,"w142":0.04273046925663948,"w155":0.06057709455490112,"w235":-0.18309366703033447,"w857":-0.243117094039917,"w721":0.011745118536055088,"w717":0.11743112653493881,"w277":0.14055000245571136,"w115":0.11104290932416916,"w218":0.08215305954217911,"w806":-0.04994674399495125,"w163":0.1525283008813858,"w346":-0.1244029700756073,"w901":-0.14120681583881378,"w801":-0.14866793155670166,"w344":0.126198410987854,"w228":-0.18161636590957642,"w449":-0.10473406314849854,"w260":-0.04524268954992294,"w956":-0.04566846787929535,"w345":0.013038341887295246,"w343":0.035142432898283005,"w14":-0.3228589594364166,"w221":0.5751299858093262,"w263":-0.08163882791996002,"w908":0.18013668060302734,"w649":0.11111738532781601,"w131":-0.11451024562120438,"w622":0.07366405427455902,"w318":0.30624380707740784,"w785":0.4352397918701172,"w141":-0.28195157647132874,"w216":0.14620691537857056,"w699":-0.07277271896600723,"w698":0.03788793459534645,"w960":-0.18131648004055023,"w223":0.37057262659072876,"w41":0.050423890352249146,"w140":-0.12322813272476196,"w784":0.03430341184139252,"w194":-0.09495341032743454,"w320":0.04598861187696457,"w786":-0.20555223524570465,"w317":0.12003377079963684,"w134":-0.15343232452869415,"w891":0.06504830718040466,"w159":0.28918394446372986,"w151":-0.17220447957515717,"w728":0.3436279594898224,"w534":-0.155948206782341,"w516":0.1327153444290161,"w156":0.07273136079311371,"w161":0.2364961951971054,"w283":0.16673846542835236,"w782":0.060079608112573624,"w661":-0.4812909960746765,"w472":-0.2507855296134949,"w692":-0.064180389046669,"w898":-0.6320654153823853,"w809":-0.18244461715221405,"w314":-0.011955819092690945,"w279":-0.21543574333190918,"w612":-0.014452064409852028,"w645":-0.11374077945947647,"w662":-0.10858678072690964,"w468":-0.09534093737602234,"w820":-0.15184739232063293,"w665":0.29041293263435364,"w900":0.2989407479763031,"w160":-0.018332429230213165,"w660":-0.06668642908334732,"w666":0.15394768118858337,"w90":-0.08340141177177429,"w742":-0.06485576182603836,"w713":-0.10359618067741394,"w209":0.07655277848243713,"w595":0.14615844190120697,"w210":0.0038321479223668575,"w496":-0.07136514782905579,"w138":0.1446920931339264,"w497":0.044633522629737854,"w792":0.1772347092628479,"w747":0.15787853300571442,"w743":0.13952822983264923,"w43":-0.1090966984629631,"w657":-0.0011023639235645533,"w498":-0.03440423682332039,"w64":-0.0749485045671463,"w298":-0.11691224575042725,"w398":0.09559515863656998,"w616":-0.0548311211168766,"w205":-0.15769119560718536,"w588":0.07214869558811188,"w547":-0.1480361372232437,"w397":0.04396010935306549,"w399":0.16737979650497437,"w586":0.0707051083445549,"w746":0.09225057065486908,"w615":0.059190791100263596,"w422":0.11829933524131775,"w296":0.11959005892276764,"w921":-0.42272162437438965,"w919":-0.3251185119152069,"w912":-0.013803762383759022,"w793":-0.2736488878726959,"w244":-0.0977308601140976,"w920":-0.30376312136650085,"w922":-0.12204699218273163,"w388":-0.2039482593536377,"w487":0.026412133127450943,"w826":-0.671449601650238,"w157":-0.37496793270111084,"w658":-0.007680276874452829,"w150":-0.3237863779067993,"w653":-0.025146029889583588,"w827":-0.1599884033203125,"w829":0.15989048779010773,"w828":-0.24398978054523468,"w488":-0.198063462972641,"w749":-0.15714412927627563,"w146":-0.09988712519407272,"w82":-0.17086459696292877,"w434":-0.07345704734325409,"w954":0.04349096864461899,"w980":0.16279283165931702,"w289":0.41790202260017395,"w572":0.19732420146465302,"w77":0.17759519815444946,"w175":0.24712686240673065,"w176":0.15349622070789337,"w290":0.48575741052627563,"w282":-0.4024501442909241,"w611":-0.01649640128016472,"w571":0.29297301173210144,"w126":-0.01430192869156599,"w313":0.25703537464141846,"w280":-0.3634486496448517,"w962":0.3141752779483795,"w862":0.08159708976745605,"w177":0.14598597586154938,"w285":0.007612729910761118,"w227":-0.15030378103256226,"w573":0.015238385647535324,"w248":0.04054749384522438,"w832":0.0036709699779748917,"w591":-0.02206914871931076,"w608":-0.011813855729997158,"w201":0.17350050806999207,"w678":-0.02116434834897518,"w617":0.07557781785726547,"w927":0.11429563164710999,"w203":-0.4819547235965729,"w693":-0.29538509249687195,"w253":-0.6605818867683411,"w870":-0.2575797140598297,"w460":-0.04784292355179787,"w831":0.004089434631168842,"w887":-0.29822874069213867,"w204":-0.25767982006073,"w202":-0.43447205424308777,"w349":-0.3501482307910919,"w896":-0.0038236386608332396,"w637":0.1876455545425415,"w663":-0.05455442890524864,"w499":0.13738228380680084,"w425":0.004881622735410929,"w288":-0.07452429831027985,"w537":-0.10318820178508759,"w674":-0.17064103484153748,"w504":0.07260526716709137,"w626":0.154602512717247,"w668":0.010112241841852665,"w695":-0.41536006331443787,"w139":0.00928708165884018,"w70":-0.07260152697563171,"w694":-0.20675480365753174,"w696":-0.4269978702068329,"w603":0.002243469236418605,"w450":-0.21818895637989044,"w389":-0.25112465023994446,"w65":0.12270760536193848,"w172":-0.08835114538669586,"w191":0.05818840116262436,"w546":0.03728393092751503,"w604":-0.11864721029996872,"w578":-0.18330352008342743,"w281":-0.0385177806019783,"w554":-0.08983708173036575,"w490":-0.10240250080823898,"w164":-0.3193681836128235,"w511":-0.015788087621331215,"w222":-0.15704935789108276,"w484":-0.027473991736769676,"w760":-0.1301286518573761,"w287":0.13479119539260864,"w354":0.5761235952377319,"w364":0.24136734008789062,"w112":-0.0861440971493721,"w256":0.0601426362991333,"w584":-0.366685152053833,"w25":0.11225195974111557,"w968":0.16745172441005707,"w336":-0.006946584675461054,"w297":-0.09631223976612091,"w569":0.24701887369155884,"w568":0.0845673605799675,"w338":0.25699910521507263,"w414":0.059815529733896255,"w46":0.07557948678731918,"w89":0.06919363141059875,"w114":0.09663064777851105,"w931":0.2560422420501709,"w805":-0.06764622032642365,"w358":0.18036764860153198,"w368":0.2704353332519531,"w356":-0.0013995079789310694,"w366":0.1779010146856308,"w369":0.06788621842861176,"w556":0.26959699392318726,"w312":0.4051332175731659,"w804":0.024655979126691818,"w798":0.46848785877227783,"w372":0.36378610134124756,"w373":0.3181387484073639,"w365":0.339105486869812,"w384":0.1588461995124817,"w355":0.24129243195056915,"w357":0.2854821979999542,"w234":-0.06790848076343536,"w237":-0.04919937625527382,"w116":-0.6795621514320374,"w327":-0.48297619819641113,"w740":-0.5213175415992737,"w813":-0.07472608238458633,"w129":-0.37066689133644104,"w818":-0.1833002269268036,"w36":-0.4496712386608124,"w638":-0.05865084007382393,"w539":-0.07794701308012009,"w137":0.10904058814048767,"w602":0.04669925197958946,"w594":0.2788679897785187,"w541":-0.10643693059682846,"w117":-0.28885743021965027,"w118":-0.13655628263950348,"w331":-0.28089889883995056,"w963":0.08580648899078369,"w130":-0.021446995437145233,"w477":-0.09088399261236191,"w332":-0.07858359813690186,"w814":-0.22436051070690155,"w633":-0.030858084559440613,"w613":0.054761871695518494,"w761":-0.1276811808347702,"w601":-0.09280663728713989,"w841":-0.06592589616775513,"w272":-0.2132546454668045,"w777":0.07178664207458496,"w895":-0.08405937254428864,"w581":0.632300853729248,"w325":0.1676388680934906,"w476":-0.1256626546382904,"w837":0.8891282677650452,"w211":0.16855154931545258,"w754":0.722362220287323,"w505":0.2374638170003891,"w846":0.16126719117164612,"w848":0.2095496654510498,"w888":-0.026825575157999992,"w851":0.20561259984970093,"w838":0.6258203983306885,"w845":0.37122970819473267,"w834":0.5955475568771362,"w45":0.7553188800811768,"w360":-0.06827947497367859,"w878":0.20947515964508057,"w924":0.36508578062057495,"w519":0.14056624472141266,"w334":0.34844279289245605,"w880":0.42866599559783936,"w680":-0.09422508627176285,"w361":-0.00001376077034365153,"w840":-0.2062893509864807,"w839":0.5944026112556458,"w847":0.48432624340057373,"w181":-0.2115468531847,"w386":-0.3334524929523468,"w17":-0.11163660883903503,"w455":-0.007323519792407751,"w930":-0.42005014419555664,"w725":-0.28336864709854126,"w83":-0.013221168890595436,"w889":-0.21796251833438873,"w933":-0.1993720829486847,"w854":-0.5843425393104553,"w459":-0.3053947985172272,"w858":-0.5038052797317505,"w185":-0.23169849812984467,"w816":-0.26827991008758545,"w186":-0.3247816264629364,"w184":-0.2768822908401489,"w294":-0.13469265401363373,"w92":-0.1540699452161789,"w321":-0.10955397039651871,"w935":-0.6261628866195679,"w385":0.05611301213502884,"w291":-0.16581511497497559,"w524":-0.2426353245973587,"w426":-0.05919186770915985,"w675":-0.010698908008635044,"w60":-0.12457868456840515,"w824":0.07640726864337921,"w456":-0.20318439602851868,"w309":-0.011686217039823532,"w835":-0.20764338970184326,"w412":-0.17270654439926147,"w937":-0.09596620500087738,"w946":-0.11407109349966049,"w936":-0.12370659410953522,"w420":-0.05518844351172447,"w473":0.05551642179489136,"w154":-0.11687207221984863,"w527":0.04383155331015587,"w799":0.1823388636112213,"w348":-0.048554059118032455,"w61":0.09648583084344864,"w419":-0.14202119410037994,"w421":0.21144504845142365,"w822":0.061329130083322525,"w342":0.14664703607559204,"w579":-0.3001832365989685,"w442":-0.11857878416776657,"w861":-0.31152069568634033,"w352":-0.23193255066871643,"w106":-0.14104723930358887,"w819":-0.052130598574876785,"w240":0.23399174213409424,"w580":0.23637156188488007,"w598":0.10815112292766571,"w351":0.15206484496593475,"w258":0.21866172552108765,"w899":0.049328867346048355,"w872":-0.0913446918129921,"w120":0.46128860116004944,"w3":-0.00013211657642386854,"w646":0.29252439737319946,"w23":-0.1494564265012741,"w561":-0.1582789570093155,"w5":-0.09946679323911667,"w8":-0.0880301296710968,"w224":-0.04707520827651024,"w371":0.09542778879404068,"w52":0.004887023940682411,"w418":0.0020797785837203264,"w542":-0.025046518072485924,"w122":-0.25468114018440247,"w522":0.08428235352039337,"w773":-0.19535206258296967,"w417":-0.07087933272123337,"w597":0.02832578495144844,"w124":0.08182425796985626,"w119":-0.13504865765571594,"w121":-0.037217553704977036,"w669":0.05805031582713127,"w24":-0.038772448897361755,"w856":0.026936562731862068,"w225":0.36726024746894836,"w796":-0.014895979315042496,"w454":0.010625823400914669,"w2":0.10131499916315079,"w10":0.092816561460495,"w4":0.030285242944955826,"w458":-0.05883731693029404,"w540":0.11212311685085297,"w452":0.019457699730992317,"w451":0.10611622035503387,"w538":-0.02913670986890793,"w276":0.1364966481924057,"w536":0.06444156914949417,"w132":0.0019427387742325664,"w269":0.24554447829723358,"w651":0.042523931711912155,"w441":0.211752787232399,"w493":0.07199288159608841,"w306":0.1389259546995163,"w893":0.030875738710165024,"w167":0.1630106419324875,"w535":-0.07592909038066864,"w382":0.09778625518083572,"w7":-0.13919676840305328,"w169":0.11918932944536209,"w894":0.09418576210737228,"w170":0.09899485856294632,"w903":-0.3910302221775055,"w395":-0.30906161665916443,"w230":-0.19442817568778992,"w715":-0.22524791955947876,"w180":-0.030029742047190666,"w262":-0.13291870057582855,"w677":-0.26297834515571594,"w255":0.04356006905436516,"w229":-0.018771009519696236,"w311":-0.1943797767162323,"w254":-0.006001348607242107,"w182":0.0019735933747142553,"w179":-0.10868130624294281,"w714":-0.008135483600199223,"w650":0.10569595545530319,"w292":-0.06274649500846863,"w550":0.04433286190032959,"w190":0.8108124136924744,"w28":-0.011883645318448544,"w842":0.15551692247390747,"w301":0.26352185010910034,"w944":0.5035209059715271,"w377":0.08851782977581024,"w0":0.20453833043575287,"w942":-0.09284128993749619,"w635":0.1686919629573822,"w551":0.4496566355228424,"w428":-0.08376631140708923,"w236":0.09316515922546387,"w183":-0.3326044976711273,"w624":-0.15277716517448425,"w6":-0.27035802602767944,"w192":-0.07015300542116165,"w187":-0.03534141927957535,"w62":-0.059866975992918015,"w174":0.32990190386772156,"w143":-0.15463367104530334,"w812":0.1518925130367279,"w852":0.08550555258989334,"w966":-0.05257144197821617,"w683":0.13023240864276886,"w243":0.054120372980833054,"w189":0.3205372989177704,"w478":0.05156763270497322,"w907":-0.12905296683311462,"w261":0.07484420388936996,"w94":0.09423136711120605,"w233":0.10030216723680496,"w173":-0.0944744423031807,"w902":0.34813493490219116,"w257":0.025850053876638412,"w278":-0.02465478703379631,"w520":0.05425841361284256,"w873":-0.03611314296722412,"w951":-0.22807957231998444,"w716":0.08284398168325424,"w967":-0.15047219395637512,"w943":-0.165428027510643,"w549":-0.07653052359819412,"w874":-0.23018784821033478,"w802":-0.051152363419532776,"w953":-0.1606275588274002,"w859":0.13896889984607697,"w196":-0.12001898139715195,"w957":-0.4631219208240509,"w529":-0.06024707108736038,"w197":0.05387230962514877,"w195":-0.09047623723745346,"w198":-0.026580555364489555,"w530":-0.05427515134215355,"w266":-0.20758111774921417,"w215":-0.15298239886760712,"w47":-0.0840945914387703,"w914":-0.007340037729591131,"w643":0.1163211464881897,"w705":0.19148211181163788,"w642":0.24567583203315735,"w165":0.05306246876716614,"w491":-0.020883841440081596,"w302":0.5206089019775391,"w74":0.05204763263463974,"w755":0.19977129995822906,"w620":0.21584703028202057,"w647":0.20517432689666748,"w648":0.4558107554912567,"w485":-0.051445819437503815,"w492":-0.12447186559438705,"w667":0.15590274333953857,"w882":0.06656277179718018,"w482":0.21923360228538513,"w353":0.3680093586444855,"w22":-0.010079417377710342,"w574":-0.13435588777065277,"w518":0.1946670114994049,"w629":0.1881001889705658,"w789":0.24864605069160461,"w378":0.023056622594594955,"w711":0.00509925652295351,"w409":0.0037914959248155355,"w712":0.155091792345047,"w709":-0.1837075650691986,"w849":-0.05846170336008072,"w825":-0.3013628125190735,"w628":0.14976872503757477,"w630":0.0024337845388799906,"w623":-0.3816680908203125,"w923":-0.034841522574424744,"w548":0.20515434443950653,"w105":0.22297509014606476,"w850":-0.09272831678390503,"w206":-0.09611313790082932,"w81":-0.03397238999605179,"w863":-0.06312015652656555,"w765":0.34935304522514343,"w26":0.2106425166130066,"w247":-0.053938306868076324,"w582":0.2065509557723999,"w599":-0.11377633363008499,"w766":0.21019983291625977,"w27":0.05917678773403168,"w241":-0.21271884441375732,"w295":0.055432673543691635,"w13":0.05262921378016472,"w69":0.22098103165626526,"w654":-0.2314179241657257,"w63":0.10814733803272247,"w470":-0.12712132930755615,"w640":-0.2996987998485565,"w697":0.027790239080786705,"w634":-0.12636300921440125,"w929":0.2034997045993805,"w656":0.18945765495300293,"w655":0.14522293210029602,"w87":-0.007318751886487007,"w486":0.16998569667339325,"w707":0.04653007909655571,"w73":0.08805324137210846,"w415":-0.09653689712285995,"w833":-0.002141625387594104,"w955":0.010682770051062107,"w226":0.22508342564105988,"w781":-0.5273213982582092,"w780":-0.1979551464319229,"w779":-0.12959960103034973,"w803":0.12498093396425247,"w44":0.20840035378932953,"w734":0.15719306468963623,"w128":0.0727553442120552,"w732":-0.02011982910335064,"w495":-0.004071027506142855,"w475":0.008143299259245396,"w639":-0.034302111715078354,"w480":0.1477145403623581,"w751":-0.05633678287267685,"w769":0.13650095462799072,"w733":-0.048909347504377365,"w735":0.14206823706626892,"w730":-0.051926277577877045,"w479":0.157734215259552,"w948":0.11043496429920197,"w333":-0.10096559673547745,"w916":-0.3012188971042633,"w393":-0.1633235514163971,"w507":0.1410328447818756,"w883":0.010327133350074291,"w66":0.023700300604104996,"w67":-0.08171909302473068,"w53":-0.29707756638526917,"w981":0.06981074064970016,"w506":-0.15668906271457672,"w68":0.12194909900426865,"w778":-0.4079433083534241,"w127":-0.09117038547992706,"w659":-0.1310194730758667,"w915":0.12835481762886047,"w917":0.03636530041694641,"w918":-0.021262098103761673,"w525":-0.10033579915761948,"w800":-0.06852643936872482,"w30":0.1602173149585724,"w193":-0.07744640111923218,"w671":-0.27886345982551575,"w429":-0.2341042011976242,"w771":-0.2050984650850296,"w315":0.05669413134455681,"w510":-0.26081693172454834,"w408":0.009876513853669167,"w682":-0.15143634378910065,"w772":0.03751306235790253,"w563":-0.5371865630149841,"w762":-0.14534056186676025,"w145":0.0012390062911435962,"w763":-0.1416526436805725,"w545":-0.016358759254217148,"w978":0.01893765665590763,"w51":0.08633369952440262,"w559":-0.20382381975650787,"w564":-0.125288188457489,"w557":0.051148246973752975,"w670":0.1175781860947609,"w750":0.14165441691875458,"w710":0.02096436358988285,"w790":0.026384875178337097,"w791":0.02670237049460411,"w788":-0.05473513528704643,"w250":-0.054267700761556625,"w16":-0.08602827787399292,"w500":-0.021526429802179337,"w162":-0.09104336053133011,"w631":0.025052880868315697,"w787":0.04417576268315315,"w54":-0.031293436884880066,"w502":0.0842045322060585,"w736":-0.05061905458569527,"w501":-0.12599778175354004,"w810":0.2327238768339157,"w207":-0.14248549938201904,"w469":-0.08881031721830368,"w514":0.12249834835529327,"w739":-0.07475273311138153,"w718":-0.040343236178159714,"w757":-0.21032877266407013,"w756":-0.061344392597675323,"w652":-0.03642057254910469,"w758":-0.2952755391597748,"w759":-0.27992650866508484,"w753":-0.1985127031803131,"w328":-0.012560534290969372,"w703":0.5450626611709595,"w681":0.22590979933738708,"w704":-0.07909782975912094,"w702":0.20090201497077942,"w701":0.14119824767112732,"w767":0.13505767285823822,"w58":-0.16479600965976715,"w341":0.13072705268859863,"w590":0.01849375106394291,"w123":-0.08202061802148819,"w745":0.11882320791482925,"w267":0.30470743775367737,"w609":0.0485856793820858,"w619":0.03239133208990097,"w166":0.05387386307120323,"w621":-0.06405431777238846,"w817":0.02074066922068596,"w517":-0.051004573702812195,"w958":0.21639922261238098}},"2":{"bias":-0.21084070205688477,"weights":{"w607":0.29014256596565247,"w940":0.4361095428466797,"w330":0.3615312874317169,"w153":0.46786466240882874,"w323":0.538432776927948,"w911":0.2656119763851166,"w56":0.08693727850914001,"w644":0.06687053292989731,"w969":-0.2679187059402466,"w144":-0.45531442761421204,"w40":-0.23495975136756897,"w108":0.42965543270111084,"w39":0.574394166469574,"w764":0.10213963687419891,"w286":0.8068921566009521,"w268":0.5889605283737183,"w396":0.6959584355354309,"w886":0.5912721753120422,"w319":0.061012644320726395,"w448":0.1465202420949936,"w436":-0.38500550389289856,"w446":0.15500116348266602,"w979":0.4077320396900177,"w808":0.5146220326423645,"w489":0.38072359561920166,"w322":0.36368733644485474,"w431":-0.19256946444511414,"w950":0.4834226965904236,"w938":0.42982804775238037,"w576":0.40203070640563965,"w383":0.5045084953308105,"w610":0.07469908148050308,"w600":0.5114387273788452,"w939":0.27827760577201843,"w560":-0.09770497679710388,"w411":-0.01525153499096632,"w339":0.41624027490615845,"w387":0.09348904341459274,"w928":0.0414828360080719,"w245":0.15937210619449615,"w461":-0.09782656282186508,"w941":-0.07527925819158554,"w447":0.21518957614898682,"w774":0.3763972222805023,"w403":0.23925921320915222,"w632":-0.3367580473423004,"w413":0.28410759568214417,"w606":0.021727852523326874,"w462":0.38237708806991577,"w199":-0.026469973847270012,"w109":-0.7320579290390015,"w91":-0.0024270033463835716,"w807":0.08501775562763214,"w435":0.13133716583251953,"w217":-0.06564997881650925,"w19":0.49698111414909363,"w433":0.42759931087493896,"w974":-2.5991437435150146,"w474":0.1784442514181137,"w136":0.30007311701774597,"w135":-0.046096064150333405,"w783":0.007350245490670204,"w976":-1.673776388168335,"w973":-1.361770749092102,"w977":-1.2362096309661865,"w975":-1.0423943996429443,"w934":-0.15456213057041168,"w910":-0.17206460237503052,"w200":-0.02754369005560875,"w340":-0.01985909976065159,"w252":-0.07915439456701279,"w440":-0.017581170424818993,"w494":0.15859590470790863,"w738":0.2741851806640625,"w562":1.0347963571548462,"w641":0.623529851436615,"w775":0.39841100573539734,"w821":0.08066801726818085,"w706":-0.10057058930397034,"w503":-0.2540103495121002,"w897":-0.3476512134075165,"w300":-0.3620709478855133,"w284":0.4567726254463196,"w152":-0.29479262232780457,"w885":-0.3317946195602417,"w171":-0.12619610130786896,"w752":-0.16205322742462158,"w528":0.3477284908294678,"w871":-0.22411520779132843,"w913":-0.2667095959186554,"w776":0.48435670137405396,"w884":0.05045843496918678,"w909":-0.5943425893783569,"w214":0.3748317062854767,"w303":0.7433526515960693,"w212":-0.39893588423728943,"w533":0.35129815340042114,"w445":-0.18582376837730408,"w741":-0.048901911824941635,"w213":-0.012878122739493847,"w555":-0.14877577126026154,"w864":0.07757074385881424,"w308":-0.199783056974411,"w147":-0.5343459844589233,"w80":-0.9113047122955322,"w811":-0.2972882390022278,"w719":-0.13100990653038025,"w148":-0.14357201755046844,"w149":-0.20991137623786926,"w111":0.012527424842119217,"w350":-1.2954440116882324,"w110":0.015935439616441727,"w265":-0.1497507095336914,"w672":-0.16673485934734344,"w737":0.0011845941189676523,"w71":-0.15025700628757477,"w585":-0.1718086302280426,"w952":-0.011375377885997295,"w947":-0.862643837928772,"w823":-0.0618416927754879,"w18":0.15083187818527222,"w972":0.1289912611246109,"w875":0.04806569963693619,"w439":-0.2925523817539215,"w375":0.052954696118831635,"w463":-0.23978467285633087,"w724":-0.0248407069593668,"w876":0.3829903304576874,"w566":-1.2013930082321167,"w970":0.0505262054502964,"w570":-0.39479127526283264,"w42":-0.03187604621052742,"w404":-0.20108777284622192,"w513":0.2561074197292328,"w879":0.14126378297805786,"w453":-0.08793680369853973,"w79":-0.10023843497037888,"w708":-0.07320503145456314,"w679":0.042142730206251144,"w59":0.17991411685943604,"w84":0.020375924184918404,"w949":-0.06685150414705276,"w664":0.05975399911403656,"w264":-0.07788513600826263,"w843":-0.16944944858551025,"w770":-0.014438732527196407,"w29":-0.08541800081729889,"w48":-0.14443233609199524,"w400":0.06344302743673325,"w359":-0.29498741030693054,"w158":-0.0510585755109787,"w512":-0.1584216207265854,"w133":-0.19118350744247437,"w723":0.040993016213178635,"w273":0.04287336766719818,"w49":-0.10133776068687439,"w362":-0.13715048134326935,"w374":-0.061780061572790146,"w363":0.0740390345454216,"w337":-0.08241090178489685,"w427":0.13773475587368011,"w904":0.08029074221849442,"w438":0.32472625374794006,"w727":-0.21530845761299133,"w744":0.9075133800506592,"w688":1.1508437395095825,"w686":1.6034564971923828,"w178":0.9362585544586182,"w465":0.8096401691436768,"w964":0.9013908505439758,"w219":0.8656813502311707,"w78":0.5483613610267639,"w31":-0.7670865654945374,"w684":1.015146255493164,"w690":0.7676297426223755,"w691":1.3682359457015991,"w685":0.7796931266784668,"w676":0.30100682377815247,"w93":-0.0300863329321146,"w521":0.1299528181552887,"w471":-0.49633654952049255,"w33":0.697588324546814,"w593":0.3885621726512909,"w9":-0.06044518202543259,"w544":0.26924455165863037,"w1":-0.3342736065387726,"w543":0.2421495020389557,"w57":-0.4715604782104492,"w689":1.0267747640609741,"w687":0.9946661591529846,"w232":0.27150967717170715,"w481":0.24577736854553223,"w293":0.21797750890254974,"w392":-0.14103640615940094,"w532":0.15093901753425598,"w853":-0.18075543642044067,"w731":0.19309216737747192,"w925":-0.20232287049293518,"w795":0.12391190230846405,"w906":-0.08126232028007507,"w410":-0.013031603768467903,"w860":0.21228502690792084,"w34":-0.6835723519325256,"w32":-0.5883951187133789,"w35":-0.1505841165781021,"w553":0.07618242502212524,"w75":-0.18013671040534973,"w423":-0.05212441086769104,"w11":-0.24454300105571747,"w37":-0.0823502168059349,"w125":-0.04612209275364876,"w575":0.20623824000358582,"w844":0.13659290969371796,"w324":-0.00639025354757905,"w329":-0.13674601912498474,"w625":-0.4787488877773285,"w394":-0.03602663800120354,"w407":-0.2607314884662628,"w466":0.14638619124889374,"w867":-0.11887967586517334,"w729":-0.012172549031674862,"w370":-0.5919042825698853,"w249":-0.11507370322942734,"w97":-0.13931220769882202,"w405":0.1471189558506012,"w523":0.12379120290279388,"w868":-0.03693441301584244,"w869":-0.12151285260915756,"w866":-0.062146056443452835,"w865":0.07107140123844147,"w965":0.02965332381427288,"w376":0.06297361850738525,"w531":0.05331863835453987,"w168":1.467509150505066,"w98":0.10532443225383759,"w726":-0.03442955017089844,"w406":0.16246865689754486,"w242":0.11270355433225632,"w467":-0.2052479088306427,"w38":0.0956316813826561,"w335":-0.6068229079246521,"w326":0.4718135595321655,"w416":0.06247258558869362,"w945":-0.21807129681110382,"w231":0.012644420377910137,"w583":0.1937493085861206,"w959":0.08689549565315247,"w72":0.06792184710502625,"w20":-0.08853268623352051,"w748":0.007536021992564201,"w86":-0.05598790943622589,"w96":0.0657578781247139,"w21":-0.25903594493865967,"w430":0.039319347590208054,"w55":-0.08527839183807373,"w768":-0.09816070646047592,"w401":-0.12094374001026154,"w508":0.16459603607654572,"w50":0.2264908105134964,"w259":-0.05138488486409187,"w526":-0.013157078064978123,"w12":0.12027076631784439,"w310":-0.12391500174999237,"w636":-0.027793262153863907,"w424":-0.09977050125598907,"w457":0.21484562754631042,"w246":-0.0326327309012413,"w722":0.20683753490447998,"w596":-0.07001620531082153,"w605":0.03138457611203194,"w271":0.08465743809938431,"w107":-0.002746909623965621,"w565":0.3496692180633545,"w188":-0.5330559611320496,"w836":1.2370140552520752,"w558":0.1110391765832901,"w971":-0.8569677472114563,"w794":-0.13456425070762634,"w239":-0.18286120891571045,"w905":0.09234824776649475,"w390":0.02598298154771328,"w797":-0.06173991411924362,"w88":-0.14704783260822296,"w618":0.11315785348415375,"w85":-0.07125694304704666,"w567":-0.1873636245727539,"w15":-0.16302162408828735,"w316":-0.019076168537139893,"w961":-0.09094657748937607,"w881":0.15154530107975006,"w381":0.16044367849826813,"w270":-0.07508235424757004,"w220":0.09532857686281204,"w877":0.09440743923187256,"w614":-0.12941446900367737,"w304":-0.14701347053050995,"w104":-0.021822843700647354,"w587":-0.3626424968242645,"w815":-0.1486351191997528,"w76":-0.021242402493953705,"w437":0.22924111783504486,"w932":0.24112655222415924,"w380":0.02797919698059559,"w830":0.16951611638069153,"w627":0.03587955981492996,"w700":-0.15394064784049988,"w367":0.2639230787754059,"w305":-0.06039592996239662,"w208":-0.04013046622276306,"w892":-0.05964284390211105,"w113":0.07843588292598724,"w100":-0.05719926580786705,"w391":0.1298205405473709,"w592":-0.14693759381771088,"w99":-0.11524410545825958,"w673":0.09434308111667633,"w379":0.005087465979158878,"w251":-0.12316742539405823,"w402":0.0697159394621849,"w855":0.05869287624955177,"w275":-0.03908073902130127,"w101":0.05830777809023857,"w102":-0.015171322971582413,"w95":-0.06673797219991684,"w299":-0.004709460772573948,"w926":0.09169447422027588,"w347":-0.016868500038981438,"w577":0.44402843713760376,"w307":0.1608143448829651,"w444":0.08181855827569962,"w483":0.1022845134139061,"w103":0.23754572868347168,"w515":0.167717844247818,"w432":0.17125406861305237,"w720":-0.20719312131404877,"w509":-0.008872130885720253,"w589":-0.21517954766750336,"w238":-0.2514609694480896,"w552":0.02006734535098076,"w443":0.08553200215101242,"w274":-0.05146126076579094,"w464":0.013548552989959717,"w890":-0.07206106185913086,"w142":-0.03271869570016861,"w155":0.06917434185743332,"w235":0.4686802923679352,"w857":-0.24358589947223663,"w721":-0.15736760199069977,"w717":0.0022212141193449497,"w277":0.0627223551273346,"w115":-0.20227113366127014,"w218":0.19714446365833282,"w806":0.06521216779947281,"w163":-0.21549513936042786,"w346":0.2434081882238388,"w901":-0.286103218793869,"w801":0.2604281008243561,"w344":-0.1115020141005516,"w228":0.015422993339598179,"w449":-0.23525987565517426,"w260":-0.005839907098561525,"w956":-0.038169268518686295,"w345":-0.15980085730552673,"w343":0.058804236352443695,"w14":-0.10282241553068161,"w221":-1.4434198141098022,"w263":-0.09697440266609192,"w908":-0.10292794555425644,"w649":0.108329176902771,"w131":0.021583430469036102,"w622":0.21578970551490784,"w318":-0.15658020973205566,"w785":-1.3733230829238892,"w141":-0.2361106425523758,"w216":-0.07416292279958725,"w699":-0.24530164897441864,"w698":-0.16638627648353577,"w960":-0.3330540060997009,"w223":0.3517933487892151,"w41":-0.47708919644355774,"w140":-0.17337064445018768,"w784":-0.17817723751068115,"w194":-0.26348695158958435,"w320":-0.05603046342730522,"w786":-0.4495813846588135,"w317":0.004775989800691605,"w134":0.13886789977550507,"w891":-0.09323465079069138,"w159":0.7976322174072266,"w151":0.08241870999336243,"w728":0.7119894027709961,"w534":-0.14670570194721222,"w516":0.6265980005264282,"w156":0.3562631905078888,"w161":0.42596814036369324,"w283":-0.06652124971151352,"w782":-0.11320771276950836,"w661":0.143805593252182,"w472":0.15489211678504944,"w692":0.1766510307788849,"w898":-0.4760553240776062,"w809":-0.005527335684746504,"w314":-0.10595329105854034,"w279":0.05603134632110596,"w612":-0.14048521220684052,"w645":-0.11856962740421295,"w662":0.009962598793208599,"w468":0.08861321210861206,"w820":0.08192441612482071,"w665":-0.12857045233249664,"w900":-0.21451309323310852,"w160":-0.1944836527109146,"w660":-0.17861047387123108,"w666":0.1066216379404068,"w90":-0.16589227318763733,"w742":-0.3404071629047394,"w713":-0.03961432725191116,"w209":-0.014207442291080952,"w595":-0.8647384643554688,"w210":-0.0003923581098206341,"w496":-0.03558628261089325,"w138":-0.1821891814470291,"w497":-0.05213640630245209,"w792":-0.021181581541895866,"w747":-0.2033405900001526,"w743":0.1264018565416336,"w43":-0.0032924157567322254,"w657":-0.11332915723323822,"w498":-0.31163114309310913,"w64":-0.14930467307567596,"w298":0.25102829933166504,"w398":-0.8977406024932861,"w616":-0.21487778425216675,"w205":-0.1698164939880371,"w588":-0.012681803666055202,"w547":-0.15188683569431305,"w397":0.06581777334213257,"w399":-0.172276571393013,"w586":0.04708794504404068,"w746":-0.32653939723968506,"w615":-0.22970499098300934,"w422":0.04813464358448982,"w296":-0.004477217327803373,"w921":-0.5147759914398193,"w919":-0.36455237865448,"w912":0.06807530671358109,"w793":-0.2744746804237366,"w244":-0.1871677041053772,"w920":-0.3511004149913788,"w922":-0.31027752161026,"w388":-0.2330046445131302,"w487":0.3063086271286011,"w826":-0.443692684173584,"w157":-0.18442025780677795,"w658":-0.10423801094293594,"w150":-0.24125272035598755,"w653":-0.12170030921697617,"w827":0.08156094700098038,"w829":0.05152096599340439,"w828":0.044676318764686584,"w488":-0.09884780645370483,"w749":0.12416835129261017,"w146":-0.058867450803518295,"w82":-0.09939613193273544,"w434":0.056880392134189606,"w954":-0.16118475794792175,"w980":-0.0793730840086937,"w289":0.27556169033050537,"w572":0.143192321062088,"w77":0.22569836676120758,"w175":0.21187035739421844,"w176":0.25487470626831055,"w290":0.49821779131889343,"w282":-0.37544745206832886,"w611":-0.09718411415815353,"w571":0.14277110993862152,"w126":0.2696499228477478,"w313":0.21977999806404114,"w280":0.33303698897361755,"w962":0.15363045036792755,"w862":0.27261972427368164,"w177":0.16056518256664276,"w285":0.20469358563423157,"w227":0.37858617305755615,"w573":0.13620825111865997,"w248":-0.024363040924072266,"w832":-0.09641440957784653,"w591":0.13586844503879547,"w608":0.3619108498096466,"w201":0.2312021255493164,"w678":0.41434842348098755,"w617":0.013329019770026207,"w927":0.05116761103272438,"w203":-1.6039456129074097,"w693":-1.3993033170700073,"w253":-1.187089204788208,"w870":-1.4596214294433594,"w460":-0.292795866727829,"w831":-0.1320110708475113,"w887":-0.1605929732322693,"w204":-1.1303160190582275,"w202":-0.9480896592140198,"w349":-1.2010024785995483,"w896":-0.10350765287876129,"w637":-0.10831725597381592,"w663":-0.014339444227516651,"w499":0.5807648301124573,"w425":0.3718869090080261,"w288":0.33853307366371155,"w537":0.02233268693089485,"w674":-0.16101880371570587,"w504":0.056551042944192886,"w626":0.5650982856750488,"w668":0.2793109118938446,"w695":-1.301190733909607,"w139":-1.0894125699996948,"w70":-0.47547483444213867,"w694":-0.9543681144714355,"w696":-0.8905773162841797,"w603":-0.3460341989994049,"w450":0.47675204277038574,"w389":-0.2336728870868683,"w65":-0.12166900187730789,"w172":-0.1754627674818039,"w191":0.06855498254299164,"w546":-0.32213354110717773,"w604":-0.4459478557109833,"w578":-0.5139093995094299,"w281":-0.030795158818364143,"w554":-0.013454795815050602,"w490":-0.47954413294792175,"w164":-0.40865558385849,"w511":0.23050564527511597,"w222":0.118022620677948,"w484":0.2400067150592804,"w760":-0.02176610752940178,"w287":0.2309938669204712,"w354":0.1641758382320404,"w364":-0.03974757716059685,"w112":0.039125435054302216,"w256":0.167787104845047,"w584":-0.8166874647140503,"w25":0.12785527110099792,"w968":0.06811904162168503,"w336":0.03884938731789589,"w297":0.07941313832998276,"w569":-0.031245607882738113,"w568":0.06072574481368065,"w338":0.21911939978599548,"w414":0.08540955185890198,"w46":0.18391700088977814,"w89":0.10044731199741364,"w114":0.1162126362323761,"w931":-0.03294401615858078,"w805":0.37747880816459656,"w358":0.1879686713218689,"w368":0.1951984316110611,"w356":0.17182260751724243,"w366":0.21032913029193878,"w369":0.2648412883281708,"w556":0.46991345286369324,"w312":0.4263143539428711,"w804":0.3517167866230011,"w798":0.51537024974823,"w372":0.36010515689849854,"w373":0.10810113698244095,"w365":0.07398868352174759,"w384":0.2412211298942566,"w355":0.14310993254184723,"w357":0.04676544666290283,"w234":0.1238810122013092,"w237":0.07384840399026871,"w116":-0.8000578880310059,"w327":-0.7678261995315552,"w740":-0.7817929983139038,"w813":-0.0790356993675232,"w129":-0.6653569936752319,"w818":-0.7519205212593079,"w36":-0.7498114705085754,"w638":-0.39879995584487915,"w539":-0.40242505073547363,"w137":0.12154357135295868,"w602":0.11530652642250061,"w594":-0.8072149157524109,"w541":-0.3357648253440857,"w117":-0.6091834902763367,"w118":-0.8452188968658447,"w331":-0.659193217754364,"w963":-0.41546469926834106,"w130":-0.28429165482521057,"w477":-0.08372120559215546,"w332":-0.01241730060428381,"w814":-0.3622300922870636,"w633":-0.2788420617580414,"w613":-0.49230748414993286,"w761":-0.37545034289360046,"w601":-0.9624648094177246,"w841":0.23050116002559662,"w272":-0.557114839553833,"w777":-0.1405785232782364,"w895":-0.7183314561843872,"w581":0.2867111563682556,"w325":0.11461698263883591,"w476":0.2985974848270416,"w837":1.6910912990570068,"w211":-0.06755001097917557,"w754":1.3448995351791382,"w505":0.24657891690731049,"w846":0.21225984394550323,"w848":-0.051436565816402435,"w888":-0.14585354924201965,"w851":0.15032058954238892,"w838":1.434769868850708,"w845":1.391060471534729,"w834":1.4002662897109985,"w45":1.5317392349243164,"w360":0.24528802931308746,"w878":0.6422969102859497,"w924":0.8563715219497681,"w519":0.5312393307685852,"w334":1.084822654724121,"w880":0.7844604253768921,"w680":-0.061730772256851196,"w361":0.06907539814710617,"w840":-0.08436208218336105,"w839":1.2111338376998901,"w847":1.3063338994979858,"w181":0.1572752594947815,"w386":-0.03773820400238037,"w17":-0.1290663480758667,"w455":-0.18184047937393188,"w930":-0.025500226765871048,"w725":0.006951336748898029,"w83":-0.00047292670933529735,"w889":0.12024747580289841,"w933":-0.1136321946978569,"w854":-0.053684964776039124,"w459":-0.3999525010585785,"w858":0.1587974727153778,"w185":-2.6270153522491455,"w816":-1.2056809663772583,"w186":-1.1057755947113037,"w184":-0.8794455528259277,"w294":-0.22828218340873718,"w92":-0.19763171672821045,"w321":-0.3231006860733032,"w935":-0.4175266921520233,"w385":-0.0711248442530632,"w291":-0.06566110253334045,"w524":-0.1863074153661728,"w426":-0.07652699202299118,"w675":-0.3491692543029785,"w60":-0.11244582384824753,"w824":-0.03127977252006531,"w456":-0.2471657246351242,"w309":-0.07432358711957932,"w835":-0.029083047062158585,"w412":-0.3386971652507782,"w937":-0.04246274754405022,"w946":0.06418666988611221,"w936":0.1292247772216797,"w420":-0.12123001366853714,"w473":-0.12685665488243103,"w154":-0.18092060089111328,"w527":0.0012417087564244866,"w799":0.39204534888267517,"w348":0.22021786868572235,"w61":-0.15379151701927185,"w419":0.011942238546907902,"w421":-0.20706678926944733,"w822":-0.21830512583255768,"w342":-0.1378181129693985,"w579":1.4619998931884766,"w442":0.767575204372406,"w861":0.2150574028491974,"w352":0.32522058486938477,"w106":-0.1470215618610382,"w819":0.1130443885922432,"w240":0.2882554233074188,"w580":0.6354886889457703,"w598":0.3962971866130829,"w351":0.2572198510169983,"w258":0.21025431156158447,"w899":-0.028429744765162468,"w872":-0.1404135525226593,"w120":-1.5100526809692383,"w3":-0.34673118591308594,"w646":-0.004223608877509832,"w23":-0.3792039453983307,"w561":-0.21402034163475037,"w5":-0.0439416877925396,"w8":-0.01581749878823757,"w224":-0.37145596742630005,"w371":-0.17889681458473206,"w52":-0.1194736436009407,"w418":-0.16655275225639343,"w542":-0.1391085684299469,"w122":0.051284756511449814,"w522":-0.46381422877311707,"w773":-0.21474502980709076,"w417":-0.38662266731262207,"w597":0.09748564660549164,"w124":-0.004520781338214874,"w119":-0.07197733968496323,"w121":-0.09575087577104568,"w669":0.049667101353406906,"w24":0.026407940313220024,"w856":0.10773410648107529,"w225":0.13067755103111267,"w796":-0.3162749707698822,"w454":0.26991716027259827,"w2":0.8070247173309326,"w10":0.33121126890182495,"w4":-0.09531719982624054,"w458":0.8827901482582092,"w540":0.988727331161499,"w452":0.2695806920528412,"w451":0.6552520990371704,"w538":0.5707905292510986,"w276":1.0921720266342163,"w536":0.3737313151359558,"w132":0.6818327903747559,"w269":0.7040811777114868,"w651":0.45537590980529785,"w441":0.49352604150772095,"w493":0.6199607849121094,"w306":0.29695335030555725,"w893":0.814765214920044,"w167":0.9766741991043091,"w535":0.36596691608428955,"w382":0.0890837013721466,"w7":-0.19070124626159668,"w169":0.654922604560852,"w894":0.6040688753128052,"w170":0.482267826795578,"w903":0.16341976821422577,"w395":0.09039033949375153,"w230":0.20806829631328583,"w715":0.4016953110694885,"w180":0.11468484997749329,"w262":0.24716068804264069,"w677":1.1648786067962646,"w255":-0.20109085738658905,"w229":0.7803293466567993,"w311":0.21573922038078308,"w254":0.10188309848308563,"w182":-0.018608728423714638,"w179":0.03089757263660431,"w714":0.1438392847776413,"w650":-0.060914553701877594,"w292":0.2918907105922699,"w550":-0.1047985777258873,"w190":-1.2546453475952148,"w28":0.03707282617688179,"w842":0.0832258015871048,"w301":0.12245366722345352,"w944":0.012548094615340233,"w377":-0.09470243752002716,"w0":0.06227440759539604,"w942":-0.3224896192550659,"w635":-0.36689233779907227,"w551":-0.45084941387176514,"w428":-0.4898960590362549,"w236":-0.45726776123046875,"w183":-0.5067836046218872,"w624":0.10478059202432632,"w6":-0.034601885825395584,"w192":-0.0642649382352829,"w187":-0.4570641815662384,"w62":-0.05654255300760269,"w174":-0.3774680495262146,"w143":-0.25986409187316895,"w812":-0.08473528176546097,"w852":-0.08631713688373566,"w966":-0.2736091613769531,"w683":-0.17552337050437927,"w243":-0.2907778322696686,"w189":-0.04670155048370361,"w478":-0.2753613293170929,"w907":0.001995892496779561,"w261":-0.15500766038894653,"w94":-0.09076675027608871,"w233":-0.09245394915342331,"w173":0.1383710354566574,"w902":0.07321535050868988,"w257":0.20982632040977478,"w278":-0.08624820411205292,"w520":-0.030896177515387535,"w873":-0.08253100514411926,"w951":-0.39377906918525696,"w716":-0.15515898168087006,"w967":-0.24222350120544434,"w943":-0.5292617678642273,"w549":-0.5190523266792297,"w874":-0.2969081699848175,"w802":-0.18674154579639435,"w953":-0.35893315076828003,"w859":-0.39127296209335327,"w196":0.10510408133268356,"w957":-0.21226957440376282,"w529":0.19396564364433289,"w197":-0.12381086498498917,"w195":-0.06072607636451721,"w198":-0.0811360776424408,"w530":0.21783477067947388,"w266":-0.24937885999679565,"w215":0.009751945734024048,"w47":0.11508673429489136,"w914":-0.34925514459609985,"w643":0.2121434062719345,"w705":0.15659277141094208,"w642":-0.13695992529392242,"w165":0.17543309926986694,"w491":0.39618757367134094,"w302":0.3878040611743927,"w74":0.88099604845047,"w755":0.4264942407608032,"w620":0.3358815014362335,"w647":0.41410017013549805,"w648":0.7626124024391174,"w485":-0.010477558709681034,"w492":0.25711947679519653,"w667":0.3820430338382721,"w882":0.5477584004402161,"w482":0.12070507556200027,"w353":0.4613719582557678,"w22":-0.039214689284563065,"w574":-0.09952246397733688,"w518":-0.025616712868213654,"w629":-0.6559177041053772,"w789":-0.3311062455177307,"w378":-0.11585292965173721,"w711":-0.26501280069351196,"w409":-0.06003674119710922,"w712":-0.49568963050842285,"w709":-0.6681451797485352,"w849":-0.1773960143327713,"w825":-0.4291881322860718,"w628":-0.37540677189826965,"w630":-0.3852734863758087,"w623":-0.9159271121025085,"w923":0.11903119087219238,"w548":-0.014945144765079021,"w105":-0.29240962862968445,"w850":-0.16200079023838043,"w206":-0.10211163014173508,"w81":-0.3499225676059723,"w863":0.31862953305244446,"w765":0.23760969936847687,"w26":-0.2288723587989807,"w247":-0.30591168999671936,"w582":0.0793662890791893,"w599":0.08013038337230682,"w766":0.10435482859611511,"w27":-0.38318443298339844,"w241":-0.06341845542192459,"w295":0.09882870316505432,"w13":0.0363992303609848,"w69":0.11564270406961441,"w654":-0.012680170126259327,"w63":0.15044040977954865,"w470":-0.02859503962099552,"w640":-0.26589274406433105,"w697":0.11499480158090591,"w634":-0.20246249437332153,"w929":0.11756236106157303,"w656":0.24476632475852966,"w655":0.06470654904842377,"w87":-0.0396718792617321,"w486":0.29591450095176697,"w707":0.262010782957077,"w73":0.1319005787372589,"w415":0.0826040729880333,"w833":0.17363952100276947,"w955":0.2276601493358612,"w226":-0.1665663719177246,"w781":-1.8023648262023926,"w780":-0.4978041648864746,"w779":-0.6521658301353455,"w803":0.24167416989803314,"w44":-0.164077490568161,"w734":0.9642239212989807,"w128":0.29694119095802307,"w732":0.810526967048645,"w495":0.3761247396469116,"w475":0.22069387137889862,"w639":0.1902448683977127,"w480":0.010693171061575413,"w751":0.269967645406723,"w769":0.1795147806406021,"w733":0.15345928072929382,"w735":0.13106152415275574,"w730":0.2547399401664734,"w479":0.007776771672070026,"w948":0.025962281972169876,"w333":0.009413317777216434,"w916":0.10644999891519547,"w393":-0.3285136818885803,"w507":-0.3317876160144806,"w883":0.23976781964302063,"w66":-0.4935353696346283,"w67":-0.24612310528755188,"w53":-0.06914255768060684,"w981":-0.26293817162513733,"w506":-0.13201804459095,"w68":0.02533797174692154,"w778":0.12741848826408386,"w127":-0.22646775841712952,"w659":-0.1635960042476654,"w915":0.014551658183336258,"w917":0.011189352720975876,"w918":0.11753804981708527,"w525":-0.11162861436605453,"w800":0.21994099020957947,"w30":0.11387138813734055,"w193":0.03686115890741348,"w671":0.06765653938055038,"w429":0.4250992238521576,"w771":0.04297228530049324,"w315":0.24472370743751526,"w510":0.2672630846500397,"w408":0.26034948229789734,"w682":0.27895721793174744,"w772":0.21681664884090424,"w563":-0.28143739700317383,"w762":-0.2481890320777893,"w145":-0.36587217450141907,"w763":-0.1339024156332016,"w545":-0.08491736650466919,"w978":-0.504822313785553,"w51":-0.009853661991655827,"w559":-0.2254980504512787,"w564":-0.14296017587184906,"w557":-0.1734054535627365,"w670":-0.17087025940418243,"w750":0.1050010621547699,"w710":-0.1790458709001541,"w790":-0.3798409402370453,"w791":-0.17521363496780396,"w788":-0.39653074741363525,"w250":0.22933916747570038,"w16":0.06315034627914429,"w500":0.9200904369354248,"w162":-0.20072075724601746,"w631":-0.3430987000465393,"w787":0.2562194764614105,"w54":0.18389543890953064,"w502":0.2184465378522873,"w736":0.10131437331438065,"w501":0.12251284718513489,"w810":-0.2222733348608017,"w207":0.06999392062425613,"w469":-0.07762088626623154,"w514":-0.000768978672567755,"w739":0.11312897503376007,"w718":0.09046725183725357,"w757":-1.1380431652069092,"w756":-0.38381829857826233,"w652":-0.15493956208229065,"w758":-0.7420331835746765,"w759":-0.6852431297302246,"w753":-0.3957785367965698,"w328":0.012711279094219208,"w703":-0.6867837905883789,"w681":-0.46614623069763184,"w704":0.05176578834652901,"w702":-0.14796894788742065,"w701":0.01738845556974411,"w767":-0.2707020938396454,"w58":-0.16622677445411682,"w341":-0.1439504325389862,"w590":0.19492462277412415,"w123":0.3371516168117523,"w745":0.08982519805431366,"w267":-0.6502890586853027,"w609":0.23221071064472198,"w619":0.3030150532722473,"w166":0.09823743253946304,"w621":0.3124227523803711,"w817":0.07561785727739334,"w517":0.2886728048324585,"w958":0.07553721964359283}},"3":{"bias":-0.176332488656044,"weights":{"w607":0.4591699242591858,"w940":0.40374284982681274,"w330":0.6157403588294983,"w153":0.4035797119140625,"w323":0.7670426964759827,"w911":0.6350120902061462,"w56":0.06750461459159851,"w644":-0.0856102928519249,"w969":-0.24675703048706055,"w144":-0.20352588593959808,"w40":-0.19395942986011505,"w108":0.9869078397750854,"w39":0.8244526982307434,"w764":0.18312253057956696,"w286":0.585810124874115,"w268":0.6508592963218689,"w396":0.5666645169258118,"w886":0.6057643294334412,"w319":0.32059016823768616,"w448":0.535015344619751,"w436":-0.2138003408908844,"w446":0.7419562935829163,"w979":0.3229372501373291,"w808":0.3481599688529968,"w489":0.471310555934906,"w322":0.47077593207359314,"w431":-0.24834346771240234,"w950":0.19587571918964386,"w938":0.28973305225372314,"w576":0.22420334815979004,"w383":0.26237913966178894,"w610":0.15923818945884705,"w600":0.69046550989151,"w939":0.058540284633636475,"w560":0.11682698130607605,"w411":0.1569787710905075,"w339":0.2554793357849121,"w387":0.16159690916538239,"w928":0.020950231701135635,"w245":0.36028656363487244,"w461":0.1023610383272171,"w941":-0.11062085628509521,"w447":0.4968392252922058,"w774":-0.3559974133968353,"w403":0.20173510909080505,"w632":-0.18527843058109283,"w413":0.49619314074516296,"w606":0.5132198929786682,"w462":-0.4003886580467224,"w199":0.4893452823162079,"w109":-0.6366049647331238,"w91":0.20794916152954102,"w807":0.054500628262758255,"w435":0.1972499042749405,"w217":0.24428655207157135,"w19":-0.14992359280586243,"w433":-0.0019213496707379818,"w974":-0.9103922247886658,"w474":0.7520202994346619,"w136":0.2859104573726654,"w135":0.1689012348651886,"w783":0.6026192307472229,"w976":-1.052422285079956,"w973":-0.9251996278762817,"w977":-0.7463291883468628,"w975":-0.16965816915035248,"w934":0.23452399671077728,"w910":-0.42676302790641785,"w200":0.14841757714748383,"w340":-0.11350789666175842,"w252":0.03918566182255745,"w440":-0.15591570734977722,"w494":0.1435377299785614,"w738":-1.4978283643722534,"w562":-1.5540075302124023,"w641":-0.8008257746696472,"w775":-0.23543214797973633,"w821":0.006513675674796104,"w706":-0.29303544759750366,"w503":-0.19682694971561432,"w897":-0.34075599908828735,"w300":-0.015929559245705605,"w284":-0.3876495659351349,"w152":-0.36582261323928833,"w885":-0.2921924889087677,"w171":-0.10168281197547913,"w752":0.009976282715797424,"w528":-0.1611136794090271,"w871":-0.4269316792488098,"w913":-0.23474235832691193,"w776":-0.6113198399543762,"w884":-0.17510810494422913,"w909":-0.07124300301074982,"w214":-0.4889082908630371,"w303":-0.5981118083000183,"w212":-0.6087084412574768,"w533":-0.05325289070606232,"w445":-0.3495234251022339,"w741":-0.9106509685516357,"w213":-0.19637219607830048,"w555":-0.07396910339593887,"w864":-0.02713324874639511,"w308":0.10802863538265228,"w147":-0.4714082181453705,"w80":-0.33008259534835815,"w811":-0.13240927457809448,"w719":0.0942283496260643,"w148":-0.2944888174533844,"w149":-0.2977643311023712,"w111":0.1526896357536316,"w350":-0.4869575798511505,"w110":-0.22725245356559753,"w265":0.009838559664785862,"w672":-0.06932137161493301,"w737":-0.12696808576583862,"w71":-0.23076750338077545,"w585":-0.1523592323064804,"w952":-0.23748144507408142,"w947":0.09527455270290375,"w823":-0.07372695207595825,"w18":-0.1459028273820877,"w972":-0.10611369460821152,"w875":-0.3093560039997101,"w439":-0.09509094804525375,"w375":-0.00030751925078220665,"w463":0.20178675651550293,"w724":-0.22896647453308105,"w876":0.27300530672073364,"w566":-1.0067615509033203,"w970":0.06237305700778961,"w570":-0.053280774503946304,"w42":-0.2251940667629242,"w404":0.01490765530616045,"w513":0.14849185943603516,"w879":0.10870461165904999,"w453":-0.27257582545280457,"w79":0.06241926923394203,"w708":-0.09078796207904816,"w679":0.04222017526626587,"w59":-0.12573553621768951,"w84":0.1641373485326767,"w949":-0.2541860342025757,"w664":0.03692356124520302,"w264":-0.004527813754975796,"w843":-0.13438533246517181,"w770":-0.11856377869844437,"w29":-0.20051854848861694,"w48":-0.11765580624341965,"w400":-0.16480696201324463,"w359":-0.13249072432518005,"w158":-0.06590601056814194,"w512":-0.017607780173420906,"w133":0.16632799804210663,"w723":-0.017112771049141884,"w273":0.02072880044579506,"w49":-0.16466012597084045,"w362":-0.06894491612911224,"w374":0.13687558472156525,"w363":-0.17575471103191376,"w337":-0.1148851215839386,"w427":-0.186201274394989,"w904":-0.250196248292923,"w438":-0.1459321230649948,"w727":0.06744643300771713,"w744":0.6047212481498718,"w688":0.7058967351913452,"w686":1.1344172954559326,"w178":0.6430268287658691,"w465":0.13952866196632385,"w964":0.37474068999290466,"w219":0.6128622889518738,"w78":0.4424165189266205,"w31":-0.4077081084251404,"w684":0.8369576334953308,"w690":0.3870123624801636,"w691":0.7312822937965393,"w685":0.46729254722595215,"w676":0.27822619676589966,"w93":0.0218268483877182,"w521":-0.08269306272268295,"w471":-0.7724224328994751,"w33":0.5285539031028748,"w593":0.17816337943077087,"w9":-0.5626979470252991,"w544":0.2124059945344925,"w1":-0.9307745695114136,"w543":-0.03956012800335884,"w57":0.3501264750957489,"w689":0.5019637942314148,"w687":0.6041367053985596,"w232":0.09130594879388809,"w481":0.335721880197525,"w293":0.11929606646299362,"w392":0.05504690483212471,"w532":0.011053795926272869,"w853":0.7923927903175354,"w731":0.21171453595161438,"w925":-0.050884928554296494,"w795":0.16827243566513062,"w906":-0.2268541157245636,"w410":-0.22049105167388916,"w860":0.06553322076797485,"w34":-0.4295465052127838,"w32":-0.19637884199619293,"w35":-0.13659612834453583,"w553":0.12292063236236572,"w75":-0.09754247218370438,"w423":-0.022784866392612457,"w11":-0.32593628764152527,"w37":-0.02977868914604187,"w125":-0.11651729047298431,"w575":0.040086399763822556,"w844":0.07827480137348175,"w324":0.2309674620628357,"w329":0.19986732304096222,"w625":-0.1484837830066681,"w394":-0.07591981440782547,"w407":-0.26639223098754883,"w466":-0.0917176827788353,"w867":0.003266032552346587,"w729":0.054259300231933594,"w370":0.012647663243114948,"w249":0.22491537034511566,"w97":0.6027535796165466,"w405":0.24154922366142273,"w523":0.5153248906135559,"w868":-0.2157624065876007,"w869":-0.04656634107232094,"w866":0.0296056866645813,"w865":0.16812163591384888,"w965":-0.022986363619565964,"w376":-0.02454412542283535,"w531":0.7072128653526306,"w168":0.025532731786370277,"w98":0.01801900379359722,"w726":-0.2396390736103058,"w406":-0.044715795665979385,"w242":-0.13548289239406586,"w467":0.02744198590517044,"w38":0.1476609855890274,"w335":-0.2801624536514282,"w326":-0.013889185152947903,"w416":0.23523284494876862,"w945":0.10780695080757141,"w231":0.10024968534708023,"w583":0.04480518028140068,"w959":0.14509989321231842,"w72":0.2627836763858795,"w20":-0.07399769127368927,"w748":-0.06332873553037643,"w86":0.20426210761070251,"w96":0.3957923352718353,"w21":0.0657309889793396,"w430":-0.015269286930561066,"w55":-0.011202697642147541,"w768":-0.05974436178803444,"w401":-0.0370129719376564,"w508":0.13649512827396393,"w50":0.12641575932502747,"w259":-0.008039039559662342,"w526":-0.02703367918729782,"w12":0.10229549556970596,"w310":0.19337742030620575,"w636":0.011096339672803879,"w424":-0.2518637478351593,"w457":0.032544367015361786,"w246":0.007551779039204121,"w722":-0.06079602986574173,"w596":-0.10097242146730423,"w605":-0.44701293110847473,"w271":0.0517970435321331,"w107":-0.04706136882305145,"w565":-0.22600507736206055,"w188":-0.08217142522335052,"w836":1.4227428436279297,"w558":-0.11288881301879883,"w971":-0.7741497159004211,"w794":-0.053184930235147476,"w239":0.09686782211065292,"w905":0.11158954352140427,"w390":-0.16814157366752625,"w797":-0.048157624900341034,"w88":0.15673169493675232,"w618":-0.07915786653757095,"w85":-0.12532708048820496,"w567":-0.2510058879852295,"w15":-0.0386507511138916,"w316":0.0744946300983429,"w961":-0.04548494890332222,"w881":0.1856454759836197,"w381":-0.0851968303322792,"w270":-0.12252960354089737,"w220":0.06763429194688797,"w877":0.08109913021326065,"w614":0.055895209312438965,"w304":-0.003860741388052702,"w104":-0.027067482471466064,"w587":-0.1517636924982071,"w815":0.0178519394248724,"w76":-0.18642224371433258,"w437":-0.23394112288951874,"w932":-0.17939400672912598,"w380":-0.19679497182369232,"w830":-0.0996152013540268,"w627":-0.10228762030601501,"w700":-0.14261624217033386,"w367":0.05658729001879692,"w305":-0.0892445370554924,"w208":-0.17679032683372498,"w892":-0.031763359904289246,"w113":-0.23673270642757416,"w100":-0.14150264859199524,"w391":-0.02718718722462654,"w592":-0.12125197052955627,"w99":0.10322972387075424,"w673":0.25650861859321594,"w379":0.09925873577594757,"w251":0.1788419634103775,"w402":-0.2163209766149521,"w855":-0.005769699811935425,"w275":0.0891282856464386,"w101":-0.10035714507102966,"w102":0.08373725414276123,"w95":0.033715229481458664,"w299":0.06126835197210312,"w926":-0.18794864416122437,"w347":-0.0513552650809288,"w577":0.1715308576822281,"w307":-0.235491544008255,"w444":-0.08831322193145752,"w483":-0.18621857464313507,"w103":-0.16458283364772797,"w515":-0.08133146166801453,"w432":0.0488857626914978,"w720":-0.10246826708316803,"w509":0.3623754680156708,"w589":-0.06252071261405945,"w238":-0.00573132885619998,"w552":-0.038508906960487366,"w443":-0.07033338397741318,"w274":0.02139943651854992,"w464":-0.015438703820109367,"w890":-0.19446292519569397,"w142":0.1871388852596283,"w155":-0.15575657784938812,"w235":0.6595843434333801,"w857":-0.41331666707992554,"w721":0.04029018059372902,"w717":0.06307286769151688,"w277":0.03867679089307785,"w115":0.002167292172089219,"w218":-0.05029928311705589,"w806":-0.00237829121761024,"w163":0.14606471359729767,"w346":0.039523735642433167,"w901":-0.06731482595205307,"w801":0.2973668873310089,"w344":0.14785882830619812,"w228":-0.033131785690784454,"w449":-0.10926675796508789,"w260":-0.09346286207437515,"w956":-0.05097677558660507,"w345":0.039699409157037735,"w343":0.15762662887573242,"w14":-0.5191029906272888,"w221":0.2291077971458435,"w263":0.08771240711212158,"w908":-0.10299069434404373,"w649":-0.010687560774385929,"w131":0.00009559047612128779,