{"sizes":[545,16,16,61],"layers":[{"w350":{},"w517":{},"w186":{},"w93":{},"w183":{},"w504":{},"w35":{},"w364":{},"w537":{},"w87":{},"w27":{},"w65":{},"w26":{},"w422":{},"w163":{},"w152":{},"w222":{},"w489":{},"w181":{},"w251":{},"w243":{},"w250":{},"w543":{},"w446":{},"w275":{},"w182":{},"w242":{},"w524":{},"w516":{},"w333":{},"w214":{},"w217":{},"w512":{},"w143":{},"w262":{},"w540":{},"w272":{},"w125":{},"w80":{},"w79":{},"w432":{},"w541":{},"w409":{},"w323":{},"w361":{},"w428":{},"w455":{},"w392":{},"w283":{},"w496":{},"w167":{},"w503":{},"w162":{},"w92":{},"w488":{},"w104":{},"w416":{},"w298":{},"w481":{},"w506":{},"w429":{},"w487":{},"w502":{},"w356":{},"w123":{},"w170":{},"w122":{},"w301":{},"w249":{},"w89":{},"w66":{},"w53":{},"w449":{},"w399":{},"w526":{},"w522":{},"w456":{},"w14":{},"w539":{},"w483":{},"w244":{},"w208":{},"w264":{},"w402":{},"w484":{},"w326":{},"w190":{},"w538":{},"w330":{},"w29":{},"w225":{},"w290":{},"w485":{},"w256":{},"w52":{},"w393":{},"w380":{},"w245":{},"w37":{},"w55":{},"w200":{},"w96":{},"w289":{},"w77":{},"w401":{},"w154":{},"w321":{},"w412":{},"w384":{},"w383":{},"w106":{},"w266":{},"w532":{},"w126":{},"w51":{},"w22":{},"w8":{},"w311":{},"w1":{},"w310":{},"w36":{},"w510":{},"w437":{},"w501":{},"w228":{},"w475":{},"w479":{},"w464":{},"w405":{},"w206":{},"w144":{},"w61":{},"w226":{},"w294":{},"w25":{},"w187":{},"w184":{},"w231":{},"w521":{},"w137":{},"w338":{},"w528":{},"w47":{},"w16":{},"w414":{},"w57":{},"w60":{},"w17":{},"w241":{},"w34":{},"w436":{},"w140":{},"w500":{},"w218":{},"w439":{},"w58":{},"w352":{},"w56":{},"w263":{},"w327":{},"w12":{},"w179":{},"w24":{},"w63":{},"w219":{},"w343":{},"w62":{},"w375":{},"w211":{},"w296":{},"w10":{},"w145":{},"w224":{},"w471":{},"w400":{},"w156":{},"w287":{},"w341":{},"w139":{},"w316":{},"w248":{},"w155":{},"w265":{},"w493":{},"w192":{},"w134":{},"w252":{},"w180":{},"w433":{},"w85":{},"w235":{},"w124":{},"w389":{},"w388":{},"w529":{},"w129":{},"w28":{},"w84":{},"w97":{},"w91":{},"w404":{},"w302":{},"w291":{},"w371":{},"w270":{},"w385":{},"w497":{},"w447":{},"w177":{},"w158":{},"w408":{},"w372":{},"w498":{},"w98":{},"w411":{},"w396":{},"w119":{},"w345":{},"w120":{},"w279":{},"w82":{},"w280":{},"w223":{},"w351":{},"w118":{},"w340":{},"w313":{},"w509":{},"w508":{},"w505":{},"w435":{},"w142":{},"w458":{},"w95":{},"w370":{},"w90":{},"w368":{},"w164":{},"w334":{},"w332":{},"w50":{},"w331":{},"w73":{},"w176":{},"w159":{},"w530":{},"w477":{},"w133":{},"w15":{},"w533":{},"w379":{},"w117":{},"w386":{},"w146":{},"w480":{},"w195":{},"w261":{},"w459":{},"w490":{},"w281":{},"w236":{},"w373":{},"w387":{},"w83":{},"w45":{},"w349":{},"w335":{},"w160":{},"w318":{},"w276":{},"w161":{},"w100":{},"w288":{},"w128":{},"w353":{},"w197":{},"w203":{},"w201":{},"w67":{},"w317":{},"w149":{},"w339":{},"w19":{},"w523":{},"w536":{},"w188":{},"w31":{},"w166":{},"w111":{},"w329":{},"w328":{},"w189":{},"w238":{},"w230":{},"w30":{},"w59":{},"w68":{},"w514":{},"w445":{},"w199":{},"w204":{},"w198":{},"w202":{},"w205":{},"w319":{},"w175":{},"w444":{},"w440":{},"w69":{},"w185":{},"w410":{},"w269":{},"w451":{},"w75":{},"w453":{},"w23":{},"w358":{},"w306":{},"w81":{},"w348":{},"w344":{},"w78":{},"w308":{},"w191":{},"w461":{},"w462":{},"w121":{},"w417":{},"w284":{},"w320":{},"w465":{},"w466":{},"w491":{},"w468":{},"w470":{},"w227":{},"w108":{},"w216":{},"w13":{},"w258":{},"w49":{},"w513":{},"w403":{},"w54":{},"w173":{},"w492":{},"w474":{},"w109":{},"w11":{},"w253":{},"w452":{},"w473":{},"w515":{},"w215":{},"w165":{},"w295":{},"w237":{},"w46":{},"w377":{},"w38":{},"w376":{},"w457":{},"w259":{},"w172":{},"w460":{},"w113":{},"w229":{},"w234":{},"w271":{},"w427":{},"w442":{},"w193":{},"w94":{},"w297":{},"w441":{},"w194":{},"w511":{},"w39":{},"w336":{},"w247":{},"w476":{},"w196":{},"w64":{},"w454":{},"w141":{},"w70":{},"w3":{},"w365":{},"w18":{},"w322":{},"w5":{},"w7":{},"w130":{},"w207":{},"w267":{},"w32":{},"w233":{},"w212":{},"w309":{},"w71":{},"w293":{},"w426":{},"w232":{},"w346":{},"w472":{},"w131":{},"w438":{},"w257":{},"w2":{},"w9":{},"w4":{},"w103":{},"w260":{},"w307":{},"w255":{},"w254":{},"w305":{},"w292":{},"w157":{},"w304":{},"w76":{},"w153":{},"w366":{},"w246":{},"w277":{},"w171":{},"w494":{},"w102":{},"w303":{},"w213":{},"w6":{},"w499":{},"w221":{},"w136":{},"w397":{},"w107":{},"w150":{},"w378":{},"w148":{},"w135":{},"w174":{},"w147":{},"w112":{},"w21":{},"w463":{},"w168":{},"w520":{},"w127":{},"w209":{},"w0":{},"w518":{},"w357":{},"w337":{},"w315":{},"w239":{},"w495":{},"w110":{},"w40":{},"w105":{},"w86":{},"w450":{},"w469":{},"w534":{},"w382":{},"w525":{},"w398":{},"w535":{},"w519":{},"w314":{},"w531":{},"w482":{},"w443":{},"w115":{},"w527":{},"w299":{},"w300":{},"w116":{},"w363":{},"w391":{},"w362":{},"w101":{},"w169":{},"w48":{},"w354":{},"w434":{},"w210":{},"w478":{},"w423":{},"w20":{},"w369":{},"w41":{},"w268":{},"w360":{},"w431":{},"w407":{},"w74":{},"w406":{},"w278":{},"w273":{},"w359":{},"w274":{},"w415":{},"w424":{},"w507":{},"w220":{},"w286":{},"w486":{},"w42":{},"w43":{},"w33":{},"w544":{},"w467":{},"w285":{},"w44":{},"w430":{},"w138":{},"w114":{},"w374":{},"w240":{},"w425":{},"w178":{},"w324":{},"w420":{},"w88":{},"w421":{},"w312":{},"w542":{},"w394":{},"w395":{},"w347":{},"w282":{},"w325":{},"w99":{},"w355":{},"w419":{},"w418":{},"w367":{},"w448":{},"w390":{},"w381":{},"w132":{},"w342":{},"w72":{},"w413":{},"w151":{}},{"0":{"bias":0.08880352973937988,"weights":{"w350":-0.6535172462463379,"w517":-1.0441761016845703,"w186":0.04965595528483391,"w93":0.10699330270290375,"w183":0.3568231761455536,"w504":0.26280927658081055,"w35":0.5201898813247681,"w364":-0.212846577167511,"w537":0.3568924367427826,"w87":0.07584291696548462,"w27":-0.3348527252674103,"w65":0.11231154948472977,"w26":-0.1576041877269745,"w422":0.04985472559928894,"w163":-0.15837562084197998,"w152":-0.16520582139492035,"w222":0.12664689123630524,"w489":0.00778324855491519,"w181":-0.16490046679973602,"w251":0.43926340341567993,"w243":-0.15939100086688995,"w250":0.13428592681884766,"w543":-0.1769014596939087,"w446":-0.2084694653749466,"w275":-0.13132287561893463,"w182":0.03362574428319931,"w242":-0.07030973583459854,"w524":-0.14122270047664642,"w516":-0.05446416884660721,"w333":0.07899010181427002,"w214":-0.04112224280834198,"w217":-0.2628548741340637,"w512":0.08423689752817154,"w143":0.004871690180152655,"w262":0.037103939801454544,"w540":0.32080286741256714,"w272":0.08057983964681625,"w125":0.3853835463523865,"w80":0.28914394974708557,"w79":0.07966721802949905,"w432":0.08833968639373779,"w541":-0.3726808428764343,"w409":-0.41682687401771545,"w323":-0.09616949409246445,"w361":0.01728748343884945,"w428":-0.13960078358650208,"w455":0.019477611407637596,"w392":-0.22250637412071228,"w283":0.07272839546203613,"w496":-0.13009333610534668,"w167":-0.10722620040178299,"w503":0.15052899718284607,"w162":-0.10605333745479584,"w92":0.11213359236717224,"w488":-0.10934600979089737,"w104":0.1260911524295807,"w416":-0.5345660448074341,"w298":-0.3242274522781372,"w481":-0.1996200680732727,"w506":-0.08412912487983704,"w429":-0.0825456976890564,"w487":0.09942280501127243,"w502":-0.05415550246834755,"w356":-0.02508404478430748,"w123":0.15295985341072083,"w170":-0.08109471201896667,"w122":-0.059894461184740067,"w301":-0.049936484545469284,"w249":-0.21112367510795593,"w89":0.0915425568819046,"w66":0.1777944713830948,"w53":-0.3051908016204834,"w449":0.0327971912920475,"w399":0.04098484292626381,"w526":-0.03753187134861946,"w522":-0.4545501172542572,"w456":0.09607452154159546,"w14":-0.29290348291397095,"w539":0.08044417947530746,"w483":-0.047822386026382446,"w244":-0.13100086152553558,"w208":0.13572072982788086,"w264":-0.12164068967103958,"w402":-0.031797587871551514,"w484":0.160797119140625,"w326":0.10847530514001846,"w190":-0.30067989230155945,"w538":-0.2718236744403839,"w330":0.007949338294565678,"w29":-0.03720293566584587,"w225":-0.09323609620332718,"w290":-0.013197208754718304,"w485":0.08529587090015411,"w256":-0.18433886766433716,"w52":-0.2318623661994934,"w393":0.11649017781019211,"w380":0.028539910912513733,"w245":0.20502863824367523,"w37":-0.17261162400245667,"w55":-0.2053593099117279,"w200":-0.13392919301986694,"w96":0.08664927631616592,"w289":-0.06340504437685013,"w77":0.09004097431898117,"w401":-0.0674440935254097,"w154":-0.16264575719833374,"w321":-0.099813312292099,"w412":-0.15537136793136597,"w384":0.008018153719604015,"w383":-0.005222069099545479,"w106":-1.0824652910232544,"w266":-0.12355633080005646,"w532":0.05300500616431236,"w126":-0.13611285388469696,"w51":-0.6907543540000916,"w22":0.18866035342216492,"w8":-0.48645392060279846,"w311":0.30747318267822266,"w1":-0.6594608426094055,"w310":0.4680618345737457,"w36":0.3301359713077545,"w510":0.16640053689479828,"w437":-0.13904041051864624,"w501":0.12317770719528198,"w228":-0.0375804603099823,"w475":-0.04727153480052948,"w479":0.21850235760211945,"w464":0.16129305958747864,"w405":0.17406977713108063,"w206":-0.055417463183403015,"w144":-0.29724013805389404,"w61":0.38305971026420593,"w226":0.24364252388477325,"w294":-0.0885659009218216,"w25":0.0010412029223516583,"w187":0.130088672041893,"w184":0.5366829633712769,"w231":-0.2112906128168106,"w521":-0.1462281197309494,"w137":-0.00005117024920764379,"w338":0.1354759782552719,"w528":0.0584709569811821,"w47":0.13347874581813812,"w16":0.18337157368659973,"w414":-0.04253242164850235,"w57":0.04536961019039154,"w60":0.06978174299001694,"w17":0.07679083198308945,"w241":0.021491331979632378,"w34":-0.025703513994812965,"w436":-0.06540650874376297,"w140":-0.1302088499069214,"w500":-0.13941262662410736,"w218":0.09771496057510376,"w439":-0.11336412280797958,"w58":-0.004659268073737621,"w352":-0.13597719371318817,"w56":-0.21169348061084747,"w263":-0.1968420147895813,"w327":0.03260963410139084,"w12":0.029189283028244972,"w179":-0.17840711772441864,"w24":0.02753744274377823,"w63":0.029703926295042038,"w219":-0.04591469094157219,"w343":-0.1496504694223404,"w62":-0.07035969197750092,"w375":-0.027603089809417725,"w211":-0.05273061990737915,"w296":-0.061715710908174515,"w10":0.1259281039237976,"w145":-0.21801988780498505,"w224":0.031918369233608246,"w471":-0.07068705558776855,"w400":0.016104543581604958,"w156":-0.09270113706588745,"w287":0.012493171729147434,"w341":-0.28298038244247437,"w139":-0.0595070943236351,"w316":0.04669215902686119,"w248":0.06518138945102692,"w155":-0.22166213393211365,"w265":-0.008521081879734993,"w493":-0.1629531979560852,"w192":0.008162968792021275,"w134":-0.08069195598363876,"w252":-0.10153810679912567,"w180":-0.5350355505943298,"w433":-0.8932881951332092,"w85":0.01592267118394375,"w235":-0.009301268495619297,"w124":-0.14529679715633392,"w389":-0.306403249502182,"w388":-0.17471839487552643,"w529":0.27468061447143555,"w129":-0.991492509841919,"w28":-0.284827321767807,"w84":-0.15004399418830872,"w97":0.05871474742889404,"w91":-0.1820717751979828,"w404":0.09223367273807526,"w302":-0.12327586114406586,"w291":-0.7665544152259827,"w371":0.24315834045410156,"w270":-0.012768395245075226,"w385":0.08350987732410431,"w497":-0.05933891609311104,"w447":-0.034614887088537216,"w177":-0.03266430273652077,"w158":-0.07846416532993317,"w408":0.13792330026626587,"w372":0.11515840888023376,"w498":0.2325856238603592,"w98":-0.0054406216368079185,"w411":0.1897382289171219,"w396":0.3217613995075226,"w119":0.05250997841358185,"w345":0.18249264359474182,"w120":-0.048753634095191956,"w279":0.06297922134399414,"w82":-0.0305965356528759,"w280":0.12798240780830383,"w223":-0.1759585440158844,"w351":0.11791352927684784,"w118":-0.1885461062192917,"w340":-0.14561064541339874,"w313":0.14671437442302704,"w509":0.26302435994148254,"w508":0.3302187919616699,"w505":0.2244643270969391,"w435":0.03217587247490883,"w142":0.3592137396335602,"w458":-0.15910889208316803,"w95":0.103230781853199,"w370":0.023011645302176476,"w90":0.06664810329675674,"w368":-0.031195160001516342,"w164":-0.8298091888427734,"w334":-0.7617359757423401,"w332":-0.45057085156440735,"w50":-0.2696966230869293,"w331":-0.03819518908858299,"w73":0.11430677026510239,"w176":-0.44474658370018005,"w159":0.10299314558506012,"w530":-0.3551800549030304,"w477":-0.34951111674308777,"w133":-0.041901569813489914,"w15":-0.17063194513320923,"w533":-0.06530823558568954,"w379":0.024554505944252014,"w117":0.7623743414878845,"w386":0.728399395942688,"w146":0.8650962710380554,"w480":0.5714796781539917,"w195":0.7737668752670288,"w261":0.20205147564411163,"w459":0.1302497535943985,"w490":-0.013369712978601456,"w281":0.03648676350712776,"w236":0.04371469095349312,"w373":-0.09752603620290756,"w387":0.43716317415237427,"w83":0.2586304247379303,"w45":0.08409351855516434,"w349":0.2004019170999527,"w335":0.4474058449268341,"w160":-0.013864745385944843,"w318":-0.07126977294683456,"w276":-0.11367317289113998,"w161":-0.6146752834320068,"w100":-0.23940452933311462,"w288":-0.09392619132995605,"w128":-0.0075398944318294525,"w353":-0.2859728932380676,"w197":0.743744969367981,"w203":0.7069734334945679,"w201":0.5973731279373169,"w67":0.2014315128326416,"w317":0.3822106420993805,"w149":0.47451522946357727,"w339":-0.6510278582572937,"w19":0.2605544924736023,"w523":-0.05626605823636055,"w536":0.6226104497909546,"w188":0.6753720045089722,"w31":0.1835167109966278,"w166":0.08049484342336655,"w111":-0.6481107473373413,"w329":0.45030948519706726,"w328":0.39578765630722046,"w189":0.8893598318099976,"w238":0.44205018877983093,"w230":0.44246211647987366,"w30":0.3606243133544922,"w59":0.6265183687210083,"w68":0.1514068841934204,"w514":0.557647705078125,"w445":0.49670958518981934,"w199":0.46339520812034607,"w204":0.44558951258659363,"w198":0.6707914471626282,"w202":0.5888501405715942,"w205":0.43982386589050293,"w319":0.34029749035835266,"w175":0.3100818991661072,"w444":0.3249363899230957,"w440":0.5697163939476013,"w69":-0.5475454926490784,"w185":-0.5852470993995667,"w410":-0.32715165615081787,"w269":-0.11137112975120544,"w451":-0.0007792352116666734,"w75":-0.09991439431905746,"w453":-0.2437257170677185,"w23":-0.182083398103714,"w358":-0.0159846693277359,"w306":-0.2602499723434448,"w81":-0.12435784935951233,"w348":-0.07751539349555969,"w344":-0.027283955365419388,"w78":-0.028968708589673042,"w308":-0.3544936180114746,"w191":-0.27204450964927673,"w461":0.3130589723587036,"w462":0.6826745271682739,"w121":0.21944591403007507,"w417":0.22148384153842926,"w284":0.2327752262353897,"w320":0.12223676592111588,"w465":0.3997081518173218,"w466":0.2340383380651474,"w491":0.07622382044792175,"w468":0.07941101491451263,"w470":-0.4133188724517822,"w227":0.019170628860592842,"w108":0.05308852344751358,"w216":-0.07782983034849167,"w13":0.14360857009887695,"w258":0.17240816354751587,"w49":-0.05963537096977234,"w513":-0.10217957943677902,"w403":-0.22733575105667114,"w54":-0.09115274995565414,"w173":-0.2728247344493866,"w492":0.10158426314592361,"w474":0.26528406143188477,"w109":0.5966219305992126,"w11":0.3163740932941437,"w253":0.19970332086086273,"w452":0.008922317065298557,"w473":-0.21407262980937958,"w515":0.06748447567224503,"w215":0.07409153133630753,"w165":-0.02686479315161705,"w295":0.04360987991094589,"w237":-0.0691174566745758,"w46":0.06460469216108322,"w377":-0.04214433580636978,"w38":0.06188196688890457,"w376":-0.1256401091814041,"w457":-0.028444156050682068,"w259":0.0846862718462944,"w172":-0.003065455937758088,"w460":0.1133793443441391,"w113":-0.11266948282718658,"w229":-0.014109582640230656,"w234":-0.011632696725428104,"w271":0.05419614538550377,"w427":0.22115986049175262,"w442":0.00691857747733593,"w193":0.07891597598791122,"w94":0.21657399833202362,"w297":-0.023506639525294304,"w441":-0.008162950165569782,"w194":-0.2656431794166565,"w511":0.009466313757002354,"w39":-0.07496658712625504,"w336":0.3890360891819,"w247":-0.004092894960194826,"w476":-0.15913362801074982,"w196":-0.026154033839702606,"w64":0.0004277568659745157,"w454":-0.001916531822644174,"w141":0.19086067378520966,"w70":-0.680099606513977,"w3":-0.744803249835968,"w365":-0.7630435228347778,"w18":-0.11952043324708939,"w322":-0.15673485398292542,"w5":-0.3492604196071625,"w7":-0.6122105717658997,"w130":-0.28694358468055725,"w207":-1.1852805614471436,"w267":-0.43002521991729736,"w32":-0.45224225521087646,"w233":-0.5345218181610107,"w212":-0.2072356790304184,"w309":-0.3352462351322174,"w71":-0.9775294661521912,"w293":-0.47741588950157166,"w426":-0.6699708700180054,"w232":-0.3707880675792694,"w346":-0.3942636549472809,"w472":-0.2801811993122101,"w131":-0.4739992916584015,"w438":-0.3697344660758972,"w257":-0.3551936745643616,"w2":0.10541694611310959,"w9":-0.08704308420419693,"w4":-0.14401747286319733,"w103":0.2439115345478058,"w260":0.48081475496292114,"w307":0.5047407746315002,"w255":0.15029869973659515,"w254":0.35925793647766113,"w305":0.36772191524505615,"w292":0.29818499088287354,"w157":0.6113243103027344,"w304":0.37921276688575745,"w76":0.29162856936454773,"w153":0.2325356900691986,"w366":0.2533986270427704,"w246":0.3272522985935211,"w277":0.17055372893810272,"w171":0.0009165973751805723,"w494":0.18553228676319122,"w102":0.29611584544181824,"w303":0.04185093566775322,"w213":0.25497788190841675,"w6":0.13656207919120789,"w499":-0.3354422450065613,"w221":-0.12950105965137482,"w136":-0.05628465861082077,"w397":-0.15719112753868103,"w107":-0.4117501676082611,"w150":-0.03553423658013344,"w378":0.18036901950836182,"w148":-0.2874336838722229,"w135":-0.12315394729375839,"w174":-0.20895184576511383,"w147":0.12609128654003143,"w112":-0.02852511778473854,"w21":-0.041374754160642624,"w463":-0.34226736426353455,"w168":0.044217925518751144,"w520":0.17182224988937378,"w127":-0.5078797340393066,"w209":0.3706011176109314,"w0":-0.15101471543312073,"w518":-0.34743452072143555,"w357":0.08436893671751022,"w337":-0.587763786315918,"w315":-0.045118074864149094,"w239":-0.003386798081919551,"w495":-0.1845565289258957,"w110":0.0013647559098899364,"w40":-0.19396735727787018,"w105":0.060078125447034836,"w86":-0.127816841006279,"w450":-0.05687339976429939,"w469":0.04095667973160744,"w534":0.11308987438678741,"w382":-0.05016162246465683,"w525":-0.32550349831581116,"w398":-0.42952990531921387,"w535":-0.15773816406726837,"w519":-0.4409463703632355,"w314":-0.21629007160663605,"w531":-0.10700765252113342,"w482":-0.38373759388923645,"w443":-0.5590120553970337,"w115":0.12901082634925842,"w527":-0.05018600448966026,"w299":-0.10940966755151749,"w300":0.0883786529302597,"w116":-0.13026933372020721,"w363":-0.18046489357948303,"w391":0.18420524895191193,"w362":-0.04515676572918892,"w101":0.15991272032260895,"w169":-0.14403590559959412,"w48":0.040512826293706894,"w354":-0.26822954416275024,"w434":-0.31899604201316833,"w210":-0.0875813290476799,"w478":0.19334398210048676,"w423":-0.33182454109191895,"w20":-0.034218136221170425,"w369":-0.2575484812259674,"w41":-0.09719198942184448,"w268":-0.26256272196769714,"w360":-0.04364020749926567,"w431":-0.2845950722694397,"w407":-0.5715144276618958,"w74":-0.2661048173904419,"w406":-0.5555808544158936,"w278":-0.04298115521669388,"w273":0.11407101154327393,"w359":-0.28523239493370056,"w274":-0.1926099956035614,"w415":-0.020659854635596275,"w424":-0.10053180158138275,"w507":-0.09268711507320404,"w220":0.1343480944633484,"w286":-0.23848353326320648,"w486":0.0743897408246994,"w42":-0.14461436867713928,"w43":-0.059657227247953415,"w33":-0.017495296895503998,"w544":-0.12093538045883179,"w467":-0.09018971025943756,"w285":-0.06878553330898285,"w44":-0.08690012991428375,"w430":-0.03963756561279297,"w138":-0.19077065587043762,"w114":-0.006707054562866688,"w374":-0.03843243047595024,"w240":-0.25029873847961426,"w425":-0.2302604615688324,"w178":-0.027745556086301804,"w324":-0.009327065199613571,"w420":-0.06763292104005814,"w88":-0.18104641139507294,"w421":0.006374160759150982,"w312":0.07402000576257706,"w542":0.1770445853471756,"w394":-0.3063424825668335,"w395":0.06403171271085739,"w347":0.004619909450411797,"w282":-0.11685889214277267,"w325":-0.14817088842391968,"w99":0.01519888173788786,"w355":-0.21172785758972168,"w419":0.06840477883815765,"w418":0.17187495529651642,"w367":-0.021013496443629265,"w448":-0.10863945633172989,"w390":0.07776927947998047,"w381":-0.06808868795633316,"w132":0.025947952643036842,"w342":0.36818015575408936,"w72":0.33889496326446533,"w413":0.1007964164018631,"w151":0.2767704427242279}},"1":{"bias":0.1448885053396225,"weights":{"w350":1.0557365417480469,"w517":1.3178356885910034,"w186":0.5438258051872253,"w93":0.39934831857681274,"w183":0.8138310313224792,"w504":0.7724225521087646,"w35":0.13779301941394806,"w364":-0.20658479630947113,"w537":0.11678386479616165,"w87":-0.03547076880931854,"w27":0.21502168476581573,"w65":0.3135908842086792,"w26":0.7035756707191467,"w422":0.8532370924949646,"w163":0.7217106223106384,"w152":0.2891206443309784,"w222":0.4007996618747711,"w489":0.5116257667541504,"w181":0.22202925384044647,"w251":1.2800976037979126,"w243":-0.14539822936058044,"w250":0.9734423756599426,"w543":0.3308442234992981,"w446":0.29862770438194275,"w275":0.11339121311903,"w182":0.4248636066913605,"w242":0.15171627700328827,"w524":0.2281423658132553,"w516":0.09187768399715424,"w333":0.2060583531856537,"w214":0.3631952404975891,"w217":0.5558989644050598,"w512":0.07738623023033142,"w143":-0.016978668048977852,"w262":-0.022106841206550598,"w540":0.8159570097923279,"w272":0.9049584269523621,"w125":0.4646311104297638,"w80":0.8274465799331665,"w79":0.5250674486160278,"w432":1.0853763818740845,"w541":0.7463535070419312,"w409":-1.0998942852020264,"w323":0.17849719524383545,"w361":0.2771960198879242,"w428":-0.18543006479740143,"w455":-0.23059242963790894,"w392":-0.16964805126190186,"w283":-0.49969255924224854,"w496":-0.01665978692471981,"w167":-0.7811700701713562,"w503":-0.3283194601535797,"w162":-0.5684163570404053,"w92":-0.22628360986709595,"w488":-0.12552134692668915,"w104":-0.12420524656772614,"w416":0.22505976259708405,"w298":0.24808372557163239,"w481":-0.7002015709877014,"w506":-0.5960902571678162,"w429":-0.25822558999061584,"w487":0.052203066647052765,"w502":-0.1166931614279747,"w356":-0.6454318761825562,"w123":-0.4682152569293976,"w170":0.15412166714668274,"w122":-0.649804413318634,"w301":0.2654026448726654,"w249":-0.791972279548645,"w89":0.07096123695373535,"w66":0.20787149667739868,"w53":0.11175129562616348,"w449":-0.06080127879977226,"w399":-0.03426247835159302,"w526":-0.39738941192626953,"w522":-0.12511315941810608,"w456":-0.28708356618881226,"w14":0.16456595063209534,"w539":-0.15771430730819702,"w483":0.07674898207187653,"w244":-0.5044131278991699,"w208":0.1661491096019745,"w264":-0.057529136538505554,"w402":0.12537650763988495,"w484":0.2478165477514267,"w326":-0.7141292095184326,"w190":0.11565723270177841,"w538":0.27794715762138367,"w330":-0.5396971702575684,"w29":-0.27185916900634766,"w225":-0.16559866070747375,"w290":0.01785910874605179,"w485":0.030404405668377876,"w256":-0.2031310796737671,"w52":0.08969146013259888,"w393":-0.21055419743061066,"w380":-0.2718847990036011,"w245":-0.25569963455200195,"w37":-0.15044362843036652,"w55":-0.3785765469074249,"w200":0.05658682435750961,"w96":0.2362203747034073,"w289":0.11691513657569885,"w77":0.21470455825328827,"w401":0.13466261327266693,"w154":0.299812912940979,"w321":-0.21630924940109253,"w412":0.017422404140233994,"w384":1.1440978050231934,"w383":0.7100037336349487,"w106":-0.8679558634757996,"w266":0.34889230132102966,"w532":0.658816933631897,"w126":0.4054391086101532,"w51":-0.7214709520339966,"w22":-0.3512769937515259,"w8":-0.04948999732732773,"w311":0.0010636046063154936,"w1":-0.12024814635515213,"w310":-0.13699306547641754,"w36":-0.2476607859134674,"w510":-0.019246939569711685,"w437":-0.008149328641593456,"w501":0.08179238438606262,"w228":0.0037662561517208815,"w475":0.12629149854183197,"w479":0.4473099708557129,"w464":0.009089364670217037,"w405":0.06563054770231247,"w206":0.2588775157928467,"w144":-0.06457872688770294,"w61":-0.22660207748413086,"w226":0.06537029892206192,"w294":-0.03052857518196106,"w25":0.24685807526111603,"w187":0.05466192215681076,"w184":0.11221029609441757,"w231":-0.001134351477958262,"w521":0.19014225900173187,"w137":0.2492510974407196,"w338":-0.009129679761826992,"w528":0.039654143154621124,"w47":0.20441018044948578,"w16":0.1295381337404251,"w414":0.24991677701473236,"w57":0.17632044851779938,"w60":-0.00812032725661993,"w17":0.1447070986032486,"w241":0.026283683255314827,"w34":0.2650548815727234,"w436":0.17337177693843842,"w140":-0.07708309590816498,"w500":0.18807734549045563,"w218":0.05379597470164299,"w439":0.0370049886405468,"w58":-0.12731511890888214,"w352":0.1454286426305771,"w56":0.007774980738759041,"w263":0.18221114575862885,"w327":0.17754320800304413,"w12":-0.06691465526819229,"w179":-0.029320206493139267,"w24":0.10016182065010071,"w63":-0.13336744904518127,"w219":-0.10418292880058289,"w343":0.1186143010854721,"w62":0.11517954617738724,"w375":0.07474037259817123,"w211":-0.05788365751504898,"w296":0.16092626750469208,"w10":0.23394103348255157,"w145":-0.21215470135211945,"w224":0.029749102890491486,"w471":0.10411890596151352,"w400":0.059756018221378326,"w156":-0.02078147791326046,"w287":0.12120386958122253,"w341":0.045466531068086624,"w139":-0.00987307634204626,"w316":-0.0010977555066347122,"w248":-0.08465445041656494,"w155":0.1549319177865982,"w265":-0.07568540424108505,"w493":0.17581072449684143,"w192":0.07771903276443481,"w134":0.15731514990329742,"w252":0.041378844529390335,"w180":0.8750200867652893,"w433":1.4780888557434082,"w85":-0.14768919348716736,"w235":-0.06068422272801399,"w124":0.35782599449157715,"w389":0.3184104263782501,"w388":0.3382852077484131,"w529":0.7456358671188354,"w129":-1.1581265926361084,"w28":0.369951456785202,"w84":0.7412710785865784,"w97":0.7515697479248047,"w91":-0.044109296053647995,"w404":-0.2332824468612671,"w302":0.3025546371936798,"w291":-0.6452318429946899,"w371":-0.19373634457588196,"w270":-0.05216553062200546,"w385":0.18553824722766876,"w497":0.0004051891155540943,"w447":0.19094020128250122,"w177":0.16126228868961334,"w158":0.15665952861309052,"w408":-0.2050035446882248,"w372":-0.13333165645599365,"w498":0.055038679391145706,"w98":-0.13776572048664093,"w411":0.3609029948711395,"w396":0.5966119766235352,"w119":0.017063884064555168,"w345":0.836082398891449,"w120":0.023567210882902145,"w279":-0.10395074635744095,"w82":0.4522104561328888,"w280":-0.06765015423297882,"w223":1.3004621267318726,"w351":0.41870617866516113,"w118":0.3417570888996124,"w340":0.14000271260738373,"w313":0.35354605317115784,"w509":0.33669164776802063,"w508":-0.003794327611103654,"w505":0.028459154069423676,"w435":-0.06645558029413223,"w142":-0.011320142075419426,"w458":0.29714471101760864,"w95":-0.029011432081460953,"w370":0.24575023353099823,"w90":-0.22807319462299347,"w368":0.13867448270320892,"w164":-1.9956550598144531,"w334":-0.7024663686752319,"w332":-0.31742411851882935,"w50":-0.3725665807723999,"w331":-0.09484098106622696,"w73":-0.06398896872997284,"w176":-0.3105716407299042,"w159":-1.4923017024993896,"w530":-0.4037817716598511,"w477":-0.32200366258621216,"w133":-1.4983727931976318,"w15":0.3752938508987427,"w533":-0.05366998538374901,"w379":0.6257913112640381,"w117":-1.3556627035140991,"w386":-1.0812376737594604,"w146":-0.8419532775878906,"w480":-0.3802715837955475,"w195":-0.4893796741962433,"w261":-0.07728412002325058,"w459":-0.25232791900634766,"w490":-0.24366658926010132,"w281":-0.30378010869026184,"w236":-0.2824287712574005,"w373":-0.1985357254743576,"w387":-0.4623919129371643,"w83":-0.7476344108581543,"w45":0.14855942130088806,"w349":-0.5694764852523804,"w335":-0.7653740048408508,"w160":-0.09258813410997391,"w318":0.0932512953877449,"w276":-0.16555830836296082,"w161":-1.1894115209579468,"w100":-0.3567532002925873,"w288":-0.2890337109565735,"w128":-0.23333439230918884,"w353":-0.08520367741584778,"w197":0.5850276350975037,"w203":0.48516738414764404,"w201":0.7369530200958252,"w67":-0.005525150336325169,"w317":0.24337203800678253,"w149":0.3196856677532196,"w339":-0.2098439335823059,"w19":0.05022817105054855,"w523":-0.017180923372507095,"w536":0.36398395895957947,"w188":0.43597352504730225,"w31":0.280131071805954,"w166":0.17564553022384644,"w111":-1.058717131614685,"w329":0.32311347126960754,"w328":0.36311742663383484,"w189":0.5904752612113953,"w238":0.303112655878067,"w230":0.17771141231060028,"w30":0.3438166677951813,"w59":0.2564631998538971,"w68":0.13394704461097717,"w514":0.37784039974212646,"w445":0.14297398924827576,"w199":0.20252670347690582,"w204":0.15599969029426575,"w198":0.36893028020858765,"w202":0.3481549024581909,"w205":0.22194328904151917,"w319":0.19674335420131683,"w175":0.07065600901842117,"w444":0.18026310205459595,"w440":0.10195426642894745,"w69":0.059147175401449203,"w185":0.2675322890281677,"w410":-0.050332196056842804,"w269":-0.0025896020233631134,"w451":-0.3327900469303131,"w75":0.24279582500457764,"w453":-0.028566928580403328,"w23":-0.11176051199436188,"w358":0.25234976410865784,"w306":0.007388869300484657,"w81":0.01833246275782585,"w348":-0.07605569809675217,"w344":-0.19065895676612854,"w78":-0.0812142863869667,"w308":0.23086215555667877,"w191":-0.7140976190567017,"w461":0.351296991109848,"w462":0.44223320484161377,"w121":0.30125999450683594,"w417":0.37820371985435486,"w284":-0.0016358154825866222,"w320":0.15374062955379486,"w465":0.23741188645362854,"w466":0.3819666802883148,"w491":0.373228520154953,"w468":0.10874464362859726,"w470":-2.7607195377349854,"w227":-0.10458122193813324,"w108":-0.09219155460596085,"w216":-0.9025694727897644,"w13":-0.26962941884994507,"w258":-0.464856892824173,"w49":-0.902491569519043,"w513":-0.795688807964325,"w403":-1.1150025129318237,"w54":-0.23624640703201294,"w173":-0.21998128294944763,"w492":-0.9742037653923035,"w474":0.022799547761678696,"w109":-0.7256366610527039,"w11":-0.3015431761741638,"w253":0.3390108048915863,"w452":-0.6134899854660034,"w473":-0.6989980340003967,"w515":-0.07797231525182724,"w215":-0.09387422353029251,"w165":-0.32088324427604675,"w295":-0.07302593439817429,"w237":0.003257916308939457,"w46":0.0033486441243439913,"w377":-0.20039930939674377,"w38":-0.25856393575668335,"w376":-0.29082533717155457,"w457":-0.024062635377049446,"w259":-0.1721743494272232,"w172":-0.23164410889148712,"w460":-0.32421553134918213,"w113":-0.02179909683763981,"w229":-0.13019046187400818,"w234":-0.946600615978241,"w271":0.0985274687409401,"w427":-0.2584548592567444,"w442":-0.05985875055193901,"w193":-0.46945199370384216,"w94":-0.5820806622505188,"w297":-0.5615476965904236,"w441":-0.38525453209877014,"w194":-0.017588768154382706,"w511":-0.24798540771007538,"w39":-0.1796741634607315,"w336":0.8701518774032593,"w247":0.33363738656044006,"w476":0.17350785434246063,"w196":0.1467413604259491,"w64":0.0403577946126461,"w454":-0.15480883419513702,"w141":-0.2529565095901489,"w70":-0.7316164374351501,"w3":-0.10626814514398575,"w365":0.2583889365196228,"w18":-0.31370046734809875,"w322":-0.17103970050811768,"w5":-0.14534439146518707,"w7":0.2015681266784668,"w130":-0.05168451741337776,"w207":0.05069475993514061,"w267":-0.09992100298404694,"w32":0.044144704937934875,"w233":-0.031197914853692055,"w212":0.08218416571617126,"w309":0.08227811008691788,"w71":0.37207499146461487,"w293":0.148664653301239,"w426":0.2342785745859146,"w232":0.11884017288684845,"w346":0.29041531682014465,"w472":0.13448379933834076,"w131":0.2583167254924774,"w438":-0.2801412343978882,"w257":0.04568076506257057,"w2":-0.1925458163022995,"w9":0.04579351842403412,"w4":-0.2026543915271759,"w103":-0.08982892334461212,"w260":0.03459461033344269,"w307":0.1546449214220047,"w255":0.09012231975793839,"w254":0.07629064470529556,"w305":-0.04449612647294998,"w292":0.20082828402519226,"w157":0.0058824121952056885,"w304":-0.1365164965391159,"w76":0.17202265560626984,"w153":0.06610441952943802,"w366":0.10423295944929123,"w246":0.0006293155602179468,"w277":0.14237159490585327,"w171":-0.097532719373703,"w494":0.14246390759944916,"w102":-0.2573648989200592,"w303":0.07317832857370377,"w213":0.03312237560749054,"w6":-0.12198776006698608,"w499":-0.2400861531496048,"w221":-0.2931440472602844,"w136":-0.3481169044971466,"w397":-0.5754173994064331,"w107":-0.3600350618362427,"w150":-0.3214944005012512,"w378":-0.23687586188316345,"w148":-0.04288778826594353,"w135":-0.10228560119867325,"w174":0.03103243187069893,"w147":0.011534229852259159,"w112":-0.7829274535179138,"w21":-0.24442148208618164,"w463":-0.061905600130558014,"w168":-0.28613921999931335,"w520":-0.4056529998779297,"w127":-0.762671172618866,"w209":0.03996281698346138,"w0":-0.003612617263570428,"w518":-0.2822217345237732,"w357":-0.2214304357767105,"w337":-0.30435290932655334,"w315":-0.3403065800666809,"w239":-0.35590261220932007,"w495":-0.15305927395820618,"w110":-0.09198525547981262,"w40":0.3607228100299835,"w105":0.6710858345031738,"w86":0.1537456512451172,"w450":-0.09500925987958908,"w469":0.12458322942256927,"w534":-0.11153443157672882,"w382":0.0013242184650152922,"w525":-0.7126168608665466,"w398":-0.5966163873672485,"w535":-0.2635475993156433,"w519":-0.15580393373966217,"w314":-0.3597535789012909,"w531":-0.3225872218608856,"w482":-0.44911932945251465,"w443":-0.3711085915565491,"w115":-0.14059168100357056,"w527":-0.30363452434539795,"w299":0.21069784462451935,"w300":-0.2661685645580292,"w116":-0.1438830941915512,"w363":-0.16421456634998322,"w391":0.30538254976272583,"w362":0.16153721511363983,"w101":0.36466184258461,"w169":-0.15914323925971985,"w48":0.22701576352119446,"w354":-0.24518847465515137,"w434":-0.005120293237268925,"w210":-0.25505635142326355,"w478":0.016314642503857613,"w423":-0.21234792470932007,"w20":-0.09577994048595428,"w369":-0.2876187264919281,"w41":-0.4082386791706085,"w268":-0.05311169847846031,"w360":-0.10457825660705566,"w431":-0.910194993019104,"w407":-1.2226611375808716,"w74":-0.4709317982196808,"w406":-0.949238121509552,"w278":-0.3815438449382782,"w273":-0.1935701072216034,"w359":-0.20186559855937958,"w274":-0.02226346731185913,"w415":-0.138961523771286,"w424":-0.2411186695098877,"w507":-0.2439255714416504,"w220":-0.1811283826828003,"w286":-0.03608650341629982,"w486":0.16356468200683594,"w42":-0.19482368230819702,"w43":-0.04377053305506706,"w33":0.04307989031076431,"w544":-0.007766779512166977,"w467":0.009003184735774994,"w285":-0.17779000103473663,"w44":0.06851206719875336,"w430":-0.027635648846626282,"w138":0.034572139382362366,"w114":-0.02874038740992546,"w374":-0.08034946769475937,"w240":0.02558969333767891,"w425":0.08254978805780411,"w178":0.11560028046369553,"w324":0.029385363683104515,"w420":-0.09815026819705963,"w88":-0.03871975839138031,"w421":0.16650624573230743,"w312":0.05711968615651131,"w542":0.19561056792736053,"w394":-0.09694300591945648,"w395":-0.13107098639011383,"w347":0.13221463561058044,"w282":0.15528765320777893,"w325":-0.19755996763706207,"w99":0.06541387736797333,"w355":-0.1612430214881897,"w419":-0.19417543709278107,"w418":0.04968402534723282,"w367":-0.025351256132125854,"w448":-0.08011999726295471,"w390":0.1417611688375473,"w381":0.05120722949504852,"w132":0.11946221441030502,"w342":-0.35759732127189636,"w72":-0.46793925762176514,"w413":-0.3852215111255646,"w151":0.767911434173584}},"2":{"bias":-0.24126046895980835,"weights":{"w350":-0.3124374747276306,"w517":-1.5626895427703857,"w186":-1.1846866607666016,"w93":-0.3127301335334778,"w183":-0.9213389754295349,"w504":-0.9094123840332031,"w35":0.06400842219591141,"w364":-0.10781524330377579,"w537":0.08374042063951492,"w87":-0.02321813441812992,"w27":0.28928112983703613,"w65":-0.4422385096549988,"w26":-0.7422705888748169,"w422":-1.1520793437957764,"w163":-0.7874510884284973,"w152":-0.756447434425354,"w222":-0.8858092427253723,"w489":-0.5887463092803955,"w181":-0.35262051224708557,"w251":-0.09374620020389557,"w243":0.03602313995361328,"w250":-0.6382524967193604,"w543":-0.6318702101707458,"w446":-0.3677259087562561,"w275":-0.5016446709632874,"w182":-0.6960998773574829,"w242":0.02828127145767212,"w524":-0.6018807888031006,"w516":-0.08416743576526642,"w333":-0.587610125541687,"w214":-0.6529715061187744,"w217":-0.17033427953720093,"w512":-0.4321736693382263,"w143":-0.09017962217330933,"w262":-0.28565335273742676,"w540":1.4947446584701538,"w272":-0.38978251814842224,"w125":-0.6315075159072876,"w80":-0.3563350439071655,"w79":-0.3548787236213684,"w432":-0.4162220358848572,"w541":1.4896763563156128,"w409":0.1152358427643776,"w323":0.5049895644187927,"w361":-0.10043595731258392,"w428":-0.017229193821549416,"w455":0.13587918877601624,"w392":0.24255725741386414,"w283":0.5349515080451965,"w496":0.10008718073368073,"w167":0.34973812103271484,"w503":0.2744181752204895,"w162":0.562193751335144,"w92":0.163357213139534,"w488":0.39779019355773926,"w104":0.27524876594543457,"w416":-0.5975216031074524,"w298":0.30998897552490234,"w481":0.3784390687942505,"w506":0.5447515249252319,"w429":0.15967516601085663,"w487":-0.03564077988266945,"w502":0.34204554557800293,"w356":0.08626154810190201,"w123":0.7003986835479736,"w170":0.28436943888664246,"w122":0.4316849708557129,"w301":-0.1510065495967865,"w249":0.42713814973831177,"w89":-0.2084435671567917,"w66":-0.1397460699081421,"w53":0.0041980985552072525,"w449":-0.02379610575735569,"w399":-0.23851975798606873,"w526":0.29515761137008667,"w522":-0.03844708949327469,"w456":-0.15435625612735748,"w14":0.21761809289455414,"w539":0.3003119230270386,"w483":0.22558742761611938,"w244":0.4634065330028534,"w208":-0.13446277379989624,"w264":-0.06553830951452255,"w402":0.1322021633386612,"w484":0.2299034148454666,"w326":0.498100221157074,"w190":-0.15459248423576355,"w538":0.00044216119567863643,"w330":-0.031568724662065506,"w29":-0.05961650609970093,"w225":-0.15742038190364838,"w290":-0.21164670586585999,"w485":0.05148854851722717,"w256":-0.055150263011455536,"w52":-0.13321565091609955,"w393":-0.11775792390108109,"w380":-0.13126157224178314,"w245":0.02222416363656521,"w37":0.16489920020103455,"w55":-0.07325442880392075,"w200":-0.18576441705226898,"w96":-0.005363721400499344,"w289":0.0001343953626928851,"w77":-0.165632426738739,"w401":-0.220769003033638,"w154":-0.06302903592586517,"w321":0.38195350766181946,"w412":0.669603705406189,"w384":0.8970271944999695,"w383":0.9631370306015015,"w106":-0.08449745923280716,"w266":0.3657006323337555,"w532":0.38956084847450256,"w126":0.5335386395454407,"w51":0.11262933909893036,"w22":0.3005656898021698,"w8":0.7944462895393372,"w311":-0.13844528794288635,"w1":1.0709319114685059,"w310":-0.13853660225868225,"w36":-0.17019376158714294,"w510":0.20074798166751862,"w437":0.0627945140004158,"w501":-0.04355534538626671,"w228":0.0408121719956398,"w475":0.37325313687324524,"w479":-0.37413376569747925,"w464":-0.1314358413219452,"w405":-0.09910134971141815,"w206":0.004345199093222618,"w144":0.08826139569282532,"w61":-0.2847231328487396,"w226":-0.1486974060535431,"w294":-0.1912996619939804,"w25":-0.08823155611753464,"w187":-0.27609115839004517,"w184":-0.7412322759628296,"w231":0.28295764327049255,"w521":0.04219872131943703,"w137":-0.11233697086572647,"w338":-0.22617089748382568,"w528":-0.11521191149950027,"w47":-0.25208309292793274,"w16":0.029484355822205544,"w414":-0.14077702164649963,"w57":-0.10733164846897125,"w60":-0.2017100304365158,"w17":0.059448178857564926,"w241":-0.14489103853702545,"w34":-0.25242218375205994,"w436":-0.06590760499238968,"w140":0.13636508584022522,"w500":0.09787620604038239,"w218":-0.05945301428437233,"w439":-0.08265209943056107,"w58":0.04032972455024719,"w352":0.10132978856563568,"w56":0.25576117634773254,"w263":0.13849857449531555,"w327":-0.18038026988506317,"w12":-0.041632477194070816,"w179":0.15486973524093628,"w24":-0.10432515293359756,"w63":0.055779628455638885,"w219":-0.05313197150826454,"w343":0.07730768620967865,"w62":0.2623780071735382,"w375":-0.006705369800329208,"w211":-0.16242164373397827,"w296":-0.1582699716091156,"w10":0.09711571782827377,"w145":-0.16736754775047302,"w224":-0.3404754102230072,"w471":-0.162137970328331,"w400":-0.14184165000915527,"w156":0.3109724223613739,"w287":-0.007323840167373419,"w341":-0.0029654500540345907,"w139":-0.023456571623682976,"w316":0.03325972706079483,"w248":-0.20884674787521362,"w155":0.2863064408302307,"w265":-0.16569462418556213,"w493":0.12031842023134232,"w192":0.0598757304251194,"w134":-0.1780991554260254,"w252":0.18293608725070953,"w180":0.5882764458656311,"w433":0.568274974822998,"w85":-0.07119366526603699,"w235":-0.009175147861242294,"w124":-0.26558592915534973,"w389":-0.10500932484865189,"w388":-0.12264135479927063,"w529":0.4663694202899933,"w129":-1.180788278579712,"w28":0.04902787134051323,"w84":0.41815534234046936,"w97":1.4321281909942627,"w91":0.14186842739582062,"w404":0.9577362537384033,"w302":0.3218752443790436,"w291":-0.2922961413860321,"w371":0.7592574954032898,"w270":0.10186465084552765,"w385":0.4342535734176636,"w497":0.34729015827178955,"w447":0.40792950987815857,"w177":0.2112250030040741,"w158":0.17496657371520996,"w408":0.3834615647792816,"w372":-0.7331792116165161,"w498":-0.5137773156166077,"w98":0.004791146609932184,"w411":0.153031587600708,"w396":-0.36467090249061584,"w119":-0.030302008613944054,"w345":-0.20777757465839386,"w120":-0.005363973323255777,"w279":-0.06965874135494232,"w82":-0.1769772171974182,"w280":0.1936698853969574,"w223":-0.778512179851532,"w351":-0.0870252251625061,"w118":-0.002371111186221242,"w340":0.039395615458488464,"w313":-0.1350652128458023,"w509":0.2882450520992279,"w508":0.21139594912528992,"w505":0.14332734048366547,"w435":0.15999111533164978,"w142":0.2869882881641388,"w458":0.8449811339378357,"w95":0.2084830105304718,"w370":0.31925204396247864,"w90":0.9270917773246765,"w368":0.5249448418617249,"w164":-1.6425727605819702,"w334":-0.17275787889957428,"w332":-0.16804444789886475,"w50":0.12714816629886627,"w331":-0.2614484429359436,"w73":-0.06740588694810867,"w176":-0.1320342719554901,"w159":0.43324151635169983,"w530":0.2957982122898102,"w477":0.21921579539775848,"w133":0.502631425857544,"w15":-0.507811427116394,"w533":-0.015281503088772297,"w379":-0.5593281388282776,"w117":-0.35897135734558105,"w386":-0.36115115880966187,"w146":-0.064455047249794,"w480":-0.18128618597984314,"w195":-0.08714745938777924,"w261":0.03193347528576851,"w459":0.20010314881801605,"w490":0.1601274311542511,"w281":0.7854116559028625,"w236":0.7535063028335571,"w373":0.348167359828949,"w387":0.5197243094444275,"w83":0.49317246675491333,"w45":-0.05973063036799431,"w349":0.2983860671520233,"w335":0.22671955823898315,"w160":-0.019033392891287804,"w318":-0.21395665407180786,"w276":-0.5875471234321594,"w161":-1.4661870002746582,"w100":-0.4202432334423065,"w288":-0.4775086045265198,"w128":-0.5347532629966736,"w353":-0.47871506214141846,"w197":-1.070431113243103,"w203":-1.2300682067871094,"w201":-1.0790570974349976,"w67":-0.22826144099235535,"w317":-0.4031999707221985,"w149":-0.5522457957267761,"w339":0.612088143825531,"w19":-0.4116819202899933,"w523":-0.03716462105512619,"w536":-0.907250702381134,"w188":-1.004578709602356,"w31":-0.233260840177536,"w166":0.008484378457069397,"w111":1.1968351602554321,"w329":-0.8768851161003113,"w328":-0.7957902550697327,"w189":-0.8285894393920898,"w238":-0.6048330068588257,"w230":-0.292335569858551,"w30":-0.6995145678520203,"w59":-0.6562647819519043,"w68":-0.19590048491954803,"w514":-0.6813744902610779,"w445":-0.6361197233200073,"w199":-0.7840388417243958,"w204":-0.7546994090080261,"w198":-0.49962159991264343,"w202":-0.5660764575004578,"w205":-0.4728165864944458,"w319":-0.06991890072822571,"w175":-0.21628504991531372,"w444":-0.4750930964946747,"w440":-0.676551103591919,"w69":0.3237411677837372,"w185":0.2482890486717224,"w410":0.09004221856594086,"w269":0.09294917434453964,"w451":0.365691602230072,"w75":-0.14382539689540863,"w453":0.14018818736076355,"w23":0.10795117914676666,"w358":0.026822403073310852,"w306":-0.027126407250761986,"w81":0.08961720019578934,"w348":0.07397303730249405,"w344":0.024381406605243683,"w78":0.17727771401405334,"w308":-0.3253006637096405,"w191":0.23351792991161346,"w461":-0.10902231931686401,"w462":-0.037837278097867966,"w121":-0.06829962134361267,"w417":0.07485315948724747,"w284":-0.1742955595254898,"w320":-0.1932365596294403,"w465":-0.1507064253091812,"w466":-0.036916885524988174,"w491":-0.020158080384135246,"w468":-0.14292462170124054,"w470":0.3895312547683716,"w227":0.098304383456707,"w108":-0.10791525989770889,"w216":0.16310164332389832,"w13":0.18179333209991455,"w258":-0.09676847606897354,"w49":0.21924802660942078,"w513":0.32449012994766235,"w403":0.569118857383728,"w54":0.037503909319639206,"w173":0.1299053281545639,"w492":0.5677912831306458,"w474":0.1347733438014984,"w109":0.5246157646179199,"w11":0.41291192173957825,"w253":0.06165662407875061,"w452":0.514175534248352,"w473":0.41851726174354553,"w515":-1.9066191911697388,"w215":-0.09162772446870804,"w165":-0.03196151182055473,"w295":-1.6596505641937256,"w237":-0.20616492629051208,"w46":-0.10731703042984009,"w377":-0.9932703375816345,"w38":-0.3440576195716858,"w376":-0.578472375869751,"w457":-0.8046916127204895,"w259":-0.7171194553375244,"w172":-0.4034575819969177,"w460":-0.27979961037635803,"w113":0.01167798787355423,"w229":-0.2694404721260071,"w234":0.6407908201217651,"w271":0.31294211745262146,"w427":0.031123066321015358,"w442":0.0074449265375733376,"w193":0.24907219409942627,"w94":0.3196325898170471,"w297":0.2836697995662689,"w441":0.24871113896369934,"w194":0.2893259525299072,"w511":0.2741508185863495,"w39":0.20756322145462036,"w336":-0.0641121044754982,"w247":-0.20413623750209808,"w476":-0.01454224344342947,"w196":-0.18957358598709106,"w64":-0.2670256793498993,"w454":0.15055350959300995,"w141":-0.2092982828617096,"w70":0.9796021580696106,"w3":0.8665849566459656,"w365":0.5849828124046326,"w18":0.44804999232292175,"w322":0.4442583918571472,"w5":0.6933722496032715,"w7":0.4711597263813019,"w130":0.016137607395648956,"w207":1.1632884740829468,"w267":0.22764047980308533,"w32":0.22320306301116943,"w233":0.41125351190567017,"w212":0.13370639085769653,"w309":0.38692837953567505,"w71":1.3837884664535522,"w293":0.6994557976722717,"w426":0.6260947585105896,"w232":0.7720336318016052,"w346":0.5709253549575806,"w472":0.1391671597957611,"w131":-0.02598072588443756,"w438":0.41709136962890625,"w257":0.3510221540927887,"w2":0.8811323046684265,"w9":0.5986892580986023,"w4":0.31271547079086304,"w103":1.527018427848816,"w260":0.39467108249664307,"w307":0.6250492930412292,"w255":0.00869534071534872,"w254":0.5708134770393372,"w305":0.5180076956748962,"w292":0.05647534877061844,"w157":0.5791071653366089,"w304":0.12393804639577866,"w76":0.4203973710536957,"w153":0.30978670716285706,"w366":0.22330883145332336,"w246":0.09979763627052307,"w277":0.07430975884199142,"w171":0.2318975180387497,"w494":0.5824944972991943,"w102":1.0990943908691406,"w303":0.27083855867385864,"w213":-0.10361812263727188,"w6":-0.12138605862855911,"w499":0.2970074415206909,"w221":0.06478895246982574,"w136":0.4728895425796509,"w397":0.5212733745574951,"w107":0.7283918857574463,"w150":0.579777181148529,"w378":1.0643556118011475,"w148":0.07794133573770523,"w135":0.6372475624084473,"w174":0.13248948752880096,"w147":0.11427071690559387,"w112":-0.035599324852228165,"w21":0.11058104783296585,"w463":0.1388920545578003,"w168":0.37096714973449707,"w520":0.17018932104110718,"w127":0.9782942533493042,"w209":-0.02167585678398609,"w0":0.5173895359039307,"w518":0.4377157390117645,"w357":-0.283992201089859,"w337":0.4655708968639374,"w315":0.5977099537849426,"w239":-0.16891324520111084,"w495":0.028548220172524452,"w110":0.22053177654743195,"w40":-0.238906130194664,"w105":-0.4158622920513153,"w86":-0.19433151185512543,"w450":-0.003569795284420252,"w469":-0.09806723147630692,"w534":0.026621803641319275,"w382":-0.0024525891058146954,"w525":0.4961608052253723,"w398":0.20989318192005157,"w535":0.08193737268447876,"w519":0.5167768001556396,"w314":0.5192742943763733,"w531":0.38101863861083984,"w482":0.3281225562095642,"w443":0.6777557730674744,"w115":0.014160840772092342,"w527":-0.10142102837562561,"w299":-0.12438588589429855,"w300":0.27072852849960327,"w116":-0.07736653089523315,"w363":0.7092126607894897,"w391":0.38792669773101807,"w362":0.2678554058074951,"w101":-0.0975046306848526,"w169":0.6398570537567139,"w48":-0.09643924981355667,"w354":-0.2209804505109787,"w434":0.2537384331226349,"w210":-0.297656774520874,"w478":0.08701220154762268,"w423":-0.2526041269302368,"w20":-0.05509825795888901,"w369":-0.34547126293182373,"w41":0.048128556460142136,"w268":-0.05192084610462189,"w360":-0.2454187572002411,"w431":0.49936044216156006,"w407":1.9137773513793945,"w74":0.8173625469207764,"w406":1.2546346187591553,"w278":0.47639790177345276,"w273":0.2648453712463379,"w359":0.26592931151390076,"w274":0.2744046747684479,"w415":0.2302665263414383,"w424":0.5022807717323303,"w507":0.6022108197212219,"w220":-0.08988111466169357,"w286":-0.10690060257911682,"w486":-0.10701759904623032,"w42":0.014710180461406708,"w43":0.1915588676929474,"w33":0.35115861892700195,"w544":0.0263349749147892,"w467":0.15710078179836273,"w285":-0.055884797126054764,"w44":-0.05900747701525688,"w430":0.3541836738586426,"w138":0.24754934012889862,"w114":0.04953265190124512,"w374":0.13748840987682343,"w240":0.2509726881980896,"w425":-0.068384550511837,"w178":-0.035632893443107605,"w324":0.23317928612232208,"w420":0.12203341722488403,"w88":0.12844066321849823,"w421":0.13399632275104523,"w312":0.23642493784427643,"w542":-0.05660983920097351,"w394":0.21227006614208221,"w395":0.24743233621120453,"w347":-0.022846944630146027,"w282":-0.3273644745349884,"w325":0.20698806643486023,"w99":0.10101019591093063,"w355":-0.04094112664461136,"w419":0.0354624018073082,"w418":0.07682732492685318,"w367":0.05579995736479759,"w448":-0.13886283338069916,"w390":-0.04972006753087044,"w381":-0.022600552067160606,"w132":0.14684957265853882,"w342":1.516633152961731,"w72":1.418671727180481,"w413":1.312126874923706,"w151":0.611794650554657}},"3":{"bias":-0.22261963784694672,"weights":{"w350":0.7430757880210876,"w517":0.25658729672431946,"w186":0.6792174577713013,"w93":0.14098376035690308,"w183":0.7510468363761902,"w504":0.5425288677215576,"w35":0.023028768599033356,"w364":-0.2366068959236145,"w537":-0.6933232545852661,"w87":0.2653729021549225,"w27":-0.2066182941198349,"w65":-0.036360275000333786,"w26":0.391719788312912,"w422":0.11029928177595139,"w163":0.09527872502803802,"w152":0.1251521110534668,"w222":0.11263854801654816,"w489":-0.1778874546289444,"w181":-0.03187702223658562,"w251":0.9223242998123169,"w243":0.056364480406045914,"w250":0.5850349068641663,"w543":0.293530136346817,"w446":0.134835347533226,"w275":0.19651545584201813,"w182":0.5240870118141174,"w242":0.04886776953935623,"w524":-0.034062460064888,"w516":0.1733546108007431,"w333":-0.0015865309396758676,"w214":0.17660322785377502,"w217":-0.11686298251152039,"w512":0.11295143514871597,"w143":0.04684435948729515,"w262":0.19596000015735626,"w540":-2.284609317779541,"w272":0.3695406913757324,"w125":0.049870483577251434,"w80":-0.09156498312950134,"w79":0.3568370044231415,"w432":0.06082239747047424,"w541":-1.4263848066329956,"w409":0.17686110734939575,"w323":-0.5727177858352661,"w361":-0.48887142539024353,"w428":-0.19139401614665985,"w455":-0.1506456732749939,"w392":-0.23355823755264282,"w283":-0.11290931701660156,"w496":-0.03493202105164528,"w167":-0.3092268109321594,"w503":-0.17611375451087952,"w162":-0.32014963030815125,"w92":-0.20077073574066162,"w488":-0.28681060671806335,"w104":-0.140103280544281,"w416":0.11924750357866287,"w298":-0.06031251698732376,"w481":-0.126542329788208,"w506":-0.36254385113716125,"w429":-0.43126365542411804,"w487":-0.21521854400634766,"w502":0.00611489824950695,"w356":-0.0030154013074934483,"w123":-0.276184618473053,"w170":-0.26747414469718933,"w122":-0.37222832441329956,"w301":0.1387292742729187,"w249":-0.12380193918943405,"w89":-0.05509781837463379,"w66":0.12770476937294006,"w53":0.08134214580059052,"w449":0.013243118301033974,"w399":-0.15870968997478485,"w526":-0.3182322680950165,"w522":-0.04408278316259384,"w456":-0.019586293026804924,"w14":-0.5415618419647217,"w539":-0.1878797709941864,"w483":-0.567001461982727,"w244":-0.4065568745136261,"w208":-0.11251033842563629,"w264":-0.1219157874584198,"w402":-0.11445022374391556,"w484":-0.31581681966781616,"w326":0.39740854501724243,"w190":0.3135507106781006,"w538":-0.6365156173706055,"w330":0.29542067646980286,"w29":-0.38389548659324646,"w225":-0.35734784603118896,"w290":-0.026819147169589996,"w485":-0.1630932241678238,"w256":-0.33422765135765076,"w52":-0.37900999188423157,"w393":-0.20601233839988708,"w380":-0.29993075132369995,"w245":-0.17760629951953888,"w37":-0.41385000944137573,"w55":-0.1758621484041214,"w200":-0.23754633963108063,"w96":0.047369882464408875,"w289":-0.09057260304689407,"w77":-0.16171786189079285,"w401":-0.09744465351104736,"w154":-0.0468115471303463,"w321":-0.09586519002914429,"w412":-0.519874632358551,"w384":-0.8199724555015564,"w383":-0.863054096698761,"w106":-0.1755443662405014,"w266":-0.5319105982780457,"w532":-0.5034943222999573,"w126":-0.5789281129837036,"w51":-0.16677942872047424,"w22":-0.1942846029996872,"w8":-0.290287047624588,"w311":0.10542009025812149,"w1":-0.49436086416244507,"w310":0.2532567083835602,"w36":0.1732420027256012,"w510":-0.037852950394153595,"w437":-0.053156234323978424,"w501":-0.06964036077260971,"w228":-0.26578494906425476,"w475":-0.259625643491745,"w479":0.05215657874941826,"w464":0.003895185887813568,"w405":0.08810189366340637,"w206":-0.1019313707947731,"w144":-0.2043287605047226,"w61":0.36253347992897034,"w226":-0.08268531411886215,"w294":-0.12640228867530823,"w25":0.19567222893238068,"w187":0.3055921494960785,"w184":0.5664288401603699,"w231":-0.4240405857563019,"w521":0.1967450976371765,"w137":-0.12058422714471817,"w338":0.11306008696556091,"w528":-0.153617724776268,"w47":-0.1544409990310669,"w16":0.08651949465274811,"w414":-0.052649807184934616,"w57":-0.09225715696811676,"w60":0.11210131645202637,"w17":-0.21732553839683533,"w241":-0.0345965176820755,"w34":-0.23406831920146942,"w436":-0.1237020194530487,"w140":-0.0840064063668251,"w500":-0.000165936813573353,"w218":0.0023206262849271297,"w439":-0.06263698637485504,"w58":-0.01140670757740736,"w352":0.11123258620500565,"w56":-0.13411274552345276,"w263":0.002895555691793561,"w327":0.19894979894161224,"w12":0.14936569333076477,"w179":-0.025100378319621086,"w24":0.2873051166534424,"w63":0.1619691699743271,"w219":0.20700493454933167,"w343":0.1742282658815384,"w62":-0.05671272054314613,"w375":0.06570631265640259,"w211":0.030672648921608925,"w296":0.20439201593399048,"w10":-0.15028026700019836,"w145":0.04031265154480934,"w224":0.06947939097881317,"w471":-0.04448719695210457,"w400":0.09183596819639206,"w156":-0.35552677512168884,"w287":0.11927007883787155,"w341":0.045967910438776016,"w139":-0.06247025355696678,"w316":-0.16578514873981476,"w248":-0.15638460218906403,"w155":-0.22444668412208557,"w265":0.059890203177928925,"w493":-0.12275295704603195,"w192":0.22793401777744293,"w134":-0.1795441210269928,"w252":0.03742632269859314,"w180":0.3781447112560272,"w433":0.2702126204967499,"w85":-0.06848306953907013,"w235":0.1481463462114334,"w124":-0.012782745994627476,"w389":-0.17395411431789398,"w388":-0.017842864617705345,"w529":0.14325322210788727,"w129":-0.09460477530956268,"w28":0.1340179145336151,"w84":-0.03425785154104233,"w97":-0.08140645176172256,"w91":0.2947661876678467,"w404":-0.5072904825210571,"w302":0.24255070090293884,"w291":-0.059333182871341705,"w371":0.15963375568389893,"w270":0.05349132791161537,"w385":-0.03393300995230675,"w497":-0.11555066704750061,"w447":-0.03903286159038544,"w177":-0.2133636623620987,"w158":-0.0965392142534256,"w408":0.2938704192638397,"w372":0.32845041155815125,"w498":-0.041149917989969254,"w98":-0.042999155819416046,"w411":-0.5393449664115906,"w396":-0.0720561146736145,"w119":-0.09385217726230621,"w345":-0.4691780209541321,"w120":-0.004581575747579336,"w279":0.029989592730998993,"w82":0.0935334861278534,"w280":-0.019883006811141968,"w223":-0.6014910340309143,"w351":-0.37633025646209717,"w118":-0.1403866857290268,"w340":-0.22975769639015198,"w313":-0.22815850377082825,"w509":0.8323522806167603,"w508":0.2177189439535141,"w505":0.3552123010158539,"w435":0.08096519857645035,"w142":0.14181944727897644,"w458":-0.00920089054852724,"w95":-0.21609213948249817,"w370":-0.19045394659042358,"w90":-0.1359393298625946,"w368":-0.1575319468975067,"w164":0.20602568984031677,"w334":-0.11412990838289261,"w332":-0.14190872013568878,"w50":-0.24748434126377106,"w331":0.04900551959872246,"w73":-0.025929447263479233,"w176":-0.5400093197822571,"w159":2.03696608543396,"w530":0.013387591578066349,"w477":-0.01000755000859499,"w133":0.8297879695892334,"w15":0.678106427192688,"w533":0.009457982145249844,"w379":0.32351723313331604,"w117":1.1312912702560425,"w386":0.8468117117881775,"w146":0.14648573100566864,"w480":0.13610899448394775,"w195":0.3872731029987335,"w261":-0.029223747551441193,"w459":0.08415290713310242,"w490":0.2613816261291504,"w281":-0.42268556356430054,"w236":-0.41485658288002014,"w373":-0.11975836008787155,"w387":0.8283416628837585,"w83":0.8344061374664307,"w45":0.08284982293844223,"w349":0.6099704504013062,"w335":0.3783528208732605,"w160":0.20621976256370544,"w318":-0.09001956135034561,"w276":-0.23160167038440704,"w161":-1.06069016456604,"w100":-0.5159412622451782,"w288":-0.42163515090942383,"w128":-0.28528013825416565,"w353":-0.44462138414382935,"w197":0.735601007938385,"w203":0.9646051526069641,"w201":0.7896937727928162,"w67":0.2416941225528717,"w317":0.4093691110610962,"w149":0.24470005929470062,"w339":-0.7691045999526978,"w19":0.3706144690513611,"w523":-0.08702780306339264,"w536":0.6537907719612122,"w188":0.44392478466033936,"w31":0.031295616179704666,"w166":0.2122347205877304,"w111":-0.798540472984314,"w329":0.79255211353302,"w328":0.6271779537200928,"w189":0.7021573185920715,"w238":0.4830131232738495,"w230":0.284598171710968,"w30":0.6144620180130005,"w59":0.6236734390258789,"w68":0.22109287977218628,"w514":0.5338224172592163,"w445":0.47989383339881897,"w199":0.6520728468894958,"w204":0.5998613834381104,"w198":0.6738844513893127,"w202":0.6702924966812134,"w205":0.6683969497680664,"w319":0.17106808722019196,"w175":0.3449566960334778,"w444":0.5447405576705933,"w440":0.48287007212638855,"w69":-0.5494484305381775,"w185":-0.24762925505638123,"w410":-0.08296889811754227,"w269":-0.0536653995513916,"w451":-0.012257302179932594,"w75":-0.24073223769664764,"w453":-0.4605662524700165,"w23":-0.3883795142173767,"w358":-0.2534908652305603,"w306":-0.002155011286959052,"w81":-0.18721415102481842,"w348":-0.12861444056034088,"w344":0.11175405979156494,"w78":-0.10606598854064941,"w308":0.0924026295542717,"w191":-0.5036645531654358,"w461":0.21388418972492218,"w462":-0.21989893913269043,"w121":-0.0743267685174942,"w417":0.058973927050828934,"w284":-0.18767228722572327,"w320":0.08515160530805588,"w465":0.035888973623514175,"w466":0.09260281175374985,"w491":-0.0069480473175644875,"w468":0.03173171356320381,"w470":-0.822736918926239,"w227":0.14384524524211884,"w108":-0.21749277412891388,"w216":-0.45876720547676086,"w13":-0.14389179646968842,"w258":0.018211401998996735,"w49":-0.46893179416656494,"w513":-0.2942362427711487,"w403":-0.6781524419784546,"w54":0.10452905297279358,"w173":-0.15716254711151123,"w492":-0.5324105620384216,"w474":0.10506874322891235,"w109":0.9224355816841125,"w11":-0.049284446984529495,"w253":0.1031905859708786,"w452":0.6529456973075867,"w473":-0.0822131559252739,"w515":1.0752520561218262,"w215":0.07052131742238998,"w165":0.1483517736196518,"w295":0.6652151346206665,"w237":0.11028541624546051,"w46":0.0493280366063118,"w377":0.4788890779018402,"w38":0.30522608757019043,"w376":0.11181610822677612,"w457":0.3663880527019501,"w259":0.2500030994415283,"w172":0.2971017062664032,"w460":0.2117837518453598,"w113":0.17883643507957458,"w229":-0.18954361975193024,"w234":-0.1162853091955185,"w271":-0.09423293173313141,"w427":-0.005234009586274624,"w442":-0.013516519218683243,"w193":-0.0438157394528389,"w94":0.17152287065982819,"w297":0.13358169794082642,"w441":0.01814051903784275,"w194":-0.22485096752643585,"w511":-0.1361526995897293,"w39":-0.12320145219564438,"w336":-0.1326843649148941,"w247":-0.29758840799331665,"w476":-0.030384717509150505,"w196":-0.11608761548995972,"w64":-0.16635072231292725,"w454":0.10179238021373749,"w141":-0.050190865993499756,"w70":-0.9684143662452698,"w3":-0.7089634537696838,"w365":-0.43000638484954834,"w18":0.13365140557289124,"w322":-0.2610262930393219,"w5":-0.37438908219337463,"w7":-0.41525936126708984,"w130":-0.37154191732406616,"w207":-1.189679503440857,"w267":-0.2976130545139313,"w32":-0.24793072044849396,"w233":-0.4430258870124817,"w212":-0.17418523132801056,"w309":-0.33449891209602356,"w71":-1.1690735816955566,"w293":-0.7807409763336182,"w426":-0.5015885829925537,"w232":-0.5360268950462341,"w346":-0.46854087710380554,"w472":-0.44215816259384155,"w131":-0.2404148131608963,"w438":-0.12186533957719803,"w257":-0.12162104994058609,"w2":-0.019900118932127953,"w9":-0.1958712935447693,"w4":-0.224731907248497,"w103":-0.025531288236379623,"w260":0.020703492686152458,"w307":0.053668439388275146,"w255":0.03438187390565872,"w254":0.028977667912840843,"w305":-0.032371386885643005,"w292":0.11285420507192612,"w157":-0.008108354173600674,"w304":0.22866758704185486,"w76":-0.17427413165569305,"w153":-0.18848727643489838,"w366":-0.12457239627838135,"w246":-0.12048984318971634,"w277":-0.06504394859075546,"w171":-0.09441471099853516,"w494":-0.2065253108739853,"w102":0.15431079268455505,"w303":0.07953567802906036,"w213":0.12565158307552338,"w6":-0.17364884912967682,"w499":0.2544324994087219,"w221":0.11161185801029205,"w136":0.19341155886650085,"w397":0.032551880925893784,"w107":0.1518147736787796,"w150":0.011718600988388062,"w378":0.4304748773574829,"w148":0.08343841880559921,"w135":0.12579581141471863,"w174":0.19233033061027527,"w147":0.11028166860342026,"w112":0.025202007964253426,"w21":-0.09822404384613037,"w463":-0.26585903763771057,"w168":0.1312980055809021,"w520":0.27487578988075256,"w127":-0.7168415188789368,"w209":0.538578987121582,"w0":-0.46998047828674316,"w518":-0.28011733293533325,"w357":0.5212810039520264,"w337":-0.2793388068675995,"w315":-0.5161198377609253,"w239":0.2873925268650055,"w495":-0.24003808200359344,"w110":-0.13208739459514618,"w40":0.1583913117647171,"w105":0.11236459761857986,"w86":-0.053040556609630585,"w450":0.13742567598819733,"w469":-0.11442374438047409,"w534":-0.15972839295864105,"w382":-0.2557970881462097,"w525":-0.6952160596847534,"w398":-0.10230157524347305,"w535":-0.18640181422233582,"w519":-0.2975212335586548,"w314":-0.3348369896411896,"w531":-0.3274959921836853,"w482":-0.4840424656867981,"w443":-0.7276333570480347,"w115":0.00865854136645794,"w527":-0.2344709038734436,"w299":0.13208530843257904,"w300":-0.06742440909147263,"w116":0.04985443502664566,"w363":-0.46609634160995483,"w391":-0.31360340118408203,"w362":-0.10093871504068375,"w101":-0.19235442578792572,"w169":-0.21994677186012268,"w48":0.06222950667142868,"w354":0.24831435084342957,"w434":0.05017479509115219,"w210":0.09721111506223679,"w478":0.1283741146326065,"w423":0.16106288135051727,"w20":0.17183908820152283,"w369":0.008474355563521385,"w41":-0.0942225381731987,"w268":0.03650227189064026,"w360":0.15353141725063324,"w431":0.06078595295548439,"w407":-0.5368325114250183,"w74":-0.3725092113018036,"w406":-0.5916037559509277,"w278":-0.1721746176481247,"w273":-0.13801692426204681,"w359":-0.14853133261203766,"w274":-0.04736674576997757,"w415":-0.005929891020059586,"w424":-0.26204127073287964,"w507":-0.07813191413879395,"w220":0.04602130502462387,"w286":0.1736535280942917,"w486":-0.020861957222223282,"w42":0.06157081574201584,"w43":-0.1562044769525528,"w33":-0.2067156583070755,"w544":-0.08977207541465759,"w467":-0.18473166227340698,"w285":0.05207177996635437,"w44":-0.22459279000759125,"w430":-0.08456958830356598,"w138":0.0034276649821549654,"w114":-0.042096562683582306,"w374":-0.07787101715803146,"w240":-0.072629414498806,"w425":-0.12995949387550354,"w178":-0.08747812360525131,"w324":0.037195708602666855,"w420":-0.004955023527145386,"w88":-0.10027740895748138,"w421":-0.18977008759975433,"w312":-0.09604014456272125,"w542":0.051157355308532715,"w394":-0.25671806931495667,"w395":0.0067021544091403484,"w347":0.13720810413360596,"w282":-0.05592001974582672,"w325":-0.2039966881275177,"w99":0.1172700971364975,"w355":-0.01641910895705223,"w419":0.01355758123099804,"w418":0.20246845483779907,"w367":0.018269967287778854,"w448":-0.060953833162784576,"w390":-0.09559157490730286,"w381":0.21120131015777588,"w132":0.13792605698108673,"w342":0.3031463325023651,"w72":0.02186567708849907,"w413":0.1306299865245819,"w151":-0.4150266647338867}},"4":{"bias":-0.09643032401800156,"weights":{"w350":-0.1959151178598404,"w517":-1.018892526626587,"w186":0.45160970091819763,"w93":-0.048872776329517365,"w183":-0.13709433376789093,"w504":0.019982455298304558,"w35":0.22120295464992523,"w364":0.08491251617670059,"w537":-0.2552570402622223,"w87":-0.12722057104110718,"w27":0.2206445336341858,"w65":0.19695457816123962,"w26":0.060705073177814484,"w422":-0.5334034562110901,"w163":0.12708038091659546,"w152":-0.030489007011055946,"w222":-0.1633027344942093,"w489":-0.12312750518321991,"w181":0.1618933528661728,"w251":-0.01966782473027706,"w243":-0.33726775646209717,"w250":-0.11019391566514969,"w543":-0.028727209195494652,"w446":-0.1091662347316742,"w275":-0.10514950752258301,"w182":0.0937986820936203,"w242":-0.1431676745414734,"w524":-0.21741168200969696,"w516":0.05853087455034256,"w333":-0.1548653095960617,"w214":-0.16729992628097534,"w217":-0.07981833815574646,"w512":-0.19094054400920868,"w143":-0.12389034777879715,"w262":-0.3016924560070038,"w540":2.2975573539733887,"w272":-0.11667575687170029,"w125":-0.3271365761756897,"w80":-0.1098509430885315,"w79":-0.0360405258834362,"w432":-0.5662542581558228,"w541":1.4403725862503052,"w409":0.46659061312675476,"w323":0.40986546874046326,"w361":0.27733755111694336,"w428":0.16971759498119354,"w455":0.23529735207557678,"w392":0.2471802681684494,"w283":0.22892948985099792,"w496":0.01699947565793991,"w167":0.464254230260849,"w503":0.18240493535995483,"w162":0.234164297580719,"w92":0.35654062032699585,"w488":-0.025424230843782425,"w104":0.06520167738199234,"w416":-0.4782954156398773,"w298":-0.0454428568482399,"w481":0.37750253081321716,"w506":0.3460121154785156,"w429":0.2564713954925537,"w487":0.17010292410850525,"w502":0.27063819766044617,"w356":0.2504447102546692,"w123":0.1990526169538498,"w170":0.3858448266983032,"w122":0.4155053496360779,"w301":0.28267744183540344,"w249":0.26779431104660034,"w89":0.04629281163215637,"w66":0.14716896414756775,"w53":0.18524236977100372,"w449":-0.07241161912679672,"w399":-0.024826081469655037,"w526":-0.21908456087112427,"w522":-0.292387992143631,"w456":-0.4446234703063965,"w14":0.05158407986164093,"w539":-0.02379731647670269,"w483":0.007594093214720488,"w244":-0.10496091842651367,"w208":-0.10909290611743927,"w264":-0.20422936975955963,"w402":-0.02399604767560959,"w484":0.19052405655384064,"w326":-0.20246367156505585,"w190":-0.06526685506105423,"w538":0.1829652041196823,"w330":-0.11143437027931213,"w29":-0.001441356842406094,"w225":0.07449943572282791,"w290":-0.13219745457172394,"w485":-0.07618363201618195,"w256":-0.1590389609336853,"w52":-0.043575942516326904,"w393":-0.10328173637390137,"w380":0.10524185746908188,"w245":-0.3606049120426178,"w37":0.03725910931825638,"w55":-0.2521095275878906,"w200":-0.28372856974601746,"w96":0.04528205096721649,"w289":-0.1686670482158661,"w77":-0.11497484147548676,"w401":0.06514930725097656,"w154":-0.1705322265625,"w321":0.14419934153556824,"w412":0.43587830662727356,"w384":0.6952112317085266,"w383":0.8832192420959473,"w106":0.6762748956680298,"w266":0.3487490117549896,"w532":0.5387177467346191,"w126":0.5548489689826965,"w51":0.5858059525489807,"w22":0.05084075406193733,"w8":0.9274948239326477,"w311":-0.31649085879325867,"w1":1.0666351318359375,"w310":-0.012513895519077778,"w36":0.35212188959121704,"w510":0.04010526090860367,"w437":0.13686098158359528,"w501":0.08418169617652893,"w228":0.08265378326177597,"w475":0.2953413426876068,"w479":-0.2022666335105896,"w464":-0.0229310505092144,"w405":-0.277892142534256,"w206":0.3226822018623352,"w144":0.0073319729417562485,"w61":-0.528505802154541,"w226":0.16283175349235535,"w294":0.14539307355880737,"w25":0.020436255261301994,"w187":-0.14818450808525085,"w184":-0.4485384523868561,"w231":0.4817289113998413,"w521":-0.14312346279621124,"w137":-0.02659815363585949,"w338":0.13417373597621918,"w528":0.13759320974349976,"w47":-0.1272687464952469,"w16":0.09283441305160522,"w414":0.0708976611495018,"w57":-0.17886707186698914,"w60":-0.1257607340812683,"w17":0.07844480872154236,"w241":-0.027616051957011223,"w34":-0.17050810158252716,"w436":0.05204486846923828,"w140":0.05876098945736885,"w500":0.12684178352355957,"w218":0.1455978900194168,"w439":0.08832012861967087,"w58":0.0606115385890007,"w352":0.05864332243800163,"w56":-0.02088734321296215,"w263":0.17617525160312653,"w327":-0.16027332842350006,"w12":0.10529818385839462,"w179":-0.08057662099599838,"w24":-0.2580675482749939,"w63":-0.15624496340751648,"w219":-0.01486873347312212,"w343":0.0665169432759285,"w62":0.16209352016448975,"w375":-0.1461687982082367,"w211":-0.02658051624894142,"w296":0.17953510582447052,"w10":-0.05589202791452408,"w145":0.07845772057771683,"w224":0.12271886318922043,"w471":-0.15038585662841797,"w400":0.11247365176677704,"w156":0.47871509194374084,"w287":0.09494314342737198,"w341":0.21512438356876373,"w139":0.07645387202501297,"w316":-0.0017035091295838356,"w248":-0.07813376188278198,"w155":0.05728907510638237,"w265":-0.13482074439525604,"w493":-0.13060645759105682,"w192":-0.07355142384767532,"w134":-0.05501355603337288,"w252":0.1487817019224167,"w180":0.05370694398880005,"w433":1.0661749839782715,"w85":0.08716675639152527,"w235":0.13929784297943115,"w124":-0.005857782904058695,"w389":0.22888419032096863,"w388":0.24694408476352692,"w529":0.42042291164398193,"w129":-0.347883403301239,"w28":0.2634948492050171,"w84":0.30442014336586,"w97":0.626858651638031,"w91":-0.17764361202716827,"w404":0.3417275846004486,"w302":0.1651134192943573,"w291":0.6820376515388489,"w371":-0.08944165706634521,"w270":0.0393904410302639,"w385":0.3778630197048187,"w497":-0.11782105267047882,"w447":0.08770016580820084,"w177":0.26941758394241333,"w158":-0.0454789362847805,"w408":0.3870514929294586,"w372":-0.6605295538902283,"w498":-0.20261362195014954,"w98":0.04113619774580002,"w411":0.16328498721122742,"w396":-0.09513325244188309,"w119":-0.22598320245742798,"w345":0.04641447216272354,"w120":-0.03487791866064072,"w279":0.045462530106306076,"w82":0.10144037008285522,"w280":0.21376101672649384,"w223":0.1956987828016281,"w351":0.09319388121366501,"w118":0.035157885402441025,"w340":-0.06929729133844376,"w313":0.20061981678009033,"w509":-0.3315012753009796,"w508":-0.14104309678077698,"w505":-0.06431889533996582,"w435":-0.14943352341651917,"w142":-0.059438999742269516,"w458":0.12093483656644821,"w95":0.1604134887456894,"w370":0.15862928330898285,"w90":0.4378920793533325,"w368":0.21479256451129913,"w164":-0.3687189817428589,"w334":0.44280779361724854,"w332":0.015013732947409153,"w50":0.4083516299724579,"w331":-0.10954886674880981,"w73":-0.12464575469493866,"w176":0.49235787987709045,"w159":-0.9346181750297546,"w530":0.36518168449401855,"w477":0.46996450424194336,"w133":-0.3403487503528595,"w15":-0.37190520763397217,"w533":0.05837732553482056,"w379":-0.19944408535957336,"w117":-1.2988208532333374,"w386":-1.191802740097046,"w146":-1.0445948839187622,"w480":-0.9470779299736023,"w195":-0.7961187958717346,"w261":-0.09293633699417114,"w459":0.1434522420167923,"w490":-0.026306472718715668,"w281":0.09548123925924301,"w236":0.3688337802886963,"w373":0.03658534586429596,"w387":0.08107000589370728,"w83":-0.10657529532909393,"w45":0.08548862487077713,"w349":-0.12668752670288086,"w335":-0.016445675864815712,"w160":0.11791326105594635,"w318":0.16538387537002563,"w276":-0.5863584876060486,"w161":-1.2767338752746582,"w100":-0.3365619480609894,"w288":-0.4842325448989868,"w128":-0.3495321273803711,"w353":-0.10801943391561508,"w197":-1.0249967575073242,"w203":-1.0130906105041504,"w201":-1.0124984979629517,"w67":-0.15177559852600098,"w317":-0.5618806481361389,"w149":-0.5694041848182678,"w339":1.0948649644851685,"w19":-0.34212425351142883,"w523":-0.29351165890693665,"w536":-0.7772572636604309,"w188":-0.7306652069091797,"w31":-0.07114123553037643,"w166":-0.2011699080467224,"w111":1.052608609199524,"w329":-0.6524495482444763,"w328":-0.6579123735427856,"w189":-0.557343602180481,"w238":-0.5194330811500549,"w230":-0.4107556641101837,"w30":-0.562813937664032,"w59":-0.5180473923683167,"w68":-0.22231248021125793,"w514":-0.4915562868118286,"w445":-0.5328050255775452,"w199":-0.6414440870285034,"w204":-0.6716071367263794,"w198":-0.6703234314918518,"w202":-0.4763335585594177,"w205":-0.5390315651893616,"w319":-0.32116949558258057,"w175":-0.0504467599093914,"w444":-0.5003557205200195,"w440":-0.4161449372768402,"w69":0.3150216042995453,"w185":0.37737566232681274,"w410":0.23072466254234314,"w269":-0.07856952399015427,"w451":0.13227561116218567,"w75":-0.006867572665214539,"w453":0.26835447549819946,"w23":0.43610650300979614,"w358":0.3483934700489044,"w306":-0.017636654898524284,"w81":-0.07294691354036331,"w348":0.036687955260276794,"w344":0.3079046905040741,"w78":-0.1067851260304451,"w308":0.16629362106323242,"w191":-0.12613794207572937,"w461":0.2246960550546646,"w462":0.28160515427589417,"w121":0.1266961246728897,"w417":0.18123121559619904,"w284":0.01493691373616457,"w320":-0.1668100655078888,"w465":0.22442328929901123,"w466":0.2111005336046219,"w491":0.028291702270507812,"w468":0.23513337969779968,"w470":-0.3822499215602875,"w227":-0.11199057102203369,"w108":-0.001236576004885137,"w216":-0.2780791223049164,"w13":-0.05270300433039665,"w258":-0.1770842969417572,"w49":-0.14562609791755676,"w513":-0.11090334504842758,"w403":-0.19150684773921967,"w54":0.009188629686832428,"w173":0.2477620393037796,"w492":-0.10987550020217896,"w474":-0.14633101224899292,"w109":0.34985899925231934,"w11":0.1721382588148117,"w253":-0.2431236356496811,"w452":0.1854967623949051,"w473":-0.042936284095048904,"w515":-1.6680341958999634,"w215":-0.12608247995376587,"w165":0.06036163493990898,"w295":-1.3180038928985596,"w237":-0.21662752330303192,"w46":-0.22828099131584167,"w377":-0.8542138934135437,"w38":-0.32308444380760193,"w376":-0.529620349407196,"w457":-0.9308932423591614,"w259":-0.6959084272384644,"w172":-0.41719263792037964,"w460":-0.3141460120677948,"w113":-0.07168246060609818,"w229":0.005562482867389917,"w234":0.09935014694929123,"w271":0.17937681078910828,"w427":0.0639793649315834,"w442":-0.15757985413074493,"w193":-0.2512693703174591,"w94":0.12296320497989655,"w297":0.006970895454287529,"w441":0.025999223813414574,"w194":0.09212873876094818,"w511":0.1218419224023819,"w39":0.04220028594136238,"w336":-0.7081164121627808,"w247":-0.5217475891113281,"w476":-0.26523086428642273,"w196":-0.40150099992752075,"w64":-0.0009443137096241117,"w454":-0.2236464023590088,"w141":-0.4411936402320862,"w70":1.2867337465286255,"w3":1.0538474321365356,"w365":1.0908716917037964,"w18":0.13486145436763763,"w322":0.29375454783439636,"w5":0.7431766986846924,"w7":0.8196881413459778,"w130":0.30102458596229553,"w207":1.5532962083816528,"w267":0.27508220076560974,"w32":0.5050833821296692,"w233":0.5415974259376526,"w212":0.40592890977859497,"w309":0.2530653774738312,"w71":1.4844655990600586,"w293":0.7256572842597961,"w426":0.7623695135116577,"w232":0.8249885439872742,"w346":0.7733215689659119,"w472":0.2870863974094391,"w131":0.411221444606781,"w438":0.26403218507766724,"w257":0.07314029335975647,"w2":0.7759354710578918,"w9":0.5883399248123169,"w4":0.34689861536026,"w103":1.1804410219192505,"w260":0.2649877071380615,"w307":0.29943904280662537,"w255":-0.0894617810845375,"w254":0.3479496240615845,"w305":0.3173563778400421,"w292":0.34454840421676636,"w157":0.2426280677318573,"w304":0.003826133906841278,"w76":0.3085508346557617,"w153":0.11213023960590363,"w366":-0.0759296864271164,"w246":-0.0456090122461319,"w277":-0.18364402651786804,"w171":-0.10042707622051239,"w494":0.42234906554222107,"w102":0.6103348135948181,"w303":0.24669291079044342,"w213":-0.18431951105594635,"w6":-0.06116718798875809,"w499":0.30445587635040283,"w221":0.41164934635162354,"w136":0.7452027797698975,"w397":0.40430185198783875,"w107":0.7278953194618225,"w150":0.37167438864707947,"w378":1.1711599826812744,"w148":0.191616028547287,"w135":0.862748384475708,"w174":0.0927671417593956,"w147":0.04507686197757721,"w112":0.3698253929615021,"w21":0.3603743016719818,"w463":0.048085324466228485,"w168":0.15236787497997284,"w520":0.2121230810880661,"w127":0.8673891425132751,"w209":-0.1722138524055481,"w0":0.5025923848152161,"w518":0.34719592332839966,"w357":-0.012149125337600708,"w337":0.5229663848876953,"w315":0.6385687589645386,"w239":0.03224410116672516,"w495":0.12537525594234467,"w110":0.04269632324576378,"w40":0.10893777757883072,"w105":0.057709094136953354,"w86":0.048638079315423965,"w450":0.1079564243555069,"w469":-0.08279676735401154,"w534":-0.03427144140005112,"w382":0.34616807103157043,"w525":0.20306436717510223,"w398":-0.013852101750671864,"w535":0.11650516092777252,"w519":0.2370486855506897,"w314":0.13346584141254425,"w531":0.3288551867008209,"w482":0.14732523262500763,"w443":0.8318144679069519,"w115":0.1493077278137207,"w527":0.32466116547584534,"w299":0.018669798970222473,"w300":0.37984728813171387,"w116":0.234491229057312,"w363":0.34226009249687195,"w391":-0.006094916723668575,"w362":0.13837364315986633,"w101":-0.05871544033288956,"w169":0.2568511962890625,"w48":-0.1465258151292801,"w354":0.18695107102394104,"w434":0.1618473380804062,"w210":0.15509946644306183,"w478":0.16024857759475708,"w423":0.21806403994560242,"w20":0.17023791372776031,"w369":0.3684302270412445,"w41":0.16679586470127106,"w268":0.08857741206884384,"w360":0.19051748514175415,"w431":0.8621129393577576,"w407":1.0616509914398193,"w74":0.31569981575012207,"w406":0.8630936741828918,"w278":0.26674649119377136,"w273":0.07210559397935867,"w359":0.22769078612327576,"w274":0.29473257064819336,"w415":0.07563858479261398,"w424":0.11261000484228134,"w507":-0.10921573638916016,"w220":0.18267135322093964,"w286":0.1591338813304901,"w486":-0.10035403072834015,"w42":-0.0023868943098932505,"w43":0.12632635235786438,"w33":-0.054956600069999695,"w544":0.09798507392406464,"w467":-0.11241817474365234,"w285":-0.09792724251747131,"w44":0.19755247235298157,"w430":-0.08204705268144608,"w138":0.15461140871047974,"w114":-0.12142933160066605,"w374":0.08230556547641754,"w240":0.23528628051280975,"w425":0.21960483491420746,"w178":0.16509386897087097,"w324":0.17243464291095734,"w420":0.01976298913359642,"w88":0.16120655834674835,"w421":0.19300134479999542,"w312":-0.046238165348768234,"w542":-0.17184729874134064,"w394":0.22018182277679443,"w395":0.3307163119316101,"w347":0.04691307619214058,"w282":0.09098045527935028,"w325":0.012427414767444134,"w99":-0.08825445920228958,"w355":-0.07834210991859436,"w419":0.08667502552270889,"w418":-0.08064034581184387,"w367":-0.11453232914209366,"w448":0.049242693930864334,"w390":0.17513158917427063,"w381":0.16678784787654877,"w132":0.08302655071020126,"w342":0.6991139054298401,"w72":0.5587335824966431,"w413":0.3847123384475708,"w151":0.681317925453186}},"5":{"bias":-0.011639961041510105,"weights":{"w350":-0.9259659647941589,"w517":-0.12445665895938873,"w186":-0.7873461842536926,"w93":-0.6614091396331787,"w183":-0.6052643656730652,"w504":-0.7105321288108826,"w35":0.056387826800346375,"w364":0.005175884813070297,"w537":-0.5951052308082581,"w87":0.09927419573068619,"w27":-0.4682273864746094,"w65":-0.27934762835502625,"w26":-1.5394244194030762,"w422":0.019614247605204582,"w163":-1.612943172454834,"w152":-1.053744912147522,"w222":-1.0458934307098389,"w489":-0.839322566986084,"w181":-0.552185595035553,"w251":-0.5510532259941101,"w243":0.19190676510334015,"w250":-0.8322911858558655,"w543":-0.6457165479660034,"w446":-0.9064470529556274,"w275":-0.5934534668922424,"w182":-0.7589387893676758,"w242":0.04572335630655289,"w524":-0.6986230611801147,"w516":-0.23512598872184753,"w333":-0.5108280181884766,"w214":-0.6581302881240845,"w217":-0.17645645141601562,"w512":-0.20209062099456787,"w143":0.20020346343517303,"w262":0.15781909227371216,"w540":0.4511573612689972,"w272":-0.7880942821502686,"w125":-0.6537535786628723,"w80":-0.26708680391311646,"w79":-0.39630869030952454,"w432":-0.16049160063266754,"w541":0.6994883418083191,"w409":1.6057921648025513,"w323":0.7644785046577454,"w361":0.8113210797309875,"w428":0.40946075320243835,"w455":0.08242395520210266,"w392":0.2562319338321686,"w283":0.7768562436103821,"w496":0.4543587565422058,"w167":0.4201045632362366,"w503":0.5734273195266724,"w162":1.1246439218521118,"w92":0.38428840041160583,"w488":0.5141470432281494,"w104":0.19052202999591827,"w416":-1.0330363512039185,"w298":0.009121713228523731,"w481":0.7381595373153687,"w506":0.7928131818771362,"w429":0.1908077746629715,"w487":-0.12271448224782944,"w502":0.16719387471675873,"w356":0.666664183139801,"w123":1.0200458765029907,"w170":0.4627912640571594,"w122":1.111141324043274,"w301":-0.36098039150238037,"w249":0.9671092629432678,"w89":0.13445384800434113,"w66":0.16968965530395508,"w53":-0.35734787583351135,"w449":0.03799361735582352,"w399":-0.13096153736114502,"w526":-0.10933911800384521,"w522":-0.6297466158866882,"w456":-0.14133338630199432,"w14":-0.199036106467247,"w539":-0.01365719735622406,"w483":-0.07792285829782486,"w244":-0.05915088206529617,"w208":-0.355045884847641,"w264":0.10364661365747452,"w402":-0.5296331644058228,"w484":-0.12315619736909866,"w326":0.080967478454113,"w190":0.006961056496948004,"w538":-0.28139662742614746,"w330":-0.02173091098666191,"w29":-0.013183288276195526,"w225":-0.10286132991313934,"w290":-0.180479034781456,"w485":-0.02977585978806019,"w256":-0.02019517496228218,"w52":-0.10245773196220398,"w393":-0.16069024801254272,"w380":0.03568560630083084,"w245":-0.01685362122952938,"w37":-0.10839183628559113,"w55":-0.033664632588624954,"w200":-0.4448707699775696,"w96":-0.16692091524600983,"w289":-0.3877430558204651,"w77":-0.11112634837627411,"w401":-0.28343990445137024,"w154":-0.1625131070613861,"w321":0.3895914852619171,"w412":0.36116018891334534,"w384":1.535313606262207,"w383":0.657393753528595,"w106":-0.4091860353946686,"w266":0.36692124605178833,"w532":0.6080541610717773,"w126":0.4537225365638733,"w51":-0.5554922223091125,"w22":0.3246802091598511,"w8":-0.20056366920471191,"w311":0.6401792764663696,"w1":-0.33263036608695984,"w310":0.19654236733913422,"w36":0.2853533625602722,"w510":-0.17934955656528473,"w437":0.21800443530082703,"w501":0.03125406429171562,"w228":0.17571884393692017,"w475":0.09578045457601547,"w479":0.03199965879321098,"w464":0.18465080857276917,"w405":0.012578283436596394,"w206":-0.10486042499542236,"w144":-0.03949490934610367,"w61":0.5424118638038635,"w226":0.17401465773582458,"w294":-0.0865548625588417,"w25":0.04600107669830322,"w187":-0.12658491730690002,"w184":-0.06499359011650085,"w231":-0.18609187006950378,"w521":-0.24786587059497833,"w137":-0.14761371910572052,"w338":-0.1811130940914154,"w528":0.047286324203014374,"w47":0.11990344524383545,"w16":-0.10996437072753906,"w414":-0.21806880831718445,"w57":-0.009579785168170929,"w60":-0.045423030853271484,"w17":0.05330117046833038,"w241":-0.05706646293401718,"w34":-0.009509343653917313,"w436":0.02826463058590889,"w140":0.01122391689568758,"w500":-0.16228458285331726,"w218":0.07878736406564713,"w439":0.047240547835826874,"w58":-0.022712040692567825,"w352":0.12954005599021912,"w56":0.09839478135108948,"w263":-0.031014300882816315,"w327":-0.04044244438409805,"w12":-0.027923276647925377,"w179":-0.023913288488984108,"w24":-0.08695854246616364,"w63":-0.1690894216299057,"w219":-0.03926701098680496,"w343":-0.11669289320707321,"w62":0.045893844217061996,"w375":0.14755666255950928,"w211":0.012314798310399055,"w296":0.10077697783708572,"w10":-0.22946080565452576,"w145":-0.12896743416786194,"w224":0.1459069550037384,"w471":-0.018031813204288483,"w400":0.024803154170513153,"w156":-0.2041158378124237,"w287":0.12407076358795166,"w341":0.004394012037664652,"w139":-0.008054026402533054,"w316":-0.000868178263772279,"w248":-0.10046421736478806,"w155":0.025281645357608795,"w265":-0.07061309367418289,"w493":-0.21086527407169342,"w192":0.13713304698467255,"w134":-0.13741672039031982,"w252":-0.0971667617559433,"w180":-0.22103145718574524,"w433":-1.5037717819213867,"w85":0.05638156086206436,"w235":0.04673536866903305,"w124":-0.3862953186035156,"w389":-0.34398210048675537,"w388":-0.4857806861400604,"w529":0.3984709680080414,"w129":-1.6521694660186768,"w28":-0.3815493881702423,"w84":-0.4147903323173523,"w97":0.9796350598335266,"w91":0.6089489459991455,"w404":1.1494864225387573,"w302":-0.2305421382188797,"w291":0.15337075293064117,"w371":-0.03136156126856804,"w270":-0.08392345905303955,"w385":-0.5826928615570068,"w497":-0.38548675179481506,"w447":0.015647612512111664,"w177":-0.16425953805446625,"w158":-0.1214887872338295,"w408":0.2283998429775238,"w372":0.29556146264076233,"w498":0.07998643815517426,"w98":-0.3139375150203705,"w411":-0.06672695279121399,"w396":-0.05960230901837349,"w119":0.2369806170463562,"w345":-0.3910427987575531,"w120":-0.19402018189430237,"w279":-0.0049336994998157024,"w82":0.0029212285298854113,"w280":0.2302187979221344,"w223":-0.7033573389053345,"w351":-0.2266494631767273,"w118":-0.1798417866230011,"w340":-0.1709699183702469,"w313":-0.1294889897108078,"w509":1.775115966796875,"w508":1.2229602336883545,"w505":0.6529435515403748,"w435":0.5765729546546936,"w142":1.0463870763778687,"w458":-0.22186626493930817,"w95":-0.07694591581821442,"w370":-0.09525047242641449,"w90":-0.02436293102800846,"w368":0.3630451261997223,"w164":-1.525309443473816,"w334":-0.2817220985889435,"w332":-0.27377355098724365,"w50":-0.3853907287120819,"w331":-0.11555088311433792,"w73":-0.08019125461578369,"w176":-0.7891274690628052,"w159":-0.11813581734895706,"w530":-0.6793583035469055,"w477":-0.5400792360305786,"w133":0.11807959526777267,"w15":-0.8397393822669983,"w533":-0.09520852565765381,"w379":-0.9139757752418518,"w117":1.501657247543335,"w386":1.5166245698928833,"w146":1.5204743146896362,"w480":1.4907058477401733,"w195":1.405150294303894,"w261":0.16175290942192078,"w459":0.262283056974411,"w490":0.25476372241973877,"w281":0.9342037439346313,"w236":0.8221303820610046,"w373":1.1749402284622192,"w387":0.08015705645084381,"w83":0.26324591040611267,"w45":0.2026412934064865,"w349":0.06892456859350204,"w335":0.17407096922397614,"w160":-0.1984371393918991,"w318":-0.16077882051467896,"w276":-0.7322981953620911,"w161":-1.313631296157837,"w100":-0.03278784826397896,"w288":-0.6261767148971558,"w128":-0.6701481938362122,"w353":-0.7131347060203552,"w197":0.3097008764743805,"w203":0.6232472062110901,"w201":0.5091533064842224,"w67":0.20913656055927277,"w317":0.11750569939613342,"w149":0.49457117915153503,"w339":-0.7121543288230896,"w19":0.008793694898486137,"w523":-0.020165465772151947,"w536":0.1073833554983139,"w188":0.19886824488639832,"w31":0.07883360981941223,"w166":-0.09991578757762909,"w111":-0.18754181265830994,"w329":0.3441486656665802,"w328":0.23961326479911804,"w189":0.4269621968269348,"w238":0.6842988133430481,"w230":0.11840742826461792,"w30":0.4666045606136322,"w59":0.4531347453594208,"w68":0.16232235729694366,"w514":0.35437116026878357,"w445":0.3689780533313751,"w199":0.3852900564670563,"w204":0.37350910902023315,"w198":0.39235353469848633,"w202":0.41342538595199585,"w205":0.40985825657844543,"w319":0.25419655442237854,"w175":0.26908278465270996,"w444":0.3195089101791382,"w440":0.4913139343261719,"w69":-1.7774183750152588,"w185":-1.3630764484405518,"w410":-1.1793880462646484,"w269":-0.3189288377761841,"w451":-0.24279440939426422,"w75":-0.7591569423675537,"w453":-0.9592168927192688,"w23":-0.9090282917022705,"w358":-0.2503078877925873,"w306":-0.5792585015296936,"w81":0.3070548176765442,"w348":-0.019324345514178276,"w344":0.12280818074941635,"w78":0.1646910160779953,"w308":-0.5701054930686951,"w191":-0.10172271728515625,"w461":-0.02432565949857235,"w462":-0.40157371759414673,"w121":-0.07183438539505005,"w417":-0.2920408546924591,"w284":0.029671553522348404,"w320":0.19901838898658752,"w465":-0.1620013415813446,"w466":-0.2047044187784195,"w491":-0.02627820521593094,"w468":-0.14273856580257416,"w470":2.2026140689849854,"w227":0.035419218242168427,"w108":0.15506573021411896,"w216":0.49225422739982605,"w13":0.055828437209129333,"w258":0.9374678730964661,"w49":0.5788044929504395,"w513":0.5774296522140503,"w403":0.9658632278442383,"w54":-0.20123235881328583,"w173":-0.17379553616046906,"w492":1.0362211465835571,"w474":-0.28651079535484314,"w109":0.16943472623825073,"w11":0.01195839699357748,"w253":-0.07271646708250046,"w452":0.07563600689172745,"w473":-0.03575773164629936,"w515":-1.0604140758514404,"w215":-0.14559102058410645,"w165":-0.22186179459095,"w295":-1.0463719367980957,"w237":-0.215634286403656,"w46":-0.0662839263677597,"w377":-0.8359753489494324,"w38":-0.16234777867794037,"w376":-0.28676924109458923,"w457":-0.4010186493396759,"w259":-0.6334531903266907,"w172":-0.20337969064712524,"w460":-0.22275075316429138,"w113":0.034260094165802,"w229":-0.06708052009344101,"w234":1.1584712266921997,"w271":0.4271400570869446,"w427":0.059317126870155334,"w442":0.3527360260486603,"w193":0.5408042073249817,"w94":0.6143925189971924,"w297":0.5869202017784119,"w441":0.2742865979671478,"w194":0.203823983669281,"w511":-0.06738273054361343,"w39":0.26162809133529663,"w336":0.1130661889910698,"w247":-0.3007557690143585,"w476":-0.12314745783805847,"w196":0.006739507894963026,"w64":0.12911370396614075,"w454":0.02349298633635044,"w141":0.3545520603656769,"w70":0.025553347542881966,"w3":-0.09760774672031403,"w365":-0.5396106243133545,"w18":0.012135064229369164,"w322":-0.09854942560195923,"w5":-0.16930322349071503,"w7":-0.6512443423271179,"w130":-0.4320032000541687,"w207":-0.6924247741699219,"w267":-0.24149967730045319,"w32":-0.19394682347774506,"w233":-0.18332801759243011,"w212":0.13159117102622986,"w309":-0.3180176019668579,"w71":-0.614719033241272,"w293":-0.08776707202196121,"w426":-0.367733359336853,"w232":-0.1262872815132141,"w346":-0.3893308639526367,"w472":-0.46680155396461487,"w131":-0.5379239320755005,"w438":-0.2737842798233032,"w257":-0.3248708248138428,"w2":1.064271330833435,"w9":0.5570973753929138,"w4":-0.10648573189973831,"w103":1.8562595844268799,"w260":0.9337079524993896,"w307":1.1378307342529297,"w255":0.21266910433769226,"w254":0.6768630743026733,"w305":0.9835212230682373,"w292":0.4920019805431366,"w157":1.1637073755264282,"w304":0.6041449308395386,"w76":0.8408235907554626,"w153":0.7562251091003418,"w366":0.4658498764038086,"w246":0.5154699087142944,"w277":0.5148530602455139,"w171":0.25885793566703796,"w494":1.006089687347412,"w102":1.3460075855255127,"w303":0.6329589486122131,"w213":0.26487165689468384,"w6":-0.05736932158470154,"w499":-0.1061696857213974,"w221":-0.32782503962516785,"w136":0.2879534065723419,"w397":0.4903981387615204,"w107":-0.3574593961238861,"w150":0.33462005853652954,"w378":0.9060726761817932,"w148":-0.19989608228206635,"w135":0.5540906190872192,"w174":0.05913103371858597,"w147":-0.13477723300457,"w112":1.192703127861023,"w21":0.04521895945072174,"w463":-0.15161436796188354,"w168":0.16960623860359192,"w520":0.6165311932563782,"w127":0.16976004838943481,"w209":0.22111350297927856,"w0":0.13191457092761993,"w518":0.29913806915283203,"w357":0.33660975098609924,"w337":-0.08951660245656967,"w315":0.49775010347366333,"w239":-0.07677901536226273,"w495":0.05978284403681755,"w110":-0.0656856968998909,"w40":-0.16827525198459625,"w105":-0.09789787232875824,"w86":-0.1375030279159546,"w450":0.11723464727401733,"w469":0.007349628955125809,"w534":0.07108603417873383,"w382":0.06825036555528641,"w525":-0.11486278474330902,"w398":-0.25201261043548584,"w535":0.10403583198785782,"w519":-0.0399891696870327,"w314":-0.10373667627573013,"w531":0.17665185034275055,"w482":-0.07819768786430359,"w443":-0.012307515367865562,"w115":-0.024575626477599144,"w527":0.052379436790943146,"w299":0.058090560138225555,"w300":0.12974879145622253,"w116":0.031027838587760925,"w363":0.7342596054077148,"w391":0.6411024928092957,"w362":0.21219828724861145,"w101":0.35634517669677734,"w169":0.45704978704452515,"w48":0.33505523204803467,"w354":-0.2866140305995941,"w434":-0.5244348049163818,"w210":-0.18462203443050385,"w478":0.03171166032552719,"w423":-0.25351494550704956,"w20":-0.6812493801116943,"w369":-0.40708860754966736,"w41":0.5009104609489441,"w268":-0.17373071610927582,"w360":-0.44125276803970337,"w431":0.39918410778045654,"w407":0.838362991809845,"w74":0.479378342628479,"w406":0.3476887047290802,"w278":0.222034752368927,"w273":-0.10162828117609024,"w359":0.35294288396835327,"w274":0.0747581198811531,"w415":0.3571212887763977,"w424":0.503849983215332,"w507":0.04197753220796585,"w220":0.028983036056160927,"w286":0.37203314900398254,"w486":0.1094568744301796,"w42":-0.031792085617780685,"w43":-0.1899394989013672,"w33":0.0942116379737854,"w544":0.029442252591252327,"w467":0.12766003608703613,"w285":-0.07294854521751404,"w44":0.1482408046722412,"w430":-0.13306352496147156,"w138":-0.01941765658557415,"w114":0.03143949434161186,"w374":0.1988624930381775,"w240":-0.1155124232172966,"w425":0.004822265822440386,"w178":-0.16943864524364471,"w324":-0.34442195296287537,"w420":-0.10739093273878098,"w88":0.01672987826168537,"w421":-0.0863623172044754,"w312":0.014379368163645267,"w542":-0.04290514439344406,"w394":-0.17916978895664215,"w395":-0.39668238162994385,"w347":-0.2721131443977356,"w282":-0.19513611495494843,"w325":-0.020373661071062088,"w99":0.1835159808397293,"w355":-0.04228149726986885,"w419":-0.17793233692646027,"w418":0.047336943447589874,"w367":-0.1098225861787796,"w448":0.023325351998209953,"w390":-0.25120845437049866,"w381":-0.004354145377874374,"w132":0.09733592718839645,"w342":0.3284270167350769,"w72":0.37552136182785034,"w413":0.33649903535842896,"w151":0.27474352717399597}},"6":{"bias":-0.05628008022904396,"weights":{"w350":-0.44823402166366577,"w517":-0.1370358169078827,"w186":1.4579859972000122,"w93":0.39880943298339844,"w183":0.3588067591190338,"w504":0.30705612897872925,"w35":0.07302039861679077,"w364":-0.22469329833984375,"w537":0.33872175216674805,"w87":0.026182956993579865,"w27":0.15586340427398682,"w65":0.13466130197048187,"w26":1.011544942855835,"w422":0.011289688758552074,"w163":0.9934878945350647,"w152":0.5203791856765747,"w222":0.7267285585403442,"w489":0.5013068914413452,"w181":0.27073273062705994,"w251":-0.3244955539703369,"w243":0.051677390933036804,"w250":0.19387884438037872,"w543":0.30573105812072754,"w446":0.6724981069564819,"w275":0.49893608689308167,"w182":0.7801916003227234,"w242":0.3171077370643616,"w524":0.43947458267211914,"w516":0.1938415914773941,"w333":0.4745030403137207,"w214":0.2972935438156128,"w217":0.1741262823343277,"w512":-0.269084632396698,"w143":0.11299200356006622,"w262":0.1034134030342102,"w540":1.8916321992874146,"w272":0.006530385930091143,"w125":-0.005743914283812046,"w80":-0.13343891501426697,"w79":-0.05104841664433479,"w432":-0.24485254287719727,"w541":1.212419867515564,"w409":0.10932280123233795,"w323":-0.33826565742492676,"w361":-0.5630148649215698,"w428":-0.19103941321372986,"w455":0.003605991369113326,"w392":-0.0477997250854969,"w283":0.07081060856580734,"w496":0.15320450067520142,"w167":0.0017914107302203774,"w503":0.002730882726609707,"w162":-0.2357155829668045,"w92":-0.05416132137179375,"w488":-0.28505927324295044,"w104":0.20156627893447876,"w416":-0.3041413724422455,"w298":-0.12005813419818878,"w481":-0.18193338811397552,"w506":-0.31748872995376587,"w429":-0.15320290625095367,"w487":0.15411269664764404,"w502":0.05751495063304901,"w356":0.34679126739501953,"w123":-0.05873933434486389,"w170":-0.25763747096061707,"w122":0.13437801599502563,"w301":0.00913538783788681,"w249":-0.2824970781803131,"w89":0.3089893162250519,"w66":0.04008388891816139,"w53":0.3605932295322418,"w449":0.08800752460956573,"w399":0.08877160400152206,"w526":0.05737609788775444,"w522":-0.03913339227437973,"w456":0.04948451742529869,"w14":0.21083950996398926,"w539":-0.19677221775054932,"w483":0.056517571210861206,"w244":0.18845778703689575,"w208":-0.28281253576278687,"w264":-0.20151081681251526,"w402":0.28494513034820557,"w484":0.28293439745903015,"w326":-0.6602855920791626,"w190":-0.36081060767173767,"w538":0.07182306796312332,"w330":-0.32944753766059875,"w29":0.05697645992040634,"w225":0.05033815652132034,"w290":-0.05858622491359711,"w485":0.19591188430786133,"w256":0.1136242225766182,"w52":-0.09178110957145691,"w393":0.08180123567581177,"w380":0.03099772334098816,"w245":-0.24797624349594116,"w37":0.008083915337920189,"w55":-0.09472251683473587,"w200":0.3738457262516022,"w96":0.21687842905521393,"w289":0.10357020795345306,"w77":0.3749443590641022,"w401":0.13780477643013,"w154":0.0673399493098259,"w321":0.06643596291542053,"w412":0.1370265930891037,"w384":0.1651792675256729,"w383":0.30278849601745605,"w106":1.207018256187439,"w266":0.0962495431303978,"w532":0.000896413519512862,"w126":0.084976427257061,"w51":0.9304629564285278,"w22":0.08658844232559204,"w8":0.535162091255188,"w311":-0.6576046347618103,"w1":0.5799397826194763,"w310":-0.2867148518562317,"w36":0.09268241375684738,"w510":-0.06638669967651367,"w437":0.1214253157377243,"w501":-0.08240775763988495,"w228":0.019121093675494194,"w475":0.09004082530736923,"w479":-0.13371573388576508,"w464":0.04047606140375137,"w405":-0.06887155026197433,"w206":0.24507494270801544,"w144":0.17512154579162598,"w61":-0.2847682237625122,"w226":0.1656072586774826,"w294":0.016103699803352356,"w25":-0.06648311764001846,"w187":-0.08924615383148193,"w184":-0.20991250872612,"w231":0.38080257177352905,"w521":-0.001020201132632792,"w137":-0.08248865604400635,"w338":-0.11257948726415634,"w528":-0.059402257204055786,"w47":0.20581719279289246,"w16":0.05272984877228737,"w414":-0.19245663285255432,"w57":-0.09757424890995026,"w60":-0.011146935634315014,"w17":-0.046320877969264984,"w241":0.17638970911502838,"w34":-0.10757777839899063,"w436":0.17140431702136993,"w140":0.005932813510298729,"w500":0.17572744190692902,"w218":0.22978323698043823,"w439":0.046754371374845505,"w58":0.24292698502540588,"w352":0.04104816913604736,"w56":0.039590317755937576,"w263":0.17861419916152954,"w327":0.1474580615758896,"w12":-0.015398483723402023,"w179":0.14479903876781464,"w24":-0.03490747883915901,"w63":0.10756179690361023,"w219":-0.06233511492609978,"w343":0.21913699805736542,"w62":0.31213775277137756,"w375":-0.1781480461359024,"w211":0.3010658323764801,"w296":0.10822147876024246,"w10":0.002081925282254815,"w145":0.09308277070522308,"w224":-0.18680234253406525,"w471":-0.09726220369338989,"w400":-0.11656548082828522,"w156":0.6217380166053772,"w287":0.16609609127044678,"w341":0.01745731197297573,"w139":-0.14210805296897888,"w316":0.2467091679573059,"w248":0.09767813235521317,"w155":0.039181701838970184,"w265":0.03996880725026131,"w493":0.14563386142253876,"w192":0.015283796004951,"w134":0.03795382380485535,"w252":-0.13582758605480194,"w180":0.14788992702960968,"w433":0.9806849956512451,"w85":0.015035688877105713,"w235":-0.16194184124469757,"w124":0.15578818321228027,"w389":0.13994918763637543,"w388":0.23267318308353424,"w529":-0.06944769620895386,"w129":0.5233909487724304,"w28":0.3844815194606781,"w84":0.13678662478923798,"w97":0.18484844267368317,"w91":0.1334773302078247,"w404":-0.3835119307041168,"w302":0.3324216604232788,"w291":0.9732819199562073,"w371":-0.266054630279541,"w270":0.028203662484884262,"w385":0.37335196137428284,"w497":-0.5591540932655334,"w447":-0.11697687953710556,"w177":0.2670402526855469,"w158":0.0781852975487709,"w408":-0.135575532913208,"w372":-0.10368876904249191,"w498":-0.2782134413719177,"w98":0.11787525564432144,"w411":-0.22335682809352875,"w396":-0.06085234880447388,"w119":-0.27167966961860657,"w345":0.17703872919082642,"w120":0.0690246969461441,"w279":0.14086222648620605,"w82":-0.14621934294700623,"w280":-0.23283988237380981,"w223":0.6633695363998413,"w351":0.3289097547531128,"w118":0.15198183059692383,"w340":0.03804534301161766,"w313":0.20052580535411835,