{"sizes":[1181,64,64,92],"layers":[{"w738":{},"w1137":{},"w408":{},"w195":{},"w401":{},"w1107":{},"w71":{},"w784":{},"w1168":{},"w185":{},"w47":{},"w140":{},"w46":{},"w933":{},"w359":{},"w338":{},"w485":{},"w1077":{},"w397":{},"w544":{},"w531":{},"w542":{},"w1178":{},"w990":{},"w592":{},"w400":{},"w526":{},"w1147":{},"w1135":{},"w704":{},"w469":{},"w741":{},"w685":{},"w502":{},"w419":{},"w474":{},"w1124":{},"w1173":{},"w957":{},"w173":{},"w960":{},"w918":{},"w573":{},"w285":{},"w873":{},"w309":{},"w559":{},"w1138":{},"w1136":{},"w543":{},"w945":{},"w492":{},"w767":{},"w504":{},"w737":{},"w560":{},"w252":{},"w141":{},"w114":{},"w987":{},"w530":{},"w273":{},"w21":{},"w528":{},"w172":{},"w1175":{},"w1172":{},"w1176":{},"w1174":{},"w1130":{},"w1106":{},"w253":{},"w420":{},"w320":{},"w535":{},"w597":{},"w739":{},"w902":{},"w688":{},"w780":{},"w946":{},"w1006":{},"w864":{},"w611":{},"w1091":{},"w377":{},"w355":{},"w194":{},"w1076":{},"w218":{},"w644":{},"w1062":{},"w1109":{},"w947":{},"w1075":{},"w1105":{},"w270":{},"w380":{},"w268":{},"w650":{},"w541":{},"w907":{},"w269":{},"w680":{},"w1055":{},"w385":{},"w20":{},"w189":{},"w100":{},"w995":{},"w879":{},"w190":{},"w191":{},"w143":{},"w431":{},"w142":{},"w335":{},"w817":{},"w901":{},"w91":{},"w715":{},"w834":{},"w753":{},"w832":{},"w994":{},"w1032":{},"w288":{},"w599":{},"w775":{},"w1093":{},"w632":{},"w1125":{},"w970":{},"w460":{},"w387":{},"w228":{},"w1152":{},"w80":{},"w796":{},"w736":{},"w777":{},"w149":{},"w232":{},"w568":{},"w863":{},"w83":{},"w778":{},"w698":{},"w1122":{},"w679":{},"w1084":{},"w699":{},"w1149":{},"w1144":{},"w1009":{},"w1171":{},"w1066":{},"w534":{},"w561":{},"w884":{},"w1067":{},"w692":{},"w1169":{},"w696":{},"w51":{},"w494":{},"w623":{},"w1070":{},"w551":{},"w99":{},"w867":{},"w828":{},"w74":{},"w104":{},"w1146":{},"w807":{},"w334":{},"w1031":{},"w940":{},"w33":{},"w59":{},"w489":{},"w493":{},"w442":{},"w200":{},"w622":{},"w170":{},"w883":{},"w343":{},"w62":{},"w445":{},"w459":{},"w446":{},"w416":{},"w522":{},"w1099":{},"w533":{},"w887":{},"w45":{},"w414":{},"w404":{},"w508":{},"w1142":{},"w294":{},"w712":{},"w1157":{},"w92":{},"w22":{},"w914":{},"w107":{},"w122":{},"w23":{},"w525":{},"w70":{},"w938":{},"w490":{},"w617":{},"w63":{},"w329":{},"w641":{},"w13":{},"w773":{},"w518":{},"w555":{},"w310":{},"w882":{},"w726":{},"w341":{},"w138":{},"w691":{},"w240":{},"w1024":{},"w683":{},"w1170":{},"w972":{},"w303":{},"w1100":{},"w477":{},"w976":{},"w109":{},"w752":{},"w106":{},"w693":{},"w16":{},"w394":{},"w1159":{},"w1072":{},"w467":{},"w340":{},"w277":{},"w1068":{},"w747":{},"w381":{},"w132":{},"w717":{},"w999":{},"w96":{},"w532":{},"w1041":{},"w1128":{},"w466":{},"w1017":{},"w762":{},"w857":{},"w450":{},"w382":{},"w261":{},"w1083":{},"w146":{},"w44":{},"w127":{},"w478":{},"w722":{},"w126":{},"w818":{},"w465":{},"w319":{},"w491":{},"w1043":{},"w345":{},"w128":{},"w129":{},"w121":{},"w376":{},"w428":{},"w706":{},"w384":{},"w540":{},"w584":{},"w130":{},"w627":{},"w527":{},"w880":{},"w618":{},"w719":{},"w302":{},"w677":{},"w539":{},"w344":{},"w562":{},"w1081":{},"w183":{},"w197":{},"w298":{},"w1047":{},"w881":{},"w877":{},"w347":{},"w148":{},"w274":{},"w123":{},"w986":{},"w210":{},"w427":{},"w1096":{},"w981":{},"w425":{},"w290":{},"w545":{},"w330":{},"w1154":{},"w426":{},"w424":{},"w15":{},"w279":{},"w333":{},"w1104":{},"w791":{},"w168":{},"w757":{},"w182":{},"w312":{},"w313":{},"w827":{},"w50":{},"w700":{},"w480":{},"w652":{},"w625":{},"w1088":{},"w571":{},"w750":{},"w593":{},"w626":{},"w905":{},"w1160":{},"w205":{},"w113":{},"w590":{},"w651":{},"w1103":{},"w299":{},"w589":{},"w112":{},"w131":{},"w371":{},"w225":{},"w160":{},"w894":{},"w517":{},"w649":{},"w54":{},"w1092":{},"w328":{},"w710":{},"w648":{},"w519":{},"w321":{},"w29":{},"w779":{},"w1074":{},"w1151":{},"w315":{},"w991":{},"w25":{},"w207":{},"w67":{},"w705":{},"w892":{},"w911":{},"w176":{},"w731":{},"w282":{},"w283":{},"w209":{},"w966":{},"w244":{},"w120":{},"w144":{},"w794":{},"w567":{},"w925":{},"w993":{},"w260":{},"w110":{},"w766":{},"w621":{},"w550":{},"w547":{},"w814":{},"w206":{},"w506":{},"w932":{},"w505":{},"w724":{},"w60":{},"w924":{},"w926":{},"w927":{},"w919":{},"w406":{},"w856":{},"w830":{},"w860":{},"w861":{},"w859":{},"w858":{},"w937":{},"w370":{},"w73":{},"w422":{},"w604":{},"w895":{},"w675":{},"w903":{},"w964":{},"w69":{},"w497":{},"w609":{},"w899":{},"w608":{},"w243":{},"w624":{},"w500":{},"w634":{},"w878":{},"w668":{},"w733":{},"w605":{},"w481":{},"w1112":{},"w68":{},"w125":{},"w950":{},"w628":{},"w616":{},"w1020":{},"w949":{},"w1180":{},"w65":{},"w821":{},"w88":{},"w64":{},"w86":{},"w87":{},"w1037":{},"w615":{},"w164":{},"w436":{},"w802":{},"w1111":{},"w1113":{},"w1114":{},"w1038":{},"w66":{},"w638":{},"w980":{},"w35":{},"w498":{},"w815":{},"w499":{},"w790":{},"w942":{},"w931":{},"w524":{},"w246":{},"w923":{},"w816":{},"w831":{},"w267":{},"w393":{},"w619":{},"w941":{},"w158":{},"w1117":{},"w720":{},"w955":{},"w284":{},"w1012":{},"w350":{},"w337":{},"w740":{},"w730":{},"w754":{},"w213":{},"w756":{},"w1001":{},"w629":{},"w52":{},"w1156":{},"w1115":{},"w193":{},"w1013":{},"w496":{},"w799":{},"w316":{},"w862":{},"w94":{},"w379":{},"w1053":{},"w783":{},"w782":{},"w781":{},"w212":{},"w594":{},"w922":{},"w563":{},"w755":{},"w788":{},"w789":{},"w587":{},"w595":{},"w810":{},"w1073":{},"w582":{},"w979":{},"w944":{},"w687":{},"w410":{},"w464":{},"w610":{},"w833":{},"w24":{},"w978":{},"w702":{},"w630":{},"w869":{},"w764":{},"w421":{},"w868":{},"w967":{},"w968":{},"w965":{},"w101":{},"w1163":{},"w318":{},"w17":{},"w871":{},"w1052":{},"w900":{},"w514":{},"w98":{},"w721":{},"w643":{},"w289":{},"w482":{},"w472":{},"w1019":{},"w1018":{},"w1078":{},"w811":{},"w390":{},"w97":{},"w224":{},"w223":{},"w356":{},"w701":{},"w314":{},"w697":{},"w162":{},"w280":{},"w956":{},"w281":{},"w363":{},"w667":{},"w61":{},"w82":{},"w204":{},"w607":{},"w222":{},"w364":{},"w352":{},"w743":{},"w529":{},"w516":{},"w1045":{},"w866":{},"w256":{},"w323":{},"w846":{},"w1061":{},"w322":{},"w734":{},"w606":{},"w558":{},"w257":{},"w255":{},"w430":{},"w1090":{},"w620":{},"w272":{},"w211":{},"w586":{},"w928":{},"w360":{},"w761":{},"w396":{},"w962":{},"w853":{},"w855":{},"w1158":{},"w178":{},"w961":{},"w247":{},"w398":{},"w963":{},"w395":{},"w171":{},"w1082":{},"w201":{},"w888":{},"w198":{},"w203":{},"w354":{},"w958":{},"w808":{},"w845":{},"w1095":{},"w202":{},"w744":{},"w803":{},"w809":{},"w111":{},"w908":{},"w992":{},"w804":{},"w391":{},"w349":{},"w785":{},"w805":{},"w566":{},"w1004":{},"w725":{},"w718":{},"w670":{},"w487":{},"w258":{},"w749":{},"w486":{},"w488":{},"w716":{},"w912":{},"w800":{},"w748":{},"w515":{},"w262":{},"w263":{},"w600":{},"w601":{},"w969":{},"w913":{},"w909":{},"w602":{},"w81":{},"w373":{},"w1108":{},"w971":{},"w308":{},"w1116":{},"w1118":{},"w475":{},"w192":{},"w199":{},"w801":{},"w795":{},"w1014":{},"w1016":{},"w1015":{},"w591":{},"w915":{},"w188":{},"w102":{},"w1179":{},"w137":{},"w136":{},"w1007":{},"w585":{},"w870":{},"w135":{},"w640":{},"w278":{},"w266":{},"w580":{},"w276":{},"w662":{},"w235":{},"w714":{},"w119":{},"w353":{},"w48":{},"w56":{},"w254":{},"w751":{},"w1123":{},"w774":{},"w806":{},"w603":{},"w520":{},"w361":{},"w655":{},"w819":{},"w613":{},"w812":{},"w848":{},"w177":{},"w90":{},"w847":{},"w849":{},"w546":{},"w476":{},"w85":{},"w219":{},"w669":{},"w735":{},"w707":{},"w351":{},"w392":{},"w473":{},"w18":{},"w553":{},"w95":{},"w1126":{},"w885":{},"w103":{},"w1080":{},"w1129":{},"w1042":{},"w557":{},"w1131":{},"w230":{},"w237":{},"w1048":{},"w1000":{},"w238":{},"w236":{},"w368":{},"w115":{},"w399":{},"w1132":{},"w637":{},"w521":{},"w820":{},"w1010":{},"w471":{},"w365":{},"w75":{},"w554":{},"w386":{},"w1023":{},"w503":{},"w1134":{},"w1143":{},"w1133":{},"w943":{},"w10":{},"w787":{},"w49":{},"w4":{},"w155":{},"w1":{},"w287":{},"w3":{},"w2":{},"w663":{},"w11":{},"w1044":{},"w6":{},"w26":{},"w686":{},"w9":{},"w286":{},"w975":{},"w456":{},"w564":{},"w157":{},"w635":{},"w510":{},"w552":{},"w509":{},"w727":{},"w5":{},"w159":{},"w154":{},"w156":{},"w813":{},"w27":{},"w495":{},"w636":{},"w1058":{},"w455":{},"w891":{},"w317":{},"w1059":{},"w1060":{},"w1057":{},"w1056":{},"w461":{},"w647":{},"w215":{},"w124":{},"w886":{},"w306":{},"w565":{},"w1162":{},"w275":{},"w417":{},"w839":{},"w161":{},"w671":{},"w841":{},"w910":{},"w974":{},"w854":{},"w150":{},"w659":{},"w837":{},"w843":{},"w844":{},"w838":{},"w822":{},"w116":{},"w570":{},"w39":{},"w723":{},"w665":{},"w664":{},"w72":{},"w842":{},"w840":{},"w295":{},"w581":{},"w367":{},"w479":{},"w37":{},"w1121":{},"w973":{},"w1101":{},"w501":{},"w1050":{},"w40":{},"w38":{},"w41":{},"w678":{},"w12":{},"w703":{},"w437":{},"w447":{},"w695":{},"w145":{},"w326":{},"w28":{},"w1167":{},"w415":{},"w694":{},"w418":{},"w57":{},"w147":{},"w1127":{},"w985":{},"w441":{},"w453":{},"w439":{},"w449":{},"w454":{},"w681":{},"w389":{},"w984":{},"w457":{},"w458":{},"w448":{},"w470":{},"w438":{},"w440":{},"w297":{},"w301":{},"w175":{},"w151":{},"w657":{},"w405":{},"w904":{},"w997":{},"w166":{},"w1002":{},"w43":{},"w174":{},"w732":{},"w660":{},"w152":{},"w153":{},"w409":{},"w1161":{},"w167":{},"w576":{},"w411":{},"w998":{},"w768":{},"w745":{},"w929":{},"w1029":{},"w342":{},"w948":{},"w1089":{},"w403":{},"w575":{},"w264":{},"w1025":{},"w614":{},"w921":{},"w265":{},"w1034":{},"w1036":{},"w1079":{},"w1039":{},"w1026":{},"w1033":{},"w1022":{},"w55":{},"w443":{},"w1069":{},"w1120":{},"w631":{},"w413":{},"w1071":{},"w829":{},"w444":{},"w1028":{},"w1027":{},"w1035":{},"w512":{},"w572":{},"w196":{},"w642":{},"w429":{},"w76":{},"w511":{},"w513":{},"w1008":{},"w423":{},"w708":{},"w538":{},"w1051":{},"w433":{},"w134":{},"w1003":{},"w304":{},"w709":{},"w728":{},"w432":{},"w1094":{},"w1063":{},"w402":{},"w407":{},"w760":{},"w483":{},"w556":{},"w658":{},"w549":{},"w548":{},"w656":{},"w346":{},"w654":{},"w169":{},"w339":{},"w793":{},"w537":{},"w596":{},"w383":{},"w1085":{},"w214":{},"w653":{},"w468":{},"w8":{},"w216":{},"w1086":{},"w217":{},"w1098":{},"w484":{},"w292":{},"w875":{},"w227":{},"w332":{},"w826":{},"w325":{},"w291":{},"w388":{},"w324":{},"w229":{},"w226":{},"w874":{},"w792":{},"w366":{},"w674":{},"w242":{},"w32":{},"w1030":{},"w378":{},"w1141":{},"w462":{},"w0":{},"w1139":{},"w770":{},"w676":{},"w523":{},"w300":{},"w233":{},"w759":{},"w7":{},"w245":{},"w239":{},"w78":{},"w221":{},"w184":{},"w996":{},"w1040":{},"w1164":{},"w836":{},"w307":{},"w241":{},"w577":{},"w1102":{},"w331":{},"w118":{},"w296":{},"w220":{},"w1097":{},"w327":{},"w348":{},"w633":{},"w1064":{},"w1148":{},"w876":{},"w1166":{},"w1140":{},"w673":{},"w1065":{},"w982":{},"w1150":{},"w1049":{},"w569":{},"w249":{},"w1155":{},"w645":{},"w250":{},"w248":{},"w251":{},"w646":{},"w336":{},"w271":{},"w58":{},"w1110":{},"w463":{},"w872":{},"w1011":{},"w763":{},"w765":{},"w758":{},"w1119":{},"w672":{},"w133":{},"w259":{},"w934":{},"w30":{},"w311":{},"w711":{},"w729":{},"w935":{},"w31":{},"w305":{},"w369":{},"w14":{},"w89":{},"w852":{},"w769":{},"w798":{},"w797":{},"w108":{},"w588":{},"w865":{},"w93":{},"w507":{},"w1021":{},"w1153":{},"w954":{},"w953":{},"w983":{},"w53":{},"w850":{},"w612":{},"w536":{},"w851":{},"w234":{},"w1165":{},"w920":{},"w823":{},"w666":{},"w824":{},"w293":{},"w742":{},"w1054":{},"w988":{},"w36":{},"w825":{},"w906":{},"w1046":{},"w897":{},"w165":{},"w598":{},"w574":{},"w776":{},"w579":{},"w917":{},"w939":{},"w896":{},"w898":{},"w893":{},"w578":{},"w1145":{},"w412":{},"w689":{},"w930":{},"w186":{},"w1177":{},"w684":{},"w690":{},"w682":{},"w916":{},"w1087":{},"w746":{},"w952":{},"w434":{},"w951":{},"w936":{},"w231":{},"w977":{},"w959":{},"w451":{},"w989":{},"w362":{},"w139":{},"w372":{},"w661":{},"w452":{},"w713":{},"w187":{},"w639":{},"w374":{},"w117":{},"w84":{},"w375":{},"w42":{},"w1005":{},"w358":{},"w163":{},"w19":{},"w105":{},"w772":{},"w181":{},"w79":{},"w771":{},"w179":{},"w583":{},"w835":{},"w435":{},"w180":{},"w208":{},"w786":{},"w890":{},"w889":{},"w77":{},"w357":{},"w34":{}},{"0":{"bias":0.0072846622206270695,"weights":{"w738":0.18744419515132904,"w1137":-0.010362884029746056,"w408":-0.6710705161094666,"w195":0.10194072127342224,"w401":-0.3529045879840851,"w1107":-0.13199211657047272,"w71":0.05007233843207359,"w784":0.13396407663822174,"w1168":-0.026899365708231926,"w185":0.384583979845047,"w47":-0.1055484339594841,"w140":-0.1658056676387787,"w46":-0.2223471701145172,"w933":0.04157527908682823,"w359":-0.38307228684425354,"w338":-0.22834664583206177,"w485":-0.14541475474834442,"w1077":0.021168971434235573,"w397":-0.07511118799448013,"w544":0.4074847996234894,"w531":-0.11826685070991516,"w542":0.09345486760139465,"w1178":-0.0576728992164135,"w990":0.06392871588468552,"w592":-0.030904188752174377,"w400":-0.021646661683917046,"w526":-0.0434049554169178,"w1147":0.10547365993261337,"w1135":-0.14590078592300415,"w704":-0.24842996895313263,"w469":-0.05199408158659935,"w741":0.1299399733543396,"w685":-0.005265043582767248,"w502":-0.14382445812225342,"w419":0.12856420874595642,"w474":0.11106647551059723,"w1124":-0.12678341567516327,"w1173":0.4277821183204651,"w957":-0.13367952406406403,"w173":-0.2908570170402527,"w960":-0.1373959481716156,"w918":0.15753799676895142,"w573":-0.07321353256702423,"w285":-0.2518714666366577,"w873":-0.0003680818772409111,"w309":0.1631731241941452,"w559":-0.18613672256469727,"w1138":0.1551961600780487,"w1136":0.19025789201259613,"w543":0.1282181590795517,"w945":-0.009562093764543533,"w492":0.28009724617004395,"w767":-0.04339771717786789,"w504":-0.21711157262325287,"w737":0.022854380309581757,"w560":0.2551245391368866,"w252":-0.06364300847053528,"w141":-0.0062149870209395885,"w114":-0.17833612859249115,"w987":0.18243466317653656,"w530":0.0022613408509641886,"w273":0.3041623830795288,"w21":-0.16988104581832886,"w528":0.09454222023487091,"w172":0.04142507538199425,"w1175":0.2497526854276657,"w1172":0.2848381996154785,"w1176":0.19674773514270782,"w1174":-0.08208704739809036,"w1130":-0.21157163381576538,"w1106":0.1210852861404419,"w253":-0.014800362288951874,"w420":0.39655348658561707,"w320":0.12016888707876205,"w535":-0.32293957471847534,"w597":-0.0795927569270134,"w739":-0.01039932481944561,"w902":-0.46519967913627625,"w688":-0.09203535318374634,"w780":-0.23131005465984344,"w946":-0.04061513766646385,"w1006":0.1590317189693451,"w864":0.2541160583496094,"w611":-0.06465733051300049,"w1091":-0.3719981908798218,"w377":0.02465992420911789,"w355":-0.4862383008003235,"w194":0.177590474486351,"w1076":0.121900774538517,"w218":0.07024898380041122,"w644":0.14661622047424316,"w1062":-0.004196688067167997,"w1109":0.09440381079912186,"w947":0.025851989164948463,"w1075":-0.14658859372138977,"w1105":-0.15472528338432312,"w270":-0.08949035406112671,"w380":-0.0758713111281395,"w268":-0.15273351967334747,"w650":-0.04698560759425163,"w541":0.03554055467247963,"w907":-0.05418728291988373,"w269":-0.025134621188044548,"w680":0.011296351440250874,"w1055":-0.0094437962397933,"w385":0.11438918113708496,"w20":0.1576557159423828,"w189":0.45831218361854553,"w100":0.0758889764547348,"w995":-0.10107873380184174,"w879":0.19123467803001404,"w190":0.19146530330181122,"w191":0.10576123744249344,"w143":0.14414574205875397,"w431":0.22904720902442932,"w142":0.11276206374168396,"w335":0.4458586573600769,"w817":0.5115783214569092,"w901":-0.20582172274589539,"w91":0.1505468785762787,"w715":0.2519618570804596,"w834":-0.16329628229141235,"w753":-0.11230818182229996,"w832":0.021784981712698936,"w994":0.049754537642002106,"w1032":-0.19421778619289398,"w288":-0.45441338419914246,"w599":0.16801078617572784,"w775":-0.23617123067378998,"w1093":-0.007670748978853226,"w632":-0.1796964854001999,"w1125":0.05468907579779625,"w970":0.12719489634037018,"w460":0.08290309458971024,"w387":0.09436062723398209,"w228":0.13810209929943085,"w1152":-0.3241462707519531,"w80":-0.2793007493019104,"w796":-0.04865550249814987,"w736":-0.18921077251434326,"w777":0.1761549860239029,"w149":0.12867936491966248,"w232":0.1312687247991562,"w568":-0.2269524335861206,"w863":-0.03993796184659004,"w83":0.09837856888771057,"w778":-0.1582665741443634,"w698":0.11574377119541168,"w1122":-0.05381011217832565,"w679":0.0954972356557846,"w1084":0.15078087151050568,"w699":-0.0416690818965435,"w1149":-0.0023795152083039284,"w1144":0.2555409073829651,"w1009":0.1648380309343338,"w1171":0.01731722243130207,"w1066":0.09088369458913803,"w534":0.04381883516907692,"w561":-0.05246928706765175,"w884":-0.013253011740744114,"w1067":0.0879354327917099,"w692":0.054437048733234406,"w1169":0.43378394842147827,"w696":0.021132182329893112,"w51":0.25231581926345825,"w494":0.016403457149863243,"w623":-0.008950892835855484,"w1070":0.18285757303237915,"w551":0.05194577947258949,"w99":0.10102267563343048,"w867":0.09374433755874634,"w828":0.0696178674697876,"w74":0.1283310502767563,"w104":0.15876780450344086,"w1146":0.20556561648845673,"w807":-0.17289026081562042,"w334":0.012476318515837193,"w1031":-0.0070234378799796104,"w940":0.11923986673355103,"w33":0.11605335026979446,"w59":0.05312637984752655,"w489":0.1720864623785019,"w493":-0.093560591340065,"w442":0.04942323639988899,"w200":0.0851537212729454,"w622":0.05667847394943237,"w170":-0.10253030806779861,"w883":-0.09625107795000076,"w343":0.1305065006017685,"w62":0.030127497389912605,"w445":0.17654719948768616,"w459":-0.033345941454172134,"w446":-0.08479003608226776,"w416":0.008652781136333942,"w522":-0.035012319684028625,"w1099":-0.18728715181350708,"w533":0.09816695749759674,"w887":0.07911334931850433,"w45":0.01765759475529194,"w414":-0.010397658683359623,"w404":0.26659151911735535,"w508":0.1616983860731125,"w1142":-0.2083846777677536,"w294":0.057086870074272156,"w712":0.10203611850738525,"w1157":-0.01698414981365204,"w92":0.17666998505592346,"w22":-0.02223471738398075,"w914":-0.08748117834329605,"w107":0.0920582190155983,"w122":-0.10407032072544098,"w23":0.07687006145715714,"w525":0.07406845688819885,"w70":-0.08100998401641846,"w938":-0.1019301638007164,"w490":-0.1539246141910553,"w617":-0.0390072837471962,"w63":0.0875483825802803,"w329":-0.11426737159490585,"w641":0.06291364133358002,"w13":0.12947405874729156,"w773":0.11016949266195297,"w518":0.09096679091453552,"w555":0.18018139898777008,"w310":-0.009717111475765705,"w882":0.16422569751739502,"w726":-0.1379076987504959,"w341":0.11745377629995346,"w138":0.1321917176246643,"w691":-0.011317851953208447,"w240":0.08489134907722473,"w1024":0.3775840699672699,"w683":0.0838957130908966,"w1170":-0.21217212080955505,"w972":0.08248325437307358,"w303":0.10795607417821884,"w1100":0.035075388848781586,"w477":-0.1761290431022644,"w976":-0.11200004816055298,"w109":-0.19330951571464539,"w752":-0.11956850439310074,"w106":-0.1920979917049408,"w693":0.008879783563315868,"w16":0.17558269202709198,"w394":-0.037899162620306015,"w1159":-0.0984773188829422,"w1072":0.1384301334619522,"w467":-0.04231482744216919,"w340":0.10049683600664139,"w277":0.081980399787426,"w1068":-0.1507142335176468,"w747":0.019712630659341812,"w381":-0.18549534678459167,"w132":0.10220018029212952,"w717":0.3220447599887848,"w999":-0.1683063954114914,"w96":-0.14626990258693695,"w532":0.1332843154668808,"w1041":0.11617976427078247,"w1128":0.12099109590053558,"w466":-0.0021509442012757063,"w1017":0.047423575073480606,"w762":-0.08088842779397964,"w857":-0.11794840544462204,"w450":0.022642193362116814,"w382":-0.11777982115745544,"w261":0.06104544177651405,"w1083":-0.038587842136621475,"w146":0.03383316099643707,"w44":0.002559131709858775,"w127":0.16925127804279327,"w478":-0.04882822930812836,"w722":0.18666021525859833,"w126":-0.18178397417068481,"w818":0.01575513929128647,"w465":-0.03780699893832207,"w319":0.12211709469556808,"w491":0.2332414984703064,"w1043":0.17294469475746155,"w345":-0.3021007478237152,"w128":-0.016969339922070503,"w129":-0.027894973754882812,"w121":-0.021610945463180542,"w376":0.23728416860103607,"w428":0.0845666453242302,"w706":0.0701298713684082,"w384":0.23102496564388275,"w540":0.01734711229801178,"w584":-0.01861180178821087,"w130":0.030499974265694618,"w627":-0.12356504052877426,"w527":-0.16577419638633728,"w880":-0.1779962033033371,"w618":0.11827098578214645,"w719":-0.18323878943920135,"w302":0.04107718542218208,"w677":-0.005021245218813419,"w539":-0.07703234255313873,"w344":0.04308761656284332,"w562":-0.0678027868270874,"w1081":0.1334373950958252,"w183":-0.15666595101356506,"w197":-0.15396150946617126,"w298":0.1768384873867035,"w1047":-0.12476963549852371,"w881":-0.08677440881729126,"w877":-0.14829514920711517,"w347":0.15909720957279205,"w148":0.018939368426799774,"w274":0.16433510184288025,"w123":-0.3688705861568451,"w986":0.1648859828710556,"w210":-0.0474826842546463,"w427":-0.16453216969966888,"w1096":0.18920814990997314,"w981":-0.2584405541419983,"w425":-0.09528735280036926,"w290":0.008762720972299576,"w545":-0.09328070282936096,"w330":0.020930415019392967,"w1154":-0.03795047476887703,"w426":0.1541009247303009,"w424":0.22282420098781586,"w15":0.051536232233047485,"w279":-0.2798279821872711,"w333":0.007747250143438578,"w1104":0.24666564166545868,"w791":-0.1403290182352066,"w168":0.10626210272312164,"w757":0.0578685998916626,"w182":0.14028848707675934,"w312":-0.3093104958534241,"w313":0.02423732541501522,"w827":-0.06887385994195938,"w50":-0.10843737423419952,"w700":-0.06052100285887718,"w480":0.12971854209899902,"w652":-0.04555293545126915,"w625":-0.25604018568992615,"w1088":-0.09823332726955414,"w571":0.10806035995483398,"w750":0.0356810986995697,"w593":-0.4482998847961426,"w626":0.08119074255228043,"w905":0.1461673378944397,"w1160":0.13965848088264465,"w205":0.08224661648273468,"w113":0.07164309173822403,"w590":-0.11093015223741531,"w651":-0.01120803877711296,"w1103":-0.12526679039001465,"w299":0.1161947026848793,"w589":0.022278999909758568,"w112":0.19333891570568085,"w131":-0.13288789987564087,"w371":0.21351006627082825,"w225":0.29703080654144287,"w160":-0.09593583643436432,"w894":0.03651128709316254,"w517":0.1325686275959015,"w649":0.2519265115261078,"w54":0.04111109673976898,"w1092":-0.10651244968175888,"w328":-0.08316604048013687,"w710":-0.30812814831733704,"w648":-0.08884686231613159,"w519":0.09016887843608856,"w321":0.1625709980726242,"w29":0.1707092523574829,"w779":-0.06843776255846024,"w1074":-0.10664036124944687,"w1151":0.6120151281356812,"w315":-0.03394591435790062,"w991":-0.34072381258010864,"w25":0.03125631436705589,"w207":0.08898928761482239,"w67":-0.016116371378302574,"w705":0.1398397982120514,"w892":-0.023069079965353012,"w911":-0.05596967786550522,"w176":0.04611571133136749,"w731":0.07105933129787445,"w282":0.15606410801410675,"w283":-0.043254006654024124,"w209":0.01974237523972988,"w966":0.19054755568504333,"w244":-0.19013451039791107,"w120":-0.23002439737319946,"w144":-0.17652170360088348,"w794":-0.11247243732213974,"w567":-0.20981036126613617,"w925":-0.006865804083645344,"w993":-0.3336217701435089,"w260":-0.31238362193107605,"w110":0.01227094791829586,"w766":-0.36116093397140503,"w621":-0.27021524310112,"w550":0.052830882370471954,"w547":0.2171165496110916,"w814":-0.09934721887111664,"w206":-0.18421149253845215,"w506":-0.2345619648694992,"w932":0.04471141844987869,"w505":0.014267769642174244,"w724":-0.05704674869775772,"w60":-0.16626472771167755,"w924":-0.21656523644924164,"w926":0.0023124036379158497,"w927":-0.04594561830163002,"w919":0.25012490153312683,"w406":-0.18227511644363403,"w856":-0.7857422232627869,"w830":-0.9028292298316956,"w860":-1.0313408374786377,"w861":-0.5829372406005859,"w859":-0.7264255285263062,"w858":-0.3458278775215149,"w937":0.29946789145469666,"w370":-0.06203807517886162,"w73":0.06494703888893127,"w422":-0.16482731699943542,"w604":1.449040174484253,"w895":0.3318091034889221,"w675":0.1673801988363266,"w903":1.2724450826644897,"w964":0.07575704902410507,"w69":0.06326959282159805,"w497":-0.018264289945364,"w609":0.4869692325592041,"w899":0.18550266325473785,"w608":0.9826376438140869,"w243":0.023444270715117455,"w624":-0.011988007463514805,"w500":0.2096872478723526,"w634":-0.1421387493610382,"w878":-0.024395806714892387,"w668":-0.47777828574180603,"w733":0.23657365143299103,"w605":0.4604435861110687,"w481":-0.45561596751213074,"w1112":-0.4194953143596649,"w68":-0.6377792954444885,"w125":-0.4276488423347473,"w950":-0.2906232178211212,"w628":-0.05105478689074516,"w616":-0.534469723701477,"w1020":-0.24780207872390747,"w949":-0.630639374256134,"w1180":-0.18210874497890472,"w65":-0.2348884791135788,"w821":-0.14047639071941376,"w88":-0.3353009819984436,"w64":-0.31679725646972656,"w86":-0.16350893676280975,"w87":-0.1080571711063385,"w1037":-0.1239972710609436,"w615":0.0211714468896389,"w164":0.17473207414150238,"w436":0.047621626406908035,"w802":-0.04943155124783516,"w1111":-0.16999967396259308,"w1113":0.16574884951114655,"w1114":-0.005492432974278927,"w1038":-0.19720877707004547,"w66":-0.05489358305931091,"w638":-0.13885986804962158,"w980":-0.15799008309841156,"w35":0.08841540664434433,"w498":-0.16345246136188507,"w815":-0.012035275809466839,"w499":-0.13359010219573975,"w790":-0.0943111851811409,"w942":0.3341207802295685,"w931":0.015742622315883636,"w524":0.18695223331451416,"w246":0.041488636285066605,"w923":0.2559245526790619,"w816":0.16254352033138275,"w831":-0.031269464641809464,"w267":-0.03234303370118141,"w393":-0.03592286258935928,"w619":0.11084228754043579,"w941":0.0815686583518982,"w158":0.2454725056886673,"w1117":0.35935598611831665,"w720":0.20683445036411285,"w955":0.29368072748184204,"w284":0.3774753510951996,"w1012":0.1860409379005432,"w350":-0.7678027153015137,"w337":-0.0741046890616417,"w740":-0.14093363285064697,"w730":-0.07808816432952881,"w754":-0.11096445471048355,"w213":0.09684046357870102,"w756":0.056092604994773865,"w1001":0.06039169803261757,"w629":0.04723769798874855,"w52":-0.0686827227473259,"w1156":-0.18777872622013092,"w1115":0.16386878490447998,"w193":-0.0073858145624399185,"w1013":0.3961384892463684,"w496":-0.003771744901314378,"w799":0.0037658142391592264,"w316":0.10118553787469864,"w862":-0.3149149417877197,"w94":-0.2678648829460144,"w379":-0.1232927069067955,"w1053":-0.06320744007825851,"w783":-0.013147436082363129,"w782":-0.19048085808753967,"w781":0.2444079965353012,"w212":0.11865539103746414,"w594":0.012507053092122078,"w922":-0.19373753666877747,"w563":-0.03263089433312416,"w755":-0.07416177541017532,"w788":-0.14933282136917114,"w789":-0.15416133403778076,"w587":-0.01738537661731243,"w595":0.15615063905715942,"w810":0.11364826560020447,"w1073":0.13332271575927734,"w582":0.0818328857421875,"w979":-0.03369893506169319,"w944":0.15510167181491852,"w687":-0.017016245052218437,"w410":-0.03657694160938263,"w464":0.12573595345020294,"w610":-0.06151562184095383,"w833":-0.12187869846820831,"w24":0.06661956757307053,"w978":0.00706502003595233,"w702":0.08725640922784805,"w630":0.07495081424713135,"w869":0.19669505953788757,"w764":0.35619205236434937,"w421":0.392982542514801,"w868":0.3486888110637665,"w967":0.28131791949272156,"w968":0.09190098196268082,"w965":0.25930362939834595,"w101":0.0301214586943388,"w1163":-0.27780625224113464,"w318":0.12895679473876953,"w17":0.20161846280097961,"w871":0.036619625985622406,"w1052":-0.4204370379447937,"w900":-0.9319261312484741,"w514":-0.24008725583553314,"w98":0.23574967682361603,"w721":-0.21669736504554749,"w643":-0.392973393201828,"w289":-0.6781492829322815,"w482":-0.32471853494644165,"w472":-0.006471601314842701,"w1019":-0.11243762820959091,"w1018":-0.07186450064182281,"w1078":-0.1251198947429657,"w811":-0.007789114024490118,"w390":0.021144190803170204,"w97":-0.11236323416233063,"w224":0.16729708015918732,"w223":0.20889399945735931,"w356":-0.29948076605796814,"w701":0.026953838765621185,"w314":0.13415098190307617,"w697":-0.038055624812841415,"w162":0.12176045030355453,"w280":0.8733850121498108,"w956":0.5588135123252869,"w281":0.6450695395469666,"w363":0.6715257167816162,"w667":0.6739800572395325,"w61":0.3731305003166199,"w82":0.3126349449157715,"w204":0.3031924068927765,"w607":0.17949117720127106,"w222":0.03652693331241608,"w364":0.44495490193367004,"w352":0.3303496539592743,"w743":-0.04451970383524895,"w529":-0.15077051520347595,"w516":-0.1933319866657257,"w1045":-0.28859764337539673,"w866":-0.05584901571273804,"w256":0.216756209731102,"w323":0.19798845052719116,"w846":0.20414572954177856,"w1061":0.1392616331577301,"w322":0.1978430449962616,"w734":-0.09208402037620544,"w606":0.028368424624204636,"w558":-0.05077231302857399,"w257":-0.023382937535643578,"w255":0.27379608154296875,"w430":0.11240442842245102,"w1090":-0.0659162774682045,"w620":0.0930483341217041,"w272":0.12277467548847198,"w211":-0.29541370272636414,"w586":-0.15398143231868744,"w928":0.12979717552661896,"w360":0.0035199609119445086,"w761":0.1443164050579071,"w396":-0.02586553245782852,"w962":-0.08563073724508286,"w853":-0.2547028362751007,"w855":0.01232351828366518,"w1158":-0.08476382493972778,"w178":-0.11628175526857376,"w961":-0.009916521608829498,"w247":-0.11904305219650269,"w398":-0.0013342760503292084,"w963":0.08180346339941025,"w395":0.05683191493153572,"w171":0.08131130784749985,"w1082":0.17115889489650726,"w201":-0.04204849153757095,"w888":0.10225886851549149,"w198":-0.036834701895713806,"w203":0.0033939569257199764,"w354":-0.08625588566064835,"w958":-0.044889308512210846,"w808":0.04029148817062378,"w845":0.049575693905353546,"w1095":-0.032596297562122345,"w202":0.04233832657337189,"w744":0.00600531417876482,"w803":-0.0713956207036972,"w809":-0.19608689844608307,"w111":-0.09065496176481247,"w908":0.02224419265985489,"w992":-0.11393500864505768,"w804":-0.08903277665376663,"w391":0.10998699814081192,"w349":-0.01948762871325016,"w785":-0.1268649846315384,"w805":-0.02866164781153202,"w566":-0.12936970591545105,"w1004":0.0308278426527977,"w725":0.13551175594329834,"w718":0.033095311373472214,"w670":0.24156665802001953,"w487":0.1128489077091217,"w258":0.2525342106819153,"w749":-0.08885215222835541,"w486":-0.04226808249950409,"w488":-0.12124007940292358,"w716":-0.02753746509552002,"w912":-0.12093513458967209,"w800":0.13271701335906982,"w748":-0.16466400027275085,"w515":-0.018631210550665855,"w262":-0.18794435262680054,"w263":0.17435452342033386,"w600":-0.1961396485567093,"w601":-0.07499630004167557,"w969":-0.13992758095264435,"w913":0.18802602589130402,"w909":0.16166721284389496,"w602":-0.10588748008012772,"w81":0.03259136900305748,"w373":0.13995373249053955,"w1108":0.12298237532377243,"w971":0.08053197711706161,"w308":-0.07041535526514053,"w1116":0.11536659300327301,"w1118":-0.12944836914539337,"w475":0.01750863716006279,"w192":0.20099788904190063,"w199":0.24586977064609528,"w801":0.17344006896018982,"w795":0.0003880774602293968,"w1014":0.064004085958004,"w1016":-0.14214353263378143,"w1015":-0.05008026584982872,"w591":-0.15963108837604523,"w915":-0.17447510361671448,"w188":-0.14324736595153809,"w102":0.027419058606028557,"w1179":0.0822032243013382,"w137":-0.4491655230522156,"w136":-0.008735287003219128,"w1007":0.025825250893831253,"w585":-0.3603039085865021,"w870":0.07276386767625809,"w135":0.07549142837524414,"w640":0.1753402203321457,"w278":-0.19196157157421112,"w266":0.14029617607593536,"w580":-0.040067773312330246,"w276":0.1674119532108307,"w662":0.040735337883234024,"w235":-0.0365196168422699,"w714":-0.38101041316986084,"w119":-0.047289397567510605,"w353":-0.20235589146614075,"w48":0.020370692014694214,"w56":0.11478647589683533,"w254":0.05747111141681671,"w751":-0.021956531330943108,"w1123":-0.08861584216356277,"w774":-0.14337120950222015,"w806":0.11535715311765671,"w603":0.024000462144613266,"w520":0.18814155459403992,"w361":0.17810426652431488,"w655":0.1428583562374115,"w819":-0.09861906617879868,"w613":-0.17055559158325195,"w812":-0.16863514482975006,"w848":-0.13799738883972168,"w177":-0.3022025525569916,"w90":0.11952116340398788,"w847":-0.04379190504550934,"w849":0.025856735184788704,"w546":0.16059406101703644,"w476":-0.025048524141311646,"w85":0.01940980553627014,"w219":0.16704343259334564,"w669":-0.1749827116727829,"w735":0.04446284845471382,"w707":-0.09843190014362335,"w351":0.033909086138010025,"w392":0.16225406527519226,"w473":-0.08121439069509506,"w18":0.17923209071159363,"w553":-0.0990610271692276,"w95":-0.1096884086728096,"w1126":-0.10162869840860367,"w885":0.02381136082112789,"w103":-0.11656654626131058,"w1080":0.1846974641084671,"w1129":0.13841752707958221,"w1042":0.2136222869157791,"w557":0.07130152732133865,"w1131":-0.10912133008241653,"w230":0.12103785574436188,"w237":-0.8106319308280945,"w1048":-0.14974795281887054,"w1000":-0.46184006333351135,"w238":-0.1168658435344696,"w236":-0.11848262697458267,"w368":-0.1060253158211708,"w115":-0.2088291496038437,"w399":-0.20502030849456787,"w1132":-0.27949872612953186,"w637":-0.33266207575798035,"w521":-0.02739870548248291,"w820":-0.09533526748418808,"w1010":-0.1530863493680954,"w471":-0.016840819269418716,"w365":0.15741312503814697,"w75":-0.09519342333078384,"w554":0.14333701133728027,"w386":-0.08050670474767685,"w1023":-0.05964190885424614,"w503":0.07443682104349136,"w1134":-0.1287258118391037,"w1143":-0.1846833974123001,"w1133":0.059297606348991394,"w943":0.023823069408535957,"w10":-0.01642604172229767,"w787":-0.062050167471170425,"w49":0.1272721141576767,"w4":-0.01825442723929882,"w155":-0.12655289471149445,"w1":-0.17837642133235931,"w287":-0.06981393694877625,"w3":-0.13036105036735535,"w2":-0.02619541436433792,"w663":0.1632973998785019,"w11":0.012267161160707474,"w1044":-0.177167147397995,"w6":0.0803559347987175,"w26":0.00564760435372591,"w686":-0.10980551689863205,"w9":0.06428656727075577,"w286":-0.13922624289989471,"w975":-0.07763271033763885,"w456":0.10819278657436371,"w564":-0.029454611241817474,"w157":0.21550528705120087,"w635":0.029205013066530228,"w510":-0.16388612985610962,"w552":0.01942988857626915,"w509":0.24641281366348267,"w727":-0.05197454243898392,"w5":-0.19394923746585846,"w159":0.19439329206943512,"w154":0.23504585027694702,"w156":-0.15995697677135468,"w813":0.13967645168304443,"w27":0.14638368785381317,"w495":-0.34049832820892334,"w636":-0.1058884784579277,"w1058":-0.3976009786128998,"w455":-0.20402836799621582,"w891":-0.12787389755249023,"w317":-0.19672369956970215,"w1059":-0.04782649502158165,"w1060":-0.10628525912761688,"w1057":0.06149778887629509,"w1056":-0.23100443184375763,"w461":-0.1415858268737793,"w647":-0.2064509093761444,"w215":0.18538908660411835,"w124":-0.27376604080200195,"w886":0.042151857167482376,"w306":0.037510473281145096,"w565":-0.17470599710941315,"w1162":0.044128190726041794,"w275":0.24100778996944427,"w417":0.35961586236953735,"w839":0.41274768114089966,"w161":0.20901621878147125,"w671":0.11709123104810715,"w841":0.7262922525405884,"w910":-0.11805768311023712,"w974":-0.09216837584972382,"w854":-0.08555103838443756,"w150":0.18570218980312347,"w659":-0.006221042480319738,"w837":0.37657201290130615,"w843":0.388245552778244,"w844":0.367450475692749,"w838":0.29203832149505615,"w822":0.021892784163355827,"w116":-0.07444534450769424,"w570":0.20319387316703796,"w39":0.3579888939857483,"w723":-0.08965043723583221,"w665":-0.009116300381720066,"w664":-0.12564997375011444,"w72":-0.28188133239746094,"w842":0.30916428565979004,"w840":0.25967684388160706,"w295":-0.277015745639801,"w581":0.03811855986714363,"w367":0.18628013134002686,"w479":-0.16717645525932312,"w37":-0.7795953750610352,"w1121":-0.102405846118927,"w973":-0.15108811855316162,"w1101":-0.35885876417160034,"w501":-0.225758358836174,"w1050":-0.16490726172924042,"w40":-0.19257208704948425,"w38":-0.31059014797210693,"w41":-0.10611043870449066,"w678":-0.21705937385559082,"w12":0.07207975536584854,"w703":-0.17711451649665833,"w437":0.03170430660247803,"w447":-0.1733846664428711,"w695":0.09803010523319244,"w145":0.022193148732185364,"w326":-0.005169502925127745,"w28":-0.1846540868282318,"w1167":-0.14430324733257294,"w415":0.043439123779535294,"w694":0.1001422107219696,"w418":0.08660314977169037,"w57":-0.20665384829044342,"w147":0.1316196173429489,"w1127":-0.1285332590341568,"w985":-0.13335272669792175,"w441":0.10315627604722977,"w453":-0.2101539671421051,"w439":-0.019397608935832977,"w449":0.07043958455324173,"w454":0.07398883998394012,"w681":0.17908896505832672,"w389":0.006486533209681511,"w984":0.0069387536495924,"w457":0.12707430124282837,"w458":-0.16627205908298492,"w448":-0.015230046585202217,"w470":0.011622413992881775,"w438":0.02064485289156437,"w440":0.16896763443946838,"w297":-0.01896807551383972,"w301":-0.030518274754285812,"w175":0.08156313002109528,"w151":0.3860202729701996,"w657":0.1134529858827591,"w405":0.3323920965194702,"w904":0.24816954135894775,"w997":0.09793184697628021,"w166":-0.15053126215934753,"w1002":0.1117711141705513,"w43":0.042835477739572525,"w174":-0.176267609000206,"w732":-0.04240217059850693,"w660":0.07797173410654068,"w152":0.18578889966011047,"w153":-0.21714314818382263,"w409":-0.14104028046131134,"w1161":-0.08861968666315079,"w167":-0.13336482644081116,"w576":-0.04631521552801132,"w411":-0.1545240879058838,"w998":0.09590284526348114,"w768":0.09794172644615173,"w745":-0.15849903225898743,"w929":-0.09188590943813324,"w1029":-0.05589548870921135,"w342":0.19714856147766113,"w948":-0.15516503155231476,"w1089":-0.15435868501663208,"w403":0.055360324680805206,"w575":0.05876365303993225,"w264":-0.030578410252928734,"w1025":0.4252476394176483,"w614":-0.13046610355377197,"w921":0.22435089945793152,"w265":-0.04143274948000908,"w1034":-0.1783359944820404,"w1036":-0.12552012503147125,"w1079":0.014215436764061451,"w1039":-0.11216815561056137,"w1026":0.11933436989784241,"w1033":0.1494302749633789,"w1022":-0.07741625607013702,"w55":0.34047672152519226,"w443":-0.1405855119228363,"w1069":0.24757738411426544,"w1120":0.1796310544013977,"w631":-0.01171688362956047,"w413":0.1970493346452713,"w1071":0.027232620865106583,"w829":0.13698004186153412,"w444":0.0634535551071167,"w1028":0.21763847768306732,"w1027":0.44167208671569824,"w1035":0.046946872025728226,"w512":-0.09989100694656372,"w572":-0.2555118501186371,"w196":-0.28309518098831177,"w642":-0.06967762112617493,"w429":0.09591098129749298,"w76":-0.18295152485370636,"w511":-0.19978086650371552,"w513":-0.30231812596321106,"w1008":0.16545884311199188,"w423":0.023754775524139404,"w708":0.5200409889221191,"w538":0.0759744644165039,"w1051":0.25822824239730835,"w433":0.07814173400402069,"w134":0.0350409597158432,"w1003":-0.030965754762291908,"w304":-0.11025484651327133,"w709":-0.02864943817257881,"w728":-0.1190299242734909,"w432":0.22701987624168396,"w1094":0.060110680758953094,"w1063":0.04847810044884682,"w402":-0.15186545252799988,"w407":0.11848849058151245,"w760":-0.16598254442214966,"w483":-0.04431476816534996,"w556":-0.14326325058937073,"w658":-0.22711575031280518,"w549":-0.2092527151107788,"w548":-0.16192902624607086,"w656":-0.06655729562044144,"w346":-0.05631444975733757,"w654":-0.21686038374900818,"w169":-0.14237508177757263,"w339":-0.046215131878852844,"w793":0.05886005610227585,"w537":-0.18196457624435425,"w596":0.1393541544675827,"w383":-0.02719142474234104,"w1085":0.1609610617160797,"w214":0.38980188965797424,"w653":-0.005661853589117527,"w468":-0.07853851467370987,"w8":-0.03375393524765968,"w216":0.11176835000514984,"w1086":-0.1879737824201584,"w217":-0.0947444960474968,"w1098":0.34915581345558167,"w484":0.11347048729658127,"w292":0.3998013138771057,"w875":0.23947426676750183,"w227":0.45963630080223083,"w332":0.13345232605934143,"w826":0.323489248752594,"w325":-0.17660121619701385,"w291":0.043529193848371506,"w388":0.005577284377068281,"w324":0.18184344470500946,"w229":0.18132291734218597,"w226":0.008316895924508572,"w874":0.10909178107976913,"w792":-0.09253530949354172,"w366":0.08857990801334381,"w674":0.19758562743663788,"w242":-0.6606815457344055,"w32":-0.17139708995819092,"w1030":0.16167058050632477,"w378":0.03367980197072029,"w1141":-0.010860687121748924,"w462":0.09820839017629623,"w0":-0.1186545193195343,"w1139":0.006241910625249147,"w770":-0.2795089781284332,"w676":-0.21191899478435516,"w523":-0.10905512422323227,"w300":-0.05359182134270668,"w233":0.011199858970940113,"w759":-0.052645355463027954,"w7":0.09156215190887451,"w245":-0.15841782093048096,"w239":-0.08982998132705688,"w78":-0.20213346183300018,"w221":-0.3819606602191925,"w184":-0.16268590092658997,"w996":-0.05802098661661148,"w1040":-0.1280713528394699,"w1164":0.027429968118667603,"w836":-0.2507251501083374,"w307":0.056895069777965546,"w241":-0.1939578503370285,"w577":0.10077925026416779,"w1102":0.016248157247900963,"w331":0.16415558755397797,"w118":0.05908280238509178,"w296":-0.17198707163333893,"w220":0.05844686180353165,"w1097":-0.0322154201567173,"w327":-0.11242495477199554,"w348":0.061081208288669586,"w633":-0.16630366444587708,"w1064":-0.03043637052178383,"w1148":0.13930439949035645,"w876":0.08104334771633148,"w1166":0.09657331556081772,"w1140":0.18230177462100983,"w673":-0.025596560910344124,"w1065":0.008875600062310696,"w982":-0.03613361343741417,"w1150":0.038803596049547195,"w1049":0.029012789949774742,"w569":-0.09273325651884079,"w249":-0.015016323886811733,"w1155":-0.032791513949632645,"w645":-0.14309819042682648,"w250":0.0755903422832489,"w248":-0.19173011183738708,"w251":-0.18732090294361115,"w646":-0.1213141679763794,"w336":-0.0830811858177185,"w271":-0.0173574797809124,"w58":-0.025458060204982758,"w1110":-0.16582392156124115,"w463":-0.005755107384175062,"w872":0.3169911205768585,"w1011":0.2273443192243576,"w763":0.33206745982170105,"w765":0.03245430439710617,"w758":0.2816668450832367,"w1119":0.06994099915027618,"w672":-0.02276221290230751,"w133":0.11479637771844864,"w259":-0.025864817202091217,"w934":0.017453785985708237,"w30":-0.28614622354507446,"w311":-0.12785428762435913,"w711":0.014910794794559479,"w729":-0.0009307456202805042,"w935":-0.28301888704299927,"w31":0.033276740461587906,"w305":-0.1499435305595398,"w369":-0.3004946708679199,"w14":-0.005141249857842922,"w89":-0.1872587651014328,"w852":-0.1561957597732544,"w769":-0.044392794370651245,"w798":-0.014094364829361439,"w797":0.09281669557094574,"w108":-0.08524461835622787,"w588":-0.15851518511772156,"w865":-0.17077003419399261,"w93":-0.07498254626989365,"w507":-0.05520419031381607,"w1021":0.2028295397758484,"w1153":0.037690240889787674,"w954":0.4231014847755432,"w953":0.17006774246692657,"w983":0.23749388754367828,"w53":-0.10776776075363159,"w850":-0.5412246584892273,"w612":-0.17238332331180573,"w536":-0.16760700941085815,"w851":-0.2109229564666748,"w234":-0.21860764920711517,"w1165":-0.17216874659061432,"w920":-0.04234910011291504,"w823":0.094227634370327,"w666":-0.055082157254219055,"w824":0.08293938636779785,"w293":0.15314757823944092,"w742":-0.05159670487046242,"w1054":0.10815146565437317,"w988":0.12084038555622101,"w36":-0.11867478489875793,"w825":0.0150148319080472,"w906":-0.11305122822523117,"w1046":-0.2096235752105713,"w897":0.5528109073638916,"w165":-0.018329564481973648,"w598":0.13887828588485718,"w574":-0.04458796977996826,"w776":0.24611718952655792,"w579":0.17952565848827362,"w917":0.0552065409719944,"w939":0.23280012607574463,"w896":0.20620481669902802,"w898":0.21728506684303284,"w893":-0.00509578688070178,"w578":0.1774560660123825,"w1145":0.3111617863178253,"w412":0.14151279628276825,"w689":-0.3801212012767792,"w930":-0.19228367507457733,"w186":-0.23469865322113037,"w1177":0.15174825489521027,"w684":-0.24064290523529053,"w690":-0.081884004175663,"w682":0.15293532609939575,"w916":0.08960733562707901,"w1087":-0.25223296880722046,"w746":0.11820531636476517,"w952":-0.08310738950967789,"w434":-0.11931395530700684,"w951":-0.21530018746852875,"w936":0.0531582273542881,"w231":-0.1371278166770935,"w977":0.15165546536445618,"w959":-0.1785011887550354,"w451":-0.19322192668914795,"w989":-0.07680168747901917,"w362":0.05735066533088684,"w139":-0.14879831671714783,"w372":0.16073226928710938,"w661":0.049440883100032806,"w452":0.11934828758239746,"w713":0.1321912556886673,"w187":-0.07183397561311722,"w639":-0.1335410624742508,"w374":-0.22075854241847992,"w117":-0.04577525705099106,"w84":-0.06453593820333481,"w375":-0.01794268749654293,"w42":0.06787535548210144,"w1005":0.19000567495822906,"w358":-0.014087090268731117,"w163":-0.12197332829236984,"w19":-0.22072486579418182,"w105":0.09428787976503372,"w772":-0.07187933474779129,"w181":0.0817442238330841,"w79":0.034696079790592194,"w771":-0.14921872317790985,"w179":0.10267601162195206,"w583":-0.10351057350635529,"w835":0.013904962688684464,"w435":-0.1347862035036087,"w180":-0.3579678535461426,"w208":-0.14568886160850525,"w786":0.10886893421411514,"w890":-0.11442217230796814,"w889":-0.23823946714401245,"w77":-0.013345524668693542,"w357":-0.006209467072039843,"w34":0.010612456128001213}},"1":{"bias":-0.029575737193226814,"weights":{"w738":0.2029581069946289,"w1137":-0.3568815290927887,"w408":0.8395839929580688,"w195":-0.06875742226839066,"w401":0.0010482999496161938,"w1107":0.2569271922111511,"w71":-0.04926571622490883,"w784":0.09122557938098907,"w1168":0.23116962611675262,"w185":-0.23242148756980896,"w47":-0.036002058535814285,"w140":-0.2879888713359833,"w46":0.21083633601665497,"w933":-0.07522574812173843,"w359":0.12547734379768372,"w338":-0.07035676389932632,"w485":0.029611006379127502,"w1077":0.009275737218558788,"w397":-0.034257229417562485,"w544":0.3976188004016876,"w531":0.06032625585794449,"w542":-0.009314415976405144,"w1178":-0.03396064043045044,"w990":0.31860047578811646,"w592":0.0007515936158597469,"w400":0.10909673571586609,"w526":0.39728236198425293,"w1147":0.09013214707374573,"w1135":0.04728986695408821,"w704":-0.09200018644332886,"w469":-0.06397188454866409,"w741":0.08249446004629135,"w685":-0.00881750788539648,"w502":-0.08053938299417496,"w419":-0.07605773955583572,"w474":0.05536920204758644,"w1124":-0.01758580096065998,"w1173":1.0530043840408325,"w957":0.1282845139503479,"w173":0.1951053887605667,"w960":0.06664395332336426,"w918":0.041452329605817795,"w573":0.18670864403247833,"w285":0.09567100554704666,"w873":0.34911298751831055,"w309":0.13866069912910461,"w559":-0.14883586764335632,"w1138":-0.3775019645690918,"w1136":-0.2149072140455246,"w543":0.13367782533168793,"w945":0.16995655000209808,"w492":0.10154031962156296,"w767":0.4164203405380249,"w504":-0.2729729115962982,"w737":0.09000042825937271,"w560":0.15317921340465546,"w252":-0.07857818901538849,"w141":-0.24964971840381622,"w114":-0.07619398832321167,"w987":0.03178917244076729,"w530":0.0002820017689373344,"w273":0.15666335821151733,"w21":-0.1597643494606018,"w528":0.09030196815729141,"w172":-0.0038608459290117025,"w1175":0.5339315533638,"w1172":0.22061963379383087,"w1176":-0.003201540559530258,"w1174":0.4761021137237549,"w1130":0.12035371363162994,"w1106":0.017768271267414093,"w253":0.03491128608584404,"w420":-0.38820022344589233,"w320":-0.10333694517612457,"w535":-0.21189989149570465,"w597":0.14263741672039032,"w739":0.015303773805499077,"w902":0.5519759654998779,"w688":0.18578162789344788,"w780":0.1925245076417923,"w946":0.1289636492729187,"w1006":-0.1335468292236328,"w864":-0.12026513367891312,"w611":0.0477171465754509,"w1091":0.16894902288913727,"w377":-0.3367867171764374,"w355":0.35412171483039856,"w194":-0.12300282716751099,"w1076":0.08742962032556534,"w218":0.2453802525997162,"w644":-0.002369573339819908,"w1062":0.09605064988136292,"w1109":0.23198974132537842,"w947":0.38002389669418335,"w1075":-0.09719613194465637,"w1105":-0.0793432742357254,"w270":0.4499782919883728,"w380":0.30070093274116516,"w268":-0.005420738365501165,"w650":-0.20554985105991364,"w541":-0.04376864805817604,"w907":0.1327442079782486,"w269":-0.10525324195623398,"w680":0.13263359665870667,"w1055":-0.0677008405327797,"w385":-0.13458341360092163,"w20":0.19185703992843628,"w189":-0.14615269005298615,"w100":-0.37798044085502625,"w995":-0.025386648252606392,"w879":0.237650528550148,"w190":0.12891963124275208,"w191":-0.10727394372224808,"w143":-0.07749665528535843,"w431":-0.16368092596530914,"w142":0.18010418117046356,"w335":-0.3091329038143158,"w817":-0.3488406538963318,"w901":-0.16070853173732758,"w91":0.075619637966156,"w715":-0.19274477660655975,"w834":-0.2388399988412857,"w753":-0.2169038951396942,"w832":-0.08243036270141602,"w994":0.0071174572221934795,"w1032":0.14066606760025024,"w288":-0.40212705731391907,"w599":-0.049592144787311554,"w775":-0.41638845205307007,"w1093":-0.20962361991405487,"w632":-0.016799069941043854,"w1125":-0.2510916292667389,"w970":-0.02816217765212059,"w460":-0.13143044710159302,"w387":0.16763779520988464,"w228":-0.02860972471535206,"w1152":0.06533163040876389,"w80":-0.11933668702840805,"w796":-0.09895068407058716,"w736":0.15724116563796997,"w777":-0.12720783054828644,"w149":0.13497298955917358,"w232":-0.02013152651488781,"w568":-0.0649227425456047,"w863":-0.11789440363645554,"w83":0.10931804776191711,"w778":-0.19088979065418243,"w698":-0.11074930429458618,"w1122":-0.0950930118560791,"w679":-0.07882943749427795,"w1084":-0.030788101255893707,"w699":-0.18938875198364258,"w1149":0.15989448130130768,"w1144":-0.09054567664861679,"w1009":-0.11755913496017456,"w1171":-0.04822089523077011,"w1066":0.06394527107477188,"w534":-0.22552691400051117,"w561":-0.1827448159456253,"w884":-0.013552812859416008,"w1067":0.07425026595592499,"w692":0.024170413613319397,"w1169":0.1796252727508545,"w696":-0.2621992528438568,"w51":0.210318922996521,"w494":0.07644400745630264,"w623":-0.23083418607711792,"w1070":-0.007252357434481382,"w551":0.1113680899143219,"w99":0.11756470054388046,"w867":-0.03971783444285393,"w828":0.14699113368988037,"w74":0.19715140759944916,"w104":0.053831055760383606,"w1146":0.16934053599834442,"w807":0.14292195439338684,"w334":-0.1593605875968933,"w1031":-0.0029362605419009924,"w940":-0.030068956315517426,"w33":-0.003952710889279842,"w59":0.0320807583630085,"w489":-0.011741342954337597,"w493":0.09073852002620697,"w442":0.023245729506015778,"w200":0.1915881633758545,"w622":-0.009596618823707104,"w170":-0.06088947132229805,"w883":-0.11657468229532242,"w343":0.11243283748626709,"w62":-0.004044980276376009,"w445":0.1478683054447174,"w459":-0.02325996570289135,"w446":-0.15648937225341797,"w416":0.03328811377286911,"w522":0.261132150888443,"w1099":0.10505934804677963,"w533":-0.04992922767996788,"w887":-0.3305588364601135,"w45":-0.10037687420845032,"w414":0.002911763498559594,"w404":0.009623799473047256,"w508":0.0239346232265234,"w1142":-0.10234014689922333,"w294":-0.17876164615154266,"w712":-0.16273170709609985,"w1157":-0.010922621004283428,"w92":0.19294874370098114,"w22":0.09432103484869003,"w914":-0.08627921342849731,"w107":-0.1926255077123642,"w122":0.1867583692073822,"w23":0.11442651599645615,"w525":-0.05376787856221199,"w70":-0.1810004562139511,"w938":-0.05591774359345436,"w490":-0.03198474273085594,"w617":-0.0844087302684784,"w63":-0.04990813508629799,"w329":-0.030708150938153267,"w641":-0.12762589752674103,"w13":0.061034321784973145,"w773":0.07905931770801544,"w518":-0.07177611440420151,"w555":-0.08963700383901596,"w310":0.06693287193775177,"w882":-0.006662419531494379,"w726":-0.1266317516565323,"w341":-0.04354095458984375,"w138":0.264070987701416,"w691":0.013783060014247894,"w240":-0.021423183381557465,"w1024":0.7064586877822876,"w683":-0.24241521954536438,"w1170":0.13510732352733612,"w972":-0.03718268498778343,"w303":-0.10995183140039444,"w1100":-0.23459745943546295,"w477":-0.15082845091819763,"w976":-0.04002708941698074,"w109":0.14702706038951874,"w752":0.06289742887020111,"w106":0.042504847049713135,"w693":-0.22279521822929382,"w16":0.151540145277977,"w394":0.18125998973846436,"w1159":0.051222071051597595,"w1072":-0.15524066984653473,"w467":0.06742455810308456,"w340":0.08537118136882782,"w277":-0.03809589892625809,"w1068":-0.03111143782734871,"w747":0.14408405125141144,"w381":-0.10128442943096161,"w132":0.05272707715630531,"w717":0.06758196651935577,"w999":0.02517872489988804,"w96":-0.09141107648611069,"w532":0.005435764789581299,"w1041":-0.6379172205924988,"w1128":-0.04144442081451416,"w466":-0.08933732658624649,"w1017":0.0920800045132637,"w762":0.08428791910409927,"w857":-0.26430249214172363,"w450":0.5983160138130188,"w382":-0.1024470329284668,"w261":0.10300767421722412,"w1083":-0.1485774964094162,"w146":0.042845916002988815,"w44":-0.2968014180660248,"w127":-0.1403398960828781,"w478":-0.2527552843093872,"w722":0.07712828367948532,"w126":0.03125753626227379,"w818":-0.2091623842716217,"w465":-0.2022872120141983,"w319":0.056918900460004807,"w491":0.24409276247024536,"w1043":0.15470437705516815,"w345":-0.28815045952796936,"w128":-0.05638737231492996,"w129":0.07750003784894943,"w121":0.12499379366636276,"w376":-0.04166664183139801,"w428":0.05847899988293648,"w706":-0.020339349284768105,"w384":0.013362942263484001,"w540":0.0600663460791111,"w584":0.12179943919181824,"w130":0.18986430764198303,"w627":0.01580478437244892,"w527":-0.10627366602420807,"w880":-0.2495335042476654,"w618":0.14711883664131165,"w719":0.09292512387037277,"w302":-0.010712283663451672,"w677":0.07493539154529572,"w539":0.03194257244467735,"w344":0.14925695955753326,"w562":0.06822565197944641,"w1081":0.00623202882707119,"w183":-0.07801645994186401,"w197":-0.008078501559793949,"w298":0.31521767377853394,"w1047":-0.14846573770046234,"w881":0.036435168236494064,"w877":-0.07311587780714035,"w347":0.05562537908554077,"w148":0.044514287263154984,"w274":-0.02988320030272007,"w123":-0.0537545345723629,"w986":0.16727115213871002,"w210":-0.007406214717775583,"w427":0.07375576347112656,"w1096":0.09446204453706741,"w981":0.14654286205768585,"w425":0.031438734382390976,"w290":-0.2658229470252991,"w545":0.027577070519328117,"w330":-0.07409492135047913,"w1154":-0.19180771708488464,"w426":0.09335285425186157,"w424":-0.09118976444005966,"w15":-0.07086315006017685,"w279":0.19965040683746338,"w333":-0.06359515339136124,"w1104":-0.010396525263786316,"w791":-0.02069849520921707,"w168":0.2519451677799225,"w757":0.24061046540737152,"w182":-0.2615175247192383,"w312":-0.30503565073013306,"w313":-0.17509636282920837,"w827":-0.00675430940464139,"w50":-0.18843156099319458,"w700":0.13737373054027557,"w480":-0.13660122454166412,"w652":-0.17542964220046997,"w625":-0.2399328500032425,"w1088":-0.13339753448963165,"w571":-0.10931724309921265,"w750":-0.03234321251511574,"w593":-0.4538725018501282,"w626":0.1091480478644371,"w905":0.07648202776908875,"w1160":-0.1805163472890854,"w205":-0.014284265227615833,"w113":-0.06921475380659103,"w590":0.04855118691921234,"w651":0.018984930589795113,"w1103":-0.09881721436977386,"w299":-0.17935769259929657,"w589":-0.04358786344528198,"w112":-0.1351672112941742,"w131":-0.0003808591281995177,"w371":0.09998635947704315,"w225":-0.420081228017807,"w160":0.10324165970087051,"w894":0.1885593980550766,"w517":-0.048810090869665146,"w649":0.13455574214458466,"w54":0.2042519450187683,"w1092":0.21198195219039917,"w328":0.031752992421388626,"w710":0.3478509187698364,"w648":-0.011382355354726315,"w519":0.19539956748485565,"w321":-0.12944801151752472,"w29":0.0806126520037651,"w779":0.06431031972169876,"w1074":0.14469219744205475,"w1151":-0.19229790568351746,"w315":0.012989794835448265,"w991":-0.28923848271369934,"w25":0.2114621251821518,"w207":0.03206164017319679,"w67":0.01511743851006031,"w705":0.05702574923634529,"w892":0.2028811275959015,"w911":-0.03570336848497391,"w176":0.062234122306108475,"w731":-0.40026921033859253,"w282":-0.21573765575885773,"w283":-0.320564329624176,"w209":0.12445992976427078,"w966":0.2268044352531433,"w244":-0.1842290759086609,"w120":-0.25374406576156616,"w144":0.09364249557256699,"w794":-0.27434390783309937,"w567":-0.4156547486782074,"w925":-0.297989159822464,"w993":-0.3308621644973755,"w260":-0.25602132081985474,"w110":0.13677479326725006,"w766":-0.20673604309558868,"w621":-0.2816392183303833,"w550":-0.027464618906378746,"w547":-0.45818278193473816,"w814":0.20924709737300873,"w206":-0.30104079842567444,"w506":0.2508745491504669,"w932":-0.12468118220567703,"w505":0.2198220193386078,"w724":0.31356361508369446,"w60":-0.09403492510318756,"w924":-0.7270938754081726,"w926":-0.22786547243595123,"w927":-0.3093246519565582,"w919":0.007445120718330145,"w406":0.18644177913665771,"w856":-0.1871146857738495,"w830":-0.33044782280921936,"w860":-0.7138047814369202,"w861":-0.024427218362689018,"w859":-0.23183873295783997,"w858":0.03553440794348717,"w937":0.29440510272979736,"w370":-0.057968877255916595,"w73":-0.07746509462594986,"w422":-0.0037150986026972532,"w604":0.8246659636497498,"w895":0.15116137266159058,"w675":0.17680639028549194,"w903":0.5390152335166931,"w964":0.1455223560333252,"w69":0.19698171317577362,"w497":-0.03953773155808449,"w609":0.2775833010673523,"w899":0.15957006812095642,"w608":0.5559194684028625,"w243":-0.021849051117897034,"w624":0.10036174952983856,"w500":0.09684253484010696,"w634":-0.019425222650170326,"w878":0.1798514872789383,"w668":0.14770939946174622,"w733":0.17889608442783356,"w605":0.05206708982586861,"w481":-0.6744895577430725,"w1112":-0.016340967267751694,"w68":-0.010099906474351883,"w125":-0.4882128834724426,"w950":-0.1673208326101303,"w628":-0.04385032132267952,"w616":-0.31235572695732117,"w1020":-0.18274541199207306,"w949":-0.015171976760029793,"w1180":-0.18112431466579437,"w65":0.043582748621702194,"w821":-0.4191056191921234,"w88":-0.2777441740036011,"w64":-0.3377704918384552,"w86":-0.1322222203016281,"w87":-0.22095853090286255,"w1037":0.07175028324127197,"w615":-0.12234184145927429,"w164":0.048223331570625305,"w436":0.1305515617132187,"w802":0.11938167363405228,"w1111":0.10745342075824738,"w1113":-0.100242979824543,"w1114":0.09974592924118042,"w1038":0.11665890365839005,"w66":0.1708597093820572,"w638":0.08426641672849655,"w980":0.0877230167388916,"w35":0.10744810849428177,"w498":-0.13856056332588196,"w815":-0.17916156351566315,"w499":0.023116420954465866,"w790":0.04893939942121506,"w942":0.23259779810905457,"w931":-0.1563568115234375,"w524":0.16522888839244843,"w246":0.18735343217849731,"w923":0.09004605561494827,"w816":0.22799471020698547,"w831":0.2531197965145111,"w267":0.28251200914382935,"w393":0.45069482922554016,"w619":0.21125727891921997,"w941":0.3639499843120575,"w158":-0.45422667264938354,"w1117":-0.22833269834518433,"w720":-0.1745186299085617,"w955":-0.41391462087631226,"w284":-0.3030870854854584,"w1012":-0.026933612301945686,"w350":0.06048102304339409,"w337":0.09630779922008514,"w740":0.14581182599067688,"w730":0.2517000138759613,"w754":0.1421421617269516,"w213":-0.11277665197849274,"w756":-0.01979719288647175,"w1001":-0.10699142515659332,"w629":-0.04560869187116623,"w52":0.008316840045154095,"w1156":-0.12817078828811646,"w1115":-0.01971699297428131,"w193":-0.11524157226085663,"w1013":-0.4967561960220337,"w496":-0.0853222906589508,"w799":-0.12501859664916992,"w316":-0.2732968330383301,"w862":0.42106470465660095,"w94":0.2049950659275055,"w379":0.30403852462768555,"w1053":0.17293718457221985,"w783":0.06952448934316635,"w782":0.011006380431354046,"w781":0.043833132833242416,"w212":0.1838727742433548,"w594":-0.10237891972064972,"w922":-0.14695273339748383,"w563":-0.06573054939508438,"w755":-0.08498822152614594,"w788":-0.04012603685259819,"w789":0.25159752368927,"w587":0.18771407008171082,"w595":0.08973369747400284,"w810":0.06589671969413757,"w1073":0.07496242225170135,"w582":0.05858035013079643,"w979":0.08731395751237869,"w944":-0.13392335176467896,"w687":0.15804605185985565,"w410":-0.05361711606383324,"w464":0.060577746480703354,"w610":-0.21666006743907928,"w833":0.006042310502380133,"w24":-0.06193183735013008,"w978":0.18789424002170563,"w702":-0.0995078831911087,"w630":0.04878807067871094,"w869":-0.09203150123357773,"w764":-0.12575426697731018,"w421":-0.06381876766681671,"w868":-0.37847357988357544,"w967":0.009090615436434746,"w968":-0.08294788002967834,"w965":-0.15465274453163147,"w101":-0.053248751908540726,"w1163":0.26770585775375366,"w318":-0.04965876042842865,"w17":0.18850676715373993,"w871":-0.1348864734172821,"w1052":-0.02909468300640583,"w900":-0.661147952079773,"w514":-0.08397740125656128,"w98":-0.2870224118232727,"w721":-0.1981867402791977,"w643":-0.33411169052124023,"w289":-0.2809206247329712,"w482":-0.18753163516521454,"w472":-0.25660571455955505,"w1019":-0.24455676972866058,"w1018":-0.1524919718503952,"w1078":0.1024298295378685,"w811":-0.12813763320446014,"w390":0.003949969541281462,"w97":-0.1846330761909485,"w224":-0.0909954160451889,"w223":0.11524112522602081,"w356":0.010941440239548683,"w701":0.1800655722618103,"w314":0.03106662444770336,"w697":-0.13351811468601227,"w162":0.14644810557365417,"w280":0.3905896544456482,"w956":0.1260860115289688,"w281":-0.05819198489189148,"w363":0.15152812004089355,"w667":0.40317270159721375,"w61":0.33907726407051086,"w82":0.04991864413022995,"w204":0.07135765999555588,"w607":0.15271712839603424,"w222":0.04414442554116249,"w364":0.36177322268486023,"w352":-0.695399820804596,"w743":-0.1660563349723816,"w529":-0.0266371238976717,"w516":-0.13722273707389832,"w1045":0.1277538537979126,"w866":-0.12502050399780273,"w256":-0.08601970970630646,"w323":0.15522679686546326,"w846":0.09277724474668503,"w1061":0.27531659603118896,"w322":-0.018724916502833366,"w734":0.16507168114185333,"w606":0.18882311880588531,"w558":-0.190951406955719,"w257":0.10674892365932465,"w255":0.024640081450343132,"w430":0.04022427648305893,"w1090":0.0064528146758675575,"w620":-0.1661878228187561,"w272":0.08158192038536072,"w211":-0.5292541980743408,"w586":0.058812160044908524,"w928":0.03434804454445839,"w360":-0.11887019127607346,"w761":0.15958328545093536,"w396":0.2737122178077698,"w962":-0.34192344546318054,"w853":-0.051364656537771225,"w855":-0.008804726414382458,"w1158":-0.09375560283660889,"w178":0.023035071790218353,"w961":-0.17859873175621033,"w247":-0.022364363074302673,"w398":0.16197569668293,"w963":-0.17541824281215668,"w395":0.19399386644363403,"w171":-0.11005835235118866,"w1082":-0.07210732251405716,"w201":0.6634672284126282,"w888":0.3880634307861328,"w198":-0.0918521136045456,"w203":-0.14485706388950348,"w354":0.15894687175750732,"w958":-0.12661148607730865,"w808":0.022015489637851715,"w845":-0.08100287616252899,"w1095":-0.06657090783119202,"w202":0.18528062105178833,"w744":0.10984546691179276,"w803":-0.1489107310771942,"w809":-0.14547792077064514,"w111":0.06931521743535995,"w908":0.3800436854362488,"w992":-0.17895811796188354,"w804":-0.06348563730716705,"w391":0.042535215616226196,"w349":0.006498993374407291,"w785":-0.20038890838623047,"w805":0.1364981085062027,"w566":-0.23055516183376312,"w1004":-0.18378792703151703,"w725":-0.3411731421947479,"w718":-0.15928421914577484,"w670":-0.10842153429985046,"w487":-0.4106415808200836,"w258":-0.22838149964809418,"w749":-0.13100481033325195,"w486":-0.15176546573638916,"w488":-0.13094505667686462,"w716":0.1674768626689911,"w912":-0.0057625072076916695,"w800":-0.10677290707826614,"w748":0.16365447640419006,"w515":0.048363327980041504,"w262":-0.06225751340389252,"w263":0.04859541356563568,"w600":0.20822393894195557,"w601":0.124921515583992,"w969":0.1696118414402008,"w913":-0.18857911229133606,"w909":0.10567568242549896,"w602":0.06766396015882492,"w81":-0.04162893071770668,"w373":-0.1898919939994812,"w1108":-0.17041291296482086,"w971":-0.18013207614421844,"w308":-0.1631941944360733,"w1116":-0.028386207297444344,"w1118":-0.10956654697656631,"w475":0.1121031641960144,"w192":0.34838300943374634,"w199":0.20915715396404266,"w801":0.2715701460838318,"w795":-0.06963459402322769,"w1014":0.04025924205780029,"w1016":0.18443341553211212,"w1015":0.1175861582159996,"w591":0.024728331714868546,"w915":-0.12749016284942627,"w188":-0.11304794251918793,"w102":-0.09256353229284286,"w1179":0.033066924661397934,"w137":-0.18007482588291168,"w136":-0.06535103917121887,"w1007":-0.06793464720249176,"w585":0.1600574404001236,"w870":0.15922518074512482,"w135":0.09030715376138687,"w640":0.17274563014507294,"w278":0.007968657650053501,"w266":-0.19550655782222748,"w580":0.025479262694716454,"w276":0.18174026906490326,"w662":0.1448807567358017,"w235":0.08622745424509048,"w714":-0.8344114422798157,"w119":0.05789487808942795,"w353":0.005222838371992111,"w48":-0.026137569919228554,"w56":-0.14315176010131836,"w254":-0.10874193161725998,"w751":0.07065760344266891,"w1123":-0.15161947906017303,"w774":-0.033752162009477615,"w806":-0.07980216294527054,"w603":0.3192821741104126,"w520":0.218547984957695,"w361":0.1687050461769104,"w655":0.1397198587656021,"w819":-0.15281981229782104,"w613":0.02914065681397915,"w812":0.1395454704761505,"w848":-0.3133302927017212,"w177":-0.14309367537498474,"w90":0.07363434880971909,"w847":-0.0690544992685318,"w849":-0.12122251838445663,"w546":-0.005884698126465082,"w476":-0.18216003477573395,"w85":0.06544317305088043,"w219":0.0016305220779031515,"w669":-0.09769361466169357,"w735":-0.0730656161904335,"w707":0.015664543956518173,"w351":-0.07126590609550476,"w392":-0.19950425624847412,"w473":-0.012529187835752964,"w18":0.023062823340296745,"w553":-0.26891255378723145,"w95":-0.4484610855579376,"w1126":-0.11324600875377655,"w885":-0.1999053955078125,"w103":-0.22444915771484375,"w1080":0.005016570910811424,"w1129":-0.0005658321897499263,"w1042":-0.21782748401165009,"w557":0.06854141503572464,"w1131":-0.06502451002597809,"w230":-0.19549544155597687,"w237":0.47689926624298096,"w1048":0.0843319520354271,"w1000":0.5496836304664612,"w238":0.49691542983055115,"w236":0.38461267948150635,"w368":-0.04725673049688339,"w115":-0.20010268688201904,"w399":0.13270719349384308,"w1132":-0.6979365944862366,"w637":-0.33445295691490173,"w521":-0.3680044412612915,"w820":-0.32665178179740906,"w1010":-0.4248500466346741,"w471":-0.1191636174917221,"w365":0.08637602627277374,"w75":-0.05423657223582268,"w554":-0.2957281172275543,"w386":-0.2424008846282959,"w1023":-0.23646429181098938,"w503":-0.067827008664608,"w1134":-0.1371604949235916,"w1143":-0.3126116991043091,"w1133":-0.236125186085701,"w943":0.300873726606369,"w10":0.7785596251487732,"w787":0.46427953243255615,"w49":0.09293477237224579,"w4":0.37686195969581604,"w155":0.5856931805610657,"w1":0.6335839033126831,"w287":0.04857712611556053,"w3":0.22129489481449127,"w2":0.1607050597667694,"w663":0.41105425357818604,"w11":0.4588656723499298,"w1044":0.18422310054302216,"w6":0.36456868052482605,"w26":0.17071941494941711,"w686":0.1494952142238617,"w9":0.1536671668291092,"w286":-0.07569213956594467,"w975":0.04039432853460312,"w456":0.5781916975975037,"w564":0.1731625497341156,"w157":0.4308775067329407,"w635":0.29913702607154846,"w510":0.2268727570772171,"w552":-0.024500982835888863,"w509":0.24012699723243713,"w727":0.2885458469390869,"w5":0.04794614389538765,"w159":0.33248981833457947,"w154":0.34612634778022766,"w156":0.1310221254825592,"w813":-0.12440968304872513,"w27":0.1635996699333191,"w495":-0.024416672065854073,"w636":-0.1613965630531311,"w1058":-0.0430762879550457,"w455":0.09764507412910461,"w891":-0.28890007734298706,"w317":0.040016286075115204,"w1059":-0.26727160811424255,"w1060":-0.319772869348526,"w1057":-0.3115614354610443,"w1056":-0.21879151463508606,"w461":0.16635075211524963,"w647":-0.4081931412220001,"w215":-0.3498893976211548,"w124":-0.04648840054869652,"w886":0.06827206164598465,"w306":0.09687317907810211,"w565":-0.07983644306659698,"w1162":-0.15593315660953522,"w275":0.04829167202115059,"w417":-0.13029277324676514,"w839":-0.15822890400886536,"w161":0.06327412277460098,"w671":-0.14240367710590363,"w841":0.22882264852523804,"w910":0.19276666641235352,"w974":0.062161512672901154,"w854":-0.03323523700237274,"w150":0.162980854511261,"w659":0.04953831061720848,"w837":0.046096496284008026,"w843":0.17881515622138977,"w844":-0.08398877084255219,"w838":0.0021120915189385414,"w822":-0.12088027596473694,"w116":-0.06507724523544312,"w570":-0.28829842805862427,"w39":-0.0752451941370964,"w723":-0.19471116364002228,"w665":-0.020854581147432327,"w664":0.11329291015863419,"w72":0.20165129005908966,"w842":0.02229902520775795,"w840":0.029541462659835815,"w295":0.2572465240955353,"w581":0.16308201849460602,"w367":-0.12643711268901825,"w479":-0.016981227323412895,"w37":-0.09843236207962036,"w1121":-0.05758765712380409,"w973":-0.19974331557750702,"w1101":-0.17001086473464966,"w501":-0.2089643031358719,"w1050":0.034085713326931,"w40":-0.2156054973602295,"w38":0.029789503663778305,"w41":0.01963084749877453,"w678":-0.034025050699710846,"w12":0.10598167032003403,"w703":0.08627869188785553,"w437":0.30684149265289307,"w447":0.2594810724258423,"w695":0.1293005794286728,"w145":0.2516162097454071,"w326":0.3763588070869446,"w28":0.06875795125961304,"w1167":0.2762051224708557,"w415":0.10459551960229874,"w694":-0.033258069306612015,"w418":0.25938794016838074,"w57":0.29405421018600464,"w147":0.17704054713249207,"w1127":0.2786218523979187,"w985":0.3131360113620758,"w441":0.3453691899776459,"w453":0.2545931041240692,"w439":0.04748049005866051,"w449":0.04768930375576019,"w454":-0.049328457564115524,"w681":0.15950824320316315,"w389":0.22480334341526031,"w984":-0.045480046421289444,"w457":0.24072112143039703,"w458":0.04194698855280876,"w448":0.11797194927930832,"w470":0.005098664667457342,"w438":-0.07340191304683685,"w440":0.1601690948009491,"w297":0.02518119104206562,"w301":-0.07333500683307648,"w175":-0.27895158529281616,"w151":-1.22104811668396,"w657":-0.3078768253326416,"w405":-1.1307052373886108,"w904":-0.8120273351669312,"w997":-0.0846274346113205,"w166":-0.6636525392532349,"w1002":-0.5767145156860352,"w43":-0.577398955821991,"w174":-0.05972536280751228,"w732":-0.02183840051293373,"w660":-0.0032165059819817543,"w152":-0.2196323573589325,"w153":-0.4637506306171417,"w409":-0.28360557556152344,"w1161":0.2079658955335617,"w167":-0.14677457511425018,"w576":-0.02768620103597641,"w411":-0.09352564811706543,"w998":-0.11235979199409485,"w768":-0.18962392210960388,"w745":-0.1367442011833191,"w929":-0.07159653306007385,"w1029":-0.04860241711139679,"w342":-0.28639721870422363,"w948":0.11165390908718109,"w1089":-0.06653737276792526,"w403":0.03188500180840492,"w575":-0.16133815050125122,"w264":-0.11441110074520111,"w1025":1.0718296766281128,"w614":-0.14574944972991943,"w921":0.49888676404953003,"w265":0.2702583968639374,"w1034":0.2625555396080017,"w1036":-0.03852096199989319,"w1079":-0.09240856766700745,"w1039":0.2786303460597992,"w1026":0.07928818464279175,"w1033":0.06829316914081573,"w1022":0.0474044606089592,"w55":0.474854975938797,"w443":-0.10805795341730118,"w1069":0.17809727787971497,"w1120":0.11274910718202591,"w631":-0.05581645667552948,"w413":0.2346283197402954,"w1071":0.08735650777816772,"w829":-0.019532350823283195,"w444":0.2595544159412384,"w1028":0.22538365423679352,"w1027":0.2543330788612366,"w1035":0.2956354320049286,"w512":-0.3441353738307953,"w572":-0.00864286907017231,"w196":-0.0862051323056221,"w642":-0.04152169078588486,"w429":-0.15551505982875824,"w76":-0.05789080262184143,"w511":-0.04055777192115784,"w513":-0.13069087266921997,"w1008":-0.0397062674164772,"w423":0.12057530134916306,"w708":-0.3396434187889099,"w538":-0.24841873347759247,"w1051":0.07690329849720001,"w433":-0.19526538252830505,"w134":-0.15027983486652374,"w1003":-0.16475272178649902,"w304":0.06039175018668175,"w709":0.028610698878765106,"w728":-0.14231304824352264,"w432":-0.15154871344566345,"w1094":0.04604516178369522,"w1063":-0.010560933500528336,"w402":0.0037106124218553305,"w407":0.08640649169683456,"w760":0.28398701548576355,"w483":0.19688639044761658,"w556":0.03295934572815895,"w658":0.1819876879453659,"w549":0.004862353205680847,"w548":-0.04653406888246536,"w656":-0.21237415075302124,"w346":0.03685730695724487,"w654":-0.2575215697288513,"w169":-0.04808101803064346,"w339":0.17893069982528687,"w793":0.08391303569078445,"w537":-0.14735540747642517,"w596":-0.08856078237295151,"w383":0.06800401955842972,"w1085":-0.029012635350227356,"w214":-0.2233520895242691,"w653":0.06808802485466003,"w468":0.2501920163631439,"w8":0.1814807504415512,"w216":-0.052742116153240204,"w1086":0.21447831392288208,"w217":0.1568903923034668,"w1098":-0.1946958750486374,"w484":-0.1931823045015335,"w292":-0.20572644472122192,"w875":-0.31311750411987305,"w227":-0.2822556793689728,"w332":-0.07707487791776657,"w826":-0.20638543367385864,"w325":0.17586839199066162,"w291":-0.2506808042526245,"w388":0.10647651553153992,"w324":0.14079013466835022,"w229":-0.07186971604824066,"w226":0.081845223903656,"w874":-0.06294389814138412,"w792":-0.21140313148498535,"w366":0.14584271609783173,"w674":-0.16815131902694702,"w242":0.15622970461845398,"w32":-0.05012129247188568,"w1030":-0.09853654354810715,"w378":-0.039992302656173706,"w1141":0.0005966309108771384,"w462":0.17497844994068146,"w0":0.25829535722732544,"w1139":0.07711228728294373,"w770":0.04264301061630249,"w676":0.5204958915710449,"w523":0.09270671755075455,"w300":0.30883464217185974,"w233":0.19704195857048035,"w759":-0.16473005712032318,"w7":-0.21810555458068848,"w245":-0.191079780459404,"w239":-0.22671961784362793,"w78":-0.14230583608150482,"w221":-0.492768257856369,"w184":0.2452401965856552,"w996":0.05261966958642006,"w1040":0.05046435073018074,"w1164":0.0573074035346508,"w836":-0.14471563696861267,"w307":0.18350832164287567,"w241":-0.10996122658252716,"w577":0.17846637964248657,"w1102":-0.16838125884532928,"w331":0.16302554309368134,"w118":0.0356302447617054,"w296":-0.09347071498632431,"w220":0.1951732337474823,"w1097":-0.39877939224243164,"w327":0.12642350792884827,"w348":0.04842883720993996,"w633":-0.06269210577011108,"w1064":0.09784731268882751,"w1148":0.05363045260310173,"w876":-0.04396204277873039,"w1166":-0.061864785850048065,"w1140":0.11791496723890305,"w673":0.020111775025725365,"w1065":-0.016205672174692154,"w982":-0.11344761401414871,"w1150":-0.19097863137722015,"w1049":-0.04190028831362724,"w569":-0.18685783445835114,"w249":-0.37539055943489075,"w1155":-0.627562403678894,"w645":-0.24950559437274933,"w250":-0.03552498668432236,"w248":-0.10548993945121765,"w251":-0.42041996121406555,"w646":-0.03129709139466286,"w336":-0.26868948340415955,"w271":-0.05213375389575958,"w58":-0.08876759558916092,"w1110":-0.2623409330844879,"w463":-0.10190381854772568,"w872":0.037011437118053436,"w1011":0.007037633564323187,"w763":-0.16370023787021637,"w765":0.0795828178524971,"w758":-0.18544098734855652,"w1119":-0.06752979755401611,"w672":0.02364589273929596,"w133":0.11871497333049774,"w259":0.15527741611003876,"w934":0.08541285246610641,"w30":-0.03604493662714958,"w311":-0.13130837678909302,"w711":0.14473620057106018,"w729":0.13252834975719452,"w935":0.18351705372333527,"w31":-0.14906202256679535,"w305":0.1183457002043724,"w369":0.08592596650123596,"w14":0.16191740334033966,"w89":0.22778542339801788,"w852":0.15875060856342316,"w769":0.11270695179700851,"w798":-0.01172709185630083,"w797":-0.12142778187990189,"w108":0.052812255918979645,"w588":-0.1368960440158844,"w865":0.19246454536914825,"w93":-0.0813136100769043,"w507":0.07806116342544556,"w1021":-0.00952955149114132,"w1153":0.171049103140831,"w954":-0.2931380867958069,"w953":-0.07999122142791748,"w983":0.08157646656036377,"w53":-0.08726709336042404,"w850":-0.027333945035934448,"w612":-0.20276284217834473,"w536":-0.1747390478849411,"w851":-0.03492511808872223,"w234":-0.12912578880786896,"w1165":0.04304440692067146,"w920":0.6865658760070801,"w823":0.31721946597099304,"w666":0.5185517072677612,"w824":-0.09719038754701614,"w293":0.16276782751083374,"w742":0.17255663871765137,"w1054":0.2817682921886444,"w988":0.2802685499191284,"w36":-0.026921307668089867,"w825":0.22083254158496857,"w906":0.3569304049015045,"w1046":0.035777658224105835,"w897":0.7956075668334961,"w165":0.24287670850753784,"w598":0.165558323264122,"w574":0.15797404944896698,"w776":0.13517265021800995,"w579":-0.08129537105560303,"w917":0.13262923061847687,"w939":0.23063907027244568,"w896":0.06229446455836296,"w898":0.2654061019420624,"w893":0.11159420758485794,"w578":0.31736820936203003,"w1145":0.2546292543411255,"w412":0.1597961187362671,"w689":-0.33087819814682007,"w930":-0.028273141011595726,"w186":-0.24891644716262817,"w1177":-0.19020208716392517,"w684":-0.21114690601825714,"w690":-0.13451962172985077,"w682":0.10631481558084488,"w916":-0.11764360964298248,"w1087":-0.31455254554748535,"w746":-0.098500557243824,"w952":0.0008481076802127063,"w434":-0.09047936648130417,"w951":-0.22827917337417603,"w936":-0.1152229979634285,"w231":0.15404269099235535,"w977":-0.011753300204873085,"w959":0.032140668481588364,"w451":0.08500023931264877,"w989":-0.09432315081357956,"w362":-0.05158533155918121,"w139":-0.08051968365907669,"w372":0.045593585819005966,"w661":-0.2330864518880844,"w452":0.07056650519371033,"w713":0.04931006580591202,"w187":-0.1999674290418625,"w639":0.08314072340726852,"w374":-0.1115354374051094,"w117":-0.17590659856796265,"w84":0.08161617070436478,"w375":-0.16911381483078003,"w42":0.11335248500108719,"w1005":-0.19480663537979126,"w358":-0.01610667072236538,"w163":0.18884597718715668,"w19":-0.08249285817146301,"w105":-0.1428556889295578,"w772":-0.13994330167770386,"w181":0.004770209081470966,"w79":0.12213007360696793,"w771":0.09365826845169067,"w179":-0.1455024629831314,"w583":-0.1115664392709732,"w835":0.07167466729879379,"w435":-0.20398183166980743,"w180":-0.15002930164337158,"w208":-0.04283694550395012,"w786":0.08256859332323074,"w890":0.015384628437459469,"w889":0.2608221471309662,"w77":0.15218810737133026,"w357":0.027455052360892296,"w34":-0.06641879677772522}},"2":{"bias":-0.034302160143852234,"weights":{"w738":-0.1439075618982315,"w1137":-0.49134013056755066,"w408":0.7381757497787476,"w195":0.03248137608170509,"w401":0.06792095303535461,"w1107":0.11966720223426819,"w71":0.1259690672159195,"w784":0.32442566752433777,"w1168":-0.09793436527252197,"w185":-0.4221780598163605,"w47":0.08891767263412476,"w140":-0.0973614975810051,"w46":0.3108714520931244,"w933":-0.2829473316669464,"w359":0.1739313304424286,"w338":-0.036045052111148834,"w485":0.2641740143299103,"w1077":0.20753926038742065,"w397":-0.03761187195777893,"w544":-0.2878637909889221,"w531":0.3429259657859802,"w542":-0.056915171444416046,"w1178":-0.03872895985841751,"w990":0.0721958801150322,"w592":0.03398548439145088,"w400":0.10094130039215088,"w526":-0.08918542414903641,"w1147":0.15961362421512604,"w1135":0.18272890150547028,"w704":0.2858562767505646,"w469":0.014748864807188511,"w741":0.18678244948387146,"w685":-0.030090870335698128,"w502":-0.11618823558092117,"w419":0.0021144673228263855,"w474":0.12639220058918,"w1124":-0.12116212397813797,"w1173":0.825201153755188,"w957":0.2554481625556946,"w173":-0.19416271150112152,"w960":-0.07133644074201584,"w918":-0.149424746632576,"w573":-0.2852212190628052,"w285":-0.030527357012033463,"w873":0.3477442264556885,"w309":-0.10676024854183197,"w559":0.1110125333070755,"w1138":-0.17667779326438904,"w1136":-0.4241628646850586,"w543":-0.14513395726680756,"w945":0.18349848687648773,"w492":-0.23321235179901123,"w767":0.1948099136352539,"w504":-0.11127215623855591,"w737":-0.03302723914384842,"w560":0.007610044442117214,"w252":0.00011103165161330253,"w141":-0.30546194314956665,"w114":-0.1941615790128708,"w987":-0.10841294378042221,"w530":-0.008045208640396595,"w273":-0.04204637184739113,"w21":-0.11262457817792892,"w528":0.1767977774143219,"w172":-0.07184547930955887,"w1175":0.2794571816921234,"w1172":0.38827502727508545,"w1176":0.18108966946601868,"w1174":0.3237181007862091,"w1130":0.1741272211074829,"w1106":-0.11834259331226349,"w253":0.06458420306444168,"w420":-0.14040564000606537,"w320":-0.004353119991719723,"w535":0.11281958222389221,"w597":0.09923718124628067,"w739":0.07113627344369888,"w902":0.6218289136886597,"w688":-0.41636985540390015,"w780":0.06747721880674362,"w946":-0.04977257549762726,"w1006":0.06549853086471558,"w864":0.009752674028277397,"w611":-0.04912890866398811,"w1091":-0.25705957412719727,"w377":-0.12749327719211578,"w355":0.5533118844032288,"w194":0.12931697070598602,"w1076":0.130537211894989,"w218":0.35572731494903564,"w644":0.25125452876091003,"w1062":0.034909963607788086,"w1109":-0.04536312818527222,"w947":0.08432422578334808,"w1075":0.1548219919204712,"w1105":0.11832183599472046,"w270":0.5468607544898987,"w380":0.1754644811153412,"w268":0.26554784178733826,"w650":-0.24516604840755463,"w541":-0.040643610060214996,"w907":0.13942158222198486,"w269":-0.005395881365984678,"w680":-0.16345733404159546,"w1055":0.07266110926866531,"w385":-0.12493287771940231,"w20":0.02820901945233345,"w189":-0.5641551613807678,"w100":-0.556285560131073,"w995":-0.22052018344402313,"w879":0.06812544912099838,"w190":-0.10737669467926025,"w191":0.0037900444585829973,"w143":-0.20743459463119507,"w431":-0.39238762855529785,"w142":-0.1436183899641037,"w335":-0.5841104388237,"w817":-0.8332556486129761,"w901":0.2954757511615753,"w91":0.0023041153326630592,"w715":-0.19099058210849762,"w834":0.11699996888637543,"w753":-0.2086126059293747,"w832":-0.06999097764492035,"w994":0.06575451046228409,"w1032":-0.007762436289340258,"w288":0.31192097067832947,"w599":-0.06865766644477844,"w775":0.06096412613987923,"w1093":-0.008891469798982143,"w632":-0.019943831488490105,"w1125":-0.12608850002288818,"w970":-0.08031482249498367,"w460":-0.06859228760004044,"w387":-0.13795596361160278,"w228":0.1515241414308548,"w1152":-0.33855485916137695,"w80":0.2047368437051773,"w796":0.1982869654893875,"w736":0.43378838896751404,"w777":-0.0651286244392395,"w149":-0.19520509243011475,"w232":0.03152834624052048,"w568":-0.07712146639823914,"w863":0.1757918745279312,"w83":-0.12044814229011536,"w778":0.08715102821588516,"w698":0.08878524601459503,"w1122":0.057364072650671005,"w679":0.06790780276060104,"w1084":0.16071045398712158,"w699":0.0038256202824413776,"w1149":-0.03220057487487793,"w1144":0.004714509937912226,"w1009":-0.09269538521766663,"w1171":-0.025358092039823532,"w1066":-0.14963163435459137,"w534":0.01434312853962183,"w561":0.08015909045934677,"w884":0.11298223584890366,"w1067":-0.18846797943115234,"w692":-0.1825527399778366,"w1169":-0.08160358667373657,"w696":-0.07837363332509995,"w51":0.07586950063705444,"w494":-0.13068453967571259,"w623":-0.04604216665029526,"w1070":0.022231033071875572,"w551":-0.08405263721942902,"w99":-0.1867743730545044,"w867":0.011793761514127254,"w828":0.178205668926239,"w74":-0.1567005068063736,"w104":0.18279322981834412,"w1146":0.04566360265016556,"w807":0.1240224689245224,"w334":0.19208966195583344,"w1031":0.2027992159128189,"w940":0.10660090297460556,"w33":0.08570881187915802,"w59":-0.058255527168512344,"w489":0.1500443071126938,"w493":0.06838025152683258,"w442":0.09367288649082184,"w200":-0.2552754282951355,"w622":0.04727482795715332,"w170":-0.07152634114027023,"w883":-0.08017023652791977,"w343":0.17737877368927002,"w62":0.1030326560139656,"w445":-0.05878317728638649,"w459":0.16953568160533905,"w446":-0.024584462866187096,"w416":0.13585805892944336,"w522":0.12421872466802597,"w1099":0.003856817726045847,"w533":0.11466891318559647,"w887":0.16218385100364685,"w45":-0.2821873724460602,"w414":-0.33895137906074524,"w404":0.12428192794322968,"w508":0.14493650197982788,"w1142":-0.10311990976333618,"w294":-0.054785676300525665,"w712":0.09820149093866348,"w1157":-0.13476261496543884,"w92":0.09898342937231064,"w22":-0.03704821318387985,"w914":0.15087561309337616,"w107":-0.20960040390491486,"w122":-0.026245182380080223,"w23":0.07810495793819427,"w525":0.06421680748462677,"w70":0.058424096554517746,"w938":0.0668213963508606,"w490":0.06299000978469849,"w617":-0.07947546988725662,"w63":-0.03693085536360741,"w329":-0.06052175164222717,"w641":0.1484324336051941,"w13":0.049459829926490784,"w773":0.13845394551753998,"w518":-0.02689082734286785,"w555":0.0043523283675313,"w310":-0.04582330211997032,"w882":0.19605502486228943,"w726":-0.14961500465869904,"w341":-0.05836355313658714,"w138":-0.10946204513311386,"w691":-0.0234756451100111,"w240":0.511673092842102,"w1024":-0.09012038260698318,"w683":0.1159207746386528,"w1170":-0.0944516509771347,"w972":-0.19979512691497803,"w303":-0.10866199433803558,"w1100":-0.0019527339609339833,"w477":-0.08705296367406845,"w976":0.12573443353176117,"w109":-0.08055690675973892,"w752":-0.1804628223180771,"w106":-0.04779984802007675,"w693":-0.03294810280203819,"w16":0.07917781174182892,"w394":-0.05961915850639343,"w1159":0.09535323828458786,"w1072":-0.01952597312629223,"w467":-0.0813513919711113,"w340":0.03619830682873726,"w277":0.0268037561327219,"w1068":-0.053099893033504486,"w747":-0.08193235099315643,"w381":-0.18616443872451782,"w132":0.1266486495733261,"w717":-0.20606288313865662,"w999":0.04263754189014435,"w96":-0.1230802908539772,"w532":0.05898009240627289,"w1041":-0.2832764685153961,"w1128":-0.05725988745689392,"w466":0.2404833436012268,"w1017":-0.03728872910141945,"w762":0.2540430724620819,"w857":0.0730699822306633,"w450":0.4785827100276947,"w382":-0.05626818910241127,"w261":-0.07543454319238663,"w1083":-0.07662869989871979,"w146":0.1915314793586731,"w44":-0.12317255139350891,"w127":-0.031058598309755325,"w478":-0.03807903081178665,"w722":-0.0992741510272026,"w126":0.09086188673973083,"w818":0.010447134263813496,"w465":0.19637928903102875,"w319":-0.1522354632616043,"w491":0.10515721887350082,"w1043":-0.16734597086906433,"w345":-0.0753539651632309,"w128":-0.0451798290014267,"w129":0.00024931281222961843,"w121":0.07206723839044571,"w376":-0.09168164432048798,"w428":0.011442338116466999,"w706":0.25334662199020386,"w384":-0.10797815769910812,"w540":-0.06620467454195023,"w584":-0.06166815385222435,"w130":0.09022944420576096,"w627":0.07779267430305481,"w527":0.03127043694257736,"w880":-0.18885229527950287,"w618":0.0859484001994133,"w719":0.13475443422794342,"w302":0.06160353496670723,"w677":0.13728067278862,"w539":-0.005122782662510872,"w344":0.13782532513141632,"w562":0.21377795934677124,"w1081":-0.09614301472902298,"w183":0.1373589187860489,"w197":-0.20295655727386475,"w298":0.19183319807052612,"w1047":0.5905005931854248,"w881":-0.01974605955183506,"w877":0.024583725258708,"w347":-0.04998098686337471,"w148":-0.019794728606939316,"w274":0.18419787287712097,"w123":0.351752907037735,"w986":0.007744884118437767,"w210":0.030517585575580597,"w427":-0.10153497755527496,"w1096":0.26101556420326233,"w981":-0.0007715477258898318,"w425":-0.07892578095197678,"w290":0.010688249953091145,"w545":-0.04390506446361542,"w330":0.2501145303249359,"w1154":0.08497435599565506,"w426":0.0833587646484375,"w424":0.12655796110630035,"w15":0.4852229356765747,"w279":0.5903835296630859,"w333":0.00852486677467823,"w1104":0.2583995461463928,"w791":0.0704447329044342,"w168":-0.09908351302146912,"w757":0.37645262479782104,"w182":0.2224240005016327,"w312":-0.04841107875108719,"w313":-0.1460847705602646,"w827":-0.1617818921804428,"w50":-0.13403698801994324,"w700":-0.08154565840959549,"w480":-0.14167241752147675,"w652":-0.07090737670660019,"w625":0.005509368143975735,"w1088":-0.21572118997573853,"w571":0.22841648757457733,"w750":0.17517752945423126,"w593":0.00808792095631361,"w626":-0.1507604420185089,"w905":0.18188995122909546,"w1160":-0.02615056186914444,"w205":-0.044122569262981415,"w113":-0.10826907306909561,"w590":-0.06406021118164062,"w651":0.10858158767223358,"w1103":-0.09529700875282288,"w299":0.02063455991446972,"w589":0.1033395305275917,"w112":-0.13024035096168518,"w131":0.10543554276227951,"w371":0.0399785153567791,"w225":0.25125494599342346,"w160":0.3354659080505371,"w894":0.2959062457084656,"w517":-0.2587137520313263,"w649":0.19703832268714905,"w54":0.12046954780817032,"w1092":0.0019248530734330416,"w328":0.13380461931228638,"w710":0.3434661030769348,"w648":-0.06927789002656937,"w519":0.19521209597587585,"w321":0.14743094146251678,"w29":0.1107407808303833,"w779":0.1469798982143402,"w1074":-0.07852014899253845,"w1151":-0.37308284640312195,"w315":0.0004258367989677936,"w991":0.14943401515483856,"w25":0.1661098599433899,"w207":0.0857522264122963,"w67":-0.2538205087184906,"w705":0.11763156950473785,"w892":0.05727517977356911,"w911":-0.04769419506192207,"w176":-0.06148150935769081,"w731":-0.7201141715049744,"w282":-0.5547711253166199,"w283":-0.32475847005844116,"w209":0.06805212795734406,"w966":-0.9302708506584167,"w244":-0.22725138068199158,"w120":-0.2251620888710022,"w144":-0.11259271949529648,"w794":-0.22725693881511688,"w567":-0.02451166883111,"w925":-0.6355708837509155,"w993":-0.1607906073331833,"w260":-0.2826797366142273,"w110":-0.01990823820233345,"w766":-0.08563204109668732,"w621":0.012641966342926025,"w550":-0.12211841344833374,"w547":-0.6925935745239258,"w814":-0.1710597276687622,"w206":-0.12357441335916519,"w506":-0.12793494760990143,"w932":0.05079802870750427,"w505":0.0907059982419014,"w724":0.30512675642967224,"w60":-0.08712593466043472,"w924":-0.1973789632320404,"w926":-0.31173980236053467,"w927":-0.1504700928926468,"w919":-0.10500769317150116,"w406":-0.11213435232639313,"w856":0.270815372467041,"w830":0.1454816460609436,"w860":-0.3111813962459564,"w861":0.48660901188850403,"w859":0.18845155835151672,"w858":0.5539697408676147,"w937":0.5940574407577515,"w370":-0.21549665927886963,"w73":0.20292550325393677,"w422":-0.18001194298267365,"w604":-1.081555724143982,"w895":-0.2946989834308624,"w675":-0.2471967488527298,"w903":-0.9170637130737305,"w964":-0.16884468495845795,"w69":-0.11627444624900818,"w497":0.05698585510253906,"w609":-0.4601931869983673,"w899":0.019336072728037834,"w608":-0.5102629065513611,"w243":-0.040951989591121674,"w624":-0.1050037369132042,"w500":-0.10318595916032791,"w634":0.12647852301597595,"w878":0.0006430502980947495,"w668":0.1760486215353012,"w733":-0.12443988025188446,"w605":-0.0860724225640297,"w481":-0.53001868724823,"w1112":0.31666263937950134,"w68":0.4789190888404846,"w125":-0.24254503846168518,"w950":-0.00498767476528883,"w628":0.35129064321517944,"w616":-0.01877901889383793,"w1020":-0.3556932806968689,"w949":0.18268327414989471,"w1180":-0.21634967625141144,"w65":0.29428088665008545,"w821":-0.03623124212026596,"w88":0.0211187694221735,"w64":-0.19683927297592163,"w86":0.08092289417982101,"w87":0.08761844038963318,"w1037":0.20723284780979156,"w615":0.008219490759074688,"w164":0.02640541084110737,"w436":-0.036769766360521317,"w802":-0.21608996391296387,"w1111":-0.12402844429016113,"w1113":-0.16836118698120117,"w1114":-0.009193262085318565,"w1038":-0.01879829540848732,"w66":0.054839856922626495,"w638":-0.09980791807174683,"w980":-0.18428291380405426,"w35":-0.04916638880968094,"w498":-0.10205962508916855,"w815":0.17819395661354065,"w499":-0.0735531747341156,"w790":-0.07149798423051834,"w942":0.222267284989357,"w931":0.08908800035715103,"w524":0.3528798520565033,"w246":0.36051446199417114,"w923":0.01996072195470333,"w816":0.07099169492721558,"w831":0.4622718095779419,"w267":0.44820913672447205,"w393":0.29210957884788513,"w619":0.42078834772109985,"w941":0.22481583058834076,"w158":-0.5729613304138184,"w1117":-0.5199053287506104,"w720":-0.37718310952186584,"w955":-1.213940143585205,"w284":-0.5435366630554199,"w1012":-0.5047633647918701,"w350":0.24078519642353058,"w337":0.10045844316482544,"w740":-0.06463561207056046,"w730":0.016301186755299568,"w754":0.16866551339626312,"w213":0.07316680997610092,"w756":-0.054068684577941895,"w1001":-0.3046938478946686,"w629":-0.022576069459319115,"w52":-0.19358889758586884,"w1156":-0.015996987000107765,"w1115":-0.27299371361732483,"w193":-0.14883241057395935,"w1013":-0.5572784543037415,"w496":-0.20409026741981506,"w799":0.045868124812841415,"w316":-0.30351218581199646,"w862":-0.09065248817205429,"w94":0.07019362598657608,"w379":-0.08229102939367294,"w1053":-0.09293011575937271,"w783":-0.038840848952531815,"w782":-0.22213323414325714,"w781":0.01490129716694355,"w212":0.18271294236183167,"w594":0.14697854220867157,"w922":0.04673011973500252,"w563":0.3264091908931732,"w755":-0.07720400393009186,"w788":0.029503583908081055,"w789":0.2678515613079071,"w587":-0.014189560897648335,"w595":0.06676605343818665,"w810":0.21876059472560883,"w1073":-0.11784058809280396,"w582":-0.09121667593717575,"w979":-0.010747331194579601,"w944":-0.13035225868225098,"w687":0.087079718708992,"w410":-0.16326329112052917,"w464":-0.09957457333803177,"w610":-0.15774321556091309,"w833":-0.15562623739242554,"w24":-0.1339576095342636,"w978":0.2321152240037918,"w702":0.12886454164981842,"w630":0.003953427076339722,"w869":-0.7197126150131226,"w764":-0.7574754357337952,"w421":-0.556240975856781,"w868":-0.32227087020874023,"w967":-0.08154074847698212,"w968":-0.38742774724960327,"w965":-0.3777214586734772,"w101":-0.07949213683605194,"w1163":0.16993148624897003,"w318":-0.10245303064584732,"w17":-0.3483431041240692,"w871":-0.33802831172943115,"w1052":0.5994179248809814,"w900":0.7335787415504456,"w514":-0.02892189659178257,"w98":0.5170193910598755,"w721":0.16274036467075348,"w643":-0.014467197470366955,"w289":0.3455260694026947,"w482":0.14363762736320496,"w472":-0.08186578005552292,"w1019":0.0744040384888649,"w1018":-0.19240207970142365,"w1078":-0.002573707839474082,"w811":0.12276977300643921,"w390":0.0018078956054523587,"w97":-0.025603460147976875,"w224":0.1939868927001953,"w223":0.09768415242433548,"w356":0.35394325852394104,"w701":0.014317022636532784,"w314":-0.03138454630970955,"w697":-0.07715199142694473,"w162":0.11455714702606201,"w280":-0.6465336084365845,"w956":-0.06149067357182503,"w281":-0.5052178502082825,"w363":-0.6530669927597046,"w667":0.0930057018995285,"w61":-0.05171028897166252,"w82":-0.1803281307220459,"w204":-0.08918754756450653,"w607":-0.19510942697525024,"w222":-0.1265985369682312,"w364":-0.23243291676044464,"w352":-0.4767639636993408,"w743":-0.11114145815372467,"w529":-0.2007974237203598,"w516":0.12974515557289124,"w1045":0.03373800218105316,"w866":0.08670459687709808,"w256":-0.4102541506290436,"w323":-0.13510064780712128,"w846":-0.4249457120895386,"w1061":-0.23556719720363617,"w322":-0.05632041394710541,"w734":0.09985784441232681,"w606":0.07065916806459427,"w558":0.02398202195763588,"w257":-0.06374872475862503,"w255":-0.04940367117524147,"w430":-0.04158151149749756,"w1090":-0.22539135813713074,"w620":0.14675113558769226,"w272":0.053324732929468155,"w211":-0.2100619673728943,"w586":0.1699487566947937,"w928":0.039722293615341187,"w360":-0.05097799375653267,"w761":-0.2645495533943176,"w396":0.07972034811973572,"w962":0.3666538894176483,"w853":0.09416689723730087,"w855":0.041572701185941696,"w1158":0.26233506202697754,"w178":-0.04980836808681488,"w961":0.017017140984535217,"w247":0.18547914922237396,"w398":0.2002575397491455,"w963":-0.0031054154969751835,"w395":-0.16488470137119293,"w171":0.1853604018688202,"w1082":0.16626718640327454,"w201":0.0765547901391983,"w888":0.032519105821847916,"w198":-0.027053603902459145,"w203":-0.060887813568115234,"w354":0.19225648045539856,"w958":0.02490116097033024,"w808":-0.14666242897510529,"w845":-0.09939422458410263,"w1095":-0.0804668441414833,"w202":0.012668076902627945,"w744":-0.0765196904540062,"w803":-0.10779716819524765,"w809":0.07303642481565475,"w111":-0.1053156703710556,"w908":0.32357022166252136,"w992":0.09425963461399078,"w804":0.03813144564628601,"w391":0.18545281887054443,"w349":0.12581215798854828,"w785":-0.07179958373308182,"w805":0.11021826416254044,"w566":0.05477450042963028,"w1004":-0.12729667127132416,"w725":-0.27871981263160706,"w718":-0.13656364381313324,"w670":0.18415847420692444,"w487":-0.01618400774896145,"w258":0.11447087675333023,"w749":-0.060149744153022766,"w486":0.1041540876030922,"w488":0.11213652044534683,"w716":-0.11333388090133667,"w912":-0.10115795582532883,"w800":-0.045044995844364166,"w748":-0.18990002572536469,"w515":0.09895621240139008,"w262":0.11791834235191345,"w263":0.11226056516170502,"w600":-0.020547932013869286,"w601":-0.034356169402599335,"w969":-0.035364266484975815,"w913":-0.2135157734155655,"w909":0.11057694256305695,"w602":0.19692280888557434,"w81":0.052009664475917816,"w373":0.1943703293800354,"w1108":-0.15115410089492798,"w971":-0.08316430449485779,"w308":-0.2954706847667694,"w1116":-0.09694038331508636,"w1118":0.02585672028362751,"w475":0.030120184645056725,"w192":-0.1844715178012848,"w199":-0.02349114418029785,"w801":0.14184626936912537,"w795":-0.04724336788058281,"w1014":-0.02903132699429989,"w1016":0.05497950688004494,"w1015":-0.002969723893329501,"w591":0.06622287631034851,"w915":0.14516228437423706,"w188":-0.05700184404850006,"w102":0.11793240904808044,"w1179":0.15920600295066833,"w137":-0.01593657210469246,"w136":0.19033752381801605,"w1007":0.05135241523385048,"w585":0.1440241038799286,"w870":-0.006112280767410994,"w135":0.15780825912952423,"w640":0.18098829686641693,"w278":0.15680193901062012,"w266":-0.18596360087394714,"w580":0.09441819041967392,"w276":0.13983644545078278,"w662":0.16666965186595917,"w235":0.14010314643383026,"w714":-0.3595511019229889,"w119":-0.061166055500507355,"w353":0.03203215450048447,"w48":-0.07613855600357056,"w56":0.1659008413553238,"w254":-0.07753085345029831,"w751":-0.048932239413261414,"w1123":-0.07800199091434479,"w774":-0.12501606345176697,"w806":-0.198847234249115,"w603":0.12752966582775116,"w520":0.05291588976979256,"w361":0.13913467526435852,"w655":0.05113055557012558,"w819":0.1256376951932907,"w613":-0.11478755623102188,"w812":0.16579864919185638,"w848":-0.29193833470344543,"w177":-0.2761150002479553,"w90":-0.16535943746566772,"w847":-0.08848344534635544,"w849":0.11312049627304077,"w546":0.1564055234193802,"w476":0.17623049020767212,"w85":-0.04199657961726189,"w219":-0.12984153628349304,"w669":-0.05824245512485504,"w735":-0.05508895963430405,"w707":0.11169770359992981,"w351":-0.05650094151496887,"w392":-0.11770063638687134,"w473":-0.2687559425830841,"w18":-0.11852503567934036,"w553":0.20525828003883362,"w95":-0.14195194840431213,"w1126":-0.2038901299238205,"w885":-0.4045415222644806,"w103":-0.031140215694904327,"w1080":-0.3371298015117645,"w1129":0.19964422285556793,"w1042":-0.22470736503601074,"w557":0.1340876817703247,"w1131":0.1979195773601532,"w230":-0.11654038727283478,"w237":1.628114938735962,"w1048":0.47399380803108215,"w1000":1.0016114711761475,"w238":0.6860514283180237,"w236":0.8549566864967346,"w368":-0.20591047406196594,"w115":-0.17659687995910645,"w399":-0.0867372453212738,"w1132":-0.14355890452861786,"w637":-0.17048533260822296,"w521":0.11674828827381134,"w820":-0.27261146903038025,"w1010":-0.039438433945178986,"w471":-0.09293763339519501,"w365":-0.10463551431894302,"w75":-0.21026797592639923,"w554":0.08815167844295502,"w386":0.04424019530415535,"w1023":-0.19766786694526672,"w503":0.10505829751491547,"w1134":0.006967043504118919,"w1143":-0.21054810285568237,"w1133":0.058144278824329376,"w943":0.2287590056657791,"w10":-0.05203413963317871,"w787":-0.08807376027107239,"w49":-0.17583484947681427,"w4":-0.06477800756692886,"w155":-0.14106513559818268,"w1":-0.00040519595495425165,"w287":0.10034280270338058,"w3":-0.15996640920639038,"w2":-0.05365753918886185,"w663":0.22852207720279694,"w11":-0.15213194489479065,"w1044":-0.10667502135038376,"w6":0.17885932326316833,"w26":0.2529448866844177,"w686":0.1357729583978653,"w9":0.14372757077217102,"w286":0.0008968597394414246,"w975":0.29167357087135315,"w456":-0.03908136114478111,"w564":0.3674388825893402,"w157":0.2207271307706833,"w635":0.06808377802371979,"w510":0.13742829859256744,"w552":-0.19043204188346863,"w509":-0.09229186922311783,"w727":0.0073787071742117405,"w5":0.14870387315750122,"w159":0.16223153471946716,"w154":-0.07508271187543869,"w156":-0.08397754281759262,"w813":0.1838427633047104,"w27":0.08660224825143814,"w495":0.2171006202697754,"w636":-0.23564274609088898,"w1058":-0.1697651594877243,"w455":0.01111350953578949,"w891":-0.05359117314219475,"w317":0.2520967125892639,"w1059":0.13484607636928558,"w1060":-0.054368533194065094,"w1057":0.07990872114896774,"w1056":-0.15581545233726501,"w461":-0.08110456168651581,"w647":0.060769882053136826,"w215":-0.14118316769599915,"w124":-0.14442996680736542,"w886":0.16107474267482758,"w306":0.12881629168987274,"w565":-0.05501807481050491,"w1162":0.24266166985034943,"w275":0.27392297983169556,"w417":-0.16355331242084503,"w839":0.04122825711965561,"w161":0.22004440426826477,"w671":0.15243375301361084,"w841":0.14587926864624023,"w910":0.2829209864139557,"w974":-0.03311192989349365,"w854":0.028552355244755745,"w150":-0.12776394188404083,"w659":0.24436917901039124,"w837":0.12106259167194366,"w843":0.051448993384838104,"w844":-0.15487806499004364,"w838":0.11759422719478607,"w822":-0.011332501657307148,"w116":0.24310916662216187,"w570":-0.2401275485754013,"w39":-0.019486235454678535,"w723":-0.07072804868221283,"w665":0.06482230126857758,"w664":0.11152102798223495,"w72":0.08188246935606003,"w842":-0.18952831625938416,"w840":-0.09880125522613525,"w295":-0.04984657093882561,"w581":0.15594084560871124,"w367":-0.20459717512130737,