{"sizes":[1037,64,64,66],"layers":[{"w634":{},"w994":{},"w341":{},"w160":{},"w334":{},"w964":{},"w57":{},"w677":{},"w1024":{},"w151":{},"w41":{},"w112":{},"w40":{},"w810":{},"w297":{},"w279":{},"w410":{},"w938":{},"w330":{},"w465":{},"w452":{},"w463":{},"w1034":{},"w857":{},"w508":{},"w333":{},"w447":{},"w1004":{},"w992":{},"w603":{},"w397":{},"w637":{},"w627":{},"w993":{},"w584":{},"w426":{},"w351":{},"w401":{},"w981":{},"w256":{},"w478":{},"w995":{},"w464":{},"w821":{},"w417":{},"w661":{},"w428":{},"w633":{},"w479":{},"w209":{},"w113":{},"w95":{},"w855":{},"w451":{},"w227":{},"w19":{},"w449":{},"w1029":{},"w492":{},"w141":{},"w140":{},"w830":{},"w1031":{},"w1028":{},"w1032":{},"w1030":{},"w987":{},"w963":{},"w210":{},"w352":{},"w263":{},"w456":{},"w513":{},"w635":{},"w782":{},"w587":{},"w673":{},"w822":{},"w871":{},"w750":{},"w524":{},"w950":{},"w311":{},"w295":{},"w159":{},"w937":{},"w178":{},"w797":{},"w551":{},"w923":{},"w966":{},"w823":{},"w936":{},"w962":{},"w224":{},"w314":{},"w222":{},"w556":{},"w462":{},"w786":{},"w223":{},"w579":{},"w916":{},"w319":{},"w18":{},"w154":{},"w83":{},"w861":{},"w763":{},"w155":{},"w156":{},"w115":{},"w362":{},"w114":{},"w276":{},"w706":{},"w781":{},"w74":{},"w612":{},"w722":{},"w647":{},"w720":{},"w860":{},"w894":{},"w236":{},"w515":{},"w669":{},"w951":{},"w542":{},"w982":{},"w840":{},"w388":{},"w321":{},"w188":{},"w1008":{},"w65":{},"w688":{},"w632":{},"w671":{},"w120":{},"w191":{},"w487":{},"w749":{},"w67":{},"w672":{},"w597":{},"w979":{},"w578":{},"w945":{},"w598":{},"w1006":{},"w1001":{},"w873":{},"w1027":{},"w927":{},"w455":{},"w480":{},"w768":{},"w928":{},"w591":{},"w1025":{},"w595":{},"w43":{},"w418":{},"w535":{},"w931":{},"w470":{},"w82":{},"w752":{},"w716":{},"w60":{},"w87":{},"w1003":{},"w698":{},"w275":{},"w893":{},"w816":{},"w29":{},"w49":{},"w414":{},"w372":{},"w165":{},"w534":{},"w138":{},"w767":{},"w284":{},"w50":{},"w375":{},"w387":{},"w376":{},"w349":{},"w443":{},"w957":{},"w454":{},"w771":{},"w789":{},"w729":{},"w727":{},"w185":{},"w482":{},"w1018":{},"w229":{},"w81":{},"w32":{},"w725":{},"w731":{},"w732":{},"w726":{},"w710":{},"w97":{},"w544":{},"w489":{},"w34":{},"w620":{},"w9":{},"w567":{},"w1":{},"w566":{},"w58":{},"w730":{},"w728":{},"w243":{},"w499":{},"w304":{},"w406":{},"w555":{},"w903":{},"w775":{},"w978":{},"w843":{},"w959":{},"w425":{},"w911":{},"w35":{},"w33":{},"w36":{},"w577":{},"w78":{},"w439":{},"w11":{},"w38":{},"w130":{},"w602":{},"w335":{},"w340":{},"w654":{},"w408":{},"w421":{},"w483":{},"w919":{},"w773":{},"w383":{},"w260":{},"w101":{},"w419":{},"w546":{},"w920":{},"w921":{},"w918":{},"w917":{},"w1019":{},"w389":{},"w554":{},"w175":{},"w102":{},"w770":{},"w420":{},"w253":{},"w484":{},"w39":{},"w347":{},"w337":{},"w432":{},"w999":{},"w242":{},"w610":{},"w1013":{},"w75":{},"w20":{},"w793":{},"w90":{},"w100":{},"w21":{},"w446":{},"w56":{},"w814":{},"w415":{},"w530":{},"w51":{},"w270":{},"w549":{},"w12":{},"w667":{},"w440":{},"w474":{},"w257":{},"w766":{},"w623":{},"w282":{},"w111":{},"w590":{},"w198":{},"w886":{},"w582":{},"w1026":{},"w842":{},"w250":{},"w958":{},"w404":{},"w845":{},"w92":{},"w646":{},"w89":{},"w592":{},"w15":{},"w327":{},"w1015":{},"w933":{},"w395":{},"w281":{},"w230":{},"w929":{},"w642":{},"w315":{},"w108":{},"w614":{},"w865":{},"w79":{},"w453":{},"w985":{},"w394":{},"w880":{},"w656":{},"w743":{},"w380":{},"w316":{},"w218":{},"w944":{},"w117":{},"w104":{},"w405":{},"w619":{},"w103":{},"w707":{},"w393":{},"w262":{},"w416":{},"w905":{},"w286":{},"w105":{},"w106":{},"w99":{},"w310":{},"w359":{},"w604":{},"w318":{},"w461":{},"w502":{},"w107":{},"w537":{},"w448":{},"w764":{},"w531":{},"w616":{},"w249":{},"w576":{},"w460":{},"w285":{},"w481":{},"w942":{},"w149":{},"w162":{},"w246":{},"w908":{},"w765":{},"w761":{},"w288":{},"w119":{},"w228":{},"w854":{},"w170":{},"w358":{},"w954":{},"w849":{},"w356":{},"w238":{},"w466":{},"w271":{},"w1010":{},"w357":{},"w355":{},"w14":{},"w231":{},"w274":{},"w961":{},"w683":{},"w136":{},"w651":{},"w329":{},"w832":{},"w148":{},"w226":{},"w742":{},"w741":{},"w1014":{},"w233":{},"w42":{},"w145":{},"w831":{},"w204":{},"w331":{},"w833":{},"w328":{},"w139":{},"w943":{},"w166":{},"w158":{},"w772":{},"w557":{},"w538":{},"w163":{},"w168":{},"w294":{},"w829":{},"w695":{},"w490":{},"w733":{},"w858":{},"w325":{},"w290":{},"w640":{},"w678":{},"w696":{},"w485":{},"w870":{},"w699":{},"w953":{},"w167":{},"w694":{},"w700":{},"w94":{},"w787":{},"w757":{},"w219":{},"w622":{},"w220":{},"w516":{},"w143":{},"w517":{},"w839":{},"w792":{},"w788":{},"w44":{},"w691":{},"w518":{},"w66":{},"w309":{},"w412":{},"w644":{},"w215":{},"w615":{},"w571":{},"w411":{},"w413":{},"w613":{},"w791":{},"w643":{},"w438":{},"w307":{},"w974":{},"w972":{},"w965":{},"w841":{},"w255":{},"w973":{},"w975":{},"w402":{},"w506":{},"w876":{},"w164":{},"w692":{},"w157":{},"w687":{},"w877":{},"w879":{},"w878":{},"w507":{},"w794":{},"w153":{},"w85":{},"w450":{},"w1035":{},"w300":{},"w599":{},"w80":{},"w182":{},"w183":{},"w301":{},"w293":{},"w639":{},"w596":{},"w131":{},"w324":{},"w291":{},"w1016":{},"w913":{},"w184":{},"w296":{},"w237":{},"w600":{},"w259":{},"w882":{},"w618":{},"w211":{},"w715":{},"w645":{},"w980":{},"w213":{},"w734":{},"w264":{},"w922":{},"w477":{},"w881":{},"w939":{},"w214":{},"w212":{},"w361":{},"w949":{},"w668":{},"w697":{},"w519":{},"w441":{},"w299":{},"w560":{},"w708":{},"w526":{},"w655":{},"w702":{},"w736":{},"w144":{},"w73":{},"w735":{},"w737":{},"w630":{},"w467":{},"w403":{},"w68":{},"w179":{},"w201":{},"w570":{},"w631":{},"w605":{},"w292":{},"w509":{},"w171":{},"w533":{},"w232":{},"w503":{},"w806":{},"w298":{},"w367":{},"w377":{},"w116":{},"w267":{},"w611":{},"w25":{},"w1023":{},"w348":{},"w308":{},"w594":{},"w593":{},"w350":{},"w430":{},"w47":{},"w93":{},"w118":{},"w984":{},"w853":{},"w371":{},"w381":{},"w369":{},"w379":{},"w382":{},"w580":{},"w323":{},"w852":{},"w846":{},"w385":{},"w386":{},"w378":{},"w398":{},"w368":{},"w370":{},"w245":{},"w248":{},"w429":{},"w121":{},"w338":{},"w784":{},"w863":{},"w134":{},"w868":{},"w37":{},"w562":{},"w142":{},"w629":{},"w621":{},"w564":{},"w122":{},"w123":{},"w342":{},"w1017":{},"w135":{},"w495":{},"w344":{},"w864":{},"w662":{},"w641":{},"w807":{},"w628":{},"w891":{},"w283":{},"w824":{},"w948":{},"w608":{},"w336":{},"w494":{},"w887":{},"w221":{},"w800":{},"w527":{},"w896":{},"w898":{},"w940":{},"w901":{},"w888":{},"w895":{},"w884":{},"w46":{},"w373":{},"w930":{},"w977":{},"w541":{},"w346":{},"w932":{},"w717":{},"w374":{},"w890":{},"w889":{},"w897":{},"w400":{},"w17":{},"w472":{},"w983":{},"w769":{},"w86":{},"w941":{},"w986":{},"w904":{},"w476":{},"w988":{},"w190":{},"w909":{},"w195":{},"w866":{},"w196":{},"w194":{},"w305":{},"w96":{},"w332":{},"w989":{},"w399":{},"w302":{},"w547":{},"w442":{},"w709":{},"w61":{},"w874":{},"w473":{},"w320":{},"w885":{},"w427":{},"w991":{},"w1000":{},"w990":{},"w436":{},"w491":{},"w161":{},"w550":{},"w847":{},"w360":{},"w62":{},"w435":{},"w437":{},"w872":{},"w354":{},"w606":{},"w459":{},"w912":{},"w364":{},"w110":{},"w869":{},"w251":{},"w607":{},"w625":{},"w363":{},"w269":{},"w952":{},"w924":{},"w125":{},"w3":{},"w679":{},"w23":{},"w585":{},"w5":{},"w8":{},"w234":{},"w384":{},"w53":{},"w434":{},"w565":{},"w127":{},"w545":{},"w819":{},"w433":{},"w624":{},"w129":{},"w124":{},"w126":{},"w703":{},"w24":{},"w906":{},"w235":{},"w844":{},"w471":{},"w2":{},"w10":{},"w4":{},"w475":{},"w563":{},"w469":{},"w468":{},"w561":{},"w287":{},"w559":{},"w137":{},"w280":{},"w685":{},"w458":{},"w512":{},"w317":{},"w946":{},"w174":{},"w558":{},"w396":{},"w7":{},"w176":{},"w947":{},"w177":{},"w956":{},"w409":{},"w240":{},"w759":{},"w187":{},"w273":{},"w714":{},"w266":{},"w239":{},"w322":{},"w265":{},"w189":{},"w186":{},"w758":{},"w684":{},"w303":{},"w574":{},"w200":{},"w28":{},"w892":{},"w312":{},"w998":{},"w390":{},"w0":{},"w996":{},"w664":{},"w575":{},"w444":{},"w247":{},"w192":{},"w653":{},"w6":{},"w202":{},"w197":{},"w63":{},"w181":{},"w150":{},"w862":{},"w902":{},"w1020":{},"w724":{},"w254":{},"w199":{},"w496":{},"w960":{},"w272":{},"w98":{},"w244":{},"w180":{},"w955":{},"w268":{},"w289":{},"w543":{},"w925":{},"w1005":{},"w760":{},"w1022":{},"w997":{},"w573":{},"w926":{},"w850":{},"w1007":{},"w910":{},"w488":{},"w206":{},"w1011":{},"w552":{},"w207":{},"w205":{},"w208":{},"w553":{},"w277":{},"w225":{},"w48":{},"w967":{},"w675":{},"w748":{},"w674":{},"w172":{},"w510":{},"w313":{},"w77":{},"w801":{},"w649":{},"w680":{},"w681":{},"w504":{},"w511":{},"w701":{},"w934":{},"w500":{},"w366":{},"w820":{},"w586":{},"w343":{},"w392":{},"w523":{},"w721":{},"w22":{},"w601":{},"w540":{},"w658":{},"w836":{},"w391":{},"w755":{},"w424":{},"w756":{},"w753":{},"w899":{},"w875":{},"w657":{},"w659":{},"w652":{},"w976":{},"w572":{},"w109":{},"w900":{},"w216":{},"w84":{},"w914":{},"w811":{},"w26":{},"w258":{},"w609":{},"w626":{},"w812":{},"w27":{},"w252":{},"w306":{},"w13":{},"w72":{},"w740":{},"w663":{},"w690":{},"w689":{},"w91":{},"w505":{},"w751":{},"w76":{},"w431":{},"w883":{},"w1009":{},"w828":{},"w827":{},"w826":{},"w851":{},"w45":{},"w738":{},"w525":{},"w569":{},"w59":{},"w457":{},"w739":{},"w193":{},"w1021":{},"w799":{},"w711":{},"w568":{},"w712":{},"w676":{},"w241":{},"w638":{},"w915":{},"w856":{},"w31":{},"w713":{},"w785":{},"w907":{},"w778":{},"w133":{},"w776":{},"w514":{},"w493":{},"w670":{},"w498":{},"w796":{},"w815":{},"w777":{},"w779":{},"w774":{},"w497":{},"w1002":{},"w345":{},"w969":{},"w407":{},"w529":{},"w935":{},"w69":{},"w70":{},"w54":{},"w1036":{},"w528":{},"w71":{},"w825":{},"w132":{},"w693":{},"w968":{},"w970":{},"w971":{},"w548":{},"w848":{},"w30":{},"w422":{},"w704":{},"w423":{},"w682":{},"w203":{},"w705":{},"w445":{},"w817":{},"w326":{},"w532":{},"w719":{},"w818":{},"w588":{},"w808":{},"w152":{},"w809":{},"w1033":{},"w52":{},"w583":{},"w589":{},"w581":{},"w795":{},"w754":{},"w837":{},"w838":{},"w835":{},"w261":{},"w16":{},"w520":{},"w169":{},"w660":{},"w834":{},"w55":{},"w522":{},"w780":{},"w521":{},"w859":{},"w217":{},"w486":{},"w536":{},"w783":{},"w762":{},"w803":{},"w802":{},"w686":{},"w804":{},"w805":{},"w798":{},"w339":{},"w746":{},"w718":{},"w747":{},"w745":{},"w744":{},"w813":{},"w353":{},"w617":{},"w128":{},"w790":{},"w278":{},"w636":{},"w648":{},"w173":{},"w650":{},"w867":{},"w539":{},"w1012":{},"w88":{},"w666":{},"w147":{},"w64":{},"w665":{},"w146":{},"w501":{},"w723":{},"w365":{}},{"0":{"bias":-0.12051282078027725,"weights":{"w634":-0.3321057856082916,"w994":0.4535806477069855,"w341":-0.8061056137084961,"w160":-0.07630382478237152,"w334":-0.3558798134326935,"w964":-0.3604314923286438,"w57":0.26502472162246704,"w677":0.1324072927236557,"w1024":-0.14709800481796265,"w151":0.1802520751953125,"w41":0.10949443280696869,"w112":0.028324224054813385,"w40":-0.2577770948410034,"w810":0.11735354363918304,"w297":-0.43555474281311035,"w279":-0.20343133807182312,"w410":-0.24343164265155792,"w938":-0.17294761538505554,"w330":-0.2087600976228714,"w465":-0.13019141554832458,"w452":0.08967912197113037,"w463":-0.12385836243629456,"w1034":0.1533246636390686,"w857":0.1269754022359848,"w508":-0.14443419873714447,"w333":-0.10358797758817673,"w447":0.23816542327404022,"w1004":-0.027030205354094505,"w992":0.22538338601589203,"w603":-0.13471511006355286,"w397":0.1098751425743103,"w637":0.18023958802223206,"w627":0.06377378106117249,"w993":0.01188450027257204,"w584":-0.11102710664272308,"w426":-0.10425745695829391,"w351":0.1244421899318695,"w401":0.20568960905075073,"w981":0.030622785910964012,"w256":0.12052879482507706,"w478":0.15337221324443817,"w995":-0.0816887617111206,"w464":0.19917316734790802,"w821":-0.16750572621822357,"w417":0.0093009565025568,"w661":-0.0035426393151283264,"w428":-0.0689101368188858,"w633":0.0515957809984684,"w479":0.25302523374557495,"w209":0.22100730240345,"w113":0.263847678899765,"w95":0.03673537075519562,"w855":0.11043192446231842,"w451":0.07453794777393341,"w227":0.18858440220355988,"w19":-0.08647525310516357,"w449":0.31226563453674316,"w1029":-0.6073251366615295,"w492":0.03403007611632347,"w141":0.12760372459888458,"w140":0.1317041665315628,"w830":-0.07641171663999557,"w1031":-0.46076250076293945,"w1028":-0.13868466019630432,"w1032":-0.2070201337337494,"w1030":-0.5619156956672668,"w987":0.16580185294151306,"w963":-0.10600154101848602,"w210":0.03937140479683876,"w352":0.02480960823595524,"w263":-0.047121740877628326,"w456":-0.003289508167654276,"w513":0.19514212012290955,"w635":-0.17990978062152863,"w782":-0.3468351364135742,"w587":-0.11118726432323456,"w673":0.16400520503520966,"w822":-0.05007241666316986,"w871":-0.062293171882629395,"w750":-0.237506702542305,"w524":-0.5613451600074768,"w950":-0.3497238755226135,"w311":-0.05003788322210312,"w295":-0.3503466844558716,"w159":0.10056358575820923,"w937":0.004758481401950121,"w178":-0.21223191916942596,"w797":-0.16314302384853363,"w551":-0.10202091932296753,"w923":-0.12050565332174301,"w966":0.10965753346681595,"w823":0.2852608859539032,"w936":-0.10908263176679611,"w962":0.0598522387444973,"w224":-0.07545050978660583,"w314":0.30053070187568665,"w222":-0.07840511947870255,"w556":-0.0563942976295948,"w462":-0.21270687878131866,"w786":-0.07096034288406372,"w223":-0.0892590582370758,"w579":-0.0009746120194904506,"w916":0.08994157612323761,"w319":-0.016777293756604195,"w18":-0.20880988240242004,"w154":-0.04875583201646805,"w83":0.10436616837978363,"w861":0.13713018596172333,"w763":0.020014572888612747,"w155":0.17045122385025024,"w156":0.16649824380874634,"w115":-0.012410902418196201,"w362":0.3046044409275055,"w114":0.1364193558692932,"w276":0.23874224722385406,"w706":0.005016949959099293,"w781":0.1797424703836441,"w74":-0.04207802191376686,"w612":0.04905613884329796,"w722":0.2639511525630951,"w647":0.09812943637371063,"w720":0.2891085743904114,"w860":0.19561196863651276,"w894":-0.030896464362740517,"w236":-0.059202730655670166,"w515":0.10468341410160065,"w669":-0.1791042685508728,"w951":0.3743656575679779,"w542":-0.16768434643745422,"w982":-0.15423688292503357,"w840":-0.013662615790963173,"w388":-0.16444973647594452,"w321":0.00462956540286541,"w188":-0.11898387968540192,"w1008":0.27952858805656433,"w65":-0.1142401173710823,"w688":-0.25267648696899414,"w632":0.22389839589595795,"w671":-0.340820848941803,"w120":0.15272702276706696,"w191":-0.11860370635986328,"w487":-0.1708955317735672,"w749":-0.17964231967926025,"w67":0.03232181817293167,"w672":-0.12776467204093933,"w597":0.16443312168121338,"w979":0.04340081289410591,"w578":0.035786259919404984,"w945":0.019399946555495262,"w598":0.07189349085092545,"w1006":-0.10958309471607208,"w1001":-0.10783262550830841,"w873":-0.24269236624240875,"w1027":-0.07889284193515778,"w927":-0.4262641668319702,"w455":-0.1942383497953415,"w480":0.4033334255218506,"w768":0.07529040426015854,"w928":-0.14068491756916046,"w591":0.7150717377662659,"w1025":-0.3799613118171692,"w595":0.04640929028391838,"w43":0.03368712216615677,"w418":-0.016250699758529663,"w535":-0.25312986969947815,"w931":-0.10322611778974533,"w470":-0.19353188574314117,"w82":-0.041231464594602585,"w752":-0.284093976020813,"w716":-0.09274958074092865,"w60":-0.08464674651622772,"w87":-0.08825112879276276,"w1003":0.0060002971440553665,"w698":-0.050412122160196304,"w275":-0.17471890151500702,"w893":-0.34401628375053406,"w816":0.003802499733865261,"w29":-0.03687401860952377,"w49":-0.1916765570640564,"w414":0.06566046923398972,"w372":-0.016649279743433,"w165":-0.0736241415143013,"w534":-0.21527279913425446,"w138":-0.03868776559829712,"w767":0.11306756734848022,"w284":-0.13671837747097015,"w50":0.12028197199106216,"w375":-0.013778449967503548,"w387":-0.0036789975129067898,"w376":0.08688610047101974,"w349":0.029986053705215454,"w443":-0.25819340348243713,"w957":-0.016707176342606544,"w454":0.12723408639431,"w771":0.152591735124588,"w789":-0.004027722869068384,"w729":-0.2245558649301529,"w727":-0.05048317834734917,"w185":-0.49720051884651184,"w482":0.08368543535470963,"w1018":-0.06327005475759506,"w229":-0.0672433003783226,"w81":-0.13760848343372345,"w32":0.47481152415275574,"w725":0.01894862949848175,"w731":-0.03322320803999901,"w732":-0.05938972905278206,"w726":-0.16046199202537537,"w710":-0.16093434393405914,"w97":0.1492343246936798,"w544":0.021370738744735718,"w489":0.10010433942079544,"w34":-0.13751915097236633,"w620":-0.056453585624694824,"w9":0.3931613564491272,"w567":-0.13646210730075836,"w1":0.44080135226249695,"w566":-0.185945063829422,"w58":0.23365741968154907,"w730":0.19926397502422333,"w728":0.18140621483325958,"w243":-0.19228999316692352,"w499":0.177936851978302,"w304":-0.17314615845680237,"w406":0.07933297008275986,"w555":-0.05311521887779236,"w903":-0.35152560472488403,"w775":0.05905231460928917,"w978":0.07991920411586761,"w843":0.03564676269888878,"w959":0.35023242235183716,"w425":0.26643693447113037,"w911":0.05233374610543251,"w35":0.01376891415566206,"w33":-0.05818780139088631,"w36":-0.04594368487596512,"w577":0.04162506014108658,"w78":-0.43443310260772705,"w439":-0.0048963529989123344,"w11":-0.00932974461466074,"w38":0.11189407110214233,"w130":0.17887631058692932,"w602":0.1863950490951538,"w335":-0.10854066163301468,"w340":-0.03363434597849846,"w654":-0.17648139595985413,"w408":-0.05098283290863037,"w421":-0.2478303462266922,"w483":0.18738152086734772,"w919":-0.20295682549476624,"w773":0.05169731006026268,"w383":-0.057842906564474106,"w260":0.002807461190968752,"w101":-0.22402697801589966,"w419":-0.07611092925071716,"w546":-0.014495845884084702,"w920":-0.18618421256542206,"w921":-0.11938036978244781,"w918":-0.0016102382214739919,"w917":0.15238922834396362,"w1019":-0.12180142104625702,"w389":0.18375800549983978,"w554":-0.0680217295885086,"w175":-0.2600700557231903,"w102":-0.1010512188076973,"w770":-0.10669807344675064,"w420":-0.19740034639835358,"w253":0.1844697743654251,"w484":0.17086662352085114,"w39":-0.1650077849626541,"w347":-0.12174786627292633,"w337":-0.1388656198978424,"w432":0.054454974830150604,"w999":-0.005943207070231438,"w242":0.04741061478853226,"w610":-0.11540339887142181,"w1013":-0.02205108292400837,"w75":-0.05844255909323692,"w20":-0.3272310495376587,"w793":-0.1835574209690094,"w90":0.1168556660413742,"w100":0.06678511947393417,"w21":-0.03142402321100235,"w446":0.02050933614373207,"w56":-0.26467618346214294,"w814":-0.2703127861022949,"w415":0.08799834549427032,"w530":-0.1551162302494049,"w51":0.1094856858253479,"w270":-0.19040891528129578,"w549":-0.1328260898590088,"w12":-0.12744183838367462,"w667":-0.23308666050434113,"w440":0.19451451301574707,"w474":0.0322069376707077,"w257":-0.2175901085138321,"w766":-0.2140720784664154,"w623":-0.018452227115631104,"w282":-0.02417110651731491,"w111":0.05731774494051933,"w590":0.2390361726284027,"w198":-0.5773666501045227,"w886":0.15498682856559753,"w582":-0.10871103405952454,"w1026":-0.14321273565292358,"w842":-0.04089724272489548,"w250":0.21245421469211578,"w958":-0.06576686352491379,"w404":0.0869487076997757,"w845":0.005488670896738768,"w92":0.020433465018868446,"w646":0.14884482324123383,"w89":-0.1671905517578125,"w592":0.07586450129747391,"w15":-0.012962480075657368,"w327":-0.02043178491294384,"w1015":-0.18532541394233704,"w933":-0.11347954720258713,"w395":-0.04824889823794365,"w281":-0.0012255313340574503,"w230":-0.19594290852546692,"w929":-0.27608489990234375,"w642":-0.3559871017932892,"w315":-0.04434008151292801,"w108":-0.23031960427761078,"w614":-0.22721120715141296,"w865":-0.11114508658647537,"w79":-0.34137529134750366,"w453":-0.1742970049381256,"w985":0.07584386318922043,"w394":0.026350846514105797,"w880":-0.161687970161438,"w656":-0.04059283807873726,"w743":-0.036204610019922256,"w380":-0.3953242897987366,"w316":-0.2160407155752182,"w218":-0.14034005999565125,"w944":-0.009819728322327137,"w117":-0.6310690641403198,"w104":0.04580851271748543,"w405":-0.03647138550877571,"w619":0.07055268436670303,"w103":0.3737991154193878,"w707":-0.1051463708281517,"w393":-0.1737755835056305,"w262":0.10424067825078964,"w416":0.059895940124988556,"w905":0.14768995344638824,"w286":0.23013341426849365,"w105":0.1408034712076187,"w106":0.16287705302238464,"w99":0.3018779754638672,"w310":0.22167028486728668,"w359":0.04962097108364105,"w604":-0.092270627617836,"w318":-0.014176982454955578,"w461":0.13305896520614624,"w502":0.07611249387264252,"w107":0.07448522746562958,"w537":-0.08008561283349991,"w448":0.030846918001770973,"w764":-0.0928017795085907,"w531":-0.09516581892967224,"w616":-0.041622161865234375,"w249":-0.02639441192150116,"w576":-0.2565806210041046,"w460":0.194282665848732,"w285":-0.189323291182518,"w481":0.14789123833179474,"w942":0.13537470996379852,"w149":-0.15474507212638855,"w162":-0.06610534340143204,"w246":-0.0951378345489502,"w908":0.008487327955663204,"w765":-0.09218122065067291,"w761":-0.18322592973709106,"w288":-0.07257545739412308,"w119":-0.22795742750167847,"w228":0.026471681892871857,"w854":-0.13137008249759674,"w170":-0.19287759065628052,"w358":-0.10243944823741913,"w954":-0.06152268499135971,"w849":-0.14503774046897888,"w356":-0.2687284052371979,"w238":0.07173405587673187,"w466":-0.19800715148448944,"w271":0.13350960612297058,"w1010":0.09257570654153824,"w357":-0.10441678017377853,"w355":-0.20081138610839844,"w14":-0.2594885230064392,"w231":0.07332726567983627,"w274":-0.1851128488779068,"w961":-0.1541333794593811,"w683":-0.31351789832115173,"w136":0.020854277536273003,"w651":0.48246654868125916,"w329":-0.15565352141857147,"w832":-0.22655567526817322,"w148":0.18001320958137512,"w226":-0.1303350031375885,"w742":0.18914221227169037,"w741":-0.053581226617097855,"w1014":0.24408115446567535,"w233":-0.602658212184906,"w42":-0.24221235513687134,"w145":0.04866869002580643,"w831":-0.08088593930006027,"w204":-0.09794125705957413,"w331":-0.1393878161907196,"w833":-0.053215768188238144,"w328":0.1110273078083992,"w139":0.03018687665462494,"w943":-0.16124866902828217,"w166":0.5574796199798584,"w158":0.08407855778932571,"w772":0.3858048617839813,"w557":0.18038050830364227,"w538":-0.15209586918354034,"w163":0.24826042354106903,"w168":0.05105934292078018,"w294":0.02936156652867794,"w829":-0.052388809621334076,"w695":0.5347648859024048,"w490":0.1174478530883789,"w733":0.2735920548439026,"w858":-0.1601724624633789,"w325":0.18611712753772736,"w290":0.036902137100696564,"w640":0.15956233441829681,"w678":0.15901140868663788,"w696":0.04529624059796333,"w485":0.15974541008472443,"w870":0.1608443558216095,"w699":-0.1977941244840622,"w953":-0.209614560008049,"w167":-0.22520151734352112,"w694":-0.323090523481369,"w700":-0.32483845949172974,"w94":-0.1324690580368042,"w787":0.41666844487190247,"w757":-0.03711389750242233,"w219":0.04882531240582466,"w622":-0.1433655023574829,"w220":0.21390046179294586,"w516":0.005880821030586958,"w143":0.07780064642429352,"w517":0.2781488597393036,"w839":0.13582906126976013,"w792":0.08950059860944748,"w788":0.10463480651378632,"w44":0.19945214688777924,"w691":0.09206719696521759,"w518":0.1647603064775467,"w66":-0.15597161650657654,"w309":0.1769530475139618,"w412":-0.03153926506638527,"w644":0.08354879170656204,"w215":0.21515542268753052,"w615":0.014083370566368103,"w571":0.08494903147220612,"w411":-0.12218027561903,"w413":0.10577426850795746,"w613":0.05090447515249252,"w791":0.007622972596436739,"w643":-0.194611057639122,"w438":-0.033975984901189804,"w307":0.09310328215360641,"w974":0.003886006074026227,"w972":0.18678022921085358,"w965":0.2138516902923584,"w841":0.0074772704392671585,"w255":0.0012670395663008094,"w973":-0.13493506610393524,"w975":-0.11778393387794495,"w402":-0.1522495150566101,"w506":0.049795642495155334,"w876":0.05565261095762253,"w164":0.2830342948436737,"w692":0.13955563306808472,"w157":0.10659010708332062,"w687":0.207979217171669,"w877":-0.09942068159580231,"w879":-0.09516558051109314,"w878":-0.09577196091413498,"w507":0.042069971561431885,"w794":-0.07469601929187775,"w153":0.022946840152144432,"w85":0.17480768263339996,"w450":0.08539983630180359,"w1035":-0.04994965344667435,"w300":-0.28192660212516785,"w599":0.04122382774949074,"w80":-0.08862517774105072,"w182":-0.09534792602062225,"w183":-0.25873684883117676,"w301":-0.4625132381916046,"w293":-0.04902245104312897,"w639":-0.012977306731045246,"w596":-0.077286496758461,"w131":-0.09990688413381577,"w324":-0.1859990954399109,"w291":0.3693406879901886,"w1016":-0.2258579134941101,"w913":-0.21809032559394836,"w184":-0.07623083889484406,"w296":0.4479045867919922,"w237":0.2428583949804306,"w600":-0.11583995074033737,"w259":0.01495327614247799,"w882":0.021007874980568886,"w618":-0.045631293207407,"w211":-0.11987856775522232,"w715":-0.2438463717699051,"w645":-0.057015299797058105,"w980":-0.12651705741882324,"w213":0.4825485646724701,"w734":0.3555329144001007,"w264":0.6864869594573975,"w922":0.33805274963378906,"w477":-0.13296246528625488,"w881":0.1479361206293106,"w939":0.20067961513996124,"w214":0.35662195086479187,"w212":0.4174841344356537,"w361":0.34473976492881775,"w949":0.15505729615688324,"w668":0.06401678174734116,"w697":-0.16505363583564758,"w519":-0.09894930571317673,"w441":-0.2670438885688782,"w299":-0.13897550106048584,"w560":-0.02366996370255947,"w708":0.055716127157211304,"w526":-0.006853251252323389,"w655":-0.15431827306747437,"w702":0.26828324794769287,"w736":0.7136738896369934,"w144":0.5443220138549805,"w73":0.04290613532066345,"w735":0.44418254494667053,"w737":0.3849398195743561,"w630":0.20308399200439453,"w467":0.17359672486782074,"w403":0.11671716719865799,"w68":-0.13004201650619507,"w179":-0.11225429177284241,"w201":0.127097949385643,"w570":-0.007576958741992712,"w631":0.23706498742103577,"w605":0.08351106196641922,"w292":0.08357907831668854,"w509":0.1963541954755783,"w171":-0.06776265799999237,"w533":-0.19789178669452667,"w232":-0.14474685490131378,"w503":0.06680266559123993,"w806":0.08473024517297745,"w298":-0.23752950131893158,"w367":-0.4273346960544586,"w377":-0.5605743527412415,"w116":0.1010168045759201,"w267":-0.06114106997847557,"w611":0.47380465269088745,"w25":0.004753380548208952,"w1023":-0.2521458566188812,"w348":-0.26048851013183594,"w308":-0.16426587104797363,"w594":-0.016074221581220627,"w593":0.0462053082883358,"w350":0.008523216471076012,"w430":-0.3773130476474762,"w47":-0.23109211027622223,"w93":-0.006032450124621391,"w118":-0.05018165707588196,"w984":-0.26207780838012695,"w853":0.02832845039665699,"w371":-0.30720439553260803,"w381":-0.14892137050628662,"w369":-0.257936954498291,"w379":-0.17481471598148346,"w382":-0.08826252073049545,"w580":-0.22001442313194275,"w323":-0.21775168180465698,"w852":-0.07903468608856201,"w846":-0.22376935184001923,"w385":0.0318986140191555,"w386":-0.22099071741104126,"w378":-0.06604772061109543,"w398":-0.1337844431400299,"w368":-0.19603696465492249,"w370":0.1086696982383728,"w245":-0.17646391689777374,"w248":-0.03045809455215931,"w429":-0.051914047449827194,"w121":0.8003212213516235,"w338":0.6068924069404602,"w784":0.39066919684410095,"w863":0.32806888222694397,"w134":0.2691395878791809,"w868":0.4674436151981354,"w37":0.2498495876789093,"w562":0.302026629447937,"w142":0.19306379556655884,"w629":0.02343687228858471,"w621":0.12871213257312775,"w564":-0.035275328904390335,"w122":0.366081565618515,"w123":0.21381975710391998,"w342":0.1624324917793274,"w1017":-0.08160540461540222,"w135":0.1871064454317093,"w495":0.07444722205400467,"w344":-0.1639530062675476,"w864":-0.006565248593688011,"w662":0.23933377861976624,"w641":-0.046098705381155014,"w807":0.05679325386881828,"w628":0.3302405774593353,"w891":0.08618248254060745,"w283":0.18698374927043915,"w824":0.15957704186439514,"w948":0.42776238918304443,"w608":0.21182377636432648,"w336":-0.18277721107006073,"w494":0.07736527919769287,"w887":-0.0210978165268898,"w221":0.35029104351997375,"w800":0.13390770554542542,"w527":-0.02550562471151352,"w896":0.13716763257980347,"w898":-0.032062795013189316,"w940":0.2385837286710739,"w901":-0.0017418868374079466,"w888":-0.08781564980745316,"w895":0.012073256075382233,"w884":-0.08063114434480667,"w46":0.04801754653453827,"w373":0.0734347477555275,"w930":0.20634278655052185,"w977":0.1879604607820511,"w541":0.028845179826021194,"w346":0.1843978762626648,"w932":0.17453917860984802,"w717":0.06477906554937363,"w374":-0.20265741646289825,"w890":-0.19369098544120789,"w889":0.007073677144944668,"w897":-0.01745610311627388,"w400":-0.2976071238517761,"w17":-0.04614163935184479,"w472":-0.03474906086921692,"w983":-0.15055245161056519,"w769":-0.39462989568710327,"w86":-0.03401714935898781,"w941":-0.163987934589386,"w986":0.06383559107780457,"w904":-0.3144855797290802,"w476":-0.1171453520655632,"w988":0.06222066655755043,"w190":0.03853790834546089,"w909":-0.18004217743873596,"w195":0.7721750736236572,"w866":0.3738322854042053,"w196":0.18328185379505157,"w194":0.03426842764019966,"w305":-0.10746141523122787,"w96":0.12649838626384735,"w332":0.09090717136859894,"w989":-0.003650267142802477,"w399":-0.13678012788295746,"w302":-0.013284561224281788,"w547":0.10930555313825607,"w442":-0.08881106227636337,"w709":0.15380793809890747,"w61":0.15604111552238464,"w874":0.18328715860843658,"w473":0.14751195907592773,"w320":-0.049469348043203354,"w885":0.1956906020641327,"w427":0.07995593547821045,"w991":0.2167738825082779,"w1000":0.024447040632367134,"w990":0.07788383215665817,"w436":-0.11634881049394608,"w491":-0.30778029561042786,"w161":-0.09459707140922546,"w550":-0.08462440222501755,"w847":0.02609744668006897,"w360":0.03482397645711899,"w62":0.06260912120342255,"w435":0.13851667940616608,"w437":-0.12702812254428864,"w872":-0.0945277214050293,"w354":-0.008772844448685646,"w606":-0.24518154561519623,"w459":-0.3786836564540863,"w912":-0.3466307818889618,"w364":-0.03343040868639946,"w110":-0.039770834147930145,"w869":-0.0907052531838417,"w251":-0.011455895379185677,"w607":-0.19703030586242676,"w625":-0.1898471564054489,"w363":-0.19505612552165985,"w269":-0.10204239934682846,"w952":0.11894042044878006,"w924":-0.09661435335874557,"w125":0.4018699526786804,"w3":0.28540799021720886,"w679":0.202638640999794,"w23":0.04072871804237366,"w585":0.0665929764509201,"w5":0.3039179742336273,"w8":0.106374591588974,"w234":0.04027066379785538,"w384":0.27364325523376465,"w53":0.1108839362859726,"w434":0.19505660235881805,"w565":-0.0770728588104248,"w127":-0.00308417365886271,"w545":0.009646556340157986,"w819":0.0922020822763443,"w433":0.10666719824075699,"w624":0.001916757202707231,"w129":0.02023429609835148,"w124":-0.037985485047101974,"w126":-0.013719983398914337,"w703":-0.050611693412065506,"w24":-0.037054698914289474,"w906":-0.05162278190255165,"w235":0.007785164751112461,"w844":0.35315313935279846,"w471":-0.07346608489751816,"w2":-0.09369295835494995,"w10":0.2286045104265213,"w4":-0.13565801084041595,"w475":0.13540616631507874,"w563":0.012018147855997086,"w469":-0.12606054544448853,"w468":0.00851431768387556,"w561":-0.09404060244560242,"w287":-0.029222240671515465,"w559":0.022812392562627792,"w137":-0.05606687441468239,"w280":-0.15496785938739777,"w685":-0.02293318137526512,"w458":0.03233553096652031,"w512":0.1749156266450882,"w317":0.061369989067316055,"w946":0.19743722677230835,"w174":-0.04233115538954735,"w558":0.16702993214130402,"w396":0.09177740663290024,"w7":0.10969354212284088,"w176":0.09248469769954681,"w947":0.04576816037297249,"w177":-0.05722460150718689,"w956":0.07550951093435287,"w409":-0.09817712008953094,"w240":-0.16364610195159912,"w759":0.21589085459709167,"w187":-0.2529368996620178,"w273":-0.20005035400390625,"w714":-0.06967329978942871,"w266":0.1339157670736313,"w239":-0.13413867354393005,"w322":0.16208229959011078,"w265":-0.10355062037706375,"w189":-0.030649377033114433,"w186":0.06409958004951477,"w758":0.16187971830368042,"w684":-0.005608749575912952,"w303":-0.08695919066667557,"w574":-0.14363273978233337,"w200":0.8460198044776917,"w28":0.22397565841674805,"w892":0.22578832507133484,"w312":0.5007005333900452,"w998":0.07707024365663528,"w390":0.15342876315116882,"w0":0.16571302711963654,"w996":0.16599145531654358,"w664":0.07936231046915054,"w575":0.31572163105010986,"w444":0.17315290868282318,"w247":0.3150193691253662,"w192":0.07528387010097504,"w653":-0.13622649013996124,"w6":0.016406260430812836,"w202":0.01872170716524124,"w197":0.11818721890449524,"w63":0.2575896382331848,"w181":0.5438623428344727,"w150":0.06311380118131638,"w862":-0.09522627294063568,"w902":0.07989165931940079,"w1020":-0.12939655780792236,"w724":0.32686710357666016,"w254":0.2714521288871765,"w199":0.26645490527153015,"w496":0.13407643139362335,"w960":-0.0282236747443676,"w272":-0.02026212587952614,"w98":0.20095378160476685,"w244":0.11735290288925171,"w180":-0.10766464471817017,"w955":-0.1516522616147995,"w268":-0.02138783596456051,"w289":0.021699413657188416,"w543":-0.22516560554504395,"w925":0.16483858227729797,"w1005":-0.054253194481134415,"w760":-0.20041783154010773,"w1022":-0.11999843269586563,"w997":-0.40902161598205566,"w573":-0.27721402049064636,"w926":-0.33441856503486633,"w850":-0.2080887258052826,"w1007":0.036917999386787415,"w910":0.004997299984097481,"w488":-0.153103306889534,"w206":-0.023750092834234238,"w1011":0.20288071036338806,"w552":0.06380192935466766,"w207":-0.15720234811306,"w205":-0.1438959389925003,"w208":0.1105571761727333,"w553":0.01806527003645897,"w277":0.177937313914299,"w225":0.09781908988952637,"w48":-0.055783145129680634,"w967":-0.04064881429076195,"w675":0.12181764841079712,"w748":-0.12217964231967926,"w674":-0.11994949728250504,"w172":0.11735886335372925,"w510":0.14829528331756592,"w313":-0.06100854650139809,"w77":-0.012822550721466541,"w801":0.038768671452999115,"w649":0.1073732003569603,"w680":-0.017611144110560417,"w681":0.016803337261080742,"w504":-0.042652107775211334,"w511":0.08868959546089172,"w701":-0.09142836928367615,"w934":-0.006275491788983345,"w500":0.008532926440238953,"w366":-0.05966367572546005,"w820":-0.0012615423183888197,"w586":-0.1443728357553482,"w343":0.11482318490743637,"w392":0.13893267512321472,"w523":0.26040950417518616,"w721":-0.038157396018505096,"w22":-0.06701132655143738,"w601":-0.011941839009523392,"w540":-0.01867925189435482,"w658":-0.04413415119051933,"w836":-0.17445097863674164,"w391":-0.06741125881671906,"w755":0.07122084498405457,"w424":-0.09529134631156921,"w756":-0.20194092392921448,"w753":-0.12778031826019287,"w899":-0.11303244531154633,"w875":-0.06915467977523804,"w657":-0.13221852481365204,"w659":-0.1576312929391861,"w652":0.11700054258108139,"w976":-0.12853822112083435,"w572":0.041592616587877274,"w109":-0.21106864511966705,"w900":0.11386829614639282,"w216":0.1272953450679779,"w84":-0.010552552528679371,"w914":0.023493170738220215,"w811":0.20591676235198975,"w26":0.2715994417667389,"w258":0.08669475466012955,"w609":0.04470151662826538,"w626":-0.0433492437005043,"w812":0.2382953017950058,"w27":0.18066999316215515,"w252":0.09746187180280685,"w306":0.15545175969600677,"w13":0.027066120877861977,"w72":-0.0328231155872345,"w740":-0.059798967093229294,"w663":0.013260792940855026,"w690":-0.11515035480260849,"w689":-0.1735064834356308,"w91":-0.08457383513450623,"w505":0.10218275338411331,"w751":0.08050568401813507,"w76":0.09279893338680267,"w431":0.004866844043135643,"w883":-0.11880467087030411,"w1009":-0.011053184047341347,"w828":-0.21043959259986877,"w827":-0.045962780714035034,"w826":0.1778031885623932,"w851":0.26108449697494507,"w45":0.028610415756702423,"w738":-0.35884174704551697,"w525":-0.10733437538146973,"w569":-0.05235910415649414,"w59":-0.002148853614926338,"w457":0.15150924026966095,"w739":0.031932905316352844,"w193":0.17597249150276184,"w1021":-0.026717353612184525,"w799":0.1232869029045105,"w711":0.2226218283176422,"w568":-0.09829388558864594,"w712":0.03463105857372284,"w676":0.2654186487197876,"w241":0.04509958624839783,"w638":0.03203043341636658,"w915":-0.06066356226801872,"w856":-0.025691818445920944,"w31":-0.09520141035318375,"w713":0.14310498535633087,"w785":0.18016719818115234,"w907":-0.12451698631048203,"w778":0.2283693552017212,"w133":0.15155920386314392,"w776":0.27216678857803345,"w514":0.06804908812046051,"w493":0.2383447140455246,"w670":0.19007179141044617,"w498":-0.11018611490726471,"w796":0.08381199091672897,"w815":0.0025150016881525517,"w777":0.17364569008350372,"w779":0.09620757400989532,"w774":0.01881413348019123,"w497":0.14332863688468933,"w1002":0.10200344026088715,"w345":0.2151670604944229,"w969":-0.32057198882102966,"w407":-0.02837948687374592,"w529":0.0867556482553482,"w935":-0.23868587613105774,"w69":-0.13025930523872375,"w70":-0.210230752825737,"w54":-0.2027842253446579,"w1036":0.011355353519320488,"w528":0.01594749465584755,"w71":-0.10530544817447662,"w825":-0.017443489283323288,"w132":-0.07263445854187012,"w693":0.16055089235305786,"w968":-0.27345120906829834,"w970":-0.18802963197231293,"w971":0.01803535409271717,"w548":0.1230546310544014,"w848":-0.21069137752056122,"w30":0.141399085521698,"w422":-0.24287967383861542,"w704":0.036741334944963455,"w423":-0.14807482063770294,"w682":0.042394429445266724,"w203":0.014810034073889256,"w705":0.011751808226108551,"w445":-0.23257659375667572,"w817":-0.29805415868759155,"w326":-0.24651330709457397,"w532":-0.1059233620762825,"w719":-0.030311599373817444,"w818":-0.1564755141735077,"w588":0.5997588038444519,"w808":0.16953852772712708,"w152":0.24963624775409698,"w809":0.1165899783372879,"w1033":0.08932662010192871,"w52":-0.00302862748503685,"w583":0.06782146543264389,"w589":-0.13857312500476837,"w581":-0.08950641751289368,"w795":0.01519032847136259,"w754":0.11964958906173706,"w837":-0.15979230403900146,"w838":-0.14648127555847168,"w835":0.03683280572295189,"w261":0.0672776848077774,"w16":-0.04588755592703819,"w520":0.15404382348060608,"w169":0.4049222767353058,"w660":0.16037946939468384,"w834":-0.12043099105358124,"w55":0.028792547062039375,"w522":-0.2266649603843689,"w780":0.10023172199726105,"w521":-0.04076624661684036,"w859":0.19391532242298126,"w217":-0.1362326741218567,"w486":-0.011525516398251057,"w536":0.13673147559165955,"w783":-0.2678992748260498,"w762":0.11729657649993896,"w803":0.5409215092658997,"w802":-0.023793470114469528,"w686":-0.04916643723845482,"w804":0.010318567976355553,"w805":0.18356558680534363,"w798":0.16839773952960968,"w339":-0.08071990311145782,"w746":0.32462868094444275,"w718":0.16264845430850983,"w747":0.12932324409484863,"w745":-0.043442897498607635,"w744":-0.16007012128829956,"w813":-0.034069810062646866,"w353":0.20320123434066772,"w617":0.04897557571530342,"w128":0.09851149469614029,"w790":0.2325286567211151,"w278":0.0031181604135781527,"w636":-0.016017910093069077,"w648":0.17216821014881134,"w173":0.19119355082511902,"w650":0.17961770296096802,"w867":0.1382332444190979,"w539":-0.07220291346311569,"w1012":0.24631206691265106,"w88":0.43190139532089233,"w666":0.05418896675109863,"w147":0.030445564538240433,"w64":0.05717022344470024,"w665":0.13000419735908508,"w146":0.052763644605875015,"w501":0.15626031160354614,"w723":-0.18026471138000488,"w365":0.03604470193386078}},"1":{"bias":-0.20623725652694702,"weights":{"w634":0.0563088022172451,"w994":-0.12391345947980881,"w341":-0.09190655499696732,"w160":-0.07423987239599228,"w334":0.04272313416004181,"w964":-0.04622914642095566,"w57":0.16154314577579498,"w677":-0.025085411965847015,"w1024":0.10066606849431992,"w151":0.04996655508875847,"w41":0.04991893470287323,"w112":-0.01966647244989872,"w40":0.2248210906982422,"w810":-0.04030650109052658,"w297":-0.1720043420791626,"w279":-0.13207818567752838,"w410":-0.1215725690126419,"w938":-0.222692608833313,"w330":0.08698540180921555,"w465":-0.12355901300907135,"w452":-0.04442756623029709,"w463":-0.19069747626781464,"w1034":0.08224562555551529,"w857":0.04410170391201973,"w508":0.09476835280656815,"w333":0.06557171046733856,"w447":0.07495631277561188,"w1004":-0.26002001762390137,"w992":-0.24878637492656708,"w603":-0.2222847193479538,"w397":0.0070665692910552025,"w637":-0.0080076539888978,"w627":-0.04108642041683197,"w993":0.025074366480112076,"w584":-0.08449002355337143,"w426":0.07357761263847351,"w351":0.3324091136455536,"w401":0.0580487921833992,"w981":-0.08991312980651855,"w256":-0.10114035755395889,"w478":-0.19646109640598297,"w995":0.23042522370815277,"w464":-0.07722783833742142,"w821":0.033227212727069855,"w417":-0.13297435641288757,"w661":0.22521156072616577,"w428":0.012922119349241257,"w633":-0.23349502682685852,"w479":-0.19863460958003998,"w209":-0.08800339698791504,"w113":0.05617538094520569,"w95":-0.4008433222770691,"w855":-0.1565539389848709,"w451":-0.2054431289434433,"w227":-0.18029063940048218,"w19":-0.03410239517688751,"w449":-0.3572136461734772,"w1029":1.0500502586364746,"w492":0.06792362034320831,"w141":0.07378818839788437,"w140":0.05041014403104782,"w830":0.059130750596523285,"w1031":0.4598076045513153,"w1028":0.47476983070373535,"w1032":0.3420414924621582,"w1030":0.2688218653202057,"w987":-0.22690077126026154,"w963":0.08797222375869751,"w210":0.0572422631084919,"w352":0.11494132876396179,"w263":0.15273241698741913,"w456":0.05599082633852959,"w513":-0.10926879197359085,"w635":-0.06918738782405853,"w782":0.5702155232429504,"w587":-0.04608617350459099,"w673":-0.19388385117053986,"w822":-0.1351570338010788,"w871":-0.09561962634325027,"w750":0.14434435963630676,"w524":0.3292573094367981,"w950":0.0015969481319189072,"w311":0.20669251680374146,"w295":0.5088844299316406,"w159":-0.09982190281152725,"w937":0.10579292476177216,"w178":0.24992415308952332,"w797":0.00009716793283587322,"w551":-0.2817349135875702,"w923":0.19630135595798492,"w966":-0.07078935205936432,"w823":0.004947415553033352,"w936":0.05327078700065613,"w962":0.06365557014942169,"w224":0.5908790826797485,"w314":-0.2434840351343155,"w222":0.23210883140563965,"w556":0.04705309122800827,"w462":-0.007890749722719193,"w786":0.19724108278751373,"w223":-0.09944503009319305,"w579":0.025957899168133736,"w916":-0.10037493705749512,"w319":0.17390906810760498,"w18":0.4075500965118408,"w154":0.1462792307138443,"w83":-0.01180051825940609,"w861":-0.07708735018968582,"w763":-0.07333467155694962,"w155":-0.10092668235301971,"w156":0.06467660516500473,"w115":-0.009512974880635738,"w362":-0.5537092685699463,"w114":0.0733184963464737,"w276":-0.12005741149187088,"w706":-0.15391118824481964,"w781":-0.2023022472858429,"w74":0.15189886093139648,"w612":0.15467654168605804,"w722":-0.6601903438568115,"w647":0.03427879884839058,"w720":-0.6399347186088562,"w860":-0.16301967203617096,"w894":-0.21355171501636505,"w236":0.052889637649059296,"w515":-0.2111024260520935,"w669":-0.170475035905838,"w951":-0.14760424196720123,"w542":-0.1572999358177185,"w982":0.13667573034763336,"w840":-0.05929449200630188,"w388":0.4090602397918701,"w321":0.024661162868142128,"w188":0.17230911552906036,"w1008":-0.046441320329904556,"w65":0.6749566197395325,"w688":0.6609909534454346,"w632":-0.22021889686584473,"w671":0.1443941742181778,"w120":-0.16387724876403809,"w191":-0.16554555296897888,"w487":0.6330997347831726,"w749":-0.03777813911437988,"w67":0.23301945626735687,"w672":0.4279592037200928,"w597":-0.10060600191354752,"w979":0.08164405077695847,"w578":-0.060878463089466095,"w945":0.05029518902301788,"w598":0.2900080382823944,"w1006":0.14196248352527618,"w1001":0.12380968034267426,"w873":0.2929520010948181,"w1027":0.0980498343706131,"w927":0.47602468729019165,"w455":0.22577878832817078,"w480":0.12449607253074646,"w768":-0.1545102596282959,"w928":-0.05933801084756851,"w591":-0.2363489717245102,"w1025":0.1508961021900177,"w595":0.048418041318655014,"w43":-0.02159549482166767,"w418":-0.08257955312728882,"w535":0.08557042479515076,"w931":-0.04422178491950035,"w470":0.13634994626045227,"w82":-0.08764881640672684,"w752":0.14811699092388153,"w716":0.3624386191368103,"w60":0.1693858504295349,"w87":0.17168255150318146,"w1003":0.140985369682312,"w698":0.1259365677833557,"w275":0.08123046904802322,"w893":0.32157182693481445,"w816":-0.06131492182612419,"w29":0.21615535020828247,"w49":0.10626285523176193,"w414":-0.11684399843215942,"w372":0.2426130473613739,"w165":-0.001760896178893745,"w534":0.33119454979896545,"w138":-0.005270463414490223,"w767":0.22474287450313568,"w284":0.06474121659994125,"w50":0.09872996062040329,"w375":0.08306793868541718,"w387":-0.12907323241233826,"w376":-0.03443552926182747,"w349":-0.051266368478536606,"w443":-0.0754832923412323,"w957":0.03557402268052101,"w454":-0.03116190806031227,"w771":0.18373927474021912,"w789":-0.0745190903544426,"w729":0.018455499783158302,"w727":0.0759916752576828,"w185":0.24836958944797516,"w482":-0.23321294784545898,"w1018":0.07647697627544403,"w229":-0.16627946496009827,"w81":0.3735870122909546,"w32":-0.26880088448524475,"w725":-0.1680237203836441,"w731":-0.24941250681877136,"w732":-0.3089057207107544,"w726":0.04130222648382187,"w710":-0.05297520011663437,"w97":0.20194867253303528,"w544":0.13484665751457214,"w489":-0.04106816276907921,"w34":-0.1264728605747223,"w620":0.08561845123767853,"w9":-0.43137145042419434,"w567":0.05525464564561844,"w1":-0.31887099146842957,"w566":0.052220430225133896,"w58":-0.3662078380584717,"w730":-0.10860796272754669,"w728":0.07343178987503052,"w243":-0.1639760434627533,"w499":-0.036229051649570465,"w304":-0.023530958220362663,"w406":-0.00426205899566412,"w555":-0.03178945556282997,"w903":0.678663969039917,"w775":-0.06941306591033936,"w978":-0.27249643206596375,"w843":-0.3210733234882355,"w959":-0.12689346075057983,"w425":-0.3177584409713745,"w911":-0.21355897188186646,"w35":-0.07986170798540115,"w33":-0.06787603348493576,"w36":-0.19338949024677277,"w577":-0.07992304116487503,"w78":0.40527287125587463,"w439":0.15702612698078156,"w11":0.07499085366725922,"w38":0.048614710569381714,"w130":0.12106161564588547,"w602":0.11068850755691528,"w335":0.07678483426570892,"w340":0.15582779049873352,"w654":0.2501578629016876,"w408":-0.11630760133266449,"w421":0.11728044599294662,"w483":-0.26813480257987976,"w919":-0.019446806982159615,"w773":0.04631993547081947,"w383":0.021694395691156387,"w260":0.1505584567785263,"w101":0.032674096524715424,"w419":-0.14931274950504303,"w546":0.02299690619111061,"w920":0.18278156220912933,"w921":0.022528810426592827,"w918":0.015649406239390373,"w917":0.17086464166641235,"w1019":-0.12544013559818268,"w389":0.13377195596694946,"w554":0.26566606760025024,"w175":0.1662834733724594,"w102":0.05298277363181114,"w770":0.060318104922771454,"w420":-0.032686181366443634,"w253":0.051347631961107254,"w484":0.15194129943847656,"w39":-0.0642218291759491,"w347":-0.04578934237360954,"w337":-0.0009721534443087876,"w432":0.17749308049678802,"w999":-0.12577705085277557,"w242":0.14559981226921082,"w610":0.12399283796548843,"w1013":-0.11225813627243042,"w75":-0.07904954254627228,"w20":0.2433488965034485,"w793":-0.007156011648476124,"w90":0.03257077932357788,"w100":0.1091138944029808,"w21":0.04510447010397911,"w446":-0.15273523330688477,"w56":0.025728998705744743,"w814":0.1168416365981102,"w415":0.10931780934333801,"w530":-0.1490921974182129,"w51":0.035447150468826294,"w270":-0.07500071823596954,"w549":0.28133800625801086,"w12":0.16122905910015106,"w667":0.12020210176706314,"w440":0.027985110878944397,"w474":-0.13689221441745758,"w257":0.2159588783979416,"w766":-0.019428040832281113,"w623":-0.2067730724811554,"w282":0.2106664478778839,"w111":0.0031449433881789446,"w590":-0.03221067786216736,"w198":0.3519318103790283,"w886":-0.5277962684631348,"w582":0.280543714761734,"w1026":0.41736268997192383,"w842":-0.3132394850254059,"w250":-0.11335132271051407,"w958":-0.15612688660621643,"w404":-0.12812548875808716,"w845":-0.19512434303760529,"w92":0.0830603837966919,"w646":0.029584093019366264,"w89":0.08452003449201584,"w592":-0.02770211175084114,"w15":-0.053257931023836136,"w327":0.19118966162204742,"w1015":0.03054349310696125,"w933":-0.06218186765909195,"w395":0.03684864938259125,"w281":0.3449859917163849,"w230":0.18996819853782654,"w929":0.3437081277370453,"w642":0.33918362855911255,"w315":0.0775422677397728,"w108":0.24893493950366974,"w614":0.133585125207901,"w865":0.3513210415840149,"w79":0.08329039067029953,"w453":0.2542877197265625,"w985":0.16391479969024658,"w394":-0.07403507828712463,"w880":0.26142460107803345,"w656":-0.061611369252204895,"w743":-0.016593018546700478,"w380":0.27870234847068787,"w316":0.1448567658662796,"w218":0.042264167219400406,"w944":0.15155723690986633,"w117":0.48107263445854187,"w104":0.00682550435885787,"w405":-0.04900636896491051,"w619":-0.2784980535507202,"w103":-0.47838038206100464,"w707":-0.2336398959159851,"w393":-0.1265406459569931,"w262":-0.1563187688589096,"w416":0.19391217827796936,"w905":-0.1832374781370163,"w286":-0.02579781413078308,"w105":-0.0329311341047287,"w106":-0.031262271106243134,"w99":-0.2045029103755951,"w310":-0.01483873836696148,"w359":0.10497446358203888,"w604":0.03695949539542198,"w318":0.1733977198600769,"w461":0.1189001202583313,"w502":-0.08771726489067078,"w107":-0.22500772774219513,"w537":-0.06963728368282318,"w448":0.07360109686851501,"w764":-0.11590272188186646,"w531":-0.15369310975074768,"w616":0.072507843375206,"w249":0.02508549392223358,"w576":0.18587160110473633,"w460":0.07441823929548264,"w285":0.0040329149924218655,"w481":-0.1483861207962036,"w942":0.19611269235610962,"w149":-0.08824895322322845,"w162":-0.04114368557929993,"w246":0.012323928996920586,"w908":0.1543179601430893,"w765":0.1409495621919632,"w761":0.09052430093288422,"w288":0.19789671897888184,"w119":-0.0419471450150013,"w228":0.07008127868175507,"w854":0.07765208929777145,"w170":-0.010146326385438442,"w358":0.0135695431381464,"w954":0.24387331306934357,"w849":0.24075140058994293,"w356":0.039219100028276443,"w238":0.09178633987903595,"w466":0.08481980115175247,"w271":-0.0008936328231357038,"w1010":-0.10861394554376602,"w357":0.20306198298931122,"w355":0.0203817468136549,"w14":0.15964730083942413,"w231":-0.35164207220077515,"w274":0.12582100927829742,"w961":0.07318571209907532,"w683":0.1786903589963913,"w136":0.19679497182369232,"w651":-0.04836438223719597,"w329":0.005687042139470577,"w832":0.7611981630325317,"w148":0.1720609813928604,"w226":0.020345378667116165,"w742":0.15736845135688782,"w741":0.09069077670574188,"w1014":0.1560237854719162,"w233":0.14484046399593353,"w42":0.0677328109741211,"w145":0.09489608556032181,"w831":0.126615971326828,"w204":0.10435959696769714,"w331":-0.05443666875362396,"w833":0.36613306403160095,"w328":-0.0059269387274980545,"w139":0.1828860491514206,"w943":0.006541590206325054,"w166":-0.3892144560813904,"w158":-0.02979184128344059,"w772":-0.6442223191261292,"w557":0.0154821015894413,"w538":0.3007827401161194,"w163":-0.45227721333503723,"w168":-0.2815627157688141,"w294":-0.03571556508541107,"w829":-0.0013901618076488376,"w695":-0.376802921295166,"w490":-0.19144520163536072,"w733":-0.18540367484092712,"w858":0.24849288165569305,"w325":-0.061097148805856705,"w290":-0.06220564246177673,"w640":0.08739107847213745,"w678":-0.011866619810461998,"w696":0.10706035792827606,"w485":-0.07049508392810822,"w870":0.08457125723361969,"w699":0.11895973980426788,"w953":0.3497423529624939,"w167":-0.011855093762278557,"w694":0.18008512258529663,"w700":0.17805726826190948,"w94":0.5079679489135742,"w787":-0.21910279989242554,"w757":-0.12345346808433533,"w219":0.19184763729572296,"w622":-0.3678569495677948,"w220":-0.09978393465280533,"w516":-0.05173227936029434,"w143":-0.19268083572387695,"w517":-0.1917637288570404,"w839":0.04942646622657776,"w792":-0.08655402064323425,"w788":-0.05250268802046776,"w44":-0.25821220874786377,"w691":-0.10398158431053162,"w518":0.04575638845562935,"w66":0.09813036769628525,"w309":0.02308678813278675,"w412":-0.5613582730293274,"w644":-0.33615607023239136,"w215":-0.07827214151620865,"w615":-0.1296335607767105,"w571":-0.19908520579338074,"w411":0.0953998863697052,"w413":-0.1849565953016281,"w613":-0.04054604098200798,"w791":-0.041726253926754,"w643":-0.1695300042629242,"w438":-0.07950028032064438,"w307":0.13484960794448853,"w974":-0.11047618836164474,"w972":0.03834505379199982,"w965":-0.017357338219881058,"w841":-0.23098790645599365,"w255":-0.0075266482308506966,"w973":-0.0186964999884367,"w975":0.03859550133347511,"w402":-0.03166249394416809,"w506":0.054061125963926315,"w876":-0.1380765736103058,"w164":-0.11856114119291306,"w692":0.019268274307250977,"w157":-0.19136042892932892,"w687":-0.0958782359957695,"w877":-0.10944656282663345,"w879":-0.1450480967760086,"w878":0.04874205216765404,"w507":-0.010351607576012611,"w794":-0.22834734618663788,"w153":0.11353585869073868,"w85":0.0013939936179667711,"w450":-0.02916535921394825,"w1035":-0.16382378339767456,"w300":0.15851633250713348,"w599":-0.04477592930197716,"w80":0.22197823226451874,"w182":0.004084922838956118,"w183":0.13860678672790527,"w301":0.17398449778556824,"w293":-0.2178497612476349,"w639":0.003382813883945346,"w596":0.13574565947055817,"w131":-0.1486952006816864,"w324":0.07756887376308441,"w291":-0.13332302868366241,"w1016":0.1454329490661621,"w913":0.2692840099334717,"w184":-0.023970164358615875,"w296":-0.2838120758533478,"w237":0.06320489197969437,"w600":0.10926781594753265,"w259":-0.15931539237499237,"w882":-0.10301908105611801,"w618":0.051412612199783325,"w211":0.018561597913503647,"w715":0.1705070436000824,"w645":0.1947835236787796,"w980":0.14219628274440765,"w213":-0.6585988402366638,"w734":-0.5255005955696106,"w264":-0.4925478994846344,"w922":-0.493075430393219,"w477":0.14737819135189056,"w881":-0.21524786949157715,"w939":-0.10958271473646164,"w214":-0.5610618591308594,"w212":-0.40953537821769714,"w361":-0.5476169586181641,"w949":-0.06598702818155289,"w668":0.16773684322834015,"w697":-0.16140912473201752,"w519":0.42192357778549194,"w441":0.35788217186927795,"w299":0.2667313516139984,"w560":0.07941329479217529,"w708":0.10759685188531876,"w526":0.1591380536556244,"w655":0.05502293258905411,"w702":0.12196477502584457,"w736":-0.34816285967826843,"w144":-0.33732718229293823,"w73":-0.2898627817630768,"w735":-0.2650303840637207,"w737":-0.08104746043682098,"w630":0.048230160027742386,"w467":0.04403560236096382,"w403":-0.20179986953735352,"w68":-0.04809890687465668,"w179":0.08881198614835739,"w201":-0.008497302420437336,"w570":-0.27282896637916565,"w631":-0.2146945595741272,"w605":-0.2066355049610138,"w292":-0.2179027646780014,"w509":-0.1085735559463501,"w171":-0.032889366149902344,"w533":0.19875428080558777,"w232":0.030050603672862053,"w503":0.18194405734539032,"w806":-0.04832517355680466,"w298":0.1967831403017044,"w367":0.5576382875442505,"w377":0.41257965564727783,"w116":-0.1390863060951233,"w267":0.10008833557367325,"w611":-0.44476568698883057,"w25":-0.052734725177288055,"w1023":0.08287810534238815,"w348":0.13339196145534515,"w308":-0.0725424736738205,"w594":0.14765794575214386,"w593":-0.007230437360703945,"w350":0.09344280511140823,"w430":0.2809740900993347,"w47":0.23800386488437653,"w93":0.09351073205471039,"w118":0.20180284976959229,"w984":0.01738632284104824,"w853":0.30387455224990845,"w371":0.09082884341478348,"w381":0.23580783605575562,"w369":0.29617559909820557,"w379":0.05613601580262184,"w382":0.09342563152313232,"w580":0.04092100262641907,"w323":0.19077007472515106,"w852":-0.04642976075410843,"w846":0.13072682917118073,"w385":-0.004995994735509157,"w386":0.10458851605653763,"w378":0.15443041920661926,"w398":0.24534110724925995,"w368":-0.025396492332220078,"w370":0.22679288685321808,"w245":-0.15103550255298615,"w248":0.03821728751063347,"w429":0.0934455469250679,"w121":-0.9152741432189941,"w338":-0.5837534666061401,"w784":-0.533581018447876,"w863":-0.3557441532611847,"w134":-0.3019796311855316,"w868":-0.5341047644615173,"w37":-0.33802530169487,"w562":-0.186961367726326,"w142":-0.033990588039159775,"w629":0.16283142566680908,"w621":0.056914687156677246,"w564":0.05628156289458275,"w122":-0.23472855985164642,"w123":-0.24382127821445465,"w342":-0.3501094877719879,"w1017":0.08018051832914352,"w135":-0.22563020884990692,"w495":0.12055149674415588,"w344":0.17784383893013,"w864":-0.10228888690471649,"w662":-0.02462136372923851,"w641":-0.12473739683628082,"w807":-0.20932483673095703,"w628":-0.14311498403549194,"w891":-0.039556197822093964,"w283":-0.33016514778137207,"w824":-0.0742388591170311,"w948":-0.386961966753006,"w608":-0.7267786860466003,"w336":0.043704744428396225,"w494":0.19936081767082214,"w887":-0.2537845969200134,"w221":-0.1568259596824646,"w800":-0.1873643696308136,"w527":-0.14965061843395233,"w896":-0.0824180617928505,"w898":-0.20504961907863617,"w940":0.10307066142559052,"w901":-0.35406216979026794,"w888":-0.06444615870714188,"w895":0.10643710196018219,"w884":-0.1379224807024002,"w46":-0.1153402179479599,"w373":0.1765255481004715,"w930":-0.16474860906600952,"w977":-0.13191458582878113,"w541":-0.10590949654579163,"w346":-0.24184323847293854,"w932":0.05189575254917145,"w717":0.01725250482559204,"w374":0.06560651957988739,"w890":0.03199218586087227,"w889":0.16308319568634033,"w897":-0.04279826581478119,"w400":0.38422223925590515,"w17":0.17068295180797577,"w472":0.18536284565925598,"w983":0.1198476254940033,"w769":0.30400314927101135,"w86":0.06242985650897026,"w941":0.2725733518600464,"w986":0.15736906230449677,"w904":0.36915984749794006,"w476":0.07820910960435867,"w988":-0.07507307082414627,"w190":0.0024905423633754253,"w909":0.1084480881690979,"w195":-0.9094766974449158,"w866":-0.22039103507995605,"w196":0.17809849977493286,"w194":-0.11896245926618576,"w305":-0.040753915905952454,"w96":0.04476286470890045,"w332":-0.01218882855027914,"w989":-0.030776480212807655,"w399":0.10708633065223694,"w302":0.2018558830022812,"w547":-0.006644352804869413,"w442":-0.15793141722679138,"w709":0.06891471147537231,"w61":0.09811726957559586,"w874":0.11131063848733902,"w473":0.24766482412815094,"w320":0.10431596636772156,"w885":0.14616186916828156,"w427":-0.07053375244140625,"w991":-0.007607658859342337,"w1000":0.08710332959890366,"w990":0.22836431860923767,"w436":0.1903591901063919,"w491":0.04500359296798706,"w161":0.07379516214132309,"w550":0.19556652009487152,"w847":0.18010178208351135,"w360":0.1032591164112091,"w62":-0.008838658221065998,"w435":0.2301749438047409,"w437":0.0689423531293869,"w872":0.11196326464414597,"w354":0.138991579413414,"w606":0.4971630275249481,"w459":0.5086639523506165,"w912":0.1440524160861969,"w364":0.22778713703155518,"w110":-0.10831573605537415,"w869":-0.043158311396837234,"w251":0.31529781222343445,"w607":0.45287445187568665,"w625":0.228633314371109,"w363":0.1986960619688034,"w269":-0.015142330899834633,"w952":0.12900418043136597,"w924":0.15763983130455017,"w125":-0.6487178206443787,"w3":-0.4800889492034912,"w679":-0.27061378955841064,"w23":-0.1208413690328598,"w585":-0.05186416953802109,"w5":-0.3592841923236847,"w8":-0.22976195812225342,"w234":-0.15570423007011414,"w384":-0.5538913607597351,"w53":0.04754718020558357,"w434":-0.2440982609987259,"w565":-0.11236149072647095,"w127":0.08100490272045135,"w545":-0.31901130080223083,"w819":-0.2177293747663498,"w433":-0.10638213902711868,"w624":-0.17189384996891022,"w129":-0.45260897278785706,"w124":-0.269203782081604,"w126":-0.13604962825775146,"w703":-0.06351589411497116,"w24":-0.3999618887901306,"w906":0.07245218753814697,"w235":-0.21616606414318085,"w844":-0.21903645992279053,"w471":0.2986988425254822,"w2":-0.12926456332206726,"w10":-0.1940576732158661,"w4":-0.08418219536542892,"w475":-0.12300136685371399,"w563":-0.29251155257225037,"w469":-0.03280851989984512,"w468":-0.0031358827836811543,"w561":-0.12877367436885834,"w287":0.11017310619354248,"w559":0.0011052096961066127,"w137":0.15242640674114227,"w280":0.1646413505077362,"w685":-0.07276207208633423,"w458":-0.11346348375082016,"w512":-0.06223869323730469,"w317":-0.20579923689365387,"w946":-0.03130683675408363,"w174":0.1912967711687088,"w558":-0.18023650348186493,"w396":-0.04636193811893463,"w7":-0.09260281920433044,"w176":-0.006647612899541855,"w947":0.11588913947343826,"w177":-0.1389887034893036,"w956":0.216497540473938,"w409":-0.09016517549753189,"w240":0.15203246474266052,"w759":0.034552305936813354,"w187":0.43498146533966064,"w273":0.025601275265216827,"w714":0.10643379390239716,"w266":-0.12000834941864014,"w239":0.2340625524520874,"w322":0.06841278821229935,"w265":-0.036177635192871094,"w189":0.14075002074241638,"w186":0.15181393921375275,"w758":0.025266483426094055,"w684":0.12936198711395264,"w303":-0.16058717668056488,"w574":0.02026515267789364,"w200":-0.6947546005249023,"w28":0.016556691378355026,"w892":0.04274998977780342,"w312":-0.3978518843650818,"w998":-0.27869635820388794,"w390":-0.19643202424049377,"w0":-0.07293973118066788,"w996":-0.21217532455921173,"w664":-0.13075809180736542,"w575":-0.4937098026275635,"w444":-0.26049599051475525,"w247":-0.5107895731925964,"w192":-0.0232278723269701,"w653":0.05652638152241707,"w6":-0.01049859169870615,"w202":0.006071954499930143,"w197":-0.2398415058851242,"w63":-0.5031065344810486,"w181":-0.2800174355506897,"w150":-0.05947383493185043,"w862":0.13777212798595428,"w902":-0.08018095046281815,"w1020":0.08448561280965805,"w724":-0.011992438696324825,"w254":-0.189087375998497,"w199":-0.22953003644943237,"w496":0.2042180597782135,"w960":-0.11851811408996582,"w272":0.1604079008102417,"w98":-0.09047393500804901,"w244":-0.2653444707393646,"w180":0.16185744106769562,"w955":-0.004084617365151644,"w268":-0.14312756061553955,"w289":-0.11804846674203873,"w543":0.10245160758495331,"w925":-0.07315871119499207,"w1005":-0.0001350438396912068,"w760":0.1782090663909912,"w1022":-0.003333641216158867,"w997":0.16032229363918304,"w573":-0.03237095847725868,"w926":0.04657363146543503,"w850":0.04693149775266647,"w1007":-0.126887246966362,"w910":0.09184332191944122,"w488":0.08759576082229614,"w206":0.20578385889530182,"w1011":0.234909787774086,"w552":0.1292913258075714,"w207":-0.002834015293046832,"w205":0.08594423532485962,"w208":-0.05329972878098488,"w553":-0.00927828811109066,"w277":-0.014115825295448303,"w225":0.17533370852470398,"w48":-0.18848970532417297,"w967":0.07087913155555725,"w675":0.18222026526927948,"w748":-0.03848347067832947,"w674":0.26743245124816895,"w172":-0.06316545605659485,"w510":0.07959902286529541,"w313":-0.04821053519845009,"w77":0.03832685947418213,"w801":-0.19063305854797363,"w649":-0.16316655278205872,"w680":-0.14746995270252228,"w681":-0.1762102097272873,"w504":-0.042884211987257004,"w511":0.007682188414037228,"w701":-0.031965404748916626,"w934":0.034967537969350815,"w500":0.042105283588171005,"w366":0.11145761609077454,"w820":0.04244203120470047,"w586":-0.061893969774246216,"w343":-0.27162811160087585,"w392":-0.23750072717666626,"w523":-0.06584404408931732,"w721":-0.0899425745010376,"w22":0.06688106805086136,"w601":-0.028340069577097893,"w540":-0.19363170862197876,"w658":0.12606491148471832,"w836":0.23667104542255402,"w391":0.19766521453857422,"w755":0.2232227772474289,"w424":0.2385413944721222,"w756":0.06798561662435532,"w753":0.09768148511648178,"w899":0.34804704785346985,"w875":0.11328419297933578,"w657":0.08929614722728729,"w659":0.3178868591785431,"w652":-0.14850355684757233,"w976":-0.18157225847244263,"w572":0.04956550896167755,"w109":0.23634573817253113,"w900":-0.019641190767288208,"w216":0.17100036144256592,"w84":0.1793309897184372,"w914":0.006781522650271654,"w811":-0.5583595633506775,"w26":-0.22091548144817352,"w258":0.009614305570721626,"w609":-0.493685245513916,"w626":-0.2872368097305298,"w812":-0.17528530955314636,"w27":-0.2078022062778473,"w252":-0.09253820031881332,"w306":-0.2025836557149887,"w13":-0.2334890067577362,"w72":0.025616947561502457,"w740":0.18828025460243225,"w663":0.1438094675540924,"w690":0.034923337399959564,"w689":0.04797381907701492,"w91":0.09166643023490906,"w505":-0.03648890182375908,"w751":-0.00783617701381445,"w76":0.22177933156490326,"w431":-0.14466100931167603,"w883":0.0862218514084816,"w1009":0.057040732353925705,"w828":-0.03588877618312836,"w827":-0.06435615569353104,"w826":-0.16160859167575836,"w851":-0.2437344789505005,"w45":0.16315078735351562,"w738":0.03277647867798805,"w525":0.19326792657375336,"w569":-0.15639463067054749,"w59":-0.12633633613586426,"w457":0.1282838135957718,"w739":-0.0072865611873567104,"w193":-0.1251286119222641,"w1021":0.1594916582107544,"w799":-0.18192535638809204,"w711":-0.06939084827899933,"w568":0.08311762660741806,"w712":-0.02246832102537155,"w676":-0.08327163010835648,"w241":0.12721753120422363,"w638":-0.0890151858329773,"w915":0.1019962951540947,"w856":-0.21514366567134857,"w31":0.04920955002307892,"w713":-0.13170842826366425,"w785":-0.12021958082914352,"w907":0.12642993032932281,"w778":-0.8432424068450928,"w133":-0.30122336745262146,"w776":-0.674792468547821,"w514":-0.26233354210853577,"w493":-0.1454649269580841,"w670":-0.10951168835163116,"w498":0.07759983837604523,"w796":0.08453070372343063,"w815":-0.21004316210746765,"w777":-0.2850325405597687,"w779":-0.5412894487380981,"w774":-0.18790873885154724,"w497":-0.3305082619190216,"w1002":-0.23543508350849152,"w345":-0.10205896943807602,"w969":0.44581320881843567,"w407":0.1617804318666458,"w529":0.044411443173885345,"w935":-0.0282171368598938,"w69":0.2913629114627838,"w70":0.17054644227027893,"w54":-0.038938120007514954,"w1036":0.28669530153274536,"w528":-0.0020776530727744102,"w71":0.06135990470647812,"w825":0.057341910898685455,"w132":-0.15250487625598907,"w693":0.185504749417305,"w968":0.14926154911518097,"w970":-0.0899583250284195,"w971":0.2569562792778015,"w548":-0.052080973982810974,"w848":0.11122141033411026,"w30":-0.12378007173538208,"w422":-0.03553248941898346,"w704":0.32947489619255066,"w423":0.14855659008026123,"w682":-0.1339573860168457,"w203":0.03088710829615593,"w705":-0.12482187151908875,"w445":0.14100557565689087,"w817":0.2940759062767029,"w326":0.3039509356021881,"w532":-0.09107134491205215,"w719":0.16882438957691193,"w818":0.22791160643100739,"w588":-0.2228107899427414,"w808":-0.264596164226532,"w152":-0.11262482404708862,"w809":-0.15773482620716095,"w1033":-0.14800463616847992,"w52":-0.02671406976878643,"w583":-0.03365654870867729,"w589":0.020214036107063293,"w581":0.08212698996067047,"w795":-0.13361136615276337,"w754":-0.005310392938554287,"w837":-0.03336338698863983,"w838":0.2524667978286743,"w835":-0.13969793915748596,"w261":-0.17142312228679657,"w16":-0.03985665738582611,"w520":-0.37453413009643555,"w169":-0.5289252996444702,"w660":-0.2567291259765625,"w834":-0.15401802957057953,"w55":-0.11471963673830032,"w522":-0.08084846287965775,"w780":0.10611317306756973,"w521":0.15082597732543945,"w859":-0.2715553045272827,"w217":-0.08190145343542099,"w486":-0.14063365757465363,"w536":0.034322578459978104,"w783":0.07429544627666473,"w762":-0.10163959115743637,"w803":-0.4842764735221863,"w802":-0.2859232723712921,"w686":0.06821031868457794,"w804":-0.17907848954200745,"w805":-0.365191787481308,"w798":-0.2974088191986084,"w339":-0.13605792820453644,"w746":-0.39321908354759216,"w718":-0.03534621000289917,"w747":-0.09527478367090225,"w745":-0.1796717494726181,"w744":0.12135730683803558,"w813":-0.021970080211758614,"w353":0.021368062123656273,"w617":-0.30299609899520874,"w128":-0.21685151755809784,"w790":-0.17732003331184387,"w278":0.0895039513707161,"w636":0.04514152184128761,"w648":-0.06519102305173874,"w173":-0.10218103975057602,"w650":0.13411754369735718,"w867":0.10444294661283493,"w539":0.10751410573720932,"w1012":-0.12403574585914612,"w88":0.28988075256347656,"w666":0.21822986006736755,"w147":0.16046032309532166,"w64":-0.08247117698192596,"w665":-0.1462756097316742,"w146":0.08075465261936188,"w501":0.2964020073413849,"w723":0.17456279695034027,"w365":-0.12077643722295761}},"2":{"bias":-0.19833233952522278,"weights":{"w634":1.0043420791625977,"w994":-0.20219112932682037,"w341":-0.27912527322769165,"w160":0.05893977731466293,"w334":0.5025821328163147,"w964":0.552224338054657,"w57":0.1433197408914566,"w677":0.0464569590985775,"w1024":0.045698586851358414,"w151":0.13138052821159363,"w41":0.1972382813692093,"w112":0.2999497652053833,"w40":0.4905163049697876,"w810":-0.21480247378349304,"w297":0.10613363981246948,"w279":0.2653020918369293,"w410":0.014292311854660511,"w938":0.16176454722881317,"w330":0.1362563818693161,"w465":1.1478877067565918,"w452":-0.08750473707914352,"w463":0.218952015042305,"w1034":0.17713573575019836,"w857":0.22193647921085358,"w508":-0.01980038359761238,"w333":0.16405683755874634,"w447":-0.12676794826984406,"w1004":0.14765480160713196,"w992":0.07609356194734573,"w603":0.04149794206023216,"w397":0.022001061588525772,"w637":0.22402557730674744,"w627":0.6958913803100586,"w993":-0.040352750569581985,"w584":-0.03169557824730873,"w426":0.22962318360805511,"w351":-0.15642961859703064,"w401":0.1685102880001068,"w981":0.014301257207989693,"w256":-0.08254426717758179,"w478":0.054147232323884964,"w995":-0.09024877846240997,"w464":0.16834773123264313,"w821":-0.1390395313501358,"w417":0.25958117842674255,"w661":-0.06864502280950546,"w428":-0.13210508227348328,"w633":0.028685053810477257,"w479":-0.07384809851646423,"w209":0.12654945254325867,"w113":-0.026792757213115692,"w95":0.14981600642204285,"w855":0.10989408940076828,"w451":0.015834029763936996,"w227":0.15146589279174805,"w19":0.248594269156456,"w449":0.03582799434661865,"w1029":0.4859517812728882,"w492":0.46263155341148376,"w141":-0.0729074701666832,"w140":0.19388730823993683,"w830":0.283557653427124,"w1031":-0.3278304636478424,"w1028":-0.21357311308383942,"w1032":-0.08155160397291183,"w1030":0.12695778906345367,"w987":0.270006388425827,"w963":-0.1084015741944313,"w210":0.18728959560394287,"w352":0.463175892829895,"w263":-0.2244209200143814,"w456":0.30718886852264404,"w513":0.21982212364673615,"w635":0.31421786546707153,"w782":-1.1867504119873047,"w587":-0.8804879784584045,"w673":-0.22575004398822784,"w822":-0.7599008083343506,"w871":-0.11351539939641953,"w750":-0.23397669196128845,"w524":-0.8370054364204407,"w950":0.29173997044563293,"w311":-0.26728230714797974,"w295":-0.8876805901527405,"w159":-0.1676347851753235,"w937":-0.1616964042186737,"w178":-0.181069016456604,"w797":0.242811381816864,"w551":0.0867224708199501,"w923":-0.5057872533798218,"w966":-0.3516208529472351,"w823":0.011594687588512897,"w936":0.134103462100029,"w962":-0.15877003967761993,"w224":-0.7922526001930237,"w314":-0.3329954445362091,"w222":-0.7570928931236267,"w556":0.08587866276502609,"w462":-0.7296381592750549,"w786":-0.5929887890815735,"w223":-0.3739839494228363,"w579":0.08353091031312943,"w916":-0.2036595344543457,"w319":-0.10753356665372849,"w18":0.1329086571931839,"w154":0.28116005659103394,"w83":0.032026518136262894,"w861":0.1735512912273407,"w763":0.11781159788370132,"w155":0.14160555601119995,"w156":0.1208886206150055,"w115":0.1426742523908615,"w362":0.39111313223838806,"w114":0.14948590099811554,"w276":0.029915178194642067,"w706":0.02446310594677925,"w781":-0.10369930416345596,"w74":0.10133203864097595,"w612":0.054110635071992874,"w722":-0.3831135034561157,"w647":-0.8303704857826233,"w720":-0.4153093993663788,"w860":-0.08294595777988434,"w894":-0.20695072412490845,"w236":-0.5580123066902161,"w515":-0.4520891606807709,"w669":-0.20532476902008057,"w951":-0.00007313983223866671,"w542":0.01319606602191925,"w982":-0.41437360644340515,"w840":-0.027665279805660248,"w388":0.022471468895673752,"w321":0.021816227585077286,"w188":0.18384809792041779,"w1008":0.058969952166080475,"w65":-0.6347449421882629,"w688":-0.4087057411670685,"w632":-0.16897401213645935,"w671":-0.3725256621837616,"w120":-0.1855979859828949,"w191":-0.13872981071472168,"w487":-0.091799795627594,"w749":-0.09461221843957901,"w67":-0.18022200465202332,"w672":-0.22169533371925354,"w597":-0.021640658378601074,"w979":-0.09420862048864365,"w578":-0.08443428575992584,"w945":-0.061993468552827835,"w598":-0.29096266627311707,"w1006":0.17165300250053406,"w1001":-0.09046964347362518,"w873":-0.1264849156141281,"w1027":0.058152299374341965,"w927":0.17505620419979095,"w455":-0.19044171273708344,"w480":0.3077186346054077,"w768":-0.03372997045516968,"w928":-0.20139235258102417,"w591":0.2692860960960388,"w1025":-0.11294128745794296,"w595":0.5139779448509216,"w43":0.23744282126426697,"w418":-0.15006360411643982,"w535":0.07507815957069397,"w931":0.14777052402496338,"w470":0.08530502766370773,"w82":0.11994395405054092,"w752":-0.05285382270812988,"w716":-0.013312996365129948,"w60":0.1540854275226593,"w87":0.2507247030735016,"w1003":0.13641150295734406,"w698":0.11634471267461777,"w275":0.15425632894039154,"w893":0.03186900168657303,"w816":-0.14686156809329987,"w29":0.13457147777080536,"w49":0.04596439376473427,"w414":-0.030474534258246422,"w372":-0.05497937649488449,"w165":-0.05433332547545433,"w534":0.1273956298828125,"w138":0.011032810434699059,"w767":-0.0470767505466938,"w284":-0.12766778469085693,"w50":-0.010668875649571419,"w375":-0.15330438315868378,"w387":0.12474854290485382,"w376":-0.019330931827425957,"w349":0.08008182048797607,"w443":-0.04065763205289841,"w957":0.08866676688194275,"w454":-0.25693798065185547,"w771":0.5297830104827881,"w789":0.14703647792339325,"w729":0.3624911904335022,"w727":0.3791314661502838,"w185":-0.03998982906341553,"w482":-0.062068257480859756,"w1018":0.18087980151176453,"w229":0.03594907000660896,"w81":0.35670408606529236,"w32":0.6507958769798279,"w725":0.13514640927314758,"w731":0.31891247630119324,"w732":0.39657241106033325,"w726":0.297091543674469,"w710":0.2028028666973114,"w97":-0.03591613844037056,"w544":0.08066680282354355,"w489":0.26467573642730713,"w34":0.24827347695827484,"w620":0.14659197628498077,"w9":0.31242409348487854,"w567":-0.002800970571115613,"w1":0.24094611406326294,"w566":-0.12010891735553741,"w58":0.1029176339507103,"w730":0.1828809529542923,"w728":0.030743414536118507,"w243":-0.30159953236579895,"w499":0.1616114228963852,"w304":-0.12473328411579132,"w406":-0.05513634905219078,"w555":0.2138715237379074,"w903":0.40952038764953613,"w775":0.17777100205421448,"w978":0.22497844696044922,"w843":0.05434843525290489,"w959":0.14023377001285553,"w425":0.08029662072658539,"w911":-0.07092870026826859,"w35":0.12425195425748825,"w33":0.15835419297218323,"w36":-0.046434562653303146,"w577":0.13903066515922546,"w78":-0.006585768423974514,"w439":0.216172993183136,"w11":-0.15946702659130096,"w38":0.06783445179462433,"w130":0.08640005439519882,"w602":0.10941328853368759,"w335":-0.15853741765022278,"w340":0.17352494597434998,"w654":-0.5648598670959473,"w408":0.07662098854780197,"w421":-0.1693142205476761,"w483":-0.01812741346657276,"w919":0.37369826436042786,"w773":0.0793268159031868,"w383":0.05434401333332062,"w260":0.012287656776607037,"w101":-0.05674400553107262,"w419":-0.011706957593560219,"w546":0.23766742646694183,"w920":0.05378275737166405,"w921":0.03205811604857445,"w918":0.20420955121517181,"w917":0.1550372838973999,"w1019":-0.015583815984427929,"w389":0.09116235375404358,"w554":0.7101086378097534,"w175":0.5447481870651245,"w102":0.27136772871017456,"w770":0.16005004942417145,"w420":0.0980263277888298,"w253":0.10018526017665863,"w484":-0.053051918745040894,"w39":-0.1283504217863083,"w347":0.10649698227643967,"w337":-0.17413249611854553,"w432":0.07874338328838348,"w999":0.1691446304321289,"w242":-0.2870466113090515,"w610":-0.16313201189041138,"w1013":0.015964090824127197,"w75":-0.0979928970336914,"w20":-0.16486169397830963,"w793":-0.23060864210128784,"w90":-0.18083806335926056,"w100":0.03874433413147926,"w21":0.03582683950662613,"w446":-0.1138368621468544,"w56":-0.05476807430386543,"w814":-0.008176334202289581,"w415":-0.004458807874470949,"w530":-0.22892430424690247,"w51":0.2789327800273895,"w270":0.1889639049768448,"w549":-0.11697767674922943,"w12":-0.022279871627688408,"w667":-0.07691138982772827,"w440":0.14555875957012177,"w474":-0.1525317281484604,"w257":-0.14559146761894226,"w766":0.012503568083047867,"w623":-0.1201937198638916,"w282":0.12280856817960739,"w111":-0.046316858381032944,"w590":-0.06238124519586563,"w198":-0.12243736535310745,"w886":-0.3364056646823883,"w582":-0.14731918275356293,"w1026":0.25750893354415894,"w842":0.4433727562427521,"w250":0.20557434856891632,"w958":0.23414303362369537,"w404":0.08844199031591415,"w845":0.08736339956521988,"w92":0.10893137007951736,"w646":-0.06672031432390213,"w89":-0.0049232495948672295,"w592":0.09265472739934921,"w15":0.028932340443134308,"w327":0.10700637847185135,"w1015":-0.043738462030887604,"w933":-0.033611878752708435,"w395":0.12239577621221542,"w281":0.11873094737529755,"w230":0.013771711848676205,"w929":-0.048569172620773315,"w642":-0.03366713225841522,"w315":0.0319957472383976,"w108":0.1292041838169098,"w614":0.24607840180397034,"w865":0.08006171137094498,"w79":0.08832624554634094,"w453":0.17930437624454498,"w985":-0.03886028751730919,"w394":-0.09485545009374619,"w880":0.018827637657523155,"w656":0.09925360232591629,"w743":0.19195812940597534,"w380":0.024109695106744766,"w316":0.07497330009937286,"w218":-0.10970737785100937,"w944":0.06939240545034409,"w117":0.17349085211753845,"w104":0.13496553897857666,"w405":-0.15388861298561096,"w619":0.11263857781887054,"w103":0.1621832549571991,"w707":-0.07073437422513962,"w393":0.027826843783259392,"w262":0.0011659772135317326,"w416":-0.25618207454681396,"w905":-0.16029468178749084,"w286":-0.14728227257728577,"w105":-0.14955158531665802,"w106":-0.15945322811603546,"w99":-0.0003963010385632515,"w310":-0.01756361499428749,"w359":-0.24941164255142212,"w604":0.0763733983039856,"w318":-0.038891736418008804,"w461":-0.33401796221733093,"w502":-0.19403408467769623,"w107":-0.09794165194034576,"w537":-0.19314691424369812,"w448":0.01644599810242653,"w764":0.09996960312128067,"w531":0.21875979006290436,"w616":0.1184297651052475,"w249":0.26947247982025146,"w576":-0.16066542267799377,"w460":0.14450141787528992,"w285":-0.24874992668628693,"w481":0.1263025552034378,"w942":0.0548667311668396,"w149":0.17472168803215027,"w162":0.18258166313171387,"w246":-0.4286625385284424,"w908":-0.08322484791278839,"w765":0.04108414426445961,"w761":-0.2121698260307312,"w288":-0.09909986704587936,"w119":0.1183946281671524,"w228":-0.1254509687423706,"w854":0.07137462496757507,"w170":-0.2548232078552246,"w358":-0.14604081213474274,"w954":-0.09086187183856964,"w849":0.061747487634420395,"w356":-0.2248920351266861,"w238":0.14275744557380676,"w466":-0.023680657148361206,"w271":0.044708605855703354,"w1010":-0.17464251816272736,"w357":0.033285953104496,"w355":-0.06265264004468918,"w14":-0.04631725698709488,"w231":-0.056282926350831985,"w274":-0.10992072522640228,"w961":-0.20810183882713318,"w683":-0.12404342740774155,"w136":0.007577011361718178,"w651":-0.12729626893997192,"w329":0.4820518493652344,"w832":0.444474458694458,"w148":0.017530614510178566,"w226":-0.030273819342255592,"w742":0.12906724214553833,"w741":0.2192171961069107,"w1014":0.4236522316932678,"w233":-0.4205045998096466,"w42":0.2752348780632019,"w145":0.27770867943763733,"w831":0.2262953370809555,"w204":0.13366439938545227,"w331":0.09424947947263718,"w833":0.07718714326620102,"w328":0.11038917303085327,"w139":0.32885828614234924,"w943":0.04988845810294151,"w166":0.8046578168869019,"w158":0.3913472592830658,"w772":0.1800050586462021,"w557":0.14018870890140533,"w538":-0.040039435029029846,"w163":-0.09883464127779007,"w168":-0.021414179354906082,"w294":-0.03454126790165901,"w829":-0.056524716317653656,"w695":0.1373247653245926,"w490":0.2491663694381714,"w733":0.24336667358875275,"w858":0.002377462340518832,"w325":-0.11540398001670837,"w290":0.1239275261759758,"w640":0.30385494232177734,"w678":-0.10970570147037506,"w696":0.009782313369214535,"w485":-0.14178040623664856,"w870":-0.07118270546197891,"w699":-0.7515220046043396,"w953":-0.4916764497756958,"w167":0.18720461428165436,"w694":-0.2201732099056244,"w700":-0.04709902033209801,"w94":-0.10008271038532257,"w787":-0.5259600877761841,"w757":0.08328363299369812,"w219":0.3373260200023651,"w622":-0.8973042964935303,"w220":-0.1369192898273468,"w516":-0.1573939323425293,"w143":-0.26821041107177734,"w517":-0.6176621913909912,"w839":0.04145924001932144,"w792":-0.32199379801750183,"w788":-0.2655927240848541,"w44":-0.19227634370326996,"w691":-0.5337123274803162,"w518":0.08065880835056305,"w66":0.10949772596359253,"w309":0.04547889530658722,"w412":-0.7008633613586426,"w644":-0.2874448895454407,"w215":-0.4585712254047394,"w615":-0.1406107097864151,"w571":-0.45785367488861084,"w411":0.07899169623851776,"w413":-0.13863973319530487,"w613":0.1015654131770134,"w791":-0.4376651346683502,"w643":0.15283216536045074,"w438":-0.20932258665561676,"w307":0.01972484029829502,"w974":0.8105505108833313,"w972":0.38410478830337524,"w965":0.26622265577316284,"w841":-0.03402646258473396,"w255":0.10771321505308151,"w973":0.14945994317531586,"w975":0.2695092558860779,"w402":-0.07418742030858994,"w506":-0.19285814464092255,"w876":0.32345253229141235,"w164":-0.16583004593849182,"w692":0.0067404694855213165,"w157":-0.19907212257385254,"w687":0.005927689373493195,"w877":0.016094360500574112,"w879":0.03377695381641388,"w878":0.23833073675632477,"w507":-0.048143234103918076,"w794":0.04855181649327278,"w153":-0.16214624047279358,"w85":-0.25464925169944763,"w450":-0.05320538207888603,"w1035":-0.0781116634607315,"w300":-0.10282783955335617,"w599":-0.08885187655687332,"w80":0.000032140429539140314,"w182":-0.07440084964036942,"w183":-0.08896031230688095,"w301":-0.4516570568084717,"w293":-0.4183904230594635,"w639":-0.01558623369783163,"w596":0.05123981088399887,"w131":-0.003068887395784259,"w324":0.005071587860584259,"w291":0.421272337436676,"w1016":-0.025525642558932304,"w913":0.08730795979499817,"w184":-0.18921755254268646,"w296":0.2840544879436493,"w237":0.18332745134830475,"w600":0.15955986082553864,"w259":0.23128654062747955,"w882":-0.0816112533211708,"w618":0.08843832463026047,"w211":0.2425476461648941,"w715":0.17035596072673798,"w645":0.31123483180999756,"w980":-0.10805551707744598,"w213":0.568283200263977,"w734":0.41096511483192444,"w264":0.48879411816596985,"w922":0.1771983802318573,"w477":0.12028676271438599,"w881":0.07998012006282806,"w939":0.2079814374446869,"w214":0.15588174760341644,"w212":0.043001290410757065,"w361":0.27007344365119934,"w949":0.10487110167741776,"w668":0.15175625681877136,"w697":-0.09986890107393265,"w519":-0.7237697839736938,"w441":-0.6016712188720703,"w299":-0.46371954679489136,"w560":0.14954914152622223,"w708":0.29695814847946167,"w526":-0.07466932386159897,"w655":-0.22660495340824127,"w702":-0.29431822896003723,"w736":0.4249619245529175,"w144":-0.10237476229667664,"w73":-0.04711323603987694,"w735":0.25600436329841614,"w737":0.2671286463737488,"w630":-0.016682321205735207,"w467":0.40785256028175354,"w403":-0.14698347449302673,"w68":0.18252408504486084,"w179":-0.1509021520614624,"w201":0.06072030961513519,"w570":0.20520684123039246,"w631":-0.03607631102204323,"w605":0.18500517308712006,"w292":0.23583295941352844,"w509":-0.37713319063186646,"w171":-0.09376475214958191,"w533":-0.5200511813163757,"w232":-0.6492794156074524,"w503":0.0052160099148750305,"w806":-0.13778896629810333,"w298":-0.32871004939079285,"w367":0.1140652671456337,"w377":-0.07058437913656235,"w116":-0.09589911252260208,"w267":-0.01965603232383728,"w611":0.19524113833904266,"w25":0.1949479877948761,"w1023":0.1777518093585968,"w348":0.11725834757089615,"w308":-0.047102998942136765,"w594":0.2759702503681183,"w593":0.12790730595588684,"w350":-0.1387069970369339,"w430":-0.2683698534965515,"w47":-0.17954544723033905,"w93":0.17977690696716309,"w118":0.05465136840939522,"w984":0.1721615344285965,"w853":0.17790736258029938,"w371":-0.0679793432354927,"w381":0.032563913613557816,"w369":-0.20776687562465668,"w379":-0.0940968245267868,"w382":-0.08875501900911331,"w580":-0.1477411985397339,"w323":-0.13315044343471527,"w852":0.13842174410820007,"w846":-0.03525646775960922,"w385":0.01817057654261589,"w386":-0.047285109758377075,"w378":0.0320267528295517,"w398":-0.003739898093044758,"w368":-0.09703032672405243,"w370":0.12769514322280884,"w245":-0.05615917220711708,"w248":0.1928606629371643,"w429":-0.1408548355102539,"w121":0.143523707985878,"w338":0.08347601443529129,"w784":0.16921508312225342,"w863":0.16794812679290771,"w134":0.10368286073207855,"w868":0.31431299448013306,"w37":0.008997770957648754,"w562":0.12882979214191437,"w142":0.18151725828647614,"w629":0.09026762843132019,"w621":0.25244948267936707,"w564":0.01006415393203497,"w122":0.15986615419387817,"w123":0.12364336848258972,"w342":0.23061415553092957,"w1017":-0.14265771210193634,"w135":-0.09269436448812485,"w495":-0.19073586165905,"w344":-0.15197628736495972,"w864":0.26005348563194275,"w662":0.199911430478096,"w641":0.20945097506046295,"w807":-0.009835638105869293,"w628":0.17291206121444702,"w891":-0.11507843434810638,"w283":0.294390469789505,"w824":-0.06670496612787247,"w948":0.22928649187088013,"w608":-0.3188208341598511,"w336":0.14564679563045502,"w494":0.07004839181900024,"w887":-0.37005576491355896,"w221":-0.004406524356454611,"w800":-0.31485652923583984,"w527":-0.22993868589401245,"w896":-0.10028494149446487,"w898":-0.21350029110908508,"w940":-0.06996851414442062,"w901":-0.3516268730163574,"w888":-0.31960514187812805,"w895":-0.20760783553123474,"w884":-0.18374194204807281,"w46":0.12161436676979065,"w373":0.10954710841178894,"w930":0.09183962643146515,"w977":0.03226134553551674,"w541":0.13742566108703613,"w346":-0.02399037592113018,"w932":-0.20873968303203583,"w717":-0.16828738152980804,"w374":0.1645887792110443,"w890":-0.09117577970027924,"w889":-0.03661489859223366,"w897":-0.24406801164150238,"w400":0.22135449945926666,"w17":0.07084733992815018,"w472":0.6240814924240112,"w983":-0.04369084909558296,"w769":0.15647390484809875,"w86":0.13071341812610626,"w941":0.01355449203401804,"w986":0.08922987431287766,"w904":0.050052206963300705,"w476":0.3101339340209961,"w988":0.19748511910438538,"w190":0.16591425240039825,"w909":0.3201829791069031,"w195":0.5867932438850403,"w866":-0.031043654307723045,"w196":0.29291415214538574,"w194":-0.19800418615341187,"w305":-0.04068685322999954,"w96":-0.11235802620649338,"w332":0.17493413388729095,"w989":0.7857637405395508,"w399":0.2141791731119156,"w302":0.03296063095331192,"w547":0.38348159193992615,"w442":0.1190488263964653,"w709":0.5635322332382202,"w61":0.16401119530200958,"w874":0.04635186493396759,"w473":0.08196837455034256,"w320":0.08872730284929276,"w885":0.17026185989379883,"w427":0.028444740921258926,"w991":0.06403422355651855,"w1000":0.04654115438461304,"w990":0.04203241690993309,"w436":-0.640646755695343,"w491":-0.17481575906276703,"w161":-0.3653700649738312,"w550":-0.36174577474594116,"w847":-0.2961156666278839,"w360":-0.11062417924404144,"w62":-0.33981651067733765,"w435":-0.30214598774909973,"w437":-0.3636583685874939,"w872":0.24203932285308838,"w354":-0.06918729096651077,"w606":0.8080694675445557,"w459":0.7048770785331726,"w912":0.16723407804965973,"w364":0.2843722403049469,"w110":0.023546725511550903,"w869":0.0652608871459961,"w251":0.33639562129974365,"w607":0.25815796852111816,"w625":0.404701292514801,"w363":0.29971057176589966,"w269":-0.10688000917434692,"w952":-0.18371352553367615,"w924":-0.028593257069587708,"w125":0.033606089651584625,"w3":0.15159671008586884,"w679":0.17191354930400848,"w23":0.041579511016607285,"w585":0.17252963781356812,"w5":0.08756761997938156,"w8":-0.006778420880436897,"w234":0.19569505751132965,"w384":0.27077800035476685,"w53":0.23920482397079468,"w434":0.18897618353366852,"w565":-0.1092386394739151,"w127":0.22333219647407532,"w545":0.11186478286981583,"w819":0.20929010212421417,"w433":0.0995141789317131,"w624":0.05964237451553345,"w129":0.15323127806186676,"w124":0.21619214117527008,"w126":0.2910195589065552,"w703":0.11521489173173904,"w24":0.14949125051498413,"w906":-0.13998618721961975,"w235":0.2210930734872818,"w844":-0.09356139600276947,"w471":0.09063510596752167,"w2":0.1391759067773819,"w10":0.05176712945103645,"w4":-0.05007588118314743,"w475":0.006474054418504238,"w563":-0.1430128514766693,"w469":0.14160045981407166,"w468":0.0935712680220604,"w561":0.17791442573070526,"w287":0.20400643348693848,"w559":0.01987624168395996,"w137":-0.01843518391251564,"w280":0.3176080882549286,"w685":-0.023131204769015312,"w458":-0.1386028230190277,"w512":-0.06595180183649063,"w317":0.09608779102563858,"w946":-0.03930722922086716,"w174":0.24429568648338318,"w558":0.20053143799304962,"w396":0.19316242635250092,"w7":0.03560080751776695,"w176":0.09598901867866516,"w947":-0.05341217666864395,"w177":-0.0049600983038544655,"w956":-0.00303347478620708,"w409":0.18077686429023743,"w240":0.19314080476760864,"w759":0.33278688788414,"w187":0.10366348922252655,"w273":0.26376548409461975,"w714":0.3679807782173157,"w266":-0.024263808503746986,"w239":0.43319451808929443,"w322":0.04827473685145378,"w265":0.20159874856472015,"w189":0.1402267962694168,"w186":0.16042734682559967,"w758":0.19803796708583832,"w684":0.12892313301563263,"w303":0.0730949193239212,"w574":-0.003920526709407568,"w200":0.1437218189239502,"w28":-0.01943855918943882,"w892":-0.1383364349603653,"w312":-0.014699705876410007,"w998":-0.05972863361239433,"w390":0.1651000827550888,"w0":0.22839558124542236,"w996":-0.13902117311954498,"w664":0.058618176728487015,"w575":0.06786803156137466,"w444":0.07703425735235214,"w247":0.16239584982395172,"w192":-0.03707348555326462,"w653":0.07412725687026978,"w6":0.13232232630252838,"w202":-0.1368756890296936,"w197":0.33688899874687195,"w63":-0.02779991924762726,"w181":0.2666928172111511,"w150":-0.2079935520887375,"w862":0.295134574174881,"w902":0.1726645976305008,"w1020":-0.056838877499103546,"w724":0.10932271927595139,"w254":-0.04007430374622345,"w199":0.12284538894891739,"w496":-0.08860710263252258,"w960":0.10839542746543884,"w272":0.126103475689888,"w98":-0.06785660982131958,"w244":0.1988976150751114,"w180":0.03432910144329071,"w955":0.36513206362724304,"w268":-0.10282965004444122,"w289":0.12878763675689697,"w543":0.1570005863904953,"w925":-0.09775831550359726,"w1005":-0.10569654405117035,"w760":-0.07992243766784668,"w1022":0.15365289151668549,"w997":-0.27486810088157654,"w573":-0.18362490832805634,"w926":0.10070192068815231,"w850":-0.19943749904632568,"w1007":0.10349088907241821,"w910":0.09589113295078278,"w488":0.09886542707681656,"w206":0.3611706495285034,"w1011":0.4105148911476135,"w552":0.2919127941131592,"w207":0.46515461802482605,"w205":-0.01034535001963377,"w208":0.6358236074447632,"w553":0.4974479079246521,"w277":-0.10090763866901398,"w225":-0.0010452669812366366,"w48":-0.03505412116646767,"w967":0.40967991948127747,"w675":-0.31962230801582336,"w748":-0.1721162647008896,"w674":-0.04089277237653732,"w172":-0.024057576432824135,"w510":-0.0754060447216034,"w313":-0.8076538443565369,"w77":-0.29701921343803406,"w801":-0.09515328705310822,"w649":-0.13508373498916626,"w680":0.03494148701429367,"w681":-0.4172801375389099,"w504":0.05047648772597313,"w511":0.05064115300774574,"w701":-0.3018918037414551,"w934":-0.03264916315674782,"w500":0.016227813437581062,"w366":-0.19918562471866608,"w820":0.060393188148736954,"w586":-0.2892650067806244,"w343":-0.2202892154455185,"w392":0.11169621348381042,"w523":-0.038753852248191833,"w721":0.11963453888893127,"w22":-0.023080604150891304,"w601":-0.2095927596092224,"w540":0.030821267515420914,"w658":0.06823677569627762,"w836":-0.2444969117641449,"w391":0.18248769640922546,"w755":-0.2168329954147339,"w424":0.03661193698644638,"w756":0.1288793683052063,"w753":0.1496180146932602,"w899":-0.028897788375616074,"w875":-0.017495105043053627,"w657":0.21744270622730255,"w659":0.07702554762363434,"w652":0.23026245832443237,"w976":0.09684747457504272,"w572":0.05528244003653526,"w109":0.22490273416042328,"w900":-0.14034846425056458,"w216":0.10702120512723923,"w84":0.16847127676010132,"w914":-0.47724902629852295,"w811":-0.4789714813232422,"w26":0.0019133213208988309,"w258":-0.07246608287096024,"w609":0.03629679977893829,"w626":-0.12942862510681152,"w812":0.03958863765001297,"w27":0.1668214350938797,"w252":-0.1428273767232895,"w306":-0.23016558587551117,"w13":-0.1337386816740036,"w72":-0.06983920186758041,"w740":-0.11064774543046951,"w663":-0.15429361164569855,"w690":-0.30487996339797974,"w689":0.0006202311487868428,"w91":-0.01931902952492237,"w505":-0.061800241470336914,"w751":-0.2125532627105713,"w76":0.14052961766719818,"w431":-0.04932284727692604,"w883":-0.0651295855641365,"w1009":0.06786325573921204,"w828":1.3667770624160767,"w827":0.16608461737632751,"w826":0.28397247195243835,"w851":0.08958159387111664,"w45":-0.19278153777122498,"w738":-0.28186583518981934,"w525":-0.16437512636184692,"w569":-0.1418241262435913,"w59":0.16387860476970673,"w457":0.11572326719760895,"w739":-0.2876411974430084,"w193":-0.2150731235742569,"w1021":0.012186453677713871,"w799":-0.046520642936229706,"w711":0.12907403707504272,"w568":0.08171970397233963,"w712":-0.13895393908023834,"w676":-0.07108622044324875,"w241":0.04870869591832161,"w638":-0.016138125211000443,"w915":-0.00718813668936491,"w856":0.11473343521356583,"w31":0.13871602714061737,"w713":0.14726103842258453,"w785":-0.09798529744148254,"w907":0.09184090793132782,"w778":-0.12179336696863174,"w133":0.02251437120139599,"w776":-0.40198129415512085,"w514":-0.05319225788116455,"w493":-0.07596911489963531,"w670":-0.015872543677687645,"w498":-0.1766626387834549,"w796":-0.1077459305524826,"w815":0.026149457320570946,"w777":-0.17110154032707214,"w779":-0.04323551431298256,"w774":0.0062611885368824005,"w497":0.006451275199651718,"w1002":-0.09452713280916214,"w345":-0.028251927345991135,"w969":0.08926141262054443,"w407":0.09730299562215805,"w529":0.2809566557407379,"w935":0.16727657616138458,"w69":-0.023600831627845764,"w70":-0.10327775776386261,"w54":0.07137438654899597,"w1036":0.11587252467870712,"w528":-0.08379469811916351,"w71":0.003118836088106036,"w825":-0.020803650841116905,"w132":0.11309786885976791,"w693":0.10105768591165543,"w968":0.24044500291347504,"w970":-0.056061845272779465,"w971":-0.021566450595855713,"w548":0.09238063544034958,"w848":-0.12878084182739258,"w30":-0.09095790237188339,"w422":0.13065552711486816,"w704":0.27183061838150024,"w423":-0.0018506922060623765,"w682":0.17314794659614563,"w203":-0.3877735435962677,"w705":-0.40426960587501526,"w445":-0.2757548987865448,"w817":-0.12674246728420258,"w326":0.010736368596553802,"w532":-0.1017487496137619,"w719":-0.14100730419158936,"w818":-0.1192438080906868,"w588":0.5093235373497009,"w808":0.36680668592453003,"w152":-0.008795422501862049,"w809":0.14338885247707367,"w1033":0.31231585144996643,"w52":-0.15146635472774506,"w583":-0.019169418141245842,"w589":0.2556688189506531,"w581":0.17941059172153473,"w795":0.15086601674556732,"w754":-0.06065989285707474,"w837":-0.07219124585390091,"w838":0.09609468281269073,"w835":0.09365198016166687,"w261":0.12418761104345322,"w16":-0.09557879716157913,"w520":-0.7502198815345764,"w169":-0.5000726580619812,"w660":-0.45929449796676636,"w834":-0.06556963175535202,"w55":-0.06637230515480042,"w522":-0.5938835144042969,"w780":0.08888787031173706,"w521":-0.18242698907852173,"w859":-0.4285762906074524,"w217":0.08419555425643921,"w486":-0.2687615752220154,"w536":-0.02437341772019863,"w783":-0.18577571213245392,"w762":0.07849331945180893,"w803":-0.3728090822696686,"w802":0.0032554175704717636,"w686":-0.5492122173309326,"w804":-0.10844573378562927,"w805":-0.09213636815547943,"w798":-0.04449690133333206,"w339":0.0007288464694283903,"w746":-1.0241985321044922,"w718":-0.9262263178825378,"w747":-0.3173425495624542,"w745":-0.8451629281044006,"w744":-0.07612165063619614,"w813":-0.094334676861763,"w353":-0.1457168310880661,"w617":0.3135329484939575,"w128":0.10036561638116837,"w790":0.1810595542192459,"w278":0.05669528990983963,"w636":0.34027352929115295,"w648":0.08281984180212021,"w173":0.07734303921461105,"w650":0.15331442654132843,"w867":0.011615827679634094,"w539":0.2046457976102829,"w1012":-0.015530097298324108,"w88":-0.742179811000824,"w666":-0.16348694264888763,"w147":-0.6616896986961365,"w64":-0.23112311959266663,"w665":0.02094101533293724,"w146":-0.41814902424812317,"w501":0.11272691935300827,"w723":0.06603438407182693,"w365":0.14806342124938965}},"3":{"bias":0.11637968569993973,"weights":{"w634":-0.224704310297966,"w994":-0.2552269995212555,"w341":-0.3176177740097046,"w160":-0.2649044692516327,"w334":-0.3385675549507141,"w964":-0.307129442691803,"w57":-0.014410474337637424,"w677":0.04371858760714531,"w1024":-0.2426811307668686,"w151":0.3392576277256012,"w41":0.011519617401063442,"w112":0.09647594392299652,"w40":-0.23789677023887634,"w810":0.08329218626022339,"w297":-0.19270914793014526,"w279":-0.10019930452108383,"w410":-0.16808541119098663,"w938":0.027374710887670517,"w330":-0.08600939810276031,"w465":-0.10159807652235031,"w452":-0.01929483748972416,"w463":-0.12009312212467194,"w1034":0.043995119631290436,"w857":-0.21121478080749512,"w508":-0.18593060970306396,"w333":-0.3399450182914734,"w447":0.17431031167507172,"w1004":-0.013439267873764038,"w992":-0.06692345440387726,"w603":-0.1484326422214508,"w397":-0.2658429741859436,"w637":0.059689488261938095,"w627":-0.13087628781795502,"w993":-0.13405881822109222,"w584":0.10746996104717255,"w426":0.14428064227104187,"w351":-0.2556479275226593,"w401":-0.05927639827132225,"w981":0.0994102954864502,"w256":0.01700960099697113,"w478":0.029629504308104515,"w995":-0.03526895120739937,"w464":0.13927984237670898,"w821":0.19514617323875427,"w417":0.17580124735832214,"w661":0.11989197880029678,"w428":0.083819180727005,"w633":-0.1348453313112259,"w479":0.3194710314273834,"w209":-0.1070283055305481,"w113":0.2619260251522064,"w95":0.16194038093090057,"w855":0.2050461620092392,"w451":0.13670732080936432,"w227":0.13655853271484375,"w19":-0.3057730197906494,"w449":0.09885253757238388,"w1029":0.03190255165100098,"w492":-0.2111976444721222,"w141":-0.09032360464334488,"w140":0.17348963022232056,"w830":0.12154906243085861,"w1031":-0.10176379233598709,"w1028":0.014786872081458569,"w1032":-0.17872761189937592,"w1030":0.1062881350517273,"w987":0.09541215747594833,"w963":-0.09260468930006027,"w210":0.11574554443359375,"w352":-0.0968957245349884,"w263":0.21739298105239868,"w456":0.06530214846134186,"w513":-0.06126037612557411,"w635":-0.23478318750858307,"w782":-0.18396610021591187,"w587":0.178212970495224,"w673":0.11531087011098862,"w822":0.1044885516166687,"w871":0.048736367374658585,"w750":0.15578457713127136,"w524":0.4952086806297302,"w950":0.07354045659303665,"w311":0.24859552085399628,"w295":-0.0018441431457176805,"w159":0.023929188027977943,"w937":0.24151206016540527,"w178":0.07592342048883438,"w797":0.031012119725346565,"w551":0.13097120821475983,"w923":0.1654152274131775,"w966":0.28313592076301575,"w823":0.3223855495452881,"w936":0.13026081025600433,"w962":0.12850528955459595,"w224":0.10772977024316788,"w314":0.24228647351264954,"w222":0.2299681007862091,"w556":-0.12248736619949341,"w462":0.16249944269657135,"w786":0.2400760054588318,"w223":-0.07703279703855515,"w579":0.05626681447029114,"w916":0.029956990852952003,"w319":0.05937957391142845,"w18":0.09006837010383606,"w154":0.21035559475421906,"w83":0.28738918900489807,"w861":0.11412500590085983,"w763":-0.21585483849048615,"w155":0.23906448483467102,"w156":0.11907686293125153,"w115":0.21985077857971191,"w362":-0.09757989645004272,"w114":-0.07234226912260056,"w276":-0.02419997751712799,"w706":-0.06552489846944809,"w781":0.0643039420247078,"w74":0.25834035873413086,"w612":-0.007884703576564789,"w722":0.35534536838531494,"w647":0.22766415774822235,"w720":0.02974882908165455,"w860":0.08023309707641602,"w894":-0.4038490653038025,"w236":-0.12453898042440414,"w515":0.032202545553445816,"w669":-0.2088121920824051,"w951":0.21886807680130005,"w542":0.14635919034481049,"w982":0.14272169768810272,"w840":-0.17420735955238342,"w388":-0.04411996901035309,"w321":-0.011611021123826504,"w188":-0.028642356395721436,"w1008":0.0612686350941658,"w65":0.11753135174512863,"w688":0.006133113522082567,"w632":-0.12596654891967773,"w671":0.03169193118810654,"w120":0.00907666701823473,"w191":-0.10676176100969315,"w487":-0.17203299701213837,"w749":-0.04878948628902435,"w67":0.01727653294801712,"w672":-0.243068665266037,"w597":-0.07639669626951218,"w979":-0.3001862168312073,"w578":0.08975576609373093,"w945":0.2432321161031723,"w598":0.21040916442871094,"w1006":-0.37273484468460083,"w1001":-0.31545716524124146,"w873":0.03240903839468956,"w1027":0.016561944037675858,"w927":-0.015317770652472973,"w455":-0.31369322538375854,"w480":-0.4386822581291199,"w768":0.4335162043571472,"w928":0.12072287499904633,"w591":0.25729939341545105,"w1025":-0.05001334846019745,"w595":-0.13923850655555725,"w43":0.06379827111959457,"w418":-0.09805161505937576,"w535":0.20810063183307648,"w931":-0.18633928894996643,"w470":-0.1940668225288391,"w82":0.14555223286151886,"w752":0.08119048178195953,